{"generation": 2000, "population": [{"input_nodes": 12, "first_hidden_nodes": 16, "second_hidden_nodes": 16, "output_nodes": 4, "weights_ih1": [[4.1352231400061665, -0.4317780254799984, -2.8617020528607497, 3.350386849595668, 1.0029183635458276, 1.61217433067659, 0.6789573255825546, -0.3892307146900392, -1.8219051873020247, -1.1295460753715392, -0.4733306026872789, 1.9904816659640727], [-2.308125121756089, 0.8954170050394077, -0.6882320371888886, 2.310600463048859, -1.5213293036292932, 1.500142494694582, 0.66790259177488, 0.1126173088767221, 4.176971344290566, 4.127547024970382, 2.7017051512394628, -0.05395183395103033], [4.684076526984013, 3.4384291132140015, -5.037399564463975, 0.2966175004025065, 4.131397358888323, 1.5514645413364732, -1.1659155777674994, 1.773614153432194, -1.8889954390823145, 2.967431853621739, -0.3709320323200879, 2.3144204386014913], [0.16834459969053092, 1.3003800948191853, -0.39928955837415947, -1.4806118961122345, -1.9133436589963493, -0.10118265492523677, -0.9486701568748912, 1.5174970248675528, 2.0585408844904993, 1.9348075898898034, 0.5390247625590878, 2.1143170383784042], [-1.3439609321193047, -4.81280214868702, 0.894573597339378, 0.3923892421051717, 0.12396650388123767, 1.8576637747687386, -0.09670728798915632, -0.19672422036362325, 1.0481918218465018, 1.7053211510511317, -0.4636024025286566, 1.895416665249483], [1.5319121745074482, 2.2825587891800496, -1.7501067298113961, 0.023001190452079087, 0.4797219523745914, -0.7784834312415952, 5.3044806941688645, -0.6846826186902697, 0.8608151649070646, 4.635299470364057, -0.028599532400250597, 0.1358085250413535], [-0.597913633071504, -3.316946230778349, 0.8243617679359315, 0.34465935444903295, -1.105071628498167, -1.511465982413393, -0.23012990837524355, -0.37848258160899423, 2.727047268825462, -1.1344819122502847, 0.4096306207473396, -4.734955190330831], [1.6819412840474501, 0.26100868008745887, -2.889215119668683, 2.511363301178858, 3.1284761516175625, -2.0815461086308025, 1.2837607355746135, 2.1836968543820325, 2.384729537677331, 3.521755994781696, 1.1224184191065816, -3.3955045852847], [1.1056022919451662, 2.674844630334537, 1.383616168961223, -1.0311214668802096, 1.188182530303123, -1.9138331779617896, -0.6261771371668582, 2.1736835839625313, 0.5642915183459963, -2.88643080225172, 1.551032641340685, 0.9937754560093883], [0.7431145049897927, 4.93049893493786, 0.35694820880182904, -1.035939705094313, 0.012072364444858874, 0.42543713935764604, -0.2593957239060694, 3.7306313343766844, 1.7496671457265605, 0.10868865611832484, 1.4367994507296262, -1.1388137671421723], [1.6522638757282384, 0.5932020769304227, -1.1230040567920576, -3.487378751204765, 1.3398818157735526, 1.462135712154217, 1.2207919459983294, 1.4436941861962411, 0.1571369359204538, 2.443073149019585, 1.289532525934385, 1.0795943264404921], [-2.281774608605352, 1.6620316670845663, 1.3730764153220025, -0.973892480746077, 2.0125833116230654, -2.212453458779254, -2.9175875836690857, 0.72978807759424, -0.7688533284737062, 0.5818569981185633, 1.6552884314355403, 3.354589391547526], [1.1281793192300142, -1.7545025385594422, 2.42462115457235, 2.5675322355285184, -1.1194892236381375, -3.5554396513424615, 0.3686065391317482, 1.1087537361479642, 0.16154183108148737, -0.4064759903635939, 1.5475097910218798, 4.7731348752765115], [-2.251276426592513, 2.0031056803443, 1.08159647407513, 3.552034923162988, 5.636279818561326, 3.2894958969194876, 1.2046491245135136, 3.487204765676019, 0.6956542693019817, -1.0298981680782475, 1.671074434623986, -0.9125271893996343], [1.7195475470671573, 5.109732726235672, -0.0749981052831157, 3.5145895611689912, 3.6078041745830625, 3.0617849825650967, -0.029119464470568214, -2.131556795322438, 2.3027019790841545, -0.5616102505185523, -2.64021865396826, -1.6027822673476153], [3.384948889344021, -3.6263337494852763, 0.2404433321832747, 1.967890095385047, 3.293800008734562, 1.1483793083086833, -0.038835917693925026, 4.322754457043051, -2.6884242630793427, -0.045839827607495914, 1.2700086642401105, 2.752052486562586]], "weights_h1h2": [[-3.1756775419300656, 0.13511248444626375, 3.1591913009844435, -2.029090696338757, 0.9132598310104919, 5.800505600650156, 2.8681225709883607, 2.250777066874769, -1.8236277846951243, 0.13890833953968093, 1.9069604121298305, 1.8727913398466578, -0.6145037888506129, 2.3683021672922364, 0.3655761140172196, 3.5665052891497173], [-0.6670822490168012, 1.7683428487521065, 0.92719796338656, -0.8753529332962496, -0.28980421223850295, -1.5033500592623872, -2.280658645227261, 3.7291787828340257, 2.0187141014566503, 0.6011818568359102, 1.0870216264673105, 0.9340877871718075, 2.2645070391789703, -0.9893163172390663, -0.7010684703981542, 0.13446020142111423], [-0.01123926814838179, 3.275880317967626, 0.7802193831636056, 0.9841318542466551, 0.36104878840688664, -1.5826626971268198, -2.404741766909771, -0.3296148587590567, 0.7439075607386446, 0.1407393665450402, -0.375049946159249, -0.5945327219878634, 2.4193177673914135, 0.46361531824190205, -1.4795254158395799, -2.6372236750520357], [-0.7493435165960919, 0.3815647212582378, -0.12304515983899195, 3.9984463739263463, 1.348545510726717, 1.6498128206555696, 0.38840719457579775, 2.7259545672796075, 3.221881765146809, 2.4843094870691753, 1.2098124047373597, -1.0870307131599892, 1.7781191397374936, -4.790028052965484, -1.5987357845054988, 2.713441269967786], [0.17201883881429064, 0.5643570162615773, -3.4177056247939634, 1.7268390130603621, 3.336790712036271, 1.2794648335125, 2.6158067539814454, -1.8550050733042946, -0.5957775365425683, 0.21455513525013367, 0.7952136967350434, -0.37657338341191915, -2.4066809879064817, 4.1633554648569255, 2.3872033172190137, -0.9563779476444642], [0.43373441408176655, 4.4356867280033345, 1.7591637474127568, 2.257132405016259, -1.182951209974751, -2.2437282065275532, 0.6819115056820443, 2.511147108567191, 4.130692769016976, 1.5460224552108985, 0.47143573364902147, -0.5343948471133781, -0.6401595076610469, 1.1214297163636047, 1.2633692680163144, 1.1095377189002376], [-1.3536700147493368, -0.1005791581341072, 4.647856374989555, -0.03484767929937177, 3.0011864931901355, 0.3444128385323896, 0.8386232520435816, -2.2173016748252965, 2.351330403922618, 0.8176723070696872, -0.8357557101873877, 0.05844724120043776, 0.25107133718548447, 2.0606473611647655, 3.669205184223663, -1.36329113147211], [-0.6033740173225048, 1.221693467295957, -2.61034608536245, -1.0200564601868987, -2.077509414351445, -2.2090079092911656, 3.456857783122543, 3.287468327829859, 4.911201556119418, -0.6773776053426226, 0.47091330627016165, -0.5837497048127516, 1.5988983695284475, 0.08051583899955547, 0.10339553297257538, -1.5942287971157192], [-4.034757334248383, 1.026361204288869, 1.0244333393188745, 4.238250607072373, -1.9235392745012923, -2.36449834838184, 1.8279623336788797, -0.4766385548234229, -1.803657756680715, 3.0297127574214224, 2.654473223400018, -1.6246929935520846, 1.0120750742632905, -1.4040693401011652, 0.7894298807090039, -1.7369789339033472], [0.13876670899110105, 1.1575770862958183, -1.2950176822451214, 1.4855724912260513, -1.1954377580519653, 1.526597966145343, 0.8887723300659139, -3.3299682034249622, -0.878424884181769, 0.182998293981536, -2.06605145106827, 2.9361810236197776, -5.348842261133224, -1.8599261441829933, 2.2518825056999408, 0.9724916767069445], [-3.7882347300755583, -0.6994944922280357, 2.1407371010796306, 0.5648119345711136, -0.5452738065717457, 2.306256876544897, 0.08449206593884048, 1.5355310233150279, 2.0064988287184944, -3.571390310138626, 4.579412778739588, 0.8111528163931282, -3.1260464147389344, -2.0275889703858594, 0.2719240299634198, -3.0427992917338855], [-1.3394496906195716, -0.2706070826540862, -0.15514867147142755, 2.1658602409572083, -1.9539068360720104, -1.2872611784392984, 0.5141504124205346, 0.1569288478424168, 0.485569791453503, 2.756606481979568, -1.5944860156001817, -6.24742703515858, 0.5052250334088109, 2.8766363632906673, -3.173227401469034, 0.3839634173815796], [-0.46954171924556753, 2.0159716500992104, 0.34494480060446314, -0.16510334513008187, 3.8225083500680612, -1.0365124675323594, -1.6617954117039953, 0.6790998621908864, -0.9600956768632642, 1.138903224716124, -1.543324537987623, 3.355494100454223, 2.1685699952631796, 0.40387365514652424, 4.464770048867645, -3.042583471884286], [-2.146289855628051, 2.6887163931838147, -1.5467921934028188, -2.115440699255644, 0.3790075361027426, -1.5185636711308919, -0.30658591621267317, 2.6696107010119468, 1.581520246936622, 0.21171497571601752, 3.211394449512952, 0.05642653922067358, -2.7794079916507277, 1.000041076459127, -0.6132959025760841, -0.1050458479756742], [-0.5876194763320307, -4.445869319308957, -1.0950068842732303, 2.122801334628255, -2.3725516102706607, -0.003162242058395104, -1.0319026240010067, 1.2381948859408871, 2.5551772463877636, 3.2386753852721544, -0.6717971615577614, -1.9463638995014918, 0.7409296235162108, 1.3836123620245209, 1.2138243142346, 2.1786538456607283], [-1.5428070965929412, 1.136132637328245, 1.99449300366248, -1.5394266250303676, 0.8973851042495127, 4.265922876461088, -0.12007391774126809, -4.024927154986312, 1.692539460817614, 0.6072862789613448, 1.0522275090996636, 2.282311277498062, -0.7903481641706301, -0.9973809949110262, -0.0007083848680246654, 2.679733471279086]], "weights_h2o": [[-1.0776962233045084, 1.9295209148463004, 2.1372472872045716, -0.34374473871323075, 1.5475918387833134, -0.8639170955911404, -0.018719157971186944, 1.8954350324593159, 1.1647544675367354, -2.6539255349066337, -0.5669529146710341, 2.924623263017629, 2.4527543076515506, -0.5851647444934527, -2.345508999901854, -0.9212647570837895], [-0.27104472946766933, 2.5399541025120316, -1.6071121100885482, -1.2848830407911964, -0.6147479584803132, -0.19599472746768384, 2.70968668378502, 1.0658566931849163, 5.153847692892894, -3.4791991591117357, 0.37668418752661, 0.9741315926350342, -1.8355979027465583, -3.6708500822574246, 5.315312190141608, 3.932688252032031], [-0.6244451908894431, 4.559697007855224, -1.698614197842354, 0.49777750203143034, -2.2995810879028964, -1.2341439781736538, 1.333076646638863, -0.19332945160183215, 1.9170778112587177, -1.2585257301554251, -0.24773575669027004, -4.132265999145324, -0.2798720811946583, 0.8569446673422892, -0.15924379279857223, 1.5322526588407588], [0.9529256683514344, -1.1034076393415968, 3.9916360862027505, 2.98152158920372, 0.36780136467313146, -0.03247693692067688, -0.40633100796030575, 0.9121211724777529, -1.925912942774132, 2.782127323169585, 1.3405298977738618, 2.7572739319617234, -0.9627287903112199, 2.98271508580328, -4.304926002559009, 3.544436440237644]], "bias_h1": [[-0.18856573328092008], [0.41480115589995087], [-7.111402167008854], [2.171566893482602], [0.018714320026278524], [0.5306203000422396], [2.797677261787072], [2.7901500535206143], [0.9778721653935886], [-0.5023336013804678], [-0.661472724210591], [3.290334175991685], [-1.9720612755502533], [-1.7313427724166173], [-0.6645398496443046], [0.8575822247952585]], "bias_h2": [[-1.1356997229048154], [2.5737939842662683], [0.5817086659811166], [0.04095060804323736], [1.4616436213498307], [-0.21405019136311976], [1.6206227294594933], [3.062909819410496], [3.4059517462289315], [-0.42990476277781614], [-0.8685916417476341], [0.21827662059184127], [4.694795724731828], [4.24604993632596], [1.8119948604683467], [-0.7595296554061769]], "bias_o": [[-0.5253614011521971], [-3.814257347118883], [2.414831750942096], [-0.9804282350658374]]}, {"input_nodes": 12, "first_hidden_nodes": 16, "second_hidden_nodes": 16, "output_nodes": 4, "weights_ih1": [[4.348213517543672, -0.26232601687704965, -2.814193622246165, 3.3365083865859697, 1.143447449732654, 1.7250127413479799, 0.5992350164525623, -0.2796499929954977, -1.9397379788289222, -0.6505242810500252, -0.2847112200174452, 2.3081270018650977], [-1.9865324133389237, 0.9393803818547667, -0.6578103434122076, 2.113163761032665, -1.7123249749477156, 1.5214199092394722, 0.7083613382291533, 0.17941666526911265, 4.324739626498026, 3.816305930396577, 2.885384766529624, 0.045628460434637974], [4.559889520464766, 3.592746754860193, -4.942920860237553, -0.012035996618236011, 4.222081086136947, 1.5942497050162308, -1.1462070050017232, 2.0344117855691675, -1.8283240408226074, 3.031001979710951, -0.25471957194538664, 2.2639933601936564], [0.29452127150710733, 1.3702162479749895, -0.411161068650057, -1.5519162646117615, -1.840601890057533, -0.12495935248851314, -0.8054245057925369, 1.6544440889281185, 1.9878459780075486, 2.123321817515441, 0.6814616181523105, 2.2022995443372633], [-1.3587809495203627, -4.765466052042255, 1.1512583293908625, 0.7030637616691635, 0.07791477204579084, 2.006081980975366, 0.10117101841175423, -0.2501736399057667, 0.7672992813275472, 1.7175813692087958, -0.6756884573281666, 2.022398721790587], [1.621452852580465, 2.3001484651991824, -1.8554812269291592, 0.13141286273261413, 0.4755617417075419, -0.5673721951792294, 5.33276454675314, -0.684100187643045, 0.669542698758646, 4.8308746507214035, 0.020680801392652035, 0.1277682833716374], [-0.3479610270998619, -3.2098268225463182, 0.5894177641055712, 0.36403001356452386, -1.0721745727011096, -1.5656003477485314, 0.012895644486919974, -0.27759297722870024, 2.7963865168818365, -0.9960991688512417, 0.2783532044666039, -4.896606145115805], [1.7982237997859938, -0.10621056370393422, -3.0047596104127225, 2.5832233982752966, 2.9579844736871084, -2.1826462865696037, 1.3992178802223676, 1.966493098318026, 2.2128857026653117, 3.499269635806263, 1.2367010991308458, -3.3053527239820584], [0.8831224438025673, 3.069694258472198, 1.3439175223912279, -0.8693644505187129, 1.3532255229368917, -1.7562167921029248, -0.5281399843154456, 1.863914530681849, 0.7549643062346452, -3.152054245768879, 1.3740493927724717, 0.9496166579554467], [0.7285061316022747, 5.125338662041982, 0.5778762706520919, -1.0440872878013296, -0.003971717134703789, 0.34969799596028184, -0.004191199981484902, 3.753077527620788, 1.65554735557351, 0.23794787641709078, 1.3316875218258502, -1.1259695389417712], [1.6065333842521068, 0.5991051837443098, -1.3292911742782891, -3.4371823823610557, 1.1375741417344691, 1.5290403878405132, 1.5538756616814118, 1.5473391276385362, 0.2934898732063238, 2.548689215802178, 1.3237508898811083, 1.0909667757667258], [-2.447114365931271, 1.5616904606693818, 1.683986319423651, -1.031131268495347, 1.9443509814760405, -2.422565779787166, -3.0793998091521337, 0.7668414090745267, -0.7169286600661166, 0.448958337219013, 1.6581828219801067, 3.2199230907248007], [1.3264787155952502, -1.86940802002217, 2.259770985019579, 2.7327837912063173, -1.0192915318666629, -3.5610256091855406, 0.6202494244744112, 1.118397661143468, 0.15370537052453392, -0.3856269870286603, 1.2833531515671357, 4.424596988757614], [-2.2289958333712017, 2.183399328572949, 1.070959474166055, 3.5239564229929266, 5.748840276095162, 3.4134119406258034, 1.0805224152504547, 3.4631628956605187, 0.8927344663809944, -0.9580538844145452, 1.8805740128792683, -0.9028067983380521], [1.7842903014180058, 5.466408263340765, -0.043139614208660776, 3.5204979707041977, 3.8736087600523224, 3.0607283874551685, -0.14558138856344277, -2.205318953996543, 2.385018522057651, -0.5297351127801462, -2.7987002403596657, -1.7423750971346488], [3.4236212450891523, -3.749280366569377, 0.3410354889089778, 1.9228727566114339, 3.201763499231358, 1.1766331524245839, -0.27750427530985355, 4.253977849373264, -2.5396391314804365, -0.06756846771545433, 1.1893249479216887, 2.799208539104644]], "weights_h1h2": [[-3.337838599426708, 0.15356322172003198, 3.3438866038177846, -1.934633805612447, 1.1172950507319, 5.785462820292516, 2.7145938708074455, 2.2599612294220894, -1.783535398011423, 0.44867691174529484, 2.129028645275099, 1.58467538346521, -0.7615749663748729, 2.3785877389833416, 0.32360133112389045, 3.3773103626199847], [-0.8519323851894707, 1.833232060126495, 0.9064441377060171, -0.7457288812074419, -0.611508588483963, -1.6538803279369192, -1.9186442289508439, 3.7290598014870895, 2.184209632131, 0.6058146649419395, 1.2762830273839696, 1.0050227194654435, 2.330585148699683, -0.7609163162044317, -0.819417384881733, 0.40507328295425876], [0.031035225739721298, 3.2952886801890005, 0.7597480697246279, 0.9803707250170692, 0.4170834646113325, -1.5626306723994867, -2.5788120092008397, -0.7072067588209867, 0.7052408304909409, 0.10596656072003062, -0.3778102335170294, -0.42694384365407956, 2.4378293845270362, 0.7188609759586473, -1.6941519009474435, -2.3250662000812667], [-0.6120176950401597, 0.6724313863502622, -0.05173851700522415, 4.025553246688139, 1.3038578703729875, 1.7752641297830762, -0.002065223614713802, 3.1271253713320557, 3.163537517111603, 2.4987093113281507, 1.4027374803199324, -1.1301102283750202, 1.604904587386983, -4.802013554242701, -1.802717971064783, 2.833925775965075], [0.23836321049389453, 0.4253504652730853, -3.4204230679274636, 1.9138710701256902, 3.2184378251213985, 1.4403937405599514, 2.485801022833969, -1.9805896862228682, -0.47687400730039653, 0.3557848650650704, 0.7555628137285818, -0.27391039347612645, -2.281731593153312, 4.145520271663267, 2.4554044966396806, -1.0210194348185135], [0.3476138654459251, 4.423596906598505, 1.5348943949361438, 2.3400066798208705, -0.9341557684446068, -1.8852629295608385, 0.5100778570832587, 2.656110070734247, 4.0374576752464355, 1.5034634791898918, 0.39943500323146797, -0.38550393440352815, -0.3563600424718346, 1.3143864502243132, 1.5265337700648618, 0.9682565189463594], [-1.3621118441416544, -0.16749271792364948, 4.519282988156917, 0.0030776339365526373, 2.9037393121819486, 0.6099751133629174, 0.7794792488295961, -2.1959079191620394, 2.27217147373301, 0.9549990256281872, -0.9549329442887744, 0.015578378595666506, 0.2615056305283301, 2.0380468343183615, 3.512148851370206, -1.6945821371817893], [-0.9431577092135763, 1.369716615460964, -2.744175546891466, -1.0254514977837965, -1.9677105095531215, -2.2401645043324168, 3.370626493348375, 3.450808176168782, 4.866026755571644, -0.7819577514236482, 0.3656135018946617, -0.6398771428395842, 1.3558721933178737, 0.29911595306840705, -0.062478381248859335, -1.795384198397241], [-3.844714633858532, 1.1254138979556505, 1.1095526035634289, 4.076947588058466, -2.0201118494946284, -2.381028950366243, 2.026856592261941, -0.5203614928155524, -1.8025228105603035, 2.9342083592415276, 2.606825801471505, -1.4739142852140188, 1.040547922446596, -1.503570205559042, 0.7611367866689757, -1.8490480898343744], [0.004668438258667008, 1.2520435831110448, -1.4054739855246003, 1.564331440030549, -1.3098037328064622, 1.8075025912771416, 0.8608025318103167, -3.258585670776801, -0.9860054715525439, 0.13112252966410312, -1.91801271882299, 2.803044933329091, -5.307836108699865, -1.9425327989805568, 2.2461756954268597, 0.8539213286831724], [-3.9105059150845234, -0.7917204077856107, 2.3552236689022683, 0.45463796247515986, -0.35293323480478905, 2.38604159738747, 0.09625564967540426, 1.4301832469935265, 1.9553905415509085, -3.6553130788507464, 4.4661400424484565, 0.6517971561508964, -3.315862427690918, -1.9063635234959226, 0.20973867255309853, -3.058515918854051], [-1.531658185938261, -0.3274769002275279, 0.004587196383140799, 2.2291021038186054, -1.8452363398568634, -1.3784493716080561, 0.6101492143892331, 0.17267692815092955, 0.4545653197223897, 2.9452236760316723, -1.7275512934334571, -5.958548076735819, 0.38724178497823375, 2.7745709589668217, -3.2000401148573343, 0.18350867262824672], [-0.641424089828667, 1.8425662051648948, 0.32900900004396905, -0.24594461748835728, 3.538982036218276, -1.2260035515552583, -1.6916166238090753, 0.8959369304582407, -0.6892436783160081, 0.9813451650860687, -1.4964112255506241, 3.306699718964603, 1.9930429671391856, 0.37404851175371384, 4.512715636668209, -3.1271587166279544], [-2.1590440039990626, 2.7618083724438343, -1.5871667827933797, -2.053722587762742, 0.36495483784343713, -1.4803661187532617, -0.34301763271964847, 2.2563003877013283, 1.8257175012348437, -0.2810489058692005, 3.1698316805482607, -0.15121837680963968, -2.788907311467347, 0.9723596137199584, -0.8929944071701925, -0.33846038880167745], [-0.6504934743269346, -4.186440664918894, -0.907259665411449, 2.255621268704753, -2.4406769916279885, -0.09907143836960075, -0.8345680119730086, 0.8321882743205433, 2.4642721479526624, 3.235049365527882, -0.7662405677960649, -1.9145085877686179, 0.7616014574833102, 1.2238553978670732, 1.1643893645640937, 2.542191787545831], [-1.9636631595057708, 1.0392850163604397, 1.8480415793842135, -1.4983850795180342, 0.8646923493927048, 4.5264565761299345, -0.33016136779400795, -3.8190325634904836, 1.7454375099958899, 0.7955575546837537, 1.0614335115120488, 2.1116766800464375, -0.7667924308735864, -1.2694066897482676, -0.08776188033626775, 2.859986198748299]], "weights_h2o": [[-1.3161643293971885, 1.8370431710816506, 2.293547140025866, -0.4273367734368073, 1.4746369151442797, -0.979887721245355, -0.045932304495699586, 2.2726923037288573, 0.9743625107865516, -2.292890661121283, -0.6069276224185505, 2.5139325387749394, 2.6297847834180037, -0.56003547159287, -2.3858318379887677, -0.7394855595568841], [-0.4427126596548209, 2.5592212151549862, -1.948991534093728, -1.533724467873958, -0.6549894630765077, -0.6578130834156667, 2.810404368757222, 1.2150417078373148, 5.37237205040611, -3.082782922951505, 0.25629464433636695, 1.1920489826584495, -1.8835148282843153, -3.8821442088532394, 5.28637322590385, 3.88904736110745], [-0.8408206054778014, 4.537838828096318, -1.6174980390077072, 0.35711570384207825, -2.2902770517027875, -1.1467376160286806, 1.3134634508330691, -0.21479417361718534, 1.6404039411971614, -0.8404065217069265, -0.26360237691954147, -3.9234783293819295, -0.08417762668183994, 0.8703692181224262, -0.24642946131191207, 1.6437261914845056], [0.7725162834852559, -1.2104504794522395, 4.012711126792769, 2.9630467713457533, 0.3959968904292409, -0.11798915493831102, -0.2817636505903193, 0.8234147611720883, -1.7166039798656247, 2.846308613818389, 1.3614314166880717, 2.8523893714778747, -1.0509018732852624, 2.8495519130646185, -4.195505903117335, 3.807227276400703]], "bias_h1": [[-0.20753099768614008], [0.31238248342950836], [-7.008638153129319], [2.392982325896268], [0.1390792828397046], [0.16263118241425356], [2.758156334790377], [2.8223758634756493], [0.922044445833901], [-0.40634557171506436], [-0.7372222042668031], [3.4820601217354183], [-1.9201624099641006], [-1.85592084150103], [-0.5830743165683807], [0.9137247839292355]], "bias_h2": [[-0.9128317793321825], [2.392522396445541], [0.4536179078822204], [-0.01827491886430311], [1.5390168975514966], [-0.09982760768407048], [1.3055810691152918], [2.9995711639612526], [3.383548154746201], [-0.41660660900800184], [-0.5088930769342911], [0.31256502486265336], [4.708209852339312], [4.193916674937165], [1.775063988099067], [-0.8392275998691743]], "bias_o": [[-0.452212955817826], [-3.8841354849658574], [2.439754657915624], [-0.9225913810252272]]}, {"input_nodes": 12, "first_hidden_nodes": 16, "second_hidden_nodes": 16, "output_nodes": 4, "weights_ih1": [[4.434515942573016, -0.18238753988332096, -2.814193622246165, 3.367211046552895, 1.2159542007030308, 1.7405884885099188, 0.7143127190201107, -0.31749009559021457, -1.874893809633631, -0.838424395413053, -0.30846975537152527, 2.109641565763779], [-2.2172086197727543, 0.8541696109274136, -0.7485238166702379, 2.1204465828931216, -1.6456871216938036, 1.2496748318110709, 0.6301064427668452, 0.27246633795290204, 4.143710206152087, 4.024226240705547, 2.819780990918062, 0.14413423188565191], [4.8106521973199055, 3.619259468769213, -4.677395448671117, 0.24133673996983274, 4.264131229723162, 1.4814150515545923, -1.1656374709072828, 1.988930564441795, -1.8626393339531668, 2.8600235619679637, -0.30080768680883496, 2.3441507351223057], [0.26521230663255563, 1.0280150305571085, -0.27043729890355106, -1.6046697796481735, -1.9032993965268619, -0.2540522423042587, -0.8472584276634281, 1.7421584643912529, 1.9346570787704274, 1.9714759848096606, 0.6618657062243544, 2.1292453236293873], [-1.3704014209858846, -4.5868782860102035, 1.0004083770532355, 0.6781243665394451, -0.16066747461389833, 1.8898717177776714, 0.23810778116322234, -0.2192406463510651, 0.76906731549035, 1.8103100064637836, -0.5831896751563628, 2.055642638739123], [1.744839030515171, 2.4751770717771904, -1.8308221386860344, -0.05349337375064869, 0.4128626268600124, -0.5536917422330793, 5.191227276017162, -0.6557384011562825, 0.8532558312787218, 4.642200587445674, -0.055186295675666346, -0.021888117672143936], [-0.37180987997910897, -3.2098268225463182, 0.7829671559885365, 0.43444303847378574, -1.1048046027947738, -1.7708464851470525, -0.15433757003455323, -0.26772858522836873, 2.55142152748435, -1.1981260336161892, 0.14726476056136664, -4.942365499959299], [1.5804710570679898, -0.15115642261645157, -2.9441472558635637, 2.6246377784751878, 3.2789887787928613, -2.0146769892425995, 1.3043640470819633, 2.0080140687255277, 2.0104684398198867, 3.670953233107362, 1.1731970993085061, -3.4509829285936], [0.8831224438025673, 2.805595525450599, 1.3291282472228012, -1.0612722796969085, 1.3288161279247581, -1.9895279218098354, -0.5804228145894859, 1.9412405853197976, 0.6115782365134264, -2.9815632033057535, 1.4185196106240316, 1.057668484115692], [0.6280354471012903, 4.96391982323361, 0.5045484136376908, -0.801914717459857, 0.05337597151977041, 0.34071242810088936, -0.07136227725764155, 3.747360489829959, 1.7522882355982565, 0.3010194536855141, 1.568710014398175, -1.1036367152522242], [1.5658066900461503, 0.6846834576528636, -1.3955966162484552, -3.286290130869984, 1.105615912377256, 1.5290403878405132, 1.481532638693916, 1.4050663088018762, 0.13260014569079268, 2.4915313246413575, 1.2966063179372855, 1.076367021663105], [-2.2890254929714295, 1.641908399066545, 1.823797635667139, -1.0478654723026983, 1.9742702929149778, -2.4670103737727556, -3.094005288670251, 0.6654496289526073, -0.754650797513602, 0.39546052661468944, 1.6462633778976363, 3.2199230907248007], [1.3333456296005943, -1.8642445645761363, 2.4184391929914786, 2.6730530244113093, -1.1343674247155966, -3.5794708000290294, 0.35505658892537384, 1.1304023577988405, 0.050556101049335875, -0.5296356233422351, 1.5922478648642244, 4.530960333908627], [-2.240895352078901, 2.0833898109275757, 1.4131149942150718, 3.3525247749866116, 5.625816873103144, 3.507561417369523, 1.2371430344060066, 3.4663313582947177, 0.7693462802336688, -0.981218065924081, 2.001427285235122, -0.6882269743659916], [1.876125337819588, 5.317635993334936, -0.2627599175333645, 3.6013948810029612, 3.9224214816862784, 3.092463670129211, -0.09720013531679432, -2.1055022214352075, 2.3830094473921233, -0.5063494694774585, -2.7181096628085664, -1.4834026944265024], [3.4100999641897864, -3.7211946227024324, 0.35283756128904137, 1.9228727566114339, 3.4756310113506967, 1.0522827391572986, -0.16354953336690634, 4.461699432890407, -2.6090632941140495, 0.011645120903229566, 1.2016880208011371, 3.113849636766168]], "weights_h1h2": [[-3.627957808187428, 0.17149002991814916, 3.352211216458421, -1.8767094921373275, 0.981965678705932, 5.853426599095821, 2.7569233618195677, 2.188730904849166, -1.4242730005922424, 0.5270777138043934, 1.9024915208146518, 1.6050946958303005, -0.543447651156044, 2.5565634441320797, 0.6959774713681186, 3.5637623980674844], [-0.7785949249535632, 1.4825201571139421, 1.0451311594059622, -0.9034007138969501, -0.45495599616847066, -1.577867085031645, -1.9990436778862517, 3.5694783799157803, 2.1926956359892675, 0.6243029362883972, 1.2455999093418757, 0.9008514898022189, 2.309495750321396, -0.8260242414809024, -0.9052003718755721, 0.3353924420373834], [0.1490697959232374, 3.331652837949571, 0.7333068883429801, 0.9410095669320315, 0.3354237309314137, -1.6609329217972721, -2.5731519576890642, -0.3874165295699562, 0.7069558112782903, 0.1187073486174949, -0.4351420479792831, -0.49398027605135936, 2.242195790628803, 0.9742061338390258, -1.7117708488307728, -2.095304651599721], [-0.7377159500017214, 0.3555660735635727, -0.15056379323814767, 3.7061334311809824, 1.1850116582177836, 1.5635131381488567, 0.25272667940495963, 3.14057148776251, 3.149811687283676, 2.596948219164743, 1.1720061263195622, -1.0522095193667331, 1.3901126241730173, -4.769246901478484, -1.7537677183999678, 2.7422725730553656], [0.302011076534932, 0.7825148990097991, -3.518913404293385, 1.9706348307734542, 3.211249863675609, 1.4588758680485443, 2.6318961510304097, -1.982516769895331, -0.5358662754509222, 0.39762924426036117, 0.7867422637194429, -0.24436638618325285, -2.265289594891925, 4.193117703402431, 2.745950649457283, -0.8038335662573032], [0.48429287736333415, 4.4356867280033345, 1.5312752137928407, 2.3764951124225377, -1.1313887462302512, -2.054993298115635, 0.558072877191494, 2.741993204849935, 3.9909314235863826, 1.573691539272249, 0.3961347020241683, -0.36311480362854953, -0.5531527949211615, 1.2302756455242498, 1.4327747093947654, 1.0080379588354489], [-1.2874700364786056, -0.022424565136284977, 4.688518355878399, -0.2914803190686984, 2.9815843770008814, 0.33015831601991685, 0.8391364394852099, -2.1176789995106367, 2.457727582689929, 0.8960118132807455, -0.904543016935422, 0.09550264226764285, 0.11314062426535104, 1.983862821546579, 3.5510193400374366, -1.5767110980162047], [-0.676442542096862, 1.4502506726423963, -2.782237042253856, -0.9237542802020298, -1.9691016990480705, -2.250361337267244, 3.1370982725258956, 3.0666487435033196, 5.006258061435958, -0.7403181771573384, 0.3640166013367732, -0.5443862955039985, 1.4238004113571696, 0.12501346710142888, 0.047780435090219876, -1.8846949087430693], [-3.8432696430786315, 0.9788789513974281, 1.0736247464712767, 4.221072355802267, -2.0320882430366662, -2.7158789427350394, 1.9848454578668504, -0.6649611219473948, -1.7375695840022807, 2.882968546199291, 2.5671443594084824, -1.5725740454642212, 1.150498681735523, -1.3679386398607436, 0.8103572587538199, -1.7451540511193238], [0.004668438258667008, 0.9709617481746949, -1.282618040827491, 1.5979579929301346, -1.1095940710041208, 1.6690026528341504, 0.7663250499498838, -3.1554528808510103, -0.7406530653592691, 0.020668200456692, -1.9707018858244145, 2.828692061166779, -5.3191579178753345, -1.929281220295008, 2.2926685004517497, 1.0363310565750903], [-3.9105059150845234, -0.7135998327006599, 2.2573082688408697, 0.6032720058636316, -0.4620836881109126, 2.4228173124399524, 0.06436088607075247, 1.4876486488034222, 2.1377964410130543, -3.39504153259703, 4.478855696476162, 0.7060032168932133, -3.2891031519907856, -1.8092357959281058, 0.15498622020717256, -3.2748960640837286], [-1.448278338153492, -0.4880926568221553, -0.14122903985629737, 2.2869757815189047, -2.086776275088462, -1.540950411409431, 0.532932879503935, 0.26222639241709816, 0.7300946972126253, 2.8508628465875194, -1.7598440889547418, -6.240451989895768, 0.45218232229172856, 2.9900817345778723, -3.2171735534945065, 0.11771109177433824], [-0.6885266735654054, 2.106227544316057, 0.27464110948971, -0.20517978812345633, 3.6216803820618573, -1.2577901776148817, -1.6322641359321866, 0.5546984893521816, -0.9870378805512876, 1.1412448402727027, -1.597076699172928, 3.307076194364186, 2.3126056862389026, 0.4030595445809029, 4.512464163504722, -3.2480555015709354], [-2.257347921646388, 2.6574436755049256, -1.5816213391226517, -2.013880925664271, 0.27897768181119664, -1.454945215075788, -0.32146123467506876, 2.1827227319199705, 1.6538757079751283, 0.05092585385025318, 3.20249236862037, -0.11233192852788791, -2.7315177769811703, 0.9838436396628093, -0.681959275778253, -0.22494926777533125], [-0.5303459642834566, -4.174372888733215, -1.0056594691421001, 2.1765952427265143, -2.6023256310802054, 0.035119375334238784, -0.736597707738889, 0.8321882743205433, 2.5262693720129095, 3.316064950086347, -1.0650242490693684, -1.883796752884563, 0.5933580820944396, 1.2873798207111071, 1.105582801682952, 2.4607483936008205], [-1.6808061555526512, 0.9769190408320902, 1.8515495650353693, -1.5352156035847289, 1.0140282634532765, 4.376945596374561, -0.13374769486205976, -3.965225291325261, 1.4870034214225238, 0.9671153190378861, 0.9575261149856157, 2.047036907714074, -0.7079863638784747, -1.0741881215932005, -0.11275479849481816, 2.817004808695537]], "weights_h2o": [[-1.216044644417824, 1.908927496784625, 2.146698685798928, -0.4530981133025653, 1.3901273827990526, -0.8980036404591444, 0.011152975791599358, 2.219222328987664, 1.0034353000181109, -2.3697029462561296, -0.5242693561764435, 2.708568297148884, 2.655844234772965, -0.6138987793805886, -2.2352488499463377, -0.9084386823324998], [-0.4427126596548209, 2.435443255836557, -1.7758570395106825, -1.2493388482082866, -0.5417714488871503, -0.5479487835615627, 2.507197572895557, 1.179664159291849, 5.134040147412495, -3.083897645857392, 0.1954669182136372, 1.1090674502155713, -1.8816160950777787, -3.6578141553601986, 5.332995258474144, 3.750027768222656], [-0.749776019030655, 4.78542118252399, -1.6737459937996744, 0.4662458683390305, -2.1785634690583477, -1.043420376220793, 1.3554415669244837, -0.25805936943831415, 1.880704920295595, -0.8696912989406538, -0.1684709288568525, -4.0034683680114735, -0.19654835475187143, 0.8731171303529577, -0.022455464349565142, 1.5388287201207855], [0.9691978970236027, -1.271521386307899, 4.340934527415924, 2.9846489100740765, 0.4389031986069576, 0.09626251678168993, -0.33018499041536326, 0.8604607305171388, -1.9674789476616994, 2.602327995894778, 1.3727942902108976, 2.8357241451980655, -1.1277982983533748, 2.887309767017309, -4.364647259236464, 3.853108054843509]], "bias_h1": [[-0.1385963791572391], [0.31953930730828534], [-7.011290916246266], [2.31093795498757], [-0.08338791973170362], [0.2596276996823756], [2.57406040721423], [2.759325413004227], [0.9555980637895133], [-0.5700508340392751], [-0.8156516534110322], [3.4268748601462318], [-2.12754800998984], [-1.8181793576595284], [-0.7222937701519845], [1.016047604515124]], "bias_h2": [[-1.111207399757565], [2.425948936882251], [0.6662053618318717], [-0.0730603972008026], [1.6803084726461999], [-0.05747659186547674], [1.4995028664350052], [3.0899053385865702], [3.4489166136883904], [-0.47639821230258644], [-0.7681164965927125], [0.3182627971166885], [4.702649370273881], [4.12784726336191], [1.6882202027407638], [-0.7740507552917822]], "bias_o": [[-0.65012309743905], [-3.664488732319419], [2.385754703204333], [-0.9125033825263278]]}, {"input_nodes": 12, "first_hidden_nodes": 16, "second_hidden_nodes": 16, "output_nodes": 4, "weights_ih1": [[4.33592780406154, -0.19193133042764343, -2.833521566870862, 3.2947780938777584, 1.2040829852785353, 1.7408697132996271, 0.7128931811462733, -0.20287850925409423, -1.8966612600111783, -0.8485520855506072, -0.45566667469022637, 2.116700307776696], [-2.1326189576587695, 0.8647064216433458, -0.8289162816114057, 1.9801455090423412, -1.6712491641986083, 1.2197297286691153, 0.724480304590978, 0.2637535942814405, 4.140422059381797, 4.002910056518666, 2.896354312453085, -0.017894214009343296], [4.669643932276141, 3.5453236865328925, -4.583787969061765, 0.2813089537389983, 4.318803158276521, 1.7155926962242307, -1.1247749475533886, 1.8617782385919952, -1.7343617920564196, 2.9674448607982105, -0.2726493666950267, 2.161231678226438], [0.32111216755334737, 1.1558140521833882, -0.33077185728490555, -1.7203019489277538, -1.6864491398967532, -0.2158348454595032, -0.9745577728784021, 1.5982308410984198, 2.0465074206273774, 1.9709758131243618, 0.6244472573024774, 2.1921019107042814], [-1.3194304834591406, -4.6287610780946995, 0.9627896745210979, 0.5642884964999754, 0.164186684367135, 1.8692039010729293, 0.014654190152227464, -0.13802350029412344, 0.7695009384896154, 1.9687788849216812, -0.562043362433033, 1.9734681805829002], [1.6503158885058287, 2.297455801159993, -1.650493656306046, 0.03306162149750985, 0.42870553719050675, -0.5121084306553128, 5.405281902065865, -0.6450568533860839, 0.8538957609972062, 4.592168072743933, -0.08770521126937993, 0.06813928050646632], [-0.5126919776839136, -3.0854436271125927, 0.6772091060147132, 0.44097407016674306, -1.104871359220622, -1.6971316529306404, -0.21249125502534272, -0.43883971481075157, 2.6448911690458723, -1.1778875598940988, 0.24167817154675153, -4.73101919974113], [1.7924901029082005, -0.02737915166557521, -2.7649060874391083, 2.5834813593588435, 3.2269747317156705, -2.080866821375767, 1.2410829528914828, 1.8370608579771006, 2.2457533120055118, 3.518209882418988, 1.1867436916509415, -3.340027798384183], [0.91155113169172, 2.7883826884909353, 1.3648633292764043, -1.1236339087243996, 1.3653793174825222, -2.0618508780991096, -0.45431208681551755, 2.0413986718950405, 0.706801007932581, -2.858301593535943, 1.3869857160088521, 0.8892108389740756], [0.7232936120542413, 5.0719456705458565, 0.44065947706490277, -0.9705199214141718, 0.20622276847652599, 0.33455962381404, -0.08404792303481604, 3.8136348779470532, 1.6912123594455557, 0.12824706933278796, 1.3169934327685617, -1.23430311719071], [1.5276842143969342, 0.6688082257652801, -1.180086115258006, -3.2838178121620007, 1.112511836156121, 1.6061519243400677, 1.4359583472937492, 1.484428505182708, 0.13515441705946496, 2.5928699086717266, 1.3407747658210094, 1.0975984312129992], [-2.3555543477081797, 1.5909288568638555, 1.635963165116629, -1.030988773636854, 2.0190866948267603, -2.3982510883637183, -2.8854552004256613, 0.6713328673889515, -0.7453151436622201, 0.45079929087658394, 1.63625943881561, 3.1292815566449677], [1.408154657006392, -1.7366207263316198, 2.743512001036965, 2.578399552512414, -1.0545209053253828, -3.6780109901616864, 0.2855172852724102, 1.1674327887903764, 0.12311508654534481, -0.5848295691847136, 1.5086627700861748, 4.681614584089756], [-2.15041547607409, 2.13685388736479, 1.3063805204249763, 3.453578629283868, 5.537718328168738, 3.48360564466682, 1.1864137574744706, 3.509511342146463, 0.7922028962285332, -0.8480264746904583, 1.9170389556142595, -0.925489456973137], [1.7247752352297265, 5.3817797245184025, -0.15191458025415105, 3.571426700746642, 3.796289512322093, 3.078561252122966, -0.1075156577787037, -2.2549378902564543, 2.320503645891237, -0.4922483922504559, -2.700454473027224, -1.637385391247387], [3.4111187469218907, -3.6692461209664775, 0.3396243049972524, 1.9095953621416553, 3.4120428037811057, 1.1397428291298657, -0.1559537347577091, 4.261630210622002, -2.570900337164871, 0.0008975822877035841, 1.1900306731159522, 2.8247581099343226]], "weights_h1h2": [[-3.3220837382993134, 0.16895575663621815, 3.1890115307603857, -2.0236087596717245, 1.009337415191709, 5.84713233021376, 2.7754430553904035, 2.2392277783822667, -1.7945617187187368, 0.3444970330800529, 2.1916883962822205, 1.6707042962249747, -0.7368347154612738, 2.4240845504531934, 0.43899274057979043, 3.568459248749448], [-0.7706598025940714, 1.5725268085092345, 0.8947433635376525, -0.7984083569200173, -0.4027459113513816, -1.5357022686430961, -2.0198812757484665, 3.6896402344988264, 2.153571642126239, 0.6289697127517775, 1.325490429727641, 0.792038621969241, 2.1597776155656176, -0.9552273738194473, -0.8327216497577579, 0.28633587908234504], [-0.14419818465819811, 3.3965443805505333, 0.8507838882673395, 0.9275559545539007, 0.42204093385430796, -1.4848171358309086, -2.4792151133247495, -0.4158348299052885, 0.7561677577084642, 0.12463040296466123, -0.41368183480464193, -0.4942880045863889, 2.4538035633894153, 0.8410375045474972, -1.7022046112630869, -2.210789980210171], [-0.7873045309807698, 0.41555311927924377, -0.11426991449652674, 3.977930095389933, 1.0469226902485103, 1.6409886937750437, 0.18367283252868952, 3.160766916740967, 3.1880790513269828, 2.632696738873841, 1.1738231168691717, -1.1690876493991122, 1.4664825125940604, -4.685255954003372, -1.6968382389213654, 2.7371010566837493], [0.11021886099662251, 0.5931852229324784, -3.3823361410864154, 1.9413440858105684, 3.2266486212292196, 1.4968512556870146, 2.4790655850547, -2.1348743690326186, -0.5810758235562241, 0.22196160845755653, 0.7638093795302933, -0.4846217153910909, -2.289758388571009, 4.124421348771685, 2.5264971588722442, -1.0167351987074582], [0.4946888141271928, 4.146950491311133, 1.6375458361108148, 2.248599279085435, -1.259883335819327, -2.3707006724347517, 0.5173546270217142, 2.7356486090716507, 4.09864312675598, 1.4498427811629062, 0.45613000755856803, -0.2986969103022728, -0.5431774683147976, 1.1894166520063683, 1.4428958856391376, 1.0039494494747827], [-1.2555801286256707, -0.046170088169715455, 4.474828419905478, 0.02595605717828857, 2.8638115911180417, 0.4777761076274917, 0.8767148289653597, -2.065517963892387, 2.4381230793523487, 0.8503153936419896, -0.7888234502491318, 0.031111724382640357, 0.09131054038815999, 2.0290180968688754, 3.452520105877362, -1.537567554581023], [-0.543833168247867, 1.2227082660013828, -2.779012874994426, -0.9600654452962177, -2.097614922356679, -2.0547713071957547, 3.260289398783514, 3.356169512020056, 5.142347009407906, -0.7686343143931258, 0.3618574323236591, -0.6328735460630983, 1.4256816290567003, 0.1849384947702314, -0.006831574662560767, -1.909977774775114], [-3.7727551578851566, 1.05459936280074, 1.0827168352765728, 4.207199920659045, -1.982902482524611, -2.4986524697064656, 2.0638431605511496, -0.5898519782622788, -1.7479487670861862, 2.90909643237518, 2.6156234252838657, -1.5736209804170462, 1.0620205002874796, -1.347822793920703, 0.6998372963294306, -1.6292527722950623], [-0.020303407301090152, 1.0975634357976751, -1.2831971876287136, 1.7805246257270615, -1.2932384960909804, 1.7059365416764445, 0.8306646775926154, -3.2953724147158905, -0.8096445923889182, 0.1929697241500866, -1.934360066575587, 2.935593743231503, -5.278059518204724, -1.9183716614744748, 2.091445848252329, 0.9212517847277726], [-3.8700430059540754, -0.7964431806211658, 2.239087325853008, 0.5401977128323185, -0.4503650943921245, 2.3191157078231184, 0.058299659768996315, 1.5812837525747034, 2.2375106987641065, -3.3802327898274407, 4.554597095038712, 0.8355237481597454, -3.20071354086063, -1.8636475343095413, 0.19957995506623036, -3.1492702483593744], [-1.4359283736437334, -0.29258626401642723, -0.18146142645166594, 2.2724072226870433, -2.1106486321059577, -1.375576363344003, 0.5622772163368991, 0.2832309791473894, 0.660826051763816, 2.832805566800139, -1.8121530537047694, -6.1947893284544335, 0.48480927770729443, 2.9416718281672742, -3.283746033944516, 0.19210272839280623], [-0.7693004000178278, 1.9376134102324925, 0.4198157887874974, -0.1342713737720888, 3.9241495217733684, -1.1316064234344363, -1.6780449095955567, 0.6568247449047954, -0.7493879942816661, 1.081784799088874, -1.5081395536598738, 3.2790306324812453, 2.2626027675375893, 0.41459375717423996, 4.521951488143919, -3.214189738312456], [-1.9671259925417208, 2.6801816611867313, -1.5261369109741847, -2.2391630592422547, 0.30653616289928376, -1.5296269336725241, -0.2054796587076917, 2.2360815922690622, 1.7079815733806767, 0.045913265016880186, 3.243789156210758, -0.15769287258429548, -2.717766682323963, 0.8517144019568456, -0.7173110793434869, -0.2612637821544095], [-0.5278337380901907, -4.218497902311657, -1.030959120356387, 2.1424878343996436, -2.5025299011260262, -0.2006848537672996, -0.8420681594674571, 0.9010571625463758, 2.6342963976294946, 3.145354623614741, -0.7506307246133501, -1.7948718039382392, 0.7542205417464848, 1.2225531997529364, 1.1198184195855547, 2.486701727446245], [-1.6572798228322612, 0.9931375182892395, 1.874787968033682, -1.5754725240553566, 0.9902003078861983, 4.315203542647739, -0.39856564346240964, -3.852160595567739, 1.5695295683364372, 0.7973084508433391, 1.1009071156956747, 1.9630400413107136, -0.731036033248513, -1.048888319542406, -0.21333279687502393, 2.6796355458333383]], "weights_h2o": [[-1.016570666097274, 1.7916968108014781, 2.181729453097404, -0.4558611273535775, 1.5478558041674315, -0.9546503534917543, 0.035668147484392315, 1.9869533498065177, 0.9627368280510762, -2.426481499983511, -0.46374300768288784, 2.6685954982886484, 2.6425933037195515, -0.8051039939218474, -2.1953848526681186, -0.9369085388947553], [-0.4081751273015323, 2.6154952065939376, -1.7383628193167389, -1.1709420934057775, -0.5879810436795103, -0.5471063116126, 2.634069466672828, 1.0688109168317863, 5.311414585259729, -3.2191879852747345, 0.30774928735882146, 1.0736356259879452, -1.8618334306708177, -3.6542763188539995, 5.302742695293209, 3.888575034680459], [-0.708646251498863, 4.645836023017152, -1.602523101058527, 0.44547621687382283, -2.224549282745227, -1.132745959945077, 1.2491869009693124, -0.2264094034529977, 1.9729962358417292, -0.9969952150993616, 0.04779246994793007, -4.03456047183149, -0.2031934281377733, 0.8383561971778851, -0.019888642438833815, 1.627394704579253], [1.0535591428067077, -1.2964996582515669, 4.12598793771452, 2.92242172130182, 0.4789435284149572, 0.1831351880049651, 0.01952499902025845, 0.7793489254244317, -1.9184209193066064, 2.7743228234935104, 1.1598596762007019, 2.8133850072695683, -1.0774794886908243, 2.903880637514044, -4.311378693762464, 3.970382488566486]], "bias_h1": [[-0.3516693700543529], [0.4340047660995001], [-6.9381970576718945], [2.267923788267476], [-0.012790767425561664], [0.1931692438724533], [2.7103434014198937], [2.728970334211299], [1.028074712812332], [-0.5539863542965131], [-0.8753523004249508], [3.2722524064427754], [-1.9205485399753102], [-1.7388016840555514], [-0.6897790509244408], [0.9236992212669278]], "bias_h2": [[-1.1310366194892705], [2.4252248296148866], [0.5731182005416947], [-0.04936332487671202], [1.6313489610980363], [-0.13083773506217336], [1.5150389840703662], [3.0160000145994332], [3.554525508418433], [-0.48347510978814645], [-1.1800711087443534], [0.3267925224924416], [4.4503536196179745], [4.262482955050368], [1.6499096048653892], [-0.7150134052528285]], "bias_o": [[-0.5562916495182715], [-3.8552893191448763], [2.410326240501584], [-0.9078291534642093]]}, {"input_nodes": 12, "first_hidden_nodes": 16, "second_hidden_nodes": 16, "output_nodes": 4, "weights_ih1": [[4.281060069561985, -0.21459284797772582, -2.836311783435822, 3.2508664476208993, 1.1308739944760293, 1.891369949737829, 0.7454323707319945, -0.2978986738099851, -1.9556581267661766, -0.8284814709782664, -0.3725894048008273, 2.2393199416695198], [-2.311798207529007, 0.8370806604701957, -0.6289014985991558, 2.122687628478767, -1.624230299959966, 1.4051538444168639, 0.7973102444348217, 0.27454453365885634, 4.139468969212856, 4.052872014107748, 2.821902984838911, -0.04897771310785226], [4.321714701393174, 3.522626036490599, -4.9319469268569325, 0.0379453084180722, 4.165506072089002, 1.5452691358832542, -1.1789418827902556, 1.8600620048448557, -1.8052400564083375, 2.936574152574602, -0.3907278325150025, 2.2823466997278157], [0.16302062007345264, 1.3651199978653556, -0.41219841161652754, -1.6032160540368232, -1.78380477732002, -0.23137913267572557, -0.9358790367844596, 1.6151601644354512, 1.927881984507061, 2.148385516653185, 0.6959137491387946, 2.24172325371727], [-1.3498685261084835, -4.777926876457093, 0.9702958508916797, 0.7258084152449067, 0.07420924746990135, 1.9030548929337627, 0.10585755041057451, -0.18212359725284843, 0.7920697065353879, 1.6842437214153514, -0.6051048595117651, 1.909245822353743], [1.5826139622191824, 2.1835606016938462, -2.0084488022471616, 0.14197000030766027, 0.4512489687480109, -0.6983863248368811, 5.27405269156692, -0.752624363308187, 0.8862156122937677, 4.913495288965428, -0.016689628047791494, 0.036975849639311525], [-0.3871936706982121, -3.1529915965562805, 0.6398435267068827, 0.4004327303944291, -1.0701014618132811, -1.6063595752929138, -0.08888307274389093, -0.4639583325709029, 2.418045774343658, -1.1778875598940988, 0.15992888867007315, -4.918964589858994], [1.8820083466496584, 0.27640291945907486, -2.9206294212568302, 2.5540635201889974, 3.278750154587548, -2.0101832800145147, 1.2793928540813377, 2.0197796374032286, 2.240536965004329, 3.491055874461521, 1.2945209035056586, -3.340027798384183], [1.1348029509856383, 2.7461445584667756, 1.4008013025288026, -1.1373374823206883, 1.3465105416539287, -2.2692825403345904, -0.3214957562009597, 2.1023455725997655, 0.6315534872250494, -3.040646998711357, 1.4394458488988844, 0.9395024291627918], [0.7838685645432291, 5.10307876364649, 0.48866516582718006, -1.11221684129765, 0.05710565062092453, 0.31106593043032776, -0.21433510148163845, 3.921189452916888, 1.6990295304634175, 0.2565714926262139, 1.4406242821608437, -1.2984346592525764], [1.5499857628486833, 0.6660612720085965, -1.2715831143066554, -3.348433072165596, 1.162014194181721, 1.5119978505291578, 1.5126311260199292, 1.4922718981983347, -0.02787396419285927, 2.4996285164824315, 1.2511263745980825, 1.1041729183165785], [-2.264151656662751, 1.5319633945741065, 1.5863787124118423, -0.993661205253965, 1.9776790302544802, -2.366659010428215, -3.2012717846213627, 0.6300805909718469, -0.6789949073565092, 0.4388409081819231, 1.8532064475116568, 3.4811810333411843], [1.3006839662110365, -1.789835971956912, 2.570760327458197, 2.6067197269343687, -1.1820276422710938, -3.4769552798711136, 0.27850804118771444, 1.1430513363733485, 0.05283886888760075, -0.5700537929742067, 1.3447177937805088, 4.35456867151147], [-2.224413668352736, 2.135574888702786, 1.2765488162172676, 3.531733143278231, 5.69461754008075, 3.4659745379376643, 1.3892922994697712, 3.556670037062886, 0.9612526596060057, -0.9417067920077892, 1.8797671772099598, -0.9469691415821755], [1.5346138980888697, 5.425952052627183, -0.05986875629849453, 3.4704484077820412, 3.6520501704327786, 3.153749341164984, -0.17173277414838234, -2.1882896926944237, 2.3728053757654273, -0.5277087225202526, -2.6310355257708533, -1.6693628752469627], [3.204193998909781, -3.664029233802883, 0.3777750180161847, 1.9576620371638138, 3.191789651317001, 1.1020959116417122, -0.1636484543008752, 4.274255642934779, -2.6289035363553728, -0.006964365639604305, 1.2269663315823127, 2.825870304773313]], "weights_h1h2": [[-3.2697107207277645, 0.16349145513046062, 3.4233096184975276, -1.8026074371522105, 1.0737785176590955, 5.751777879874224, 2.6623394844113744, 2.1684735431805753, -1.7661568506672132, 0.3135147254672557, 1.9385490404000507, 1.6707042962249747, -0.475249336372601, 2.4337075717731818, 0.5214644133751862, 3.4639731506238025], [-0.800777954622117, 1.7412276937711995, 0.9976742523894051, -0.707672302874399, -0.28715081026786743, -1.673499037077117, -2.123941725143303, 3.729677087684876, 2.1823963840961946, 0.5482327533786118, 1.4415973588076214, 0.9295126509119153, 2.4144304473840803, -0.8439790749008023, -0.9902087364178974, 0.4905116626637505], [-0.017650480286962845, 3.273436580680351, 0.7775962124657656, 0.8881742668175681, 0.385284737514852, -1.562417405560582, -2.400822313409133, -0.40069348922059683, 0.8082085602075754, 0.12546050269522122, -0.38190927811598696, -0.7530749747191209, 2.406722472827216, 0.7624879384178178, -1.3672516472624077, -2.197803082901296], [-0.6064000483474349, 0.45751326611770515, -0.14087087939495843, 3.9809687751192797, 1.2920786535937405, 1.5501370730788455, 0.012008558162521873, 3.0398004656024034, 3.1255578545737492, 2.383692547635866, 1.2119629918077648, -1.1298112669386104, 1.486658380022484, -4.857146583738472, -1.7287634855745868, 2.792735310642205], [0.22229690429365995, 0.8209963940093075, -3.4354905122006096, 1.900108499807172, 3.1393202917033056, 1.4468655515261792, 2.5227864431872193, -1.9078816748208833, -0.6197750477107169, 0.26718203924286915, 0.624871047256683, -0.5217811793229705, -2.4784392437087472, 4.082746554459437, 2.569133847207451, -0.9015137238242105], [0.42487848846888926, 4.493985397165427, 1.6492594685761044, 2.3130634780402906, -0.9324933689789998, -2.128272841935546, 0.6512063317826043, 2.6838697593186565, 4.094366592424414, 1.6278319166813993, 0.451808855593412, -0.40331029075702207, -0.35561650695395347, 1.195896501540939, 1.6165487714914315, 1.003949449474783], [-1.3102368879439341, -0.061126712172469545, 4.563273877027674, -0.07509996184740866, 2.873489509685534, 0.3800828282638679, 1.0143026627160725, -2.2260472342294, 2.3311924622231164, 0.9683124252695963, -0.9814962734734908, -0.07595403219030707, 0.24024277743137054, 2.014824080021217, 3.500935501690301, -1.4662460542492395], [-0.7085904283082378, 1.2008818698435781, -2.8557147348036342, -0.8414610521893634, -2.0805633004209216, -2.241959656468256, 3.266141041507207, 3.1837511384517256, 4.966828739845921, -0.8511558489611402, 0.38299185346297937, -0.65265139533983, 1.4504909212538855, 0.27814925185735534, -0.030081046005236207, -1.9111898960232045], [-3.8769406151070562, 0.9350447512256734, 1.0905001048577765, 4.141606674492542, -1.9268583058507671, -2.4562191054611247, 2.145113427628411, -0.589110497558187, -1.7738045283738246, 2.912949811693224, 2.54986055745689, -1.449622878355439, 0.8040242946424501, -1.400296667981626, 0.8442603880451398, -1.6002573526872763], [0.13637929112728492, 1.1102321154700956, -1.301423836724045, 1.6912526785571602, -1.4267846731658604, 1.6500758685255577, 0.8898680334470592, -3.097414257005776, -0.891060958697844, 0.14109007824491146, -1.9859704158130138, 2.8189491426992372, -5.335175294623886, -1.9458703391339975, 2.2909326586652017, 1.0241943700490193], [-3.9759616588279054, -0.7741463777185194, 2.3291330352412682, 0.6115066315113246, -0.5278758421312054, 2.330180544085435, -0.025501061948249068, 1.5763551698628033, 2.0533292527533558, -3.4019506507378425, 4.4221558924288455, 1.0565228478602788, -3.0736625757202845, -1.8794731264658264, 0.2383922064772247, -3.2182721452003547], [-1.2677563872461368, -0.43778264095073627, 0.08849289266826493, 2.182647939014192, -1.9253307065659928, -1.4119373909465447, 0.7004851810525001, 0.4820601059776694, 0.5558995057003164, 2.7806883394971402, -1.65919883212891, -6.19421746091353, 0.5642583262036461, 2.819001188629243, -3.092018139006787, 0.27810390860335776], [-0.7725589327540072, 1.896482321199072, 0.21335390002585158, -0.19836420391682472, 3.796420507019437, -1.0343130362231263, -1.7254877976557395, 0.7303685726564755, -1.0212113417967617, 1.1336418013263367, -1.549956414336875, 3.37492878397787, 2.176333754133799, 0.3939239490649876, 4.548627695837549, -3.2086502249697793], [-2.321473359157983, 2.7213445967582475, -1.6153148771699253, -2.085854239956595, 0.2313850632365378, -1.6992118707626773, -0.34482443250486333, 2.2274078287290577, 1.8979499864056346, -0.019387401961613197, 3.087059432502204, -0.07126735279221594, -2.712078305981808, 0.9246291917570821, -0.5802234016014239, -0.2467985705109923], [-0.38717498037797715, -4.143722780238283, -1.0115445892237978, 2.186354235353077, -2.2686717299114365, 0.004192327917928111, -0.8420681594674571, 0.940893029015105, 2.539103836903286, 3.233377174210082, -0.7906218580500556, -1.894921193107388, 0.8979772692965574, 1.2300890834597715, 1.373860992670582, 2.3962628757876168], [-1.7871861224602852, 0.9931375182892395, 1.9579052143693998, -1.5164118094050338, 1.0178006395943922, 4.252903898007283, -0.19561179004614526, -3.871825982934837, 1.7464488973930208, 0.5667056709777758, 1.0852424088973582, 1.9297444288783596, -0.6424418470950336, -0.9024248249098655, -0.009196153684639422, 2.6107668936442336]], "weights_h2o": [[-1.0398298605735299, 1.88868343057043, 2.1217251291894272, -0.33867200080913923, 1.4192620813262615, -0.9377086898114868, 0.09831354760890021, 2.0208003561786794, 0.9497030846830372, -2.3734068170038873, -0.4017495152217926, 2.6643087031002355, 2.5932607821216425, -0.5952556748463951, -2.133024374109745, -0.9133919494685525], [-0.42698592294311144, 2.504454333371281, -1.7478525407941938, -1.2500652762874762, -0.625721953334982, -0.460585061746247, 2.7829736473916373, 1.0238276613291102, 5.146143984778474, -3.174530516863597, 0.3118815812192499, 1.0630671260155153, -1.9360215273567485, -3.672754374243331, 5.358286056843488, 3.860014472049743], [-0.737152313862733, 4.66605595012722, -1.664478459933555, 0.3920541958030847, -2.25907090205361, -1.1386824370149584, 1.2833542028895766, -0.2831583644572837, 1.932860667600052, -0.7884662963206793, -0.22218972110677798, -4.036407940653959, -0.29978861318543504, 0.8403634038371304, 0.024340540748180317, 1.6345182251299373], [0.8808458589719907, -1.2170107123976286, 4.164485517338421, 2.9224217213018195, 0.45137698596446096, 0.060025721194420144, -0.28328278598117346, 0.8496127682022461, -1.7744156208091435, 2.9733395550995354, 1.4610346054678582, 2.8178219201087678, -1.0466067169931828, 2.939935993782619, -4.320972567898905, 3.748404199575284]], "bias_h1": [[-0.22793523523688447], [0.4254114637457631], [-6.956118910187405], [2.3576316751283115], [0.05470917071924605], [0.26710613511150516], [2.752135236146076], [2.5661376521603465], [1.0406916377429893], [-0.5534475985418683], [-0.7338910466749322], [3.2296676828636457], [-2.066693163693175], [-1.766785217253335], [-0.7173041226344186], [0.9256276755962607]], "bias_h2": [[-1.004786520197477], [2.4497688737311085], [0.5609550565649138], [0.028168019782551033], [1.6204286626828166], [-0.043016282045647156], [1.5916397630155747], [2.983240668679976], [3.477071295415401], [-0.4706162195604555], [-0.7081769474632491], [0.24716031694876162], [4.710731120063467], [4.235912817487318], [1.5277367386553493], [-0.7546415752177089]], "bias_o": [[-0.5526683622503763], [-3.943356071574777], [2.3792577585788575], [-0.9375426002960059]]}, {"input_nodes": 12, "first_hidden_nodes": 16, "second_hidden_nodes": 16, "output_nodes": 4, "weights_ih1": [[4.206501070174736, -0.27549370413183627, -2.718039343360846, 3.512027116957225, 0.9020260104626898, 1.7817310532779023, 0.7852061788146885, -0.2953780937781272, -1.844664111110926, -0.8944960900998888, -0.45577003637824814, 2.3498833744906715], [-2.2672780159105663, 0.8435502889369026, -0.6257425169517978, 2.16687521307027, -1.6027734782261285, 1.440170765594542, 0.5163489951125003, 0.2489677888087935, 4.086885304627081, 3.8981239634877456, 2.7123472494512733, -0.14295208358663566], [4.453761757575799, 3.4806230659202795, -4.949828175321912, 0.25483276559869844, 4.167229296139019, 1.5473342710343272, -1.156656832847586, 1.8874611629578735, -1.7900495697628118, 2.8645733284986568, -0.33586985956446147, 2.261624074791043], [0.2705939405245097, 1.307541874210692, -0.5669925135547035, -1.5550658985008359, -1.8171770279252641, -0.19316173583097007, -0.8600393604793588, 1.5926202577480646, 1.983116089935106, 1.9993534271496585, 0.6001880122802606, 2.299562950665577], [-1.3774856985469954, -4.810716534014543, 0.9447392507517018, 0.6545751377954879, 0.09342350922837325, 1.9315273954929355, 0.08061710586202177, -0.25358896232902844, 0.6511539507098005, 1.7730597215690105, -0.4929171705614584, 1.9022656302143595], [1.5836527570103864, 2.1580461686327475, -1.791643478875155, 0.08247896544249518, 0.4477732130708467, -0.6323070003450952, 5.277096322700432, -0.8668949097192251, 0.8210214598082041, 4.734040752495261, 0.0471814068221128, 0.0897395963907343], [-0.5241744521124292, -3.2650193047929577, 0.6794182892440583, 0.37069411989317524, -1.1523719883465084, -1.523098358071178, -0.17069800180808423, -0.48456000033596336, 2.616624915565219, -1.0914993233647203, 0.3381515071491808, -4.724587589231717], [1.8831323861391998, 0.11750368790116676, -2.8656465113355, 2.6222825421301237, 3.224357301789355, -2.026921807143932, 1.267102170159325, 1.7894858888011613, 2.3104525427731266, 3.5342224941568103, 1.182761718477406, -3.3747028727863073], [1.1788594379391661, 2.7491820760575725, 1.4840081183953935, -1.0351737283982905, 1.2642339512329792, -2.2657646175772737, -0.5377679051099574, 2.1522446663322237, 0.702439775115315, -2.9577037555105883, 1.3726459434063427, 0.9482957475846719], [0.8190850997129994, 5.035848778632981, 0.5463111947869538, -1.1038096681915501, 0.057830778096981866, 0.35120766643814233, 0.005989136889883645, 3.8217704930176404, 1.769090455744961, 0.08857850727695568, 1.4323277428841696, -1.2155538509130581], [1.563308788992877, 0.5326305251667538, -1.0440858795196077, -3.2997937101158032, 1.2755222464656222, 1.4949553132178028, 1.1644094204001567, 1.4723845611405753, 0.10539226399856888, 2.4757703845353873, 1.3064869751914456, 1.0893298659771704], [-2.309737589371464, 1.6036596729415458, 1.611799551549974, -1.0199783270660212, 2.0059090238613444, -2.2859355361793536, -2.9834672179190624, 0.6384419690552078, -0.7211699971918861, 0.39254533892017535, 1.637519421552672, 3.36048839230465], [1.1340722730517732, -1.6314605112096388, 2.4809725867857177, 2.5758463817798116, -1.1770912835599476, -3.5880826385268785, 0.2483097501654475, 1.1703812751705673, 0.14211263517014763, -0.5537432743488478, 1.4937466676194073, 4.578604390412425], [-2.1803369459334663, 2.083428444700444, 1.0379538673669613, 3.4907277931688596, 5.677042305501788, 3.3578782622997583, 1.0837091219779655, 3.3566659400906533, 0.7710551958602752, -0.9046064078150838, 1.8565245132924189, -0.8465725209541158], [1.9054904875828567, 5.349441010357783, -0.056879155998290756, 3.536914766633677, 3.6597708923012355, 3.0786902027081737, -0.04057743966747655, -2.1978336423013993, 2.2716864751548544, -0.5266404312379535, -2.7383929910866804, -1.6288134764713722], [3.397524426766904, -3.7086450592000597, 0.4113215276018003, 1.893608394200451, 3.347473446735357, 1.1789890710285464, -0.13015620840547343, 4.292845441310865, -2.648743778596696, -0.025573852182438177, 1.1355307455505415, 2.735839401921303]], "weights_h1h2": [[-3.30895488110444, 0.24013574637799406, 3.362649755800236, -1.9585094571474089, 0.9846781875295019, 5.826966099872989, 2.7904807859636245, 2.284834765238717, -1.7596396020582297, 0.4014865831627232, 2.087468852162916, 1.736313896619649, -0.5460541344970018, 2.4054904227328744, 0.4457665189636144, 3.5904419839846797], [-0.8382238965293052, 1.7313969872771937, 0.9741821560551234, -0.7131397198207512, -0.34799949855161055, -1.5414142492828056, -2.2410049487830164, 3.7553852209505387, 2.114447648263211, 0.5658893157680216, 1.1977600739844054, 1.0605957955747591, 2.32168643432424, -0.8619339083207023, -0.8147173863349235, 0.29703405496765156], [-0.09325257730071104, 3.2739115027183185, 0.6381049299061298, 0.9171639979209942, 0.40125842328865746, -1.5444164494297232, -2.43965533498581, -0.3547997796145742, 0.7621006123404983, -0.10668291993392093, -0.37332344038061105, -0.4534092231356307, 2.6139061250208044, 0.5817821059765774, -1.526563728055424, -2.3418149413336273], [-0.816535658230514, 0.27311791321281537, -0.21349538321693023, 3.919401991007529, 1.3431752473124496, 1.570373912508383, 0.2085637856152365, 2.89728963319734, 3.1523417145872314, 2.3712523916378117, 1.2157215663087344, -1.1267111618780512, 1.4533078331950753, -4.824998454756573, -1.6800887340454553, 2.8408323575413856], [0.18352056837256467, 0.6806544778411018, -3.487047877987215, 1.8830557942866526, 3.2700636853921226, 1.5734049354017148, 2.781480108852554, -2.024620877204435, -0.6200728050812686, 0.22573895355372925, 0.9246287349242222, -0.4591195581084377, -2.3389961039715805, 4.224468545429637, 2.4080298744917807, -0.956468411616554], [0.4590136457225503, 4.493985397165427, 1.6487030701693866, 2.2745079682977414, -1.1280844406063792, -2.2047809372441574, 0.7813431161024936, 2.6352262216756417, 4.163689644497644, 1.5715278618067026, 0.49648833887489147, -0.5905446552012577, -0.47047677237979474, 1.1725160330263364, 1.6273125369111845, 1.0416266852199296], [-1.3787216618207663, 0.0004769467450820297, 4.419943697143399, -0.0007706531815740263, 3.0331819178116968, 0.6026559885037299, 0.9326856398432315, -2.220375781641782, 2.3613315384228475, 0.9320485091197266, -0.9501440493201984, -0.057835672711374846, 0.2618613755488717, 2.00413537000985, 3.540124784570136, -1.4580177387043474], [-0.6989784086938042, 1.2261860463449192, -2.5859570545702297, -1.0018254369782844, -2.105667818768962, -2.202230255146574, 3.424995439573585, 3.3114519875416137, 4.65547203734245, -0.7723912436273344, 0.3752886013246346, -0.582394684397155, 1.5055262759322607, 0.03521029731306359, 0.003251090942555483, -1.7569192793217574], [-3.8319116294195763, 1.1139128444344952, 1.0987122570098442, 4.218694587811496, -1.933716722012556, -2.4677075343444046, 2.0471633860653227, -0.57572595633933, -1.805882017967031, 3.151220226051096, 2.6486113317603603, -1.598633519508153, 0.982593371050763, -1.3618609022502726, 0.7405052662035895, -1.6492421704301936], [0.08241287392082626, 1.1000113366450301, -1.220745957367845, 1.5671169493476143, -1.3244050766164353, 1.585119655643857, 0.8879384411169935, -3.299511395597413, -0.7882462670058022, 0.1510576268257198, -2.107203564840542, 2.8399901390361877, -5.274720943011859, -1.8786466393285446, 2.2697755110241555, 0.9383317487208299], [-3.944674836188399, -0.7632302171960461, 2.2627750617683526, 0.5033086126599412, -0.7110150760843194, 2.3537599164565304, 0.04640006671922278, 1.5130332982218107, 2.0087499787619847, -3.4566330716155513, 4.4159163019238825, 1.030476763202724, -3.0625213140116436, -1.9517238456353956, 0.12852230130858439, -3.0755961978069086], [-1.4010475543476155, -0.3915935711926956, -0.005241862447489892, 2.181795841263779, -2.137848912340239, -1.5894362799388047, 0.5566011560093418, 0.42510871811609957, 0.5155701278534491, 2.776450064585328, -1.603750109491187, -6.147272280827759, 0.667319297381715, 2.833781623932466, -3.115410355308728, 0.3841696596159436], [-0.5957347324501345, 1.935078628724739, 0.3130382462535963, -0.23193306537818187, 3.798906435973432, -1.007034618211688, -1.6265255302610488, 0.6788463176897821, -1.0694782418439683, 1.3276102479355352, -1.5198678817691236, 3.2883484159013374, 2.210824469300819, 0.4261279697675771, 4.425021220032267, -3.1341570456938683], [-2.1745489872732646, 2.6674973669733926, -1.6010388138858003, -2.1139011530724487, 0.24602980034989055, -1.6424845113994588, -0.27988958768994604, 2.40831327503621, 1.7162657066086753, 0.10460535632988827, 3.1701331726903135, -0.026019220316794465, -2.836542191344678, 0.9242536771808472, -0.6230088682795799, -0.17985162021684553], [-0.3429981643301427, -4.275792447321917, -1.0127536442927603, 2.186559371222347, -2.37609442711348, 0.0015338655951185748, -0.947538611196025, 1.0268777789222765, 2.54541523293718, 3.3079455534653746, -0.8567440562952455, -1.9028850210406065, 0.8088600344824991, 1.1728046105569585, 1.2010248572766926, 2.3232455156225926], [-1.5135044582842467, 1.0093559957463887, 1.9102552262472832, -1.5120115038638486, 0.8650318944429791, 4.223422116926484, -0.13193329278671223, -4.021231508416241, 1.5528691301154196, 0.6778578420070971, 1.0672028277268426, 2.1596330931017924, -0.6030483797494087, -0.9626244845590686, -0.006366897412434503, 2.7558226599085907]], "weights_h2o": [[-1.0734193686008502, 1.9121850369872277, 2.24783247375776, -0.3792109005748966, 1.4004418536657122, -0.8843376714464196, 0.04637709242732614, 2.0725877837646616, 0.9760461263774431, -2.40066781978378, -0.4029091335253433, 2.673510390415146, 2.480861264969409, -0.38401587709741686, -2.48414480207035, -1.0966733538500084], [-0.2881166537162866, 2.481398422226837, -1.7313761537281482, -1.2442831654669595, -0.5429014852189797, -0.3308310092384932, 2.6770819058311783, 1.0369841436328862, 5.1398273190296235, -3.3505359236950003, 0.31642266199207336, 1.038203801760319, -1.9407677821482507, -3.7300936750202283, 5.322456104551588, 3.94913533007922], [-0.6826217036299105, 4.579545397718994, -1.6467402155775068, 0.6139467354681313, -2.251120934988156, -1.2084012887879498, 1.3069976681541575, -0.18256695830258587, 1.9266816210966882, -1.3407365899006272, -0.263770813589445, -4.097391115146845, -0.22272096305244657, 0.9934458021979594, -0.1578195221088025, 1.6102552458350279], [0.956941530754019, -1.188625965140617, 4.054637057707231, 2.9364844625519195, 0.40689071409435684, 0.027840857768828442, -0.3771104975917017, 0.6581274800194815, -1.8641317794701708, 2.8336322948310504, 1.4434516729596294, 2.6110190468704366, -0.9668396843728455, 3.098283756021782, -4.301695285931196, 3.7018186892348375]], "bias_h1": [[-0.2169953007276028], [0.4320269493619897], [-7.017733278529417], [2.276202178937826], [-0.025320807100107166], [0.390853755093615], [2.7503552925689774], [2.782914704537717], [1.055745743934182], [-0.547062562158072], [-0.5056121237617468], [3.162873546199714], [-2.193745252646977], [-1.7445922163373986], [-0.7189600526114714], [0.8852542991427326]], "bias_h2": [[-1.092972680376853], [2.4720801276763944], [0.5688270344412698], [-0.04451811691144197], [1.507451275913087], [-0.04829462825180887], [1.8060301249217194], [3.0066955710855074], [3.410719404275898], [-0.7337542204088369], [-0.6904339892387541], [0.36006547970188296], [4.745307638703017], [4.034707465737875], [1.7444417475890486], [-0.7412698382866391]], "bias_o": [[-0.5081491471925206], [-3.819504448030915], [2.438311671701947], [-0.9464658087960827]]}, {"input_nodes": 12, "first_hidden_nodes": 16, "second_hidden_nodes": 16, "output_nodes": 4, "weights_ih1": [[4.33592780406154, -0.2531471226596926, -2.799472965908275, 3.3773839465025213, 1.097861066228723, 1.877000350324859, 0.7361470576677694, -0.3188093889670376, -2.0137307933604145, -0.6204536834158567, -0.38273755903542217, 2.1654817441461045], [-2.2361633355377384, 0.8370806604701957, -0.6289014985991558, 2.1488026884532037, -1.6837533781029828, 1.2762719090574848, 0.7827740406520461, 0.27647438001117547, 4.139468969212856, 3.953415187584614, 2.868359291078909, 0.2302541511738684], [4.3715517136363555, 3.599923413455222, -4.9319469268569325, 0.3012103901225341, 4.315413013204064, 1.607495978724182, -1.2215153942277506, 1.8450105374972483, -1.8226312301628078, 3.0029033473429503, -0.3183387731866482, 2.255645809147106], [0.27324520983661926, 1.3395483870372833, -0.2743075727955402, -1.4775723713133453, -1.7486859254986697, -0.16826848449428622, -0.9288452249731348, 1.6877853019487818, 1.9637605082415632, 1.8499123991494666, 0.6769739175964288, 2.1897462089040163], [-1.3734193298804709, -4.733675773388773, 0.9725738139024687, 0.6005094338366824, -0.06405885420920913, 1.9604473772411255, 0.1074282375943911, -0.2475509202077706, 0.8240953302660927, 1.750509657767437, -0.5915176173157859, 1.9448624330517528], [1.5148226938875047, 2.2846697105751366, -1.7825034029095554, 0.20338305604398133, 0.55642428914806, -0.6983863248368811, 5.236378639239545, -0.7345003758105587, 0.7759791150923909, 4.7256630266859325, -0.016689628047791494, -0.0910198061947714], [-0.2754055141456875, -3.162310146426406, 0.6089648108598635, 0.38214674967472895, -1.0899293584057623, -1.5433273551035656, -0.11828685558295066, -0.409061140186348, 2.5096064036612007, -1.1667713930034718, 0.16534239123743855, -4.665435816141564], [1.8656812631351485, -0.14605116350183636, -2.88209980456571, 2.483526053012782, 3.1980441090431073, -1.9861194153760386, 1.2793928540813377, 2.1280248997387563, 2.0299973762474113, 3.4496879313688824, 1.0032411158188534, -3.313848739450455], [0.9601129437583394, 2.7811511644971034, 1.3810529017041993, -1.1731943587078875, 1.3705382630495122, -2.05349099879588, -0.5470386681744119, 2.144298320775197, 0.7096076189404981, -3.16345441126926, 1.4394458488988844, 0.6511272046589456], [0.7321582249491543, 5.133112053838244, 0.5114823872826963, -1.11221684129765, 0.10428224728713026, 0.4114873425647645, 0.0047256672644707814, 3.8569756675617857, 1.7505087549501805, 0.23974559761626693, 1.5870451630592028, -1.2621840819085572], [1.6485729910345934, 0.6553342905736581, -1.3195310392614745, -3.3604401571274343, 1.1197551464041928, 1.5119978505291578, 1.3693061834418359, 1.498295796501149, 0.10305254930812266, 2.5347850186106067, 1.3390600670524395, 1.1317854441613573], [-2.297553335081453, 1.559897537252286, 1.689527027575386, -0.9107157191927928, 1.9559008937478346, -2.254118218508541, -2.9203922537568063, 0.5986028269261375, -0.7883940337117091, 0.3673099636590727, 1.7458821678098555, 3.2597371480923814], [1.3607857208235843, -1.789835971956912, 2.4789187602350675, 2.4580908840656885, -1.2168250909388014, -3.7388428617593226, 0.27850804118771444, 1.1430513363733485, 0.32920075430628015, -0.5724002971336295, 1.454404953080965, 4.578734908664477], [-2.2242181335642996, 2.135574888702786, 1.2630042005573372, 3.6160094327368553, 5.7360274773709135, 3.5728989660002557, 1.3020002208094072, 3.5113073938958856, 0.7102972721807103, -1.0131294419630328, 1.9700802130402633, -1.0512382865336414], [1.7970961282203843, 5.487674406008069, -0.07573104138758807, 3.5668829468899963, 3.848160407079522, 3.1288286097252764, -0.11438282103958594, -2.168461361548072, 2.410674133164776, -0.506008866421394, -2.700125427403731, -1.6600979089066397], [3.358215236201689, -3.6385593988361244, 0.5128766908784701, 2.077126506822515, 3.236206312514658, 0.9203539789494901, -0.026552579056799253, 4.350374292509151, -2.6306380626671575, 0.11475188090263136, 1.0847918983566005, 2.717448708365407]], "weights_h1h2": [[-3.409723531132931, 0.2711310610122277, 3.5171298521217986, -1.9253434497334236, 1.0579767345762883, 5.840196349484405, 2.796137662250282, 2.402697122823699, -1.825013590827823, 0.4309812193437117, 1.9520946616255912, 1.7428233212566726, -0.5291824522945462, 2.4240845504531934, 0.46096755566178355, 3.5431924497296357], [-0.648497725511709, 1.716760200460617, 1.1012770087922141, -0.758847378900148, -0.5086749787418752, -1.5596406671572254, -2.276145769555775, 3.7169681735039837, 2.1761970750468254, 0.6059885177951873, 1.1282194464733875, 0.9851165342853814, 2.341777000399456, -0.9536461851051675, -0.9424458786953841, 0.4388336710943201], [-0.04915266057494351, 3.2247263878131873, 0.7775962124657656, 0.9465978545508583, 0.3606825321932497, -1.546447516857746, -2.3871089248600366, -0.3652619194470646, 0.9921752814158302, 0.12546050269522122, -0.3685653114694315, -0.5029214965902257, 2.440760065285637, 0.7126918792370648, -1.8772159776696218, -2.1898700034076217], [-0.7791149755052964, 0.3358270786962753, -0.1951780174168069, 3.7817056749620366, 1.3650507815091315, 1.519764087853367, 0.11261616409933708, 3.0540566100399884, 3.1162126877366365, 2.3753568679009547, 1.319816890161727, -1.1202757041116858, 1.4676153452818772, -4.857146583738472, -1.7037798007064775, 2.6980740041552576], [0.2139282299952761, 0.8233459329005113, -3.4672457375312584, 1.8548157071549505, 3.2187603253384527, 1.3013921916471947, 2.4711878780369925, -1.8188462852860297, -0.8176880688984589, 0.2053393632021113, 0.7527801974159112, -0.4703797773668712, -2.340234246779995, 4.164462525787545, 2.487018716471069, -0.8421283626374131], [0.47165326154294224, 4.584480978025869, 1.5896880732825025, 2.2664886604616354, -1.1133821244812858, -2.0633572969507834, 0.5779904081498095, 2.944289107525026, 4.198465674642225, 1.5618232942291037, 0.4399294863057673, -0.4142131827933228, -0.48205452692788564, 1.2177951726802763, 1.7327306169728751, 1.087138485123736], [-1.1832563338634823, -0.08052652189163409, 4.598638770471766, 0.02252009842147616, 2.86460002367107, 0.41274060001919327, 0.925542117631406, -2.2219128350500252, 2.311786726776174, 1.078728918951806, -1.001165085878284, -0.2307459484251368, 0.32135697303539335, 1.9439100650087342, 3.4196136097490863, -1.564215098316415], [-0.7085904283082378, 1.2008818698435781, -2.7779886149876623, -0.9011724479601675, -1.9084041870319062, -2.1246957285230366, 3.15077893911525, 3.14180781741617, 4.87605617561752, -0.7814748035313492, 0.5036955307674053, -0.6065006675062665, 1.4504909212538855, 0.14752831093867658, -0.1052037763177591, -1.7690607562348373], [-3.7926945133920267, 1.0927547290900224, 1.1172665777749031, 4.107090367514357, -1.9437164739590551, -2.4562191054611247, 2.1853261490162517, -0.5767288853324313, -1.8610786273209596, 2.911423529817487, 2.56729972084257, -1.7599059410294389, 1.144679727744696, -1.309923965927339, 0.5721651252160952, -1.6467305881444982], [-0.21489994839896345, 1.1102321154700956, -1.2896262237594314, 1.6367718487624856, -1.2997701370919288, 1.624608882341442, 0.8875214966425333, -3.288752757333204, -0.8605390809455128, 0.14109007824491146, -1.8303452365258304, 2.9165794197716126, -5.132191972002193, -1.9060284888020682, 2.0943846775279846, 0.909104639175698], [-3.6523987958397184, -0.7966176704978987, 2.560808257049188, 0.5978856554527577, -0.6079788090216325, 2.3938173151732496, 0.09753257430993224, 1.458421592259042, 2.0226912567081756, -3.4797896799688646, 4.4161700209247785, 0.9539061904769883, -3.037047547954292, -1.9309091089955996, 0.1426780627596448, -3.0612728757127554], [-1.402728387691896, -0.33276180420869644, 0.020936032401551834, 2.2336494250351118, -1.84519936542692, -1.4722789796152553, 0.41585871383504847, 0.4169640520533622, 0.5904200657696381, 2.68027392922137, -1.627125289901658, -6.042511719505027, 0.6473891467906232, 2.8119635741624163, -3.1645554734632064, 0.2668845444730466], [-0.5891212873901418, 1.834982883380771, 0.49536728098080385, -0.38221680604904434, 3.876351072940715, -1.0629086782499475, -1.7254877976557395, 0.706983230385062, -1.0549308945763958, 1.084224158479111, -1.5081395536598738, 3.411815099784274, 2.129864298410154, 0.5029177003652259, 4.476422137475398, -3.096873315549586], [-2.203467294316654, 2.7782522496767124, -1.5897414138796317, -1.9661071645628276, 0.2591078010251146, -1.6267743220097188, -0.36687982340742215, 2.3525492787758866, 1.9007686963075983, -0.19288602646543207, 3.190013228170539, -0.11821161267828262, -2.7910653098476708, 0.9246291917570821, -0.8526842632876328, -0.2144009864722711], [-0.49490604462798293, -4.204841242099722, -0.9615964849170174, 2.0382656400491803, -2.365486266583545, -0.01420461761985145, -0.8420681594674571, 0.879602296455395, 2.546881607040221, 3.23085594014577, -0.8438431434347666, -1.8615213308712097, 0.8132903405592571, 1.2153372142592906, 1.1926770539236933, 2.3962628757876168], [-1.6201319769706002, 0.9830874513438417, 1.9897013668332753, -1.5133140908154472, 1.121002142726632, 4.251144812411182, -0.11476357615222536, -3.8805655792078366, 1.5618679953616392, 0.6243776411101438, 1.2497065797330116, 2.0656610193466634, -0.5923518280848379, -0.9688532352911876, -0.010308180734159606, 2.7285889613660532]], "weights_h2o": [[-1.1222542282104582, 1.9081713680403432, 2.344144849498263, -0.5983552919378367, 1.4527174916428771, -0.8772336055109635, -0.045638298876356106, 2.0642011742002397, 0.8499656476187352, -2.406177930941135, -0.3783594284546324, 2.5099047346184973, 2.491266886546918, -0.5952556748463951, -2.2890583105932225, -0.8955978229464812], [-0.43035189849497335, 2.3701450879507897, -1.9654898899796032, -1.1643129784188295, -0.6889527085049478, -0.46231705157429553, 2.719822234089407, 1.0561912497555537, 5.202793276918424, -3.212575903819979, 0.29512028604452895, 1.1723068307253466, -1.890191390467161, -3.8447619135744766, 5.204821555520221, 3.9895217151948583], [-0.8105655497007194, 4.7527506952755605, -1.445676351788021, 0.48957936988018913, -2.2156932975757844, -1.214711932361097, 1.0546978126549702, -0.2615344431165619, 1.9150091006748045, -0.9376811503270504, -0.2766383502409152, -4.1700956086168075, -0.04928208263617978, 0.6438437437884439, 0.007912597410129146, 1.6345182251299373], [0.7940296572061228, -1.2216568068372657, 4.118204111471951, 2.888002467468513, 0.4413357993287448, -0.006752647774476504, -0.30474826837486557, 0.9568498407258446, -1.7744156208091435, 2.7670341471826267, 1.3393316517987701, 2.8178219201087678, -0.9311220804405841, 3.0162012422974547, -4.290511885887298, 3.7942237746540224]], "bias_h1": [[-0.21226314920687145], [0.38636404984037065], [-6.972910231023359], [2.3083211438661166], [-0.11620762824422676], [0.2689530315208697], [2.7784284243710298], [2.8667888700790325], [1.110609083410138], [-0.7544346925286127], [-0.7798827463713014], [3.0538972250882046], [-2.034438834502812], [-1.6645725328891963], [-0.7048870509854193], [0.8427364578634531]], "bias_h2": [[-0.9667505609144832], [2.4834839319052415], [0.6764242632253583], [-0.14288710268247648], [1.7491351289380215], [-0.03622995797791695], [1.5419049371361053], [2.983240668679976], [3.472977269446491], [-0.6577517861301763], [-0.6377416458020027], [0.3515357543261298], [4.682804549649481], [4.235912817487318], [1.7361893359044545], [-0.7678682247192306]], "bias_o": [[-0.551456032989682], [-3.9087233299187436], [2.439887251328299], [-1.1269250799854373]]}, {"input_nodes": 12, "first_hidden_nodes": 16, "second_hidden_nodes": 16, "output_nodes": 4, "weights_ih1": [[4.29091989209607, -0.21498228717832119, -2.8277453822688723, 3.445074857636581, 1.137693495056014, 1.735558810707199, 0.8289840892121758, -0.3447773121750477, -1.8303887608708733, -0.8327855406514837, -0.6679974860571498, 2.2736755892394567], [-2.20969368461223, 1.0621171858852316, -0.7016548356168565, 2.1565916321272542, -1.6150767172301914, 1.3665450535701906, 0.7341181376090721, 0.3929519056951405, 4.157507986119049, 4.1177194772740595, 2.6982131076574984, -0.12043297421895674], [4.741264456967325, 3.641647719559689, -5.093594963772236, 0.4318289529835673, 4.275726286619664, 1.5473342710343272, -0.8893428787979402, 1.7783274458970655, -1.9701451810176653, 2.88291774808481, -0.33586985956446147, 2.2889595830207283], [0.07111094772773131, 1.3003109053617385, -0.1953669460738309, -1.7893518866190554, -1.9731050050260739, -0.353930071436692, -0.9952720556269012, 1.6627124679533538, 1.8630538219375132, 1.9660943651647036, 0.6533568537690204, 2.0255522503961156], [-1.3283290367697256, -4.875821351879506, 0.8441868586258385, 0.5699181038784027, 0.011129841964733947, 2.245785368455302, 0.07007126109608099, -0.2674551542285776, 0.8541432747508702, 1.7771845169218863, -0.6583556947838474, 1.8031842433497505], [1.824971376517919, 2.2949149889462737, -1.904787122383237, -0.0067598236226158945, 0.4445484475210011, -0.7762627297558871, 5.283123339429497, -0.7174318404031088, 0.9161507575291867, 4.816805763339196, -0.20069919204019332, 0.08525771401994804], [-0.28123453222022565, -3.176746643570327, 0.5796483013284568, 0.46085544804010903, -1.100271652998017, -1.5369933550151402, -0.08597375675060456, -0.4686720162890062, 2.562181621583516, -1.1576490861720086, 0.14427559211694596, -4.4664823823154185], [1.6954161836200732, 0.0151656055307474, -2.8101535432045854, 2.6449765407880887, 3.0767728258501377, -2.106298725841079, 1.4770102330889388, 2.153990542614308, 2.2668647798345307, 3.596769524743842, 1.0792345311794875, -3.3747028727863073], [1.0223899971036814, 2.9729430864042605, 1.1718340375391123, -1.2265775411962025, 1.29395905779436, -2.2197252583242464, -0.5924837439395414, 1.9658010886021715, 0.4565499423654635, -2.8811011393777677, 1.504842305025297, 0.5862918019123684], [0.7358103182960337, 4.893108137511434, 0.4173889342148528, -1.0335335931750753, 0.14285962198373459, 0.28415885199160035, -0.07321786758020644, 3.8660935093718383, 1.734252667583065, 0.21809950878790696, 1.4878212377794078, -1.276727658050497], [1.445247002235937, 0.7272161444939528, -1.2210246984462854, -3.3909637341905237, 1.1963662041975969, 1.3748301506601632, 1.390384055893582, 1.599898068516824, 0.13727957507168512, 2.5118381784597403, 1.3079630071676356, 0.9700482832709271], [-2.3879705478195, 1.5767715108093614, 1.441762062388903, -0.8066490726623501, 2.1608176397173615, -2.3176532966037398, -2.9805614301502388, 0.8286246177121385, -0.7211699971918861, 0.4398025784690194, 1.596723975680713, 3.3551649396764907], [1.2823656771366472, -1.9157091333326055, 2.4668232128186256, 2.626873630518663, -1.000228021481796, -3.6969285634831315, 0.4256175342531259, 1.1247015776287599, 0.22624385354046322, -0.714045957317398, 1.5675000205650007, 4.578604390412425], [-2.396606884383054, 2.083428444700444, 1.2309817469253908, 3.457685148597368, 5.585008136674329, 3.1621394486784586, 1.3398618044439161, 3.71429913596781, 0.7270401659010621, -1.0461714804466928, 1.8542246693500732, -0.9077618950884789], [1.7703806208497859, 5.424456596086944, 0.023897968099778594, 3.59433709966733, 3.7344766005598142, 3.029364921637891, -0.02245499996617068, -2.389638483693773, 2.4388933162653004, -0.527598530215548, -2.584340225093484, -1.6660977423706549], [3.397524426766904, -3.6382635156935, 0.3619353644525673, 1.8959940836250777, 3.300584053114057, 1.168680507806041, -0.13015620840547343, 4.292845441310865, -2.587130472847225, -0.025573852182438177, 1.2536144558771465, 2.88051539659003]], "weights_h1h2": [[-3.356836167479525, 0.24013574637799406, 3.4279630161919963, -1.9290575938897574, 0.9292815214941906, 5.8204097768561525, 2.5857790314081335, 2.0405103933006457, -1.7788603519116963, 0.3031802831942343, 2.1787572404311604, 1.735756520124873, -0.4579227587284045, 2.2854504390954093, 0.07661587933786551, 3.5392783435183626], [-0.6993636727904218, 1.7346127847707213, 0.8424950636009474, -0.6817496620675019, -0.33910425912729797, -1.74192621551241, -2.2410049487830164, 3.7302943738826624, 2.114447648263211, 0.5045263584337847, 1.2216410094341534, 0.9791327898651372, 2.072779384701473, -0.9588597965126613, -1.0262290517828472, 0.3995795187754392], [-0.07364912864911212, 3.5044850242741497, 0.6847364848358466, 0.8648901526300421, 0.34075882818982717, -1.5577821197616353, -2.562864181550154, -0.361513506932162, 0.8681525841614774, 0.1673069685226789, -0.39222162163000074, -0.5428091586984858, 2.5036972480384128, 0.4250524612367033, -1.587202674656182, -2.2530652962334976], [-0.4605011163266942, 0.3796766644105879, -0.15214722041205164, 3.886747283578124, 1.3431752473124496, 1.6066894800680047, 0.08632267272683196, 3.0109762320897335, 3.2421167304867358, 2.34885043066594, 1.1941109894213506, -1.2489670610298997, 1.5484883924853021, -4.830393652614519, -1.6124610684341378, 2.5721781843441573], [-0.06865473931232971, 0.6974508857616771, -3.443881335953697, 1.7405169309445974, 3.366464107692608, 1.400839984459533, 2.714749579758202, -1.6382643373523358, -0.7527548557487038, 0.13341094993712657, 0.8675715152262099, -0.5976931338706304, -2.2729146390031296, 4.177295675025977, 2.423697835692459, -0.7364599330198282], [0.5956248908087785, 4.288359869804109, 1.6334626501662515, 2.2745079682977414, -0.9941868475152439, -2.1649138712344147, 0.6442169890518827, 2.7792665653261817, 4.155310278067727, 1.3033293043045098, 0.49648833887489147, -0.44707996105876474, -0.35924534011929043, 1.134478967969433, 1.5387124791003548, 1.0594806728663368], [-1.2582086037222393, -0.3050905700403149, 4.582528122906806, -0.004869941753537211, 2.9008144010309325, 0.5524187457566268, 0.7046197066066022, -2.2615216273986176, 2.2966737385540474, 0.929897452326224, -0.8798099905901663, 0.04732278421376073, 0.2078341409504822, 2.0660299099585404, 3.5109733437620374, -1.5143773304511605], [-0.6929782912798238, 1.0680313956240188, -2.7757887077349968, -0.9468721849363367, -1.9778475181210795, -2.0637332412658216, 3.348151952478295, 3.163682365548526, 4.852835427335898, -0.8070382906390783, 0.28598101713353763, -0.7227718127581743, 1.4808936845201304, 0.19188521665495892, -0.02473844240066401, -1.9701685947544194], [-3.699936229029468, 1.0728322187907415, 1.1925349972284032, 4.182447266000564, -1.8357398885203424, -2.2717472129274676, 2.1102769654918623, -0.595682468085575, -1.8786304998974481, 2.935224318551069, 2.5926740712617704, -1.5186605785144078, 0.9214301581618775, -1.345136680029537, 0.8197357647531723, -1.7026220332144275], [-0.0724575632829499, 1.075322811313293, -1.3768090035380902, 1.6590004171747335, -1.2806085713058608, 1.7287323433807182, 0.8964297795490521, -3.360952570948983, -1.1073754344468543, 0.12441161369553903, -1.8587948762881106, 2.949111988999407, -5.274720943011859, -1.8401324169521378, 2.1332602048411298, 0.9383317487208299], [-3.7894421972515615, -0.7695622379603263, 2.1770559339981554, 0.4593242402074769, -0.49488001093293676, 2.299048781433982, 0.05223843346724016, 1.5092610317250028, 2.213684772304091, -3.582899941659362, 4.398471319202443, 0.8069845276668961, -3.148328938156217, -2.140246046578438, 0.019095984482213918, -2.911481743429083], [-1.4300103417791097, -0.2524127181804965, -0.087137856175035, 2.2266503416022636, -1.9070477653266789, -1.2756598994471684, 0.7160295712533149, 0.28858131745026144, 0.5915574063150066, 2.7412183699617922, -1.6779816146532034, -6.23017531612302, 0.5531712040477996, 2.9159681664907438, -3.2069780787004865, 0.13769341943501712], [-0.8207180478485943, 1.8993438681569277, 0.3811046171120242, -0.21243696776859777, 3.9805217350074606, -1.0895125653382889, -1.835648034130436, 0.6788463176897821, -0.9277161527657747, 1.1185206626705377, -1.5198678817691236, 3.2883484159013374, 2.176067040365065, 0.3817728904915624, 4.4705604497769205, -3.3268791087865206], [-2.106092105700313, 2.6471170787094125, -1.7017714788656182, -2.103816061368028, 0.5012032186409596, -1.6522731418841532, -0.18745116460073244, 2.306916355544541, 1.8736362292802622, 0.001887677438507443, 3.3541755945798664, -0.030033454353130228, -2.7454102265136453, 1.1456935646922084, -0.8375345832352535, -0.2012743767093372], [-0.5253215118969248, -4.262622915890098, -1.0624336903445017, 2.100556764196933, -2.402734171171847, -0.06460223361209315, -0.8486551485308589, 1.0421426543548893, 2.61564342274598, 3.34016573981198, -0.7531901297247089, -1.7408806338983418, 0.9129657220757599, 1.198408137142658, 1.0811725528628695, 2.3232455156225926], [-1.7859093695923034, 1.1545039136788209, 1.6240528179847784, -1.577765058378365, 1.091743410283665, 4.186875219462977, -0.1690042893421612, -3.8997991469201, 1.699684885566593, 0.8196987208091963, 1.2472312502617857, 2.0846419813707544, -0.5569457412155607, -1.083129944683458, -0.15470400432687062, 2.7033044425535295]], "weights_h2o": [[-1.2616447544311855, 1.8965831151998533, 2.2182918835580887, -0.3404292817495316, 1.4650898952265432, -0.7114110914971559, -0.09701959668816075, 2.0586922829840306, 1.0258929910895502, -2.483260053710892, -0.46865676697187675, 2.704039550049823, 2.6580055504802664, -0.5986968220382587, -2.1296032116293984, -0.9035826053564867], [-0.41736738782413774, 2.4074777045754527, -2.0189488904766004, -1.3200188687441536, -0.6324178543549274, -0.31962865260326323, 2.5939281083814754, 1.1121709087268539, 5.205759776786958, -3.2350333692492335, 0.3489898285041134, 1.0472292891032864, -1.8791957408429354, -3.715773960220764, 5.308615041823845, 3.953845334555468], [-0.6826217036299105, 4.575509334613734, -1.5537499514118136, 0.6180349152711148, -2.3192529379714806, -1.3078972928282553, 1.2612413121900683, -0.24502046875090033, 1.823228878442657, -1.014488125333648, -0.18745990793686707, -4.051089253431115, -0.23355319328069346, 0.8987865980198678, -0.12844009517904503, 1.7834687069933701], [1.1018239141301145, -1.1681460300633109, 4.199789045829824, 3.010350635382798, 0.2925779304824482, 0.031892789930506524, -0.3430097117513434, 0.9165098635657768, -1.6430447625166789, 2.9827393153506967, 1.3509806572309668, 2.827495401545829, -1.0287129657483929, 2.940541927276871, -4.094074286985411, 3.765516482016573]], "bias_h1": [[-0.07675456684601834], [0.40024198674668304], [-7.021756071996739], [2.362047769345968], [-0.010180725349128686], [0.4465698611809913], [2.7207277503586647], [3.014798227111096], [0.9493109681622878], [-0.5208284263448587], [-0.7637774638271857], [3.152258618422225], [-2.142296132806926], [-1.4087593307849582], [-0.7794865528609537], [1.1030767551280842]], "bias_h2": [[-1.0853797788141266], [2.4629375131017905], [0.6038794938996003], [-0.025666252552621453], [1.4545704811000402], [-0.20419887825886998], [1.5705176688542115], [3.0160000145994332], [3.281265678788362], [-0.4905520072737064], [-0.815959673031883], [0.33532224786819476], [4.797094668044635], [4.033341028669966], [1.6462387863975632], [-0.7412698382866391]], "bias_o": [[-0.5648012508268434], [-3.8256582591116017], [2.42729320442886], [-0.8226822507407688]]}, {"input_nodes": 12, "first_hidden_nodes": 16, "second_hidden_nodes": 16, "output_nodes": 4, "weights_ih1": [[4.29032321827171, -0.3007186387790774, -2.8326491075695035, 3.3354028735422627, 1.0975650666999337, 1.7818804728094286, 0.6952154844274951, -0.41079402668231046, -1.8701669488453752, -1.039795077375408, -0.5185022370776404, 2.018361748721686], [-2.2770104413832613, 0.892109276969004, -0.6756195571590279, 2.3555304844699227, -1.4609985538870782, 1.5500117325751477, 0.7010103646919761, 0.2421810264318088, 4.083262540484174, 4.12263325112222, 2.8373163926137854, -0.08170453072592032], [4.754415365094036, 3.4549085087552873, -4.98204940863241, 0.2792650942222421, 4.090239565249181, 1.6266575545387778, -1.0328120041771014, 1.9492066913422301, -1.8248410211782058, 3.0293524825754403, -0.15027404293532165, 2.308572660622435], [0.24891186476852725, 1.3953523774892305, -0.39519798702020975, -1.6350763987190113, -1.8421223668915627, -0.10582525845215368, -0.9548853328481066, 1.5533993709188336, 2.003306779062455, 1.967080508519731, 0.5942670832245642, 2.138580419159669], [-1.379915435271747, -4.784646511933491, 0.8052646904225296, 0.4200926041974797, 0.13697043298665104, 1.9366727644588333, -0.0842849630482278, 0.022573825301495792, 0.9274010499626651, 1.741252833986509, -0.50224972611918, 1.9025273125128246], [1.4601190553748873, 2.2409354530029417, -1.7708751043432756, 0.05181582303736678, 0.6427416914081643, -0.6758045997769098, 5.345416848242143, -0.6970984116768483, 0.8898968700134827, 4.5901849662637835, 0.16474577364248344, -0.019569848581395988], [-0.6257438542301113, -3.2735163852081, 0.7727905088384268, 0.3342471836365762, -1.1050048720723187, -1.5242296687142667, -0.14774743012355174, -0.2765608438311319, 2.7095861809270554, -1.1460654992111468, 0.25646841051091007, -4.738677007620564], [1.7235112107465993, 0.13647693770477667, -2.8719362898124894, 2.5327691402153047, 3.151718418128021, -2.1143013810698683, 1.2666892676215151, 2.1202195724933626, 2.405424249060718, 3.4436112632561544, 1.1922636911504627, -3.385103729035504], [1.022521363118659, 2.7230072409329042, 1.382983005447168, -1.0467945024386838, 1.2944868421196563, -1.8148687321254124, -0.6446045427133673, 2.1234263221456686, 0.6577975278046182, -2.8618608045036074, 1.5234053320644574, 0.9383068556639367], [0.7339350456351611, 5.027754098032982, 0.223191629814121, -1.0795274314672372, 0.08315800029341759, 0.40466318704930293, -0.17126740745430621, 4.026711251755022, 1.7667248475920383, 0.14768508882108833, 1.4451115159706234, -1.0788452919519531], [1.6097659105648794, 0.6230675354040597, -1.0227385882948303, -3.3843621223293914, 1.467562988052106, 1.5726995864969195, 1.4797076723699782, 1.5277377789752145, 0.1474228121742955, 2.5601726731559244, 1.4600308349500315, 1.1358751955425157], [-2.35168624850872, 1.7253358900387306, 1.5337139152530863, -0.9940022778585433, 1.953915745689856, -2.380486800488042, -3.1163656333437704, 0.7123873966164996, -0.7396608517517511, 0.34490347506186647, 1.7503672629144313, 3.3628612840785936], [1.3946945706111997, -1.7672613557423982, 2.452492088110133, 2.5758309161135315, -1.3201947526405862, -3.6533777261075695, 0.30238313119956817, 1.206160583767125, 0.18444497332266277, -0.46809061116882283, 1.519653221782501, 4.6367166367185755], [-2.168454338092899, 2.0665332142244366, 1.2248616378740704, 3.6139079835421866, 5.572354388648535, 3.3440122770319967, 1.2127726019866367, 3.4818405206798135, 0.6432105203420992, -0.7537215913990878, 1.76745595874949, -0.9948867805052023], [1.7357689143377903, 5.370413990701767, -0.11581148078515974, 3.5280240408296564, 3.6822935004091697, 2.953628835855052, -0.11226199713335885, -2.2180568109194017, 2.3316471042786793, -0.5220192737803856, -2.6615089686070705, -1.5760280296173703], [3.3786285440761707, -3.6044215314990433, 0.2346430807426349, 2.058276514941312, 3.3519632594547257, 1.1622824111517598, -0.08449606304969923, 4.383305123919704, -2.5461567485307146, -0.027844891967659158, 1.260544428979813, 2.847345619206126]], "weights_h1h2": [[-3.4143696678952216, -0.07690391570160521, 3.414399940735504, -2.0997993617724395, 0.9749844913439889, 5.67312630316405, 2.8310426599747998, 2.2499945869134157, -1.768919279577108, 0.1504123459476967, 2.065327959681972, 1.8359438348825148, -0.6161387990056039, 2.2906577066660416, 0.16936872620220647, 3.569830694290564], [-0.6153459745149172, 1.6575374210382336, 0.9506900597208416, -0.7843844666196671, -0.3726404328473478, -1.5797799614064136, -2.160688759418971, 3.7302275423808315, 2.0665808748599304, 0.5821280653805644, 1.1251575472803295, 0.9566102885184724, 2.116273532539506, -1.0147468805976012, -0.8279807048753519, 0.14038169639994164], [-0.3781437417471898, 3.3686581205595605, 0.7384592399511005, 0.9491170982112125, 0.362919893659626, -1.5064783150470797, -2.431982256535334, -0.3651822863358226, 0.7530040865395715, 0.15810038927266606, -0.3836357838946249, -0.6956918699395627, 2.4587254969251884, 0.5683828479274435, -1.5860818947674904, -2.481749491936328], [-0.6545126717244903, 0.42637419280364186, -0.12691795680731888, 3.9687055535825597, 1.3458603790195833, 1.6282511503617871, 0.2503571914817554, 2.9410622932804773, 3.291839637554331, 2.4638739577766824, 1.236241236815396, -1.1593197472968853, 1.7231987076021853, -4.6602600203611315, -1.6366845610948013, 2.710087897544442], [0.17776970359342764, 0.6309039510116272, -3.621245592063762, 1.8194461769540222, 3.428481933163538, 1.4071457384189925, 2.53894228072625, -1.8868829974520538, -0.6110314541020472, 0.2717777017961582, 0.8777745629024689, -0.45184125509378714, -2.3704252515073962, 4.151465131447137, 2.380793100016536, -0.9949466887785119], [0.6792609990133774, 4.4356867280033345, 1.7039334087910718, 2.3023799371015916, -1.120131284627932, -2.220321159353215, 0.6630642473669635, 2.618757633132356, 4.025380262269122, 1.5363178876332997, 0.48828318822711253, -0.3816241196043123, -0.48756325923858795, 1.2205649587556524, 1.4088929133548296, 1.074590049451722], [-1.3141920153777082, 0.03944131218929736, 4.504615025833477, 0.06989549001790589, 2.945789291859728, 0.2899551804379772, 0.8878441594300293, -2.313959154524821, 2.2911356100120406, 0.822596592993377, -0.7498817357359809, 0.052546155685025984, 0.37938979877819173, 2.167056776713402, 3.623430563481637, -1.4656886059441776], [-0.5534241969174056, 1.2162187291241726, -2.6930673965487233, -1.008216535288652, -2.057705622378104, -2.2056190822188695, 3.354847282942501, 3.2755161131800588, 4.889387523702947, -0.8078022246110824, 0.4231009537973981, -0.594456438018924, 1.4572491060991553, 0.0018691884097084555, 0.041113915118766484, -1.7697371267990782], [-3.964183219014719, 1.0701370243616821, 1.0581211317003716, 4.215789046294098, -1.978126843219204, -2.521284117231798, 1.969119649585371, -0.4956906947002928, -1.7809928534254031, 2.9548979546766527, 2.699782582959799, -1.4404611704899593, 1.0399359429563795, -1.2682063782582202, 0.6893736073070227, -1.860997094309311], [0.001677050347701728, 1.1908711048582368, -1.486349107002014, 1.3036078274747265, -1.238023164678913, 1.6961876799886246, 0.8918883176506305, -3.308496814440889, -0.8881718428602698, 0.13542616681307723, -1.9666660470963795, 2.929647155670389, -5.311781602072541, -1.8836941234184672, 2.2504558031316706, 0.9270296802601539], [-3.6800789444477884, -0.6717934616827986, 2.0991505479717283, 0.6291059240757122, -0.6242187094095261, 2.3110526247817127, 0.06836524970304032, 1.5513059699073457, 2.0478186299023804, -3.611902809306, 4.362542839488111, 0.995012034106025, -3.1371876764475757, -2.007779540382341, 0.258048859944354, -3.033221862184453], [-1.3815140498767733, -0.27109954233000977, -0.18842124225923101, 2.386036918041826, -2.0589290166951297, -1.3166995734075333, 0.5297530374225886, 0.23058220686004866, 0.5385635988842548, 2.7856773844961626, -1.7294740170274894, -6.415910053692605, 0.5113306332658356, 3.0280702295884208, -3.088656693567992, 0.3944494973419135], [-0.5781849732434264, 1.9763861801790599, 0.3424573625557428, -0.14546791280474228, 3.792727844172924, -1.0341861516607875, -1.9049484882873058, 0.6842109114726034, -1.0889332716328466, 1.0995529934216013, -1.5315962098783733, 3.3391864227719577, 2.1722697476397936, 0.41500081245705067, 4.4836394018556405, -3.1165001623492503], [-2.0957816633056447, 2.6144507511917237, -1.5061261523670302, -2.092931617949122, 0.3257178452613109, -1.4538766402726706, -0.32297763768853516, 2.4795255768150506, 1.8272730702132585, 0.08338983886637077, 