{"generation": 46400, "population": [{"input_nodes": 12, "hidden_nodes": 16, "output_nodes": 4, "weights_ih": [[1.129582640931476, 5.482433124057873, -8.194090992700998, -6.0894904282887365, 5.567213016248862, -8.841422871176924, 9.63634177773055, -0.40312228098445363, 3.554098204465794, 1.2994645400013196, -5.3466974670184255, -17.60146712401216], [1.0621023222192607, -14.061190104134976, 4.933626939094619, -1.771169219982915, 9.905131914691875, -2.9996419788397395, 18.523803479921806, 8.230572195724598, -0.29896850630105115, -5.2042388728097055, -8.633276183589226, 17.170769463033853], [8.878930177072561, 4.130388767556367, -6.226656684529813, 8.95049741117637, -15.417060681394101, -9.035163930810805, 14.128387239934076, -15.241322943000592, 20.573606100536967, -5.878338205941456, 13.746316277259865, -4.1043144411393895], [2.269118797852717, 26.179658606372744, -22.053862749350174, 5.039826312012064, -3.235453159726265, -5.686564051544336, -7.550071937573179, 5.087817605484798, 11.118800147284038, -0.6505806999673975, 1.9970230474328254, -17.21920868173966], [0.3809189635947493, -10.895464568382089, -3.5653508213863008, -9.805782343283989, -10.730621434474934, 17.70567879083591, 7.101307511788333, -9.957343502642123, -2.580355218490856, 11.584305202608814, 2.6584401270772196, 0.7925735686610084], [-17.00451197822724, -2.269587353232994, 15.839342462459781, 0.3267578921682087, 4.91454626951536, 21.05875232545199, 19.73595182003075, 3.826189715389881, 1.631736432292302, -23.391557600869273, -15.873804437422844, -17.549400664176797], [3.9380444872048113, -1.2111641694262494, -12.864473826726234, 14.319122881161285, 4.459650130994359, 5.905213798134007, 16.055050224162002, 15.522017502237155, 4.937424471325492, -5.195505708692046, 9.214460130059818, 6.113340174699264], [4.883990144192867, -0.6787174405398457, -10.721028787809468, -13.881436129895082, -6.057686518259893, 9.093126951171866, -5.639957450380267, 5.84068747039742, 18.19225621749574, -14.26595271639812, 15.901631982529446, -6.206506685261732], [1.2682697711659288, -22.303239096640443, 1.4346304500186298, 6.596307275908576, -11.796284781635427, -21.59185265103415, -4.584646062424757, 14.202144269435518, 22.692130596403263, -17.490540530347566, -2.709152851901975, -0.013414293381991377], [4.537766309716322, 1.574349181446462, 18.433889217313652, 4.63262800156651, 2.9098835779764696, 12.256275364948378, 6.108071939628794, -7.000524566722795, 27.46559557588333, -2.3379561160585913, -10.081475234844264, 2.757742491872334], [-12.811628404080082, 15.056722641871017, 0.5580906268095205, -1.0560999825783117, -8.237227394146272, -7.218809928457372, 1.6911889444511814, -9.004582915135924, -11.285754612207926, -6.623961903169388, -3.5160343400156746, 16.581907186840684], [10.093525615809734, 0.49774059647979657, -4.1069400619194925, 5.160261205236646, -13.209779757197303, 9.391395866480075, 10.78787360616872, 5.520703211545017, -13.097936124846262, -19.07041761549576, 5.386206128017056, -2.506448698243259], [-8.670349820948262, -7.96821819799206, -8.132928505619, -5.271976217808213, -3.6244144893761083, 37.65782242152581, -9.80859229333018, -4.9530860556238965, 2.391211665614542, 7.370196025763613, 9.693997988933576, 4.352780083021707], [-4.989753925918981, 16.26043728864567, -8.21508019599479, -10.038614026869718, 9.79512929948393, 8.482362605683697, -4.817682155004971, -12.923616579195825, -1.7528992415096212, 4.681227266637819, -6.750877209673839, -14.634311966148667], [1.0795142480269795, 19.630328492812737, -19.02385716983783, -7.594418234058683, -4.149945302133778, -12.026261461880527, 16.14042656222575, -1.1910083366864903, 5.127106724609852, -17.580965436437648, 31.093841748159733, 27.21795016192993], [-7.218418040046732, -20.384069585865436, -1.504926525890971, 8.33793803656408, -10.236429672441492, -8.880717535236052, 7.765993171066092, 3.9277011471871477, 14.390361857952454, -27.738265264841917, -5.535180221228425, -9.716161083591844]], "weights_ho": [[-4.5633424221697965, -8.584162955968848, 0.13464358861855746, -5.524730406263905, 10.889804579839565, -24.44518814432058, 16.46629630975136, 24.208192835112154, 8.418184301083107, -5.939691640980955, -13.852305589721855, -1.7806906729380767, -4.952526312103372, 4.257250059979855, 16.519957105587014, 3.227507400947668], [-2.200845208138105, -1.9483925042231993, 9.681869148033416, -17.028128731148232, 17.805287989286434, -10.660780124915684, 7.318676806487639, -2.671487521003837, -7.394179525225431, 5.046808808171409, 18.669113919363806, -41.322914586856655, -1.7957512844925239, 6.417731075972707, -21.523978638762166, -7.296045989935027], [4.828720188781486, -6.742481548856557, -5.745005934149004, -4.208005165970413, -7.021170357128655, 10.69362286460687, -7.120334181356097, 1.8826280894615426, 5.7107986682324166, 2.864995588910162, 21.00628484697851, -2.991824973225811, 10.34676261471647, -23.21821706459669, -15.591573963323501, 8.998389341710915], [-1.1799553783567533, 30.50246677249474, -12.288766186413817, 11.266722272300056, -6.742915362237494, -1.2017082436449038, 11.467437067311767, -1.3659384609817524, 27.275691308458537, -24.188014995415124, 6.962348961815781, -10.439794275486717, -15.22043979352504, -8.529157016717734, -6.196862536062669, 18.95919637312168]], "bias_h": [[-8.177142939095393], [-8.392586511716358], [-16.049778826479677], [-19.134855089142984], [-3.3085075469078182], [5.105041853092957], [20.59619290690097], [19.09458075305105], [1.3749265988997965], [-1.950969938628716], [-0.18239101369844102], [15.758325748789563], [8.660733202309924], [2.093750063824086], [13.71660929094105], [7.19894862860965]], "bias_o": [[-6.878799716597461], [-0.4975359622716706], [-11.50212634198474], [-13.80433123438556]]}, {"input_nodes": 12, "hidden_nodes": 16, "output_nodes": 4, "weights_ih": [[1.1718854566298078, 5.482433124057873, -8.218483866553743, -6.0894904282887365, 5.581999996981114, -8.977240455300647, 9.536127599742855, -0.5925225984772904, 3.637310076306944, 1.2994645400013196, -5.383304919779116, -17.60146712401216], [1.0621023222192607, -14.061190104134976, 5.071981626434887, -1.771169219982915, 10.025158977611989, -2.9996419788397395, 18.403076692096253, 8.235792491184498, -0.24411442191528965, -5.103438825087475, -8.647644393849129, 17.29680761414898], [8.888655529370117, 4.130388767556367, -6.215237137747436, 8.949162812365387, -15.417060681394101, -9.076778327185997, 14.134684243031845, -15.223003931408154, 20.573606100536967, -5.878338205941456, 13.746316277259865, -4.1043144411393895], [2.269118797852717, 26.179658606372744, -22.053862749350174, 5.039826312012064, -3.1369081431573336, -5.786014446543675, -7.626470591914837, 4.822714467501136, 11.064916714971094, -0.5851601186070876, 1.9970230474328254, -17.226712215159246], [0.4688900436927579, -10.895464568382089, -3.5653508213863008, -9.805782343283989, -10.730621434474934, 17.7574689198841, 7.101307511788333, -9.766632809837454, -2.580355218490856, 11.633824330207513, 2.6348829486558563, 0.8217445921825486], [-17.00451197822724, -2.269587353232994, 15.898813193024143, 0.3267578921682087, 4.856269299743179, 21.05875232545199, 19.73595182003075, 3.826189715389881, 1.692411324988399, -23.380904389690023, -15.873804437422844, -17.549400664176797], [3.9380444872048113, -1.2062431167075458, -12.864473826726234, 14.397730851561656, 4.609376837369705, 5.929983459534093, 16.304729649257933, 15.41930962203732, 4.924957822233973, -5.195505708692046, 9.214460130059818, 6.152735191165826], [4.883990144192867, -0.7551503215993889, -10.855000902561418, -13.746846550579622, -6.057686518259893, 9.127063403539672, -5.692172320297922, 5.84068747039742, 18.19225621749574, -14.476440481911325, 15.94636568187824, -6.206506685261732], [1.2682697711659288, -22.25675286369479, 1.4346304500186298, 6.846779858704504, -11.834608235197203, -21.59185265103415, -4.584646062424757, 14.202144269435518, 22.803443246194874, -17.490540530347566, -2.709152851901975, -0.013414293381991377], [4.595325637413835, 1.574349181446462, 18.433889217313652, 4.645851366804648, 2.9098835779764696, 12.186868099912871, 6.152605463512421, -7.067188902294558, 27.46559557588333, -2.3379561160585913, -10.081475234844264, 2.757742491872334], [-12.82336299966533, 15.056722641871017, 0.5910017063776722, -1.1123536197794421, -8.300030792486842, -7.218809928457372, 1.6911889444511814, -9.027004116476045, -11.285754612207926, -6.698888644849356, -3.5160343400156746, 16.464067856499458], [10.117492393682351, 0.4038036128543133, -3.9943005123896027, 5.153321506819097, -13.433410704701641, 9.30025241740063, 10.69986440451755, 5.497655672360498, -13.097936124846262, -19.07041761549576, 5.386206128017056, -2.506448698243259], [-8.670349820948262, -8.163904426371657, -8.260549727081687, -5.271976217808213, -3.6244144893761083, 37.65782242152581, -9.80859229333018, -4.9530860556238965, 2.391211665614542, 7.370196025763613, 9.727502626033978, 4.352780083021707], [-4.989753925918981, 16.26043728864567, -8.21508019599479, -10.012862052141122, 9.783340761723684, 8.482362605683697, -4.793700358114717, -12.923616579195825, -1.927339370596948, 4.681227266637819, -6.937929444508272, -14.356252668149862], [1.1368244997633843, 19.708711953546146, -19.02385716983783, -7.594418234058683, -4.094934438923946, -11.9888027168613, 16.140569575251618, -1.1910083366864903, 5.107402050747055, -17.580965436437648, 31.071164349965283, 27.20076336355571], [-7.218418040046732, -20.384069585865436, -1.517534358637198, 8.428137639923754, -10.236429672441492, -8.880717535236052, 7.765993171066092, 3.9277011471871477, 14.390361857952454, -27.550454063730133, -5.636362356852142, -9.863395079303556]], "weights_ho": [[-4.5687513308139795, -8.382862676953078, 0.04683906139207998, -5.524730406263905, 11.18328053254242, -24.49753494383519, 16.46629630975136, 24.150896973048948, 8.448872760353474, -5.939691640980955, -13.852305589721855, -1.7535048859339963, -4.952526312103372, 4.257250059979855, 16.519957105587014, 3.227507400947668], [-2.200845208138105, -1.9483925042231993, 9.681869148033416, -16.887669798976326, 17.645286007461834, -10.660780124915684, 7.318676806487639, -2.5092532418693207, -7.394179525225431, 5.046808808171409, 18.866801602820843, -41.322914586856655, -1.9767744831977287, 6.417731075972707, -21.58531971985564, -7.296045989935027], [4.828720188781486, -6.742481548856557, -5.7103875011112, -4.208005165970413, -7.021170357128655, 10.69362286460687, -6.9131950025073925, 1.8826280894615426, 5.860291680965573, 2.864995588910162, 21.00628484697851, -3.1204278444226623, 10.34676261471647, -23.21821706459669, -15.591573963323501, 9.0792265899719], [-1.1799553783567533, 30.50246677249474, -12.288766186413817, 11.484877020122195, -6.742915362237494, -1.103436690914535, 11.467437067311767, -1.3659384609817524, 27.326163838866616, -24.188014995415124, 6.882637037056003, -10.470072134521129, -15.300560719151196, -8.529157016717734, -6.26878399790962, 18.95919637312168]], "bias_h": [[-8.177142939095393], [-8.392586511716358], [-16.008835831594272], [-19.12073957697647], [-3.3085075469078182], [5.105041853092957], [20.59619290690097], [19.09458075305105], [1.3749265988997965], [-1.8973786897271294], [-0.18239101369844102], [15.739401501103448], [8.649679049359055], [2.075928761082015], [13.71660929094105], [7.101331098002394]], "bias_o": [[-6.929735612897077], [-0.4975359622716706], [-11.480393373758757], [-13.80433123438556]]}, {"input_nodes": 12, "hidden_nodes": 16, "output_nodes": 4, "weights_ih": [[1.129582640931476, 5.482433124057873, -8.120833423662676, -6.3322012263196745, 5.567213016248862, -8.841422871176924, 9.632018562759924, -0.40312228098445363, 3.554098204465794, 1.35692421049135, -5.3466974670184255, -17.60146712401216], [1.1671978506296299, -14.042835628431801, 4.702914190274532, -1.771169219982915, 9.905131914691875, -2.9996419788397395, 18.579426955029273, 8.230572195724598, -0.3160412385302435, -5.2042388728097055, -8.447324489344387, 17.170769463033853], [8.945358255985873, 4.130388767556367, -6.203258601383321, 8.95049741117637, -15.417060681394101, -9.13465994686276, 14.128387239934076, -14.992783176372335, 20.573606100536967, -5.774243469123519, 13.796338177948074, -4.1043144411393895], [2.269118797852717, 26.179658606372744, -22.071740089365218, 5.227594529089703, -3.235453159726265, -5.709733928348969, -7.550071937573179, 5.087817605484798, 11.118800147284038, -0.6505806999673975, 1.9970230474328254, -17.21920868173966], [0.5253088379431609, -10.790723871766822, -3.5653508213863008, -9.805782343283989, -10.718126287755183, 17.79326689181805, 7.101307511788333, -9.877912561949309, -2.6563823919950416, 11.516962340119402, 2.6584401270772196, 0.7925735686610084], [-17.00451197822724, -2.269587353232994, 16.048520219926203, 0.2888903084097232, 4.959832940097571, 20.889322660679333, 19.73595182003075, 3.9218948139379433, 1.631736432292302, -23.284642038578436, -15.939094150346323, -17.549400664176797], [3.9380444872048113, -1.295648609737003, -13.039511697576534, 14.319122881161285, 4.459650130994359, 5.816749014816645, 16.055050224162002, 15.368268643139388, 4.937424471325492, -5.195505708692046, 9.214460130059818, 5.960862442145002], [4.960703435558963, -0.6787174405398457, -10.852958297438917, -13.913271442127607, -5.961681381065971, 9.00182144778502, -5.639957450380267, 5.84068747039742, 18.277747664549572, -14.26595271639812, 15.901631982529446, -6.404774402137315], [1.2682697711659288, -22.38954186003369, 1.4346304500186298, 6.582131449620429, -11.796284781635427, -21.59185265103415, -4.5764720355309185, 14.12227387240581, 22.692130596403263, -17.416955410335234, -2.6737764407857814, 0.025627438341774722], [4.371407067643833, 1.5629106490793079, 18.355858388039273, 4.655272434198259, 2.9098835779764696, 12.256275364948378, 6.336054056168304, -7.000524566722795, 27.46559557588333, -2.3379561160585913, -10.081475234844264, 2.7379216168560325], [-12.811628404080082, 15.056722641871017, 0.5580906268095205, -1.0560999825783117, -8.237227394146272, -7.218809928457372, 1.6739574375973774, -9.004582915135924, -11.285754612207926, -6.623961903169388, -3.5284998719845198, 16.61716294038805], [10.183886579805607, 0.47244417721012044, -4.1069400619194925, 5.160261205236646, -13.234239017785029, 9.448081867905918, 10.691400498553056, 5.520703211545017, -13.097936124846262, -18.863128705629695, 5.399917279254937, -2.506448698243259], [-8.670349820948262, -7.96821819799206, -7.965194451229582, -5.271976217808213, -3.6621342322730146, 37.645267442147706, -9.908233978573358, -4.92863311848284, 2.391211665614542, 7.336898761501471, 9.713496802468262, 4.352780083021707], [-4.944716932824253, 16.205249140927492, -8.21508019599479, -10.038614026869718, 9.79512929948393, 8.482362605683697, -4.817682155004971, -12.923616579195825, -1.578783726890117, 4.69327129240838, -6.750877209673839, -14.734026599991264], [1.0795142480269795, 19.630328492812737, -19.172273242361367, -7.594418234058683, -4.149945302133778, -12.138431903945223, 16.14042656222575, -1.0853968142141144, 5.042713057491126, -17.580965436437648, 31.025145676777836, 27.21795016192993], [-7.218418040046732, -20.378660848570785, -1.5461373551926056, 8.402994572358292, -10.210796921818492, -8.77408981910871, 7.845709333084798, 3.9945760306495286, 14.390361857952454, -27.702963383273527, -5.535180221228425, -9.822894583876565]], "weights_ho": [[-4.638436428546846, -8.584162955968848, 0.13464358861855746, -5.587438345293285, 11.027489729249641, -24.498514304836394, 16.39722132834264, 24.208192835112154, 8.418184301083107, -5.939691640980955, -13.852305589721855, -1.7806906729380767, -4.952526312103372, 4.274568280055455, 16.502115878460042, 3.23773988751913], [-2.200845208138105, -1.9483925042231993, 9.640669345570503, -17.028128731148232, 17.805287989286434, -10.660780124915684, 7.328568164963407, -2.671487521003837, -7.394179525225431, 5.046808808171409, 18.708001604301142, -41.25465613296943, -1.7957512844925239, 6.417731075972707, -21.523978638762166, -7.264076864590981], [4.956643671650386, -6.742481548856557, -5.745005934149004, -4.193636640243209, -6.916672008951535, 10.697016922688723, -7.120780592370175, 1.8182592310141628, 5.744616224376333, 2.8167491737556687, 21.00628484697851, -2.991824973225811, 10.340264449612976, -23.206910022406227, -15.567957419561218, 8.998389341710915], [-0.9834932083012511, 30.539769850927655, -12.286919822458263, 11.308533397328459, -6.898616700737347, -1.2406779982895064, 11.467437067311767, -1.3659384609817524, 27.175661475420785, -24.190045411188265, 6.936406789449488, -10.439794275486717, -15.22043979352504, -8.529157016717734, -6.202254641278694, 18.98507677985616]], "bias_h": [[-8.177142939095393], [-8.476624188084163], [-15.954569712228299], [-19.134855089142984], [-3.623383994892306], [4.889837348762284], [20.585051034977297], [19.055501402934784], [1.40321495465886], [-2.1512916395369794], [-0.2844539010802434], [15.764100155490343], [8.685420922427415], [2.093750063824086], [13.71660929094105], [7.158671180363442]], "bias_o": [[-6.981173784836622], [-0.4975359622716706], [-11.50212634198474], [-13.80433123438556]]}, {"input_nodes": 12, "hidden_nodes": 16, "output_nodes": 4, "weights_ih": [[1.129582640931476, 5.433771485455685, -8.272503243181738, -6.1076535371948, 5.593774897634469, -8.754407964703798, 9.63634177773055, -0.40312228098445363, 3.554098204465794, 1.1167883450398597, -5.397011773203369, -17.79291597473185], [1.0621023222192607, -14.061190104134976, 4.933626939094619, -1.771169219982915, 9.905131914691875, -2.9996419788397395, 18.523803479921806, 8.173667825932554, -0.2975082920024697, -5.1833715010005355, -8.776100177405882, 17.20384075396769], [8.901852957228929, 4.092359036071949, -6.24109555994922, 8.95049741117637, -15.3444351423655, -9.158923193239273, 14.145269078149123, -15.265636009132937, 20.55827043022628, -5.942560599157477, 13.818418128101923, -3.9906851080657963], [2.269118797852717, 26.179658606372744, -22.09122117581119, 5.039826312012064, -3.333300685264518, -5.8402001934118, -7.550071937573179, 5.1723817037303315, 11.118800147284038, -0.5906488957798304, 1.9970230474328254, -17.21920868173966], [0.16981636496123476, -10.895464568382089, -3.5653508213863008, -9.623952875914103, -10.614540479472927, 17.59059515831856, 7.101307511788333, -9.957343502642123, -2.580355218490856, 11.584305202608814, 2.603097868925912, 0.885396001251609], [-16.961629220258995, -2.3608105998624422, 15.839342462459781, 0.3267578921682087, 4.73622777098874, 21.05875232545199, 19.648581096453643, 3.826189715389881, 1.4977005922300644, -23.27288505204514, -15.961146534999124, -17.549400664176797], [3.925149499238196, -1.269058841766625, -12.864473826726234, 14.319122881161285, 4.459650130994359, 5.893923745244172, 15.989985522535346, 15.51863538219892, 4.797715380896724, -5.195505708692046, 9.206634003325725, 6.113340174699264], [4.883990144192867, -0.6787174405398457, -10.685802987372949, -13.852956838180608, -6.057686518259893, 9.093126951171866, -5.728280735649734, 5.9488675640003, 18.19225621749574, -14.259506501682521, 15.997193638551224, -6.206506685261732], [1.2682697711659288, -22.239748594990797, 1.4470757405813492, 6.596307275908576, -11.796284781635427, -21.59185265103415, -4.685566730855015, 14.202144269435518, 22.539251677677015, -17.490540530347566, -2.709152851901975, -0.006869356638969646], [4.545450891973461, 1.574349181446462, 18.433889217313652, 4.630394191086593, 2.790648182457408, 12.256275364948378, 6.225613506181186, -7.000524566722795, 27.46559557588333, -2.3379561160585913, -10.081475234844264, 2.757742491872334], [-12.82904159352003, 14.9642911956422, 0.5580906268095205, -0.9978666828734452, -8.33501295171161, -7.218809928457372, 1.7822952472184965, -8.920007266162768, -11.207592868990739, -6.623961903169388, -3.5160343400156746, 16.45657688753545], [10.102889657825404, 0.49774059647979657, -4.092110425253827, 5.15653240428533, -13.209779757197303, 9.391395866480075, 10.771514912653686, 5.520703211545017, -13.097936124846262, -19.07041761549576, 5.300737878493109, -2.506448698243259], [-8.973003371564094, -7.96821819799206, -8.132928505619, -5.271976217808213, -3.6244144893761083, 37.65782242152581, -9.80859229333018, -4.9530860556238965, 2.391211665614542, 7.370196025763613, 9.693997988933576, 4.587257908834356], [-4.989753925918981, 16.345251149147717, -8.21508019599479, -10.038614026869718, 9.79512929948393, 8.482362605683697, -4.706104649926064, -12.744488582100345, -1.8256120183014937, 4.606448448696174, -6.82283646018385, -14.53920147648274], [1.0795142480269795, 19.623798593673836, -19.02385716983783, -7.655408983060305, -4.149945302133778, -12.117243767804132, 16.14042656222575, -1.1910083366864903, 5.226690902445729, -17.580965436437648, 31.03197220397141, 27.21795016192993], [-7.247913055293201, -20.384069585865436, -1.504926525890971, 8.33793803656408, -10.245141436331384, -8.880717535236052, 7.765993171066092, 3.8935600596214965, 14.390361857952454, -27.66728018090249, -5.534295930676691, -9.716161083591844]], "weights_ho": [[-4.603304527569798, -8.64468699509745, 0.13464358861855746, -5.524730406263905, 11.072628107900153, -24.44518814432058, 16.46629630975136, 24.11706065111418, 8.418184301083107, -5.939691640980955, -13.766329382678064, -1.8788488708252675, -4.952526312103372, 4.257250059979855, 16.519957105587014, 3.227507400947668], [-2.200845208138105, -1.9483925042231993, 9.681869148033416, -17.18521184807167, 17.660964062326215, -10.528314352004134, 7.41502220170731, -2.6130556465424943, -7.251626968630026, 5.123150291937427, 18.700349642726064, -41.322914586856655, -1.7957512844925239, 6.417731075972707, -21.55228802050745, -7.296045989935027], [4.867408205627254, -6.742481548856557, -5.745483511553777, -4.308628765432745, -7.095872270118897, 10.65561895166392, -7.120334181356097, 1.9353960409740698, 5.7107986682324166, 2.79675558433394, 21.00628484697851, -3.1827460499483773, 10.34676261471647, -23.153786200207804, -15.591573963323501, 8.998389341710915], [-1.060080708569289, 30.50246677249474, -12.288766186413817, 11.168375708062431, -6.6686906751176345, -1.1363616414807007, 11.403980681969571, -1.3659384609817524, 27.275691308458537, -24.30574274209554, 6.962348961815781, -10.31320905111166, -15.22043979352504, -8.529157016717734, -6.196862536062669, 18.95919637312168]], "bias_h": [[-8.043155383522546], [-8.341010902090375], [-16.049778826479677], [-19.118712735657493], [-3.3085075469078182], [4.90464446956414], [20.598199625133052], [19.014654904260116], [1.2465628017639077], [-1.8532313543352466], [-0.18239101369844102], [15.794871495871279], [8.605254760493619], [2.093750063824086], [13.71660929094105], [7.19894862860965]], "bias_o": [[-6.878799716597461], [-0.37909209803832783], [-11.50212634198474], [-13.78314508909316]]}, {"input_nodes": 12, "hidden_nodes": 16, "output_nodes": 4, "weights_ih": [[0.9823365185002608, 5.44454193896928, -8.112667504306538, -6.072145000920898, 5.505699398368, -8.846090141668935, 9.656365064792471, -0.40312228098445363, 3.554098204465794, 1.1606581288640252, -5.3466974670184255, -17.605056530922116], [0.9880808539412477, -14.018971533710156, 4.835836844526499, -1.721348398249112, 9.905131914691875, -3.172185549573518, 18.643546393255598, 8.142963896660088, -0.35428616423769393, -4.966265778176024, -8.679586510068493, 17.1614784178651], [8.878930177072561, 4.127419377996518, -6.133440126478209, 8.95049741117637, -15.417060681394101, -9.035163930810805, 14.128387239934076, -15.179025316603646, 20.573606100536967, -5.878338205941456, 13.715015244217922, -4.215569412130577], [2.269118797852717, 26.179658606372744, -22.053862749350174, 4.97528763631793, -3.292948680848422, -5.771770004922088, -7.661013656787265, 4.887093367142792, 11.118800147284038, -0.5858466428772428, 1.9270605449919238, -17.227857066371477], [0.3809189635947493, -10.895464568382089, -3.5653508213863008, -9.79218127167337, -10.730621434474934, 17.70567879083591, 7.101307511788333, -9.957343502642123, -2.6297532515110955, 11.580255285700156, 2.6584401270772196, 0.9246730202525865], [-17.00451197822724, -2.2443922108059744, 15.868842067290322, 0.3267578921682087, 4.91454626951536, 21.05875232545199, 19.73595182003075, 3.826189715389881, 1.6016210681306249, -23.4990801043084, -15.873804437422844, -17.549400664176797], [3.784776845448462, -1.0881581354522207, -12.864473826726234, 14.319122881161285, 4.459650130994359, 5.824094352969212, 16.055050224162002, 15.572012124884687, 4.918538896110013, -5.195505708692046, 9.277669373524152, 6.169360293984579], [4.883990144192867, -0.4985240292226097, -10.82903778603359, -13.881436129895082, -6.064648984848023, 9.056103950182237, -5.490927947842932, 5.84068747039742, 18.19225621749574, -14.307261070436864, 15.748506780487121, -6.206506685261732], [1.4465320798798869, -22.303239096640443, 1.4346304500186298, 6.5843639288258995, -11.779008827830118, -21.59185265103415, -4.397879387250736, 14.156243314647407, 22.692130596403263, -17.58154422334533, -2.615718612110121, -0.013414293381991377], [4.537766309716322, 1.6318374812039322, 18.433889217313652, 4.8570706288688115, 3.108111773515544, 12.273508263297744, 6.167339855570204, -7.000524566722795, 27.46543255264835, -2.3212080180947496, -10.109338501367871, 2.757742491872334], [-12.811628404080082, 14.961473059075054, 0.5580906268095205, -1.1432394501755279, -8.237227394146272, -7.305900956625062, 1.6911889444511814, -9.093365171697366, -11.285754612207926, -6.623961903169388, -3.434873891214624, 16.581907186840684], [9.92871284907097, 0.49774059647979657, -4.1069400619194925, 5.160261205236646, -13.363693767090165, 9.391395866480075, 10.78787360616872, 5.467986339021896, -13.097936124846262, -19.07041761549576, 5.471011599755235, -2.506448698243259], [-8.577114591475615, -7.96821819799206, -8.132928505619, -5.271976217808213, -3.6244144893761083, 37.65782242152581, -9.80859229333018, -4.9530860556238965, 2.391211665614542, 7.370196025763613, 9.693997988933576, 4.356669019030458], [-4.989753925918981, 16.26043728864567, -8.41552361588702, -10.013837666203509, 9.79512929948393, 8.482362605683697, -4.9102181505293165, -12.96174596783736, -1.797348685673524, 4.681227266637819, -6.750877209673839, -14.7051453362198], [1.0795142480269795, 19.665398790500763, -19.176744261548862, -7.587827927600987, -4.149945302133778, -11.872083399847948, 16.14042656222575, -1.053623222684235, 5.0638547394767945, -17.580965436437648, 31.161730503539992, 27.21795016192993], [-7.218418040046732, -20.384069585865436, -1.607922648618814, 8.256982256984978, -10.294077827071186, -8.890144312174435, 7.62934151400641, 3.873854481893322, 14.635538113744971, -27.707329049923896, -5.502692952177832, -9.716161083591844]], "weights_ho": [[-4.573378206568925, -8.612489150141522, 0.20608525083373513, -5.498822615122546, 10.80936679233952, -24.44518814432058, 16.232779050570056, 24.18663287422234, 8.418184301083107, -6.056412311485479, -13.852305589721855, -1.7806906729380767, -4.952526312103372, 4.257250059979855, 16.483347057579675, 3.264552494095165], [-2.331991869833167, -2.1909191990694117, 9.66543904515164, -17.00191923845632, 17.805287989286434, -10.639551691536617, 7.144668730250187, -2.671487521003837, -7.394179525225431, 5.036701855455593, 18.669113919363806, -41.215003823240934, -1.7957512844925239, 6.417731075972707, -21.523978638762166, -7.378744203524792], [4.828720188781486, -6.81913715151474, -5.776418332716296, -4.208005165970413, -7.1998597897242655, 10.799881126913295, -7.125933018062776, 1.8826280894615426, 5.7107986682324166, 2.888519385264778, 20.952159853155955, -2.9264096174434444, 10.34676261471647, -23.307646886577576, -15.549010278623996, 8.998389341710915], [-1.1799553783567533, 30.561991617791723, -12.288766186413817, 11.266722272300056, -6.742915362237494, -1.2017082436449038, 11.468035535496929, -1.3659384609817524, 27.275691308458537, -24.188014995415124, 6.962348961815781, -10.414452269728542, -15.19821610387988, -8.396236557490601, -6.196862536062669, 19.18724703406914]], "bias_h": [[-8.177142939095393], [-8.392586511716358], [-15.89439768297275], [-19.134855089142984], [-3.4315891861151764], [5.105041853092957], [20.28852880861175], [18.973914304395596], [1.3461042849476437], [-1.950969938628716], [-0.111605252559517], [15.758325748789563], [8.660733202309924], [2.0549037312826752], [13.71660929094105], [7.19894862860965]], "bias_o": [[-6.878799716597461], [-0.48887754921174037], [-11.50212634198474], [-13.812633164701296]]}, {"input_nodes": 12, "hidden_nodes": 16, "output_nodes": 4, "weights_ih": [[1.129582640931476, 5.4864844093295115, -8.333210944723989, -6.0894904282887365, 5.567213016248862, -8.841422871176924, 9.63634177773055, -0.40312228098445363, 3.554098204465794, 1.1762296391449079, -5.3466974670184255, -17.60146712401216], [1.0621023222192607, -14.061190104134976, 5.102140573781366, -1.771169219982915, 9.905131914691875, -3.039477199073444, 18.523803479921806, 8.352148673573733, -0.14881134677449048, -4.987189026384812, -8.657029479599982, 17.135323099069478], [8.878930177072561, 4.130388767556367, -6.187467785237229, 8.95049741117637, -15.541592406488718, -9.035163930810805, 14.128387239934076, -15.241322943000592, 20.53801167078434, -5.814635900185535, 13.746316277259865, -3.942031427459912], [2.3827446300347153, 26.351249417067244, -22.053862749350174, 5.039826312012064, -3.235453159726265, -5.736471556221976, -7.550071937573179, 5.087817605484798, 11.118800147284038, -0.6505806999673975, 1.9970230474328254, -17.26518295808104], [0.23524380996572164, -10.895464568382089, -3.6344628255583866, -9.805782343283989, -10.730621434474934, 17.760321015456878, 7.101307511788333, -9.957343502642123, -2.6590608260673134, 11.569097960982303, 2.6663637562029057, 0.7925735686610084], [-17.01077365630911, -2.269587353232994, 16.00961831824997, 0.3267578921682087, 4.91454626951536, 21.05875232545199, 19.73595182003075, 3.7033305823889875, 1.649854974912349, -23.34158551728421, -15.873804437422844, -17.549400664176797], [4.144357730321363, -1.2111641694262494, -12.952894650595214, 14.319122881161285, 4.459650130994359, 5.905213798134007, 15.977322052521927, 15.522017502237155, 4.986531092927727, -5.195505708692046, 9.242130834360564, 6.02739045394225], [4.883990144192867, -0.5903283644754389, -10.661945843324876, -13.881436129895082, -6.057686518259893, 9.093126951171866, -5.639957450380267, 5.917054387102386, 18.19225621749574, -14.380538636663823, 15.751536689603542, -6.281616547060359], [1.2682697711659288, -22.303239096640443, 1.4346304500186298, 6.607700598293565, -11.796284781635427, -21.600060163401096, -4.584646062424757, 14.202144269435518, 22.692130596403263, -17.520872955636865, -2.5996810237042633, -0.013414293381991377], [4.419641442959897, 1.6614587079623855, 18.769271850564717, 4.63262800156651, 2.9098835779764696, 12.256275364948378, 6.108071939628794, -7.030233679074085, 27.46559557588333, -2.3379561160585913, -10.081475234844264, 2.757742491872334], [-12.811628404080082, 15.056722641871017, 0.7936716815015499, -1.0560999825783117, -8.237227394146272, -7.218809928457372, 1.5449408886512952, -8.95754617720592, -11.285754612207926, -6.623961903169388, -3.480193288644886, 16.59279358602705], [10.066449581647491, 0.5267647705365587, -3.972396528876719, 5.160261205236646, -13.209779757197303, 9.246914422171324, 10.60231348397736, 5.520703211545017, -13.097936124846262, -19.07041761549576, 5.356726282977168, -2.548058868594267], [-8.870940012760233, -7.96821819799206, -8.132928505619, -5.158231360062847, -3.5552620123628977, 37.65782242152581, -9.774820269696532, -4.789696639558393, 2.3767689307330797, 7.433163567719903, 9.700740072918146, 4.352780083021707], [-4.927620997208026, 16.259864648650314, -8.13424829897782, -10.038614026869718, 9.79512929948393, 8.482362605683697, -4.811165752852759, -12.923616579195825, -1.863127252125854, 4.681227266637819, -6.750877209673839, -14.376145148977642], [1.0423034550637829, 19.630328492812737, -19.07167503046747, -7.715022752274341, -4.149945302133778, -12.026261461880527, 16.14042656222575, -1.0925814565514844, 5.127106724609852, -17.605297054283085, 31.070381639074228, 27.21795016192993], [-7.218418040046732, -20.360236854903373, -1.504926525890971, 8.33793803656408, -10.084514324476828, -8.974538394189587, 7.765993171066092, 3.9277011471871477, 14.240884538152036, -27.721416664592272, -5.535180221228425, -9.584656689928867]], "weights_ho": [[-4.794637903814989, -8.584162955968848, 0.13464358861855746, -5.524730406263905, 10.951177638223406, -24.44518814432058, 16.407906683768694, 24.062196195884763, 8.467376652493687, -5.939691640980955, -13.75758128888242, -1.7916443952262728, -5.007362280276763, 4.204855436950779, 16.503832450151666, 3.1447579285805496], [-2.2284781828682245, -1.9483925042231993, 9.681869148033416, -17.028128731148232, 17.89128699754876, -10.610468001237148, 7.293696240382455, -2.671487521003837, -7.394179525225431, 5.163978604860406, 18.669113919363806, -41.25672791157937, -1.7957512844925239, 6.417731075972707, -21.353088914153446, -7.296045989935027], [4.828720188781486, -6.742481548856557, -5.668328502951909, -4.139749872743132, -7.021170357128655, 10.804222459327322, -7.120334181356097, 1.9559225982114792, 5.7107986682324166, 2.864995588910162, 20.937896398276727, -2.840257433324393, 10.34676261471647, -23.052362576306322, -15.573349837527457, 8.885935033093395], [-1.0960873352177922, 30.350734200865872, -12.288766186413817, 11.228482159936707, -6.742915362237494, -1.278866256575405, 11.467437067311767, -1.2479839316400467, 27.275691308458537, -24.188014995415124, 6.962348961815781, -10.561911281324784, -15.28301677103277, -8.529157016717734, -6.15127423901175, 18.95919637312168]], "bias_h": [[-8.177142939095393], [-8.257505790934829], [-16.049778826479677], [-19.134855089142984], [-3.434416292127178], [5.1593453988777815], [20.59619290690097], [18.938474080403], [1.3585629755885265], [-1.9058759808296155], [-0.26889392505414367], [15.758325748789563], [8.660733202309924], [2.0647489830472066], [13.805834352724446], [7.230654991762634]], "bias_o": [[-6.8708103700413155], [-0.4975359622716706], [-11.50212634198474], [-13.80433123438556]]}, {"input_nodes": 12, "hidden_nodes": 16, "output_nodes": 4, "weights_ih": [[1.129582640931476, 5.549347798544687, -7.987943040950943, -6.0894904282887365, 5.567213016248862, -8.841422871176924, 9.63634177773055, -0.45160803451242504, 3.4772384203014597, 1.2994645400013196, -5.3466974670184255, -17.60146712401216], [1.0621023222192607, -13.994002346498608, 4.822297049121766, -1.771169219982915, 9.905131914691875, -2.874975470218248, 18.55171425381518, 8.045081875647679, -0.29896850630105115, -5.39725349379851, -8.633276183589226, 17.198438342318205], [8.829040022929654, 4.130388767556367, -6.226656684529813, 9.064679865460329, -15.417060681394101, -9.035163930810805, 14.128387239934076, -15.109702339633738, 20.573606100536967, -5.67241813714823, 13.683807572624444, -4.1043144411393895], [2.3496166689351767, 26.179658606372744, -22.053862749350174, 5.0575315815000454, -3.2684556787078254, -5.603066772826601, -7.673569930111353, 5.087817605484798, 11.118800147284038, -0.6258349871563487, 1.9970230474328254, -17.21920868173966], [0.3809189635947493, -10.86606574481398, -3.480835657836308, -9.85348069126186, -10.751611162025469, 17.694932452516483, 7.093277108927286, -9.765379252407355, -2.580355218490856, 11.493888629600812, 2.7606092671096465, 0.6783068714003915], [-17.00451197822724, -2.269587353232994, 15.839342462459781, 0.3267578921682087, 4.994379068101383, 21.05875232545199, 19.469384649403175, 3.826189715389881, 1.631736432292302, -23.391557600869273, -15.873804437422844, -17.638744727884664], [3.9636643417963233, -1.38373322783644, -12.864473826726234, 14.319122881161285, 4.459650130994359, 5.905213798134007, 16.055050224162002, 15.522017502237155, 4.9863672959545875, -5.195505708692046, 9.109391565075406, 6.196993946947223], [4.883990144192867, -0.6963770132649979, -10.575066719745928, -13.881436129895082, -6.161036152315359, 8.959955284278136, -5.58083273053044, 5.84068747039742, 18.05063299265111, -14.26595271639812, 15.98695096911814, -6.206506685261732], [1.3280524412165802, -22.238361822523405, 1.4346304500186298, 6.504664418287772, -11.796284781635427, -21.59185265103415, -4.584646062424757, 14.202144269435518, 22.692130596403263, -17.490540530347566, -2.567817519166503, 0.050963008945047086], [4.632307587894808, 1.574349181446462, 18.433889217313652, 4.587680424543203, 2.9098835779764696, 12.22933776311924, 6.087959998099876, -6.962629271844145, 27.46559557588333, -2.195867224792667, -10.081475234844264, 2.757742491872334], [-12.811628404080082, 15.056722641871017, 0.5580906268095205, -1.0017125623379597, -8.237227394146272, -7.218809928457372, 1.6911889444511814, -9.004582915135924, -11.343696082195304, -6.515563017236063, -3.4918097747692816, 16.545451339546393], [10.126631737819464, 0.49774059647979657, -3.9494676566252727, 5.160261205236646, -13.209779757197303, 9.26513091258935, 10.78787360616872, 5.316317279088967, -13.054785699868775, -19.07041761549576, 5.446127818873969, -2.506448698243259], [-8.600346592378482, -7.96821819799206, -8.132928505619, -5.271976217808213, -3.6244144893761083, 37.65782242152581, -9.72378928461762, -4.9530860556238965, 2.391211665614542, 7.413045442273673, 9.693997988933576, 4.429029001568699], [-4.989753925918981, 16.304224260776127, -8.21508019599479, -10.038614026869718, 9.732319738779388, 8.404778433915398, -4.817682155004971, -13.012141581294683, -1.7528992415096212, 4.603717836450002, -6.824817684881183, -14.660464648645428], [1.225206440132324, 19.630328492812737, -19.039783044686953, -7.594418234058683, -4.149945302133778, -12.026261461880527, 16.030139301089747, -1.1910083366864903, 5.063097354488816, -17.580965436437648, 31.093841748159733, 27.192656169240845], [-7.231036111025703, -20.384069585865436, -1.504926525890971, 8.46028056782659, -10.241529432439455, -8.880717535236052, 7.765993171066092, 4.065812703799904, 14.398056732817611, -27.63104882253996, -5.535180221228425, -9.620397495286968]], "weights_ho": [[-4.5633424221697965, -8.584162955968848, -0.10474528269338096, -5.524730406263905, 10.988781394078215, -24.44518814432058, 16.46629630975136, 24.208192835112154, 8.414432308812202, -6.12767773490999, -13.852305589721855, -1.7153105041052419, -5.066709161975983, 4.307340315270421, 16.519957105587014, 3.227507400947668], [-2.135289113897627, -1.9221067635586748, 9.681869148033416, -17.028128731148232, 17.805287989286434, -10.752588868895987, 7.417953915985486, -2.703769191343795, -7.394179525225431, 5.046808808171409, 18.669113919363806, -41.46027861367372, -1.8208845404321852, 6.417731075972707, -21.523978638762166, -7.132546513492039], [4.828720188781486, -6.742481548856557, -5.708885745993293, -4.208005165970413, -7.021170357128655, 10.626264707013688, -7.120334181356097, 1.8826280894615426, 5.7107986682324166, 2.7142517536340582, 21.00628484697851, -3.113488039222781, 10.34676261471647, -23.271836118914567, -15.61875273842938, 8.998389341710915], [-1.0830677830296118, 30.50246677249474, -12.288766186413817, 11.266722272300056, -6.668997249701012, -1.2017082436449038, 11.467437067311767, -1.3659384609817524, 27.309581596000342, -24.188014995415124, 6.936692955807055, -10.439794275486717, -15.22043979352504, -8.529157016717734, -6.196862536062669, 18.95919637312168]], "bias_h": [[-8.177142939095393], [-8.4468215163573], [-16.029826415531407], [-19.134855089142984], [-3.212783690543792], [5.194351896209746], [20.59619290690097], [18.878877775709853], [1.3749265988997965], [-1.950969938628716], [-0.18239101369844102], [15.69242170698198], [8.660733202309924], [2.093750063824086], [13.614183578911927], [7.19894862860965]], "bias_o": [[-6.878799716597461], [-0.5178861105239932], [-11.566284985266934], [-13.68202891243825]]}, {"input_nodes": 12, "hidden_nodes": 16, "output_nodes": 4, "weights_ih": [[1.129582640931476, 5.482433124057873, -8.194090992700998, -6.0894904282887365, 5.549232777042483, -8.841422871176924, 9.63634177773055, -0.3887135759581976, 3.554098204465794, 1.2994645400013196, -5.3466974670184255, -17.657767634066445], [1.0841671600793965, -14.061190104134976, 4.933626939094619, -1.8234111692926818, 9.905131914691875, -2.9075265634617495, 18.523803479921806, 8.365375645852826, -0.29896850630105115, -5.2042388728097055, -8.633276183589226, 17.409147473381694], [8.878930177072561, 4.130388767556367, -6.0544266657235495, 8.673556498062302, -15.279225255891665, -9.247951492995702, 14.128387239934076, -15.241322943000592, 20.639008865064966, -5.878338205941456, 13.765702504621684, -4.1043144411393895], [2.1430244500546407, 26.13728715454994, -22.150180304948634, 4.948994278721887, -3.235453159726265, -5.686564051544336, -7.550071937573179, 5.12727415340796, 11.118800147284038, -0.6900912134088055, 1.9859488723525764, -17.138239962550614], [0.3809189635947493, -10.933844667729716, -3.5653508213863008, -9.705522934084344, -10.730621434474934, 17.7709576064477, 7.0736494785474155, -9.922955380000403, -2.6093973492374447, 11.584305202608814, 2.6584401270772196, 0.7925735686610084], [-17.00451197822724, -2.269587353232994, 15.839342462459781, 0.27619376128828965, 4.807443467875861, 21.05875232545199, 19.633793506709278, 3.975138139366145, 1.6255256827478806, -23.2615801887959, -15.873804437422844, -17.549400664176797], [3.8728016835265837, -1.2111641694262494, -12.864473826726234, 14.53671597036309, 4.293769930551265, 5.835645935657897, 16.006684202540352, 15.416555329258978, 4.853549378646409, -5.336204519394789, 9.185209209570864, 6.113340174699264], [4.876880579569085, -0.6872578476838205, -10.721028787809468, -13.881436129895082, -5.941153941552433, 9.026080170701153, -5.639957450380267, 5.84068747039742, 18.19225621749574, -14.26595271639812, 15.800523159314317, -6.206506685261732], [1.2682697711659288, -22.303239096640443, 1.4346304500186298, 6.596307275908576, -11.831171315238056, -21.623527553902626, -4.585460917012086, 14.202144269435518, 22.692130596403263, -17.490540530347566, -2.620024301619048, -0.013414293381991377], [4.537766309716322, 1.574349181446462, 18.301175225777133, 4.865915420051086, 2.896656810271117, 12.366163963146292, 6.011837949741803, -7.000524566722795, 27.46559557588333, -2.3130814406716302, -10.081475234844264, 2.8519001026510042], [-12.620860423420753, 15.11840725431962, 0.5902223686311815, -1.0560999825783117, -8.237227394146272, -7.218809928457372, 1.6911889444511814, -9.004582915135924, -11.33459488366198, -6.623961903169388, -3.5062616037047665, 16.581907186840684], [10.093525615809734, 0.49774059647979657, -4.106524810217943, 5.160261205236646, -13.209779757197303, 9.391395866480075, 10.769479881975437, 5.6148773596304915, -13.097936124846262, -18.9817405202292, 5.386206128017056, -2.506448698243259], [-8.670349820948262, -7.96821819799206, -8.132928505619, -5.271976217808213, -3.7014830539189614, 37.65782242152581, -9.80859229333018, -4.9530860556238965, 2.2803102019762593, 7.6554492052150325, 9.725802712072397, 4.651790848276341], [-4.989753925918981, 16.26043728864567, -8.220823653121672, -9.977612008448043, 9.810297363922787, 8.482362605683697, -4.817682155004971, -12.923616579195825, -1.653392779851333, 4.420409246626527, -6.787986569417052, -14.559664562378293], [1.0795142480269795, 19.630328492812737, -18.948341114019904, -7.650432535857269, -4.149945302133778, -12.026261461880527, 16.14042656222575, -0.9367410115097379, 5.101498321062212, -17.580965436437648, 31.15535505643074, 27.169098255334777], [-7.218418040046732, -20.366450388439954, -1.6227966101677214, 8.359205120913701, -10.236429672441492, -8.880717535236052, 7.8029347709230175, 3.967667686679807, 14.2959600035273, -27.738265264841917, -5.535180221228425, -9.627346822342219]], "weights_ho": [[-4.5633424221697965, -8.66330954144646, 0.13464358861855746, -5.524730406263905, 10.852740249222013, -24.356671886366627, 16.46629630975136, 24.208192835112154, 8.467088993598837, -6.05137438435973, -13.852305589721855, -1.7806906729380767, -4.952526312103372, 4.118585967410556, 16.48163508067809, 3.312298344535232], [-2.2489435792833503, -1.9483925042231993, 9.681869148033416, -16.884546765448793, 17.805287989286434, -10.497896350190183, 7.318676806487639, -2.671487521003837, -7.394179525225431, 5.005052303174195, 18.669113919363806, -41.28239871663345, -1.7957512844925239, 6.335628373032456, -21.43196517040085, -7.296045989935027], [4.828720188781486, -6.742481548856557, -5.745005934149004, -4.208005165970413, -7.124712077614157, 10.69362286460687, -7.150880864136121, 1.7115023673236773, 5.7107986682324166, 2.864995588910162, 21.06264425884981, -2.991824973225811, 10.34676261471647, -23.21821706459669, -15.83977795994862, 8.998389341710915], [-1.167680465984875, 30.50246677249474, -12.243812525040438, 11.379294279375229, -6.742915362237494, -1.2449810701598318, 11.540241919293202, -1.3659384609817524, 27.275691308458537, -24.155836234392332, 7.034273970608074, -10.402774533218526, -15.22043979352504, -8.512580612258358, -6.235654521329202, 18.95919637312168]], "bias_h": [[-8.177142939095393], [-8.355429185311767], [-16.049778826479677], [-18.99213912875168], [-3.3085075469078182], [5.036790429760796], [20.59619290690097], [19.270020300519224], [1.3749265988997965], [-1.9843699652515439], [-0.18239101369844102], [15.789109260708209], [8.660733202309924], [2.093750063824086], [13.72228627276157], [7.19894862860965]], "bias_o": [[-6.980706227034765], [-0.4975359622716706], [-11.428713408534392], [-13.753060417612058]]}, {"input_nodes": 12, "hidden_nodes": 16, "output_nodes": 4, "weights_ih": [[1.129582640931476, 5.482433124057873, -8.194090992700998, -6.038486993195708, 5.453484286226676, -8.934079451751897, 9.738395223607508, -0.29218981798648885, 3.5942455979408643, 1.29762116481123, -5.3466974670184255, -17.74583129605812], [1.0875366426798365, -14.064007332376585, 4.962675531621451, -1.934639579121196, 9.971920014636192, -3.0929261761523317, 18.527125572801342, 8.224223206063089, -0.29896850630105115, -5.294230560975115, -8.633276183589226, 17.170769463033853], [8.878930177072561, 4.2124029895531345, -6.2331811210493555, 8.95049741117637, -15.417060681394101, -8.997471567129486, 14.136648435407881, -15.241322943000592, 20.582056606616472, -5.804029572910121, 13.746316277259865, -4.1043144411393895], [2.269118797852717, 26.179658606372744, -22.053862749350174, 5.077047126748432, -3.235453159726265, -5.686564051544336, -7.600062445562291, 5.179198996430725, 11.273764828519733, -0.6505806999673975, 1.9970230474328254, -17.21920868173966], [0.3809189635947493, -10.895464568382089, -3.5653508213863008, -9.773417348725518, -10.730621434474934, 17.763733893144934, 7.101307511788333, -9.87164285968241, -2.3636140801688543, 11.584305202608814, 2.769358379466713, 0.8769659086500482], [-17.019768118652024, -2.269587353232994, 15.839342462459781, 0.19826869869679684, 4.945103369684334, 21.05875232545199, 19.73595182003075, 3.826189715389881, 1.6112192369963372, -23.44228143403688, -15.759767278678831, -17.549400664176797], [3.640726117728763, -1.1604675391151789, -12.88337219072662, 14.337648062248734, 4.459650130994359, 5.9014867531417465, 16.055050224162002, 15.522017502237155, 4.90059339590599, -5.195505708692046, 9.214460130059818, 6.113340174699264], [4.846200994252526, -0.7244970170751887, -10.721028787809468, -13.934660281288911, -6.057686518259893, 9.093126951171866, -5.86965264333166, 5.769173434798804, 18.19225621749574, -14.26595271639812, 15.950377719212, -6.2257041731385625], [1.0117326650045984, -22.303239096640443, 1.4346304500186298, 6.739870470289437, -11.693580715282783, -21.52957226325032, -4.547985548007644, 14.140741150692184, 22.692130596403263, -17.490540530347566, -2.709152851901975, -0.013414293381991377], [4.537766309716322, 1.3963642729430195, 18.433889217313652, 4.63262800156651, 2.9098835779764696, 12.233052150747117, 6.149604296184428, -7.119279343489147, 27.46559557588333, -2.3077736700074705, -10.081475234844264, 2.8443484137689894], [-12.904974853904731, 15.105182716061677, 0.5580906268095205, -0.8056709639911246, -8.181188007305163, -7.3421656690703285, 1.6911889444511814, -9.004582915135924, -11.446199277292651, -6.623961903169388, -3.5352597733830415, 16.44634703460921], [10.093525615809734, 0.49774059647979657, -4.1069400619194925, 5.152673058289514, -13.046659478775993, 9.33025710152676, 10.720392793763645, 5.520703211545017, -13.05050542882336, -18.961802396162685, 5.386206128017056, -2.506448698243259], [-8.702923972754899, -8.092611492518873, -8.053356423221263, -5.332527468110697, -3.6244144893761083, 37.65782242152581, -9.942798857848235, -4.866855778377624, 2.5311118166005087, 7.36005687332192, 9.693997988933576, 4.368569219941502], [-5.034945276014471, 16.26043728864567, -8.281144069836788, -10.038614026869718, 9.95896554477395, 8.395505820394131, -4.853488402182826, -12.923616579195825, -1.7528992415096212, 4.689423618954862, -6.750877209673839, -14.634311966148667], [1.0795142480269795, 19.643348978078272, -18.96613837220293, -7.664632664544232, -4.149945302133778, -12.026261461880527, 16.160782807344088, -1.174739423101256, 5.237508277749178, -17.520513626774516, 31.17155680881797, 27.21795016192993], [-7.081704674761936, -20.384069585865436, -1.5101807999007777, 8.386269330475253, -10.231210053972816, -8.880717535236052, 7.765993171066092, 3.9130846630889664, 14.479041397784139, -27.738265264841917, -5.535180221228425, -9.71711503411206]], "weights_ho": [[-4.417239315627965, -8.584162955968848, 0.13464358861855746, -5.4811841826424885, 10.83758707601367, -24.366489660019536, 16.46629630975136, 24.208192835112154, 8.418184301083107, -5.9517297133014395, -13.91669417742789, -1.816978794144064, -4.952526312103372, 4.201143504551895, 16.519957105587014, 3.227507400947668], [-2.200845208138105, -1.9483925042231993, 9.699411265793358, -17.028128731148232, 17.890598387528726, -10.90967213795572, 7.490876162885381, -2.5504703506718727, -7.394179525225431, 5.046808808171409, 18.669113919363806, -41.37630834683205, -1.7957512844925239, 6.405706789514624, -21.4067662463729, -7.296045989935027], [4.828720188781486, -6.742481548856557, -5.890734184915631, -4.208005165970413, -7.021170357128655, 10.511092732469118, -7.143616301650905, 1.8826280894615426, 5.922690978392764, 2.7029032161673174, 21.00628484697851, -2.991824973225811, 10.34676261471647, -23.362438276536988, -15.484859130144557, 9.164547160038172], [-1.1799553783567533, 30.527114193341358, -12.198626423563864, 11.199778147466391, -6.742915362237494, -1.359451057135561, 11.467437067311767, -1.3659384609817524, 27.371748959208556, -24.29934085075238, 7.168727585315288, -10.428759788262553, -15.319746670114107, -8.64909854514145, -6.196862536062669, 18.95919637312168]], "bias_h": [[-8.177142939095393], [-8.36153008250466], [-15.87816408729895], [-19.22581803026922], [-3.3085075469078182], [5.106446376012402], [20.40816087280538], [18.864033994094676], [1.3749265988997965], [-1.9107932093678737], [-0.09830565958625453], [15.712644708105485], [8.660733202309924], [2.093750063824086], [13.5300590945563], [7.19894862860965]], "bias_o": [[-6.727642267383123], [-0.4975359622716706], [-11.49952009108497], [-13.80433123438556]]}, {"input_nodes": 12, "hidden_nodes": 16, "output_nodes": 4, "weights_ih": [[1.123869458143835, 5.502106409580663, -8.25364764907721, -6.095212793225003, 5.567213016248862, -8.85066432673263, 9.5739320826283, -0.40312228098445363, 3.554098204465794, 1.32326453120305, -5.579928327443719, -17.637155981704534], [0.9048840842418968, -13.915379460086243, 4.832273515688727, -1.6659586275180303, 9.85311146079348, -2.9996419788397395, 18.496306303290815, 8.230572195724598, -0.2961347464365554, -5.2042388728097055, -8.698303392323425, 17.263189486070154], [8.852273675490624, 4.110006278086596, -6.1342012477916885, 8.95049741117637, -15.417060681394101, -9.035163930810805, 14.039718730378533, -15.246075182462775, 20.573606100536967, -5.878338205941456, 13.711534732850694, -4.1043144411393895], [2.310895177976181, 26.179658606372744, -22.053862749350174, 5.02918613113561, -3.235453159726265, -5.686564051544336, -7.476333626169514, 5.087817605484798, 11.118800147284038, -0.6505806999673975, 1.9970230474328254, -17.21920868173966], [0.4483254670274924, -10.895464568382089, -3.5653508213863008, -9.805782343283989, -10.730621434474934, 17.70567879083591, 7.065730207451926, -9.945044334346823, -2.6037650403816706, 11.584305202608814, 2.6584401270772196, 0.7925735686610084], [-17.00451197822724, -2.269587353232994, 15.839342462459781, 0.3267578921682087, 5.0551380163450705, 21.05875232545199, 19.8319226881396, 3.826189715389881, 1.631736432292302, -23.391557600869273, -15.83721893486721, -17.5434855627391], [3.832256502241517, -1.2111641694262494, -12.864473826726234, 14.319122881161285, 4.502625191977275, 5.905213798134007, 16.092020785948833, 15.522017502237155, 4.937424471325492, -5.261375184075215, 9.252732551148327, 6.113340174699264], [4.755473083348832, -0.6787174405398457, -10.721028787809468, -13.787762447859391, -6.057686518259893, 9.093126951171866, -5.639957450380267, 5.84068747039742, 18.357963548753098, -14.415154056557055, 15.901631982529446, -6.206506685261732], [1.2682697711659288, -22.303239096640443, 1.5774281349058972, 6.572817309291014, -11.835217342330889, -21.59185265103415, -4.550508140277747, 14.365493651598923, 22.692130596403263, -17.41429893016619, -2.709152851901975, -0.013414293381991377], [4.537766309716322, 1.524859930824148, 18.433889217313652, 4.63262800156651, 2.8436180755336893, 12.268571342661087, 6.108071939628794, -7.222228806462372, 27.534863584491124, -2.3379561160585913, -10.081475234844264, 2.720985492736409], [-12.83578160700844, 15.056722641871017, 0.5580906268095205, -0.9017961293036495, -8.247701464471572, -7.296643972221175, 1.6911889444511814, -9.004582915135924, -11.256222901406565, -6.64591989105325, -3.4874457901758977, 16.738596319349046], [10.061456942930137, 0.3401547191698083, -3.9574687231138777, 5.116283084478157, -13.11703154305835, 9.337212948676695, 10.76572551721109, 5.520703211545017, -13.097936124846262, -19.077516544169626, 5.489467325319284, -2.506448698243259], [-8.670349820948262, -7.96821819799206, -8.08203339107805, -5.271976217808213, -3.6244144893761083, 37.650163593064896, -9.80859229333018, -4.797135464940361, 2.391211665614542, 7.405675718719035, 9.661296120286188, 4.352780083021707], [-4.989753925918981, 16.26043728864567, -8.245967140047027, -10.038614026869718, 9.66091721879118, 8.443565457064352, -4.781922120840682, -12.923177375534472, -1.7528992415096212, 4.681227266637819, -6.600366498105315, -14.634311966148667], [1.0795142480269795, 19.630328492812737, -18.950321060068152, -7.594418234058683, -3.979441558711307, -12.026261461880527, 16.14042656222575, -1.1910083366864903, 5.127106724609852, -17.580965436437648, 31.129574096500143, 27.141689380081637], [-7.214184300372742, -20.384069585865436, -1.3114989241205703, 8.264224369190234, -10.236429672441492, -8.880717535236052, 7.840857911127771, 3.8665715849837343, 14.390361857952454, -27.738265264841917, -5.535180221228425, -9.716161083591844]], "weights_ho": [[-4.5633424221697965, -8.594212902325431, 0.13464358861855746, -5.524730406263905, 10.889804579839565, -24.38411405961836, 16.46629630975136, 24.476325390491727, 8.285078426326498, -5.939691640980955, -13.852305589721855, -1.7806906729380767, -5.020602014768732, 4.295167729589266, 16.519957105587014, 3.310990423320105], [-2.200845208138105, -1.9483925042231993, 9.681869148033416, -16.97977642633622, 17.814562933992253, -10.660780124915684, 7.318676806487639, -2.7508159778540753, -7.394179525225431, 4.932204127200271, 18.669113919363806, -41.322914586856655, -1.9720454327351624, 6.417731075972707, -21.364254246039195, -7.296045989935027], [4.880903205992879, -6.732318194864244, -5.745005934149004, -4.025066640362752, -7.021170357128655, 10.69362286460687, -7.120334181356097, 2.0182823236860186, 5.7107986682324166, 2.864995588910162, 20.989543730927572, -2.991824973225811, 10.506493477737386, -23.03818244568906, -15.591573963323501, 8.821727581217603], [-1.198328222969388, 30.40322005673939, -12.288766186413817, 11.266722272300056, -6.734734198139118, -1.2017082436449038, 11.483371053857834, -1.3659384609817524, 27.275691308458537, -24.188014995415124, 6.962348961815781, -10.329796153882967, -15.140196931222183, -8.321816937105245, -6.196862536062669, 18.97857314195102]], "bias_h": [[-8.2399606353604], [-8.392586511716358], [-16.049778826479677], [-19.134855089142984], [-3.2404374645739957], [5.105041853092957], [20.5421761811312], [19.09458075305105], [1.3749265988997965], [-1.9886717286656466], [-0.08331768098043903], [15.758325748789563], [8.586120452501246], [2.093750063824086], [13.71660929094105], [7.19894862860965]], "bias_o": [[-6.878799716597461], [-0.4975359622716706], [-11.380543994721034], [-13.763601474218435]]}, {"input_nodes": 12, "hidden_nodes": 16, "output_nodes": 4, "weights_ih": [[1.129582640931476, 5.582458302587265, -8.194090992700998, -6.0894904282887365, 5.73358606248213, -8.841422871176924, 9.571220967833007, -0.40312228098445363, 3.554098204465794, 1.2994645400013196, -5.3466974670184255, -17.41717660486449], [1.0621023222192607, -14.148043754431445, 4.933626939094619, -1.771169219982915, 10.010311380879182, -2.9996419788397395, 18.523803479921806, 8.230572195724598, -0.29896850630105115, -5.357462335028495, -8.84554095986557, 17.26743560528683], [8.878930177072561, 4.130388767556367, -6.226656684529813, 8.95049741117637, -15.263247787622483, -8.947262762719355, 14.283745485500875, -15.235796907039207, 20.573606100536967, -5.671986097218364, 13.66689882386555, -4.05593999417959], [2.269118797852717, 26.256012580059636, -22.053862749350174, 5.039826312012064, -3.235453159726265, -5.686564051544336, -7.5962603569952165, 5.087817605484798, 11.118800147284038, -0.6505806999673975, 1.9970230474328254, -17.21920868173966], [0.3809189635947493, -10.895464568382089, -3.556765074742863, -9.857155201423742, -10.811012777642464, 17.79473473205199, 7.101307511788333, -9.957343502642123, -2.580355218490856, 11.584305202608814, 2.520382902065688, 0.7535311027408094], [-16.98243403820878, -2.308672905377598, 15.839342462459781, 0.15313863182915174, 4.91454626951536, 21.05875232545199, 19.73595182003075, 3.826189715389881, 1.542174849918994, -23.37113813752304, -15.873804437422844, -17.557627804543785], [3.9634929829858656, -1.2111641694262494, -12.972546427427405, 14.2082151696194, 4.505812815105956, 5.905213798134007, 16.02309196787382, 15.522017502237155, 4.9618489108182935, -5.2377966324495215, 9.214460130059818, 6.079072095200217], [4.941778524827116, -0.6787174405398457, -10.721028787809468, -13.881436129895082, -6.200712448561166, 9.21064637478949, -5.639957450380267, 5.84068747039742, 18.19225621749574, -14.281289168064443, 16.05968259482658, -6.206506685261732], [1.1911826845870899, -22.303239096640443, 1.3138537602138218, 6.596307275908576, -11.796284781635427, -21.59185265103415, -4.542668421680582, 14.265746484876367, 22.692130596403263, -17.490540530347566, -2.709152851901975, -0.03781017316408927], [4.537766309716322, 1.574349181446462, 18.44964385750719, 4.63262800156651, 2.9589110088566426, 12.255406057196092, 6.108071939628794, -7.000524566722795, 27.464400039467364, -2.3379561160585913, -10.081475234844264, 2.757742491872334], [-12.811628404080082, 15.308821572091233, 0.5580906268095205, -1.0560999825783117, -8.190004153671385, -7.228012476152369, 1.6911889444511814, -9.007555128648383, -11.285754612207926, -6.611309339300175, -3.4976756562637363, 16.680391705962023], [10.093525615809734, 0.24294336724542254, -4.1069400619194925, 5.157932565293152, -13.158009315959744, 9.391395866480075, 10.78787360616872, 5.422261183547031, -13.197338206632057, -19.07041761549576, 5.386206128017056, -2.506448698243259], [-8.670349820948262, -7.96821819799206, -8.132928505619, -5.271976217808213, -3.6244144893761083, 37.74229685902939, -9.864707183963485, -4.992129581728887, 2.391211665614542, 7.389373573686212, 9.638627687089228, 4.352780083021707], [-4.989753925918981, 16.26043728864567, -8.21508019599479, -10.038614026869718, 9.727432593283025, 8.512519339957505, -4.920779582289135, -12.742935081341644, -1.8150761450711972, 4.702733326113931, -6.750877209673839, -14.451733935808411], [0.9951043496156553, 19.630328492812737, -18.991843582445586, -7.594418234058683, -4.076282927233258, -12.173909596441252, 16.14042656222575, -1.1910083366864903, 5.127106724609852, -17.660741379683966, 31.093841748159733, 27.21795016192993], [-7.218418040046732, -20.384069585865436, -1.504926525890971, 8.33793803656408, -10.236429672441492, -8.880717535236052, 7.765993171066092, 3.9277011471871477, 14.390361857952454, -27.738265264841917, -5.535180221228425, -9.716133447701647]], "weights_ho": [[-4.5633424221697965, -8.611652843036953, 0.027076240045747255, -5.524730406263905, 10.889804579839565, -24.44518814432058, 16.46629630975136, 24.350290881504886, 8.438333700449776, -5.956715433795075, -13.63802366797613, -1.934924934234048, -4.952526312103372, 4.256767456947041, 16.519957105587014, 3.1743248043655807], [-2.200845208138105, -1.9483925042231993, 9.655446231784483, -17.029056874043576, 17.805287989286434, -10.660780124915684, 7.377704142961983, -2.671487521003837, -7.394179525225431, 5.046808808171409, 18.669113919363806, -41.289232812380725, -2.00221341211982, 6.417731075972707, -21.589145258935925, -7.239725457824306], [4.768576319648895, -6.780258476320525, -5.745005934149004, -4.167412071082685, -7.021170357128655, 10.755327276608933, -7.120334181356097, 1.9223688530496394, 5.692992315465175, 2.864995588910162, 21.00628484697851, -2.987406176016866, 10.330290092023189, -23.234171599438636, -15.483560100022713, 8.998389341710915], [-1.4103788879014005, 30.50246677249474, -12.393154712887124, 11.266722272300056, -6.742915362237494, -1.2017082436449038, 11.467437067311767, -1.2750763499985047, 27.27270653013629, -24.188014995415124, 6.962348961815781, -10.439794275486717, -15.066914388294178, -8.529157016717734, -6.126288321826856, 18.95919637312168]], "bias_h": [[-8.258315462378699], [-8.416510944981125], [-16.049778826479677], [-19.134855089142984], [-3.4471659190538078], [5.07005385135183], [20.58013082073868], [18.983721529717972], [1.3749265988997965], [-1.9616208565897575], [-0.18239101369844102], [15.644923166275632], [8.297796929405253], [2.093750063824086], [13.71660929094105], [7.3105791647598535]], "bias_o": [[-6.878799716597461], [-0.4975359622716706], [-11.515516830031794], [-13.76167818334418]]}, {"input_nodes": 12, "hidden_nodes": 16, "output_nodes": 4, "weights_ih": [[1.0865926448965841, 5.654178354479428, -8.194090992700998, -6.0894904282887365, 5.567213016248862, -8.841422871176924, 9.641899845641117, -0.28754085886554015, 3.5424820127527274, 1.2994645400013196, -5.2817936716102745, -17.64367469026745], [0.9547063608662354, -14.061190104134976, 4.9789417553200925, -1.771169219982915, 9.906777829260031, -3.067627371138652, 18.379173192931056, 8.230572195724598, -0.29896850630105115, -5.2042388728097055, -8.633276183589226, 17.04548327080427], [8.878930177072561, 4.146863393276488, -6.226656684529813, 8.916699577439598, -15.417060681394101, -9.08869464992272, 14.301877523600082, -15.241322943000592, 20.511039173370456, -5.878338205941456, 13.720907779481806, -3.949800501429264], [2.2081612881572017, 26.179658606372744, -22.053862749350174, 5.043866795860327, -3.173166030164972, -5.691787124585003, -7.532654075097026, 5.06068204993761, 11.186150039512416, -0.6445189243338477, 1.9970230474328254, -17.21920868173966], [0.3809189635947493, -11.006949201177813, -3.551402565135814, -9.777532262360433, -10.69108985866574, 17.70567879083591, 7.203104563506817, -9.957343502642123, -2.5007831837717074, 11.433708396749205, 2.6584401270772196, 0.8492753218378614], [-17.00451197822724, -2.269587353232994, 15.773663522973502, 0.26956886603507757, 4.91454626951536, 21.1407364059538, 19.73595182003075, 3.975903518155269, 1.631736432292302, -23.391557600869273, -15.62619754860491, -17.549400664176797], [4.01957451844821, -1.3217571412494378, -12.93472287293358, 14.401566589118534, 4.459650130994359, 5.836521359805675, 16.055050224162002, 15.594777979833532, 4.937424471325492, -5.1108125463143255, 9.214460130059818, 6.0289237351728895], [4.883990144192867, -0.6787174405398457, -10.67049913161733, -14.059265800197114, -6.057686518259893, 9.093126951171866, -5.639957450380267, 6.120709003751981, 18.19225621749574, -14.26595271639812, 15.901631982529446, -6.206506685261732], [1.2682697711659288, -22.40206916194076, 1.2870318324149275, 6.491475182752165, -11.796284781635427, -21.502094608447905, -4.584646062424757, 14.31673396643735, 22.734025602758518, -17.490540530347566, -2.5798327515153643, -0.1518148957564638], [4.534260592404964, 1.574349181446462, 18.433889217313652, 4.796859072646808, 3.0151666636868817, 12.256275364948378, 6.108071939628794, -7.000524566722795, 27.526492824495126, -2.3379561160585913, -10.147124577787276, 2.757742491872334], [-12.811628404080082, 15.056722641871017, 0.5580906268095205, -1.0560999825783117, -8.237227394146272, -7.218809928457372, 1.6911889444511814, -9.048640532390953, -11.285754612207926, -6.583311137157525, -3.581976617865887, 16.581907186840684], [10.05415225128907, 0.5643599323568137, -4.187267680977254, 5.139804055402303, -13.209779757197303, 9.541702738944858, 10.73483200864222, 5.326998829645097, -13.074435299551455, -19.07041761549576, 5.386206128017056, -2.506448698243259], [-8.835544639430035, -8.012579616815081, -8.132928505619, -5.271976217808213, -3.5073672165223155, 37.65782242152581, -9.679014877145592, -4.9393869565979625, 2.391211665614542, 7.246317454944592, 9.693997988933576, 4.4572743716418985], [-4.8994448815261915, 16.26043728864567, -8.21508019599479, -10.131661444829712, 9.79330263853688, 8.486184499082167, -4.817682155004971, -12.923616579195825, -1.7528992415096212, 4.681227266637819, -6.750877209673839, -14.843215708710567], [1.0338807819348435, 19.73171619536913, -19.02385716983783, -7.589999140439374, -4.039763751905026, -12.026261461880527, 16.14042656222575, -1.1910083366864903, 5.127106724609852, -17.580965436437648, 31.119373488005863, 27.21795016192993], [-7.111231306421941, -20.384069585865436, -1.504926525890971, 8.33793803656408, -10.231984174449243, -8.999672701486032, 7.684223995376764, 3.9277011471871477, 14.400159809870564, -27.764622972682357, -5.525445315597779, -9.716161083591844]], "weights_ho": [[-4.5633424221697965, -8.698482108318021, 0.13464358861855746, -5.524730406263905, 10.889804579839565, -24.44518814432058, 16.46629630975136, 24.208192835112154, 8.459862609601915, -5.939691640980955, -13.885197874152263, -1.687911895859886, -4.952526312103372, 4.230963391538534, 16.519957105587014, 3.227507400947668], [-2.200845208138105, -1.9483925042231993, 9.681869148033416, -17.09822796265603, 17.805287989286434, -10.660780124915684, 7.243411943513474, -2.671487521003837, -7.394179525225431, 5.046808808171409, 18.81715001492993, -41.420209865778055, -1.9099288952844389, 6.373028470977606, -21.49828810388585, -7.296045989935027], [4.77826124157601, -6.829812937798997, -5.745005934149004, -4.115557652867569, -6.910516505490264, 10.794909809118199, -7.120334181356097, 1.8826280894615426, 5.615108190085758, 2.864995588910162, 21.007550153838977, -2.991824973225811, 10.310631392824318, -23.334273725443243, -15.591573963323501, 9.042241701459108], [-1.1594774463649256, 30.292872073411715, -12.363253711874886, 11.184517691253369, -6.742915362237494, -1.2668137300091546, 11.341573115965895, -1.319273680002889, 27.338459645288975, -24.188014995415124, 7.14854113745284, -10.439794275486717, -15.22043979352504, -8.59797444799197, -6.196862536062669, 18.911905150170515]], "bias_h": [[-8.196955489586589], [-8.392586511716358], [-16.049778826479677], [-19.218395383837073], [-3.4226031264527683], [5.105041853092957], [20.59619290690097], [19.09458075305105], [1.3749265988997965], [-1.6855554310648029], [-0.18239101369844102], [15.758325748789563], [8.660733202309924], [2.093750063824086], [13.71660929094105], [7.19894862860965]], "bias_o": [[-6.878799716597461], [-0.597783206195779], [-11.50212634198474], [-13.76928326082335]]}, {"input_nodes": 12, "hidden_nodes": 16, "output_nodes": 4, "weights_ih": [[1.129582640931476, 5.482433124057873, -8.238776232726556, -6.0894904282887365, 5.7728646159080075, -8.841422871176924, 9.63634177773055, -0.40312228098445363, 3.5252605760656786, 1.2994645400013196, -5.3466974670184255, -17.70127296725813], [1.0621023222192607, -14.154321039997203, 4.8494765793542, -1.790461360488749, 9.890316101185924, -2.8671571346454323, 18.523803479921806, 8.209775172069866, -0.4113990553194501, -5.087828553295312, -8.43490991190067, 17.06764749805662], [8.878930177072561, 4.186815153873477, -6.226656684529813, 9.139589170380075, -15.500714710343326, -9.035163930810805, 14.170078401731663, -15.325872546400634, 20.348516386631545, -5.878338205941456, 13.81089958053319, -4.076816725460921], [2.2819951924049944, 26.179658606372744, -22.047645618600225, 5.039826312012064, -3.2322522170785093, -5.686564051544336, -7.550071937573179, 5.087817605484798, 11.231411056559429, -0.5613676422769396, 2.0682254438981427, -17.21920868173966], [0.27564409360871, -10.937956101601188, -3.5653508213863008, -9.805782343283989, -10.730621434474934, 17.70567879083591, 7.101307511788333, -9.957343502642123, -2.580355218490856, 11.584305202608814, 2.6584401270772196, 0.7925735686610084], [-17.00451197822724, -2.269587353232994, 15.839342462459781, 0.4326156251286264, 5.066755792495895, 20.990567237640104, 19.660890289655832, 3.826189715389881, 1.6144848767583049, -23.391557600869273, -15.873804437422844, -17.549400664176797], [4.11964098594461, -1.288493511096231, -12.895239933690279, 14.319122881161285, 4.459650130994359, 6.030726688002143, 16.055050224162002, 15.522017502237155, 5.1504927199009645, -5.455960400449286, 9.214460130059818, 6.113340174699264], [4.883990144192867, -0.6787174405398457, -10.721028787809468, -14.093648009268524, -5.934130968411437, 9.093126951171866, -5.717348500649492, 5.84068747039742, 18.19225621749574, -14.287857521512889, 15.823035660265973, -6.206506685261732], [1.177341260963435, -22.303239096640443, 1.4346304500186298, 6.671716703174716, -11.796284781635427, -21.59185265103415, -4.584646062424757, 13.967313722535225, 22.692130596403263, -17.490540530347566, -2.7923985070054202, -0.1227649458509805], [4.2932158010997785, 1.574349181446462, 18.433889217313652, 4.63262800156651, 2.9098835779764696, 12.249536009792333, 6.108071939628794, -7.068709373875098, 27.476631123323028, -2.3379561160585913, -10.081475234844264, 2.775888560628765], [-12.9380399674959, 15.056722641871017, 0.49302022525328915, -1.0560999825783117, -8.237227394146272, -7.218809928457372, 1.7718817300401863, -9.004582915135924, -11.285754612207926, -6.623961903169388, -3.5160343400156746, 16.581907186840684], [10.093525615809734, 0.49774059647979657, -4.1069400619194925, 5.160261205236646, -13.209779757197303, 9.391395866480075, 10.78787360616872, 5.4161769386351954, -13.097936124846262, -19.07041761549576, 5.190786961389771, -2.506448698243259], [-8.670349820948262, -7.851884727873634, -8.132928505619, -5.300250319724615, -3.6244144893761083, 37.6254629839729, -9.74034241448071, -4.93735573979618, 2.4107312760319903, 7.370196025763613, 9.727767295404217, 4.444736913832295], [-5.020721059837636, 16.34058621667343, -8.21508019599479, -10.038614026869718, 9.79512929948393, 8.576784330933807, -4.817682155004971, -12.942565895202367, -1.6839467135895292, 4.573567582774948, -6.789941624174095, -14.540599035342556], [1.0795142480269795, 19.630328492812737, -18.906145901498355, -7.627335774306019, -4.149945302133778, -12.026261461880527, 16.14042656222575, -1.1683628897907523, 5.068764158161937, -17.738524295054493, 31.093841748159733, 27.26997427262025], [-7.218418040046732, -20.384069585865436, -1.5722146559738952, 8.224092561858818, -10.236429672441492, -8.976332014313643, 7.765993171066092, 3.7149596709090096, 14.460949415516383, -27.738265264841917, -5.579705748329537, -9.716161083591844]], "weights_ho": [[-4.671548957172059, -8.584162955968848, 0.16750979597944599, -5.47643016303941, 10.889804579839565, -24.44518814432058, 16.353829409398077, 24.277438750635778, 8.418184301083107, -5.939691640980955, -13.852305589721855, -1.7806906729380767, -4.980067813085813, 4.257250059979855, 16.500321458183944, 3.096220447281656], [-2.200845208138105, -1.9483925042231993, 9.741759279637986, -16.906505058396203, 17.67217734805212, -10.660780124915684, 7.308126422693846, -2.580172320206524, -7.363377421006345, 5.046808808171409, 18.669113919363806, -41.396958280336385, -1.6986685792944725, 6.1648047988778245, -21.41710926570673, -7.267416957829189], [4.828720188781486, -6.742481548856557, -5.745005934149004, -4.208005165970413, -7.142216925476643, 10.666502283654124, -7.222383443122637, 1.8826280894615426, 5.7107986682324166, 2.864995588910162, 21.00628484697851, -2.930367644907039, 10.34676261471647, -23.21821706459669, -15.591573963323501, 8.998389341710915], [-1.1799553783567533, 30.50246677249474, -12.288766186413817, 11.15278817309297, -6.62765990174991, -1.1846602987106647, 11.458502532047648, -1.3659384609817524, 27.275691308458537, -24.188014995415124, 6.962348961815781, -10.439794275486717, -15.22043979352504, -8.47285221489659, -6.179602827509402, 18.95919637312168]], "bias_h": [[-8.176894473262864], [-8.32640308722652], [-16.081769273126756], [-19.2526698407991], [-3.190733072675791], [5.105041853092957], [20.59619290690097], [19.09458075305105], [1.3225022641382422], [-1.950969938628716], [0.043826758436462776], [15.964966347170728], [8.528307739546442], [2.15077253703095], [13.71660929094105], [7.19894862860965]], "bias_o": [[-6.829391747747351], [-0.4975359622716706], [-11.500381538293816], [-13.80433123438556]]}, {"input_nodes": 12, "hidden_nodes": 16, "output_nodes": 4, "weights_ih": [[1.129582640931476, 5.482433124057873, -8.22543058719969, -6.076166058421034, 5.567213016248862, -8.859119309284914, 9.553411689898832, -0.5830842003432394, 3.5325529728719203, 1.2994645400013196, -5.399983539941452, -17.426951280658642], [1.0808029733101419, -13.94315906360233, 4.967604745787122, -1.667653635274079, 10.022360475563968, -3.1164232681908515, 18.523803479921806, 8.230572195724598, -0.29896850630105115, -5.200271952036487, -8.633276183589226, 17.031755419813603], [8.83526283027308, 4.130388767556367, -6.226656684529813, 8.99216236840122, -15.408176151246753, -9.035163930810805, 14.186280276805324, -15.095263413347523, 20.701939594963843, -5.975873200231538, 13.676104460862158, -4.2308814565563475], [2.254625157624823, 26.362980890533255, -21.98693757223769, 5.055439358782892, -3.235453159726265, -5.791712110256016, -7.550071937573179, 5.0029179205371355, 11.135641263886155, -0.7514985232489195, 1.9020890338176346, -17.21920868173966], [0.5272659832678558, -10.914124059453632, -3.5653508213863008, -9.805782343283989, -10.655588615028547, 17.548284765387, 7.101307511788333, -9.957343502642123, -2.580355218490856, 11.584305202608814, 2.6584401270772196, 0.7925735686610084], [-16.759298281293738, -2.1202204834496365, 15.839342462459781, 0.3267578921682087, 4.91454626951536, 21.05875232545199, 19.73595182003075, 3.9006620358129385, 1.631736432292302, -23.391557600869273, -15.949381640615078, -17.650036919070807], [4.158407626634255, -1.2111641694262494, -12.864473826726234, 14.335762672544483, 4.459650130994359, 5.905213798134007, 16.055050224162002, 15.522017502237155, 4.926471516361634, -5.195505708692046, 9.226592714576588, 6.063929369641389], [4.905609339012156, -0.6787174405398457, -10.721028787809468, -13.869112541194658, -6.169706015376455, 9.32859019264172, -5.639957450380267, 5.84068747039742, 18.19225621749574, -14.241707940039921, 15.901631982529446, -6.174951175701461], [1.1979227670521149, -22.127904034307207, 1.4346304500186298, 6.596307275908576, -11.796284781635427, -21.59185265103415, -4.607121584295295, 14.315134006389494, 22.692130596403263, -17.39385214180771, -2.709152851901975, -0.013414293381991377], [4.519131729455071, 1.5175761644814139, 18.51353263239452, 4.508716106245049, 2.9098835779764696, 12.17490802923896, 6.133377651163881, -7.000524566722795, 27.46559557588333, -2.40547500034121, -10.319778203557675, 2.7463210213351266], [-12.803040005187503, 14.978195584859638, 0.6938669522556096, -1.0432470692239744, -8.325124415651668, -7.218809928457372, 1.6911889444511814, -8.950709215553115, -11.285754612207926, -6.74219227426165, -3.5160343400156746, 16.79898701483455], [10.093525615809734, 0.49774059647979657, -4.089913654356033, 5.223891569943908, -13.209779757197303, 9.434958237841585, 10.78787360616872, 5.520703211545017, -12.999001680133306, -19.07041761549576, 5.386206128017056, -2.536610688360184], [-8.648747073275546, -7.96821819799206, -8.055017838593542, -5.322010572596779, -3.429944095651611, 37.5601620806743, -9.946049973253075, -4.9530860556238965, 2.2458508699737383, 7.370196025763613, 9.693997988933576, 4.352780083021707], [-4.960432828985673, 16.26043728864567, -8.296652778763676, -10.238667900004222, 9.79512929948393, 8.446185570624355, -4.817682155004971, -13.069267706599021, -1.78484687494358, 4.681227266637819, -6.750877209673839, -14.634311966148667], [1.0795142480269795, 19.630328492812737, -19.02385716983783, -7.594418234058683, -4.071197047197856, -12.173966530750638, 16.14042656222575, -1.1668462974738407, 5.0696996015128555, -17.580965436437648, 31.07443767072825, 27.296085229000376], [-7.218418040046732, -20.42582123048902, -1.6518190242824367, 8.33793803656408, -10.236429672441492, -8.96503271805974, 7.718710327433197, 3.9277011471871477, 14.390361857952454, -27.738265264841917, -5.535180221228425, -9.716161083591844]], "weights_ho": [[-4.508918900015469, -8.584162955968848, 0.09523775238127524, -5.57630718304844, 10.889804579839565, -24.44518814432058, 16.46629630975136, 24.208192835112154, 8.418184301083107, -5.939691640980955, -13.852305589721855, -1.7944122713437543, -4.952526312103372, 4.257250059979855, 16.569199656947376, 3.227507400947668], [-2.200845208138105, -1.9066842226066472, 9.651022644838013, -17.186913412520827, 17.909422488904102, -10.660780124915684, 7.133910026060217, -2.692791870549927, -7.394179525225431, 5.046808808171409, 18.609424542587472, -41.264309282455045, -1.9541776049717343, 6.417731075972707, -21.523978638762166, -7.400367183925505], [4.828720188781486, -6.742481548856557, -5.6095399471404415, -4.208005165970413, -7.121590204454222, 10.69362286460687, -7.120334181356097, 1.8826280894615426, 5.7107986682324166, 2.8489644167922505, 21.00628484697851, -2.8999268277252446, 10.34676261471647, -23.299597606533055, -15.525206621890913, 9.1167534860476], [-1.1799553783567533, 30.50246677249474, -12.288766186413817, 11.266722272300056, -6.901023752807883, -1.1386033076705964, 11.413723787531906, -1.5043278620733167, 27.275691308458537, -24.188014995415124, 6.899826032176138, -10.487514168791062, -15.147666538439495, -8.69409355332847, -6.196862536062669, 18.9272088575166]], "bias_h": [[-8.177142939095393], [-8.392586511716358], [-16.171587397787373], [-19.15530987721724], [-3.4024668139215484], [5.23818156995849], [20.59619290690097], [19.129959765624122], [1.3927173573241227], [-2.011783488593541], [-0.26963984271350383], [15.81401164826832], [8.660733202309924], [2.093750063824086], [13.71660929094105], [7.21327871988147]], "bias_o": [[-6.928677477846569], [-0.4975359622716706], [-11.50212634198474], [-13.890993143014656]]}, {"input_nodes": 12, "hidden_nodes": 16, "output_nodes": 4, "weights_ih": [[0.9767283003596532, 5.482433124057873, -8.289680159968896, -5.959791854607442, 5.513120664582855, -8.841422871176924, 9.63634177773055, -0.40312228098445363, 3.449462224082596, 1.3818509863564474, -5.3466974670184255, -17.60146712401216], [1.0621023222192607, -14.061190104134976, 4.933626939094619, -1.771169219982915, 9.857373687390796, -2.9996419788397395, 18.429699045455834, 8.230572195724598, -0.4389952422972604, -5.2042388728097055, -8.633276183589226, 17.170769463033853], [8.884412335370678, 4.178573640304694, -6.1020999425090805, 8.95049741117637, -15.417060681394101, -9.035163930810805, 13.933357801384387, -15.352037820109432, 20.573606100536967, -5.952157827589935, 13.725402024057107, -4.090398182068085], [2.0769860551780694, 26.085102757993795, -22.017376854619705, 5.053808736552733, -3.1201480908917945, -5.686564051544336, -7.470174970559204, 5.087817605484798, 11.118800147284038, -0.7459416710731119, 2.097562068442782, -17.21920868173966], [0.34081211959914537, -10.865131110011442, -3.5653508213863008, -9.950565637491998, -10.845804229979285, 17.730723687648084, 7.02394864958469, -9.957343502642123, -2.580355218490856, 11.73439352784572, 2.6333389699380363, 0.8353383698777299], [-16.91539876231868, -2.0937313075377424, 15.820272040396167, 0.3267578921682087, 4.841218618929644, 20.906580415614986, 19.73595182003075, 3.826189715389881, 1.631736432292302, -23.391557600869273, -15.751409754162575, -17.508152034112992], [3.8916263168368364, -1.1394398399894308, -12.864473826726234, 14.253560993909211, 4.498531306257794, 5.905213798134007, 16.055050224162002, 15.381749603551036, 4.937424471325492, -5.195505708692046, 9.214460130059818, 6.130409833277977], [4.883990144192867, -0.6787174405398457, -10.647743757896116, -14.035926127284238, -6.273810061484305, 9.015217299835166, -5.670795853819867, 5.84068747039742, 18.19225621749574, -14.250463799829722, 15.871708900498296, -6.206506685261732], [1.25227825055, -22.303239096640443, 1.4346304500186298, 6.596307275908576, -11.819332018546104, -21.59185265103415, -4.5402796718262275, 14.063807169539299, 22.692130596403263, -17.34208906316377, -2.6894157514201913, -0.013414293381991377], [4.357853583740053, 1.574349181446462, 18.572370250043058, 4.651842935986901, 2.9098835779764696, 12.256275364948378, 6.020910055366889, -7.000524566722795, 27.668628085992616, -2.314157190294006, -10.081475234844264, 2.757742491872334], [-12.854981932680765, 15.05117037652255, 0.5580906268095205, -0.8334132255846939, -8.237227394146272, -7.251713197003204, 1.7252799164038337, -9.004582915135924, -11.225276215338514, -6.623961903169388, -3.6153388362339265, 16.62017495621568], [9.748849571479287, 0.30343937972089335, -4.1069400619194925, 5.160261205236646, -13.209779757197303, 9.281959312823245, 10.78787360616872, 5.757584158355412, -13.14998045050658, -19.07041761549576, 5.386206128017056, -2.506448698243259], [-8.449618522805615, -7.96821819799206, -8.132928505619, -5.316218303193994, -3.6244144893761083, 37.738491520429484, -9.80859229333018, -4.9530860556238965, 2.4221308726218562, 7.3161708255127245, 9.711499774117648, 4.451628833701249], [-4.935481972859701, 16.29527469710695, -8.235502590412047, -10.038614026869718, 9.79512929948393, 8.286527384503554, -4.998659288319084, -12.920031793859403, -1.9470447650394642, 4.681227266637819, -6.811083264561581, -14.634311966148667], [1.0795142480269795, 19.659518600544768, -19.02385716983783, -7.594418234058683, -4.149945302133778, -11.937701641072385, 16.14042656222575, -1.0629836428954613, 5.127106724609852, -17.580965436437648, 31.093841748159733, 27.21795016192993], [-7.022821681395028, -20.185774784427576, -1.504926525890971, 8.446424988639647, -10.236429672441492, -8.880717535236052, 7.765993171066092, 3.9277011471871477, 14.390361857952454, -27.656161715110148, -5.699093673301369, -9.698895093242703]], "weights_ho": [[-4.5633424221697965, -8.584162955968848, 0.13464358861855746, -5.38333928857974, 10.889804579839565, -24.44518814432058, 16.47328743469301, 24.316418006665913, 8.400933781323651, -5.8887295689196835, -13.8089679495949, -1.7806906729380767, -4.896664839137714, 4.257250059979855, 16.519957105587014, 3.201087400726903], [-2.200845208138105, -1.9483925042231993, 9.681869148033416, -17.028128731148232, 17.805287989286434, -10.660780124915684, 7.318676806487639, -2.6388582801236016, -7.391147448705182, 5.0985721135491415, 18.733797419943667, -41.322914586856655, -1.8414031858430815, 6.30102682288507, -21.523978638762166, -7.296045989935027], [4.773280193642452, -6.742481548856557, -5.6751948144049695, -4.169371299499321, -7.021170357128655, 10.69362286460687, -7.120334181356097, 1.8826280894615426, 5.844491297628941, 2.781550611083859, 21.02092023439492, -2.991824973225811, 10.34676261471647, -23.21078883129807, -15.577413139386387, 9.006237365687017], [-1.1799553783567533, 30.52414039692469, -12.288766186413817, 11.231917458482068, -6.83917383669128, -1.2101819510319396, 11.467437067311767, -1.3659384609817524, 27.396098873035385, -24.188014995415124, 6.969543658190777, -10.48001397777941, -15.22043979352504, -8.529157016717734, -6.250343805409909, 18.74353084591257]], "bias_h": [[-8.177142939095393], [-8.392586511716358], [-16.039296355266455], [-19.16223169433449], [-3.3343696083585628], [5.121461387836448], [20.47571327875372], [19.09458075305105], [1.373452765317622], [-1.950969938628716], [-0.25493484207042416], [15.758325748789563], [8.58693644652429], [2.015626538626739], [13.578071079861127], [7.19894862860965]], "bias_o": [[-6.878799716597461], [-0.4975359622716706], [-11.50212634198474], [-13.80433123438556]]}, {"input_nodes": 12, "hidden_nodes": 16, "output_nodes": 4, "weights_ih": [[1.129582640931476, 5.482433124057873, -8.194090992700998, -6.0894904282887365, 5.559624679263506, -8.841422871176924, 9.63634177773055, -0.4046370909092498, 3.554098204465794, 1.2994645400013196, -5.3466974670184255, -17.60146712401216], [1.15578657817341, -14.20527669150388, 5.01608722784715, -1.6434394979345857, 9.905131914691875, -3.043865721199068, 18.66617021427566, 8.295599051286512, -0.3516753728952681, -5.291648479379445, -8.795730447051904, 17.11081554350003], [8.878930177072561, 4.135964154473546, -6.268524343588258, 8.95049741117637, -15.417060681394101, -9.035163930810805, 14.086106258548694, -15.297451660304517, 20.601791257001146, -5.878338205941456, 13.75102435491429, -4.1043144411393895], [2.269118797852717, 26.065873590135478, -22.053862749350174, 5.039826312012064, -3.235453159726265, -5.683013514149729, -7.550071937573179, 5.1027511238019025, 11.209289186330341, -0.6505806999673975, 2.023390495274868, -17.18649496734074], [0.401430152760442, -10.77634148937198, -3.500781303597508, -9.805782343283989, -10.730621434474934, 17.798090413622766, 7.101307511788333, -9.943545154533725, -2.580355218490856, 11.710145184774309, 2.6584401270772196, 0.7925735686610084], [-17.00451197822724, -2.269587353232994, 15.839342462459781, 0.3267578921682087, 4.91454626951536, 21.05875232545199, 19.724646507535677, 3.6091374761206563, 1.5230750120222907, -23.332724028229393, -16.16930971034278, -17.549400664176797], [3.864288121455356, -0.9712493076016162, -12.864473826726234, 14.5135573421218, 4.459650130994359, 5.822064333120278, 16.137357542611493, 15.522017502237155, 5.187368283643726, -5.195505708692046, 9.285606088792125, 6.013934100788682], [4.883990144192867, -0.6787174405398457, -10.452916229252647, -13.881436129895082, -6.001666580522415, 9.001026694299435, -5.639957450380267, 5.7272228927342175, 17.9994195765335, -14.33083197107548, 15.901631982529446, -6.1493863554997095], [1.2682697711659288, -22.303239096640443, 1.4142870451012566, 6.596307275908576, -11.61832431068067, -21.59185265103415, -4.584646062424757, 14.202144269435518, 22.652982501514405, -17.42607202189801, -2.6317751453548714, 0.07039113175110354], [4.537766309716322, 1.574349181446462, 18.295367738294058, 4.63262800156651, 2.9225594024464914, 12.256275364948378, 6.086485884112603, -6.969514722781212, 27.258665673940143, -2.2955245237584934, -10.081475234844264, 2.7494825531716702], [-12.811628404080082, 15.056722641871017, 0.5580906268095205, -1.044153599336372, -8.266972529671591, -7.1792151038177545, 1.6911889444511814, -9.004582915135924, -11.285754612207926, -6.396688387569092, -3.510287071126847, 16.609574212283352], [10.093525615809734, 0.49774059647979657, -4.229904791882965, 5.05855460714163, -13.38514125958042, 9.391395866480075, 10.825290823141888, 5.520703211545017, -13.097936124846262, -19.07041761549576, 5.478389164117831, -2.506448698243259], [-8.670349820948262, -7.96821819799206, -8.132928505619, -5.216686181722367, -3.443912045227672, 37.82987458300835, -9.71329825992384, -4.9530860556238965, 2.391211665614542, 7.370196025763613, 9.537784662487098, 4.273774903736601], [-4.989753925918981, 16.395093542850113, -8.21508019599479, -10.038614026869718, 9.79512929948393, 8.482362605683697, -5.034378162457617, -12.923616579195825, -1.7528992415096212, 4.681227266637819, -6.84224581578213, -14.78372526795109], [1.2480685548019852, 19.630328492812737, -19.02385716983783, -7.65600483007238, -4.149945302133778, -12.026261461880527, 16.14042656222575, -1.3444585038624544, 5.127106724609852, -17.636940806822416, 31.10156009676998, 27.241460532341808], [-7.139533047183849, -20.57172612986222, -1.4697972955324374, 8.342011308644732, -10.286421880976325, -8.880717535236052, 7.765993171066092, 3.9277011471871477, 14.396303711599899, -27.738265264841917, -5.4337117847344985, -9.89136394720954]], "weights_ho": [[-4.5633424221697965, -8.53909453982033, 0.1973942419097229, -5.524730406263905, 10.971070793988213, -24.46156649973012, 16.46629630975136, 24.208192835112154, 8.418184301083107, -5.818759521402424, -13.852305589721855, -1.7806906729380767, -4.748153205235066, 4.217306485254135, 16.58847531213162, 3.227507400947668], [-2.200845208138105, -1.8293035195413243, 9.681869148033416, -17.181098924023864, 17.805287989286434, -10.551482810130407, 7.2351635027497565, -2.70264295672081, -7.394179525225431, 4.976038703994927, 18.669113919363806, -41.322914586856655, -1.7957512844925239, 6.417731075972707, -21.483290145461147, -7.192041924857228], [4.887564666914363, -6.807997973333671, -5.745005934149004, -4.214712438421888, -7.021170357128655, 10.491722047434141, -7.221372897735355, 1.8826280894615426, 5.7107986682324166, 2.864995588910162, 21.029413757660546, -2.991824973225811, 10.34676261471647, -23.21821706459669, -15.591573963323501, 8.998389341710915], [-1.1095044962936658, 30.50246677249474, -12.288766186413817, 11.331995315629861, -6.742915362237494, -1.3159828427645865, 11.467437067311767, -1.3659384609817524, 27.275691308458537, -24.222566338929887, 6.982615888891393, -10.439794275486717, -15.326914888619914, -8.529157016717734, -6.14836035138117, 18.95919637312168]], "bias_h": [[-8.177142939095393], [-8.363911274271084], [-16.049778826479677], [-19.134855089142984], [-3.3163536270669285], [5.105041853092957], [20.59619290690097], [19.09458075305105], [1.3749265988997965], [-1.950969938628716], [-0.1342584355747995], [15.714019123289166], [8.784437189685045], [2.01703964951367], [13.729770688902931], [7.057518612651652]], "bias_o": [[-6.924774274726076], [-0.4250578709986648], [-11.50212634198474], [-13.80433123438556]]}, {"input_nodes": 12, "hidden_nodes": 16, "output_nodes": 4, "weights_ih": [[1.129582640931476, 5.585421740899598, -8.194090992700998, -6.0894904282887365, 5.567213016248862, -8.78306115543406, 9.63634177773055, -0.4394775913102224, 3.554098204465794, 1.2994645400013196, -5.3466974670184255, -17.60146712401216], [1.0621023222192607, -13.840671305278706, 4.933626939094619, -1.771169219982915, 9.802882739605034, -3.0547306840887427, 18.518325133353905, 8.230572195724598, -0.29896850630105115, -5.185523248429556, -8.67847778906721, 17.110229594165038], [8.904456896899305, 4.1732230389561975, -6.226656684529813, 8.95049741117637, -15.204237780208624, -8.970807416048673, 14.128387239934076, -15.268114488076387, 20.573606100536967, -5.878338205941456, 13.746316277259865, -4.1043144411393895], [2.269118797852717, 26.32803904960366, -22.053862749350174, 5.039826312012064, -3.235453159726265, -5.802085310129516, -7.543604779061132, 5.087817605484798, 10.928828552738237, -0.6505806999673975, 1.9970230474328254, -17.397866322886355], [0.41871382605743607, -10.877108202191945, -3.4079634959517597, -9.748938722634689, -10.730621434474934, 17.70567879083591, 7.129560918658959, -9.945682219830392, -2.6915518487257044, 11.584305202608814, 2.6584401270772196, 0.8904082884700141], [-17.00451197822724, -2.3176536228437397, 15.811536502351185, 0.43572074289268004, 4.990854202268732, 21.045947433216377, 19.79654129545275, 3.826189715389881, 1.7275825954224981, -23.391557600869273, -15.873804437422844, -17.549400664176797], [3.9380444872048113, -1.2111641694262494, -12.864473826726234, 14.33682198443385, 4.346190017151506, 5.790393582612226, 16.055050224162002, 15.522017502237155, 4.937424471325492, -5.195505708692046, 9.37785259290977, 6.144784753795282], [4.883990144192867, -0.6787174405398457, -10.85787326401363, -13.881436129895082, -6.057686518259893, 9.089665902662512, -5.7997289223892325, 5.66780937794297, 18.201713651088983, -14.508286807224328, 15.901631982529446, -6.287684753374727], [1.2682697711659288, -22.31921107276791, 1.5605967913694487, 6.596307275908576, -11.796284781635427, -21.59185265103415, -4.60465010559662, 14.131947404301313, 22.620943004114537, -17.378501071670073, -2.709152851901975, -0.013414293381991377], [4.536228502397627, 1.574349181446462, 18.433889217313652, 4.63262800156651, 2.839871682439146, 12.256275364948378, 5.9896005527933225, -7.000524566722795, 27.46559557588333, -2.3379561160585913, -10.081475234844264, 2.757742491872334], [-12.811628404080082, 15.056722641871017, 0.469094923144755, -0.9884059725898735, -8.237227394146272, -7.320709244028642, 1.6911889444511814, -9.004582915135924, -11.084558986992695, -6.563455187485301, -3.5160343400156746, 16.581907186840684], [10.093525615809734, 0.4531100762633542, -4.1069400619194925, 5.160261205236646, -13.187365591846362, 9.481716708074044, 10.728925417876852, 5.54269125150287, -13.097653420761599, -19.065371458547588, 5.355545973432007, -2.506448698243259], [-8.670349820948262, -8.144715970627193, -8.132928505619, -5.32532164993465, -3.754747709458869, 37.65782242152581, -9.80859229333018, -4.8529059156506245, 2.5827091826021236, 7.2219166657055345, 9.693997988933576, 4.415095964075291], [-4.883147905354009, 16.26043728864567, -8.298481275259235, -10.038614026869718, 9.77321812204134, 8.482362605683697, -4.762954961234951, -12.756236206290543, -1.7528992415096212, 4.681227266637819, -6.718888347319524, -14.677158425713017], [1.0395104552702692, 19.630328492812737, -18.945217278173736, -7.789653852578911, -4.149945302133778, -11.980134019472294, 16.215324910175156, -1.088429613100937, 5.127106724609852, -17.454720766538163, 31.093841748159733, 27.122829834436562], [-7.331678360490372, -20.384069585865436, -1.4453557914640152, 8.126352984126221, -10.416500389981318, -8.880717535236052, 7.765993171066092, 3.7168614557603714, 14.376402613494635, -27.738265264841917, -5.611811546219513, -9.716161083591844]], "weights_ho": [[-4.5633424221697965, -8.584162955968848, 0.15997781841200118, -5.553521131133085, 11.217934942639506, -24.44518814432058, 16.421438676200022, 24.061112135262718, 8.418184301083107, -5.939691640980955, -13.852305589721855, -1.7806906729380767, -4.952526312103372, 4.257250059979855, 16.496201086185604, 3.3129115086398766], [-2.3606837319278253, -1.9483925042231993, 9.681869148033416, -16.989373428273623, 17.83060804775376, -10.660780124915684, 7.292021274077864, -2.525232182085929, -7.369789084158232, 5.13713565225297, 18.669113919363806, -41.47775392923947, -1.7957512844925239, 6.532585381840854, -21.523978638762166, -7.296045989935027], [4.828720188781486, -6.681852680948614, -5.745005934149004, -4.208005165970413, -7.239012945154354, 10.69362286460687, -7.120334181356097, 1.8421457490050817, 5.841283424386752, 2.864995588910162, 20.918192380677986, -2.711148460445586, 10.34676261471647, -23.26021065018789, -15.701915161509461, 8.998389341710915], [-1.1799553783567533, 30.523345844904437, -12.319841411476354, 11.245378936686148, -6.700508460415887, -1.2017082436449038, 11.467437067311767, -1.3388104803234815, 27.275691308458537, -24.188014995415124, 6.962348961815781, -10.439794275486717, -15.22043979352504, -8.529157016717734, -6.196862536062669, 18.947919714517045]], "bias_h": [[-8.177142939095393], [-8.392586511716358], [-16.049778826479677], [-19.134855089142984], [-3.3085075469078182], [5.105041853092957], [20.458604286982172], [19.09458075305105], [1.3749265988997965], [-1.950969938628716], [-0.18239101369844102], [15.890090899137912], [8.660733202309924], [2.093750063824086], [13.71660929094105], [7.062716009679237]], "bias_o": [[-6.878799716597461], [-0.5624380297029375], [-11.329293346608226], [-13.6689380083734]]}, {"input_nodes": 12, "hidden_nodes": 16, "output_nodes": 4, "weights_ih": [[1.1684268817528605, 5.570982719592374, -8.227981541853064, -5.943024108049566, 5.567213016248862, -8.83054345388167, 9.563372264783279, -0.3356100707498679, 3.554098204465794, 1.2994645400013196, -5.3466974670184255, -17.610837604182713], [0.9420773016339743, -14.061190104134976, 4.933626939094619, -1.870766243049894, 9.905131914691875, -2.9996419788397395, 18.523803479921806, 8.150825382000548, -0.29896850630105115, -5.2042388728097055, -8.633276183589226, 17.163561440950488], [8.878930177072561, 4.130388767556367, -6.226656684529813, 8.865505362768822, -15.417060681394101, -9.239312022462414, 14.128387239934076, -15.241322943000592, 20.573606100536967, -5.878338205941456, 13.746316277259865, -4.1043144411393895], [2.356300301922864, 26.179658606372744, -22.221266162153935, 4.961974112200386, -3.235453159726265, -5.686564051544336, -7.550071937573179, 4.996930361533239, 11.118800147284038, -0.6505806999673975, 1.994525419463754, -17.248545090794995], [0.3809189635947493, -10.895464568382089, -3.707877127550185, -9.602993202388863, -10.730621434474934, 17.70567879083591, 7.101307511788333, -9.897727266037249, -2.580355218490856, 11.460019092885647, 2.6584401270772196, 0.7925735686610084], [-17.172410411805394, -2.3153608189343946, 15.839342462459781, 0.42618512388833013, 5.020251524817576, 21.05875232545199, 19.543417699343557, 3.801259806576617, 1.631736432292302, -23.391557600869273, -15.873804437422844, -17.71825577166196], [3.9380444872048113, -1.2627068374542492, -12.864473826726234, 14.427098909535928, 4.459650130994359, 6.018095199411025, 16.025602348267935, 15.522017502237155, 4.835211346682604, -5.169010322613017, 9.214460130059818, 6.126204737702901], [4.883990144192867, -0.466367712932991, -10.81670214965046, -13.881436129895082, -5.934549103945117, 9.093126951171866, -5.639957450380267, 5.742568490866465, 18.19225621749574, -14.26595271639812, 15.735654585332123, -6.142750774128992], [1.2682697711659288, -22.303239096640443, 1.2831788930181638, 6.588594275848649, -11.796284781635427, -21.70764980197007, -4.4980975350996, 14.23338446527387, 22.692130596403263, -17.490540530347566, -2.689296276857956, 0.19957977167948385], [4.404800628269012, 1.574349181446462, 18.526159025396748, 4.573176939968134, 2.7874650620262558, 12.07921108591365, 6.093721406950137, -7.000524566722795, 27.554537279584437, -2.5034638385575247, -10.081475234844264, 2.849717146681131], [-12.811628404080082, 14.996471036686792, 0.35495310398129853, -1.0560999825783117, -8.022124506064278, -7.222280143908922, 1.607579217897036, -8.914943842142023, -11.285754612207926, -6.657128711570648, -3.5160343400156746, 16.579030319340095], [10.097697284609573, 0.49774059647979657, -4.035698630691552, 5.156495128889971, -13.209779757197303, 9.414211200672892, 10.78787360616872, 5.432517365898259, -13.097936124846262, -19.07041761549576, 5.373219692484366, -2.82469053775667], [-8.670349820948262, -8.131705087946797, -8.279064137149053, -5.271976217808213, -3.6244144893761083, 37.65782242152581, -9.80859229333018, -4.9530860556238965, 2.391211665614542, 