{"generation": 26000, "population": [{"input_nodes": 12, "hidden_nodes": 16, "output_nodes": 4, "weights_ih": [[-6.879236128813041, -5.625530765156105, 3.268805525246677, 3.2584593963870034, -0.8678806064757884, -0.15863882696159182, -12.369839233717832, -8.597518398295252, -6.590661141477509, 0.7364384400987718, -3.2669706793756945, -1.6716638985197818], [5.019051854192188, -7.083533860872255, -10.055326490795673, -2.632938216774997, 7.160777083479743, 4.8819430726244235, 9.519921985766022, 14.010282271839994, 1.3043761372305782, -1.8372716880153022, 2.95921480241261, 0.2829986419846988], [2.9228472936212424, 11.176379188201167, -6.270418414823111, -1.1689506186095473, -11.061074639283916, -6.454829428245456, 9.007105598720894, -14.22600903188603, 13.647359434540023, 5.044838461759201, 3.873645854284574, 4.657433588482735], [13.522467251941311, 22.886692496739258, -10.803753093406598, 9.999588844997051, 8.237677911666772, 1.032796610953537, -4.770708783906315, 7.795861267440454, 1.1440285836558917, -1.1813205102897002, -8.743058575987067, -7.847292321680129], [3.9722217106057642, -10.323877714331005, -8.962432383500019, 1.9421942498265934, -5.566731350072505, 6.66113915145502, 2.8421091357874504, -5.808335271164826, -11.119304979235688, 1.2995589552698563, 10.155609717944762, 1.4960750483056369], [-11.035686564387518, 0.9459113610337605, 9.54364989123488, -2.0142071187035837, 1.9950130587577914, 20.125764293158483, 10.59916424381385, -5.372605124825137, 11.866085997130662, -10.70491909356863, -16.610472454220204, -4.073957448303802], [-8.797788206486821, -5.101775269164179, -7.385912195847758, -1.3967235608610156, 5.394372930096038, 4.214203306708563, 1.1359536845548277, 4.833661122928793, 0.18951987177153123, 0.2537532239046707, 8.183907282171136, 6.972895796268695], [-1.2223182587687318, 7.535004899359503, -4.364353362978405, -12.811827900306984, -1.5886486436333596, 0.611961611073425, -7.409228806626384, -2.6424927508486236, 12.403376394919356, -0.14853345404425428, 10.221395605374234, 2.2342474271569626], [-1.8357739206185342, -21.992967384592962, -5.364677158795621, 19.94683928342503, -6.081964320524161, -5.920200092866883, -10.136538342164613, 4.442342209273772, 12.725974010697355, -17.178151894749185, 2.621186199135912, 2.9089174563361286], [-0.6221521923294502, 2.6120223194645202, 0.5011912016044301, -2.6171264125530103, 9.685209653437795, 0.5183608865135729, 13.118511453795566, -2.9523535246404, 13.979659638874798, -1.281317243199354, 3.894628554385939, -1.4166277144590362], [-4.1220227632638915, -3.1648698300999607, -4.690877171088458, -2.548197517229436, -6.795128440115458, -1.9468016389649512, -0.6677815198653075, -4.937496544070379, 4.603574531014839, -7.461830830133074, -2.3539217994358683, 15.569114534129028], [-2.584042966045946, -8.60091900506654, 1.8834511237830271, 7.113116093941706, -2.4189605053623744, 3.2677045431935645, 16.385090885895885, 3.9082138504548842, 9.92221273472439, -5.765753487004151, -1.4126366997262636, 2.403212699154441], [3.5519921259143254, -2.5389236720494104, -5.074941473760674, -2.993810924089285, -14.02832685423815, 31.95177334524426, -7.679427919151758, -2.6501772874869807, 8.609293477702558, 7.533410301573004, 7.8493844079053705, 12.787466845969217], [1.8869000779056508, 2.2741878865610876, -6.986188610529392, -7.207614207056538, 0.6314081391197306, 11.584454239495965, 0.3570155502800473, -0.7681705993812817, 1.8096585878819362, 7.3187444250583304, 3.0107195631023784, -10.937086408265133], [4.06050936932682, 9.701624428240335, -9.818662694963095, -2.2351278574363573, -2.8442230274928795, -4.126207052924612, 13.567787965959125, -9.04808618130031, 0.18216121085223444, -1.4312867310947508, 25.763630428289932, 10.25125145981746], [1.4456802881778106, -5.808524735324287, -4.570295478491246, 3.4877745404496965, 4.307704925090813, -15.928046095550464, 16.94128824776613, -8.503430487367538, 0.8540227289658071, -11.493540444503134, -0.5587732630233139, 5.030326326520335]], "weights_ho": [[-11.978224135921208, -7.412595163576471, -12.772377663426756, 2.714960416765721, 7.705433384529317, -23.67580899413408, 16.59746838019961, 16.534585581371807, 2.7975773100769086, 3.72715400311869, -8.535956072244385, 1.5625057406325065, 6.01865845632891, 4.9245874237829925, 1.3441233832449326, -5.104314575729147], [3.086236275346321, -0.2393977242404175, 9.957514394418041, -6.3989626515416305, 2.546360140265371, -9.23580616616715, 0.6272410551351577, 6.97147897286612, -1.4717732660707494, -2.706556072323618, 22.827207297830316, -21.866057837809752, -5.006464772130194, 0.31471791466055, -5.727772749437608, 2.643718972526962], [0.5816976361118745, -16.33180472948707, -13.048969833476391, 0.6156580363002399, 5.819401351880821, 7.237603692985117, -7.386145364873261, -1.4500105793315885, 3.6916144912114044, -0.8586893318086928, 12.681650839252232, 6.145901347692088, 7.004633260885728, -16.074277484884725, -3.4646213929435534, 2.6540459764796824], [-9.099073332691093, 12.986810967245638, 1.1850837081314993, -0.900464566052705, -6.1608863443264275, 3.41466369155866, -7.539982052085622, -10.812824517588691, 31.40101752011907, -14.345096226704884, 9.14611790253716, -9.73006786027579, -6.1467800382428015, -11.094307107764319, -9.454135214305824, 8.535052883455768]], "bias_h": [[-4.241200830780468], [-8.606875972258505], [-10.573591621438744], [-2.272490299546967], [7.149662036734806], [9.543505438183521], [6.4726325552022], [13.782873691555308], [9.199216190173608], [-4.156984997980708], [0.49730879294571095], [21.03068116470837], [9.118065942638554], [2.1384734286177363], [6.3253284572510875], [6.047734749620598]], "bias_o": [[2.3131480356636436], [-0.24838638062103097], [-15.272059269565432], [-10.78502815018175]]}, {"input_nodes": 12, "hidden_nodes": 16, "output_nodes": 4, "weights_ih": [[-6.879236128813041, -5.625530765156105, 3.268805525246677, 3.2584593963870034, -0.8678806064757884, -0.15863882696159182, -12.428259064694899, -8.597518398295252, -6.590661141477509, 0.7364384400987718, -3.194765739199104, -1.6716638985197818], [4.91687252411282, -7.083533860872255, -10.055326490795673, -2.632938216774997, 7.306387578394387, 4.8819430726244235, 9.558583295608605, 14.032455286927197, 1.3043761372305782, -1.8637649193696417, 2.9718804211319236, 0.22654558564563604], [2.9228472936212424, 11.176379188201167, -6.212124207330793, -1.0795964067900825, -11.061074639283916, -6.454829428245456, 8.917996366526062, -14.22600903188603, 13.685111202162675, 5.380368512307522, 3.728549676981061, 4.657433588482735], [13.599829466987478, 22.886692496739258, -11.005790904442728, 9.999588844997051, 8.237677911666772, 1.032796610953537, -4.799511544362409, 7.653448636496706, 1.1440285836558917, -1.158061956136701, -8.8239688567835, -8.188925903418367], [3.8474611179885603, -10.34641150242992, -8.962432383500019, 1.9421942498265934, -5.566731350072505, 6.66113915145502, 2.8421091357874504, -5.932166176338297, -11.119304979235688, 1.2995589552698563, 10.153689617210823, 1.4960750483056369], [-10.908983383362981, 1.0001887756608054, 9.454271660660439, -1.840050584071519, 2.2122727237968505, 20.125764293158483, 10.645729426934428, -5.462931015048401, 11.855923472625712, -10.70491909356863, -16.600254293943557, -4.0618456316562455], [-8.797788206486821, -5.096524211015363, -7.477315249529684, -1.2923247744291961, 5.381415173789866, 4.214203306708563, 0.9826029740730046, 4.833661122928793, 0.16854916767329614, 0.2537532239046707, 8.120338764643874, 7.005128743809333], [-1.2223182587687318, 7.535004899359503, -4.364353362978405, -12.811827900306984, -1.6611648804858654, 0.611961611073425, -7.273735042345936, -2.786154194180714, 12.3401561787694, -0.14853345404425428, 10.097163443681968, 1.9204620610958443], [-1.8357739206185342, -22.085036442683695, -5.260047773166864, 19.78915606682171, -6.081964320524161, -6.033687579787729, -10.136538342164613, 4.442342209273772, 12.725974010697355, -17.10753572547843, 2.621186199135912, 2.8389912532016064], [-0.6221521923294502, 2.6634944717626796, 0.42460195929525407, -2.7196629910938044, 9.685209653437795, 0.5752425328859982, 13.204770332564827, -3.11414167563192, 13.811936383307659, -1.275593839313697, 3.913579780146435, -1.595935272094307], [-4.1220227632638915, -3.2615960240705615, -4.850058775392846, -2.419740916303301, -6.8206963664234825, -1.9468016389649512, -0.6638859732295235, -4.96867713451305, 4.603574531014839, -7.461830830133074, -2.3539217994358683, 15.569114534129028], [-2.584042966045946, -8.60091900506654, 1.8834511237830271, 7.113116093941706, -2.4189605053623744, 3.239386632976142, 16.385090885895885, 3.9082138504548842, 9.92221273472439, -5.911547572046568, -1.394300837801975, 2.403212699154441], [3.5593521459451494, -2.5389236720494104, -5.115543791392325, -3.162091575151315, -14.02832685423815, 32.03646151642098, -7.679427919151758, -2.6501772874869807, 8.637645301062527, 7.555393234699601, 7.876149428406237, 12.787466845969217], [1.885437176078024, 2.2119432861106234, -6.986188610529392, -7.207614207056538, 0.6314081391197306, 11.460009771658399, 0.38964942322537227, -0.9025978954612693, 1.8096585878819362, 7.275303095742008, 3.0107195631023784, -10.937086408265133], [4.06050936932682, 9.64590111126276, -9.678925837110432, -2.118319589390382, -2.801782000479384, -4.126207052924612, 13.660771947520267, -9.10351732184984, 0.25000748522023963, -1.4312867310947508, 25.71732200655938, 10.304258901084477], [1.4456802881778106, -5.7880571529346145, -4.570295478491246, 3.4877745404496965, 4.307704925090813, -15.783808353245401, 16.94128824776613, -8.397982171462951, 0.7556163860176924, -11.57326062580709, -0.4656799168401726, 5.048448675892535]], "weights_ho": [[-11.978224135921208, -7.412595163576471, -12.772377663426756, 2.714960416765721, 7.7418557585317735, -23.576610987084038, 16.439536875540504, 16.45758711995597, 2.628661031695632, 3.7999106416102326, -8.530702371772318, 1.5625057406325065, 6.01865845632891, 4.842014645486907, 1.4320613409784169, -5.104314575729147], [3.086236275346321, -0.3666553047828483, 9.957514394418041, -6.3989626515416305, 2.546360140265371, -9.178061170003584, 0.6272410551351577, 6.97147897286612, -1.4717732660707494, -2.78632557843785, 22.827207297830316, -21.824145260235596, -5.006464772130194, 0.31471791466055, -5.821819648383106, 2.643718972526962], [0.5816976361118745, -16.553175343438433, -13.072625379081487, 0.6156580363002399, 5.865399546719281, 7.211081980955353, -7.394876362699067, -1.5576924075020426, 3.6916144912114044, -0.8586893318086928, 12.748374440364392, 6.262454439365859, 7.004633260885728, -16.074277484884725, -3.4646213929435534, 2.8964640775419213], [-9.079834524368897, 12.986810967245638, 1.1850837081314993, -0.9360768799779882, -6.293238450478924, 3.41466369155866, -7.539982052085622, -10.812824517588691, 31.377769088916484, -14.316610472400567, 8.888905141148632, -9.73006786027579, -6.1467800382428015, -11.155229972695702, -9.454135214305824, 8.341428206494873]], "bias_h": [[-4.284607691405766], [-8.581847867545756], [-10.573591621438744], [-2.272490299546967], [7.309412399477684], [9.543505438183521], [6.4726325552022], [13.850901864402076], [9.199216190173608], [-4.156984997980708], [0.4769858397883899], [21.03068116470837], [9.07194880559959], [2.1384734286177363], [6.3253284572510875], [6.202447877766992]], "bias_o": [[2.3131480356636436], [-0.24838638062103097], [-15.272059269565432], [-10.78502815018175]]}, {"input_nodes": 12, "hidden_nodes": 16, "output_nodes": 4, "weights_ih": [[-6.879236128813041, -5.687000163139771, 3.224842014982597, 3.2971296283223426, -0.8678806064757884, -0.004705229466808458, -12.369839233717832, -8.597518398295252, -6.590661141477509, 0.7364384400987718, -3.2669706793756945, -1.6716638985197818], [4.9891321157550985, -7.1935693550058195, -10.180627977249886, -2.46097396879035, 7.160777083479743, 4.933042569499585, 9.653636075946045, 14.010282271839994, 1.3043761372305782, -1.8372716880153022, 2.95921480241261, 0.35474755480870096], [2.9228472936212424, 11.080398402541222, -6.270418414823111, -1.1689506186095473, -11.061074639283916, -6.454829428245456, 9.007105598720894, -14.22600903188603, 13.647359434540023, 5.045081225735918, 3.873645854284574, 4.664538205971027], [13.522467251941311, 22.886692496739258, -10.803753093406598, 9.925840975746015, 8.237677911666772, 1.032796610953537, -4.875277818811965, 7.589739037833987, 1.1440285836558917, -1.1813205102897002, -8.743058575987067, -7.847292321680129], [3.9722217106057642, -10.323877714331005, -8.962432383500019, 1.9421942498265934, -5.566731350072505, 6.66113915145502, 2.9261932707926768, -5.808335271164826, -11.15826501474359, 1.299489259833253, 10.049599318644722, 1.4606759733637926], [-10.89923518796356, 0.9861773763276015, 9.410220101132712, -2.0142071187035837, 2.0506861543291777, 20.125764293158483, 10.59916424381385, -5.372605124825137, 11.807730898678408, -10.70491909356863, -16.53899540953859, -4.073957448303802], [-8.745943393401886, -5.198734781317462, -7.385912195847758, -1.3967235608610156, 5.415939606452679, 4.214203306708563, 1.098199401012713, 4.833661122928793, 0.18951987177153123, 0.25771320161442285, 8.183907282171136, 6.9859460501902015], [-1.3014786527474518, 7.535004899359503, -4.268763601671506, -12.811827900306984, -1.5886486436333596, 0.4194245929768412, -7.310331530862289, -2.6424927508486236, 12.431121611811117, -0.2951922499816369, 10.221395605374234, 2.1323548977850244], [-1.8357739206185342, -22.04719986287747, -5.465680300395794, 19.94683928342503, -6.081964320524161, -6.090903296308519, -9.952550476141932, 4.371048223703434, 12.725974010697355, -17.178151894749185, 2.621186199135912, 2.920135330508766], [-0.6221521923294502, 2.761698406266456, 0.5011912016044301, -2.6171264125530103, 9.670859797482018, 0.5183608865135729, 13.064777456971017, -2.9523535246404, 13.945268194621566, -1.2781883357204356, 4.021001309858674, -1.4166277144590362], [-4.1220227632638915, -3.085641351409609, -4.690877171088458, -2.4450217813076507, -6.669298384881089, -1.9468016389649512, -0.6861982640893293, -4.72408595804642, 4.603574531014839, -7.5966240809395025, -2.2094408545528856, 15.569114534129028], [-2.584042966045946, -8.60091900506654, 1.8834511237830271, 7.0032477163709075, -2.4189605053623744, 3.285174168875672, 16.228979677249487, 3.9059357867720266, 9.973676558491725, -5.478495553476528, -1.4126366997262636, 2.403212699154441], [3.5519921259143254, -2.481368824808921, -5.074941473760674, -3.094851521907951, -14.02832685423815, 31.95177334524426, -7.679427919151758, -2.6501772874869807, 8.609293477702558, 7.581437473490571, 7.8493844079053705, 12.787466845969217], [1.8869000779056508, 2.296471210770728, -6.986188610529392, -7.2564471873454846, 0.749143987656378, 11.696163529987361, 0.2618359999115795, -0.7681705993812817, 1.8313725793545181, 7.494404925261834, 2.899305212152317, -10.937086408265133], [4.0126665031224915, 9.701624428240335, -9.818662694963095, -2.1937805905934633, -2.8442230274928795, -4.259235644036734, 13.567787965959125, -9.04808618130031, 0.18216121085223444, -1.2908984846834992, 25.763630428289932, 10.25125145981746], [1.4456802881778106, -5.738579198491051, -4.570295478491246, 3.4360701134785305, 4.280368291376313, -15.830151147771021, 16.94128824776613, -8.563573693940635, 0.8540227289658071, -11.493540444503134, -0.6250940010950753, 5.08905960063018]], "weights_ho": [[-11.995153314803483, -7.412595163576471, -12.772377663426756, 2.849310041561231, 7.7083781676578615, -23.67580899413408, 16.59746838019961, 16.534585581371807, 2.8763362156307974, 3.72715400311869, -8.535956072244385, 1.391740387984298, 6.078120917932782, 4.9245874237829925, 1.452552489322628, -5.104314575729147], [3.086236275346321, -0.2393977242404175, 10.209026222828346, -6.614847827264636, 2.546360140265371, -9.141765870080354, 0.6272410551351577, 6.851566554586117, -1.5167610250034695, -2.8087981598069005, 22.77704695789374, -21.70973001879507, -5.024416529682013, 0.3666897657935518, -5.727772749437608, 2.643718972526962], [0.5816976361118745, -16.33180472948707, -13.048969833476391, 0.6156580363002399, 5.819401351880821, 7.247500398093674, -7.384010207963186, -1.4500105793315885, 3.6916144912114044, -1.0071465299890945, 12.62258233159739, 6.067118909005455, 7.004633260885728, -16.122759852041455, -3.4646213929435534, 2.5902202469895097], [-8.980886695871444, 13.159955478309607, 1.1339361186142327, -0.8767387495657857, -6.350797793977818, 3.2424035000856857, -7.566245830627621, -10.807640021939436, 31.40101752011907, -14.22087554960356, 9.104231207066704, -9.756590361292833, -6.1467800382428015, -11.094307107764319, -9.591080663885808, 8.45142030497906]], "bias_h": [[-4.241200830780468], [-8.743442211685423], [-10.641823029740687], [-2.272490299546967], [7.149662036734806], [9.543505438183521], [6.39420083718203], [13.782873691555308], [9.326965817609883], [-4.171317810895898], [0.49730879294571095], [21.03068116470837], [9.249446419163366], [2.1384734286177363], [6.264971726520305], [6.047734749620598]], "bias_o": [[2.4259562077569736], [-0.20976596287978427], [-15.327804423655001], [-10.845894253368433]]}, {"input_nodes": 12, "hidden_nodes": 16, "output_nodes": 4, "weights_ih": [[-6.879236128813041, -5.552440094682623, 3.268805525246677, 3.2584593963870034, -0.8678806064757884, -0.08873278298344085, -12.369839233717832, -8.528746203796148, -6.574190668663898, 0.7364384400987718, -3.2669706793756945, -1.6716638985197818], [5.019051854192188, -7.083533860872255, -10.051030435383359, -2.6880685029315483, 7.160777083479743, 4.8819430726244235, 9.440105736396655, 14.010282271839994, 1.3043761372305782, -1.807975408476754, 3.1126483996634793, 0.2829986419846988], [2.978077345572765, 11.139763788216149, -6.323152430950963, -1.1689506186095473, -11.061074639283916, -6.454829428245456, 9.007105598720894, -14.174531500549708, 13.625432517159197, 5.044838461759201, 3.873645854284574, 4.644824221613576], [13.750754078377096, 22.85242670594315, -10.803753093406598, 9.999588844997051, 8.237677911666772, 1.0756535273386236, -4.856255815753824, 7.795861267440454, 1.1440285836558917, -1.2200447842050546, -8.554540132853228, -7.847292321680129], [3.8669423863181165, -10.323877714331005, -8.962432383500019, 2.0061087995005877, -5.677174288084615, 6.66113915145502, 2.671725043662021, -5.808335271164826, -11.16180018516148, 1.2995589552698563, 10.155609717944762, 1.4343893643614491], [-10.951735768284891, 0.9459113610337605, 9.652063094652023, -2.066009891669953, 1.9950130587577914, 20.32224351279358, 10.890254283433679, -5.372605124825137, 11.8156587568552, -10.70491909356863, -16.55914897398417, -3.939052930517248], [-8.797788206486821, -5.101775269164179, -7.421268611643099, -1.3967235608610156, 5.567261031070474, 4.214203306708563, 1.2433615706473762, 4.833661122928793, 0.18951987177153123, 0.2537532239046707, 8.183907282171136, 6.972895796268695], [-1.2223182587687318, 7.518139514838718, -4.391243542934435, -12.937665940270604, -1.5886486436333596, 0.611961611073425, -7.5543235243009645, -2.6824251543499154, 12.472595578714605, -0.14853345404425428, 10.252460525196575, 2.1655245957974802], [-1.8357739206185342, -22.03793366038221, -5.400486112976712, 19.83999551638005, -6.081964320524161, -5.920200092866883, -10.136538342164613, 4.436613148196953, 12.66675766359, -17.178151894749185, 2.621186199135912, 2.7159114990949265], [-0.6221521923294502, 2.547529514701849, 0.35107155020287717, -2.6171264125530103, 9.685209653437795, 0.5932249837429276, 12.985371587115399, -2.9523535246404, 13.982454372534878, -1.281317243199354, 3.859788752900361, -1.4166277144590362], [-4.1220227632638915, -3.1648698300999607, -4.669343821496585, -2.548197517229436, -6.8231950188899075, -1.9468016389649512, -0.6677815198653075, -5.10312207459039, 4.550295184595101, -7.453422432710763, -2.3539217994358683, 15.654812144143953], [-2.584042966045946, -8.60091900506654, 1.8834511237830271, 7.113116093941706, -2.4189605053623744, 3.2677045431935645, 16.33478172337887, 3.9082138504548842, 9.92221273472439, -5.765753487004151, -1.4126366997262636, 2.403212699154441], [3.50212971965531, -2.658552468024776, -5.074941473760674, -2.993810924089285, -13.940209891723589, 31.853223024290905, -7.679427919151758, -2.6501772874869807, 8.609293477702558, 7.533410301573004, 7.823649299987276, 12.787466845969217], [1.7627683722400027, 2.2741878865610876, -6.930870238624797, -7.220866617645659, 0.5225567119053703, 11.584454239495965, 0.2117066573298835, -0.9204269422086091, 1.8096585878819362, 7.3187444250583304, 3.041641319093862, -10.937086408265133], [4.0309991874524, 9.701624428240335, -10.067315293988973, -2.3341474271500826, -2.8442230274928795, -4.180706273332542, 13.621134060363918, -9.048845001237822, 0.18201192192775284, -1.4312867310947508, 25.75271256650405, 10.25125145981746], [1.4115167358098748, -5.808524735324287, -4.654029693747332, 3.694350925536126, 4.307704925090813, -15.922513157006966, 16.990376344123508, -8.409387955637513, 0.8540227289658071, -11.493540444503134, -0.5587732630233139, 5.030326326520335]], "weights_ho": [[-11.978224135921208, -7.490334721828086, -12.787294152254953, 2.7889275795898603, 7.91231137857435, -23.507145294635677, 16.58348464372967, 16.534585581371807, 2.7975773100769086, 3.72715400311869, -8.560330615363236, 1.5042498913372646, 6.129878880771695, 4.9245874237829925, 1.3441233832449326, -5.104314575729147], [3.086236275346321, -0.14995108524623701, 9.957514394418041, -6.369151695489741, 2.546360140265371, -9.124905391443328, 0.37282360160271477, 6.97147897286612, -1.4717732660707494, -2.7443783269720505, 22.778617342615146, -21.810121021015977, -5.006464772130194, 0.31471791466055, -5.847386866794212, 2.643718972526962], [0.5492648182959723, -16.313203363697856, -13.048969833476391, 0.67083293968039, 5.88400808944648, 7.2206471912912775, -7.425142866124536, -1.3662362272992339, 3.4627297252932556, -0.6280833678541, 12.681650839252232, 6.145901347692088, 6.947882219754305, -16.0541049297019, -3.4646213929435534, 2.7122151172882885], [-8.922087494423312, 12.986810967245638, 1.124415241608304, -0.7342815648620201, -6.1608863443264275, 3.41466369155866, -7.527318636191465, -10.812824517588691, 31.40101752011907, -14.23691461789075, 9.14611790253716, -9.73006786027579, -6.206518491675613, -11.025633884713868, -9.256680278838811, 8.462011420868487]], "bias_h": [[-4.091287747480348], [-8.606875972258505], [-10.560826185754413], [-2.259509248781173], [7.149662036734806], [9.439234738661687], [6.4726325552022], [13.814306948884147], [9.199216190173608], [-4.156984997980708], [0.49730879294571095], [21.032871271733047], [9.118065942638554], [2.1384734286177363], [6.282679703973647], [5.906279980896415]], "bias_o": [[2.3461452677231542], [-0.2887868284079299], [-15.272059269565432], [-10.78502815018175]]}, {"input_nodes": 12, "hidden_nodes": 16, "output_nodes": 4, "weights_ih": [[-6.879236128813041, -5.625530765156105, 3.268805525246677, 3.2910619106392396, -0.8634995491866938, -0.15863882696159182, -12.51940518873002, -8.597518398295252, -6.63113999959879, 0.6212659126775849, -3.2669706793756945, -1.6716638985197818], [5.035193797025963, -7.113576076709813, -10.134335113657329, -2.632938216774997, 7.160777083479743, 4.8819430726244235, 9.519921985766022, 14.010282271839994, 1.2896806685329691, -1.8372716880153022, 2.912270735100114, 0.2829986419846988], [3.0309896770267133, 11.178121009823084, -6.270418414823111, -0.9615302242523704, -11.07373411844946, -6.502125980101775, 9.023158102847018, -14.22600903188603, 13.3617032018312, 5.044838461759201, 4.051237529954595, 4.725203690341793], [13.522467251941311, 22.886692496739258, -10.803753093406598, 9.999588844997051, 8.109616766116684, 1.032796610953537, -4.770708783906315, 7.725697323450852, 1.1440285836558917, -1.1813205102897002, -8.660463957780653, -7.847292321680129], [3.9722217106057642, -10.323877714331005, -8.962432383500019, 1.9421942498265934, -5.566731350072505, 6.608318388890554, 2.8421091357874504, -5.808335271164826, -11.147933550853915, 1.4349198330137, 10.155024971741986, 1.4095345748882528], [-11.035686564387518, 0.9203075581278949, 9.54364989123488, -2.0142071187035837, 1.8679115453311368, 20.166159202334047, 10.59916424381385, -5.372605124825137, 11.866085997130662, -10.640993661856502, -16.610472454220204, -4.073957448303802], [-8.797788206486821, -5.19747840191837, -7.385912195847758, -1.4084193949380666, 5.42180184830875, 4.214203306708563, 0.9824465734265521, 4.731595628394767, 0.18951987177153123, 0.2537532239046707, 8.129955767632635, 6.972895796268695], [-1.2223182587687318, 7.517248206945536, -4.239547423079126, -12.811827900306984, -1.7092913421148348, 0.611961611073425, -7.409228806626384, -2.738280459217406, 12.403376394919356, -0.14853345404425428, 10.174880043063013, 2.285305325531998], [-1.8357739206185342, -21.992967384592962, -5.364677158795621, 19.94683928342503, -6.174821909593101, -5.920200092866883, -10.136538342164613, 4.442342209273772, 12.725974010697355, -17.178151894749185, 2.621186199135912, 3.041021285486973], [-0.6221521923294502, 2.5407234799630065, 0.5747382318549441, -2.6171264125530103, 9.685209653437795, 0.4261169617431957, 13.053630900209972, -2.84764110705021, 13.979659638874798, -1.184116998185191, 3.894628554385939, -1.4166277144590362], [-4.139310142606073, -3.0597431844128793, -4.61520685391064, -2.548197517229436, -6.642200054579636, -1.9468016389649512, -0.7413618355265813, -4.757238326545449, 4.603574531014839, -7.461830830133074, -2.3539217994358683, 15.569114534129028], [-2.5459466064813374, -8.333129158139009, 2.1606196176681567, 7.113116093941706, -2.4189605053623744, 3.2433674263367642, 16.385090885895885, 3.9723387795890153, 9.92221273472439, -5.765753487004151, -1.3727509866318337, 2.468632919596691], [3.515525888116285, -2.5550640543828522, -4.896663322503549, -2.993810924089285, -14.02832685423815, 31.970398404989925, -7.695695861083103, -2.7490616254698854, 8.609293477702558, 7.533410301573004, 7.8493844079053705, 12.787466845969217], [1.8869000779056508, 2.2741878865610876, -6.986188610529392, -7.207614207056538, 0.5248348596720214, 11.584454239495965, 0.20665883835507226, -0.8851223380493974, 1.8096585878819362, 7.3187444250583304, 3.0107195631023784, -10.937086408265133], [4.06050936932682, 9.767101224663765, -9.818662694963095, -2.2351278574363573, -2.8442230274928795, -4.194123368611065, 13.567787965959125, -9.003086312524516, 0.18216121085223444, -1.4312867310947508, 25.742990945822825, 10.25125145981746], [1.390941153570184, -5.842379129718782, -4.570295478491246, 3.4877745404496965, 4.307704925090813, -15.933119656548476, 16.867210246980456, -8.503430487367538, 0.8548415179305187, -11.493540444503134, -0.5587732630233139, 5.030326326520335]], "weights_ho": [[-11.773772274274226, -7.561969497733679, -12.756578621783932, 2.714960416765721, 7.705433384529317, -23.657424820869032, 16.735588628842013, 16.56859688787891, 2.6987228555302933, 3.72715400311869, -8.501958748780755, 1.5625057406325065, 6.01865845632891, 4.9245874237829925, 1.3441233832449326, -5.235907306745833], [3.086236275346321, -0.2393977242404175, 10.075672706712313, -6.379910526111703, 2.5532138373909423, -9.23580616616715, 0.6272410551351577, 6.98090933995308, -1.4717732660707494, -2.706556072323618, 22.827207297830316, -21.866057837809752, -5.006464772130194, 0.31471791466055, -5.685254669062053, 2.7183926679243777], [0.5677577452259946, -16.241378887919105, -13.048969833476391, 0.5023784021343043, 5.632605400216171, 7.237603692985117, -7.3866235271425555, -1.4738586019602176, 3.6412200213211654, -0.8586893318086928, 12.705584988451605, 6.011378071004816, 6.9110416457392825, -16.074277484884725, -3.4646213929435534, 2.6540459764796824], [-8.904354524346093, 12.986810967245638, 1.1850837081314993, -0.900464566052705, -6.1608863443264275, 3.477125592515408, -7.6327193918654865, -10.683808161239664, 31.39174431304649, -14.345096226704884, 9.14611790253716, -9.73006786027579, -6.1467800382428015, -11.094307107764319, -9.538255121432748, 8.535052883455768]], "bias_h": [[-4.241200830780468], [-8.606875972258505], [-10.523710576069998], [-2.4250702118826357], [7.149662036734806], [9.543505438183521], [6.4726325552022], [13.844338533509813], [9.199216190173608], [-4.156984997980708], [0.5203851229881706], [21.0122121087764], [9.173893410238055], [2.0992620285110073], [6.153690701014482], [6.227599308077624]], "bias_o": [[2.298509973661106], [-0.24838638062103097], [-15.10045904510125], [-10.78502815018175]]}, {"input_nodes": 12, "hidden_nodes": 16, "output_nodes": 4, "weights_ih": [[-6.790384936133241, -5.625530765156105, 3.175868798957886, 3.275712084873273, -0.8678806064757884, -0.15678086312860304, -12.369839233717832, -8.597518398295252, -6.531747429398949, 0.7364384400987718, -3.2669706793756945, -1.6183320027270176], [5.019051854192188, -7.068235519149894, -10.055326490795673, -2.4938163866366887, 7.262321063853624, 4.8819430726244235, 9.528165395287813, 14.010282271839994, 1.2980500656304494, -1.6096669095667677, 2.95921480241261, 0.2829986419846988], [2.97888935408191, 11.10430141446657, -6.183243379045141, -1.2621096827937153, -11.090788811078188, -6.462937386659729, 8.794597027850713, -14.22600903188603, 13.647359434540023, 5.100147935661356, 3.670774699070698, 4.524298667996902], [13.507455431290879, 23.03623032071137, -10.803753093406598, 10.010971446056269, 8.303744905819533, 1.032796610953537, -4.770708783906315, 7.898712650743245, 1.315914018441465, -1.0845364659581105, -8.820154920310008, -7.691984829590929], [3.9722217106057642, -10.323877714331005, -8.962432383500019, 1.7389945086723286, -5.450584129300888, 6.716385413289408, 2.8095048701939427, -5.808335271164826, -11.175528314351176, 1.2995589552698563, 10.012033781811612, 1.5218987094654122], [-11.211080810390749, 1.104805110062678, 9.54364989123488, -2.0680052735933927, 1.8490166834623485, 20.125764293158483, 10.59916424381385, -5.372605124825137, 11.982623606784706, -10.754176643882566, -16.610472454220204, -4.073957448303802], [-8.797788206486821, -5.167350494194236, -7.543932838295412, -1.3773428038526752, 5.4077980401480925, 4.340791211613086, 1.2559195117059498, 4.833661122928793, 0.07218632875109952, 0.13887047016959386, 8.183907282171136, 7.026547740155371], [-1.2650366161175637, 7.535004899359503, -4.51201184571716, -12.811827900306984, -1.496113011802535, 0.6055852018137569, -7.409228806626384, -2.609011908495503, 12.571771888992586, -0.10678528932535666, 10.103247251539306, 2.2342474271569626], [-1.7183247385326839, -21.992967384592962, -5.328021081744985, 19.94683928342503, -6.081964320524161, -5.920200092866883, -10.157701320400454, 4.551200413892524, 12.725974010697355, -17.178151894749185, 2.621186199135912, 2.775143681561146], [-0.6221521923294502, 2.7060232863127784, 0.5011912016044301, -2.6112995678231505, 9.685209653437795, 0.5183608865135729, 13.118511453795566, -3.0172822189365847, 13.974997982256097, -1.281317243199354, 3.9847413668357543, -1.4166277144590362], [-4.1220227632638915, -2.9608116645456417, -4.6944551287764, -2.5729093429556342, -6.874096703585009, -2.193249848136849, -0.6677815198653075, -4.863012162239601, 4.603574531014839, -7.348472499380105, -2.373367984404657, 15.418886595051964], [-2.584042966045946, -8.683055166453052, 1.8834511237830271, 7.113116093941706, -2.4608859758022428, 3.2677045431935645, 16.385090885895885, 3.750336352499349, 9.92221273472439, -5.899957028118762, -1.4126366997262636, 2.574713001252201], [3.5519921259143254, -2.547655777423171, -5.074941473760674, -3.0414256389130845, -14.02832685423815, 31.95177334524426, -7.661984046854145, -2.6501772874869807, 8.441241264126083, 7.533410301573004, 7.8493844079053705, 12.787466845969217], [1.9743907858533183, 1.8882201591285928, -7.039308812597473, -7.207614207056538, 0.47412160780158685, 11.71951161172927, 0.32217413861366606, -0.7813333547011648, 1.8096585878819362, 7.375955777330072, 3.037635171303451, -10.937086408265133], [4.06050936932682, 9.701624428240335, -9.819742456932909, -2.225102718589404, -2.8442230274928795, -4.126207052924612, 13.553671029984708, -9.042648599703764, 0.18216121085223444, -1.4312867310947508, 25.864313872672632, 10.2382383079786], [1.4456802881778106, -5.647390851929709, -4.517924933157057, 3.4877745404496965, 4.2388829554646295, -15.797928504243046, 16.94128824776613, -8.593435028818696, 0.8042229510940181, -11.493540444503134, -0.5349144847315019, 5.038550024764843]], "weights_ho": [[-11.978224135921208, -7.412595163576471, -12.799998750006365, 2.822362229721209, 7.705433384529317, -23.803545952053778, 16.559121828560894, 16.56897613723779, 2.8783792890321624, 3.603880412142284, -8.535956072244385, 1.3357567244195003, 6.01865845632891, 4.846508687821621, 1.3441233832449326, -5.139352251711465], [3.086236275346321, -0.14093786004690934, 9.957514394418041, -6.576967646515341, 2.546360140265371, -9.133759172293063, 0.6272410551351577, 6.942541852304331, -1.4717732660707494, -2.719508913219431, 22.78752637646016, -21.873591631966793, -5.061907926471226, 0.3544614794310603, -5.674869976392638, 2.4744347668748254], [0.6963999147784941, -16.362919007758414, -13.017865053035564, 0.6156580363002399, 5.76477023584268, 7.237603692985117, -7.386145364873261, -1.4139159928715053, 3.671793958222419, -0.8586893318086928, 12.815811431490648, 6.141526857117459, 7.054847523689292, -16.074277484884725, -3.4108975774226553, 2.6540459764796824], [-9.10993883960812, 13.008441809046463, 1.2875718228163546, -0.9106499975491973, -6.062496416465238, 3.41466369155866, -7.539982052085622, -10.812824517588691, 31.40101752011907, -14.354994870336512, 9.14611790253716, -9.73006786027579, -6.1467800382428015, -11.166160703884312, -9.470126091774166, 8.535052883455768]], "bias_h": [[-4.241200830780468], [-8.606875972258505], [-10.803629433811626], [-2.272490299546967], [7.085973494987915], [9.583467439295005], [6.4726325552022], [13.782873691555308], [9.250986459377845], [-4.156984997980708], [0.4671868615363446], [21.03068116470837], [9.118065942638554], [2.1384734286177363], [6.3253284572510875], [6.122486745802492]], "bias_o": [[2.3131480356636436], [-0.1944213042726814], [-15.272059269565432], [-10.74525612621815]]}, {"input_nodes": 12, "hidden_nodes": 16, "output_nodes": 4, "weights_ih": [[-6.879236128813041, -5.625530765156105, 3.268805525246677, 3.2584593963870034, -0.8769176207373751, -0.15863882696159182, -12.417484022960176, -8.635050447925817, -6.5664021199919675, 0.7323750603326877, -3.2669706793756945, -1.6716638985197818], [5.019051854192188, -7.205636748935503, -10.055326490795673, -2.632938216774997, 7.095670184319565, 4.82618752182831, 9.519921985766022, 13.95466144379516, 1.458107592391546, -1.738262571518103, 2.95921480241261, 0.2829986419846988], [2.9228472936212424, 11.309451149510913, -6.084033741875503, -1.1689506186095473, -11.061074639283916, -6.454829428245456, 9.066837112320394, -14.31078245697414, 13.619490804600092, 5.136051317432473, 3.873645854284574, 4.657433588482735], [13.522467251941311, 22.886692496739258, -10.803753093406598, 9.999588844997051, 8.237677911666772, 1.032796610953537, -4.777525418813156, 7.849696876327056, 1.1440285836558917, -1.1813205102897002, -8.760974867797096, -7.847292321680129], [3.9722217106057642, -10.364558971477393, -8.962432383500019, 1.9421942498265934, -5.566731350072505, 6.654311457378885, 2.8489754297780356, -5.808335271164826, -11.003381212658025, 1.3797833937405974, 10.155609717944762, 1.4960750483056369], [-11.198924502879477, 0.8497437374952901, 9.59685047452348, -2.008827033649065, 1.9950130587577914, 20.193820046095613, 10.580184496880895, -5.372605124825137, 11.866085997130662, -10.618310937700235, -16.733775696083292, -4.073957448303802], [-8.720355021010326, -5.101775269164179, -7.285070050398117, -1.3967235608610156, 5.406696090697538, 4.372430966149837, 1.1429698069190872, 4.745655124425244, 0.18951987177153123, 0.2537532239046707, 8.155591860463764, 7.052023686903558], [-1.2223182587687318, 7.572179333100348, -4.270239880946332, -12.850094182860765, -1.5886486436333596, 0.708187287284688, -7.402185533206244, -2.6424927508486236, 12.403376394919356, -0.09833150501678155, 10.28869986765008, 2.218233189258897], [-1.8735669187820663, -22.143985769645287, -5.364677158795621, 19.80439609148082, -6.081964320524161, -5.920200092866883, -10.136538342164613, 4.407754004391344, 12.636975608462027, -16.974854947307243, 2.621186199135912, 2.8969913731975834], [-0.6221521923294502, 2.6120223194645202, 0.5162579943601968, -2.60713600354421, 9.685209653437795, 0.5972801932816532, 13.118511453795566, -2.9523535246404, 13.805947184850352, -1.281317243199354, 3.894628554385939, -1.4166277144590362], [-4.001222679176246, -3.1648698300999607, -4.690877171088458, -2.548197517229436, -6.795128440115458, -1.9524178632658167, -0.6677815198653075, -5.080694683029223, 4.603574531014839, -7.461830830133074, -2.3539217994358683, 15.569114534129028], [-2.5151000992401085, -8.5730498258302, 1.85828788309157, 7.090929033639654, -2.4189605053623744, 3.2677045431935645, 16.385090885895885, 3.9082138504548842, 10.035611384109002, -5.791082745096984, -1.4126366997262636, 2.403212699154441], [3.5519921259143254, -2.5741704476442195, -5.099552910707497, -2.953321114882968, -14.02832685423815, 31.855927858707755, -7.679427919151758, -2.491832089163539, 8.469374424821499, 7.437214490951559, 7.699232621303058, 12.787466845969217], [1.8869000779056508, 2.2741878865610876, -6.986188610529392, -7.207614207056538, 0.6314081391197306, 11.642583397366002, 0.2241780029712296, -0.7681705993812817, 1.7919256201312832, 7.338949542714704, 3.0107195631023784, -10.802976693556383], [4.06050936932682, 9.742373385842951, -9.818662694963095, -2.2351278574363573, -2.8442230274928795, -4.126207052924612, 13.567787965959125, -9.076931079326997, 0.18216121085223444, -1.4312867310947508, 25.763630428289932, 10.220711242698576], [1.517495792369771, -5.819905537512904, -4.509673227070254, 3.3687912990928504, 4.226067437250543, -15.928046095550464, 16.94128824776613, -8.503430487367538, 0.8540227289658071, -11.493540444503134, -0.5587732630233139, 5.030326326520335]], "weights_ho": [[-11.978224135921208, -7.412595163576471, -12.772377663426756, 2.714960416765721, 7.705433384529317, -23.67580899413408, 16.59746838019961, 16.534585581371807, 2.7282473722228033, 3.72715400311869, -8.627981192566278, 1.4745507137509148, 6.01865845632891, 4.991148310021311, 1.3441233832449326, -5.104314575729147], [2.834791380656273, -0.2393977242404175, 9.983824607487119, -6.3989626515416305, 2.546360140265371, -9.23580616616715, 0.6204846354157698, 7.02754793945981, -1.5326891442208843, -2.706556072323618, 22.653000578030195, -21.83166970723534, -4.996821682312735, 0.2226515946541828, -5.767327785339379, 2.676345687227596], [0.5816976361118745, -16.33180472948707, -12.99244507584473, 0.5365686017844103, 5.819401351880821, 7.319937172386498, -7.361087462319534, -1.4500105793315885, 3.7134685853359937, -0.8464941425123389, 12.7911046543018, 6.145901347692088, 6.939313607006154, -16.21931298612463, -3.4646213929435534, 2.6540459764796824], [-9.099073332691093, 13.067607831692504, 1.2399293480957456, -0.9149172905287144, -6.226947884317024, 3.351690642448392, -7.539982052085622, -10.71786525931703, 31.485728755183985, -14.598404999578452, 9.14611790253716, -9.73006786027579, -6.1467800382428015, -11.146578301668775, -9.472183134379799, 8.47580473574556]], "bias_h": [[-4.219558101964546], [-8.597700100220065], [-10.735533717434276], [-2.3738401456942104], [7.149662036734806], [9.669895509397554], [6.4726325552022], [13.6885900286816], [9.199216190173608], [-4.156984997980708], [0.4684710602663231], [21.257237124184176], [9.118065942638554], [2.1384734286177363], [6.293845755206189], [6.047734749620598]], "bias_o": [[2.3131480356636436], [-0.24838638062103097], [-15.272059269565432], [-10.78502815018175]]}, {"input_nodes": 12, "hidden_nodes": 16, "output_nodes": 4, "weights_ih": [[-6.972183264943257, -5.625530765156105, 3.268805525246677, 3.2584593963870034, -0.8678806064757884, -0.07610576630934734, -12.38103000513958, -8.597518398295252, -6.700640596502726, 0.8783628525290782, -3.2669706793756945, -1.5640531795015664], [5.019051854192188, -7.236783989891048, -10.091587710075755, -2.7171647525690217, 7.020069512449831, 4.866996785148395, 9.616281300218647, 14.010282271839994, 1.2873948729824674, -1.8372716880153022, 2.829082238351985, 0.22991572288440834], [2.9045677163865777, 11.227248552449984, -6.283821389891969, -1.0804584763005596, -11.117458978687699, -6.454829428245456, 8.935177939457434, -14.22600903188603, 13.788163873182855, 5.044838461759201, 3.7790923476050833, 4.657433588482735], [13.637085433013835, 22.797282668993624, -10.803753093406598, 9.999588844997051, 8.237677911666772, 1.032796610953537, -4.8176610267881115, 7.812786834022946, 1.1440285836558917, -1.040017491164665, -8.743058575987067, -7.847292321680129], [4.0875633097533335, -10.211348774512487, -9.034780472470734, 1.9421942498265934, -5.566731350072505, 6.741116246203224, 2.742842004250629, -5.808335271164826, -11.119304979235688, 1.2995589552698563, 10.155609717944762, 1.3774518782654097], [-11.026710940407936, 0.9459113610337605, 9.459261003171713, -1.9383708639610442, 1.9950130587577914, 20.125764293158483, 10.59916424381385, -5.372605124825137, 11.866085997130662, -10.70491909356863, -16.602835175090018, -4.085200471513054], [-8.797788206486821, -5.101775269164179, -7.39467390389544, -1.3967235608610156, 5.4642792302635215, 4.298162038750905, 1.1359536845548277, 4.833661122928793, 0.08584890295757114, 0.27458502422277314, 8.183907282171136, 6.922870738658041], [-1.232989075143897, 7.535004899359503, -4.346883688150366, -12.789119788964653, -1.5886486436333596, 0.611961611073425, -7.387262635428408, -2.7834179320059618, 12.403376394919356, -0.14853345404425428, 10.221395605374234, 2.2342474271569626], [-1.8357739206185342, -21.992967384592962, -5.462671870519065, 20.04654278276246, -6.081964320524161, -5.855607342176578, -10.136538342164613, 4.442342209273772, 12.725974010697355, -17.125437396809563, 2.6269719635932005, 2.99286629998619], [-0.5234178366985006, 2.5243206092434116, 0.5011912016044301, -2.6171264125530103, 9.685209653437795, 0.5183608865135729, 13.118511453795566, -2.9523535246404, 13.979659638874798, -1.281317243199354, 4.176587927333768, -1.4166277144590362], [-4.284945964509368, -3.252925472441853, -4.690877171088458, -2.563761557763834, -6.608922846797211, -2.0020888483153523, -0.6677815198653075, -4.937496544070379, 4.603574531014839, -7.4542320248756075, -2.32007542167615, 15.569114534129028], [-2.584042966045946, -8.518048255541263, 2.0083951997722322, 7.038815245782826, -2.4189605053623744, 3.160643284901326, 16.352130530648402, 3.9082138504548842, 9.901565158539407, -5.765753487004151, -1.456902911241776, 2.3438658330580093], [3.5519921259143254, -2.5389236720494104, -5.086886883898618, -2.8739894566320063, -14.004165706047196, 31.95177334524426, -7.749951160639303, -2.6501772874869807, 8.609293477702558, 7.446764215255417, 7.8493844079053705, 12.735262008539333], [1.8937269784427142, 2.2429545744903554, -6.986188610529392, -7.207614207056538, 0.8597179239672362, 11.657365917986187, 0.3570155502800473, -0.7681705993812817, 1.7072792381676454, 7.220969116952313, 3.0107195631023784, -10.937086408265133], [4.0165119329132715, 9.811290980334908, -9.666805330629499, -2.432777929056125, -2.787456046351897, -4.126207052924612, 13.567787965959125, -9.081277401004561, 0.18216121085223444, -1.4312867310947508, 25.763630428289932, 10.25125145981746], [1.4456802881778106, -5.808524735324287, -4.546342130559841, 3.4877745404496965, 4.465020995663515, -15.928046095550464, 16.831591990921666, -8.503430487367538, 0.9644871103700245, -11.493540444503134, -0.6093105113799475, 4.990987722281681]], "weights_ho": [[-11.978224135921208, -7.5915330244634625, -12.772377663426756, 2.6496035433471365, 7.705433384529317, -23.67580899413408, 16.5620379040707, 16.534585581371807, 2.85084799953623, 3.7032390340625203, -8.535956072244385, 1.5625057406325065, 6.0818336386258345, 5.298747612661899, 1.3441233832449326, -5.025831249098378], [3.086236275346321, -0.1606215722403382, 9.957514394418041, -6.3989626515416305, 2.467523285776505, -9.112821035575609, 0.6272410551351577, 6.97147897286612, -1.4717732660707494, -2.6121530059925298, 22.827207297830316, -21.866057837809752, -4.934508227932223, 0.3762114422868617, -5.7499648406523, 2.677702554120581], [0.6759221248043181, -16.385797051619104, -13.048969833476391, 0.6156580363002399, 5.819401351880821, 7.237603692985117, -7.3179679204507275, -1.5219640125390208, 3.8123624409276737, -0.8586893318086928, 12.681650839252232, 6.145901347692088, 7.004633260885728, -16.08105300723572, -3.4646213929435534, 2.6540459764796824], [-9.138675695228665, 13.040991323421975, 1.2640633435544246, -0.8456316689465079, -6.1608863443264275, 3.3945795831314047, -7.444437062156672, -10.812824517588691, 31.40101752011907, -14.345096226704884, 8.958201068101575, -9.73006786027579, -6.1467800382428015, -10.902497324297428, -9.636547806742577, 8.535052883455768]], "bias_h": [[-4.238766437305067], [-8.606875972258505], [-10.573591621438744], [-2.272490299546967], [7.054017686500696], [9.492566445375076], [6.452720108818781], [13.832519542656156], [9.199216190173608], [-4.131367508630863], [0.49730879294571095], [20.933532611672227], [9.036084124672232], [2.1384734286177363], [6.3253284572510875], [6.047734749620598]], "bias_o": [[2.333837428904001], [-0.24838638062103097], [-15.272059269565432], [-10.78502815018175]]}, {"input_nodes": 12, "hidden_nodes": 16, "output_nodes": 4, "weights_ih": [[-6.9478992304321565, -5.693483520708976, 3.268805525246677, 3.262124569906807, -0.7839457785078792, -0.15863882696159182, -12.30656339389343, -8.597518398295252, -6.590661141477509, 0.7315270026958944, -3.241902876967318, -1.5868894780843106], [5.076425790864006, -7.083533860872255, -10.055326490795673, -2.632938216774997, 7.160777083479743, 4.8819430726244235, 9.476417499777776, 13.930510349903269, 1.196060588798006, -1.8372716880153022, 2.95921480241261, 0.2778139188794529], [2.8125996766864074, 11.142786030590376, -6.268495213993656, -1.1689506186095473, -11.061074639283916, -6.454829428245456, 9.007105598720894, -14.22600903188603, 13.671465082523222, 5.036967683992711, 3.8942576358400536, 4.657433588482735], [13.546559906374293, 22.886692496739258, -10.803753093406598, 10.05795051991103, 8.237677911666772, 1.032796610953537, -4.770708783906315, 7.8569266110094365, 1.1615046584108522, -1.0500473817068454, -8.743058575987067, -7.847292321680129], [3.8590004111315577, -10.34495516527878, -8.92698029263898, 1.976523225116246, -5.566731350072505, 6.4995145331751, 2.8421091357874504, -5.808335271164826, -11.119304979235688, 1.2995589552698563, 10.155609717944762, 1.4569527809607066], [-11.035686564387518, 0.9459113610337605, 9.54364989123488, -1.7345648304146182, 1.9950130587577914, 20.06362129535605, 10.538830900414098, -5.372605124825137, 11.866085997130662, -10.795812609978915, -16.687436619182925, -4.073957448303802], [-8.797788206486821, -5.162298806482451, -7.309094056588736, -1.5540218414455824, 5.277991140649123, 4.214203306708563, 1.1359536845548277, 4.833661122928793, 0.25507930619494495, 0.2537532239046707, 8.183907282171136, 6.972895796268695], [-1.3274072955427976, 7.535004899359503, -4.4928123014337285, -12.811827900306984, -1.648400076333243, 0.611961611073425, -7.409228806626384, -2.4694824569958906, 12.323224643794223, -0.14853345404425428, 10.221395605374234, 2.2342474271569626], [-1.8053052901208646, -21.867199215494864, -5.225021130941768, 20.04912826089531, -6.081964320524161, -5.920200092866883, -10.136538342164613, 4.381402268842472, 12.725974010697355, -17.178151894749185, 2.776707861447019, 2.9089174563361286], [-0.7221847604559198, 2.6120223194645202, 0.45343364202875047, -2.638311666646242, 9.576879447927299, 0.6571593600186123, 13.118511453795566, -3.031890409528448, 14.164727241646894, -1.5767455235486036, 3.894628554385939, -1.537630058119184], [-4.006168997255211, -3.1648698300999607, -4.690877171088458, -2.548197517229436, -6.71481997303689, -1.903301910399309, -0.6677815198653075, -4.84609219719155, 4.603574531014839, -7.461830830133074, -2.228586593817309, 15.569114534129028], [-2.459612175096757, -8.60091900506654, 1.8853753653458134, 7.113116093941706, -2.4189605053623744, 3.2677045431935645, 16.278512518076216, 3.9082138504548842, 9.92221273472439, -5.765753487004151, -1.4240819662500797, 2.4779448440796643], [3.5519921259143254, -2.670942415067471, -5.074941473760674, -2.993810924089285, -14.02832685423815, 31.95177334524426, -7.494599112896134, -2.6501772874869807, 8.568110653957557, 7.533410301573004, 7.8493844079053705, 12.787466845969217], [1.8851322857162984, 2.2741878865610876, -6.986188610529392, -7.32806037930203, 0.6314081391197306, 11.57113771602801, 0.4326840655325009, -0.7189370352696087, 1.8822106804967014, 7.3187444250583304, 3.0107195631023784, -10.937086408265133], [4.101230274646993, 9.701624428240335, -9.937448378821815, -2.489509280308833, -2.8442230274928795, -4.11512177806674, 13.542560734373772, -9.198070666352947, 0.18216121085223444, -1.4071922384731483, 25.7600646213072, 10.25125145981746], [1.2642684026644426, -5.808524735324287, -4.586681006310349, 3.4877745404496965, 4.307704925090813, -15.928046095550464, 16.94128824776613, -8.503430487367538, 0.7614546509117591, -11.375584114128236, -0.6241160659794953, 5.030326326520335]], "weights_ho": [[-12.079921737596019, -7.412595163576471, -13.079665256381134, 2.714960416765721, 7.627536148613178, -23.638148261437546, 16.65023995373972, 16.51639979579111, 2.7975773100769086, 3.72715400311869, -8.473241851493313, 1.5625057406325065, 5.975365885035864, 4.9245874237829925, 1.3441233832449326, -5.104314575729147], [3.086236275346321, -0.2393977242404175, 10.099601390432984, -6.501552904152263, 2.5185944468385024, -9.23580616616715, 0.7567075511544538, 6.97147897286612, -1.4717732660707494, -2.706556072323618, 22.827207297830316, -21.866057837809752, -5.157170960540517, 0.31471791466055, -5.8031659052622375, 2.643718972526962], [0.5816976361118745, -16.33180472948707, -12.92504689336608, 0.5472805380625164, 5.867645342872027, 7.237603692985117, -7.4616722001704145, -1.3719041673034331, 3.6916144912114044, -1.0007371911516567, 12.681650839252232, 6.145901347692088, 7.004633260885728, -16.17543400071697, -3.326426312245282, 2.6540459764796824], [-9.05136945502854, 12.887231549220198, 1.1850837081314993, -0.9034982745382478, -6.33931893326233, 3.291272730463956, -7.539982052085622, -10.812824517588691, 31.40101752011907, -14.168891474272769, 9.14611790253716, -9.585132523761065, -6.1467800382428015, -11.088555527349538, -9.454135214305824, 8.510698109998817]], "bias_h": [[-4.173047809068982], [-8.484713484695584], [-10.679842687012309], [-2.272490299546967], [7.2538932190214584], [9.437079784001757], [6.541944819561058], [13.782873691555308], [9.328472272058384], [-4.156984997980708], [0.5575952288968578], [20.927183411647484], [9.147902383234095], [2.052796885069692], [6.3253284572510875], [6.108434731866853]], "bias_o": [[2.275000323044364], [-0.24838638062103097], [-15.272059269565432], [-10.713026175872212]]}, {"input_nodes": 12, "hidden_nodes": 16, "output_nodes": 4, "weights_ih": [[-6.78394343470703, -5.625530765156105, 3.2489700751095913, 3.2887137776711373, -0.8678806064757884, -0.15863882696159182, -12.304556884463041, -8.597518398295252, -6.590661141477509, 0.7916700271967534, -3.2669706793756945, -1.6433288893644231], [5.019051854192188, -7.083533860872255, -10.055326490795673, -2.632938216774997, 7.363536026792135, 4.8819430726244235, 9.706131199845917, 14.010282271839994, 1.3043761372305782, -1.9326701683372751, 2.95921480241261, 0.2829986419846988], [2.9228472936212424, 11.184727994208574, -6.270418414823111, -1.1832647380700598, -11.005903417802704, -6.454829428245456, 8.981982685788175, -14.364428986871925, 13.647359434540023, 5.044838461759201, 3.81505399656868, 4.657433588482735], [13.403848289735835, 22.907990013259305, -10.774760936343412, 9.97277383867742, 8.237677911666772, 1.032796610953537, -4.770708783906315, 7.9469619374727225, 0.9557365408930178, -1.1813205102897002, -8.743058575987067, -7.8331328377823715], [3.955171147687427, -10.323877714331005, -8.962432383500019, 1.9421942498265934, -5.566731350072505, 6.5728133140077665, 2.8421091357874504, -5.825028123462337, -11.035833633609972, 1.2995589552698563, 10.155609717944762, 1.4771632790398102], [-11.035686564387518, 0.8828215665392042, 9.479104198080568, -2.0281607565124613, 1.9950130587577914, 20.125764293158483, 10.59916424381385, -5.372605124825137, 11.866085997130662, -10.707397596275365, -16.610472454220204, -4.073957448303802], [-8.797788206486821, -5.10216250221087, -7.403412631270311, -1.3967235608610156, 5.407408726410667, 4.2471613603010905, 0.9548005788616458, 4.833661122928793, 0.18951987177153123, 0.2537532239046707, 8.183907282171136, 6.663373696694448], [-1.2223182587687318, 7.535004899359503, -4.469994781809534, -12.786626955904296, -1.5848905571382885, 0.6314369791177659, -7.409228806626384, -2.577778469086579, 12.403376394919356, -0.32047008177744307, 10.219013190100108, 2.240480979237646], [-1.9052847043208125, -21.992967384592962, -5.364677158795621, 20.20330495826706, -6.081964320524161, -5.9231333370086725, -10.298736790245421, 4.534140773117762, 12.679914667618169, -17.19988137812163, 2.6926319414701885, 2.8288262051689412], [-0.6221521923294502, 2.6120223194645202, 0.5011912016044301, -2.6171264125530103, 9.603978630807765, 0.466920598334852, 13.118511453795566, -2.9523535246404, 13.787598650862341, -1.353543942564567, 3.894628554385939, -1.4166277144590362], [-4.057383279383586, -3.1648698300999607, -4.690877171088458, -2.548197517229436, -6.8624331786896855, -1.9468016389649512, -0.6221927947331984, -4.954962566739711, 4.458812874755518, -7.461830830133074, -2.463919428399906, 15.569114534129028], [-2.5014134773027505, -8.60091900506654, 1.8834511237830271, 7.071674926509003, -2.4189605053623744, 3.2677045431935645, 16.506777868422255, 3.9082138504548842, 10.074644233771412, -5.765753487004151, -1.345342224460636, 2.403212699154441], [3.5281073607942948, -2.5389236720494104, -5.074941473760674, -2.8064225629229513, -14.02832685423815, 32.01154675024846, -7.691368548548751, -2.6485484205773764, 8.609293477702558, 7.533410301573004, 7.8493844079053705, 12.787466845969217], [1.8869000779056508, 2.2741878865610876, -6.986188610529392, -7.207614207056538, 0.6314081391197306, 11.584454239495965, 0.4054737380259879, -0.7681705993812817, 1.892401975655812, 7.155015573228031, 3.0107195631023784, -10.937086408265133], [4.06050936932682, 9.701624428240335, -9.966813464820149, -2.1434864114297043, -2.780016371100041, -3.9897304199360497, 13.567787965959125, -9.173795622011326, 0.05670082111417285, -1.400613092427608, 25.763630428289932, 10.25125145981746], [1.4456802881778106, -5.808524735324287, -4.570295478491246, 3.559144234631652, 4.302712538372932, -16.053526634295014, 16.94128824776613, -8.503430487367538, 0.8540227289658071, -11.493540444503134, -0.5587732630233139, 5.030326326520335]], "weights_ho": [[-11.948784506108158, -7.440764344293145, -12.772377663426756, 2.714960416765721, 7.705433384529317, -23.68654409179629, 16.59746838019961, 16.534585581371807, 2.731799905275746, 3.72715400311869, -8.709585430558093, 1.5625057406325065, 5.983520337487283, 4.767085818155085, 1.3441233832449326, -5.104314575729147], [3.086236275346321, -0.11395909247927874, 9.957514394418041, -6.439986905216551, 2.546360140265371, -9.23580616616715, 0.7454884798051588, 7.104221104922261, -1.5056509088240253, -2.9456372909033246, 22.827207297830316, -21.870976129287158, -5.006464772130194, 0.30567787921366957, -5.89886850824166, 2.6248456954570405], [0.6404703831182862, -16.316275831365992, -13.048969833476391, 0.6156580363002399, 5.819401351880821, 7.235365386093816, -7.386145364873261, -1.5392169441746144, 3.6916144912114044, -0.899728483992787, 12.790684492091906, 6.145901347692088, 7.1213785425530105, -16.074277484884725, -3.4646213929435534, 2.6540459764796824], [-9.231738861726758, 12.986810967245638, 1.0849921881100788, -0.900464566052705, -6.120073356479992, 3.41466369155866, -7.539982052085622, -10.81838920007853, 31.385137590573528, -14.22124231707343, 9.169889684696775, -9.78389812959753, -6.16395764828672, -11.094307107764319, -9.454135214305824, 8.535052883455768]], "bias_h": [[-4.3786374435996525], [-8.606875972258505], [-10.575689163384636], [-2.2508499757271836], [7.310178885620507], [9.34086679008407], [6.4726325552022], [13.782873691555308], [9.199216190173608], [-4.122806734180925], [0.49730879294571095], [21.10327928142423], [9.118065942638554], [2.082636627424277], [6.3253284572510875], [6.047734749620598]], "bias_o": [[2.1634735569022228], [-0.34599975759481066], [-15.227895727231537], [-10.781984512474645]]}, {"input_nodes": 12, "hidden_nodes": 16, "output_nodes": 4, "weights_ih": [[-6.879236128813041, -5.625530765156105, 3.268805525246677, 3.2944204172974287, -0.9204290538445918, -0.15863882696159182, -12.369839233717832, -8.597518398295252, -6.590661141477509, 0.6158136756362731, -3.230258966931437, -1.4966508091235164], [5.019051854192188, -7.083533860872255, -10.055326490795673, -2.632938216774997, 7.160777083479743, 4.8819430726244235, 9.480863363141975, 13.97206151231298, 1.3043761372305782, -1.7534986628939135, 3.070641378777073, 0.2829986419846988], [2.9228472936212424, 11.176379188201167, -5.99486386297073, -1.1689506186095473, -11.152194415734124, -6.454829428245456, 9.007105598720894, -14.250012783011051, 13.538024899125398, 5.044838461759201, 3.873645854284574, 4.535208323689536], [13.377428868143232, 22.886692496739258, -10.82605536346749, 10.002919352804842, 8.237677911666772, 0.9246620748378813, -4.796529737568325, 7.934130710887456, 1.15074998379728, -1.1813205102897002, -8.78301618676837, -7.847292321680129], [3.9722217106057642, -10.137350165360496, -8.928490751305851, 1.9569250221373795, -5.566731350072505, 6.670285064942651, 2.7898676619362797, -5.923782994572286, -11.119304979235688, 1.2995589552698563, 10.215656745991113, 1.4960750483056369], [-11.0356451373647, 0.9459113610337605, 9.54364989123488, -2.109474923522266, 1.9950130587577914, 20.298901194623532, 10.59916424381385, -5.375026705052197, 11.693731123527408, -10.719324160153052, -16.610472454220204, -4.073957448303802], [-8.797788206486821, -5.101775269164179, -7.41976457226383, -1.4977015113650956, 5.394372930096038, 4.2299262324508335, 1.1359536845548277, 4.833661122928793, 0.3903449766246157, 0.2537532239046707, 8.183907282171136, 6.972895796268695], [-1.2223182587687318, 7.535004899359503, -4.364353362978405, -12.811827900306984, -1.5886486436333596, 0.47233590272776066, -7.323813158267311, -2.6424927508486236, 12.403376394919356, -0.13750184498999835, 10.221395605374234, 2.2342474271569626], [-1.8326698362113591, -22.043671614337157, -5.364677158795621, 19.94683928342503, -6.081964320524161, -5.845615601102666, -10.136538342164613, 4.20317873630561, 12.725974010697355, -17.110011474806313, 2.5931052137373256, 2.7711258668974064], [-0.6221521923294502, 2.663246260463875, 0.4291735467093711, -2.644957609645838, 9.597558526753248, 0.5183608865135729, 13.118511453795566, -2.8337280185939977, 13.979659638874798, -1.281317243199354, 3.9500598754334306, -1.4166277144590362], [-4.1220227632638915, -3.09846300009806, -4.646058897666846, -2.548197517229436, -6.901083583781611, -1.9468016389649512, -0.6677815198653075, -4.970409545562586, 4.662576179098613, -7.461830830133074, -2.3539217994358683, 15.569114534129028], [-2.5200104298259975, -8.511585694465987, 1.8754680942999726, 7.036383208940164, -2.4873078379164677, 3.2677045431935645, 16.405363003454216, 3.8269910421567084, 10.016716866866203, -5.8755543801557675, -1.4126366997262636, 2.346179317256478], [3.5519921259143254, -2.5389236720494104, -5.074941473760674, -2.993810924089285, -14.02832685423815, 32.01852072603302, -7.679427919151758, -2.40299899666451, 8.616885525981724, 7.533410301573004, 7.8493844079053705, 12.812847123936635], [1.8941011451450425, 2.2741878865610876, -6.986188610529392, -7.207614207056538, 0.6314081391197306, 11.584454239495965, 0.2804917236123982, -0.7617176049779603, 1.8648816614713346, 7.248678826653817, 3.0107195631023784, -10.937086408265133], [4.088649854523544, 9.704767273762723, -9.712863976439897, -2.2351278574363573, -2.8599557536965405, -4.126207052924612, 13.522225740576742, -9.04808618130031, 0.18216121085223444, -1.4312867310947508, 25.763630428289932, 10.24246968738849], [1.4304403195769464, -5.958053521908264, -4.634807522388405, 3.4877745404496965, 4.307704925090813, -16.040341147364003, 16.82429111665336, -8.524668474210106, 0.8182897619137292, -11.351278573750252, -0.5587732630233139, 5.077036604910072]], "weights_ho": [[-12.010547416619678, -7.330214416592364, -12.772377663426756, 2.641026536977084, 7.721804775064068, -23.674376842733803, 16.700836432008636, 16.496983169392262, 2.8714268669268574, 3.694539335423888, -8.535956072244385, 1.5625057406325065, 6.01865845632891, 4.9245874237829925, 1.2712386564635398, -5.229263050705642], [3.086236275346321, -0.2393977242404175, 9.91102184871552, -6.325277591002262, 2.546360140265371, -9.085009037355675, 0.6780378202833405, 6.97147897286612, -1.44706529292004, -2.9056656627419817, 22.70421356363855, -21.866057837809752, -4.96375750156829, 0.2855729401331918, -5.727772749437608, 2.6893813103871027], [0.40395033970117056, -16.31624480735007, -13.048969833476391, 0.6156580363002399, 5.819401351880821, 7.214322417401006, -7.2759503564122205, -1.4500105793315885, 3.6916144912114044, -0.870419687050657, 12.79192698793657, 6.145901347692088, 6.979440123151896, -16.074277484884725, -3.511237842014241, 2.5444816885636428], [-9.162198584992913, 13.052872960872726, 1.1850837081314993, -0.900464566052705, -6.1608863443264275, 3.2194929456900687, -7.477843103209052, -10.91632387317619, 31.40101752011907, -14.345096226704884, 9.14611790253716, -9.60672738282799, -6.1619231619884625, -11.098828692881746, -9.454135214305824, 8.708994408659]], "bias_h": [[-4.330808874793195], [-8.606875972258505], [-10.573591621438744], [-2.257836039556703], [7.149662036734806], [9.543505438183521], [6.4726325552022], [13.782873691555308], [9.270950904683156], [-4.156984997980708], [0.49730879294571095], [21.03068116470837], [8.990418565121486], [2.131281119291087], [6.3253284572510875], [5.837794296607601]], "bias_o": [[2.318818010844221], [-0.24038233001779555], [-15.158547749131518], [-10.78502815018175]]}, {"input_nodes": 12, "hidden_nodes": 16, "output_nodes": 4, "weights_ih": [[-6.9034656310245195, -5.625530765156105, 3.268805525246677, 3.2584593963870034, -0.8678806064757884, -0.1718443723465808, -12.369839233717832, -8.597518398295252, -6.453279713684193, 0.7364384400987718, -3.316973916546485, -1.6716638985197818], [4.925241393541636, -7.083533860872255, -9.818918507363842, -2.632938216774997, 7.115628653472393, 4.775035926841694, 9.519921985766022, 14.118793994941573, 1.433182381729218, -1.7520985227225268, 2.955263957512724, 0.19711430648392078], [2.837108526000374, 11.176379188201167, -6.270418414823111, -1.1689506186095473, -11.061074639283916, -6.384714799999896, 9.007105598720894, -14.22600903188603, 13.647359434540023, 5.044838461759201, 3.9536347754780734, 4.790322508416677], [13.575486186919326, 22.95412052214324, -10.803753093406598, 10.019014939567384, 8.141224125676452, 1.032796610953537, -4.770708783906315, 7.720725143051503, 1.2374292354208098, -1.283017188879896, -8.743058575987067, -7.847292321680129], [3.893847314685745, -10.323877714331005, -8.962432383500019, 1.8421744395293564, -5.566731350072505, 6.66113915145502, 2.989545818256836, -5.880620602494539, -11.089247484823142, 1.223123273011289, 10.155609717944762, 1.4960750483056369], [-10.991501731012411, 0.9459113610337605, 9.54364989123488, -1.8660245324799627, 1.9950130587577914, 20.109172096174838, 10.59916424381385, -5.210480019422652, 11.88357762296668, -10.70491909356863, -16.60179829596971, -3.9028848999022694], [-8.833564594520904, -5.101775269164179, -7.385912195847758, -1.4407474098071094, 5.394372930096038, 4.465119855390424, 1.1184601505875909, 4.617140989373397, 0.0776734391745835, 0.2537532239046707, 8.183907282171136, 7.207460338085815], [-1.1263972999565306, 7.429460176574874, -4.375715592129903, -12.811827900306984, -1.5886486436333596, 0.611961611073425, -7.239463479693175, -2.6424927508486236, 12.58986723274747, -0.14853345404425428, 10.053788303649615, 2.2342474271569626], [-1.8357739206185342, -21.992967384592962, -5.44865040923777, 19.961536601791117, -6.344743120412363, -5.852363387722363, -10.2075984787723, 4.442342209273772, 12.725974010697355, -17.178151894749185, 2.7582100577560116, 2.9089174563361286], [-0.5001262307206749, 2.6120223194645202, 0.5011912016044301, -2.51189450699433, 9.685209653437795, 0.3933390073500722, 13.118511453795566, -2.9523535246404, 14.027815657639268, -1.281317243199354, 3.894628554385939, -1.4166277144590362], [-4.1220227632638915, -3.1648698300999607, -4.690877171088458, -2.548197517229436, -6.795128440115458, -2.0842869991375643, -0.6677815198653075, -5.0773117659686235, 4.603574531014839, -7.547610919274986, -2.3539217994358683, 15.569114534129028], [-2.4977010105598128, -8.68816852759693, 1.8166050714533415, 7.113116093941706, -2.4189605053623744, 3.114365409584043, 16.385090885895885, 4.046882901684518, 9.92221273472439, -5.765753487004151, -1.4122178834967143, 2.519812779299359], [3.5519921259143254, -2.4915723178039277, -4.956651066064221, -2.9325105116903227, -14.019902837180352, 32.01935913896377, -7.679427919151758, -2.619522899837525, 8.609293477702558, 7.533410301573004, 7.8493844079053705, 12.787466845969217], [1.8869000779056508, 2.2290128654001338, -6.997797307642459, -7.222725704985293, 0.6564371121720122, 11.535090000765274, 0.3570155502800473, -0.7681705993812817, 1.7514404253876432, 7.3187444250583304, 3.0386427850965596, -10.830341731574823], [4.06050936932682, 9.701624428240335, -9.818662694963095, -2.2351278574363573, -2.8223059697807225, -4.126207052924612, 13.511714676172897, -9.04808618130031, 0.23828813313028213, -1.4312867310947508, 25.763630428289932, 10.25125145981746], [1.4456802881778106, -5.808524735324287, -4.398760628081935, 3.464186794549296, 4.307704925090813, -15.891555862979532, 16.94128824776613, -8.503430487367538, 0.877231522141416, -11.493540444503134, -0.5587732630233139, 4.977465736639009]], "weights_ho": [[-11.978224135921208, -7.412595163576471, -12.772377663426756, 2.761007493555064, 7.705433384529317, -23.67580899413408, 16.59746838019961, 16.534585581371807, 2.685021928931536, 3.5340094672537123, -8.535956072244385, 1.5137512147956167, 5.992492249863523, 4.9245874237829925, 1.2858599618954607, -5.104314575729147], [3.086236275346321, -0.1451021627234122, 9.957514394418041, -6.3989626515416305, 2.6781100532015683, -9.23580616616715, 0.6272410551351577, 7.0892840481782695, -1.4717732660707494, -2.706556072323618, 22.863629691551107, -21.93680197169964, -5.006464772130194, 0.3019340222029618, -5.823718281899612, 2.596747982953051], [0.5816976361118745, -16.33180472948707, -13.048969833476391, 0.6074580850346056, 5.851912463821148, 7.218534980717662, -7.386145364873261, -1.4639655357681, 3.595602269597539, -0.7696904909220861, 12.854706234660744, 6.145901347692088, 6.804640574496788, -15.96223879893512, -3.5158068039344075, 2.6540459764796824], [-8.965876783077565, 12.986810967245638, 1.206646887251465, -0.900464566052705, -6.1608863443264275, 3.4976574927571535, -7.539982052085622, -10.90191686797067, 31.40101752011907, -14.345096226704884, 9.134106588784844, -9.734414486311472, -6.1467800382428015, -11.212550273060826, -9.28974561369509, 8.535052883455768]], "bias_h": [[-4.366799506220524], [-8.638736750399255], [-10.593596383733246], [-2.272490299546967], [7.149662036734806], [9.603423062918745], [6.4726325552022], [13.920440392361764], [9.199216190173608], [-4.156984997980708], [0.49730879294571095], [21.03068116470837], [9.118065942638554], [2.1384734286177363], [6.611026385259997], [6.047734749620598]], "bias_o": [[2.327144420256014], [-0.2290774842738803], [-15.425687461454428], [-10.713691622130368]]}, {"input_nodes": 12, "hidden_nodes": 16, "output_nodes": 4, "weights_ih": [[-6.801970640268171, -5.682979033048408, 3.2822917033420005, 3.143083127783652, -0.6364256048004121, -0.15863882696159182, -12.278049289039044, -8.597518398295252, -6.755118741165396, 0.7364384400987718, -3.2669706793756945, -1.6716638985197818], [5.019051854192188, -6.928845655572182, -10.055326490795673, -2.632938216774997, 7.3194253602074735, 4.880935275288099, 9.63222838362669, 14.067304597032505, 1.3043761372305782, -1.7734414235266167, 2.9674546224730656, 0.14293440251151837], [2.7772225901501244, 11.176379188201167, -6.24273211502701, -1.1793533418890176, -11.061074639283916, -6.454829428245456, 8.95869513349689, -14.22600903188603, 13.647359434540023, 4.998909961270412, 3.8372095700044273, 4.657433588482735], [13.522467251941311, 22.795211126274694, -10.796156750487775, 9.999588844997051, 8.237677911666772, 1.032796610953537, -4.784160913407592, 7.795861267440454, 1.1001952002499678, -1.1813205102897002, -8.75681892218782, -7.847292321680129], [3.9722217106057642, -10.34005628297123, -8.937971752132613, 1.9421942498265934, -5.721383722415051, 6.7382204484239, 2.8465461323820334, -5.67667965540017, -10.985437169475212, 1.2902331451927684, 10.155609717944762, 1.4960750483056369], [-11.035686564387518, 0.9459113610337605, 9.575133273067408, -2.0142071187035837, 1.8926262707160635, 20.125764293158483, 10.566093520120365, -5.469629770261804, 12.135742310365245, -10.70491909356863, -16.610472454220204, -4.073957448303802], [-8.797788206486821, -5.101775269164179, -7.185668193814865, -1.3967235608610156, 5.394372930096038, 4.214203306708563, 1.0421439479059245, 4.833661122928793, 0.2968364679842599, 0.3978794960192427, 8.205414507922322, 6.972895796268695], [-1.2223182587687318, 7.535004899359503, -4.364353362978405, -12.811827900306984, -1.5886486436333596, 0.5317077659357672, -7.409228806626384, -2.736620070219643, 12.316077979762834, -0.14853345404425428, 10.277455654461052, 2.2342474271569626], [-1.8548837750858411, -21.886796496052728, -5.433042239471418, 19.94683928342503, -6.081964320524161, -5.920200092866883, -10.136538342164613, 4.3090115123796116, 12.725974010697355, -17.10677463766272, 2.6168084290081772, 2.961279857135711], [-0.6221521923294502, 2.6120223194645202, 0.6189730446550983, -2.6171264125530103, 9.685209653437795, 0.5183608865135729, 13.118511453795566, -2.9523535246404, 13.979659638874798, -1.281317243199354, 3.894628554385939, -1.3120408927778233], [-4.1220227632638915, -3.1648698300999607, -4.402869415710839, -2.548197517229436, -6.795128440115458, -1.8890609835566088, -0.6915444549228782, -4.937496544070379, 4.599010207545693, -7.461830830133074, -2.2436019369493905, 15.53923981602069], [-2.584042966045946, -8.543388524037466, 2.0452231111616115, 7.113116093941706, -2.331345418986753, 3.2677045431935645, 16.385090885895885, 3.840795734114911, 9.811606087544467, -5.765753487004151, -1.4126366997262636, 2.3360122852142275], [3.5769753832821873, -2.715627109733238, -4.9093270496478505, -2.993810924089285, -14.179474263972534, 32.002759815977164, -7.5749939728897795, -2.602607945751209, 8.654938865700462, 7.381080166340988, 7.8493844079053705, 12.787466845969217], [1.8876553721768328, 2.2741878865610876, -6.986188610529392, -7.250425263401514, 0.6314081391197306, 11.634040148372609, 0.29801179184885385, -0.7958133508280831, 1.8096585878819362, 7.3187444250583304, 2.9729817075049243, -10.937086408265133], [4.005327218957784, 9.701624428240335, -9.55594280292396, -2.2351278574363573, -2.8442230274928795, -4.194879703529925, 13.567787965959125, -9.164542359528275, 0.18216121085223444, -1.4312867310947508, 25.763630428289932, 10.25125145981746], [1.43345812463768, -5.953556351414217, -4.783709644660469, 3.7710780265557067, 4.307704925090813, -15.928046095550464, 16.94128824776613, -8.503430487367538, 0.8540227289658071, -11.493540444503134, -0.5358186693583357, 5.028208276425729]], "weights_ho": [[-11.978224135921208, -7.412595163576471, -12.76327211892387, 2.714960416765721, 7.746512799713064, -23.718722624072786, 16.59746838019961, 16.435833834657824, 2.787276566960711, 3.59072336265136, -8.389912912484915, 1.8281194426926688, 6.01865845632891, 4.836146655172492, 1.3441233832449326, -5.104314575729147], [3.0964505151008503, -0.26544823026233594, 9.904977509294561, -6.3989626515416305, 2.546360140265371, -9.236168942697912, 0.7293142560466029, 6.983520045421662, -1.4717732660707494, -2.7350372660120303, 22.827207297830316, -21.747690073684748, -5.006464772130194, 0.3109008094216121, -5.787920903276596, 2.643718972526962], [0.4726220519069152, -16.33180472948707, -13.181205234420842, 0.42187823723125517, 5.794598542392961, 7.237603692985117, -7.386145364873261, -1.4500105793315885, 3.5163610046302347, -0.8586893318086928, 12.681650839252232, 6.283560306422812, 7.004633260885728, -16.074277484884725, -3.400986723016824, 2.6540459764796824], [-9.099073332691093, 12.938495967584121, 1.2621197548296619, -0.900464566052705, -6.194983250793267, 3.41466369155866, -7.539982052085622, -10.569943201234137, 31.42989220373212, -14.21859806991693, 9.04202961991028, -9.73006786027579, -6.0747783028104765, -11.056860510117085, -9.454135214305824, 8.535052883455768]], "bias_h": [[-4.241200830780468], [-8.514197603960842], [-10.573591621438744], [-2.465455701085979], [7.156363421736459], [9.520914765905655], [6.525422122243767], [13.752996968340133], [9.262339717305569], [-4.156984997980708], [0.49730879294571095], [21.06436393988751], [9.296276740479541], [2.1384734286177363], [6.3253284572510875], [6.212842765953695]], "bias_o": [[2.342301300357854], [-0.38543924022624065], [-15.362492080314516], [-10.810562121087159]]}, {"input_nodes": 12, "hidden_nodes": 16, "output_nodes": 4, "weights_ih": [[-6.879236128813041, -5.685303857257069, 3.0268962278583427, 3.1347244448475453, -0.8678806064757884, -0.2981774879142074, -12.369839233717832, -8.597518398295252, -6.471123705865494, 0.7364384400987718, -3.1374296426285713, -1.6716638985197818], [5.019051854192188, -7.083533860872255, -10.055326490795673, -2.632938216774997, 7.262081114193162, 4.787922695984238, 9.60515146242278, 14.010282271839994, 1.3661989339944456, -1.9195570467426644, 2.9145076476941605, 0.2829986419846988], [2.9228472936212424, 11.176379188201167, -6.335389571159969, -1.1689506186095473, -11.061074639283916, -6.454829428245456, 9.007105598720894, -14.22600903188603, 13.652581856772017, 5.044838461759201, 3.7369192832332385, 4.657433588482735], [13.522467251941311, 22.886692496739258, -10.662271794657531, 9.817401883427417, 8.287372768106708, 1.032796610953537, -4.743053609573683, 7.795861267440454, 1.1440285836558917, -1.0405720012579136, -8.912567566935767, -7.847292321680129], [3.8061865653503677, -10.323877714331005, -8.962432383500019, 1.9421942498265934, -5.6651671474825935, 6.66113915145502, 2.770862691346374, -5.808335271164826, -11.119304979235688, 1.2995589552698563, 10.218578346545106, 1.4960750483056369], [-11.042279208742313, 1.050537066679918, 9.54364989123488, -1.970931453085904, 1.8342928568894528, 20.125764293158483, 10.59916424381385, -5.372605124825137, 11.866085997130662, -10.70491909356863, -16.610472454220204, -4.054605907346004], [-8.756176723849391, -5.001948026401104, -7.425917318195053, -1.3967235608610156, 5.298508613578806, 4.214203306708563, 1.1973672383893665, 4.833661122928793, 0.18951987177153123, 0.1539870837653734, 8.183907282171136, 6.972895796268695], [-1.1843254232627012, 7.535004899359503, -4.278670113232406, -12.737159239985267, -1.5817248016607373, 0.611961611073425, -7.409228806626384, -2.6862375146284823, 12.403376394919356, -0.09741232524411064, 10.221395605374234, 2.2342474271569626], [-1.8357739206185342, -21.91203670990721, -5.364677158795621, 19.94683928342503, -6.081964320524161, -6.016312510303279, -10.136538342164613, 4.442342209273772, 12.725974010697355, -17.178151894749185, 2.621186199135912, 2.874759902188176], [-0.6221521923294502, 2.5550273098700527, 0.5011912016044301, -2.5641789135640973, 9.58515654175484, 0.5877277575571809, 13.118511453795566, -2.9523535246404, 13.852291799042154, -1.2869431926982395, 3.9122019923728173, -1.4045029234230744], [-4.094822839804113, -3.1648698300999607, -4.690877171088458, -2.6387562381736034, -6.795128440115458, -1.8137830480766628, -0.600650215212075, -5.071979782242747, 4.614512928432015, -7.24797060589152, -2.3758939665942056, 15.490511290893586], [-2.584042966045946, -8.66965657891252, 1.7883958816656607, 7.113116093941706, -2.4595470351026867, 3.2677045431935645, 16.385090885895885, 3.790683856554253, 9.92221273472439, -5.765753487004151, -1.4126366997262636, 2.4015347046572706], [3.5519921259143254, -2.4912382171755456, -5.074941473760674, -2.993810924089285, -14.02832685423815, 31.820220133962028, -7.718183127906639, -2.6501772874869807, 8.475895489825696, 7.556778090164263, 7.923557777577421, 12.787466845969217], [1.8869000779056508, 2.1539844178080005, -6.986188610529392, -7.131564394652598, 0.7070609842063587, 11.628885677278936, 0.3570155502800473, -0.7681705993812817, 1.8096585878819362, 7.3187444250583304, 3.192297564965134, -10.84671675294194], [4.139629706705385, 9.701624428240335, -9.739734570452137, -2.222080038357664, -2.8442230274928795, -4.126207052924612, 13.614852761400826, -9.04808618130031, 0.18216121085223444, -1.4312867310947508, 25.763630428289932, 10.25125145981746], [1.4456802881778106, -5.808524735324287, -4.532896876982374, 3.456208896552666, 4.307704925090813, -15.928046095550464, 16.94128824776613, -8.503430487367538, 0.8540227289658071, -11.493540444503134, -0.6299343065823741, 5.030326326520335]], "weights_ho": [[-11.978224135921208, -7.412595163576471, -12.704096623406075, 2.714960416765721, 7.705433384529317, -23.9155010331365, 16.59746838019961, 16.435639944873458, 2.7975773100769086, 3.72715400311869, -8.535956072244385, 1.5625057406325065, 5.945198055694368, 4.638514163269879, 1.3711656299800128, -5.104314575729147], [3.086236275346321, -0.2393977242404175, 9.957514394418041, -6.293312078035467, 2.6417769600628445, -9.273099252343, 0.5356419647232501, 7.074471099332809, -1.4150721452088035, -2.9980299297480317, 22.703218896546765, -21.866057837809752, -4.8510231187203985, 0.21572370823095377, -5.614776985494925, 2.643718972526962], [0.6008650452482669, -16.35804255701433, -12.936026477851573, 0.5152551857889611, 5.819401351880821, 7.237603692985117, -7.48513596938142, -1.4500105793315885, 3.7664364296817516, -0.8586893318086928, 12.681650839252232, 6.145901347692088, 7.004633260885728, -16.074277484884725, -3.4646213929435534, 2.4788958587968066], [-9.074314732666485, 12.986810967245638, 1.1850837081314993, -1.007991277876532, -6.1608863443264275, 3.41466369155866, -7.6487655943981485, -10.812824517588691, 31.40101752011907, -14.345096226704884, 9.14611790253716, -9.73006786027579, -6.105167817568729, -11.128457228675707, -9.395290702091753, 8.535052883455768]], "bias_h": [[-4.269944708073156], [-8.774980419251817], [-10.569271254909145], [-2.272490299546967], [7.149662036734806], [9.543505438183521], [6.4726325552022], [13.782873691555308], [9.199216190173608], [-4.0791826032012075], [0.48720730250119176], [20.982135206553952], [9.118065942638554], [2.1384734286177363], [6.3253284572510875], [6.042129859946354]], "bias_o": [[2.3131480356636436], [-0.24838638062103097], [-15.105174867234137], [-10.78502815018175]]}, {"input_nodes": 12, "hidden_nodes": 16, "output_nodes": 4, "weights_ih": [[-6.845006498263793, -5.625530765156105, 3.268805525246677, 3.407853954734248, -0.854162695195045, -0.11275836075252918, -12.35418079991104, -8.597518398295252, -6.538191468947002, 0.5669716572842909, -3.2669706793756945, -1.6716638985197818], [5.019051854192188, -6.998990422731982, -10.055326490795673, -2.7011186288267504, 7.160777083479743, 4.934480448925409, 9.444107482927386, 14.00888571604974, 1.3043761372305782, -1.83564868128098, 2.95921480241261, 0.2829986419846988], [3.003097496050162, 11.176379188201167, -6.270418414823111, -0.9880550093057309, -11.074564534760002, -6.454829428245456, 8.996502709220296, -14.139670645311362, 13.590419754971677, 5.044838461759201, 3.9100953882195104, 4.4803410620477715], [13.578368595050248, 22.97260272334595, -10.803753093406598, 9.908349686839177, 8.22164984276547, 0.8987233682699708, -4.770708783906315, 7.824384118525528, 1.3162999078678848, -1.2900409359053513, -8.670201562883417, -7.847292321680129], [3.848683020773638, -10.323877714331005, -8.862768081687262, 1.792076223273889, -5.448410456083829, 6.66113915145502, 2.8043562155786352, -5.808335271164826, -11.03800092194819, 1.2995589552698563, 10.155609717944762, 1.4960750483056369], [-11.035686564387518, 0.9459113610337605, 9.54364989123488, -2.0142071187035837, 1.9950130587577914, 20.125764293158483, 10.59916424381385, -5.372605124825137, 11.794366209349313, -10.820270885064419, -16.647379957021187, -4.073957448303802], [-8.754596062299628, -5.101775269164179, -7.288457300503962, -1.3967235608610156, 5.41179576324013, 4.214203306708563, 1.1895615372359725, 4.833888687381347, 0.18951987177153123, 0.323698054614183, 8.172492891151267, 6.972895796268695], [-1.2400797098552778, 7.560282003596265, -4.238515714440479, -12.811827900306984, -1.5956580226007975, 0.611961611073425, -7.409592520568793, -2.6509223699006625, 12.403376394919356, -0.14853345404425428, 10.17951126174709, 2.2342474271569626], [-1.8657484743549304, -21.992967384592962, -5.364677158795621, 19.94683928342503, -6.081964320524161, -6.058613980504831, -10.076117357732452, 4.545380913796383, 12.743841655370787, -17.099595959769278, 2.6059843740686155, 2.941690940300067], [-0.6221521923294502, 2.6120223194645202, 0.5125967427473758, -2.635168121066004, 9.74678386722869, 0.37922455789580867, 12.922158205425632, -2.9523535246404, 13.863898275720686, -1.281317243199354, 3.894628554385939, -1.3935010017827842], [-4.029195224293429, -3.1648698300999607, -4.690877171088458, -2.548197517229436, -6.982204192987829, -1.9468016389649512, -0.6739232610975101, -4.839855110325196, 4.603574531014839, -7.461830830133074, -2.3539217994358683, 15.569114534129028], [-2.545834547479268, -8.60091900506654, 1.9612447194267886, 7.113116093941706, -2.5428829221124882, 3.2677045431935645, 16.329848758821164, 3.9082138504548842, 9.803196345615397, -5.758503605636466, -1.3067486417788576, 2.403212699154441], [3.6438745009089137, -2.5389236720494104, -5.074941473760674, -2.993810924089285, -13.941073850446656, 31.95177334524426, -7.660819647469904, -2.650333928827157, 8.480348023064877, 7.533410301573004, 7.763733355082606, 12.787466845969217], [1.8869000779056508, 2.2678186421816457, -6.986188610529392, -7.207614207056538, 0.64708184589745, 11.584454239495965, 0.3570155502800473, -0.7681705993812817, 1.7842494620807283, 7.311145310662787, 3.0107195631023784, -10.897970480862412], [4.06050936932682, 9.614626433746189, -9.815438562199828, -2.2351278574363573, -2.8442230274928795, -4.126207052924612, 13.567787965959125, -9.127540226142923, 0.18216121085223444, -1.4312867310947508, 25.763630428289932, 10.227439405539505], [1.353084415280434, -5.808524735324287, -4.488298939283799, 3.4877745404496965, 4.200731431059866, -15.928046095550464, 16.75349962265339, -8.503430487367538, 0.7213329576886536, -11.493540444503134, -0.5587732630233139, 5.250823220281018]], "weights_ho": [[-12.110946647624184, -7.412595163576471, -12.772377663426756, 2.714960416765721, 7.771843151991943, -23.67580899413408, 16.49519341989478, 16.5290508398256, 2.9016745075628996, 3.72715400311869, -8.327237366768275, 1.6016899711917147, 5.962275176490746, 4.9245874237829925, 1.3441233832449326, -4.956880406314076], [2.989272672805002, -0.2393977242404175, 9.957514394418041, -6.488390455055486, 2.501729840559406, -9.155351636283637, 0.6047122729066365, 6.97147897286612, -1.4203549990707374, -2.6683160740228233, 22.827207297830316, -21.61411004077812, -5.006464772130194, 0.14133329413203968, -5.727772749437608, 2.6471753817189003], [0.5816976361118745, -16.33180472948707, -12.987446744271116, 0.698907779158578, 5.927745403886934, 7.392434532345221, -7.386145364873261, -1.443319439186011, 3.6916144912114044, -0.9569111987462696, 12.681650839252232, 6.145901347692088, 7.034667682135305, -16.074277484884725, -3.2520110711557177, 2.6540459764796824], [-9.099073332691093, 12.964417485542628, 1.1762397939210225, -0.8007586176059547, -6.054839033718999, 3.41466369155866, -7.6259744257022835, -10.7098968698376, 31.57128076728711, -14.316523560912573, 9.14611790253716, -9.73006786027579, -6.1467800382428015, -11.024765345643605, -9.454135214305824, 8.521355371706772]], "bias_h": [[-4.306059489078253], [-8.743360749556722], [-10.573591621438744], [-2.272490299546967], [7.149662036734806], [9.67519490907178], [6.721340666222039], [13.809638646852303], [9.267515748979884], [-4.319480412719887], [0.46080373423722926], [21.044965526405413], [9.118065942638554], [2.1384734286177363], [6.26099414314597], [6.030989574106228]], "bias_o": [[2.3241352173933723], [-0.2262821896240383], [-15.272059269565432], [-10.78502815018175]]}, {"input_nodes": 12, "hidden_nodes": 16, "output_nodes": 4, "weights_ih": [[-6.879236128813041, -5.598428307978447, 3.4521785868941923, 3.2584593963870034, -0.9146366574880335, -0.2247795494587323, -12.369839233717832, -8.597518398295252, -6.371602457049836, 0.7364384400987718, -3.2669706793756945, -1.6716638985197818], [4.976455917739125, -7.083533860872255, -10.055326490795673, -2.632938216774997, 7.160777083479743, 4.8819430726244235, 9.519921985766022, 14.010282271839994, 1.3043761372305782, -1.8253924448389924, 2.9991594706939337, 0.2829986419846988], [2.9228472936212424, 11.141707260583363, -6.291861720538322, -1.1689506186095473, -11.061074639283916, -6.307662381793928, 8.931367989773623, -14.22600903188603, 13.614840595593336, 5.0342375403008095, 3.839472303102334, 4.657433588482735], [13.522467251941311, 22.886692496739258, -10.803753093406598, 9.999588844997051, 8.287087671949928, 1.0618448104741696, -4.770708783906315, 7.795861267440454, 1.1440285836558917, -1.1813205102897002, -8.751435352801316, -7.760062963940813], [4.030623690943193, -10.299121411424617, -8.962432383500019, 2.001554229398236, -5.566731350072505, 6.770462475829209, 2.8421091357874504, -5.8127999246521505, -11.16353025445902, 1.4277157973850183, 10.057140377526833, 1.5059492523570521], [-11.035686564387518, 0.9459113610337605, 9.648074392158515, -2.0142071187035837, 1.9950130587577914, 20.125764293158483, 10.59916424381385, -5.299913227302322, 11.866085997130662, -10.70491909356863, -16.610472454220204, -3.943279665814564], [-8.821219411391883, -5.101775269164179, -7.385912195847758, -1.3967235608610156, 5.38883357032809, 4.289682307575116, 1.1359536845548277, 4.898416044082485, 0.18951987177153123, 0.2537532239046707, 8.183907282171136, 6.988432077111745], [-1.2223182587687318, 7.5642284065441725, -4.364353362978405, -12.819126037733852, -1.7515934063186294, 0.611961611073425, -7.409228806626384, -2.594012508145459, 12.403376394919356, -0.4275000536705029, 10.126221778710729, 2.2342474271569626], [-1.9477305054049272, -21.933773832603027, -5.364677158795621, 19.94680481759023, -6.255052841603894, -5.973463493621999, -10.136538342164613, 4.442342209273772, 12.756146655806672, -16.992307108325836, 2.531524088521612, 2.9089174563361286], [-0.5661629377032024, 2.664703562152536, 0.5011912016044301, -2.6171264125530103, 9.685209653437795, 0.6602587552924986, 13.118511453795566, -2.9523535246404, 13.979659638874798, -1.2609413591494987, 4.040521787480875, -1.4166277144590362], [-3.9845718172766005, -3.094889559165483, -4.7031703364985145, -2.5416393286305654, -6.795827024823451, -1.9835859502049493, -0.6021256913426867, -4.983189741350784, 4.603574531014839, -7.5200956449873475, -2.292663873329312, 15.569114534129028], [-2.584042966045946, -8.60091900506654, 1.8719077010745317, 7.113116093941706, -2.4189605053623744, 3.138994696935158, 16.22568411422936, 4.028744447829515, 9.939111773794316, -5.844169349583987, -1.474030881156713, 2.3935032571818073], [3.569093851092322, -2.5579369853356813, -5.074941473760674, -3.0781173061506815, -14.02832685423815, 31.90526894428034, -7.679427919151758, -2.6501772874869807, 8.479753228629638, 7.447661955801549, 7.986822369533423, 12.766543862569598], [1.8869000779056508, 2.2741878865610876, -6.986188610529392, -7.207614207056538, 0.6314081391197306, 11.464015660286616, 0.3570155502800473, -0.7681705993812817, 1.7692280794215804, 7.259918741042461, 3.0107195631023784, -11.013663240283618], [4.06050936932682, 9.656233999347029, -9.818662694963095, -2.1438475533768675, -2.8442230274928795, -4.151708019649987, 13.556538212009745, -9.04808618130031, 0.18216121085223444, -1.469247945342267, 25.83781731809362, 10.25125145981746], [1.4456802881778106, -5.808524735324287, -4.597920202907519, 3.4877745404496965, 4.197723309453636, -15.900189184537375, 16.94128824776613, -8.332388665311237, 0.8540227289658071, -11.312205972694574, -0.5587732630233139, 4.842451191153233]], "weights_ho": [[-11.978224135921208, -7.412595163576471, -12.772377663426756, 2.7053012759060877, 7.705433384529317, -23.67580899413408, 16.557169229101355, 16.534585581371807, 2.7975773100769086, 3.7505892722559895, -8.379737026565861, 1.4862605689736221, 6.01865845632891, 4.9245874237829925, 1.3063154479350354, -5.212202518234808], [3.086236275346321, -0.2029141211801909, 10.078748408741578, -6.3989626515416305, 2.4724720515688396, -9.278749455093145, 0.6272410551351577, 6.97147897286612, -1.4717732660707494, -2.706556072323618, 22.827207297830316, -21.866614744026858, -5.006464772130194, 0.3423374413002094, -5.626170419855435, 2.643718972526962], [0.5816976361118745, -16.489068006458336, -13.048969833476391, 0.6156580363002399, 5.825602089807204, 7.339001135962839, -7.386145364873261, -1.4496448962235917, 3.8309741421762613, -0.6917793422450498, 12.681650839252232, 6.080718599903999, 7.004633260885728, -16.05342985377578, -3.674972809429959, 2.586948337737008], [-9.118635644642714, 12.984778805637458, 1.0309844729294861, -0.900464566052705, -6.1608863443264275, 3.41466369155866, -7.539982052085622, -10.812824517588691, 31.40101752011907, -14.350452535523088, 9.14611790253716, -9.73006786027579, -6.055135500714518, -11.094307107764319, -9.299501235103707, 8.658188493992755]], "bias_h": [[-4.229848653006894], [-8.606875972258505], [-10.573591621438744], [-2.3489790788332723], [7.14618498317887], [9.543505438183521], [6.4726325552022], [13.722346502268433], [9.144870948518435], [-4.099111150966789], [0.49730879294571095], [20.981181450213736], [9.179161909231174], [2.110242048677549], [6.440354433344382], [5.985366499428698]], "bias_o": [[2.369509096365508], [-0.24838638062103097], [-15.272492774884338], [-10.78502815018175]]}, {"input_nodes": 12, "hidden_nodes": 16, "output_nodes": 4, "weights_ih": [[-6.914103824979005, -5.625530765156105, 3.268805525246677, 3.1141346072503744, -0.7973170025985314, -0.18456094770932863, -12.369839233717832, -8.627424636294043, -6.709255682640109, 0.7402760557492477, -3.3553868023669216, -1.6716638985197818], [4.820614274553431, -7.191663968280224, -10.103656552085601, -2.6018935231138536, 7.224464033715443, 4.8819430726244235, 9.519921985766022, 13.996613150538598, 1.2749430280473093, -1.8372716880153022, 2.95921480241261, 0.47624332374765366], [2.9331724011546254, 11.176379188201167, -6.153531214829602, -1.121199496919897, -11.14351661175199, -6.454829428245456, 9.007105598720894, -14.22600903188603, 13.700403309524848, 5.044838461759201, 3.873645854284574, 4.657433588482735], [13.350933071989909, 22.886692496739258, -10.741036205654988, 10.010774698545085, 8.237677911666772, 1.032796610953537, -4.606923163929925, 7.795861267440454, 1.153133210957797, -1.0784372642941664, -8.761259594586496, -7.847292321680129], [4.007376346402568, -10.323877714331005, -9.035568487594512, 1.8430793385368096, -5.5112635439024436, 6.780665058497806, 2.6927076174000644, -5.856838155572837, -11.242600205685243, 1.2995589552698563, 10.226313395209441, 1.5514137365627638], [-11.035686564387518, 0.9459113610337605, 9.418011177344274, -2.051390599704247, 1.9950130587577914, 20.093988951164633, 10.59916424381385, -5.372605124825137, 11.868909729152465, -10.77840703375934, -16.610472454220204, -4.073957448303802], [-8.797788206486821, -5.259432348385452, -7.387144589288563, -1.3967235608610156, 5.395984701001044, 4.053262670509929, 1.069857256695892, 4.733462333146461, 0.18951987177153123, 0.2537532239046707, 8.188015126991735, 7.115422781801857], [-1.2223182587687318, 7.545015314969899, -4.364353362978405, -12.811827900306984, -1.5004384961607216, 0.6579285571774404, -7.464470841011131, -2.6459494919337905, 12.403376394919356, -0.3663600096171562, 10.314046411698204, 2.160820749347535], [-1.7957611432219234, -21.992967384592962, -5.364677158795621, 19.88927717832672, -6.081964320524161, -5.920200092866883, -10.136538342164613, 4.442342209273772, 12.733077837130192, -17.178151894749185, 2.7623656356806583, 2.9089174563361286], [-0.6221521923294502, 2.65318990305864, 0.5011912016044301, -2.6171264125530103, 9.685209653437795, 0.4760583055996146, 13.118511453795566, -2.9754052659212147, 13.911179718923325, -1.3659335103106809, 3.894628554385939, -1.4166277144590362], [-4.0841970419473945, -3.1648698300999607, -4.577749636489257, -2.54464165131468, -6.585229583691266, -1.9468016389649512, -0.7260185471284065, -4.880093008848779, 4.623702386584993, -7.461830830133074, -2.3539217994358683, 15.501527319328094], [-2.584042966045946, -8.60091900506654, 1.8834511237830271, 7.046764388884403, -2.4189605053623744, 3.070216996119594, 16.371547322679053, 3.9082138504548842, 9.92221273472439, -5.765753487004151, -1.4223839808759016, 2.524723554433356], [3.5519921259143254, -2.5389236720494104, -5.262608691601261, -2.9650781849158543, -13.967356833080672, 31.95177334524426, -7.679427919151758, -2.6501772874869807, 8.515259121920689, 7.7471867554870855, 7.893721120920324, 12.787466845969217], [1.8869000779056508, 2.2335090158107214, -7.249471212112299, -7.0155965905367434, 0.6458877060691369, 11.584454239495965, 0.28603909075932155, -0.8095388296470166, 1.8096585878819362, 6.970128430244555, 3.0107195631023784, -10.943352946090666], [3.9222007323940082, 9.701624428240335, -9.850405584497597, -2.2249792266533217, -2.8442230274928795, -4.126207052924612, 13.59137720072101, -9.161720892550044, 0.18216121085223444, -1.5680737391226522, 25.763630428289932, 10.078733422663923], [1.4601408297766445, -5.854358747709895, -4.606567360677033, 3.4877745404496965, 4.2409895934145, -15.928046095550464, 17.065972944053563, -8.498829192391941, 0.8540227289658071, -11.643545517979268, -0.5458391383124517, 5.063813287052427]], "weights_ho": [[-11.978224135921208, -7.452118704386277, -12.772377663426756, 2.714960416765721, 7.705433384529317, -23.67580899413408, 16.560677443126284, 16.464073521949864, 2.7975773100769086, 3.72715400311869, -8.481025116402476, 1.5625057406325065, 6.08312359680867, 4.9245874237829925, 1.3441233832449326, -5.104314575729147], [2.955431042485979, -0.2393977242404175, 9.785266446899884, -6.3989626515416305, 2.546360140265371, -9.270870406758492, 0.6272410551351577, 6.91860641870423, -1.4717732660707494, -2.7232995596891456, 22.911086044666842, -21.883864013792497, -4.85776064163403, 0.31471791466055, -5.727772749437608, 2.6123174458457856], [0.7518414456396135, -16.33180472948707, -13.048969833476391, 0.6156580363002399, 5.819401351880821, 7.237603692985117, -7.386145364873261, -1.4500105793315885, 3.9877978340973153, -0.7409278892956563, 12.616570784901857, 6.145901347692088, 7.004633260885728, -16.074277484884725, -3.4646213929435534, 2.6540459764796824], [-9.010310678849118, 12.841803148909275, 1.1850837081314993, -0.900464566052705, -6.1608863443264275, 3.41466369155866, -7.613314553648342, -10.812824517588691, 31.40101752011907, -14.412738682537006, 9.14611790253716, -9.73006786027579, -6.1467800382428015, -11.094307107764319, -9.596729174358208, 8.40959646637785]], "bias_h": [[-4.241200830780468], [-8.527403134025004], [-10.520545527065675], [-2.272490299546967], [7.131397346606436], [9.543505438183521], [6.6323681347389085], [13.782873691555308], [9.14794682258367], [-4.156984997980708], [0.49730879294571095], [21.111964566144266], [9.068501308806654], [2.0872767197223285], [6.413358270303156], [6.047734749620598]], "bias_o": [[2.3131480356636436], [-0.24838638062103097], [-15.272059269565432], [-10.909531525140782]]}, {"input_nodes": 12, "hidden_nodes": 16, "output_nodes": 4, "weights_ih": [[-6.879236128813041, -5.625530765156105, 3.268805525246677, 3.2584593963870034, -0.8940037268562611, -0.16378227194911546, -12.369839233717832, -8.581753474869572, -6.535701030725415, 0.6182955831517335, -3.2932732375170417, -1.7671778487428347], [5.019051854192188, -7.083533860872255, -10.055326490795673, -2.581117693622028, 7.209084128631258, 4.879050123081919, 9.52790261501166, 14.010282271839994, 1.3043761372305782, -1.855965434039582, 3.1640016981009293, 0.2829986419846988], [2.9228472936212424, 11.27927204430638, -6.403910272864676, -1.1689506186095473, -11.08853221688533, -6.530359292914751, 9.007105598720894, -14.082414182452151, 13.647359434540023, 5.0179193405746085, 3.813598638248171, 4.512745971799741], [13.522467251941311, 22.886692496739258, -10.803753093406598, 9.999588844997051, 8.237677911666772, 1.032796610953537, -4.770708783906315, 7.773561468053073, 1.2290015769758185, -1.1813205102897002, -8.743058575987067, -7.847292321680129], [3.9722217106057642, -10.520463250297352, -8.962432383500019, 1.754654326052528, -5.716097941816139, 6.800422636138381, 2.8421091357874504, -6.217015879574619, -11.119304979235688, 1.2995589552698563, 10.070834353586294, 1.2364355722072626], [-11.035686564387518, 0.9221347625902602, 9.797151548888174, -2.2944398165053252, 1.9950130587577914, 20.14366387061026, 10.59916424381385, -5.430202501792713, 11.805210508215714, -10.746943099753365, -16.502669244335273, -4.122012411279861], [-8.59204916695179, -5.1823387732066974, -7.385912195847758, -1.3426294516235335, 5.394372930096038, 4.214203306708563, 1.1887837680043247, 4.833661122928793, 0.18951987177153123, 0.2537532239046707, 8.183907282171136, 6.96967565455585], [-1.2223182587687318, 7.535004899359503, -4.364353362978405, -12.811827900306984, -1.5501933479371437, 0.611961611073425, -7.298647690756993, -2.6424927508486236, 12.335466082032955, -0.14853345404425428, 10.250014022126, 2.2342474271569626], [-2.0036389978987605, -21.86742950931906, -5.414473137725555, 19.94251394021643, -6.081964320524161, -5.806395836038512, -10.108522542106119, 4.34149363106405, 12.725974010697355, -17.178151894749185, 2.621186199135912, 2.859412566447487], [-0.6221521923294502, 2.6043943600801183, 0.5011912016044301, -2.6350952623284303, 9.646523813578801, 0.5074258348164731, 13.118511453795566, -2.9523535246404, 13.979659638874798, -1.2950143390529476, 3.894628554385939, -1.4166277144590362], [-4.123629459547179, -3.221559598149947, -4.690877171088458, -2.5814734803303554, -6.795128440115458, -1.9468016389649512, -0.5967489623493847, -4.871202004677369, 4.603574531014839, -7.461830830133074, -2.3313565939191765, 15.569114534129028], [-2.584042966045946, -8.60091900506654, 1.8834511237830271, 7.113116093941706, -2.4189605053623744, 3.2677045431935645, 16.38962244772992, 3.9082138504548842, 9.948143489711391, -5.822235806332103, -1.4206905252615, 2.403212699154441], [3.5457455511376024, -2.5389236720494104, -5.074941473760674, -2.993810924089285, -14.02832685423815, 31.95177334524426, 