{"generation": 23800, "population": [{"input_nodes": 12, "hidden_nodes": 16, "output_nodes": 4, "weights_ih": [[-9.809020092198464, -4.373505484778223, 0.2538527839843465, 5.98495155948826, -1.7464835416466857, -2.0950321855903806, -12.209103104944097, -9.525244934053195, -6.673887723232428, 3.297756766749196, -5.162858325015426, -0.0657451581278139], [7.647968983462855, -5.262106073191115, -12.847153891950203, -2.1330801241945054, 2.465131898098672, 5.217427711681698, 9.200204709952587, 14.076561957491105, 3.609204167375106, -2.230360583789532, 3.0644160931009297, -3.6237317959050688], [-0.5353686346799791, 12.35732307534316, -6.661657589441728, -4.300770954502084, -12.353121499940618, -4.118459836670991, 7.536357964645959, -11.95815841051068, 11.55088906785493, 4.695048791015263, 6.508407578948881, 4.504500701744062], [12.483946665689363, 24.600087075219623, -11.130649825242761, 10.811813673664252, 3.846172509000668, 0.3240016701565186, -2.8296539067353543, 7.081744681719112, -2.5281206337473185, -2.514808353804507, -6.56138187888024, -6.947495455073164], [1.6854191724615204, -5.857157773293733, -13.716772678958959, 1.7099393254360444, -2.334326281922619, 2.2238231104086283, 3.947977537511049, -4.499524718516298, -12.733181732093291, 1.9736907926154836, 8.424271228383953, 1.7288945427912696], [-11.539922312970154, 3.688853483622726, 9.228845875534734, -3.6592873082982122, -1.0327851400921002, 19.40542466779087, 7.859249318101183, -1.9189826374379133, 10.755853791435001, -14.228484544427165, -17.17271805385462, -2.28393282589814], [-10.929373826949504, -5.748357718409017, -4.7739299785973, -2.9600191001277247, 2.604258018158018, 5.007381630924149, 1.1734371768266358, 5.476473585617563, 1.0728218233174105, -1.4405244928563585, 2.2318811498226725, 5.583347312484698], [-0.9843743693867888, 6.25737664515602, -5.201327833708438, -4.195501416976792, -3.964563623447416, 2.7213025532038464, -5.211855156278685, -2.756135958381864, 11.1888099650653, -3.140816109768418, 12.567975007987101, 2.7880020125235605], [1.3977717294250673, -22.742548773082536, -1.2970988587294263, 15.935356321219196, -7.249668151045234, -7.197023834772413, -12.08919719178834, 4.074504959147385, 10.709803222993832, -15.40892715221992, 0.4131842829149575, 2.8431512425764875], [-1.0992972940944756, 3.134643434469708, 3.0269007012560505, -3.510625646843781, 8.844706891958417, 0.7224682827094318, 13.070697052116499, -3.8818024130133213, 14.24788691036255, -1.980549545057175, 1.2070422392619664, -1.9932971288094556], [-6.030219484023022, -4.61306547230681, -1.737801786930435, -4.2278902654629755, -5.052886606700466, -3.6160804995227576, 4.280289808092042, -4.94532766113754, 6.978699441660643, -9.186320654293246, -5.253807507427667, 16.165438543654272], [-5.036922376005878, -7.304461794144964, -1.7811998300562442, 8.323208507122153, -4.425271075620113, 4.135118914539602, 13.763016732084093, 6.7105153513300015, 8.477578991198529, -6.602305089924582, 0.7270273921901081, 3.755616855009169], [1.680190157827036, -4.821251464066889, -4.051957548892088, -5.217751709389306, -12.742936505281182, 29.062256044743577, -2.7272102277470505, -1.3145595082105703, 10.617962366968268, 8.53159368796844, 6.684771769655623, 13.868188170662917], [6.616241333849734, 1.4607815636524333, -6.877673173147108, -5.64277288282467, 0.890130490448729, 8.722033929857602, 0.0058093911663605335, -2.2550005792807943, 2.2918238264447046, 6.89267446408926, 2.307458939263948, -10.460709310315725], [3.8804244042702396, 7.016783534027059, -8.775167676056183, -1.893899432782091, -3.486565242761912, -4.893242487018552, 11.47556412542034, -9.523779249143026, 0.30256997169306443, 1.991757092495751, 23.546062045174356, 14.427945987066312], [2.058533557946043, -5.731199228117756, -5.853879469203534, 0.1300084066311647, 2.321463109010716, -11.008978065260996, 15.261926120419492, -11.29177970608747, 3.4783908056801245, -9.328148310160712, -0.7576347196110885, 7.977362665355717]], "weights_ho": [[-10.859423641688027, -3.23978004466148, -10.676916850382764, -1.388874260017863, 4.625479428080963, -22.25535761110262, 18.005478359893203, 15.23791672688387, 3.9084041786094263, -0.0450141248600964, -6.991494395069516, 2.1911750508220917, 3.9556801203162912, 3.858662447350633, 3.120524826998257, -6.353072133367914], [2.8533966766485457, -1.2234828180133308, 8.60463326134156, -8.630748499131888, 3.6395091325992093, -5.253296053521979, 2.9066674016755973, 5.791401648291159, -3.352996914863239, -4.2926169732244945, 19.62059732383099, -25.44979198830266, -4.797890163661125, 2.3211580484532366, -4.443233563767384, -2.2142567376534807], [2.0432641749395657, -10.81221614775353, -15.341500114834304, 3.5614636894549214, 5.919909313376794, 7.009832159922206, -4.657301417338935, -1.9777040994594313, 5.862391364147652, -0.2506381717729978, 13.657221753703261, 2.0681396528009715, 8.43526438576492, -15.091311926222081, -1.3600688832368684, -1.4881426618328553], [-5.794729921715581, 13.461029270081335, 2.5532813564509453, 1.191078999512652, -9.232716135316085, 3.1866039939401816, -7.642197399425619, -7.983898985077222, 31.192234824338385, -15.316026463478867, 9.543186132184381, -8.177110114965629, -5.5768412247921395, -11.106749198014803, -12.942389475365355, 8.488059604090935]], "bias_h": [[-2.6048062987787945], [-6.734900734041634], [-11.415458474049498], [-2.064325552569432], [4.488482291965417], [13.90836040183334], [5.89297052569341], [13.800643705231883], [13.127857278208701], [-8.574724016288851], [2.478090071058969], [20.729858593923524], [8.304254216168358], [2.1709612420140494], [5.952908369454177], [5.945799128531638]], "bias_o": [[0.6549646796478215], [-4.500889951240219], [-12.160744587196604], [-7.590017275788796]]}, {"input_nodes": 12, "hidden_nodes": 16, "output_nodes": 4, "weights_ih": [[-9.809020092198464, -4.373505484778223, 0.2538527839843465, 6.006817034794371, -1.7464835416466857, -2.1226274036449206, -11.961692412941279, -9.525244934053195, -6.708998151720551, 3.3502338269623575, -5.162858325015426, 0.06123031151009725], [7.647968983462855, -5.11619180707619, -12.847153891950203, -2.1330801241945054, 2.3218427106425366, 5.195937031731667, 9.127857193412515, 14.106964915124733, 3.6983634534546246, -2.143505005645701, 2.8722717225658583, -3.613661578634604], [-0.4235847059268391, 12.35732307534316, -6.661657589441728, -4.300770954502084, -12.353121499940618, -3.976145217247451, 7.537615566731805, -11.85396981375374, 11.55088906785493, 4.695048791015263, 6.461534334158135, 4.373956736018985], [12.204607715943595, 24.630648864641586, -11.130649825242761, 10.811813673664252, 3.846172509000668, 0.3240016701565186, -2.8296539067353543, 7.12921815006895, -2.5281206337473185, -2.425930299422584, -6.56138187888024, -6.947495455073164], [1.7257915350811301, -5.759063053082893, -13.738906856842865, 1.698760318229598, -2.334326281922619, 2.377329179507979, 3.947977537511049, -4.6566021265721576, -12.617946768170972, 2.000286696031296, 8.424271228383953, 1.7288945427912696], [-11.539922312970154, 3.688853483622726, 9.228845875534734, -3.6592873082982122, -0.9790398358583595, 19.53339732295998, 7.859249318101183, -2.0221318676815274, 10.800138450504491, -14.401513936845184, -17.17271805385462, -2.216562492026317], [-10.784410520345979, -5.768752929362501, -4.812289606939874, -3.1119634846094173, 2.499091366382188, 5.007381630924149, 1.124474263780455, 5.462817104759173, 1.0847881142084737, -1.4405244928563585, 2.2318811498226725, 5.6480049914993735], [-0.9555354756204435, 6.25737664515602, -5.201327833708438, -4.111775212527678, -3.8438973711250917, 2.7213025532038464, -5.154560482289461, -2.756135958381864, 11.1888099650653, -3.140816109768418, 12.402076657677238, 2.76119423379716], [1.4338898853273334, -22.6149967380383, -1.2970988587294263, 15.91574721537887, -7.1085588551417755, -7.285632750024421, -12.020834011320883, 4.181820741207038, 10.627749697657524, -15.40892715221992, 0.4187645074329814, 2.719694194648106], [-1.096390478043624, 3.134643434469708, 3.0269007012560505, -3.4076476036799916, 8.720364170514737, 0.7224682827094318, 13.105725755779103, -3.8818024130133213, 14.24788691036255, -1.980549545057175, 1.1643308501117278, -1.8553582277414808], [-6.030219484023022, -4.652373293436436, -1.7299143305769025, -4.200620593739643, -5.052886606700466, -3.6160804995227576, 4.356082969632107, -4.94532766113754, 6.74294791038064, -9.186320654293246, -5.2760096343041685, 16.137518274649164], [-5.036922376005878, -7.304461794144964, -1.9757616859141378, 8.33446728362317, -4.324233424059296, 4.135118914539602, 13.787808940930134, 6.7105153513300015, 8.528239029835333, -6.602305089924582, 0.7270273921901081, 3.755616855009169], [1.680190157827036, -4.824964888115931, -4.044193060455783, -5.217751709389306, -12.742936505281182, 29.0052316803948, -2.7272102277470505, -1.2457737709371823, 10.547261689327604, 8.477235528042883, 6.790384579912796, 13.868188170662917], [6.683807906882409, 1.4607815636524333, -6.877673173147108, -5.63971727104587, 1.0077753736582746, 8.722033929857602, 0.0058093911663605335, -2.3321782297480698, 2.2918238264447046, 6.89267446408926, 2.307458939263948, -10.460709310315725], [3.8804244042702396, 7.016783534027059, -8.775167676056183, -1.893899432782091, -3.486565242761912, -4.910534681983827, 11.47556412542034, -9.523779249143026, 0.406708272547829, 1.991757092495751, 23.57865660313609, 14.427945987066312], [2.058533557946043, -5.731199228117756, -5.853879469203534, 0.3593551931353229, 2.321463109010716, -10.986319686609434, 15.231146197109831, -11.29177970608747, 3.520731147514104, -9.237263959182222, -0.775436860151422, 7.977362665355717]], "weights_ho": [[-10.859423641688027, -3.286736196414243, -10.690557069195917, -1.388874260017863, 4.564385624037106, -22.25535761110262, 18.005478359893203, 15.23791672688387, 3.9084041786094263, -0.0450141248600964, -7.0728368226887275, 2.1911750508220917, 4.056668963714473, 3.8359232260420817, 3.120524826998257, -6.197196243218962], [2.8533966766485457, -1.2234828180133308, 8.60463326134156, -8.696929446466095, 3.4788940272011453, -5.253296053521979, 2.9066674016755973, 5.727379998708173, -3.504467104001606, -4.2926169732244945, 19.62059732383099, -25.44979198830266, -4.801904229447428, 2.2027432429250906, -4.443233563767384, -2.2142567376534807], [2.094465500257284, -10.81221614775353, -15.341500114834304, 3.3416240474852588, 6.0317935005454135, 7.009832159922206, -4.657301417338935, -1.9234724503912173, 6.023609974525907, -0.22104384995813242, 13.578537797676558, 2.033736368495502, 8.43526438576492, -15.106581478460027, -1.2933082902129145, -1.4881426618328553], [-5.98256096059148, 13.59824847987785, 2.4561047976514065, 1.191078999512652, -9.367726155867476, 3.3583842350695736, -7.755869249234946, -8.068797003925805, 31.192234824338385, -15.121762758243703, 9.634590388812546, -8.177110114965629, -5.6821610136712755, -11.106749198014803, -12.942389475365355, 8.402311179886036]], "bias_h": [[-2.6048062987787945], [-6.558388188452481], [-11.398183414820162], [-2.191944481163713], [4.488482291965417], [13.894399514637655], [5.914496535108713], [13.77308954246122], [13.149604083803235], [-8.349113130638573], [2.478090071058969], [20.729858593923524], [8.304254216168358], [2.1709612420140494], [5.938226762618689], [6.116343719280464]], "bias_o": [[0.6549646796478215], [-4.500889951240219], [-12.20170980689084], [-7.590017275788796]]}, {"input_nodes": 12, "hidden_nodes": 16, "output_nodes": 4, "weights_ih": [[-9.809020092198464, -4.437052187978572, 0.2877269439958334, 5.955464949456968, -1.6968743050474189, -2.1731857547443694, -12.209103104944097, -9.549471094284716, -6.673887723232428, 3.297756766749196, -5.162858325015426, -0.0657451581278139], [7.647968983462855, -5.262106073191115, -12.847153891950203, -2.1330801241945054, 2.443475151727759, 5.270010311106444, 9.200204709952587, 14.013131932987019, 3.6408826177981246, -2.230360583789532, 3.134372963959782, -3.566805803297866], [-0.5353686346799791, 12.35732307534316, -6.6875235356305165, -4.300770954502084, -12.333859231271186, -4.060924626637217, 7.463479523268134, -11.866570836295242, 11.55088906785493, 4.695048791015263, 6.508407578948881, 4.504500701744062], [12.40688147692382, 24.600087075219623, -11.130649825242761, 10.811813673664252, 3.923383001188408, 0.4187990535894997, -2.8296539067353543, 7.17983407945736, -2.5281206337473185, -2.5617436208708346, -6.56138187888024, -7.043977596315288], [1.6206715190607375, -5.857157773293733, -13.716772678958959, 1.7099393254360444, -2.334326281922619, 2.2238231104086283, 3.947977537511049, -4.499524718516298, -12.733181732093291, 1.9736907926154836, 8.551262080968064, 1.7288945427912696], [-11.539922312970154, 3.688853483622726, 9.114002347121726, -3.6592873082982122, -1.1079824044298854, 19.43692191461492, 7.859249318101183, -1.9972914906453059, 10.755853791435001, -14.228484544427165, -17.459116845868934, -2.2053065348532597], [-10.929373826949504, -5.800404289870471, -4.7739299785973, -2.9600191001277247, 2.706255512925488, 5.007381630924149, 1.2014843118947536, 5.582064572090752, 0.9527858201069437, -1.578669154189372, 2.3871938147041227, 5.583347312484698], [-1.1570699807764364, 6.17454022220231, -5.1354528504041355, -4.195501416976792, -4.155665843601712, 2.7213025532038464, -5.211855156278685, -2.6463938872074397, 11.210393702755146, -3.140816109768418, 12.49823195329038, 2.7880020125235605], [1.3977717294250673, -22.713679239914825, -1.244019997293365, 16.018491617329314, -7.177275106224331, -7.197023834772413, -11.97514786239814, 4.074504959147385, 10.77448418461053, -15.40892715221992, 0.4503893205217826, 2.9720450676671], [-1.0992972940944756, 3.1098651763654983, 3.0269007012560505, -3.520822010272821, 8.586898075335519, 0.7224682827094318, 13.070697052116499, -3.8818024130133213, 14.24788691036255, -1.980549545057175, 1.2070422392619664, -1.9932971288094556], [-6.093963134792567, -4.593326693480201, -1.855209251587986, -4.15021741391897, -5.052886606700466, -3.731970772448188, 4.375913012220516, -4.969330655338572, 7.1584877125800155, -9.186320654293246, -5.253807507427667, 16.165438543654272], [-5.036922376005878, -7.377953378192111, -1.7811998300562442, 8.323208507122153, -4.425271075620113, 4.262887255459311, 13.763016732084093, 6.7105153513300015, 8.580362272994947, -6.505204141123772, 0.7520208754602911, 3.755616855009169], [1.683723315685436, -4.821251464066889, -3.952055642885343, -5.217751709389306, -12.747248386642394, 29.062256044743577, -2.685727207467642, -1.3145595082105703, 10.532905749757386, 8.53159368796844, 6.684771769655623, 13.868188170662917], [6.616241333849734, 1.4607815636524333, -6.877673173147108, -5.510728924937734, 0.890130490448729, 8.754160188217636, 0.0058093911663605335, -2.1717194770266053, 2.2918238264447046, 6.928301297239374, 2.307458939263948, -10.460709310315725], [3.887097009914913, 6.927539546985884, -8.725069180975577, -2.1602186321667123, -3.486565242761912, -4.893242487018552, 11.467681978294708, -9.523779249143026, 0.30256997169306443, 1.8063139427117723, 23.45784263740055, 14.427945987066312], [1.905605342197565, -5.760771525700037, -5.853879469203534, 0.29101724451345623, 2.321463109010716, -10.992440354879802, 15.318203539360058, -11.337642028432777, 3.457715250947839, -9.328148310160712, -0.7576347196110885, 7.977362665355717]], "weights_ho": [[-10.859423641688027, -3.168458697250609, -10.676916850382764, -1.3046104262205869, 4.50471340456785, -22.25535761110262, 18.005478359893203, 15.23791672688387, 3.8196158465463848, -0.0450141248600964, -6.991494395069516, 2.221235151501702, 3.9556801203162912, 3.979637051742535, 3.120524826998257, -6.25954041931906], [2.8533966766485457, -1.304755001053751, 8.628674594959323, -8.630748499131888, 3.6395091325992093, -5.237947549676738, 2.9066674016755973, 5.865568726280724, -3.176491374201314, -4.2926169732244945, 19.62059732383099, -25.673593182599816, -4.641664552679199, 2.2915294527757966, -4.329143305776069, -2.2293614784339977], [2.041156606007147, -10.875553549584072, -15.385231363961347, 3.586484965153782, 5.919909313376794, 6.990390411977195, -4.657301417338935, -1.9777040994594313, 5.7396998210896975, -0.2506381717729978, 13.55264411315691, 2.0681396528009715, 8.43526438576492, -15.091311926222081, -1.3600688832368684, -1.4408560650212796], [-5.794729921715581, 13.461029270081335, 2.504195273317131, 0.9890408286859984, -9.276715412105721, 3.268455266326725, -7.642197399425619, -7.983898985077222, 31.192234824338385, -15.321085672644596, 9.543186132184381, -8.177110114965629, -5.5768412247921395, -11.1277932991454, -12.942389475365355, 8.529473088091601]], "bias_h": [[-2.697531556547288], [-6.734900734041634], [-11.415458474049498], [-2.094960226844529], [4.423898033917874], [13.737237374790553], [5.89297052569341], [13.800643705231883], [13.127857278208701], [-8.64253396823306], [2.478090071058969], [20.576582345551028], [8.32028447026013], [2.1709612420140494], [5.952908369454177], [5.945799128531638]], "bias_o": [[0.6549646796478215], [-4.452463139851112], [-12.114225746571204], [-7.639730959639941]]}, {"input_nodes": 12, "hidden_nodes": 16, "output_nodes": 4, "weights_ih": [[-9.809020092198464, -4.299601464806226, 0.06475325942524157, 6.016564580158358, -1.7464835416466857, -2.159220769291508, -12.101508212439636, -9.648373209963166, -6.673887723232428, 3.3484758163953074, -5.162858325015426, -0.11663801096122613], [7.647968983462855, -5.262106073191115, -12.892925181219425, -2.0750579225259442, 2.5763769661128317, 5.144914063037722, 9.200204709952587, 14.076561957491105, 3.584659143488371, -2.1026292128945463, 3.0644160931009297, -3.6960451739937286], [-0.5353686346799791, 12.35732307534316, -6.530219951923784, -4.300770954502084, -12.353121499940618, -4.2297381796565645, 7.641618481608722, -11.95815841051068, 11.55088906785493, 4.756934129507084, 6.6201771617052, 4.453265376215577], [12.483946665689363, 24.600087075219623, -11.130649825242761, 10.869116886187095, 3.846172509000668, 0.3240016701565186, -2.6703145740156797, 7.081744681719112, -2.5281206337473185, -2.514808353804507, -6.56138187888024, -6.923266533650694], [1.8142464517342842, -5.857157773293733, -13.716772678958959, 1.790207176716669, -2.334326281922619, 2.2238231104086283, 3.947977537511049, -4.420004430447609, -12.733181732093291, 1.9736907926154836, 8.424271228383953, 1.7288945427912696], [-11.539922312970154, 3.688853483622726, 9.228845875534734, -3.6756797874166005, -1.0327851400921002, 19.40542466779087, 7.844624012865661, -1.9189826374379133, 10.669798902181588, -14.069265740471426, -17.423448964277547, -2.28393282589814], [-11.019619229356806, -5.748357718409017, -4.735763733879356, -2.9600191001277247, 2.5227780139337104, 5.007381630924149, 1.1734371768266358, 5.410130012788659, 1.0728218233174105, -1.446711596978614, 2.2318811498226725, 5.627708524322307], [-0.9843743693867888, 6.3493371913651115, -5.223205082344788, -4.1938042558749835, -3.9348888912112816, 2.7213025532038464, -5.211855156278685, -2.756135958381864, 11.1888099650653, -3.1190272317610326, 12.424469861104857, 2.789741908820532], [1.376368356067411, -22.742548773082536, -1.2950837144010516, 16.035321761552932, -7.149081046389865, -7.197023834772413, -12.08919719178834, 3.954120210842952, 10.819590548026985, -15.43040823453943, 0.4131842829149575, 2.8394967901056622], [-1.3478565926828885, 3.297914343264763, 3.0269007012560505, -3.510625646843781, 8.844706891958417, 0.6296752783520938, 13.045456622893058, -3.9523267230086034, 14.20888118303049, -2.1177240599103517, 1.1374318876646343, -2.0306504848244504], [-6.030219484023022, -4.61306547230681, -1.737801786930435, -4.2278902654629755, -5.052886606700466, -3.6425039714030523, 4.310384295545708, -4.863244779682879, 7.062917242233395, -9.186320654293246, -5.253807507427667, 16.12307589456907], [-5.036922376005878, -7.404233547484456, -1.7811998300562442, 8.340275115815915, -4.592839960515125, 4.135118914539602, 13.90490782425026, 6.7105153513300015, 8.477578991198529, -6.650539657775842, 0.5738735665803258, 3.755616855009169], [1.680392688176476, -4.656278183394062, -3.999778754087901, -5.217751709389306, -12.491134781526211, 29.023649814002997, -2.7272102277470505, -1.3145595082105703, 10.617962366968268, 8.6051610735798, 6.766675301515353, 13.93207376176555], [6.616241333849734, 1.4607815636524333, -6.877673173147108, -5.64277288282467, 0.890130490448729, 8.533745004673746, 0.0058093911663605335, -2.2550005792807943, 2.2918238264447046, 6.89267446408926, 2.3117277147335207, -10.537455137067381], [3.8804244042702396, 6.9466113335982085, -8.775167676056183, -1.893899432782091, -3.486565242761912, -4.893242487018552, 11.585195113807996, -9.523779249143026, 0.18079745777893716, 1.8612355482842173, 23.49123408631358, 14.427945987066312], [2.058533557946043, -5.520749549348793, -5.938958389213473, 0.12537747176381805, 2.216469107924293, -11.008978065260996, 15.18820241118236, -11.175502601067695, 3.288138313835045, -9.328148310160712, -0.5380629616219337, 7.977362665355717]], "weights_ho": [[-10.766192991166157, -3.23978004466148, -10.593188243757316, -1.388874260017863, 4.625479428080963, -22.302821400628662, 18.005478359893203, 15.20588691531686, 3.932022101319685, -0.0450141248600964, -7.105361057883887, 2.1274509384950817, 3.9673311885799167, 3.8481486544624874, 3.09499059096368, -6.353072133367914], [2.8533966766485457, -1.2529452896966615, 8.621817152942969, -8.625436403674424, 3.505158832114432, -5.253296053521979, 2.9066674016755973, 5.791401648291159, -3.352996914863239, -4.2107550650938315, 19.621065444581145, -25.44979198830266, -4.709861079074907, 2.2156314413859386, -4.34651534423251, -2.2142567376534807], [2.0505565285989342, -10.81221614775353, -15.354484530461615, 3.628469125676651, 5.919909313376794, 7.009832159922206, -4.559923512256631, -2.092237694822013, 5.862391364147652, -0.3751148715891691, 13.657221753703261, 2.0567209002768227, 8.43526438576492, -15.091311926222081, -1.3288024263103209, -1.4881426618328553], [-5.794729921715581, 13.272369967318742, 2.580528263245526, 1.1141510008388313, -9.153918756971102, 3.1866039939401816, -7.642197399425619, -7.983898985077222, 31.214381726357537, -15.316026463478867, 9.529758628692926, -8.188103632996901, -5.565133501154316, -10.970395857813369, -12.942389475365355, 8.431838786297417]], "bias_h": [[-2.670177998839562], [-6.734900734041634], [-11.275233435000876], [-2.064325552569432], [4.533434720732434], [14.001499405272922], [5.89297052569341], [13.800643705231883], [13.16382747081301], [-8.574724016288851], [2.478090071058969], [20.777445492950793], [8.369894141455863], [2.065717432612028], [5.938787310407461], [6.0911866113494115]], "bias_o": [[0.8642450959208665], [-4.574737149607811], [-12.160744587196604], [-7.590017275788796]]}, {"input_nodes": 12, "hidden_nodes": 16, "output_nodes": 4, "weights_ih": [[-9.789611552756943, -4.420245388173477, 0.2538527839843465, 5.98495155948826, -1.7464835416466857, -1.9411493384293443, -12.49533599334587, -9.699130780783781, -6.571763935309532, 3.297756766749196, -5.162858325015426, -0.028785231910968496], [7.523474515303241, -5.207379840597104, -12.67010096083079, -2.385928974375273, 2.465131898098672, 5.228538454276792, 9.200204709952587, 14.01327420284036, 3.609204167375106, -2.28628279871187, 3.0644160931009297, -3.6537426769893266], [-0.5353686346799791, 12.35732307534316, -6.661657589441728, -4.342856776503761, -12.353121499940618, -4.118459836670991, 7.662889172214031, -11.844691362838958, 11.55088906785493, 4.695048791015263, 6.508407578948881, 4.504500701744062], [12.483946665689363, 24.600087075219623, -11.130649825242761, 10.811813673664252, 3.9626235241139924, 0.38082514533651357, -2.972582057950869, 7.081744681719112, -2.54032463624351, -2.487823522223686, -6.4868314714847175, -7.008739156781157], [1.6854191724615204, -5.808027633712022, -13.716772678958959, 1.7099393254360444, -2.334326281922619, 2.2238231104086283, 3.947977537511049, -4.47772805949345, -12.733181732093291, 1.9736907926154836, 8.424271228383953, 1.689936402501481], [-11.657754867899426, 3.6888852053585444, 9.228845875534734, -3.6592873082982122, -1.0825148713312485, 19.40542466779087, 7.653616731695783, -1.9189826374379133, 10.755853791435001, -14.228484544427165, -16.978907941942055, -2.28393282589814], [-10.929373826949504, -5.6240760760328214, -4.7739299785973, -3.032251740222275, 2.5215166098553983, 5.056268719772709, 1.1734371768266358, 5.387807169950438, 1.0641021774435706, -1.3874446970015504, 2.2763827815565065, 5.583347312484698], [-0.8322761901059105, 6.25737664515602, -5.201327833708438, -4.223718715124084, -3.9466867589675094, 2.6973681435680117, -5.164290927994083, -2.756135958381864, 11.253155238693207, -3.140816109768418, 12.440429931857068, 2.824520817251934], [1.4312971644198864, -22.742548773082536, -1.2970988587294263, 15.935356321219196, -7.249668151045234, -7.197023834772413, -12.08919719178834, 4.039910390736853, 10.558567738804959, -15.40892715221992, 0.3352586494404248, 2.726366045675704], [-1.0992972940944756, 3.134643434469708, 3.0269007012560505, -3.553760549409001, 8.923904389930513, 0.7224682827094318, 13.070697052116499, -3.8818024130133213, 14.24788691036255, -1.9234386600165307, 1.2070422392619664, -1.9932971288094556], [-6.101918529959352, -4.672583907331714, -1.5946687710878913, -4.135480232529655, -5.052886606700466, -3.5996336150216073, 4.280289808092042, -4.94532766113754, 6.907964783926143, -9.114841169863677, -5.253807507427667, 16.049585028864037], [-5.170898573070527, -7.41646632209682, -1.7811998300562442, 8.323208507122153, -4.319390696052362, 4.135118914539602, 13.763016732084093, 6.66196231814062, 8.477578991198529, -6.602305089924582, 0.7270273921901081, 3.788775634816135], [1.680190157827036, -4.891739536453045, -4.051957548892088, -5.217751709389306, -12.804409970908468, 29.18564014226779, -2.5113102252910027, -1.3145595082105703, 10.527101803679363, 8.53159368796844, 6.684771769655623, 13.868188170662917], [6.616241333849734, 1.4607815636524333, -6.888470407732617, -5.64277288282467, 0.8936056003548105, 8.722033929857602, 0.0058093911663605335, -2.2899638359168484, 2.2918238264447046, 6.89267446408926, 2.28876655160984, -10.460709310315725], [3.7845817781696285, 6.934862166338013, -8.775167676056183, -1.7073675587441268, -3.5304842938974024, -4.7583290935387605, 11.401789887585952, -9.523779249143026, 0.30256997169306443, 1.9509104578019199, 23.546062045174356, 14.427945987066312], [2.1795058494510196, -5.731199228117756, -5.649874364060103, 0.1474301157134316, 2.321463109010716, -10.963460311024583, 15.245975462995515, -11.162974507976875, 3.4783908056801245, -9.293640261751511, -0.7576347196110885, 7.907178965556548]], "weights_ho": [[-10.859423641688027, -3.2087321690081847, -10.767641511833917, -1.3832047541394892, 4.526828787544938, -22.25535761110262, 17.99448800939685, 15.22877252960621, 3.8652623315779975, 0.03310758871051797, -6.991494395069516, 2.2810188758915535, 3.9556801203162912, 3.858662447350633, 3.120524826998257, -6.353072133367914], [2.8533966766485457, -1.2234828180133308, 8.621269885721118, -8.630748499131888, 3.6395091325992093, -5.253296053521979, 2.9797013815309423, 5.852519040749723, -3.352996914863239, -4.2926169732244945, 19.62059732383099, -25.44979198830266, -4.617325550309741, 2.160967038415296, -4.556444579407376, -2.2142567376534807], [2.0432641749395657, -10.81221614775353, -15.439840673226511, 3.5302363221520525, 6.008612984587033, 7.009832159922206, -4.6997899889118, -1.8913183601506864, 5.765599464421949, -0.08684375750000822, 13.718084000708158, 2.0681396528009715, 8.343546984959893, -15.091311926222081, -1.3600688832368684, -1.4881426618328553], [-5.794729921715581, 13.461029270081335, 2.5532813564509453, 0.9843783797702158, -9.215093747655754, 3.2624334678845157, -7.598677871588433, -7.983898985077222, 31.120126456970564, -15.316026463478867, 9.350397699697785, -8.23714907737661, -5.5768412247921395, -11.276534314967805, -12.808728937386663, 8.488059604090935]], "bias_h": [[-2.54118497818257], [-6.834766892358742], [-11.415458474049498], [-2.0921711397756773], [4.488482291965417], [13.699163902631529], [5.90132001534163], [13.800643705231883], [13.127857278208701], [-8.574724016288851], [2.478090071058969], [20.62528629186454], [8.304254216168358], [2.319201640355536], [6.049801493201706], [5.970043470548359]], "bias_o": [[0.5644098737230621], [-4.458264344591692], [-12.160744587196604], [-7.590017275788796]]}, {"input_nodes": 12, "hidden_nodes": 16, "output_nodes": 4, "weights_ih": [[-9.766879461425965, -4.373505484778223, 0.28532022112071115, 5.98495155948826, -1.7226432753599064, -2.0950321855903806, -12.280415346586194, -9.525244934053195, -6.673887723232428, 3.297756766749196, -5.213693585837272, -0.0657451581278139], [7.708003315997592, -5.262106073191115, -12.847153891950203, -2.1330801241945054, 2.465131898098672, 5.217427711681698, 9.203001423272621, 14.084701561796495, 3.609204167375106, -2.431893025643559, 2.9765826229532633, -3.402471838163678], [-0.5353686346799791, 12.35732307534316, -6.661657589441728, -4.300770954502084, -12.353121499940618, -4.118459836670991, 7.523840541416476, -11.948757718258648, 11.609084044262195, 4.660564509404657, 6.508407578948881, 4.4473974793113635], [12.483946665689363, 24.613895304579682, -11.087833440816931, 10.811813673664252, 3.846172509000668, 0.3240016701565186, -2.8296539067353543, 7.081744681719112, -2.5281206337473185, -2.710734743271009, -6.506758790962006, -6.79113088620004], [1.6854191724615204, -5.857157773293733, -13.921344570150573, 1.609559419214325, -2.334326281922619, 2.1953533369953533, 3.947977537511049, -4.499524718516298, -12.740439866197821, 1.9453595949828568, 8.53747010048939, 1.7288945427912696], [-11.539922312970154, 3.7704537030046676, 9.2158172703728, -3.8045130663317006, -1.0327851400921002, 19.47422000811007, 7.7337311720122965, -1.8580272772237054, 10.70360768792312, -14.228484544427165, -17.094280171684243, -2.2876244155632586], [-10.929373826949504, -5.748357718409017, -4.7739299785973, -3.0996290007423606, 2.5160138866431536, 5.1172418171842615, 1.1878220054566768, 5.454050564956584, 1.0728218233174105, -1.4120986778013238, 2.2210389813637064, 5.614461352894544], [-0.9056834131359057, 6.25737664515602, -5.201327833708438, -4.195501416976792, -3.964563623447416, 2.8347582048243782, -5.307359185555215, -2.8134134777467463, 11.25892537456205, -3.266729700060983, 12.567975007987101, 2.934553848434205], [1.3977717294250673, -22.742548773082536, -1.2970988587294263, 15.935356321219196, -7.249668151045234, -7.180896467276152, -12.27678283296887, 4.074504959147385, 10.62574269631981, -15.49620522312568, 0.4131842829149575, 2.9707017372064666], [-1.0978720585885091, 3.134643434469708, 3.037113072535322, -3.510625646843781, 8.93640134420447, 0.7224682827094318, 13.070697052116499, -3.8248015681374232, 14.27851432869508, -1.980549545057175, 1.232702278709798, -1.9261459802788459], [-5.939405276130478, -4.61306547230681, -1.6166692369530207, -4.2278902654629755, -4.870619036735613, -3.6588693393811096, 4.280289808092042, -4.94532766113754, 6.978699441660643, -9.225570914018682, -5.253807507427667, 16.122522661682524], [-5.036922376005878, -7.279445864713009, -1.7811998300562442, 8.323208507122153, -4.425271075620113, 3.8877483004851805, 13.763016732084093, 6.691071175348992, 8.267095830398937, -6.602305089924582, 0.7270273921901081, 3.7350181522932133], [1.680190157827036, -4.821869237699073, -4.112171574730726, -5.25435113544769, -12.742936505281182, 29.01693507500837, -2.7581968378467803, -1.325490918256642, 10.535623737199906, 8.53159368796844, 6.684771769655623, 13.91607108736648], [6.744868206213673, 1.4607815636524333, -6.877673173147108, -5.503384086634001, 0.890130490448729, 8.722033929857602, 0.0058093911663605335, -2.2210042540705444, 2.1932609701701793, 6.906111462164061, 2.307458939263948, -10.420682634208074], [3.8068775979675573, 6.94250846401469, -8.79911395573781, -1.780864729694797, -3.486565242761912, -4.893242487018552, 11.47556412542034, -9.523779249143026, 0.24371774957590533, 2.0278312568564694, 23.546062045174356, 14.427945987066312], [2.0200582725094356, -5.869710543605556, -5.937031293655999, 0.12865431366023394, 2.198481701668885, -11.008978065260996, 15.261926120419492, -11.29177970608747, 3.4783908056801245, -9.328148310160712, -0.6252039272634444, 7.977362665355717]], "weights_ho": [[-10.859423641688027, -3.1271710543794495, -10.681869712018369, -1.370534265541532, 4.592602103269444, -22.363805065262582, 17.909107123090454, 15.310412129249036, 3.9084041786094263, -0.026047154402425065, -6.820178685823158, 2.1911750508220917, 4.065023880804279, 3.871490078526288, 3.120524826998257, -6.353072133367914], [2.8533966766485457, -1.2234828180133308, 8.500307980329433, -8.490940240207324, 3.711588021663182, -5.253296053521979, 2.9066674016755973, 5.791401648291159, -3.4568011012735425, -4.2926169732244945, 19.62059732383099, -25.44979198830266, -4.797890163661125, 2.245815332937106, -4.416203951952216, -2.2142567376534807], [2.1410708597841297, -10.821595331524646, -15.341500114834304, 3.5287069211819326, 5.933330016324693, 7.009832159922206, -4.657301417338935, -1.8436520121068265, 5.862391364147652, -0.2506381717729978, 13.658550356760458, 2.0168869734297985, 8.341422842849905, -15.091311926222081, -1.3284396105282053, -1.5742914626443878], [-5.794729921715581, 13.319095781550338, 2.452805137578966, 1.2542158208357346, -9.232716135316085, 3.1866039939401816, -7.642197399425619, -7.875796350497475, 31.192234824338385, -15.316026463478867, 9.543186132184381, -8.193170890602032, -5.5768412247921395, -11.106749198014803, -13.067856367667117, 8.488059604090935]], "bias_h": [[-2.6048062987787945], [-6.734900734041634], [-11.501362393545143], [-2.064325552569432], [4.490473508747504], [13.90836040183334], [5.89297052569341], [13.80417504169445], [13.127857278208701], [-8.574724016288851], [2.46793011552496], [20.729858593923524], [8.14683332257729], [1.995713239923225], [5.952908369454177], [5.835185121470216]], "bias_o": [[0.3912345961732035], [-4.500889951240219], [-12.029285129890862], [-7.588497633663106]]}, {"input_nodes": 12, "hidden_nodes": 16, "output_nodes": 4, "weights_ih": [[-9.844498031743603, -4.373505484778223, 0.2538527839843465, 6.007212729008644, -1.7464835416466857, -2.1118507694859883, -12.133380470400077, -9.572021488641555, -6.673887723232428, 3.297756766749196, -5.163927502950889, -0.05374377182611511], [7.647968983462855, -5.262106073191115, -12.971470594530867, -2.1330801241945054, 2.465131898098672, 5.343641692166307, 9.207346841736594, 14.076561957491105, 3.76204692467452, -2.230360583789532, 2.9477271781763266, -3.684286578675845], [-0.42356966441553046, 12.186767342541753, -6.745531446818386, -4.300770954502084, -12.353121499940618, -4.079116739658644, 7.536357964645959, -11.95815841051068, 11.55088906785493, 4.8322591447528405, 6.532434419927228, 4.504500701744062], [12.69848634304721, 24.536776557786908, -11.130649825242761, 10.93699660105329, 3.8175723146420864, 0.3240016701565186, -2.7708470349716534, 7.081744681719112, -2.5414776866983675, -2.514808353804507, -6.56138187888024, -6.947495455073164], [1.6854191724615204, -5.857157773293733, -13.735755555688549, 1.6725303876729447, -2.334326281922619, 2.2238231104086283, 3.947977537511049, -4.499524718516298, -12.733181732093291, 2.021200678898372, 8.424271228383953, 1.7454608223950066], [-11.539922312970154, 3.9818361426830906, 9.228845875534734, -3.635263860427542, -0.9692424025449763, 19.40542466779087, 7.859249318101183, -1.9189826374379133, 10.755853791435001, -14.228484544427165, -17.17271805385462, -2.28393282589814], [-10.929373826949504, -5.7080089086119825, -4.7739299785973, -2.9399852538184157, 2.662877104967004, 4.816214848071096, 1.1734371768266358, 5.476473585617563, 1.0728218233174105, -1.4405244928563585, 2.2318811498226725, 5.583347312484698], [-0.9843743693867888, 6.25737664515602, -5.201327833708438, -4.195501416976792, -3.964563623447416, 2.6776616368348463, -5.211855156278685, -2.589860378450939, 11.123641478542055, -3.016642592536429, 12.653693594673584, 2.8410583526574245], [1.4473122567294956, -22.716138902624813, -1.2970988587294263, 16.040139759780143, -7.416706808326543, -7.197023834772413, -12.031007831656806, 4.074504959147385, 10.709803222993832, -15.40892715221992, 0.4131842829149575, 2.9074886211022184], [-1.0992972940944756, 3.2529109629493167, 3.014405128662985, -3.3842328859561865, 8.845068650146784, 0.7224682827094318, 13.070697052116499, -3.8818024130133213, 14.24788691036255, -1.7947425798349317, 1.2070422392619664, -1.9391618027180295], [-5.962710200441873, -4.61306547230681, -1.6443411371676833, -4.2278902654629755, -5.130481204174273, -3.6160804995227576, 4.412896078162358, -4.94532766113754, 7.147976924535318, -9.37630374665215, -5.373126585880845, 16.165438543654272], [-4.947903117094444, -7.156055726458189, -1.7811998300562442, 8.323208507122153, -4.425271075620113, 4.135118914539602, 13.86972166192595, 6.7297552279049055, 8.689391869639914, -6.602305089924582, 0.6945710416735483, 3.6538963481937747], [1.680190157827036, -4.8732833544286915, -4.051957548892088, -5.328949495720657, -12.800440173762377, 29.062256044743577, -2.7272102277470505, -1.261886490247492, 10.617962366968268, 8.53159368796844, 6.720903756828624, 14.020893868692923], [6.616241333849734, 1.385796997524098, -6.877673173147108, -5.64277288282467, 0.890130490448729, 8.620469060501524, 0.12060399812584488, -2.3264435981394493, 2.2918238264447046, 6.57836957723741, 2.307458939263948, -10.460709310315725], [3.808705777311834, 7.162158347064393, -8.715355552867072, -1.893899432782091, -3.4208493419504733, -4.730811519495049, 11.47556412542034, -9.523779249143026, 0.30256997169306443, 2.017192416053676, 23.65457521831642, 14.427945987066312], [2.2182830858831224, -5.586170563223306, -5.853879469203534, 0.20535932165745377, 2.3835723124286665, -11.055003013829195, 15.238703986295228, -11.393741771215208, 3.4783908056801245, -9.328148310160712, -0.8989594819465303, 7.968389008835078]], "weights_ho": [[-10.859423641688027, -3.1593057963783293, -10.519570022529138, -1.420495237300656, 4.715748634176692, -22.25535761110262, 18.005478359893203, 15.23791672688387, 3.732845653658029, -0.03030368367777058, -6.959539816603999, 2.124348275155603, 3.931709066063037, 3.858662447350633, 3.150060026885442, -6.353072133367914], [2.8610781651090367, -1.2234828180133308, 8.723595113907104, -8.561084936783491, 3.6395091325992093, -5.325984018116443, 2.9066674016755973, 5.83761311599273, -3.5197514824457743, -4.2926169732244945, 19.742373391825794, -25.43246218488387, -4.797890163661125, 2.3211580484532366, -4.536039005720106, -2.2142567376534807], [2.044898872943408, -10.81221614775353, -15.237751988423579, 3.5614636894549214, 5.919909313376794, 7.009832159922206, -4.802002541997046, -1.9660202006302072, 5.952018384466029, -0.2506381717729978, 13.657221753703261, 1.9815533535165863, 8.43526438576492, -15.031210961092274, -1.3600688832368684, -1.6660467615866357], [-5.80525483342656, 13.66106845217924, 2.5270900922665738, 1.191078999512652, -9.345884185458797, 3.1866039939401816, -7.642197399425619, -7.983898985077222, 31.192234824338385, -15.316026463478867, 9.426782805911346, -8.260465121786083, -5.644975720359999, -10.918522482777933, -12.942389475365355, 8.488059604090935]], "bias_h": [[-2.5015704552564086], [-6.534449336697165], [-11.383385131844623], [-1.9465913119066867], [4.488482291965417], [13.985124315375236], [5.801739202453201], [13.808438750399771], [13.261683598846524], [-8.461759618421425], [2.452287703585166], [20.729858593923524], [8.322372862450402], [2.1709612420140494], [5.937612233544419], [6.099719192148144]], "bias_o": [[0.6549646796478215], [-4.396748054872567], [-12.007221441045612], [-7.590017275788796]]}, {"input_nodes": 12, "hidden_nodes": 16, "output_nodes": 4, "weights_ih": [[-9.809020092198464, -4.373505484778223, 0.32793768531700784, 5.871951617131254, -1.7464835416466857, -2.0950321855903806, -12.209103104944097, -9.525244934053195, -6.673887723232428, 3.297756766749196, -5.066077791368164, -0.11377710006438618], [7.688225306853223, -5.325005157348043, -12.85540548191893, -2.1330801241945054, 2.465131898098672, 5.1533589599567105, 9.200204709952587, 14.076561957491105, 3.664229999584296, -2.230360583789532, 2.9222045424968663, -3.588325739596875], [-0.7308404201897534, 12.35732307534316, -6.661657589441728, -4.280478224106581, -12.362697838473824, -4.106839858931858, 7.536357964645959, -11.95815841051068, 11.55088906785493, 4.76964231374473, 6.52709781198088, 4.413826909304297], [12.483946665689363, 24.600087075219623, -11.16819063930449, 10.811813673664252, 3.846172509000668, 0.3694261109893906, -2.8296539067353543, 7.081744681719112, -2.5281206337473185, -2.514808353804507, -6.484267299737696, -6.979466031044812], [1.630605834396585, -5.90444773072901, -13.716772678958959, 1.7099393254360444, -2.3596174276600257, 2.2238231104086283, 3.947977537511049, -4.499524718516298, -12.733181732093291, 1.9101627871788491, 8.424271228383953, 1.7712637618854483], [-11.551860570966547, 3.688853483622726, 9.268919040359828, -3.6592873082982122, -1.0327851400921002, 19.407638907136697, 7.775364201940139, -1.9444168604429395, 10.755853791435001, -14.228484544427165, -17.138218934806908, -2.333683411202724], [-10.90289917977308, -5.748357718409017, -4.758182844461968, -2.9883589050147563, 2.66380045359825, 5.007381630924149, 1.1734371768266358, 5.625915441374599, 1.1969254429021285, -1.4405244928563585, 2.2207813212592127, 5.494200969929177], [-0.9843743693867888, 6.25737664515602, -5.19169417261188, -4.195501416976792, -3.928211557094543, 2.656929671058865, -5.335857215601957, -2.6858204770885843, 11.239881097991795, -3.03244713085495, 12.654975948900972, 2.7880020125235605], [1.3977717294250673, -22.742548773082536, -1.2891212674417631, 15.935356321219196, -7.2399158989155525, -7.197023834772413, -12.08919719178834, 4.009556985653677, 10.766943771173326, -15.40425591215544, 0.4131842829149575, 2.6337550274327253], [-1.155257087528654, 3.064034510883372, 3.0269007012560505, -3.672831452999163, 8.844706891958417, 0.7224682827094318, 13.14075175870719, -3.712589578146882, 14.148949517659606, -1.967411175355586, 1.220797280330802, -1.9932971288094556], [-6.030219484023022, -4.574210205746232, -1.6680907634750475, -4.2278902654629755, -5.047374767305188, -3.3808185162213586, 4.280289808092042, -4.94532766113754, 6.978699441660643, -9.118473955754334, -5.251852290921805, 16.118716980777887], [-5.036922376005878, -7.2565032939152925, -1.7811998300562442, 8.229942614017148, -4.3495380287954495, 4.135118914539602, 13.698270449311185, 6.7105153513300015, 8.535836541749427, -6.611888120264886, 0.7270273921901081, 3.755616855009169], [1.680190157827036, -4.738948073561103, -4.062678388745633, -5.217751709389306, -12.81215027091004, 29.062256044743577, -2.7272102277470505, -1.3882059784656573, 10.617962366968268, 8.53159368796844, 6.586815066494025, 13.960097597013162], [6.616241333849734, 1.4607815636524333, -6.772917532340062, -5.595320494210984, 0.890130490448729, 8.722033929857602, -0.020009430839717197, -2.2550005792807943, 2.2918238264447046, 6.89267446408926, 2.307458939263948, -10.460709310315725], [3.8804244042702396, 6.999559188087819, -8.652766342100385, -1.951959717690127, -3.457058163164747, -4.893242487018552, 11.47556412542034, -9.523779249143026, 0.30256997169306443, 1.991757092495751, 23.5916993552941, 14.634759168783116], [2.058533557946043, -5.731199228117756, -5.796783532087209, 0.016713693891617767, 2.321463109010716, -10.94343867762942, 15.261926120419492, -11.29177970608747, 3.4783908056801245, -9.262706293795963, -0.7300415284651544, 7.977362665355717]], "weights_ho": [[-10.859423641688027, -2.9776489733222165, -10.755653248889466, -1.4216581891281659, 4.625479428080963, -22.25970904011257, 17.986745714258024, 15.23791672688387, 4.084495681938702, 0.026856086885994432, -7.076398320470533, 2.1911750508220917, 3.8040506216871885, 3.7848327807404885, 3.120524826998257, -6.231690847167835], [2.8533966766485457, -1.2801278221492844, 8.60463326134156, -8.706670384405808, 3.6687531117324426, -5.405144457723795, 2.9066674016755973, 5.829763352312223, -3.352996914863239, -4.2926169732244945, 19.62059732383099, -25.44979198830266, -4.797890163661125, 2.2915250227585418, -4.443233563767384, -2.2142567376534807], [1.9751621043440277, -10.81221614775353, -15.341500114834304, 3.5614636894549214, 5.95048384910503, 7.085300614229159, -4.6747951607715725, -1.9777040994594313, 5.862391364147652, -0.2506381717729978, 13.657221753703261, 1.9473870368429058, 8.653102916182428, -15.091311926222081, -1.3600688832368684, -1.4684661421649694], [-5.794729921715581, 13.461029270081335, 2.3625105510509696, 0.9567194656519866, -9.232716135316085, 3.277882990543283, -7.642197399425619, -7.983898985077222, 31.192234824338385, -15.139936643980306, 9.543531561939755, -8.177110114965629, -5.578365502619365, -11.17740156703543, -13.013477943277895, 8.47059283570682]], "bias_h": [[-2.6048062987787945], [-6.83959433201249], [-11.433214984833166], [-2.0007891733737546], [4.342116313354134], [13.889007847441475], [5.89297052569341], [13.665119128117642], [13.075627801996276], [-8.574724016288851], [2.48195155858733], [20.729858593923524], [8.304254216168358], [2.3420663760959353], [5.952908369454177], [5.945799128531638]], "bias_o": [[0.6549646796478215], [-4.6044116315834955], [-12.160744587196604], [-7.590017275788796]]}, {"input_nodes": 12, "hidden_nodes": 16, "output_nodes": 4, "weights_ih": [[-9.750828233260949, -4.570426868689654, 0.24520722015769983, 5.98495155948826, -1.7464835416466857, -2.1260600132319287, -12.209103104944097, -9.520811630121296, -6.673887723232428, 3.298873742683263, -5.326408765413078, -0.0657451581278139], [7.772831724012552, -5.262106073191115, -12.847153891950203, -2.1689779551234847, 2.4557823807257426, 5.209293512357183, 9.200204709952587, 14.192172571385516, 3.609204167375106, -2.230360583789532, 3.0644160931009297, -3.7517771167904295], [-0.5353686346799791, 12.35732307534316, -6.661657589441728, -4.300770954502084, -12.353121499940618, -4.015388830908981, 7.61530603557638, -11.95815841051068, 11.38683518854033, 4.695048791015263, 6.5018529982667514, 4.638575430919442], [12.452205482640384, 24.600087075219623, -11.130649825242761, 10.811813673664252, 3.846172509000668, 0.3240016701565186, -2.8933755168456234, 7.081744681719112, -2.4875594133728223, -2.514808353804507, -6.56138187888024, -6.947495455073164], [1.6951164716247686, -5.857157773293733, -13.675264031875054, 1.7099393254360444, -2.334326281922619, 2.2238231104086283, 4.0269060849030724, -4.447094854356046, -12.717427863852004, 1.9736907926154836, 8.424271228383953, 1.7288945427912696], [-11.418974263798054, 3.6198323339008076, 9.228845875534734, -3.6592873082982122, -1.0327851400921002, 19.40542466779087, 7.855344603527361, -1.946223470472694, 10.723213844532678, -14.298663716228662, -17.088676139455764, -2.28393282589814], [-11.036403972442521, -5.748357718409017, -4.7739299785973, -2.837100893880274, 2.604258018158018, 5.007381630924149, 1.1345087189869774, 5.476473585617563, 1.0728218233174105, -1.3637231713992375, 2.1308184573886986, 5.583347312484698], [-0.9843743693867888, 6.25737664515602, -5.217850955098424, -4.195501416976792, -3.9899640069350633, 2.843578201531168, -4.9826356219985195, -2.6098783735619033, 11.093642168092797, -3.158923866586362, 12.517736387778934, 2.7880020125235605], [1.3036065768621041, -22.85961931025132, -1.2970988587294263, 15.935356321219196, -7.249668151045234, -7.12824053490703, -12.08919719178834, 4.016462570033527, 10.872287405146562, -15.40892715221992, 0.07926771150893375, 2.8431512425764875], [-1.0992972940944756, 3.042521521357642, 2.9073579628944053, -3.510625646843781, 8.844706891958417, 0.7224682827094318, 13.16211029426468, -3.832390540369319, 14.326060872768089, -1.953998148321701, 1.381433244990054, -2.1317176560522584], [-6.030219484023022, -4.61306547230681, -1.737801786930435, -4.2278902654629755, -5.052886606700466, -3.6160804995227576, 4.280289808092042, -4.94532766113754, 6.892797802634737, -9.195531703744418, -5.203809333734945, 16.165438543654272], [-5.036922376005878, -7.323194948990902, -1.7811998300562442, 8.323208507122153, -4.514452223179012, 4.147952052339585, 13.759746604713769, 6.7105153513300015, 8.477578991198529, -6.602305089924582, 0.8346211606489602, 3.60608752516757], [1.680190157827036, -4.672021636228163, -4.033484556136054, -5.217751709389306, -12.807593620807465, 29.062256044743577, -2.778160856346282, -1.3145595082105703, 10.568455453469547, 8.53159368796844, 6.627076295801211, 13.727783265310178], [6.616241333849734, 1.379464489171148, -6.887949115199912, -5.64277288282467, 1.000720597804019, 8.722033929857602, 0.06986761675508783, -2.259886289737878, 2.2918238264447046, 6.89267446408926, 2.307458939263948, -10.460709310315725], [3.8804244042702396, 7.016783534027059, -8.805178116573105, -1.893899432782091, -3.5967442314114293, -4.893242487018552, 11.303951358038464, -9.554181881890845, 0.2980381635876417, 1.991757092495751, 23.546062045174356, 14.412932911074035], [2.058533557946043, -5.696961781017267, -5.853879469203534, 0.1300084066311647, 2.321463109010716, -11.035889007415578, 15.261926120419492, -11.481374631443538, 3.4783908056801245, -9.328148310160712, -0.5512319269237232, 7.977362665355717]], "weights_ho": [[-10.986692818747999, -3.133427952178956, -10.676916850382764, -1.388874260017863, 4.693934672666837, -22.25535761110262, 18.005478359893203, 15.23791672688387, 3.875273891444465, -0.0450141248600964, -6.991494395069516, 2.1911750508220917, 3.9556801203162912, 3.819721251020877, 3.120524826998257, -6.208915827590819], [2.8533966766485457, -1.2234828180133308, 8.60463326134156, -8.630748499131888, 3.6395091325992093, -5.30707545936716, 2.9066674016755973, 5.791401648291159, -3.352996914863239, -4.1388461650008885, 19.549774258475242, -25.44979198830266, -4.797890163661125, 2.3211580484532366, -4.428186641406707, -2.2142567376534807], [2.0542168686903444, -10.6395553475066, -15.341500114834304, 3.611044191020067, 5.919909313376794, 7.009832159922206, -4.700719494380585, -1.9777040994594313, 5.862391364147652, -0.3583579660762439, 13.624310679388923, 2.0681396528009715, 8.43526438576492, -15.028882443049692, -1.3190193999663913, -1.4627726695665249], [-5.794729921715581, 13.57101274188838, 2.613116339194692, 1.247915148243558, -9.235400772935032, 3.1866039939401816, -7.6466847009606695, -7.983898985077222, 31.245595624830028, -15.316026463478867, 9.361407365573044, -8.24682565578745, -5.710732912221277, -11.106749198014803, -12.942389475365355, 8.488059604090935]], "bias_h": [[-2.507026248877242], [-6.734900734041634], [-11.415458474049498], [-2.064325552569432], [4.611265965168386], [13.90836040183334], [5.876848263206369], [13.919859007597914], [13.270411160559481], [-8.504083497952445], [2.478090071058969], [20.729858593923524], [8.304254216168358], [2.2577627415880497], [5.952908369454177], [5.945799128531638]], "bias_o": [[0.6213727322323997], [-4.62261016729418], [-12.214126005767948], [-7.5051021400082725]]}, {"input_nodes": 12, "hidden_nodes": 16, "output_nodes": 4, "weights_ih": [[-9.651230063999513, -4.371435074108742, 0.4257608024156293, 5.98495155948826, -1.735942384033515, -2.0950321855903806, -12.090888844058647, -9.678689268496608, -6.673887723232428, 3.297756766749196, -5.162858325015426, -0.0657451581278139], [7.647968983462855, -5.262106073191115, -12.943801411735183, -2.148902871572045, 2.5513388062424034, 5.217427711681698, 9.159582117770896, 14.00718583197889, 3.609204167375106, -2.188076387648611, 2.990630386886597, -3.5034010732796146], [-0.5353686346799791, 12.35732307534316, -6.661657589441728, -4.342916282958895, -12.403880739823691, -4.118459836670991, 7.536357964645959, -11.95815841051068, 11.55088906785493, 4.735413094914171, 6.43686222135605, 4.481980001955136], [12.483946665689363, 24.600087075219623, -11.130649825242761, 10.779719143303927, 3.846172509000668, 0.23963905491889653, -2.8296539067353543, 7.081744681719112, -2.2633930979253765, -2.455276851373221, -6.602187739642509, -6.971523855242923], [1.501133027264737, -5.857157773293733, -13.716772678958959, 1.7099393254360444, -2.353213489689986, 2.2238231104086283, 3.947977537511049, -4.529285600360872, -12.736411025742969, 1.9736907926154836, 8.287273924959976, 1.7288945427912696], [-11.631964875527638, 3.8325864173493445, 9.228845875534734, -3.6592873082982122, -1.0782081108966473, 19.40542466779087, 7.859249318101183, -2.006874652296114, 10.755853791435001, -14.228484544427165, -17.17271805385462, -2.28393282589814], [-10.929373826949504, -5.748357718409017, -4.904760064594336, -2.8459985297912103, 2.5469917959291117, 5.007381630924149, 1.1734371768266358, 5.476473585617563, 1.0728218233174105, -1.413123436446692, 2.1144663788977645, 5.583347312484698], [-0.9843743693867888, 6.403077874861499, -5.201327833708438, -4.195501416976792, -4.038124314090998, 2.7213025532038464, -5.239295642949455, -2.756135958381864, 11.1888099650653, -3.2741662695564724, 12.64491150146692, 2.699453016942254], [1.3977717294250673, -22.742548773082536, -1.4419631691064658, 15.875222922348298, -7.249668151045234, -7.197023834772413, -12.08919719178834, 4.074504959147385, 10.709803222993832, -15.466673537443443, 0.4131842829149575, 2.8431512425764875], [-1.0628213535985858, 3.134643434469708, 3.1699240095065875, -3.510625646843781, 8.80762287924268, 0.7224682827094318, 13.070697052116499, -3.8818024130133213, 14.24788691036255, -1.980549545057175, 1.2070422392619664, -1.9932971288094556], [-6.129756549114008, -4.667737738488978, -1.737801786930435, -4.2278902654629755, -4.925256189353172, -3.6545308308634836, 4.280289808092042, -4.724113169892982, 6.947957821154095, -9.213853517009758, -5.351709415322046, 16.056218054465653], [-5.036922376005878, -7.262760479337825, -2.0217610239680432, 8.323208507122153, -4.425271075620113, 4.264979469776096, 13.763016732084093, 6.7105153513300015, 8.54490226507257, -6.630476825761407, 0.7270273921901081, 3.755616855009169], [1.7041536285579268, -4.821251464066889, -4.051957548892088, -5.217751709389306, -12.798148910148296, 29.078382346210404, -2.6410182038003374, -1.334020273470292, 10.593765049704759, 8.572953179552439, 6.613931771574295, 13.894154121294838], [6.616241333849734, 1.6699166931529787, -6.96204864893401, -5.64277288282467, 0.890130490448729, 8.722033929857602, 0.0058093911663605335, -2.265515435500433, 2.2918238264447046, 6.683116537047201, 2.307458939263948, -10.44512778669714], [3.8804244042702396, 7.016783534027059, -8.96080052127646, -1.8247442624788204, -3.486565242761912, -4.893242487018552, 11.47556412542034, -9.523779249143026, 0.30256997169306443, 1.800298212638793, 23.43292159765133, 14.427945987066312], [2.058533557946043, -5.636899613570303, -5.952400008740124, 0.23458855919116794, 2.28691276476978, -11.150864680735129, 15.261926120419492, -11.29177970608747, 3.4783908056801245, -9.328148310160712, -0.7576347196110885, 7.990175269089225]], "weights_ho": [[-10.859423641688027, -3.349697705563576, -10.607214837175281, -1.388874260017863, 4.625479428080963, -22.25535761110262, 18.005478359893203, 15.387399339933443, 3.9084041786094263, -0.026170676717169675, -7.1750697641540135, 2.0327496433573677, 3.9556801203162912, 3.862755891911561, 3.120524826998257, -6.353072133367914], [2.768601504705155, -1.2157769531864746, 8.645461542570358, -8.534730732202343, 3.6395091325992093, -5.253296053521979, 2.956367856662691, 5.820929373050672, -3.352996914863239, -4.2926169732244945, 19.64470494297318, -25.44979198830266, -4.622846621615238, 2.3211580484532366, -4.443233563767384, -2.2142567376534807], [2.1260700375238533, -11.064173735055826, -15.341500114834304, 3.4241484031372353, 5.769969799350998, 7.090977281180482, -4.657301417338935, -1.9777040994594313, 5.862391364147652, -0.3049002352220672, 13.657221753703261, 2.1151529508660127, 8.567644013058606, -14.980323010902664, -1.6263901854640253, -1.4881426618328553], [-5.794729921715581, 13.461029270081335, 2.5532813564509453, 1.2726026431776523, -9.232716135316085, 3.3773790370228243, -7.69505987989425, -7.967868354057731, 31.192234824338385, -15.28344310074837, 9.543186132184381, -8.08707208289901, -5.614476093882082, -10.9954131534383, -12.896984018240417, 8.441877858628047]], "bias_h": [[-2.5071651589631463], [-6.734900734041634], [-11.415458474049498], [-2.064325552569432], [4.488482291965417], [13.77559788735034], [5.89297052569341], [13.800643705231883], [13.21205505196878], [-8.574724016288851], [2.3553092822447055], [20.729858593923524], [8.247987945199696], [2.1928335004713104], [5.952908369454177], [5.945799128531638]], "bias_o": [[0.7115640575362883], [-4.324744493693582], [-12.146812843026527], [-7.590017275788796]]}, {"input_nodes": 12, "hidden_nodes": 16, "output_nodes": 4, "weights_ih": [[-9.83973485012334, -4.61235991330288, 0.2707524886045031, 5.98495155948826, -1.7464835416466857, -2.0243632778811116, -12.209103104944097, -9.47543319690501, -6.673887723232428, 3.4057047949281207, -5.162858325015426, -0.2533063697698751], [7.711152815429441, -5.262106073191115, -12.847153891950203, -2.26313425618882, 2.465131898098672, 5.008801345833578, 9.333863547241297, 14.076561957491105, 3.5610285754659565, -2.3291331625977465, 3.0644160931009297, -3.6237317959050688], [-0.5353686346799791, 12.473619954250353, -6.661657589441728, -4.300770954502084, -12.353121499940618, -4.269319047594507, 7.572064761027509, -12.055587279825886, 11.767627235119026, 4.744840816968942, 6.4923299935452485, 4.554043773204578], [12.71192780588511, 24.677259820867153, -11.130649825242761, 10.811813673664252, 3.846172509000668, 0.43331806726351885, -2.8815859354495483, 7.081744681719112, -2.5823022596812706, -2.514808353804507, -6.739666706765729, -7.027780389771911], [1.7409916281866178, -5.940020597600098, -13.67760232603781, 1.7099393254360444, -2.334326281922619, 2.0542426301550423, 3.947977537511049, -4.499524718516298, -12.733181732093291, 1.9736907926154836, 8.583675821941789, 1.7011985644634815], [-11.451828661227207, 3.688853483622726, 9.228845875534734, -3.753496441665266, -1.0327851400921002, 19.40542466779087, 7.859249318101183, -2.2581090807511774, 10.755853791435001, -14.324973157577203, -17.15788438432743, -2.28393282589814], [-10.929373826949504, -5.773155744996176, -4.7739299785973, -2.9600191001277247, 2.6603193198040227, 5.007381630924149, 1.2619658003275613, 5.4960767294819215, 1.0728218233174105, -1.513742609396792, 2.1540958299275133, 5.490071798308232], [-0.9278793984493897, 6.25737664515602, -5.244681285967443, -4.195501416976792, -3.925507385942418, 2.7213025532038464, -5.083423016900587, -2.7445232836224283, 11.344009313909833, -3.140816109768418, 12.567975007987101, 2.7443113768695286], [1.3977717294250673, -22.742548773082536, -1.1043080611035527, 15.80111658712512, -7.249668151045234, -7.3139780679974775, -12.08919719178834, 4.074504959147385, 10.466889813199346, -15.40892715221992, 0.3282037251366464, 2.8431512425764875], [-1.0992972940944756, 3.3455189866474444, 3.0151264603389984, -3.5015591694425083, 8.844706891958417, 0.6431717359741418, 13.070697052116499, -3.9056675582127216, 14.572791105668998, -1.9467911055064764, 1.2070422392619664, -1.9932971288094556], [-6.030219484023022, -4.61306547230681, -1.6583324471810486, -4.1250604115993, -5.00584671277177, -3.6160804995227576, 4.280289808092042, -4.804493343941167, 6.936837427577407, -9.278569108696475, -5.253807507427667, 16.165438543654272], [-5.070213546675081, -7.577546520903797, -1.7811998300562442, 8.323208507122153, -4.425271075620113, 4.135118914539602, 13.692997181549819, 6.7105153513300015, 8.363136423157083, -6.602305089924582, 0.7270273921901081, 3.6885209000765853], [1.5690366875917634, -4.892690408361793, -4.051957548892088, -5.217751709389306, -12.776145793811537, 29.062256044743577, -2.7272102277470505, -1.3145595082105703, 10.617962366968268, 8.53159368796844, 6.684771769655623, 13.876446543326528], [6.621749938798339, 1.5260031195470092, -6.785215227707412, -5.507007693964838, 1.0625571009374082, 8.714835660656465, 0.01697758132927845, -2.2550005792807943, 2.2918238264447046, 6.877612621662991, 2.307458939263948, -10.460709310315725], [3.8945566020150735, 7.016783534027059, -8.822585901118797, -2.0586031511394625, -3.390960192657293, -4.985572573179458, 11.332053738211878, -9.503387021821302, 0.30256997169306443, 1.991757092495751, 23.610885406673255, 14.41953712583993], [2.0219055921049573, -5.731199228117756, -5.853879469203534, 0.1300084066311647, 2.321463109010716, -11.008978065260996, 15.261926120419492, -11.345518879626617, 3.4712955712697537, -9.048913044749073, -0.7576347196110885, 7.977362665355717]], "weights_ho": [[-10.803207385836883, -3.23978004466148, -10.48889086463593, -1.3756528522936255, 4.625479428080963, -22.32945784368919, 17.94951112009195, 15.036012307517506, 3.9084041786094263, -0.0450141248600964, -6.898409790877596, 2.281859727384486, 3.7769807334415164, 3.7938529010367423, 3.120524826998257, -6.361039106660575], [2.882345793922721, -1.2234828180133308, 8.422947899443091, -8.630748499131888, 3.7150305423936554, -5.195031351747761, 2.7879678024349546, 5.791401648291159, -3.3333542656961113, -4.129461259547277, 19.674639130299617, -25.580070660473588, -4.797890163661125, 2.425888730852525, -4.463991103358943, -2.3935612954040435], [2.002492394215708, -10.81221614775353, -15.27071440220607, 3.473445794117473, 5.919909313376794, 7.009832159922206, -4.645565196763344, -1.9777040994594313, 5.772304238853018, -0.2506381717729978, 13.761291129239924, 2.0681396528009715, 8.623973230102175, -15.057806819284053, -1.3435520548594009, -1.4881426618328553], [-5.794729921715581, 13.461029270081335, 2.5532813564509453, 1.191078999512652, -9.232716135316085, 3.163283659097894, -7.631070187335442, -7.983898985077222, 31.192234824338385, -15.215400584920513, 9.543186132184381, -8.138384469561315, -5.422620112586831, -11.106749198014803, -13.138930486201104, 8.488059604090935]], "bias_h": [[-2.4643968921457247], [-6.921062336685644], [-11.358020706453189], [-2.064325552569432], [4.488482291965417], [13.90836040183334], [5.823026203380898], [13.956400665409863], [13.028665618490772], [-8.574724016288851], [2.478090071058969], [20.650129577656422], [8.267874300225024], [2.0301722902444057], [6.179915739246484], [5.945799128531638]], "bias_o": [[0.6549646796478215], [-4.500889951240219], [-12.160744587196604], [-7.590017275788796]]}, {"input_nodes": 12, "hidden_nodes": 16, "output_nodes": 4, "weights_ih": [[-9.723982120856503, -4.373505484778223, 0.2538527839843465, 5.98495155948826, -1.7450807331335612, -2.0950321855903806, -12.214746982847613, -9.525244934053195, -6.662203499020973, 3.1744334078258465, -5.2630974949338905, -0.0657451581278139], [7.717027484287705, -5.290651362478386, -12.847153891950203, -2.1330801241945054, 2.465131898098672, 5.3511848548780625, 9.200204709952587, 14.076561957491105, 3.7120344431346353, -2.230360583789532, 3.1166153826108856, -3.6384353103001135], [-0.5353686346799791, 12.35732307534316, -6.6560925593448115, -4.140767735531662, -12.36366613417319, -4.118459836670991, 7.536357964645959, -12.01538604484024, 11.46291626381449, 4.695048791015263, 6.381876659363715, 4.479599749103324], [12.467540190592583, 24.630715194747793, -11.130649825242761, 10.717751848815283, 3.9048738700463, 0.37532055785995366, -2.9559989387055743, 7.081744681719112, -2.5281206337473185, -2.514808353804507, -6.572926419560538, -7.097176980052742], [1.6854191724615204, -5.857157773293733, -13.509054130696978, 1.7099393254360444, -2.319595981818988, 2.2238231104086283, 3.9598475675996174, -4.499524718516298, -12.684098732033071, 1.9736907926154836, 8.424271228383953, 1.7288945427912696], [-11.539922312970154, 3.647688405091842, 9.228845875534734, -3.6592873082982122, -0.9821328027053057, 19.40542466779087, 7.859249318101183, -1.9189826374379133, 10.695021969671267, -14.005959670519905, -17.17271805385462, -2.28393282589814], [-10.872536156828081, -5.675354078590752, -4.7739299785973, -2.9600191001277247, 2.604258018158018, 5.219866354242371, 1.2321478002851924, 5.476473585617563, 1.0728218233174105, -1.3023484219657173, 2.2318811498226725, 5.583347312484698], [-0.9843743693867888, 6.255735324741795, -5.3811606575096524, -4.195501416976792, -3.964563623447416, 2.7213025532038464, -5.211855156278685, -2.756135958381864, 11.1888099650653, -3.1261314292636193, 12.555068641377868, 2.7880020125235605], [1.3977717294250673, -22.76203296780532, -1.2970988587294263, 15.837270905333371, -7.249668151045234, -7.197023834772413, -12.081436149318403, 4.074504959147385, 10.801773017108921, -15.40892715221992, 0.42626736582055497, 2.6630494533157654], [-1.0992972940944756, 3.134643434469708, 3.034048161877651, -3.546897107313355, 8.844706891958417, 0.7224682827094318, 13.070697052116499, -3.827739423232063, 14.24788691036255, -1.9228817517341668, 1.2070422392619664, -1.8349935352083255], [-6.229005948322477, -4.61306547230681, -1.9888738491570424, -4.2278902654629755, -5.052886606700466, -3.6411369983562496, 4.078167251087762, -4.925343653244502, 6.978699441660643, -9.138523162407381, -5.170597530703106, 16.165438543654272], [-5.036922376005878, -7.304461794144964, -1.7811998300562442, 8.323208507122153, -4.425271075620113, 4.135118914539602, 13.763016732084093, 6.737523570742028, 8.477578991198529, -6.602305089924582, 0.7270273921901081, 3.755616855009169], [1.680190157827036, -4.821251464066889, -4.193446106639841, -5.217751709389306, -12.73145075913191, 29.062256044743577, -2.7272102277470505, -1.218059220013649, 10.730150629582136, 8.428516309689018, 6.450823757280276, 13.868188170662917], [6.766548197820976, 1.4607815636524333, -6.877673173147108, -5.64277288282467, 0.7166632835387452, 8.642819139047932, 0.0058093911663605335, -2.2550005792807943, 2.2918238264447046, 6.846001847196445, 2.307458939263948, -10.460709310315725], [3.814602770744445, 7.102134342571473, -8.618735771368295, -1.8089481424330303, -3.439853502063522, -4.893242487018552, 11.421695145414853, -9.560182871949902, 0.3581728454046368, 1.8868303796737547, 23.470277903798653, 14.427945987066312], [1.9497834151807505, -5.731199228117756, -5.926646338561835, 0.1300084066311647, 2.321463109010716, -11.008978065260996, 15.149171833957832, -11.29177970608747, 3.3067289437680656, -9.328148310160712, -0.7576347196110885, 7.977362665355717]], "weights_ho": [[-10.917201541728138, -3.1951412072491165, -10.917062551327996, -1.388874260017863, 4.620198064833082, -22.25535761110262, 17.84451648532052, 15.170794542566584, 3.8751116287034137, 0.07663376033511712, -6.991494395069516, 2.1911750508220917, 3.9556801203162912, 3.858662447350633, 3.120524826998257, -6.353072133367914], [2.803691099818358, -1.2234828180133308, 8.60463326134156, -8.630748499131888, 3.63944999431029, -5.114334627895609, 2.899560906593932, 5.793359203534809, -3.352996914863239, -4.2926169732244945, 19.62059732383099, -25.524529254528392, -4.797890163661125, 2.3211580484532366, -4.486390937999888, -2.2142567376534807], [2.0432641749395657, -10.81221614775353, -15.304917140121269, 3.657082223109116, 5.919909313376794, 7.009832159922206, -4.7620074065879034, -1.8512449791774404, 5.960927421338837, -0.2506381717729978, 13.721201144368395, 2.0336035961967487, 8.43526438576492, -15.17038193772078, -1.3600688832368684, -1.4048982723033168], [-5.794729921715581, 13.461029270081335, 2.5532813564509453, 1.2541664134317165, -9.083512788545912, 3.151162501573504, -7.534889379848686, -7.983898985077222, 31.23982315481211, -15.355602793696022, 9.22916553763256, -8.267660885323679, -5.504460257233607, -11.106749198014803, -12.983004005521385, 8.488059604090935]], "bias_h": [[-2.6048062987787945], [-6.829281319468615], [-11.55888871965551], [-2.064325552569432], [4.472753289676906], [13.90836040183334], [5.890268286784871], [13.853434730316419], [13.127857278208701], [-8.618900137382406], [2.39760980898464], [20.729858593923524], [8.210763613605417], [2.1709612420140494], [5.942578464324615], [5.915874836357047]], "bias_o": [[0.6830682027733675], [-4.4310604502978865], [-12.096276853122063], [-7.590017275788796]]}, {"input_nodes": 12, "hidden_nodes": 16, "output_nodes": 4, "weights_ih": [[-9.809020092198464, -4.295591953758316, 0.2538527839843465, 5.886559491641034, -1.7464835416466857, -2.0950321855903806, -12.209103104944097, -9.525244934053195, -6.673887723232428, 3.297756766749196, -5.162858325015426, -0.0657451581278139], [7.647968983462855, -5.262106073191115, -12.778377708930282, -2.01480677095697, 2.4208925083697705, 5.217427711681698, 9.1727352441204, 14.01080980534814, 3.6318625769358595, -2.3291914144065484, 3.0644160931009297, -3.6994192044039527], [-0.6021036125819581, 12.236122986311033, -6.682337760200011, -4.300770954502084, -12.2287618768844, -4.118459836670991, 7.536357964645959, -12.129296461282603, 11.335674696775623, 4.695048791015263, 6.508407578948881, 4.594120537036375], [12.515902049494047, 24.58390557499169, -11.130649825242761, 10.768507593613526, 3.846172509000668, 0.3240016701565186, -2.8296539067353543, 7.048459442081117, -2.5281206337473185, -2.514808353804507, -6.56138187888024, -6.947495455073164], [1.8114039894590583, -5.817641429585365, -13.716772678958959, 1.7822759070121186, -2.3591928684877623, 2.2238231104086283, 3.9394529176959665, -4.499524718516298, -12.733181732093291, 2.0558078619851887, 8.415174722189906, 1.7288945427912696], [-11.396162005526874, 3.6563081668274884, 9.241425437172131, -3.6592873082982122, -1.0327851400921002, 19.334565107796895, 7.866380439820851, -1.9614115541590786, 10.755853791435001, -14.228484544427165, -17.251695370736783, -2.28393282589814], [-10.929373826949504, -5.713596293544736, -4.7739299785973, -2.9025895576543608, 2.604258018158018, 5.069703551487177, 1.1734371768266358, 5.476473585617563, 1.0217235959043232, -1.5568052855739076, 2.2322000398878417, 5.583347312484698], [-0.9843743693867888, 6.25737664515602, -5.137172111239193, -4.195501416976792, -3.964563623447416, 2.8802097321812674, -5.211855156278685, -2.637424108696161, 11.1888099650653, -3.140816109768418, 12.567975007987101, 2.7880020125235605], [1.3977717294250673, -22.742548773082536, -1.1989236897974582, 15.935356321219196, -7.3239782254603485, -7.305515977945241, -12.08293886052629, 4.074504959147385, 10.709803222993832, -15.40892715221992, 0.4131842829149575, 2.8511355704171524], [-1.0992972940944756, 3.134643434469708, 3.0269007012560505, -3.510625646843781, 8.897700324643397, 0.7224682827094318, 13.070697052116499, -3.8276314292649696, 14.200805789374062, -1.980549545057175, 1.0240464179956472, -1.822981034678265], [-5.954960535539374, -4.61306547230681, -1.794556748548531, -4.235162129011809, -5.117073207522923, -3.6160804995227576, 4.280289808092042, -4.94532766113754, 6.951420270561353, -9.186320654293246, -5.253807507427667, 16.165438543654272], [-5.036922376005878, -7.425606860472263, -1.7811998300562442, 8.323208507122153, -4.645375627440423, 4.163801369338381, 13.763016732084093, 6.7105153513300015, 8.477578991198529, -6.602305089924582, 0.7472977582260693, 3.6938309383394823], [1.680190157827036, -4.763105815665424, -4.006622727412408, -5.288715541378158, -12.742936505281182, 29.062256044743577, -2.7272102277470505, -1.3145595082105703, 10.617962366968268, 8.666028838517787, 6.698364703744121, 13.712591242943965], [6.616241333849734, 1.4607815636524333, -6.76821143352855, -5.727068934768676, 0.890130490448729, 8.722033929857602, 0.24066915303513126, -2.1428528105299622, 2.2918238264447046, 6.89267446408926, 2.2783797735478015, -10.460709310315725], [3.8804244042702396, 6.8467891548961965, -8.838159870354088, -1.9451330015659163, -3.486565242761912, -5.02805710227921, 11.47556412542034, -9.523779249143026, 0.35969208094988386, 2.0008367861566976, 23.546062045174356, 14.427945987066312], [2.058533557946043, -5.741876238940932, -5.892066172794374, -0.02860218876635265, 2.287234497564468, -11.008978065260996, 15.261926120419492, -11.12467990237769, 3.4783908056801245, -9.307978544170705, -0.7843490296505268, 8.042190345599014]], "weights_ho": [[-10.637736305007603, -3.23978004466148, -10.670001210033613, -1.388874260017863, 4.640222929061389, -22.25535761110262, 18.005478359893203, 15.23791672688387, 4.078966819202065, -0.0450141248600964, -7.039751073205476, 2.154199702408617, 4.15599166114675, 3.858662447350633, 3.120524826998257, -6.353072133367914], [2.769693123175383, -1.1338361989808767, 8.60463326134156, -8.602753813246675, 3.6243305368662924, -5.253296053521979, 2.9935721248197864, 5.791401648291159, -3.2182902975617274, -4.2926169732244945, 19.62059732383099, -25.65431379643507, -4.865784736487478, 2.3211580484532366, -4.443233563767384, -2.2142567376534807], [2.1142827169394356, -10.802426948803951, -15.3827349829443, 3.523964045506708, 5.937034187296464, 7.009832159922206, -4.657301417338935, -1.7917791769970255, 5.862391364147652, -0.2841767695585323, 13.657221753703261, 2.1141411539937316, 8.43526438576492, -15.180041525419092, -1.384439086281209, -1.4881426618328553], [-6.08301232084014, 13.465604329720074, 2.5532813564509453, 1.2581182685548533, -9.118769519057897, 3.1664685921089895, -7.748258071029524, -8.026801567676026, 31.192234824338385, -15.316026463478867, 9.543186132184381, -8.177110114965629, -5.5768412247921395, -11.106749198014803, -12.942389475365355, 8.488059604090935]], "bias_h": [[-2.6183849936358303], [-6.734900734041634], [-11.186230051877779], [-2.0605843870189506], [4.488482291965417], [13.90836040183334], [5.888908374576073], [13.800643705231883], [13.127857278208701], [-8.574724016288851], [2.373709347368], [20.729858593923524], [8.304254216168358], [2.1709612420140494], [5.952908369454177], [5.945799128531638]], "bias_o": [[0.7306483775044963], [-4.500889951240219], [-12.037483022362107], [-7.279365649833009]]}, {"input_nodes": 12, "hidden_nodes": 16, "output_nodes": 4, "weights_ih": [[-9.809020092198464, -4.460697820541124, 0.2538527839843465, 6.069914189296721, -1.730589515552647, -2.28016865727226, -12.361086431368538, -9.372407656002084, -6.523488490280584, 3.352865534721477, -5.1060637288651805, -0.03894041441734665], [7.647968983462855, -5.262106073191115, -12.847153891950203, -2.0591877357625474, 2.4123636029627815, 5.217427711681698, 9.335916262908611, 14.076561957491105, 3.609204167375106, -1.977241258357049, 3.074781778307202, -3.6237317959050688], [-0.5353686346799791, 12.35732307534316, -6.661657589441728, -4.300770954502084, -12.147641700585844, -4.118459836670991, 7.536357964645959, -11.92190784096791, 11.55088906785493, 4.7582639897509935, 6.508407578948881, 4.504500701744062], [12.483946665689363, 24.448701517171365, -11.130649825242761, 10.811813673664252, 3.9366997422690386, 0.24783202213516234, -2.848590183240462, 7.081744681719112, -2.5281206337473185, -2.514808353804507, -6.56138187888024, -6.947495455073164], [1.6854191724615204, -5.857157773293733, -13.805040350749005, 1.7099393254360444, -2.4117275073303985, 2.2238231104086283, 3.947977537511049, -4.575124620514055, -12.733181732093291, 1.9736907926154836, 8.424271228383953, 1.7288945427912696], [-11.503682942646565, 3.6055093067053736, 9.339790714301131, -3.6592873082982122, -1.0327851400921002, 19.368697321877672, 7.849346787684557, -2.0996107046104453, 10.755853791435001, -14.228484544427165, -17.18509432718548, -2.28393282589814], [-10.929373826949504, -5.748357718409017, -4.7739299785973, -2.9600191001277247, 2.5712900584088794, 5.007215758263632, 1.207485203508201, 5.490534893780062, 1.0728218233174105, -1.4969909152927334, 2.1927654090515754, 5.657960020984703], [-0.9942086076195148, 6.25737664515602, -5.201327833708438, -4.195501416976792, -3.964563623447416, 2.721534326561928, -5.093393137673742, -2.715173774675669, 11.091649518250504, -3.094519228522443, 12.567975007987101, 2.834272425742543], [1.3118132308862163, -22.742548773082536, -1.203974181504867, 15.916478185292101, -7.303797951295069, -7.255478771448823, -12.08919719178834, 4.182886787554604, 10.709803222993832, -15.40892715221992, 0.4131842829149575, 2.615127788765979], [-1.0992972940944756, 3.090916556751298, 3.225557491481537, -3.510625646843781, 8.575228743960098, 0.7224682827094318, 13.114647440426667, -3.8818024130133213, 14.24788691036255, -2.016027959177952, 1.2070422392619664, -2.234757788086604], [-5.929027855311275, -4.559817635171487, -1.729989161145604, -4.2278902654629755, -5.135884683254058, -3.49839263861855, 4.280289808092042, -4.94532766113754, 7.009116431253116, -9.18576020466432, -5.359133256292219, 16.321785602618945], [-4.981253765243933, -7.304461794144964, -1.7293680439957273, 8.323208507122153, -4.425271075620113, 4.146805321382144, 13.881552502635396, 6.7105153513300015, 8.331863622383047, -6.623226587427615, 0.8300370161804346, 3.755616855009169], [1.680190157827036, -4.75780423592598, -4.019492036180544, -5.103921450801281, -12.846889940014247, 29.154350703561086, -2.7272102277470505, -1.374830098838302, 10.637042454035708, 8.707626135876662, 6.587994903557498, 13.82321691367781], [6.654587792521614, 1.4607815636524333, -6.877673173147108, -5.64277288282467, 0.900077082940021, 8.722033929857602, 0.1620200542359947, -2.167671990274637, 2.3140664406968, 6.89267446408926, 2.322321493310787, -10.366122143251442], [3.8804244042702396, 7.016783534027059, -8.775167676056183, -1.893899432782091, -3.486565242761912, -4.893242487018552, 11.66047813545139, -9.523779249143026, 0.45183344575242523, 2.112907415810801, 23.546062045174356, 14.427945987066312], [1.9721041146675486, -5.731199228117756, -5.853879469203534, 0.09931091821070608, 2.321463109010716, -11.008978065260996, 15.222380677399826, -11.29177970608747, 3.541558477748471, -9.328148310160712, -0.7576347196110885, 7.977362665355717]], "weights_ho": [[-10.884471201741354, -3.2981034310816044, -10.86885204909371, -1.4177376339601626, 4.6714784411114705, -22.25535761110262, 18.07888590230121, 15.244244361603, 3.937193322273724, -0.05194263583263011, -6.852511884575344, 1.9381131443879402, 3.9556801203162912, 3.858662447350633, 3.120524826998257, -6.366943404721631], [2.8533966766485457, -1.2234828180133308, 8.332680736538117, -8.630748499131888, 3.466467363372023, -5.253296053521979, 2.9066674016755973, 5.864867313850307, -3.352996914863239, -4.090014542473766, 19.62059732383099, -25.44979198830266, -4.86017233123753, 2.290344109644328, -4.443233563767384, -2.2142567376534807], [2.0432641749395657, -10.831392137212063, -15.497900929011335, 3.5614636894549214, 5.919909313376794, 6.781920333271015, -4.502013937350541, -2.0761937489268623, 5.838668302898214, -0.3288914269369798, 13.74134998842514, 2.0128586235262964, 8.569282399252115, -15.091311926222081, -1.4251947667561873, -1.4881426618328553], [-5.794729921715581, 13.497902451570704, 2.609580943461974, 1.2756975248988827, -9.235651048681934, 3.174464414170156, -7.642197399425619, -7.983898985077222, 31.28066653866332, -15.15062104169867, 9.543186132184381, -8.177110114965629, -5.53586620079577, -11.106749198014803, -12.942389475365355, 8.55770980276056]], "bias_h": [[-2.6048062987787945], [-6.734900734041634], [-11.323867286579366], [-2.064325552569432], [4.5709609271848], [13.90836040183334], [6.007479410996272], [13.800643705231883], [13.127857278208701], [-8.574724016288851], [2.412463725279509], [20.821679782050193], [8.26906381673232], [2.1709612420140494], [6.08786033633058], [6.2451481624682765]], "bias_o": [[0.6549646796478215], [-4.380319268123007], [-12.424690172761364], [-7.775766857181358]]}, {"input_nodes": 12, "hidden_nodes": 16, "output_nodes": 4, "weights_ih": [[-9.838727570413369, -4.34971608527139, 0.26636621019206147, 5.988729665525321, -1.7464835416466857, -2.0950321855903806, -12.028607594707088, -9.595741720636061, -6.572708487109232, 3.297756766749196, -4.953237749705877, -0.11086861154826708], [7.647968983462855, -5.262206693826039, -12.847153891950203, -2.1330801241945054, 2.465131898098672, 5.137670889809594, 9.11984131666413, 14.076561957491105, 3.771506732134199, -2.230360583789532, 3.0644160931009297, -3.6237317959050688], [-0.4512691484576069, 12.480959567706233, -6.661657589441728, -4.300770954502084, -12.353121499940618, -4.118459836670991, 7.536357964645959, -11.95815841051068, 11.66454548030975, 4.695048791015263, 6.508407578948881, 4.504500701744062], [12.51802354104219, 24.600087075219623, -11.130649825242761, 10.834767578922145, 3.965435481542255, 0.3240016701565186, -2.6118439226518566, 7.186339557933092, -2.5197171937619136, -2.514808353804507, -6.56138187888024, -6.947495455073164], [1.7398812842008522, -5.857157773293733, -13.73836711951, 1.7099393254360444, -2.334326281922619, 2.2238231104086283, 3.985658781238085, -4.499524718516298, -12.733181732093291, 1.9736907926154836, 8.333056329722037, 1.7288945427912696], [-11.362087707010934, 3.688853483622726, 9.388443956999255, -3.6592873082982122, -1.0327851400921002, 19.40542466779087, 7.859249318101183, -1.8038474155972644, 10.755853791435001, -14.32369746794329, -17.17271805385462, -2.3432083621263238], [-10.929373826949504, -5.748357718409017, -4.7739299785973, -2.9600191001277247, 2.604258018158018, 5.025647409269198, 1.0294864225170877, 5.481054202593722, 1.2198211193936923, -1.3216537705637368, 2.2318811498226725, 5.583347312484698], [-0.9881327089607987, 6.25737664515602, -5.34832815565006, -4.3105751527091325, -3.964563623447416, 2.692495847964077, -5.211855156278685, -2.8525278508005467, 11.1888099650653, -3.0110761725875084, 12.567975007987101, 2.7880020125235605], [1.3893416655602222, -22.742548773082536, -1.2970988587294263, 15.935356321219196, -7.249668151045234, -7.26180625636824, -12.11140680868528, 4.014286148649529, 10.709803222993832, -15.590886998170472, 0.5092404616130254, 2.9076229404908265], [-0.9440181645684449, 3.1272978138286245, 3.0742060443994244, -3.4877925358971034, 8.887506658890365, 0.7224682827094318, 13.124802188173529, -3.8818024130133213, 14.24788691036255, -2.125710000361864, 1.099727390135147, -2.0160608648479013], [-6.030219484023022, -4.61306547230681, -1.737801786930435, -4.2278902654629755, -5.052886606700466, -3.569692442389609, 4.302627973017503, -4.94532766113754, 6.978699441660643, -9.186320654293246, -5.322005983105038, 16.165438543654272], [-5.036922376005878, -7.304461794144964, -1.7811998300562442, 8.323208507122153, -4.425271075620113, 4.32255451439654, 13.763016732084093, 6.7105153513300015, 8.661685491099695, -6.602305089924582, 0.7122405315155464, 3.6295607191049375], [1.680190157827036, -4.714893208614329, -4.077341703622579, -5.187009233447493, -12.742936505281182, 29.062256044743577, -2.5589073770638384, -1.3145595082105703, 10.617962366968268, 8.53159368796844, 6.593136901385381, 13.868188170662917], [6.4992294294931385, 1.4607815636524333, -6.877673173147108, -5.6380642327383566, 0.9372899857306464, 8.828502355294214, -0.15094411660179868, -2.1475432582067766, 2.3436214823085635, 7.007148407114036, 2.4881824376730655, -10.460709310315725], [3.8804244042702396, 7.016783534027059, -8.775167676056183, -1.9379992238693151, -3.486565242761912, -4.893242487018552, 11.47556412542034, -9.585702191883854, 0.35093736247039314, 1.9752467029338587, 23.546062045174356, 14.493700588403623], [2.119993725638883, -5.731199228117756, -5.853879469203534, 0.1300084066311647, 2.4218373089817877, -11.008978065260996, 15.261926120419492, -11.342946042614484, 3.50482771957528, -9.3359159261586, -0.7576347196110885, 7.977362665355717]], "weights_ho": [[-10.859423641688027, -3.1128608075440614, -10.676916850382764, -1.388874260017863, 4.667393366632555, -22.34128942395719, 18.005478359893203, 15.275989989628574, 3.9084041786094263, 0.041103290177790866, -6.991494395069516, 2.1911750508220917, 3.8757295731856627, 3.8900672223912327, 3.045523772458323, -6.334590742798191], [3.015466981742705, -1.3135640306348233, 8.774944153112049, -8.801350054521656, 3.541241544131475, -5.253296053521979, 2.9066674016755973, 5.8482089161516075, -3.304483913228386, -4.2926169732244945, 19.633924269667865, -25.44979198830266, -4.80291937055885, 2.2029446394468324, -4.431431093062234, -2.2040376317932795], [2.143965579778308, -10.781147857886022, -15.341500114834304, 3.5614636894549214, 5.99460122486545, 7.009832159922206, -4.781788999311086, -1.9583310752294465, 5.862391364147652, -0.2506381717729978, 13.8066981118723, 2.032918842740153, 8.427580963106037, -15.091311926222081, -1.3600688832368684, -1.5130189218971706], [-5.523665741538486, 13.461029270081335, 2.5829232695965763, 1.191078999512652, -9.17851486633008, 3.2179290942726504, -7.642197399425619, -8.099054286318362, 31.139571145970727, -15.316026463478867, 9.573226331460596, -8.177110114965629, -5.5768412247921395, -11.106749198014803, -13.163705462884126, 8.63186118664891]], "bias_h": [[-2.648415819563004], [-6.734900734041634], [-11.370719857990581], [-2.064325552569432], [4.4130542571107325], [13.865026527556209], [5.89297052569341], [13.908962310347825], [13.127857278208701], [-8.574724016288851], [2.5170722503929333], [20.798160288260423], [8.304254216168358], [2.4610569390174915], [5.952908369454177], [5.997034557965742]], "bias_o": [[0.6549646796478215], [-4.500889951240219], [-11.970839967915671], [-7.590017275788796]]}, {"input_nodes": 12, "hidden_nodes": 16, "output_nodes": 4, "weights_ih": [[-9.925549123795927, -4.232846034950643, 0.2538527839843465, 5.98495155948826, -1.6930595314880603, -2.0950321855903806, -12.209103104944097, -9.40576493637157, -6.673887723232428, 3.3845251547577564, -4.980589676147566, 0.008699503708474984], [7.647968983462855, -5.262106073191115, -12.847153891950203, -2.1330801241945054, 2.7051646828952602, 5.141342758789835, 9.256277564521799, 14.325304216870864, 3.609204167375106, -2.2922203035973783, 3.0644160931009297, -3.6761760154494416], [-0.5353686346799791, 12.35732307534316, -6.555032876471579, -4.338236732184248, -12.38295599451601, -4.118459836670991, 7.527854979563879, -11.95815841051068, 11.395414330306565, 4.695048791015263, 6.5918191407435645, 4.504500701744062], [12.483946665689363, 24.634300829074675, -11.130649825242761, 10.884080870660902, 3.9556025306696427, 0.3240016701565186, -3.0891889678840725, 7.246782218496839, -2.495545481584414, -2.514808353804507, -6.56138187888024, -6.770375804960661], [1.4764624706892784, -5.857157773293733, -13.716772678958959, 1.7099393254360444, -2.5387920459351037, 2.2599374524107994, 3.947977537511049, -4.497031727211191, -12.704435654238617, 2.107957098721961, 8.424271228383953, 1.7288945427912696], [-11.632166084432708, 3.688853483622726, 9.228845875534734, -3.6592873082982122, -0.8590428610612164, 19.40542466779087, 7.859249318101183, -1.9189826374379133, 10.640740996919448, -14.228484544427165, -17.33098639786345, -2.283097516692482], [-10.92477632911526, -5.648211869951421, -4.723658457534825, -2.9717274783732255, 2.604258018158018, 5.189852782445581, 1.1734371768266358, 5.422739121525774, 0.868212103129065, -1.4405244928563585, 2.2318811498226725, 5.583347312484698], [-1.016095224941048, 6.25737664515602, -5.201327833708438, -4.195501416976792, -3.964563623447416, 2.7213025532038464, -5.211855156278685, -2.70021118812416, 11.1888099650653, -3.172898134876318, 12.567975007987101, 2.6080268801094575], [1.3617512661443685, -22.704868973024343, -1.2428330408569905, 15.935356321219196, -7.249668151045234, -7.350275381058786, -12.178164288211404, 4.074504959147385, 10.950121227787779, -15.551903490499559, 0.5744035241133394, 2.7958954144277843], [-1.042193592480388, 3.134643434469708, 3.0269007012560505, -3.510625646843781, 8.716229478251673, 0.5548514051373561, 13.070697052116499, -3.8340155947021537, 14.315762726779157, -2.0413983147270987, 1.2070422392619664, -1.9589880268057664], [-6.263068160330635, -4.61306547230681, -1.7196610609517293, -4.2278902654629755, -5.052886606700466, -3.670163103469983, 4.280289808092042, -4.94532766113754, 6.978699441660643, -9.272038253039673, -5.253807507427667, 16.100345899831552], [-5.036922376005878, -7.1925113999609875, -1.7811998300562442, 8.323208507122153, -4.4581469129307205, 4.135118914539602, 13.763016732084093, 6.7105153513300015, 8.530609042080943, -6.602305089924582, 0.7106780506638017, 3.938140847781305], [1.680190157827036, -4.821251464066889, -4.007369061707436, -5.217751709389306, -12.755569535005268, 29.062256044743577, -2.608729654129992, -1.321142652632398, 10.617962366968268, 8.50502657887923, 6.687749000559377, 13.868188170662917], [6.714633354582384, 1.4607815636524333, -6.877673173147108, -5.64277288282467, 0.8987416261164805, 8.586198238309931, 0.08014198416496748, -2.0946052711418046, 2.329363070376814, 6.89267446408926, 2.307458939263948, -10.38373052221744], [3.988742034949988, 6.924952010136178, -8.775167676056183, -1.893899432782091, -3.5308110809160698, -4.893242487018552, 11.47556412542034, -9.358116858077649, 0.30256997169306443, 1.947523371525857, 23.546062045174356, 14.328887933036972], [2.0005115430721667, -5.731199228117756, -5.84328432267374, 0.06496898662420923, 2.3661676082979755, -11.008978065260996, 15.261926120419492, -11.220031576385079, 3.5286015477023396, -9.58117278299401, -0.7576347196110885, 7.792187069513746]], "weights_ho": [[-10.744957666412208, -3.23978004466148, -10.676916850382764, -1.4747286082296882, 4.625479428080963, -22.211666233846017, 18.005478359893203, 15.23791672688387, 4.008838950034926, -0.0450141248600964, -6.991494395069516, 2.2767225544849192, 3.9556801203162912, 3.858662447350633, 3.279962064904881, -6.353072133367914], [2.7869892925210307, -1.2234828180133308, 8.595222420908211, -8.630748499131888, 3.6395091325992093, -5.253296053521979, 2.9066674016755973, 5.791401648291159, -3.352996914863239, -4.2926169732244945, 19.62059732383099, -25.579778184375353, -4.728549367062636, 2.3211580484532366, -4.443233563767384, -2.2142567376534807], [2.0432641749395657, -10.81221614775353, -15.259520860293506, 3.5020863517557825, 5.917442819838248, 7.009832159922206, -4.657301417338935, -1.9777040994594313, 5.834002932636353, -0.2506381717729978, 13.657221753703261, 2.0681396528009715, 8.506646497402627, -14.995644618447702, -1.3343061337999205, -1.5610348120529105], [-5.582467697016167, 13.42839308550874, 2.748950397659047, 1.191078999512652, -9.232716135316085, 3.496130536310296, -7.634930046003355, -7.983898985077222, 31.192234824338385, -15.316026463478867, 9.471072899497626, -8.255922927023452, -5.5768412247921395, -11.164935021257103, -12.892396760486111, 8.488059604090935]], "bias_h": [[-2.6564904455264373], [-6.734900734041634], [-11.415458474049498], [-1.937537159588163], [4.620069181433227], [13.90836040183334], [5.915956448132855], [13.800643705231883], [13.127857278208701], [-8.574724016288851], [2.478090071058969], [20.820314378570153], [8.269223581102764], [2.1652711607419795], [5.95157609014538], [5.945799128531638]], "bias_o": [[0.6549646796478215], [-4.500889951240219], [-12.160744587196604], [-7.590017275788796]]}, {"input_nodes": 12, "hidden_nodes": 16, "output_nodes": 4, "weights_ih": [[-9.891189725339286, -4.196286842786793, 0.16556197528024336, 6.112358560696612, -1.7464835416466857, -2.1239185340706923, -12.16468333472323, -9.525244934053195, -6.673887723232428, 3.256258331504123, -5.249463897202463, -0.08756797712438424], [7.657146801780088, -5.262106073191115, -12.847153891950203, -2.1330801241945054, 2.465131898098672, 5.217427711681698, 9.25277460754738, 14.172218918700098, 3.609204167375106, -2.230360583789532, 2.9560877701778825, -3.7577642738794843], [-0.5353686346799791, 12.35732307534316, -6.661657589441728, -4.184470686497775, -12.188094854318294, -4.118459836670991, 7.598485792460435, -11.97829713295828, 11.55357712091065, 4.658101505888232, 6.499633572435301, 4.504500701744062], [12.483946665689363, 24.600087075219623, -11.194404402350182, 10.811813673664252, 3.7691274890602187, 0.45742401929414633, -2.658603485346749, 7.081744681719112, -2.5281206337473185, -2.514808353804507, -6.5811206020125255, -6.947495455073164], [1.6854191724615204, -5.8994045166666105, -13.716772678958959, 1.795726766927708, -2.334326281922619, 2.2105178119299422, 3.7867113329983217, -4.499524718516298, -12.733181732093291, 1.908851962313221, 8.424271228383953, 1.727540628177133], [-11.560992597290097, 3.79561979564149, 9.14416132992075, -3.703506291630316, -0.9559212010695983, 19.40542466779087, 7.859249318101183, -2.127950948760747, 10.755853791435001, -14.194850490554717, -17.17271805385462, -2.1331326092054628], [-10.929373826949504, -5.748357718409017, -4.699534970415657, -3.0545018198951794, 2.604258018158018, 5.007381630924149, 0.9302963376587416, 5.434882389671954, 0.9430557263639845, -1.4355726642126252, 2.2318811498226725, 5.583347312484698], [-0.9843743693867888, 6.374603746897757, -5.201327833708438, -4.195501416976792, -3.880383329088792, 2.757080796746792, -5.083146525681282, -2.756135958381864, 11.226554314174848, -3.140816109768418, 12.7031927458062, 2.6290708032420027], [1.3977717294250673, -22.742548773082536, -1.247702195287062, 15.947484575249973, -7.249668151045234, -7.264379161042158, -12.10433778763891, 4.074504959147385, 10.709803222993832, -15.40892715221992, 0.4160367269838092, 2.796810067482248], [-1.0992972940944756, 3.134643434469708, 3.0269007012560505, -3.510625646843781, 8.844706891958417, 0.7224682827094318, 13.070697052116499, -3.8818024130133213, 14.24788691036255, -2.0716320506615165, 1.2718453044680924, -1.9456180295877201], [-6.030219484023022, -4.559846874257955, -1.7701554975538834, -4.260144728380584, -5.052886606700466, -3.6160804995227576, 4.280289808092042, -4.836500467729397, 6.978699441660643, -9.166188134688612, -5.256202801217374, 16.165438543654272], [-5.036922376005878, -7.317908153633491, -1.7811998300562442, 8.323208507122153, -4.425271075620113, 4.143379813843364, 13.763016732084093, 6.74861433962752, 8.477578991198529, -6.602305089924582, 0.7625740541751553, 3.6378208312767115], [1.680190157827036, -4.821251464066889, -4.051957548892088, -5.217751709389306, -12.89528843538911, 28.99636300009207, -2.8769878417408137, -1.3145595082105703, 10.617962366968268, 8.627176120488755, 6.684771769655623, 13.782264660263115], [6.616241333849734, 1.4607815636524333, -6.704125258597394, -5.64277288282467, 0.895406060240338, 8.722033929857602, 0.0058093911663605335, -2.2550005792807943, 2.2918238264447046, 6.683717907573384, 2.1966436598882004, -10.460709310315725], [3.936839683359795, 7.086121722790737, -8.775167676056183, -1.9200107207145878, -3.486565242761912, -4.893242487018552, 11.48349986679994, -9.523779249143026, 0.30256997169306443, 1.991757092495751, 23.58551803752105, 14.427945987066312], [2.058533557946043, -5.798930463535287, -5.8052435847109125, 0.1300084066311647, 2.321463109010716, -11.008978065260996, 15.261926120419492, -11.29177970608747, 3.5576090807982657, -9.328148310160712, -0.7088543340987853, 7.977362665355717]], "weights_ho": [[-10.859423641688027, -3.23978004466148, -10.676916850382764, -1.388874260017863, 4.625479428080963, -22.165473286096976, 18.115975522916543, 15.23791672688387, 3.9084041786094263, -0.0450141248600964, -6.833125385581291, 2.223007450685957, 3.9556801203162912, 3.858662447350633, 3.120524826998257, -6.353072133367914], [2.8533966766485457, -1.2234828180133308, 8.60463326134156, -8.632144865160113, 3.6395091325992093, -5.253296053521979, 3.022861597049187, 5.791401648291159, -3.1595706290797536, -4.2926169732244945, 19.514167800813542, -25.3726219928173, -4.797890163661125, 2.3211580484532366, -4.443233563767384, -2.2142567376534807], [2.0202068968095253, -10.870200546523035, -15.341500114834304, 3.4437664284889244, 6.064281727669097, 7.10561068075299, -4.807391701461446, -2.0985013020369987, 5.825310755327346, -0.2506381717729978, 13.553922222453124, 2.0681396528009715, 8.43526438576492, -15.002602066647357, -1.4856056715750159, -1.5037199086364557], [-5.713235965597316, 13.426717235182261, 2.5415034587420187, 1.191078999512652, -9.23788162189413, 3.2754314119278893, -7.674425289597956, -8.017195473487966, 31.181611820750657, -15.396651193964866, 9.543186132184381, -8.177110114965629, -5.5768412247921395, -11.106749198014803, -12.970469550220674, 8.441057280799873]], "bias_h": [[-2.652472198203053], [-6.734900734041634], [-11.415458474049498], [-2.064325552569432], [4.488482291965417], [13.94121399870238], [5.909885929984462], [13.800643705231883], [13.216727031806457], [-8.412457716848579], [2.4909746868988627], [20.729858593923524], [8.271605082336436], [2.1709612420140494], [5.952908369454177], [6.068213196148156]], "bias_o": [[0.6095811485430511], [-4.552187168839918], [-12.251844956266455], [-7.534176144318175]]}, {"input_nodes": 12, "hidden_nodes": 16, "output_nodes": 4, "weights_ih": [[-9.809020092198464, -4.375309574931833, 0.37353956761823826, 5.906239639064398, -1.8619898662459846, -2.0950321855903806, -12.209103104944097, -9.525244934053195, -6.585892155054581, 3.297756766749196, -5.116021204837319, -0.0657451581278139], [7.636049055230654, -5.320796230288265, -12.874503231379355, -2.051550486938229, 2.465131898098672, 5.189148100133407, 9.200204709952587, 14.147626981483878, 3.609204167375106, -2.07984907728396, 3.05842459359698, -3.6237317959050688], [-0.6100667106735899, 12.138832732779104, -6.617161035098022, -4.168039054151387, -12.591762328907214, -4.127959743589876, 7.536357964645959, -11.835874015772283, 11.55088906785493, 4.638943491580599, 6.508407578948881, 4.600427972977346], [12.288709410649036, 24.600087075219623, -11.166729825885941, 10.811813673664252, 3.846172509000668, 0.20341528864571257, -2.8296539067353543, 7.081744681719112, -2.5281206337473185, -2.514808353804507, -6.597817848672811, -6.912433114588081], [1.6854191724615204, -5.991676455331557, -13.737006984356684, 1.7099393254360444, -2.334326281922619, 2.2238231104086283, 3.947977537511049, -4.499524718516298, -12.733181732093291, 1.9736907926154836, 8.489632254594511, 1.8362865953964616], [-11.455408019139321, 3.688853483622726, 9.228845875534734, -3.6592873082982122, -1.0327851400921002, 19.45492444120464, 7.859249318101183, -1.8643504137612692, 10.664722819326647, -14.234878190460652, -17.158431179010208, -2.347227470998908], [-10.929373826949504, -5.748357718409017, -4.870577568512356, -2.9600191001277247, 2.632483982526719, 5.007381630924149, 1.1734371768266358, 5.476473585617563, 1.0728218233174105, -1.4405244928563585, 2.2318811498226725, 5.4983149567711695], [-0.8860975127174461, 6.312981980851816, -5.201327833708438, -4.165028838397291, -3.8635502077255888, 2.7213025532038464, -5.467361219460168, -2.756135958381864, 11.1888099650653, -3.1118492958261177, 12.567975007987101, 2.7880020125235605], [1.3977717294250673, -22.742548773082536, -1.2970988587294263, 15.935356321219196, -7.249668151045234, -7.225114234706269, -12.182228894640016, 4.074504959147385, 10.709803222993832, -15.40892715221992, 0.3844084038860807, 3.0733982652613596], [-1.0992972940944756, 3.134643434469708, 3.0442674172320197, -3.398830683387484, 8.926418592110059, 0.7224682827094318, 13.092575699904392, -3.8818024130133213, 14.237673905563485, -1.9443700473113805, 1.2070422392619664, -1.9970507752707554], [-6.039942493411209, -4.554721023798751, -1.8469038473621613, -4.132461197986042, -4.862443448900269, -3.6160804995227576, 4.280289808092042, -5.159184608898067, 6.978699441660643, -9.186320654293246, -5.253807507427667, 16.357141782353764], [-5.036922376005878, -7.229094090655326, -1.7811998300562442, 8.141900510531368, -4.4945341885938115, 4.129408109658787, 13.835541623109105, 6.62003322483398, 8.477578991198529, -6.602305089924582, 0.7270273921901081, 3.760019067361641], [1.7053677949828752, -4.821251464066889, -4.051957548892088, -5.4491255264289995, -12.742936505281182, 29.062256044743577, -2.7033498211718356, -1.1224315690053202, 10.617962366968268, 8.53159368796844, 6.684771769655623, 