{"generation": 46000, "population": [{"input_nodes": 12, "hidden_nodes": 16, "output_nodes": 4, "weights_ih": [[-0.1659224890908355, 5.634461987778737, -7.676890422881467, -7.9709347891010935, 3.71393771564104, -8.970887841258566, 7.039986080576497, -0.4320163655365121, 4.120854592429668, 1.471458659245576, -7.19467112353184, -15.692890612222595], [0.3642062703385768, -13.992663300112282, 3.7723446188731877, -2.100234304163993, 10.677309072919686, -2.824369314929945, 18.446850098940406, 8.49192617694226, -1.2902722479742001, -6.307682996883218, -10.483190408382283, 18.198577847625103], [10.868082954543706, 2.5349680900329243, -5.297475172967209, 7.9987806201849105, -14.403597992903338, -8.077573609265578, 13.360479749912091, -15.155019704142251, 20.89606038881269, -4.823397266034556, 13.797934146542909, -2.212571384718216], [1.2186889189524048, 27.903345806478, -21.041730277881037, 5.354468683602753, -2.4730775953070356, -5.509144921315352, -8.865063845883626, 5.2187360092435195, 10.88602797746813, -2.05315079862814, 0.12406288950404042, -15.967459722419317], [0.16301898742391382, -11.844952591981961, -3.8322923303787153, -8.381342719519946, -9.684357960495607, 16.850352375766906, 6.249507197742515, -9.967702006121982, -2.6414930569270183, 11.895314203756328, 2.7835385070558267, 0.34027127211247876], [-15.503269845488393, -0.3571333976326375, 14.446959694870088, 0.22953221274363172, 3.0721532209763294, 20.808097032670933, 19.379661061683308, 4.780908889422071, 3.047626224173403, -23.198129597623705, -16.178459587667884, -17.029522576284265], [4.184479767497681, -0.7303752773046346, -12.805983614893774, 14.044719346100834, 3.8043918594224033, 7.934612669716307, 15.371348843810832, 14.67921794383046, 5.072688503323317, -2.565005520619124, 8.255504620901657, 7.086571862444864], [4.965108981982436, -0.21582463268233626, -9.470966499809448, -12.81634711948895, -4.698641349585107, 8.935477393362476, -5.321342164231162, 8.124749463825768, 18.61087459363994, -13.784669617845902, 16.60134051447527, -5.750496815375813], [0.31502174220913004, -23.428948407862123, 1.4197391780588582, 7.741468008257332, -11.591248543718349, -22.38915065100109, -3.545123729664954, 13.115323227408648, 23.52260864379044, -16.712905606717264, -2.0381681610701703, 0.8096426740949569], [3.9895208893477436, 2.3566785818827602, 16.568769258729304, 5.718176587188167, 5.174327622211864, 12.072038863735255, 6.292334159064347, -8.342717860977691, 27.348620174560004, -1.7457561462850593, -9.703687173949069, 3.771078909896377], [-14.6037175325834, 15.969617555507059, -1.0284369932032136, -1.588527849230327, -9.838837701659934, -5.638504764912293, 1.2753126128851981, -10.283228078063823, -9.784965759997167, -4.733807114448659, -4.930594833996252, 15.594605299432912], [10.129630774582303, -0.10137602152437813, -2.5545304207398445, 6.020123145945301, -10.484364898940584, 9.122996379582439, 13.198837137766459, 5.888141148269552, -12.064035894575278, -19.712931465896055, 6.782204423105201, -3.117088428744937], [-9.247111267547352, -6.905137854491123, -9.56286906657985, -5.507485606854643, -3.393746493742618, 36.7595136795732, -8.25453747168656, -5.697301526723409, 1.7113656388777463, 8.820637057175258, 8.779598746462703, 4.201204942262442], [-5.124401707743807, 15.313102225539932, -6.483247142576574, -9.958590995113411, 9.562695318014217, 8.403574239330776, -4.986081526659999, -12.315194056890064, -0.8584209776274748, 6.255211381890164, -6.7946720183520934, -13.442717832614706], [1.004308165734896, 18.67526409039822, -20.096813432350014, -7.666938727940035, -1.3819578140019455, -11.009871385748486, 16.318901821585538, -2.129323807521532, 4.504527673063379, -18.21267927517396, 30.24890313185627, 26.833980895304627], [-6.717684334368726, -21.568686389339167, -3.1992676169748617, 8.66138864005901, -9.517116927003093, -8.375677292297915, 6.352902786107369, 4.700731255308288, 16.720622872679794, -26.49500583041288, -6.033112303055704, -7.982556944726497]], "weights_ho": [[-4.488487242035529, -8.556030317477521, -1.1823222274615088, -4.661808355857658, 8.665299387777104, -22.273593507860248, 18.12109185542478, 24.79152053369222, 8.641401220515137, -3.2617379538862137, -16.570901729011492, -1.36479665675124, -5.660313930285687, 5.6818718119199225, 16.676891599973818, 4.282653070769978], [-2.343386284657461, -1.6671415952191155, 10.659558352129226, -16.0847884930022, 16.785425598444913, -11.764861372635607, 5.295613080251329, -2.0024026322282715, -6.981291897749471, 4.614244836269353, 18.14825543207202, -40.66729814069514, 0.0843829281819903, 5.811005033238287, -21.92079160028374, -7.640919492992019], [3.6744218418559353, -7.699337829305602, -3.9002113702216423, -5.156824065030048, -6.592241350823208, 10.787147902962424, -6.7569465467464065, 2.0575995387685984, 3.8881342756765194, 2.7771662642994803, 20.362070484612815, -4.513855358018209, 9.736046459567318, -23.431319571588887, -15.616906451797409, 6.710870333019813], [-0.3854882949677441, 32.94402435371842, -13.062767347850558, 9.552863292127453, -8.810218029014466, -0.7410049046718508, 10.955932072363362, -1.115986433656606, 26.99240538239012, -25.33628380516948, 6.716716801005406, -11.13174658631354, -13.460895126446301, -7.192331412216927, -6.396248307824698, 19.370861134397074]], "bias_h": [[-7.046911277257038], [-6.4182462049693045], [-16.17215490613818], [-19.403223030686306], [-3.1237459794351934], [3.947710868146066], [19.36096929146751], [20.568672657617164], [1.8680328830701345], [-1.6935068892422405], [0.5652440801619321], [15.683853468399835], [8.389068203330574], [2.1458848342715307], [13.969778763290238], [8.235169299797917]], "bias_o": [[-7.013492287201732], [-0.6985084692106298], [-13.051780043039315], [-12.709988974185917]]}, {"input_nodes": 12, "hidden_nodes": 16, "output_nodes": 4, "weights_ih": [[-0.20003551999879893, 5.570703112106947, -7.67683383641076, -7.952787889982367, 3.7689336319985185, -9.082105334045094, 7.047615635346215, -0.28048894853596806, 4.063245766245673, 1.471458659245576, -7.300389937200998, -15.692890612222595], [0.36780615308060366, -13.909138304982392, 3.7723446188731877, -2.013141701803789, 10.704859468216874, -2.846993229750136, 18.429632647106793, 8.48745358536729, -1.1801969618063632, -6.346911837013782, -10.483190408382283, 18.226081708218263], [10.868082954543706, 2.4088257819878764, -5.297475172967209, 8.151173982912333, -14.404332348111822, -8.100756735750728, 13.351141614890087, -15.225989645858212, 20.994050069660904, -4.823397266034556, 13.776759588554087, -2.1522021290868016], [1.3417843237232037, 27.936240508594572, -21.004777901503914, 5.305726207465078, -2.4730775953070356, -5.315720468065867, -8.92316673259473, 5.128740225365023, 10.81690483574599, -2.101637709699038, 0.46258454357446344, -15.949216345011962], [0.14758069394859907, -11.788249975535294, -3.739997091671465, -8.381342719519946, -9.660367552827198, 16.84271374299002, 6.26630767610885, -9.967702006121982, -2.6414930569270183, 11.791934549161422, 2.8410768929246837, 0.3298386287350652], [-15.503269845488393, -0.3571333976326375, 14.395171779508074, 0.22953221274363172, 3.0721532209763294, 20.849877983070492, 19.393044843123253, 4.721429244278992, 3.0891949462297426, -23.267124483491067, -16.227759190509936, -16.95060028718419], [4.2191039458923685, -0.7353744023832407, -12.77904249893902, 14.044719346100834, 3.8671119825836753, 7.893826024456696, 15.332738817259834, 14.632797092533433, 5.07247672491874, -2.635618100209169, 8.232424204986955, 7.195138991578573], [4.894718833645991, -0.22616641860791445, -9.78512570072182, -12.81634711948895, -4.664083880149002, 8.973548067845055, -5.224044637011717, 8.125777453922074, 18.691152377806425, -13.98688595984174, 16.781185938137327, -5.750496815375813], [0.32484120294347635, -23.428948407862123, 1.4197391780588582, 7.497544523144754, -11.536492849339592, -22.16245215859948, -3.6618264310577247, 13.021148967099474, 23.52260864379044, -16.80034415692435, -2.060999540838195, 0.7321441076103903], [3.9895208893477436, 2.2796810397246445, 16.699737100232927, 5.701532652412462, 5.102564936175605, 12.072038863735255, 6.313694395519244, -8.327408132639098, 27.49046176276352, -1.8193993862585947, -9.774437936675785, 3.8586825185681333], [-14.655338688106465, 16.031491995619255, -1.0823270342595253, -1.588527849230327, -9.542393077538351, -5.768668811096329, 1.2753126128851981, -10.135267328463732, -10.073524085623061, -4.623257180685635, -4.957049531313272, 15.54381497376182], [10.229995010853056, -0.10137602152437813, -2.5944265353854243, 6.020123145945301, -10.511387465003173, 9.122996379582439, 13.198837137766459, 5.888141148269552, -12.065462824806158, -19.704586389117665, 6.82300863283778, -3.1439133263693573], [-9.245110632578879, -6.889269035635273, -9.567558123936953, -5.3560182546317705, -3.4113043954711166, 36.7980291019799, -8.233210125098305, -5.674641969191659, 1.4526221439751765, 8.878364398183676, 8.822908333888293, 4.182277808919158], [-5.012160189524647, 15.257852082514765, -6.3896382723845, -10.065871644358232, 9.371872540638414, 8.270848404585447, -4.987708929138095, -12.261252842133414, -0.6780764475800509, 6.216712806910352, -6.838732145772216, -13.577423748733976], [1.070913070389441, 18.722414140849907, -20.102064885423687, -7.606511920373897, -1.313264070289166, -10.947068631471872, 16.36198617871509, -2.0966758035921735, 4.609075747562429, -18.302247549170968, 30.226450100501008, 26.833980895304627], [-6.911923961114031, -21.37180267054686, -3.3817498394284504, 8.793813532630617, -9.438572744835117, -8.328827552565112, 6.352902786107369, 4.65470747417742, 16.620860048424746, -26.4323962399475, -6.033112303055704, -7.991868677976044]], "weights_ho": [[-4.56268471982641, -8.60646951645732, -1.0707940115155874, -4.6930443040385255, 8.704288427574628, -22.27451289212943, 18.14883731514595, 24.554827377270144, 8.63000009199622, -3.1418791637174754, -16.594206246069064, -1.5030385103743291, -5.739307983113827, 5.601121002773199, 16.73394631515479, 4.264723859005534], [-2.343386284657461, -1.6676313183106375, 10.592659262787848, -16.316096710398043, 16.63941290179935, -11.790318335890976, 5.217677896264263, -2.0448700735438727, -7.048097398911593, 4.7451018038911545, 18.128927012083004, -40.709065023936155, 0.29673207680008884, 5.811005033238287, -21.995322158174247, -7.599727361494796], [3.6721009150107458, -7.865559142577571, -3.9002113702216423, -5.200384952004451, -6.744873952870612, 10.701776915708903, -6.745794819899965, 1.9318420563008947, 3.7568963058411082, 2.81754759647387, 20.375132807861586, -4.5228428885501195, 9.835878223638188, -23.382885484309856, -15.72448758087417, 6.918055143794871], [-0.3854882949677441, 32.92621022628965, -13.053192008292791, 9.518887277133741, -8.770014790469684, -0.780962039467654, 10.825902416546908, -1.0651851767607259, 27.053664367054377, -25.295145775693896, 6.729923552943267, -11.13174658631354, -13.40875260020811, -7.192331412216927, -6.453335870894144, 19.370861134397074]], "bias_h": [[-7.000320994798009], [-6.528450276991217], [-16.13080459050782], [-19.369976876644376], [-3.1237459794351934], [4.18533747059189], [19.378731455225427], [20.612272895978524], [1.830430659411924], [-1.6633416541141635], [0.5148581767730523], [15.695314088465658], [8.178922941440101], [2.1458848342715307], [13.983161851409143], [8.13528678203929]], "bias_o": [[-7.039096072180213], [-0.760887930513517], [-13.051780043039315], [-12.85013174975914]]}, {"input_nodes": 12, "hidden_nodes": 16, "output_nodes": 4, "weights_ih": [[-0.20003551999879893, 5.800551013373861, -7.78651544877253, -8.027998737171314, 3.7689336319985185, -8.913705392493076, 7.107929273889724, -0.45236996904056365, 4.063245766245673, 1.436691895695837, -7.225788331873949, -15.692890612222595], [0.3787912818618715, -13.909138304982392, 3.6309362161842684, -2.060061430954522, 10.851436991506349, -2.8413997664992294, 18.35417456754804, 8.48745358536729, -1.2676312220228731, -6.307682996883218, -10.483190408382283, 18.27731356316913], [10.868082954543706, 2.4088257819878764, -5.297475172967209, 8.064892975248519, -14.374262029994453, -8.077573609265578, 13.266041478913523, -15.225989645858212, 20.927330692731843, -4.73918516905628, 13.861659851262061, -2.1522021290868016], [1.19894653336751, 27.902709439806454, -20.929750745390848, 5.305726207465078, -2.4730775953070356, -5.458839353904308, -8.764439962785012, 5.246376609598323, 10.836577749780087, -2.0074117764978814, 0.11190374477354725, -15.98627121967347], [0.28860690961626473, -11.821005176171735, -3.719181181517051, -8.381342719519946, -9.835612811530478, 16.84271374299002, 6.144167978663278, -9.967702006121982, -2.5715744406651053, 11.813971313248352, 2.90113111832505, 0.45100141742528466], [-15.503269845488393, -0.4392071497578942, 14.446783886299777, 0.25410048307136746, 3.1212685330422927, 20.849877983070492, 19.37270626246467, 4.792210944863197, 3.0891949462297426, -23.198129597623705, -16.154804823406934, -16.97898936706683], [4.2191039458923685, -0.7353744023832407, -12.826496020261242, 14.106596218377456, 3.7950320456085387, 7.817465808123689, 15.292843987981815, 14.699055933405278, 5.07247672491874, -2.4443074779773264, 8.232424204986955, 7.195138991578573], [5.115479834802587, -0.3883486398022513, -9.575016815107514, -12.81634711948895, -4.664083880149002, 8.973548067845055, -5.321342164231162, 8.125777453922074, 18.648082719807807, -13.812272109878137, 16.597691359147483, -5.826976794459438], [0.19846145567641216, -23.428948407862123, 1.3798086551100686, 7.786074065925465, -11.536492849339592, -22.16245215859948, -3.623434827574187, 13.021148967099474, 23.52260864379044, -16.772954246109308, -2.060999540838195, 0.7321441076103903], [3.9895208893477436, 2.3747790638906534, 16.642952984759518, 5.775343467611225, 5.083979663489725, 12.072038863735255, 6.258530559870055, -8.329931114426113, 27.402196031477022, -1.7457561462850593, -9.783982669132998, 3.7804552294919125], [-14.742077370461518, 16.004893015204054, -1.09206772442004, -1.588527849230327, -9.811787402026228, -5.668159815311111, 1.2753126128851981, -10.392710212924255, -9.819845226934252, -4.6540785432679845, -5.001169796349655, 15.57728368287845], [10.171867806179101, -0.10137602152437813, -2.623523596988751, 6.141173369125144, -10.511387465003173, 9.122996379582439, 13.274700987438814, 5.888141148269552, -12.064035894575278, -19.573345756783073, 6.819335640565644, -3.1162159505726024], [-8.991360835227168, -6.889269035635273, -9.633254447265669, -5.464713549711169, -3.4113043954711166, 36.77478263472832, -8.344198506319406, -5.674641969191659, 1.8070789199783899, 8.806359949839491, 8.99978191868509, 4.2151286069634475], [-5.124401707743807, 15.313102225539932, -6.4441816837784085, -10.228773186221963, 9.599498382388319, 8.346534612460285, -5.062412396229637, -12.37375452691586, -0.8818550013911463, 6.215258490301911, -6.757968331804875, -13.608463170475895], [1.1027145986535243, 18.68365698680753, -20.115582635072812, -7.517125000000927, -1.3819578140019455, -11.041019252643084, 16.219534600201374, -2.1413666154371986, 4.614320698534609, -18.36120728355029, 30.226450100501008, 26.97914968390444], [-6.774723982799948, -21.502597872373535, -3.1639905989492947, 8.667046069055251, -9.476022560909453, -8.368927905234877, 6.377179363090008, 4.453100322558686, 16.720622872679794, -26.56303255820785, -6.033112303055704, -7.991868677976044]], "weights_ho": [[-4.510747751628402, -8.556030317477521, -1.0869822852393336, -4.6930443040385255, 8.704288427574628, -22.34178592428878, 18.13137458637713, 24.79077200173427, 8.63000009199622, -3.261352052094873, -16.55087447156939, -1.36479665675124, -5.660313930285687, 5.698703392388127, 16.73394631515479, 4.237459774676416], [-2.325120792711263, -1.8952072961050208, 10.592659262787848, -16.149759688863845, 16.599621991393658, -11.790318335890976, 5.295613080251329, -2.131475000657863, -6.971536928356818, 4.614244836269353, 18.14825543207202, -40.68821806946116, 0.2522627950355766, 5.707135321371468, -22.03913089034451, -7.599727361494796], [3.516379962179689, -7.777223640021214, -3.9002113702216423, -5.300760028560489, -6.592241350823208, 10.809695237724881, -6.745794819899965, 1.9062355771332327, 3.8881342756765194, 2.826459814910079, 20.362070484612815, -4.513855358018209, 10.099923283478569, -23.238500139696754, -15.616906451797409, 6.79955013479233], [-0.3854882949677441, 32.92621022628965, -13.078170746934378, 9.51822337575707, -8.770014790469684, -0.7839718076879119, 11.004130275057365, -1.0295415638500067, 27.00640511771375, -25.356120908608087, 6.729923552943267, -10.918330455243769, -13.250083127428585, -7.276305156261693, -6.453335870894144, 19.370861134397074]], "bias_h": [[-7.034358475013937], [-6.460690075881779], [-16.33703337054858], [-19.432563523800273], [-3.1901471982164495], [4.027451005221241], [19.56533286080119], [20.63576905613622], [1.93131497169946], [-1.6935068892422405], [0.6351000215817617], [15.696754762604593], [8.346988368637138], [2.1458848342715307], [13.983161851409143], [8.220503929547803]], "bias_o": [[-7.198602898503129], [-0.6122171789539262], [-13.011879135657134], [-12.85013174975914]]}, {"input_nodes": 12, "hidden_nodes": 16, "output_nodes": 4, "weights_ih": [[-0.2433935126868894, 5.664378940823105, -7.728458937433355, -8.098801195668702, 3.9617436859840742, -9.02244476811599, 7.1382399926035776, -0.47904533777314956, 4.058671470805218, 1.4296785697149692, -7.265649568701811, -15.692890612222595], [0.48709275615209735, -13.789711945799803, 3.7214843361280354, -2.048620892104387, 10.73712936219635, -3.0432778629093975, 18.61305359809368, 8.540863580613964, -1.2676312220228731, -6.307682996883218, -10.483190408382283, 18.210575985092184], [10.868082954543706, 2.3086348489237967, -5.302470840684365, 8.116615386950283, -14.229933900821177, -8.002946758888788, 13.191482171966967, -15.283223363135434, 20.9617551000568, -4.725340951901577, 13.933703130909851, -2.2239107961460536], [1.4866386336900361, 27.936240508594572, -21.004777901503914, 5.256983731327404, -2.4572321872061154, -5.4085337864932646, -8.683223267786028, 5.1722109388447715, 10.849235708003338, -2.0074117764978814, 0.15766512064098473, -15.976875687839954], [0.27861821667060965, -11.624036374681086, -3.663839635147735, -8.320066168699064, -9.86179020243565, 16.835075110213133, 6.3460600332626935, -10.116871752624526, -2.6414930569270183, 11.910634892081069, 2.906593468275105, 0.34148647639697816], [-15.545631518571787, -0.3571333976326375, 14.471106976836298, 0.24748872741906985, 3.1118206003393785, 20.878252121296487, 19.353204023450473, 4.587170832379207, 3.055121640752895, -23.33750825689884, -16.178459587667884, -17.066080509730263], [4.25288502325631, -0.6750910673411354, -12.918520574356517, 14.065506664723761, 3.9260372029529815, 8.036802922760566, 15.314464770005513, 14.744236347207634, 5.090483277138542, -2.472033046390375, 8.22586725787675, 7.149482598165716], [4.936849887341935, -0.22262585004520727, -9.529862902556403, -12.856479301404274, -4.629526410712899, 8.977607561233913, -5.369620234523114, 8.158644597367173, 18.638106276128386, -13.818128191247336, 16.538914031641127, -5.631324594638617], [0.6303170369240766, -23.53141231004503, 1.399581170290216, 7.775786370268264, -11.688394918008596, -22.0785529341753, -3.618900566195149, 12.949824991266928, 23.523956528340037, -16.772954246109308, -2.093356260408195, 0.7120446537216096], [3.9895208893477436, 2.33870518237389, 16.481490166486317, 5.693603706716532, 5.153031962269851, 12.216655284360337, 6.336728775069905, -8.37356910312684, 27.43560574944243, -1.7926381879613855, -9.849462919739825, 3.7898315490874483], [-14.61666142986507, 16.053727120349386, -1.2318668170567162, -1.6780674433222618, -9.784737102392523, -5.638504764912293, 1.2753126128851981, -10.14069656427785, -9.819845226934252, -4.498247658096557, -4.835697614859757, 15.585015056738193], [10.13253019944734, 0.004407409215228947, -2.5316235909782687, 5.984820525519441, -10.574189393392029, 9.122996379582439, 13.198837137766459, 5.872913261748176, -12.034295413010707, -19.63779919233905, 6.811957878501303, -3.153582422523348], [-9.117776766400212, -6.917585429216489, -9.675498632312621, -5.470809801639451, -3.4567373135126247, 36.90228073027811, -8.101310205815105, -5.660444159892028, 1.7113656388777463, 8.709529501482763, 8.715992809070274, 4.163350675575874], [-5.22561608084498, 15.313102225539932, -6.333746607536198, -10.049543141819246, 9.699414472493789, 8.268418740385519, -5.125707658897914, -12.317483341741829, -0.9048837886032337, 6.3231263740361845, -6.839607853550422, -13.689500110933649], [1.0338217238146612, 18.7304202987881, -20.29205248251235, -7.603637817398046, -1.111356118985511, -11.141862769379067, 16.275249775754247, -2.117076070209791, 4.61384301995305, -18.426276903698447, 30.203997069145746, 26.833980895304627], [-6.783751477780735, -21.390425685927333, -3.128713580923727, 8.533001503350654, -9.414065106280274, -8.375677292297915, 6.357814433583671, 4.684295473782303, 16.631916562714707, -26.49500583041288, -6.033112303055704, -8.003401817713673]], "weights_ho": [[-4.5690539622556265, -8.556030317477521, -0.9747632601204094, -4.6095697733691, 8.48809270806187, -22.41717502636253, 18.12109185542478, 24.749714495842746, 8.809798785343247, -3.288185476331647, -16.59815263222022, -1.3682286430469053, -5.609275564617869, 5.715177960555019, 16.701801732210534, 4.286095459859115], [-2.4372584209928014, -1.6267160567517276, 10.635292211756957, -16.21473088472549, 16.67627440761965, -11.840376937912579, 5.295613080251329, -2.057173758311422, -6.925887992949736, 4.660249441980849, 18.14825543207202, -40.79367974206133, 0.13325599396597493, 5.780722697544127, -21.935577386891318, -7.599727361494796], [4.039129772405051, -8.03258483652889, -3.9002113702216423, -5.074630909609537, -6.6370991677694455, 10.720909109647303, -6.734643093053522, 1.7366525410686964, 3.8881342756765194, 2.962034906807033, 20.362070484612815, -4.18702247273655, 9.956191989720802, -23.423723566464783, -15.613138640396164, 6.888229936564847], [-0.3854882949677441, 32.92406415253885, -13.14449798737414, 9.487780302537248, -8.78226922829654, -0.7410049046718508, 11.042572169578989, -1.144705875740045, 26.975552046739345, -25.312231734590238, 6.688697609082729, -11.02698762009849, -13.375219451555925, -7.222450601785573, -6.453335870894144, 19.58255740833508]], "bias_h": [[-6.871429761285804], [-6.557823713142297], [-16.234472485512836], [-19.336730722602447], [-3.1237459794351934], [4.107191142296417], [19.386343391857885], [20.62297043171894], [1.8788822255318562], [-1.7738605541029344], [0.418393396363581], [15.713847679172913], [8.228880351095327], [2.28034132889192], [13.996544939528047], [8.148043453312795]], "bias_o": [[-6.883594851313079], [-0.500762448125887], [-12.938959250491953], [-12.880753195982248]]}, {"input_nodes": 12, "hidden_nodes": 16, "output_nodes": 4, "weights_ih": [[-0.13157314218231503, 5.560092751176984, -7.676890422881467, -8.085062685241535, 3.7832213310776606, -8.838288359052907, 7.541451651757721, -0.4801235713860922, 4.005636940061678, 1.4384663446851647, -7.090822935414146, -15.692890612222595], [0.302461842405883, -13.88979274778388, 3.7723446188731877, -2.0654148683901705, 10.78621936350838, -2.663711170459783, 18.41535711127473, 8.496931286392188, -1.2902722479742001, -6.307682996883218, -10.54218690228721, 18.272570331042846], [10.868082954543706, 2.3345862239047643, -5.224250834501862, 8.186169110491814, -14.403597992903338, -7.971598807253418, 13.142575088773686, -15.296959587574172, 20.800739729356838, -4.969324195223406, 13.925385555981212, -2.3679690655553998], [1.2302294562811373, 27.90857177051577, -21.126861762210257, 5.285714023735504, -2.4730775953070356, -5.4085337864932646, -8.866207359220452, 5.4001699271458, 11.027499885700758, -2.05315079862814, 0.19175993401040897, -15.937640915820207], [0.04348217688429648, -11.821864758833124, -3.7888090561781222, -8.442776087818856, -9.644798760220016, 16.835075110213133, 6.1681919999484425, -9.932603872398396, -2.4634843227844128, 11.895314203756328, 2.9657694159426855, 0.3093201863682653], [-15.743610811996994, -0.3717117024280646, 14.434178825418805, 0.22953221274363172, 3.0721532209763294, 20.72399305065964, 19.30787152207152, 4.648137144445183, 2.9649259799569294, -22.907891262725723, -16.058513557379378, -16.957517436745498], [4.252041922225564, -0.63121536373631, -12.935430765137797, 14.044719346100834, 3.7825078105931578, 7.617884667674372, 15.371348843810832, 14.85479832732459, 5.248371784614565, -2.36315547189613, 8.307158349344208, 7.175750305150922], [4.894192183630445, -0.14058451670740063, -9.354932380322026, -12.856859164439806, -4.518735240416487, 8.818399874797317, -5.279009129395059, 7.938076836880317, 18.609834922332645, -13.71351410029699, 16.523312458353544, -5.7075467407573575], [0.33466066367782266, -23.44863659040036, 1.4197391780588582, 7.825296090556681, -11.6840105764532, -22.165506071872954, -3.5379798855222577, 13.021092340288757, 23.588860911374052, -16.777803941086365, -2.494032206192827, 0.38961898297272857], [3.9895208893477436, 2.4203095819149145, 16.70597063748761, 5.702318695796307, 5.0177308992197425, 11.948634114546484, 6.371656688837783, -8.26826979660924, 27.409525254586928, -1.7037792466404635, -9.780175301206796, 3.9025636995610755], [-14.610443623168411, 16.17012441747881, -0.9974116062895538, -1.5829756497060854, -9.764781097003196, -5.45074977970115, 1.3909462082140172, -10.112944177543572, -9.784965759997167, -4.5372346429190875, -5.093471761106076, 15.56546094175257], [10.240833634601398, 0.1575918666050261, -2.6140261730795795, 6.020123145945301, -10.455977809923668, 9.042985953407856, 13.417009901569596, 5.741589030025401, -12.113700251282829, -19.521183736777694, 6.798104645962285, -3.0913568014738924], [-9.243109997610407, -6.681606888744667, -9.7695067270647, -5.231464857483101, -3.50889378194503, 36.625041282016454, -8.081104542433026, -5.626291709026687, 1.4398468661521182, 8.57216555891325, 8.765974291814645, 4.141173082060795], [-5.220950142336839, 15.313102225539932, -6.480493971213543, -10.078114186859105, 9.598054520571273, 8.295541725569413, -5.037891176644456, -12.36017823619773, -0.9058992933258369, 6.292739564244155, -6.914941632801848, -13.425143349266458], [1.0480762634298504, 19.01069574251283, -20.0524248363621, -7.603810741574235, -1.1867197509809733, -11.072167119537681, 16.21595641468214, -2.102092943669463, 4.504527673063379, -18.098117776322518, 30.223214812675916, 26.903208225842835], [-6.741927884130189, -21.37715786564542, -3.0661949784683715, 8.57291669517483, -9.34243792882725, -8.347593966473708, 6.376703403739422, 4.677578115015806, 16.78066719932073, -26.49500583041288, -6.118743138284716, -7.92027508756173]], "weights_ho": [[-4.636882197617291, -8.556030317477521, -1.1823222274615088, -4.6014587487062935, 8.80405189065123, -22.387770456011665, 18.011264846258708, 24.619212590248488, 8.589600041085014, -3.260966150303532, -16.66864877475529, -1.3856937361734172, -5.660313930285687, 5.6904825364150415, 16.693702580854854, 4.3396629487514025], [-2.343386284657461, -1.556751426264403, 10.68997614031855, -16.236716043541968, 16.83332226641689, -11.699899938866821, 5.086983268019577, -1.8752073989796392, -6.870735628051044, 4.575987264845917, 18.092582340036483, -40.73488874445628, 0.17956690027119732, 5.549181038166534, -21.995007352410042, -7.681668180427607], [3.8135297948705786, -7.7127648342506605, -3.957723622960578, -5.156824065030048, -6.494949145102117, 10.560450196525093, -6.708898641624248, 1.8687302114617796, 3.8881342756765194, 2.7771662642994803, 20.420919962210597, -4.513855358018209, 9.834740320189278, -23.40978227324152, -15.820536672876353, 6.850347909492199], [-0.3854882949677441, 32.82074060863467, -12.989211578833416, 9.634316887836215, -8.729811551924904, -0.7410049046718508, 11.182828328744044, -1.021202124328659, 26.852543615184633, -25.27103624672316, 7.027065125627419, -11.07469762097756, -13.554624520139562, -7.079538302204254, -6.396248307824698, 19.25030370012714]], "bias_h": [[-7.149835645233635], [-6.410982318298229], [-16.25708079101309], [-19.336730722602447], [-3.2031411557920233], [3.9475926874944167], [19.33684914259051], [20.725343276965106], [2.0315946970026078], [-1.852740607739108], [0.45218214466139905], [15.756853038534949], [8.31747098306238], [2.0992037788683797], [13.864418856317473], [8.09835327301187]], "bias_o": [[-6.951476247999255], [-0.6400218966915918], [-13.051780043039315], [-12.881945432498405]]}, {"input_nodes": 12, "hidden_nodes": 16, "output_nodes": 4, "weights_ih": [[-0.20003551999879893, 5.4238383236519665, -7.765988931459583, -8.07442945321272, 3.868786756721448, -8.950101551870398, 7.339813437629131, -0.4892577285763255, 4.063245766245673, 1.471458659245576, -7.19467112353184, -15.669141243726678], [0.3787912818618715, -13.909138304982392, 3.902154420905344, -1.982410166851707, 10.704859468216874, -2.8413997664992294, 18.33647893194182, 8.48745358536729, -1.2676312220228731, -6.307682996883218, -10.504461407082164, 18.332763123122252], [10.868082954543706, 2.4088257819878764, -5.540413976749552, 8.019963186957986, -14.458077323303781, -8.065982223426076, 13.351141614890087, -15.225989645858212, 20.927330692731843, -4.823397266034556, 13.754104684450922, -2.1522021290868016], [1.4231408309801101, 27.929564143761965, -21.004777901503914, 5.248844363816097, -2.4730775953070356, -5.5333469735740834, -8.764439962785012, 5.2187360092435195, 10.836577749780087, -2.0074117764978814, 0.11190374477354725, -15.995050854315364], [0.09610758070831192, -11.782367075547308, -3.739997091671465, -8.381342719519946, -9.715958945458524, 16.670497340484992, 6.208849598845479, -9.967702006121982, -2.6414930569270183, 11.909070313645925, 2.9395150580628573, 0.3569620192690849], [-15.503269845488393, -0.3571333976326375, 14.441737085785483, 0.22953221274363172, 3.0360359593658335, 20.849877983070492, 19.37270626246467, 4.721429244278992, 3.0891949462297426, -23.18655477707777, -16.243087495411118, -17.04067117773902], [4.2191039458923685, -0.8382057271714679, -12.826496020261242, 14.044719346100834, 3.8671119825836753, 7.9608494436248645, 15.292843987981815, 14.629455308736667, 5.07247672491874, -2.2676180994633612, 8.232424204986955, 7.319468733232133], [5.1155520444988305, -0.20241992170441342, -9.698980022423802, -12.688806422341797, -4.696909285453956, 8.884210277778527, -5.321342164231162, 8.125777453922074, 18.61087459363994, -13.812272109878137, 16.570127273058198, -5.73105113795626], [0.3510941833862266, -23.45742097283888, 1.5137847546994656, 7.680720825684676, -11.536492849339592, -22.16245215859948, -3.623434827574187, 13.10972717105099, 23.5027840555505, -16.772954246109308, -1.8107978705403134, 0.7321441076103903], [3.9895208893477436, 2.389201281861046, 16.80771570281007, 5.70033499934631, 5.109702517567887, 12.05670963182833, 6.392842693154828, -8.263994108241594, 27.47991759697482, -1.6385142444456082, -9.751725847887611, 3.7669378890269067], [-14.691910275928674, 16.004893015204054, -1.0823270342595253, -1.616326809691551, -9.703484996960198, -5.638504764912293, 1.171782764966679, -10.236644940923293, -9.782624528706732, -4.6540785432679845, -4.957049531313272, 15.540512063798548], [10.171867806179101, -0.13388776937033364, -2.642744219663185, 6.020123145945301, -10.511387465003173, 8.962651885059383, 13.198837137766459, 5.888141148269552, -11.98191295003116, -19.85298556120136, 6.845356055473971, -3.10086028642772], [-9.345424889438119, -6.836249246728002, -9.738322476084841, -5.464713549711169, -3.4113043954711166, 36.7980291019799, -8.25453747168656, -5.674641969191659, 1.6997619368836046, 8.811126774484142, 8.830763082068778, 4.182277808919158], [-5.124401707743807, 15.309948903156029, -6.439728550174067, -10.065871644358232, 9.599498382388319, 8.384064480691231, -4.987708929138095, -12.311700324050497, -0.8818550013911463, 6.200766995258752, -6.985113221928235, -13.608463170475895], [1.070913070389441, 18.68185608568487, -20.072075356641, -7.606511920373897, -1.3819578140019455, -11.041019252643084, 16.25908812879561, -2.045409328279031, 4.5163170203495016, -18.287234064396205, 30.226450100501008, 26.833980895304627], [-6.80560949142653, -21.502597872373535, -3.2369088178876795, 8.599929102950556, -9.476022560909453, -8.393126020476165, 6.370980277781021, 4.674963154924846, 16.71797833377221, -26.49500583041288, -6.033112303055704, -8.095116106310762]], "weights_ho": [[-4.463309223893235, -8.556030317477521, -1.0621804489987101, -4.582282031322893, 8.66416493338998, -22.348016787219667, 18.12109185542478, 24.79077200173427, 8.340689657659668, -3.261352052094873, -16.584527180615858, -1.567399325358576, -5.6758067475420475, 5.698703392388127, 16.73394631515479, 4.264723859005534], [-2.327773796844974, -1.6671415952191155, 10.592659262787848, -16.26278094371301, 16.92736842994319, -11.790318335890976, 5.295613080251329, -2.0448700735438727, -6.890156002444942, 4.614244836269353, 18.149353094767577, -40.65417925440703, 0.34086151691556116, 5.811005033238287, -21.99208785433876, -7.689866642555184], [3.718830718792904, -7.777223640021214, -3.8499906757834887, -5.1664650391645885, -6.592241350823208, 10.726752032982722, -6.745794819899965, 2.0419753844420017, 3.8881342756765194, 2.8354985343250485, 20.362070484612815, -4.324637643807189, 9.705408974053086, -23.451677490798982, -15.733249190138038, 6.79955013479233], [-0.3610135619435346, 33.01117518462615, -13.053192008292791, 9.549848582915391, -8.802296398300804, -0.9483630629897088, 11.004130275057365, -1.0295415638500067, 27.00640511771375, -25.409900837747088, 6.729923552943267, -11.198529915706093, -13.469120024106733, -6.999412791949138, -6.52064214127352, 19.370861134397074]], "bias_h": [[-7.143468146508152], [-6.528450276991217], [-16.232137327757762], [-19.369976876644376], [-3.1237459794351934], [3.926987553070626], [19.378731455225427], [20.724848986198428], [1.945871471558945], [-1.5698940346300165], [0.5583727916551892], [15.695314088465658], [8.346988368637138], [2.064986233490178], [13.983161851409143], [8.220503929547803]], "bias_o": [[-7.092907434833582], [-0.6122171789539262], [-13.051780043039315], [-12.893942693022282]]}, {"input_nodes": 12, "hidden_nodes": 16, "output_nodes": 4, "weights_ih": [[-0.2599536363006054, 5.661245328720854, -7.678191750220193, -8.085062685241535, 3.7808825493190445, -9.044129389280215, 7.199217382701649, -0.48835070799109254, 4.0764458017844145, 1.3131254639200087, -7.265649568701811, -15.699181433297722], [0.49374622669433094, -14.009019667034659, 3.7861423794081253, -2.190554933036797, 10.745519222695048, -2.9202713416639896, 18.541896032004093, 8.573356083379567, -1.304388813442568, -6.309669321139291, -10.529544321978191, 18.198577847625103], [10.911181412101369, 2.3345862239047643, -5.128001543460273, 8.061890342239238, -14.36895351655369, -8.190875640940035, 13.302121311414297, -15.325553545048518, 20.937231284524767, -4.883398973694932, 13.891797080045492, -2.550308777923604], [1.5357804344774106, 27.82742355813394, -21.025375429354007, 5.243202457611354, -2.5482746696100524, -5.429581248017826, -8.83684471269793, 4.9997724624615145, 10.952402853703182, -2.080367810177013, 0.046041330721322445, -15.983213461209925], [0.24389813117811407, -11.732008688935922, -3.9437835503653704, -8.349939952774097, -9.782691070406225, 16.835075110213133, 6.1681919999484425, -10.11171733996462, -2.6469825147831108, 11.75893797884673, 2.949209585931905, 0.3162575141457392], [-15.462792768092097, -0.25634062890222514, 14.436514476700879, 0.2973468864374109, 3.1569637117708096, 20.756640120868212, 19.352232746560713, 4.699229866766124, 3.030619239894038, -23.115192437927828, -16.134954278243335, -17.22938088463535], [4.286129010191585, -0.7042216836205234, -12.805983614893774, 14.01070628952137, 3.762818384490718, 8.026931967868478, 15.33841180819474, 14.539627983218717, 5.07906581168521, -2.642285595913481, 8.235172356611791, 7.1611259472737165], [4.885500977375822, -0.175336251755424, -9.380658674707227, -12.903997347151897, -4.533553978396257, 8.867457677820463, -5.315616243300793, 8.067517897385342, 18.70004677511726, -13.72411938164017, 16.475167435170015, -5.797641489125038], [0.48139693360414026, -23.42372831845797, 1.3855701995328078, 7.780429640351519, -11.727270173009268, -22.193967589248132, -3.349801217817352, 13.14509645950943, 23.612373991709823, -16.57033783563617, -2.1048758555071827, 0.7165430936897337], [3.983570275876988, 2.3311354244198217, 16.618603592045822, 5.723555501583071, 5.120152851848945, 12.072038863735255, 6.323836721193254, -8.277011195027333, 27.45577188839404, -1.755785392929791, -9.887858753940131, 3.713570547588398], [-14.577267667286925, 16.118705091638265, -1.1362170753158372, -1.4756386957059384, -9.784737102392523, -5.73325231202802, 1.2753126128851981, -10.166734839241357, -9.762828816737283, -4.563832690752534, -4.999203554442762, 15.610451715788686], [10.344853954051858, -0.037661233563883637, -2.4696845745884364, 5.957607170043484, -10.575521183474514, 9.053528003082391, 13.198837137766459, 5.872913261748176, -12.034295413010707, -19.670536869723524, 6.81556923168927, -3.08365444042724], [-9.247288365887337, -6.919385028817769, -9.785894643173386, -5.3369420271626336, -3.3979894877779153, 36.64938489427978, -8.101310205815105, -5.660444159892028, 1.8060779990705047, 8.602178775318386, 8.774408617918894, 4.178767772226882], [-5.223569224342866, 15.321646605262593, -6.466457564052961, -10.213207696221511, 9.664339862021947, 8.289494985589796, -4.969075695351066, -12.343469164235229, -1.084038870065298, 6.246476082803794, -6.893440629376363, -13.597369627313087], [0.6519111711610774, 18.90076165979717, -20.114033266521652, -7.706318706085952, -1.3657079971804333, -11.165131750721505, 16.416689135381475, -2.2437279135685797, 4.549740281845998, -18.37139309096824, 30.11492884924335, 26.83208711764127], [-6.859037393808795, -21.419956588580064, -3.1347983210506496, 8.583241877103994, -9.474383680260942, -8.415486184779537, 6.443928871885478, 4.733597269858649, 16.765845121799178, -26.464373257321043, -6.107250699744739, -7.952344572499667]], "weights_ho": [[-4.35666739451144, -8.48539737676381, -1.0811008771398862, -4.681068334962611, 8.648826788411608, -22.32581595262606, 18.12109185542478, 24.727210294519445, 8.685565501864172, -3.2711596690038194, -16.628139568761544, -1.3682286430469053, -5.5656338035954755, 5.606507548512635, 16.66320616596215, 4.2467946472410905], [-2.33217958216897, -1.6682998624206478, 10.770203803479937, -16.038375656568153, 16.75716069271531, -11.815775299146345, 5.295613080251329, -2.1124025962229167, -6.975492613582711, 4.693282141034091, 18.079460196375276, -40.75083190717717, -0.17443716902075795, 5.728368342723035, -21.890992182221858, -7.640919492992019], [3.832456894058619, -7.880254004956859, -4.119897457399567, -5.292593882779762, -6.536693398634526, 10.640995162707618, -6.604087910338142, 1.8183375625466378, 4.020005317962711, 2.8025436242547137, 20.362070484612815, -4.480126399799209, 9.742489685142408, -23.472157653743814, -15.65487179199717, 6.974887665863088], [-0.3312615474040812, 32.92406415253885, -13.025940208453175, 9.44585380711802, -8.79343118696734, -0.5323075755085103, 11.087274257155407, -1.1553417042238945, 27.04618023919376, -25.419371479352325, 6.675490857144869, -11.131302331421585, -13.444821479608523, -7.192331412216927, -6.449502502852434, 19.34763714393115]], "bias_h": [[-7.07279898630382], [-6.392106908618396], [-16.056792611172487], [-19.335834175308193], [-3.1237459794351934], [4.155660027041806], [19.441530798519203], [20.55587403319989], [1.9793462639404407], [-1.7604790114082416], [0.45218214466139905], [15.593554834302147], [8.228880351095327], [2.2859527859977966], [13.996544939528047], [8.19871160492743]], "bias_o": [[-7.062138082435421], [-0.6458438656496976], [-12.937471888199132], [-12.73888998619079]]}, {"input_nodes": 12, "hidden_nodes": 16, "output_nodes": 4, "weights_ih": [[-0.2599536363006054, 5.661245328720854, -7.678191750220193, -7.846121089135343, 3.823929548355997, -8.875201327728272, 7.271516117548606, -0.28405040402996984, 4.0764458017844145, 1.4843577054700363, -7.265649568701811, -15.692890612222595], [0.4216212825919992, -13.90395628969731, 3.642376583998199, -2.073110239071894, 10.802821081862614, -2.9202713416639896, 18.46980983927, 8.651167531310573, -1.3149642931223806, -6.309669321139291, -10.559224535111742, 18.198577847625103], [10.96722998929889, 2.3345862239047643, -5.240500550226967, 8.089001765874245, -14.403597992903338, -7.9564049421003205, 13.302121311414297, -15.290860376536076, 20.933193577028675, -4.883398973694932, 13.78624840655811, -2.360738888657638], [1.5300146065034046, 27.859435683561212, -21.025375429354007, 5.18245969182221, -2.5482746696100524, -5.429581248017826, -8.891766775411973, 5.362603839146611, 10.755936291320777, -1.9918756155326052, 0.046041330721322445, -15.915677990606179], [0.1686894451505563, -11.860816451546626, -3.917813792095581, -8.349939952774097, -9.900012084772305, 16.835075110213133, 6.224550314637802, -10.064539547490782, -2.6469825147831108, 11.830042963686397, 2.9309593718036746, 0.3370437561186261], [-15.538158776998047, -0.3029647217945495, 14.096991219557658, 0.23098095299332344, 3.0484341630209224, 20.734968451216446, 19.364953483135338, 4.72128034487176, 2.971247392898752, -23.174523187715053, -16.178459587667884, -17.13519728228664], [4.247148738970013, -0.7042216836205234, -12.778924523046117, 14.086319622643508, 3.8586615716590056, 8.069665153243983, 15.335629997208605, 14.728601910592552, 5.016165799696361, -2.5405737912809845, 8.13837822194765, 7.150940472653463], [4.885500977375822, -0.1460967782897454, -9.271307870242305, -12.766020182469191, -4.610464127649104, 8.909822144787384, -5.339702234531936, 8.07204417656936, 18.74136949413543, -13.755668825894006, 16.475167435170015, -5.749617445733097], [0.7520782820889477, -23.426295343426734, 1.4197391780588582, 7.662247264219829, -11.781883079626207, -22.193967589248132, -3.534486597525431, 13.203957104260425, 23.612373991709823, -16.689816047445625, -2.0727342210935102, 0.7120446537216096], [4.056623447882351, 2.407548282748168, 16.768854779255026, 5.638450966977482, 5.120152851848945, 12.095365940951808, 6.268203609645123, -8.390650219728244, 27.493193549353684, -1.755785392929791, -9.924519861613645, 3.7898315490874483], [-14.570853209925325, 16.118705091638265, -1.1362170753158372, -1.4496197150703025, -9.706701329157658, -5.73325231202802, 1.2636193152527713, -10.166734839241357, -9.740140127024848, -4.7309703245072825, -4.9869913877800425, 15.717401976648022], [10.24803614138197, -0.1559109576496342, -2.566937794394918, 5.793944961467994, -10.575521183474514, 9.398661640544953, 13.067311374945408, 5.844872451611314, -12.034295413010707, -19.666768479399714, 6.6729634736914605, -3.08365444042724], [-9.287314789914317, -6.919385028817769, -9.688078529876964, -5.3369420271626336, -3.3090531083407484, 36.64938489427978, -8.268100652517575, -5.620537417735139, 1.7671102096066535, 8.456523142052546, 8.774408617918894, 4.173348664340499], [-5.116141571211246, 15.36042731805214, -6.464757137116544, -10.082680394058512, 9.664339862021947, 8.303364143532862, -4.969075695351066, -12.17868937543635, -0.9044785520516496, 6.447465490201535, -6.862788640757735, -13.597369627313087], [0.8188658594986685, 18.74980441409154, -20.0524248363621, -7.700516529138799, -1.3657079971804333, -11.129342032881583, 16.416689135381475, -2.149724074139149, 4.54940202528139, -18.46180249684548, 30.093274054247875, 26.927226917595267], [-6.859037393808795, -21.483113982563843, -3.128713580923727, 8.498328861005685, -9.285649108474747, -8.382156062398996, 6.503396752367874, 4.733597269858649, 16.732070943720785, -26.464373257321043, -6.16759902429076, -7.875581330072178]], "weights_ho": [[-4.5690539622556265, -8.556030317477521, -1.1337658784630031, -4.67522518022728, 8.665947650896648, -22.32581595262606, 18.12109185542478, 24.75747851268614, 8.665080618427156, -3.2711596690038194, -16.563513338320437, -1.5036348357635028, -5.506576488600425, 5.686164599130858, 16.639645786328103, 4.2467946472410905], [-2.3489664399380716, -1.599342040069153, 10.858672222687783, -16.477882403742896, 16.695184539148414, -11.815775299146345, 5.295613080251329, -1.8498300491313466, -6.944543331074961, 4.693282141034091, 18.14825543207202, -40.75083190717717, -0.05200049177768131, 5.728368342723035, -21.99381590125018, -7.741320362121885], [3.832456894058619, -7.9349639426187, -3.9002113702216423, -5.0296208564651135, -6.639238082878617, 10.66673912457373, -6.706249764903237, 1.8183375625466378, 3.9825401903834177, 2.7771662642994803, 20.362070484612815, -4.543799016106739, 9.792653101062665, -23.435867089838858, -15.65487179199717, 6.93213625384491], [-0.3312615474040812, 32.92406415253885, -13.025940208453175, 9.624952858897462, -8.67700222531024, -0.73302947087523, 10.82299738236713, -1.1553417042238945, 27.153499623377023, -25.356645127509566, 6.675490857144869, -11.334816332057649, -13.462411651918725, -7.258895884817166, -6.330795392914109, 19.252976142494806]], "bias_h": [[-7.013606990484384], [-6.330844672824325], [-16.09921917593471], [-19.335834175308193], [-3.1237459794351934], [4.110429890893761], [19.441530798519203], [20.55587403319989], [1.920250611887071], [-1.7604790114082416], [0.45218214466139905], [15.815384543375817], [8.212884899379171], [2.3020341233098667], [13.968442201367882], [8.210423287740694]], "bias_o": [[-7.020554614042413], [-0.6012528966562011], [-12.937471888199132], [-12.782209457652872]]}, {"input_nodes": 12, "hidden_nodes": 16, "output_nodes": 4, "weights_ih": [[-0.2599536363006054, 5.661245328720854, -7.678191750220193, -8.085062685241535, 3.695065748808304, -9.064700796245566, 7.271516117548606, -0.4320163655365121, 4.0142206691137385, 1.4784794656125522, -7.265649568701811, -15.727523954662018], [0.3642062703385768, -13.949303185513836, 3.715926031545356, -2.0394049605439495, 10.75247699160571, -2.9202713416639896, 18.541896032004093, 8.705599773545066, -1.2891392791628729, -6.309669321139291, -10.674333665975798, 18.215275882127045], [10.911181412101369, 2.3345862239047643, -5.264379348877746, 8.089001765874245, -14.218314427063847, -8.11968304197909, 13.160844846215408, -15.240160346788624, 20.949974377530896, -4.8840919261351265, 13.84460629175464, -2.360738888657638], [1.3384009796379557, 27.82900043217235, -21.025375429354007, 5.148546077961505, -2.5482746696100524, -5.463188562950429, -8.704158070167843, 5.201235788922194, 10.787127522092042, -1.9918756155326052, 0.1148591175429545, -15.855903488509982], [0.24389813117811407, -11.719486008260553, -3.8248633028978283, -8.411343515608321, -9.883160514507145, 16.88932861664527, 6.1681919999484425, -10.064539547490782, -2.559545606286999, 11.830042963686397, 2.9309593718036746, 0.37343893320319715], [-15.538158776998047, -0.3029647217945495, 14.436514476700879, 0.2973468864374109, 3.2945752966110393, 20.734968451216446, 19.360158822669106, 4.72128034487176, 2.915579639962629, -23.274692199028983, -16.110517589649703, -17.100748831483852], [4.252041922225564, -0.7042216836205234, -12.805983614893774, 14.048252815527645, 3.910497310612557, 8.019613174692704, 15.296804896531107, 14.574775381383247, 5.091955406545409, -2.5405737912809845, 8.235172356611791, 7.196269957775206], [4.885500977375822, -0.18626569294087897, -9.55133992760757, -12.715129324191606, -4.773071485216569, 8.842090813028603, -5.315616243300793, 8.079748371322287, 18.638106276128386, -13.89147698621839, 16.256922221548887, -5.6158379425864435], [0.48139693360414026, -23.478682597386637, 1.4660134728766756, 7.930947563301764, -11.640559838036197, -22.24619704499448, -3.534486597525431, 13.203957104260425, 23.638954189928285, -16.689816047445625, -2.093356260408195, 0.7107614206992833], [4.008572678804568, 2.306182482395604, 16.618603592045822, 5.702318695796307, 5.0531542927179025, 12.072038863735255, 6.303419023715213, -8.44856649380153, 27.513767774124283, -1.755785392929791, -9.887858753940131, 3.8158303668351836], [-14.457450027344853, 16.118705091638265, -1.1362170753158372, -1.4761480964218643, -9.784737102392523, -5.700029774200144, 1.2717471333726178, -10.207766097150394, -9.762828816737283, -4.403264153829073, -5.0278675456294835, 15.676661331220526], [10.24803614138197, -0.14409927124591937, -2.566937794394918, 5.937383348859959, -10.665512488783374, 9.157846106983746, 13.325644043345184, 5.872913261748176, -12.034295413010707, -19.666768479399714, 6.791874361469428, -3.08365444042724], [-9.112505877129545, -6.936253995384906, -9.775752854167155, -5.525345480766254, -3.5349229082894595, 36.64938489427978, -8.014155241511338, -5.660444159892028, 1.7113656388777463, 8.701387520976589, 8.774408617918894, 4.178767772226882], [-5.202122120895803, 15.25865525588637, -6.375020879167656, -10.067990223954071, 9.664339862021947, 8.478630550785944, -4.969075695351066, -12.343469164235229, -0.8691262026556181, 6.260712707790165, -6.824948869464489, -13.672704997256373], [0.7725184415802159, 18.70937969846059, -20.257663554159034, -7.9448823881341655, -1.5339099106435878, -11.312245769867632, 16.416689135381475, -2.054826449778088, 4.54940202528139, -18.37139309096824, 29.981785300538732, 26.777678491850534], [-6.859037393808795, -21.419956588580064, -3.139917689259063, 8.498328861005685, -9.231608864843993, -8.319396591633968, 6.357814433583671, 4.756732176183324, 16.836250733138574, -26.464373257321043, -6.107250699744739, -7.867143581741525]], "weights_ho": [[-4.5690539622556265, -8.556030317477521, -1.1067339955499615, -4.719470419067505, 8.604746187900735, -22.32581595262606, 18.12109185542478, 24.724461849804552, 8.685565501864172, -3.290419658162401, -16.563513338320437, -1.222165216700534, -5.570192755307968, 5.686164599130858, 16.943084485244096, 4.047547963704135], [-2.3489664399380716, -1.6682998624206478, 10.744824250067444, -16.21473088472549, 16.695184539148414, -11.815775299146345, 5.295613080251329, -2.018076411989123, -6.944543331074961, 4.693282141034091, 18.14825543207202, -40.81437012044353, -0.05200049177768131, 5.728368342723035, -21.64374444722573, -7.640919492992019], [3.832456894058619, -7.880254004956859, -3.9002113702216423, -5.280544736703649, -6.639238082878617, 10.58795537008533, -6.791952618206906, 1.8183375625466378, 3.9165790292338887, 2.589762432720912, 20.362070484612815, -4.338136611430544, 9.74626496461937, -23.472157653743814, -15.65487179199717, 6.888229936564847], [-0.3312615474040812, 32.871237810856336, -13.025940208453175, 9.641344311293373, -8.79343118696734, -0.7410049046718508, 10.909409863891181, -1.1553417042238945, 27.04618023919376, -25.356645127509566, 6.675490857144869, -11.090374547605984, -13.57354562637398, -7.192331412216927, -6.370211724279198, 19.37985729393188]], "bias_h": [[-7.013606990484384], [-6.349891759233636], [-16.0971588958745], [-19.315593757606944], [-3.1237459794351934], [4.159195909258742], [19.280024219648], [20.55587403319989], [1.7057189928972596], [-1.9248863213802085], [0.44245672156058036], [15.80329172493899], [8.228880351095327], [2.308752984919452], [13.906373976559669], [8.252862934333736]], "bias_o": [[-6.926557909674046], [-0.6504236552663224], [-12.925358640909492], [-12.591653081856535]]}, {"input_nodes": 12, "hidden_nodes": 16, "output_nodes": 4, "weights_ih": [[-0.048338625384901274, 5.503395697619917, -7.782471742440022, -8.12233823045187, 3.811489287065081, -8.879229025842996, 7.172194160866021, -0.4292920435891483, 3.9785832832154524, 1.406237939043887, -7.187581928573562, -15.477150017892725], [0.44574489526674027, -13.757793403904092, 3.821597772197244, -1.9983988159244483, 10.681522562389164, -2.8935394751953196, 18.47319012486899, 8.63999830684834, -1.2631303119232435, -6.336459981184522, -10.586835303235555, 18.185423525709975], [10.811304597218564, 2.166777110519006, -5.524818335130579, 8.105680335985916, -14.381712078453381, -8.08234123185047, 13.256904743989026, -15.413344072455752, 21.11370909311988, -4.819135925105256, 13.93471777328782, -1.9506607663072448], [1.453446416682132, 27.836226624531463, -21.02092185642197, 5.3493693233991655, -2.3195072921856794, -5.432098421422038, -8.75202438315117, 5.089985665390151, 10.928131727968438, -2.0275541857685377, -0.03807381987796189, -15.863716898566251], [0.12379431560960502, -11.755075805998743, -3.649251751494085, -8.390284082253908, -9.645945455253045, 16.86272373121452, 6.130390755000073, -9.895662320074516, -2.6092936856304334, 11.910010842747557, 2.9612349345107694, 0.45053889273250586], [-15.514575269437824, -0.376593205044356, 14.458040967164283, 0.23705776102517684, 3.017430990031014, 20.801713599745575, 19.333323030472002, 4.666171373450621, 3.046729717800834, -23.28670164861192, -16.229323654023062, -17.054083046480713], [4.2694048792391905, -0.8210268602901603, -12.662216292477776, 14.044847648057555, 3.7344336215398872, 7.9940884096610185, 15.237498309378577, 14.596548355023888, 5.085200092297056, -2.3518831875654658, 8.150041363471965, 7.260674324396641], [5.011263238337754, -0.10856749895045645, -9.541761731108432, -12.800684543307376, -4.636214831431671, 8.984544632231104, -5.229039986252283, 8.223918828793652, 18.621323571955962, -13.82645524370665, 16.635170466156403, -5.856368939935722], [0.3258746423781169, -23.409425077191504, 1.338044872576042, 7.775435114072591, -11.52384887139, -22.1190852128316, -3.444988496175496, 13.135883038893443, 23.63200995451896, -16.771071325245252, -2.1145996405272753, 0.7504981473068627], [4.077714168084421, 2.2073598536432706, 16.710346773561415, 5.718058226809602, 5.182153629795751, 11.893708546887963, 6.619174907343063, -8.382852171623846, 27.438401682246578, -1.6568262972015035, -9.986203872364941, 3.7893738076293175], [-14.600174070037228, 16.029897104590795, -1.0780156498669458, -1.6683975795824888, -9.762170720981718, -5.703205349687188, 1.2814851202207906, -10.2287116396943, -9.794385417950355, -4.564373441836991, -4.92847282617906, 15.654008301315368], [10.199856469678666, 0.0300098827323437, -2.6665427028018556, 6.049752933473274, -10.511387465003173, 9.13790516825422, 13.198009405426605, 5.880402523142534, -11.938967397872949, -19.745193514371465, 6.830457144713205, -3.097873520287806], [-9.2885633260435, -6.77702848795943, -9.665230623671508, -5.270732901801667, -3.2508954072183123, 36.7596396501438, -8.219880385353708, -5.650925850615662, 1.6361369778360646, 8.833601543630458, 8.86636858676142, 4.195887281302838], [-5.109826268234471, 15.27325619150772, -6.420542364388445, -10.09854641330592, 9.599240838879034, 8.34083881483912, -5.056174033473162, -12.310577753790348, -0.7850044741897406, 6.283909293080152, -6.919841877957472, -13.760949512935348], [1.0927714910778084, 18.571670324139962, -20.17676373148113, -7.545125196886362, -1.2554680661508744, -11.002768010016636, 16.427223736612483, -2.151394152528864, 4.364760058035579, -18.47799041014576, 30.096420378979527, 26.898814802250314], [-6.899820712695068, -21.41655667419554, -3.128182126086134, 8.618257888760933, -9.430592094911606, -8.401526847854546, 6.320714750963836, 4.53476174162379, 16.674119348621915, -26.51960688489923, -6.106620867726884, -7.991868677976044]], "weights_ho": [[-4.644376514659767, -8.576068737125432, -1.0680037397423514, -4.823137139673549, 8.77549843184478, -22.397389949011302, 18.14890051510877, 24.655048844411585, 8.651044717776603, -3.3628832188677675, -16.61237845910025, -1.4238032863032304, -5.4761304863533935, 5.707197946809659, 16.89694388838069, 4.295185697568302], [-2.445744257778953, -1.7688633615396372, 10.707066660891433, -16.219896642671834, 16.788420211362517, -11.824237628686271, 5.376026924440287, -1.9314965566887077, -6.993553635812344, 4.62162856231854, 18.180211190457186, -40.742856279042584, 0.13325599396597493, 5.781548518803325, -21.973288660929978, -7.583764117032194], [3.9559304292453343, -7.861202827284141, -4.004686950094854, -5.20274422304438, -6.4235378820652835, 10.666695905105573, -6.863623463645608, 1.8297861009556682, 4.000260535015738, 3.0369496128784648, 20.276937823000154, -4.5710993680444405, 10.06680500576136, -23.39211187743397, -15.590971387736495, 6.694521330613424], [-0.4340128347697959, 32.94624883775782, -13.061922602592272, 9.4729608208105, -8.594812661862866, -0.7667806508920352, 10.962241327701133, -1.0466225916833536, 27.043191085900816, -25.21808442479407, 6.779240491332038, -11.29014780289248, -13.282578326477056, -7.257786882782669, -6.546457009623347, 19.39216133178246]], "bias_h": [[-7.132659990496281], [-6.554023469543593], [-16.309930086396015], [-19.35086117290242], [-3.02668196246072], [4.148904287964673], [19.374848406806287], [20.678022374637305], [1.7643398827120278], [-1.598148975405132], [0.5735511441477781], [15.850056725578877], [8.369406234959047], [2.1422057816293436], [14.051460765784409], [8.191924828867414]], "bias_o": [[-7.108957148552126], [-0.7627288372889973], [-12.970004462193614], [-12.94864561492075]]}, {"input_nodes": 12, "hidden_nodes": 16, "output_nodes": 4, "weights_ih": [[-0.4064420753479404, 5.503395697619917, -7.873271461378429, -8.12233823045187, 3.811489287065081, -8.879229025842996, 7.245191375058817, -0.39473937535106346, 3.9785832832154524, 1.6423864474400995, -7.187581928573562, -15.621368420378598], [0.43274477845120085, -13.775013515397328, 3.7716397736555916, -2.0266176174966897, 10.60023710414741, -2.8701794106241953, 18.598251009581627, 8.470998029304535, -1.2631303119232435, -6.212363224855502, -10.510351889673803, 18.172259927252863], [10.989288615216347, 2.2930894421846335, -5.309559551894223, 8.091626123956981, -14.381712078453381, -8.08234123185047, 13.256904743989026, -15.248107604338912, 21.0035584864541, -4.819135925105256, 14.012449165350555, -2.1228457248842463], [1.5144578688715342, 27.836226624531463, -21.02092185642197, 5.244287917901746, -2.510662919979711, -5.202615399904785, -8.75202438315117, 5.259028268566171, 10.928131727968438, -2.0275541857685377, 0.06064533402893747, -15.855701574178914], [0.05945049222546432, -11.755075805998743, -3.649251751494085, -8.51796127417334, -9.744513530754968, 16.901658725234544, 6.299141396698486, -9.937990680241544, -2.633139221805153, 11.910010842747557, 2.9612349345107694, 0.45053889273250586], [-15.514575269437824, -0.4678014561595315, 14.458040967164283, 0.23705776102517684, 3.0711246015193603, 20.94600414638536, 19.22673372749564, 4.682136527500857, 3.046729717800834, -23.28670164861192, -16.09782819586388, -16.883518180777394], [4.289265739979986, -0.8210268602901603, -12.825478197287003, 14.085108627836103, 3.8732983424258296, 7.877540050311916, 15.129399091699193, 14.596548355023888, 5.085200092297056, -2.568868239178673, 8.259209644090436, 7.260674324396641], [5.011263238337754, -0.2436922198745852, -9.545619916786464, -12.800684543307376, -4.636214831431671, 8.921376218993599, -5.403527818069348, 8.14318233904413, 18.621323571955962, -13.793759068220083, 16.538914031641127, -5.939199934973261], [0.5247706384734593, -23.533384787214185, 1.2665949750652359, 7.773644785648316, -11.596437852203264, -22.057134482753693, -3.6101681437912942, 13.050531982941301, 23.580011115717266, -16.74527086373473, -2.1145996405272753, 0.6546455411258235], [4.075265259941912, 2.5295667121777283, 16.623852240703137, 5.759799800318788, 4.836055071187987, 12.065097176085237, 6.376328395477385, -8.382852171623846, 27.438401682246578, -1.7094391352407863, -9.878528076592612, 3.856495870035611], [-14.589569636852158, 16.029897104590795, -1.0769629158980536, -1.7140062570237409, -9.784737102392523, -5.703205349687188, 1.2814851202207906, -10.164330616315446, -9.794385417950355, -4.564373441836991, -5.110878862148616, 15.423866929553938], [10.259142468915714, 0.015338738751638048, -2.5944265353854243, 6.140991642264567, -10.511387465003173, 9.070189766399999, 13.048660179273286, 5.880402523142534, -12.022280237592362, -19.745193514371465, 6.927611898671374, -3.097873520287806], [-9.244811870519019, -6.84233695349958, -9.665230623671508, -5.3495606886136615, -3.4301659353739633, 36.68394921385499, -8.264622006868318, -5.650925850615662, 1.7113656388777463, 8.833601543630458, 8.808982217858038, 4.163350675575874], [-5.080799283768839, 15.068527306606626, -6.309231444557366, -10.128484966386301, 9.599240838879034, 8.34083881483912, -5.056174033473162, -12.455092910613137, -0.892799593416373, 6.235042226780241, -6.938405721263695, -13.609337572523133], [0.9644905312281936, 18.690059403615955, -20.07522974301527, -7.613653816122531, -1.3196018576855921, -11.017818489777868, 16.69974072506836, -2.2608437056956143, 4.364760058035579, -18.426562702670605, 30.12428827829011, 26.845140838369037], [-6.900563932780598, -21.478386373872468, -3.147712886158564, 8.618257888760933, -9.430592094911606, -8.39334425113554, 6.295991056589977, 4.819897228927036, 16.762274926490946, -26.51960688489923, -6.222506438250215, -7.991868677976044]], "weights_ho": [[-4.644376514659767, -8.489359005454348, -1.0680037397423514, -4.785093009307626, 8.714705579618306, -22.485395603050282, 18.064132799347107, 24.858956159620583, 8.710792355136405, -3.4361358323567015, -16.61237845910025, -1.3217401442113395, -5.601247289294315, 5.707197946809659, 16.828787149519204, 4.371384300908745], [-2.445744257778953, -1.6706546739428032, 10.465867362558704, -16.15986761382029, 16.971186684812526, -11.817067526125118, 5.376026924440287, -1.917673813965604, -6.993553635812344, 4.640787590426377, 18.254899289482918, -40.83022621750602, 0.12144930928218818, 5.816956754791896, -21.97224034721225, -7.400743416917431], [3.8216697080626343, -7.861202827284141, -4.025702109010578, -5.153539566783824, -6.586609784025152, 10.666695905105573, -6.780250597682904, 1.9555224004060288, 3.767228228867198, 2.855820310078947, 20.390926702662163, -4.69768050670349, 9.945777543676893, -23.39211187743397, -15.63502978537402, 6.898150798977028], [-0.23492642813749048, 32.99384439559983, -13.061922602592272, 9.4729608208105, -8.711074981153537, -0.8553956350499407, 10.962241327701133, -1.0862159456543112, 27.043191085900816, -25.21808442479407, 6.659463147208362, -11.151702069246387, -13.349132043924916, -7.14701940635327, -6.6163704839647455, 19.298016253886125]], "bias_h": [[-7.1327824514610825], [-6.505692308573811], [-16.309930086396015], [-19.35086117290242], [-3.0812028628293384], [4.148904287964673], [19.46060592936666], [20.678022374637305], [1.8784514787696434], [-1.511624601984032], [0.462075933081903], [15.844794416622188], [8.431083740946466], [2.148992080439059], [14.051460765784409], [8.191924828867414]], "bias_o": [[-7.130642702045202], [-0.7535953582719709], [-13.011178220476177], [-12.893357926838437]]}, {"input_nodes": 12, "hidden_nodes": 16, "output_nodes": 4, "weights_ih": [[-0.18567443542991657, 5.566788276185582, -7.885734114177967, -8.020820198478942, 3.756626448813546, -9.03114820386078, 7.1325298274484945, -0.4783665195721156, 4.0286296525536835, 1.4589099954265732, -7.156749991389879, -15.646308039705739], [0.3529072489536864, -13.930652394492121, 3.7381386673854013, -2.0547845425725857, 10.70913295691158, -2.859530892846142, 18.384265670884968, 8.646015994148184, -1.140262509930703, -6.195990992258768, -10.433367818100427, 18.167844774938374], [10.851910418711011, 2.4284914217101656, -5.303083736267006, 8.012089128219278, -14.388957900114836, -8.035801364448595, 13.174363717351602, -15.32704829384025, 20.86252672078151, -4.833384023660075, 13.9054580772901, -2.4398643645116262], [1.369317811113624, 27.926184558655144, -21.069088765802576, 5.2633356563385085, -2.5006924937077586, -5.5234428044690835, -8.867931921657673, 5.272236854523054, 10.946627147324952, -2.0028149566886406, 0.1433081453457434, -15.918831875708038], [0.1453905221894171, -11.807352279883624, -3.6897172665275404, -8.442833018057367, -9.77768367904507, 16.75977878352767, 6.371954797157024, -10.09442219116001, -2.648346215479912, 11.86409230827803, 2.6934925545371735, 0.3191088534304469], [-15.524373124817165, -0.3323206093749348, 14.435722735607527, 0.2070314156304503, 3.0849170601328337, 20.583609266637243, 19.20312034924276, 4.916029338120838, 3.0128779785389392, -23.174328846441302, -16.078938054816835, -17.048347064378518], [4.054459716079468, -0.8536383597408841, -12.964184939588746, 14.094207426401343, 3.635872080315192, 7.738062501014317, 15.48488525289789, 14.588341687054895, 5.070403217729793, -2.4695701936300125, 8.327157314271895, 6.996800343330908], [4.81270194841462, -0.12853770645655221, -9.491297542182418, -12.799432983332384, -4.7387864142750225, 8.967343373713057, -5.309720892991367, 8.154445990715812, 18.652511858956082, -13.646254157890928, 16.825534018922703, -5.691113933491656], [0.36810349005251, -23.537512952826233, 1.5404519956368519, 7.7400010661043135, -11.666396489532444, -22.193052830858903, -3.546912683288973, 13.031787587535435, 23.708700915640666, -16.821823923596146, -2.1172102376639135, 0.726835308630082], [4.044951064100413, 2.15510494560053, 16.599541302118155, 5.6369771232683075, 5.160976257171299, 11.97327745127951, 6.347895865448951, -8.344142805696427, 27.385782952745593, -1.6989708866124984, -9.738882892938417, 3.7982848133213563], [-14.593138002799776, 16.135899453613316, -1.190168413835119, -1.637213479119257, -9.795613286130626, -5.8437648626333205, 1.2999293226044641, -10.23661051187992, -9.792901809115548, -4.702023846146666, -5.016622528096288, 15.628487171500359], [10.202859534398108, -0.06933570849545112, -2.561634829545616, 6.051392433810337, -10.51294782879802, 9.070277866931951, 13.182763141213893, 5.904915577483362, -12.017946037692903, -19.703990470447042, 6.82749680385911, -3.1826430180395295], [-9.291473249862898, -6.7102938814687585, -9.5993547998434, -5.405716260630361, -3.5114892116448635, 36.93126334513762, -8.229560364784568, -5.817531563775195, 1.5715965688617517, 8.777563359105574, 8.764617820521035, 4.2341654584716215], [-5.122825163674634, 15.292502364299116, -6.465598425658877, -10.022484591728235, 9.552448698096049, 8.38263260833823, -4.893574940203632, -12.299171076554961, -0.8793051373854551, 6.175678739392442, -6.848847007594712, -13.738885061554647], [1.0221438629698605, 18.58881968332339, -20.131394303659526, -7.871779363793918, -1.4313588432006898, -11.009792796496187, 16.357679689016813, -2.025866971684017, 4.503007575390008, -18.280383464947292, 30.2647118819254, 26.83317843663508], [-6.812255391023385, -21.4239099046734, -3.154616795696505, 8.621333053312323, -9.496167374850177, -8.390767329321658, 6.316479886096268, 4.840394528781081, 16.66197209463607, -26.443835441769462, -6.167011507016013, -7.807368714291433]], "weights_ho": [[-4.624573904792315, -8.471926661607448, -1.1413200840439754, -4.681100892113733, 8.606609020737706, -22.442369967035177, 18.14853645021116, 24.80680096156059, 8.673157385512052, -3.114005748504429, -16.56131442097044, -1.307621145540554, -5.650111231904468, 5.650119094129318, 16.724073555168676, 4.250202364051148], [-2.5092972159650975, -1.7811772127792387, 10.700154812793484, -16.120489880893405, 16.81320744650477, -11.769520882032943, 5.252982819342565, -2.0425738994315483, -7.036581197884532, 4.735746342151293, 18.007595620652012, -40.77094544653136, 0.19300080603587932, 5.876132543896171, -21.936903459492804, -7.656875115768519], [3.687236219011572, -7.799980298029526, -4.019705443978592, -5.219710336981981, -6.653074931173029, 10.720455823677169, -6.742154770266776, 1.7627893457053496, 4.0316912788695385, 2.6137654665806003, 20.394696471202202, -4.467154958383097, 10.008418219473077, -23.332383182821573, -15.71957807199901, 6.764817502182536], [-0.4093817564624732, 33.015844934182184, -13.051612361589589, 9.600279339171436, -8.696062288321254, -0.7787623374641404, 10.936885719551949, -1.1978173339970466, 26.767293760978173, -25.298659994774788, 6.63936975163026, -11.305795396849572, -13.510881967481353, -7.211975664519809, -6.437586263574783, 19.2215979180174]], "bias_h": [[-7.105917228584223], [-6.363770869564648], [-16.195495007234832], [-19.401108256298464], [-3.1384564446548535], [4.020987909062743], [19.409978426519277], [20.604244806691753], [1.8693545035296033], [-1.7035467230784656], [0.5379028854090308], [15.726278335811449], [8.355486794003674], [2.2285230669285245], [14.014395166648859], [8.27028302526126]], "bias_o": [[-7.011585901822749], [-0.6865479730750057], [-13.05639915098809], [-12.962071465284708]]}, {"input_nodes": 12, "hidden_nodes": 16, "output_nodes": 4, "weights_ih": [[-0.14874781563657527, 5.59727736947786, -7.676890422881467, -8.018997306245717, 3.7689336319985185, -9.060149004744632, 7.150005760146129, -0.4320163655365121, 4.063245766245673, 1.4549625019653702, -7.059317526324254, -15.692890612222595], [0.3182594117947841, -13.941228023948081, 3.7723446188731877, -1.8804606120784266, 10.731764218214032, -2.4899638414143057, 18.431103605107566, 8.490580875705627, -1.3061078957145231, -6.32402741669621, -10.611264553398087, 18.256476679034424], [10.868082954543706, 2.4347771569688446, -5.266495222902957, 8.213358136644876, -14.403597992903338, -8.115969687787523, 13.354723034710359, -14.996486679516329, 20.71635862938006, -4.903089314614268, 13.87664165996109, -2.2475033301364684], [1.224459187616771, 27.880777246341776, -20.99136932287483, 5.305726207465078, -2.4730775953070356, -5.335477923820011, -9.07994404528476, 5.381710541253429, 10.920147448112694, -1.998006339944917, 0.11190374477354725, -15.83950014876225], [-0.05259562084665548, -11.760109998076626, -3.780802860386986, -8.412059403669401, -9.716477776579682, 16.814197602001304, 6.017928287309757, -10.161861337241863, -2.610778007867939, 11.895314203756328, 2.909757103762761, 0.3689275096229134], [-15.446518334047386, -0.36442255003035107, 14.291077690452584, 0.22953221274363172, 3.1369351291012735, 20.766045041665286, 19.343766291877415, 4.799083754295008, 2.937475522218596, -23.113592994234835, -16.27619670687531, -16.99352000651488], [4.218260844861622, -0.6208388624790756, -12.603736650227477, 13.97131575706518, 3.7934498350077805, 7.875147838711104, 15.42666314588232, 14.697333075261163, 5.072688503323317, -2.464080496257627, 8.255504620901657, 7.308469287855645], [4.965108981982436, -0.3076833621305868, -9.425812587258338, -12.865311981618056, -4.664083880149002, 8.876938634079895, -5.432838671576785, 8.088185930423917, 18.406667204808056, -13.812272109878137, 16.370952483847688, -5.775079244114901], [0.32484120294347635, -23.533598037764712, 1.4197391780588582, 7.783382049407006, -11.685133441160236, -22.27732836143702, -3.5159250315626682, 13.206329380796662, 23.52260864379044, -16.712905606717264, -2.1203967342204657, 0.7580113218005227], [3.9895208893477436, 2.198531791739841, 16.591538139306426, 5.681317820305059, 5.120240130812659, 12.072038863735255, 6.331995423951065, -8.425967558770324, 27.35178553667319, -1.7723839451719456, -9.707077303654643, 3.8140429478498477], [-14.607080577875905, 16.069870986492933, -1.0466306512557197, -1.5857517494682063, -9.811787402026228, -5.627013609320617, 1.2206067318562153, -10.198086127803698, -9.784965759997167, -4.6540785432679845, -5.034914901629295, 15.609585767929872], [10.334497201831756, 0.028107922540323987, -2.5545304207398445, 6.020123145945301, -10.623532526659103, 9.122996379582439, 13.35599065678603, 5.8616644839021514, -12.088868072929053, -19.68109726403171, 6.653968644081116, -3.0694961784536936], [-9.245110632578879, -6.8964805194317105, -9.599143686516976, -5.373447484673034, -3.4566926009384615, 36.7595136795732, -8.167821007059793, -5.661796617875048, 1.6403646738683086, 8.695452036875938, 8.761705209430069, 4.171809006694566], [-5.172675925040323, 15.223670196482376, -6.428301361977151, -10.018352590986257, 9.614615422668887, 8.349557982450094, -5.011986351652228, -12.168601359233312, -0.8814497648395623, 6.273975473067159, -6.85480682557697, -13.534560074491813], [1.0550583435354635, 18.84572536807613, -19.860540002848655, -7.687918054559857, -1.3819578140019455, -10.936288581211608, 16.299922920266297, -2.0737099195514865, 4.504527673063379, -18.116714918363378, 30.226450100501008, 26.89170088750731], [-6.639178120257141, -21.48747634137607, -3.1639905989492947, 8.61715266761692, -9.42414170863007, -8.361635629385813, 6.364803094923396, 4.601143454633066, 16.720622872679794, -26.49500583041288, -6.07592772067021, -7.835216141303051]], "weights_ho": [[-4.56268471982641, -8.72384432024183, -1.1420384357139306, -4.66939018117659, 8.678603514319002, -22.39221624097568, 18.066178350841746, 24.773420629832305, 8.622440144912565, -3.261352052094873, -16.61977525188339, -1.3752451964623287, -5.778765804622486, 5.7067029174826684, 16.708689243403384, 4.311158009760691], [-2.343386284657461, -1.6119465107417592, 10.842301366055562, -16.09397118224158, 16.785425598444913, -11.692227664948934, 5.253497664144544, -1.9746552108299817, -6.947336736115447, 4.595116050557635, 18.15301514207621, -40.70109344257571, 0.1640415256379302, 5.741867067537718, -21.94853511874597, -7.619646789533048], [3.641840622582422, -7.768574688799662, -3.9002113702216423, -5.073878476674305, -6.4709837844242, 10.587622430267176, -6.8965197653301, 2.0583136755336318, 3.794565373101986, 2.7771662642994803, 20.391495223411706, -4.5357638697797915, 9.646333124550011, -23.340865530767513, -15.672900885045737, 6.780609121256006], [-0.2846839163787657, 32.68184978013487, -12.97105550142269, 9.547879955984552, -8.770014790469684, -0.7410049046718508, 10.988618414626568, -1.0685942789926326, 26.939341745889216, -25.30016946440802, 6.751754697241141, -11.13174658631354, -13.79903815126763, -7.12609227402938, -6.396248307824698, 19.347674930497565]], "bias_h": [[-7.270565776532671], [-6.471054203588483], [-16.295110457022574], [-19.48286822803229], [-3.1814500025894143], [4.088787291879234], [19.27420715286874], [20.48433827623184], [1.9605045902366642], [-1.7353728812820812], [0.5765548349540623], [15.720353253467392], [8.353269593196476], [2.1326797924539864], [13.747798150039923], [8.293483436852524]], "bias_o": [[-7.029150321935267], [-0.6985084692106298], [-13.022011371669674], [-12.795967203342162]]}, {"input_nodes": 12, "hidden_nodes": 16, "output_nodes": 4, "weights_ih": [[-0.21198675903924544, 5.5189317106691576, -7.751534524547038, -8.12233823045187, 3.811489287065081, -8.879229025842996, 7.184710212212909, -0.4292920435891483, 3.9785832832154524, 1.4633866493885619, -7.016554371990962, -15.700637273564615], [0.43274477845120085, -13.76466279630666, 3.745507993230961, -2.1493224360536, 10.70314584292183, -2.8766318599739016, 18.668047209869943, 8.585926855569095, -1.2631303119232435, -6.198451531032865, -10.37056620691556, 18.212485137803824], [10.811304597218564, 2.347661790511002, -5.309559551894223, 8.294454013779477, -14.386300592478749, -8.08234123185047, 13.352442889756801, -15.248107604338912, 20.97994383818272, -4.923207306634653, 13.898059090856524, -2.281761788856419], [1.5122339965616631, 27.836226624531463, -21.13652305456821, 5.244287917901746, -2.443495490071783, -5.654449799735585, -8.765508049726593, 5.255184321131412, 10.928131727968438, -2.0275541857685377, 0.18253103054156636, -15.964828347141124], [0.12379431560960502, -11.755075805998743, -3.6351394429292596, -8.390284082253908, -9.744513530754968, 16.86272373121452, 6.219711786800967, -9.985471110953752, -2.633139221805153, 11.880213174550457, 2.8745203004106132, 0.5020786594111365], [-15.514575269437824, -0.2120415227828929, 14.458040967164283, 0.23705776102517684, 3.0711246015193603, 20.807440092490015, 19.40639103551338, 4.710628731345741, 3.046729717800834, -23.15111685399951, -16.3855307453079, -17.218705828504113], [4.266869321996326, -0.8984202288258027, -12.769623584925982, 14.021574265330377, 3.94177825378613, 7.9940884096610185, 15.229137566097199, 14.612226261189559, 5.085200092297056, -2.438180031133305, 8.300337263142612, 7.260674324396641], [5.011263238337754, -0.10856749895045645, -9.545619916786464, -12.800684543307376, -4.661415460203254, 8.907802572496808, -5.452010100389424, 8.032463114607662, 18.621323571955962, -13.82645524370665, 16.5322328077399, -5.749650782708075], [0.40084018523501885, -23.43781715135521, 1.3627507615657133, 7.773644785648316, -11.480458834352, -22.066058061357023, -3.527991338229692, 13.162884623011802, 23.580011115717266, -16.799514815566674, -2.120728509369269, 0.6546455411258235], [4.140362322823855, 2.2977068122906874, 16.623852240703137, 5.604191290834776, 5.08595689352625, 12.282823890479843, 6.378761073279817, -8.382852171623846, 27.465287871224692, -1.7094391352407863, -9.769819914381564, 3.745004622699352], [-14.613893541611397, 16.00961604751643, -1.2048652764673806, -1.6692595343546108, -9.74908766436153, -5.703205349687188, 1.2814851202207906, -10.2287116396943, -9.768696167857723, -4.564373441836991, -5.053398574734656, 15.837329414980164], [10.228160528150726, -0.11414440952658941, -2.577640401421224, 6.1475436531350915, -10.475530915745496, 9.13790516825422, 13.198009405426605, 5.697150550778748, -12.08334493435033, -19.745193514371465, 6.935620372055307, -3.097873520287806], [-9.289387817487338, -6.77702848795943, -9.654380421565412, -5.3752041830612765, -3.377377296849124, 36.72562306563509, -8.244149758006238, -5.770933775064636, 1.617208762563993, 8.833601543630458, 8.808982217858038, 4.203719824266372], [-5.109826268234471, 15.27325619150772, -6.331782854667441, -10.329384076738851, 9.599240838879034, 8.122100807895839, -5.065751065581653, -12.419698516842054, -0.7647722387693543, 6.283909293080152, -6.854933639222942, -13.660604316976698], [1.0927714910778084, 18.690059403615955, -20.168181055856266, -7.613653816122531, -1.3071112829955602, -11.118307387607473, 16.359280022845578, -2.043728411198542, 4.37578692034831, -18.381448873626564, 30.13418943724069, 26.846443681964065], [-6.783975832635033, -21.369640211596305, -3.0176209772128204, 8.729014359722958, -9.430592094911606, -8.605517832204285, 6.459142931723065, 4.672593887154754, 16.890131984036334, -26.264779605501676, -6.106620867726884, -7.991868677976044]], "weights_ho": [[-4.644376514659767, -8.395824652119728, -1.0680037397423514, -4.656250639106329, 8.900659675367075, -22.24737873196471, 18.14890051510877, 24.858956159620583, 8.587596765059391, -3.3389522343221385, -16.626605206614254, -1.2648268184057025, -5.601247289294315, 5.707197946809659, 16.816351904473954, 4.213223195490972], [-2.445744257778953, -1.6479521438986904, 10.656872750924947, -16.219896642671834, 16.788420211362517, -12.106573933557803, 5.376026924440287, -2.02659502944067, -6.993553635812344, 4.62162856231854, 18.0767742718261, -40.742856279042584, 0.17825147584540252, 5.781548518803325, -21.97224034721225, -7.5343199759942925], [3.8363621903495657, -7.861202827284141, -4.0559619372417215, -5.1956248300758, -6.578584240608111, 10.666695905105573, -6.780250597682904, 1.8297861009556682, 3.848623253992251, 2.855820310078947, 20.276937823000154, -4.677483322451077, 9.945777543676893, -23.512990244419285, -15.63502978537402, 6.898150798977028], [-0.37714884869175375, 32.94624883775782, -12.98249836532313, 9.4729608208105, -8.711074981153537, -0.782143521147146, 10.962241327701133, -1.1322660440525345, 27.05917633466245, -25.19843243594806, 6.779240491332038, -11.104221643723571, -13.243489294609995, -7.229719317950797, -6.567339591672034, 19.317011426983314]], "bias_h": [[-7.1327824514610825], [-6.4819756402159125], [-16.309930086396015], [-19.29101805292108], [-3.0812028628293384], [4.18516846136165], [19.354919432126987], [20.678022374637305], [1.9125089097736736], [-1.5975839422242732], [0.462075933081903], [15.933441730734307], [8.273694950050876], [2.148992080439059], [13.936380750056685], [8.191924828867414]], "bias_o": [[-7.108957148552126], [-0.7627288372889973], [-13.020360826443294], [-12.829615576072381]]}, {"input_nodes": 12, "hidden_nodes": 16, "output_nodes": 4, "weights_ih": [[-0.1980974694756591, 5.563848411572174, -7.846221394675821, -8.182542160741368, 3.811622365171025, -8.91612637251268, 7.200473020761721, -0.4783665195721156, 3.9710208263696893, 1.1706594637958232, -7.179656759448456, -15.824435936132174], [0.36749226047698114, -13.611431084531803, 3.7381386673854013, -2.1207265675724405, 10.7358471690089, -2.876561344415426, 18.268096813013273, 8.39571129464933, -1.1502761573921076, -6.273406631838613, -10.495951789848906, 18.253540201996085], [10.851910418711011, 2.3139449985540788, -5.303083736267006, 8.108184766722047, -14.29020192856515, -8.19811942234188, 13.333992323193872, -15.372958067396256, 21.109684424611302, -4.833384023660075, 13.969183782009253, -2.379495108880212], [1.5792526872947834, 27.991542010160494, -20.9643366781271, 5.085153789099638, -2.408230529924317, -5.229443811389151, -8.76730803855906, 5.233636984365971, 10.659928514672123, -2.0239568644146795, 0.20006789149318388, -15.843498526423176], [0.11408084677430409, -11.720712547891422, -3.464689877945056, -8.60798095150181, -9.71824960534193, 16.893452708047278, 6.110988929909102, -9.98366734586472, -2.43098815122686, 11.877848418167627, 2.9803008204811725, 0.30867261635952553], [-15.513757882404729, -0.3323206093749348, 14.494487635881972, 0.2070314156304503, 3.0849170601328337, 20.87104572096102, 19.304562245437605, 4.807796749292814, 2.9789325244759226, -23.174328846441302, -16.167576496989867, -17.059495665833275], [4.380329244474741, -0.7228655255861548, -12.826496020261242, 14.094207426401343, 3.816460070575796, 7.901357301306925, 15.40638039706887, 14.541920835757868, 5.070191439325216, -2.387971892555264, 8.181342433502541, 7.158550452078901], [4.8168820788139985, -0.21498434323104038, -9.723576221339346, -12.799432983332384, -4.6919156280355825, 8.909281889999079, -5.392764796173163, 8.145245391734987, 18.652511858956082, -13.83910666735444, 16.504103232894842, -5.8022209788380605], [0.4108528854926936, -23.440663304178145, 1.4629003080823022, 7.8118340950798615, -11.541918832505651, -21.900688116619513, -3.6252237811982058, 12.907139580524362, 23.534523621832527, -16.8810006719655, -2.212714269022806, 0.6898694454150961], [4.032203934875934, 2.1679643216600653, 16.557781208574145, 5.717046613562823, 5.001001432390359, 12.309418073401822, 6.347895865448951, -8.427235648228345, 27.41148580799023, -1.7830485510682446, -9.887412845007443, 3.564388990791998], [-14.554000526729654, 16.08678252329844, -1.3331818485468998, -1.6591711431356404, -9.76856298649692, -5.6295986010736545, 1.352222854252559, -10.13516656844803, -9.827781276052633, -4.622295274965991, -5.04307722541331, 15.590751571252799], [10.23526547810841, -0.05454236019179392, -2.7086916379220107, 6.1302246063268555, -10.53997039486061, 8.869156029893848, 13.182763141213893, 5.904915577483362, -12.057189667654479, -19.695645393668656, 6.864628021319552, -3.132280885128946], [-9.158342252924673, -6.771151539095217, -9.667727216853207, -5.377815582000794, -3.5602659609353777, 36.80513195329174, -8.134702093008928, -5.486465596358904, 1.7249936488334883, 8.743008792271315, 8.881705401461833, 4.316900308297931], [-5.122825163674634, 15.276506618195988, -6.448730267090141, -10.12585333155517, 9.530973572770185, 8.325592981467741, -4.966090514806454, -12.295677343715393, -0.9027391611491266, 6.124276932217037, -6.8110479287162145, -13.87176082110049], [0.8707123822970301, 18.635969733775077, -20.160209798436146, -7.567419331364939, -1.4313588432006898, -11.04231891704725, 16.459465267364227, -2.176683043179268, 4.5147969226761315, -18.38562735549251, 30.24225885057014, 26.736458722202794], [-6.814347300469617, -21.34332201260346, -3.096250695163658, 8.626990482308564, -9.499868164254694, -8.341786270800267, 6.264987767586264, 4.605336705756893, 16.65272811184131, -26.549199899637102, -6.074071132756007, -7.986325298505767]], "weights_ho": [[-4.584050776497865, -8.471926661607448, -1.029791868098054, -4.712336840294601, 8.858411367433648, -22.499458441110882, 18.14853645021116, 24.80330130119084, 8.567007235092403, -3.2054116740153753, -16.574939872574802, -1.4868357959467808, -5.616826155967356, 5.744854273597154, 16.773873002774252, 4.260406533443247], [-2.343386284657461, -1.836604078406126, 10.689442258182398, -16.28535080634751, 16.906108662446925, -11.829616481501247, 5.29297800225986, -1.98738027863475, -6.906343175926808, 4.450309151380775, 18.007595620652012, -40.649600737398906, 0.14731313039501248, 5.863650149472136, -21.995407904783534, -7.622402836183328], [3.866537090267423, -7.877866108745138, -4.053332878832501, -5.277572040634942, -6.653074931173029, 10.74077346240644, -6.7955339398420485, 1.7561229117221397, 4.007975738536202, 2.7744954837693747, 20.394696471202202, -4.517212106152352, 9.68070252831823, -23.39183489300658, -15.626221738171324, 6.834063559119136], [-0.4093817564624732, 32.94098541159947, -13.1404236277388, 9.488262669404683, -8.658738951282151, -0.7787623374641404, 10.985083922245952, -1.1339063849193154, 26.777082687655973, -25.283555266502184, 6.7202941550726205, -11.182237505739527, -13.458739441243164, -7.136038202790884, -6.494673826644229, 19.271305227855052]], "bias_h": [[-7.093364426341122], [-6.473974941586561], [-16.305482607944096], [-19.48516747120153], [-3.1384564446548535], [3.9454141896589863], [19.230329585613223], [20.625968328493737], [1.8540949815828567], [-1.8100808549289673], [0.48751698202015104], [15.609130991296261], [8.386886413803198], [2.1377562158873014], [14.027778254767764], [8.266477101954708]], "bias_o": [[-7.070272680613117], [-0.6002566828183021], [-13.05639915098809], [-12.899638855859562]]}, {"input_nodes": 12, "hidden_nodes": 16, "output_nodes": 4, "weights_ih": [[-0.1684997619756563, 5.529603657884705, -7.72050490239922, -8.265662372586878, 3.811622365171025, -8.972394730376976, 7.316279553525416, -0.5995891426479855, 3.9924345389385145, 1.4205657660193114, -7.179656759448456, -15.53589788056701], [0.35305926544747623, -13.879217118327919, 3.766618058517634, -2.0518746832026937, 10.76275191900606, -2.803866527996587, 18.372455334205597, 8.521227046701965, -1.046816526593309, -6.312348426480253, -10.349160866867356, 18.276585681730126], [10.767977193289164, 2.1471301844892574, -5.2425422796556, 8.154332126095042, -14.540600946360211, -8.11375711039165, 13.252687060976927, -15.29381953600037, 20.848094027178917, -4.848386346383866, 13.988047302417513, -2.536351376933024], [1.4070291827418993, 27.943143541565092, -21.062615033074103, 5.214593180200834, -2.329375521795109, -5.3767816130505235, -8.819440159410307, 5.243071268820627, 10.860063864718228, -2.069695886544938, 0.13114900061525023, -15.906926271670656], [0.05431244150449542, -11.692572570432754, -3.744277777668009, -8.432033848130974, -9.71824960534193, 17.05994604677391, 6.110988929909102, -9.98366734586472, -2.613870249420107, 12.0151464452077, 2.955564322684731, 0.3216666684211971], [-15.55901905256473, -0.33960976177264834, 14.430500126522922, 0.19021321068290672, 3.0849170601328337, 20.521984775597286, 19.27562227485035, 4.776474012420642, 2.876856077873339, -23.21467252782642, -16.37029024216557, -16.97906381647079], [4.279509256745916, -0.7097915631218714, -12.805983614893774, 14.094207426401343, 3.768744383157821, 7.8673842522702095, 15.509878801851773, 14.636563077647105, 5.070403217729793, -2.637049981046546, 8.291801764970327, 6.994148623099809], [4.975923673263008, 0.136807490210006, -9.257155018987758, -12.799432983332384, -4.663324705701781, 8.812672456233921, -5.371598278755112, 8.192567898307916, 18.552387664061534, -13.940459031889999, 16.54412746720221, -5.550869439418853], [0.35308277353945927, -23.440663304178145, 1.5041383826156656, 7.9702486389859395, -11.590465166461547, -22.14249479610516, -3.5177139851866865, 13.051972271696805, 23.42694094850169, -16.82095203257346, -2.0512951358280964, 0.6121806314849212], [3.9887935776561902, 2.346488951031714, 16.580708924819966, 5.777317354131143, 5.143392343591657, 12.141276508670742, 6.3875571303356695, -8.306918773512201, 27.409344585441133, -1.809676349955131, -9.771690681966632, 3.801464312648293], [-14.522718834860614, 16.15176049458732, -1.238353565667475, -1.8744940563418824, -9.76856298649692, -5.6451648287860134, 1.2243229384915586, -10.142711735752508, -9.758927670888124, -4.64676216970292, -5.0980609916512005, 15.631536201886266], [10.142647443102126, 0.13483635205145572, -2.4337417091266063, 6.051392433810337, -10.421920446972042, 9.109410442057582, 13.291849523115463, 5.878438913115962, -12.234387448593857, -19.60811660588786, 6.852571647656284, -3.1441490825313463], [-9.324412374617095, -6.75540167931827, -9.844991543359543, -5.296481756609022, -3.5628930942040173, 36.6683116669583, -8.142843900157803, -5.6501149314351515, 1.6298877471847344, 8.652378338806255, 8.764617820521035, 4.204769522903746], [-5.17109938097115, 15.276506618195988, -6.432849945288883, -10.290914420734957, 9.451878171496581, 8.359856823828915, -5.074714892516926, -12.025010365074476, -0.9023339245975426, 6.22441364168715, -6.9089818148195885, -13.547337507867514], [1.270965279124342, 18.759280961001302, -20.109200005665567, -7.687253859181605, -1.4313588432006898, -11.182353559638026, 16.17295082732984, -2.1287138674693127, 4.503007575390008, -18.333705797062823, 30.18563532331429, 26.890898428837765], [-6.869295039454608, -21.342699856710304, -3.0970642679609166, 8.618340046784231, -9.420311757588216, -8.376725666409556, 6.284374871362339, 4.6195282359940935, 16.66197209463607, -26.495395745100964, -6.116886550370513, -7.917189967826163]], "weights_ho": [[-4.584050776497865, -8.520147484319558, -1.2789815533960414, -4.688682717432664, 8.772297339063494, -22.499458441110882, 18.149869828021302, 24.770239673527854, 8.597279296650688, -3.2528293300311897, -16.61018794384234, -1.3180696852516425, -5.720273234304707, 5.7186356877379465, 16.721837770524765, 4.313760657060798], [-2.343386284657461, -1.5815636171865766, 10.748365829808757, -16.275645183988495, 16.592657728627245, -12.047264106912735, 5.2401921795047635, -1.9382430454641577, -7.036581197884532, 4.386106959273044, 18.012355330656206, -40.91371405827773, 0.10904912570957305, 5.891146231515179, -21.95798522295618, -7.481239259284756], [3.5412573236447886, -7.869217157523586, -3.92414633982638, -5.16202518687714, -6.6968875896516, 10.646734837332861, -6.756423404489903, 1.709968462282348, 3.717477749316912, 2.756177569045495, 20.424121210001093, -4.467074626023691, 9.914894744041536, -23.41664344888223, -15.82139318253848, 6.696381180661217], [-0.5264753542399759, 32.885975168875355, -13.128675782737002, 9.365835837364948, -8.655859049776474, -0.7240394313761971, 10.826161803828468, -1.0596526896998881, 26.779175362518927, -25.26254565401333, 6.667651129401303, -11.201347665667978, -13.557746664327984, -7.194573858898235, -6.349302148365729, 19.317299079667894]], "bias_h": [[-7.148128600945451], [-6.362467124043433], [-16.287963128761973], [-19.230432725660222], [-3.369630939301167], [4.144099321225591], [19.412048919356987], [20.678567238732015], [1.8839750727247289], [-1.7454127151183063], [0.5025752158500264], [15.719211445135848], [8.319688183869577], [2.124551174069757], [13.934297663356396], [8.230896805421688]], "bias_o": [[-6.98057788222151], [-0.5654946102077696], [-13.01949893852419], [-12.845474309442583]]}, {"input_nodes": 12, "hidden_nodes": 16, "output_nodes": 4, "weights_ih": [[-0.28575872169444844, 5.604172304960927, -7.753753098252275, -7.902924122479908, 3.649308686288037, -8.894157717363163, 7.17587246720295, -0.4320163655365121, 4.40574246845322, 1.5024490141496993, -7.385521152290078, -15.73423328737099], [0.3642062703385768, -13.88979274778388, 3.704364991104662, -2.100234304163993, 10.74184886087864, -2.9232653820451944, 18.539068037931507, 8.734201555784738, -1.3359286397950854, -6.166174677580467, -10.483190408382283, 18.30618105886611], [10.82361566583336, 2.4130112579984315, -5.307466508401522, 8.102225443588438, -14.403597992903338, -8.077573609265578, 13.374099579430546, -15.296959587574172, 20.958600996651, -4.823397266034556, 13.785173357886991, -2.2527394764504036], [1.3817659476179578, 27.903345806478, -21.041730277881037, 5.3943525332964475, -2.360339254474345, -5.4085337864932646, -8.912070032160724, 5.2187360092435195, 10.787127522092042, -2.05315079862814, 0.09974460004305408, -16.022778408075297], [0.39421744591730545, -11.70742465743248, -3.7907363907039415, -8.381342719519946, -9.781191077584447, 16.835075110213133, 6.063638460362808, -10.097816011080086, -2.6414930569270183, 11.694571074110653, 2.9827394991955187, 0.418687956540079], [-15.534311320519224, -0.3571333976326375, 14.453498247936405, 0.1467130646527374, 3.129576950245441, 21.01543462668878, 19.34065658365491, 4.727817604171243, 3.008582835564379, -23.408391925194348, -16.229453705281838, -16.85446943583084], [4.089803487657677, -0.6098086072204241, -12.805983614893774, 13.976693232941903, 3.78743388003045, 8.104613679669104, 15.318564194883464, 14.679416954949948, 5.055540465449656, -2.414901736497677, 8.242390726681245, 7.1351281633739525], [4.965108981982436, -0.12007880229158696, -9.396680859120046, -12.81634711948895, -4.5739822492139615, 8.94359638014019, -5.326768378076522, 8.107874345622509, 18.66533795861683, -13.71265518293108, 16.603566386526158, -5.7222609171736405], [0.46676082888967124, -23.418782999626945, 1.4197391780588582, 7.931879591093039, -11.671218406237132, -22.315957756583767, -3.536055206906878, 13.011623881547523, 23.52530441288963, -16.712905606717264, -2.1028816002101705, 0.6570017636061521], [3.9895208893477436, 2.255686382908448, 16.529230146188564, 5.741192833591154, 5.066469075722609, 12.015426095448506, 6.314953977137124, -8.396201247709167, 27.45577188839404, -1.741427369887096, -9.864278164316927, 3.7898315490874483], [-14.533795904719566, 16.06728576579772, -1.1362170753158372, -1.588527849230327, -9.784737102392523, -5.493037692370335, 1.2753126128851981, -10.133054962876765, -9.784965759997167, -4.623039156387852, -5.025325306720316, 15.627033138316486], [10.106680434245614, -0.10137602152437813, -2.5161498161484612, 5.949517905093582, -10.609968755718295, 9.122996379582439, 13.326952806138205, 5.96828273240187, -12.004554931446137, -19.616082764260756, 6.740169055571398, -3.1270305054754624], [-9.19094639901259, -6.933632203144414, -9.422332311872928, -5.3369420271626336, -3.4846123298256346, 36.679842356398176, -8.106323171738829, -5.668905908124147, 1.8546265492061496, 8.667531079458783, 8.769218489375083, 4.014673369466256], [-5.169265378269764, 15.314490935918288, -6.133007516480017, -10.22016743500382, 9.750051797809185, 8.15336372218796, -5.046277705895698, -12.295527770471756, -0.9044785520516496, 6.1367519247553055, -6.7964234339085055, -13.486261389449998], [0.9301254725853361, 18.691276406274604, -20.0524248363621, -7.666938727940035, -1.351177036241212, -11.072167119537681, 16.40507053584464, -2.1701243407567663, 4.769664385993617, -18.02599215982969, 30.203997069145746, 26.761954161042972], [-6.68818631086072, -21.34434201644676, -3.128713580923727, 8.445822970476602, -9.318369798258043, -8.375677292297915, 6.362726081059972, 4.758733488042998, 16.651709551399577, -26.345323192156748, -6.033112303055704, -7.982556944726497]], "weights_ho": [[-4.501225726893962, -8.556030317477521, -0.9902607246711529, -4.673478353959038, 8.838756434946356, -22.380374522218617, 18.12109185542478, 24.709405521909176, 8.681541841579369, -3.3252254216940025, -16.59815263222022, -1.3810437036107077, -5.55823719895005, 5.845255056633756, 16.7044570343943, 4.215169199951966], [-2.3531881047231122, -1.629736197042852, 10.744824250067444, -16.21473088472549, 16.672898700110135, -11.815775299146345, 5.3932004349590414, -2.0024026322282715, -6.889994026935309, 4.818272717272833, 18.14825543207202, -40.65151924830149, 0.0843829281819903, 5.70204853290228, -21.661341300555158, -7.613565617890907], [3.938160715687258, -7.800874940069941, -3.7523912053847277, -5.112870319140981, -6.681956984715684, 10.663700442662446, -6.734643093053522, 1.69493983231764, 3.8881342756765194, 2.7771662642994803, 20.362070484612815, -4.44639744158021, 9.763108465827134, -23.51299573589874, -15.723221660645738, 6.647653545885864], [-0.3854882949677441, 33.05560960779259, -12.97754919459724, 9.477721126812048, -8.696798196272722, -0.7410049046718508, 11.05062736551969, -1.1507196226303607, 26.862190230892505, -25.302264143645463, 6.5241994862978485, -11.075154046240197, -13.393828829141928, -7.105872515583034, -6.518982124593994, 19.370861134397074]], "bias_h": [[-6.8670144099183625], [-6.454993238786816], [-16.17682522164833], [-19.466668535416606], [-3.3387681644833918], [4.03211612201438], [19.565209043163897], [20.543075408782613], [1.920250611887071], [-1.7762283496920899], [0.45218214466139905], [15.650368409147669], [8.152852168246952], [2.158386526087565], [13.996544939528047], [8.229412363099366]], "bias_o": [[-6.897461533479598], [-0.5178843075496666], [-13.030908272256072], [-12.535176350841772]]}, {"input_nodes": 12, "hidden_nodes": 16, "output_nodes": 4, "weights_ih": [[-0.20866593193838173, 5.582132528068955, -7.678191750220193, -8.207343673488019, 3.823929548355997, -8.815598469143382, 7.421074859413978, -0.4226114018968601, 4.111760058796582, 1.5833101102441103, -7.265649568701811, -15.758115375519504], [0.3642062703385768, -13.805314126839296, 3.828629227114842, -2.0948834622968446, 10.96548588454386, -2.818152983638015, 18.47721257460312, 8.639747991485253, -1.2778406312529378, -6.266427957262369, -10.484273127896797, 18.256476679034424], [10.843840636609146, 2.3345862239047643, -5.374971843934218, 7.97952480859803, -14.30217759622837, -8.050997373780937, 13.407338059891801, -15.296959587574172, 20.879670363003918, -4.896360730628981, 13.855279456934102, -2.3643539771065187], [1.271100686344806, 27.92030478938795, -21.09998617380295, 5.256983731327404, -2.4730775953070356, -5.410907713552665, -8.930711839391492, 5.2187360092435195, 10.870697220424649, -2.1783173495088906, 0.09974460004305408, -16.017347306214813], [0.21884981140080095, -11.691346030801885, -3.8372976695996384, -8.352929388242103, -9.747559930421444, 16.835075110213133, 6.2588202301574745, -10.032759008601033, -2.8218407590925465, 11.58993410556148, 2.961680849231536, 0.3093201863682653], [-15.548531015648395, -0.40658207462813956, 14.436514476700879, 0.24748872741906985, 3.1008650856108853, 20.734968451216446, 19.49294573772322, 4.709521002009101, 3.0905997815058806, -23.27042163174455, -16.17099290897487, -16.972777920591493], [4.252041922225564, -0.8096933376994555, -12.870007220329773, 14.024812223495966, 3.7934498350077805, 8.089620162841124, 15.296804896531107, 14.579617875576371, 5.1362690446171175, -2.4163713013061336, 8.253410023719987, 7.0636759313018445], [4.917763555929162, -0.12831737524000753, -9.380658674707227, -12.796046478111839, -4.629526410712899, 8.893020409905859, -5.269583265515085, 8.079748371322287, 18.58952653566722, -13.818128191247336, 16.477394158804596, -5.808760433423393], [0.4366541441936187, -23.42891436964768, 1.4197391780588582, 7.848321560879363, -11.702770584857202, -22.1951647743806, -3.51139077018363, 13.240905430411035, 23.523956528340037, -16.712905606717264, -2.3455369332122906, 0.6748885430610154], [3.9349161972089166, 2.22512304238284, 16.643141869820223, 5.702318695796307, 5.179550010749049, 11.979825490998724, 6.324879424920437, -8.263355246709668, 27.460835922797255, -1.7723839451719456, -9.869861426826839, 3.8938135247044037], [-14.61937445073671, 16.10510891391327, -0.9559054282917737, -1.5694058613584914, -9.784737102392523, -5.4936832656508, 1.0845597507760436, -10.140069511457003, -9.756460067626579, -4.626109533460993, -5.06066965336778, 15.593228127509539], [10.240833634601398, 0.028107922540323987, -2.5545304207398445, 6.113616971123188, -10.54716682732944, 9.190737664914115, 13.377932182734154, 5.610498311907589, -12.059127591364483, 