{"generation": 30600, "population": [{"input_nodes": 12, "hidden_nodes": 16, "output_nodes": 4, "weights_ih": [[-7.453699338495759, -5.425368916627202, -1.1512441533589828, 2.470099869066235, 2.802619788332597, -3.0438508408882794, -5.039169800746744, -6.250060410171089, -9.451254845723778, 0.2327555233652443, -2.994283683516063, -7.083806890913446], [5.384899464516876, -6.05228929485084, -10.919971051493185, 0.802024913359705, 2.7094318318434945, 2.980120670426607, 14.508322561410617, 11.823456970386864, 3.5398689251374176, -4.0069365459943285, -0.06476039471531367, 5.304158208867885], [6.476821677507418, 12.345543515009396, -12.690510969103368, 2.3428405830674626, -11.426680564993633, -4.893068024912776, 10.785702368461639, -13.894772249052938, 15.40317650891858, 8.358113781979421, 3.212452380394735, 8.377451052630825], [15.151227274925256, 23.737191671870264, -19.297748643475455, 9.708218583478748, 3.2462117933348353, 2.348973315824054, -4.8169743178973885, 6.682870234795592, 0.5583408001267531, 0.24342471454955084, -6.485766243728844, -7.4444584479045925], [-0.06323729989488348, -6.185066195384446, -15.76088011892533, -3.8054590498423226, -10.180108182738087, 14.361585304670628, 2.2539414764436767, -7.926794714721812, -13.016913388331472, 4.4330407547226685, 1.3518642083811123, -1.6974811280885163], [-15.624526034365111, -4.562064891484823, 15.747220036718605, 0.5308981754347497, 0.7349744212505969, 20.835071204904537, 14.800184535612596, -2.6528445012997, 11.552107633850335, -11.804702518404872, -19.1916663359337, -6.319370546490895], [-8.231599244762966, -1.4538463070830014, -7.957365618060844, -0.7605243321581896, 6.493348685509803, 7.071970505619712, 7.563729487185747, 4.8219264589418085, 4.542668367643741, -4.668848297284705, 0.8489164723482565, 10.579403315678828], [0.5599222036528247, 5.266460184901787, -7.304704040211261, -16.198857570756243, -9.216630342578423, 3.2094311741586266, -11.137120518401305, 1.4612834007060622, 14.004903681339943, -1.8757887840964569, 8.856836095956083, 2.913737120699148], [1.7207875554925898, -24.21950926844534, -5.966078613378148, 19.00583663390397, -7.247412016497217, -9.829094949418232, -3.2003371802189453, 9.563330565627219, 11.851477225443096, -19.955685733566398, 1.564318153489011, -7.15472779913448], [-3.291451744099196, 0.807018836892418, 3.163675096367035, -1.5096747546806408, 5.313924403902083, 8.073791861608516, 11.111318699270818, -2.871764322196187, 17.333106472971135, -4.241817593310678, -2.643171312686558, 3.0295743520063527], [-11.369884517667778, 1.5250938484041616, -2.27467108147263, -0.16244727908452533, -5.7368936006551445, -5.619663603626922, -2.77221050664281, -2.740838802095137, 3.7346059705811756, -1.2192732089539315, -13.108810754907742, 9.430647366214576], [1.33548728119105, -8.954911672662702, 0.08375637063389271, 6.199770505203579, -3.81879699544969, 7.467069394151172, 16.152862444460926, 1.9665820863477437, 3.293571108546323, -5.519019891910735, 0.7928245349112993, 8.796520255977507], [2.7438192548620206, -6.386248885965952, -0.8578376291538343, 1.2393484779465513, -6.7268595881216235, 35.408692435719914, -6.4125368103777625, -5.075607000593082, 10.805875446175556, 9.448257548208556, 11.732689410272792, 8.737528835269787], [-5.8622717551806645, 2.1470036907186936, -13.230767273723718, -9.095212413785925, 2.7455196244942566, 11.545642919548214, -2.7998844234664513, -5.104390565031363, 1.4829617921673606, 7.9774372463041985, 1.2114425553851156, -10.83100775964394], [1.3904544194839494, 4.477391051410438, -13.966534258281511, -4.352893097636932, -5.403502476868534, -5.846363127499923, 15.262501341441993, -4.818620314716251, -5.216597029716351, -2.826157793636657, 27.39711680493334, 14.121109902498553], [2.460117946316395, -4.491787304330988, -3.1505412601487373, 7.987509611138246, 2.2443959948455614, -16.758652914496068, 13.9545599894852, -6.947774665380552, 8.320855787746195, -16.412440884367822, 7.052761355855995, -2.48718963642175]], "weights_ho": [[-10.781086388399121, -9.150263237804802, -12.49960601885749, 0.22993323530319765, 6.3452727177845745, -18.707979989763963, 19.845346359785022, 18.16938556410402, 5.123491570956326, 1.2249042719398546, -3.845085105246957, 2.192532794927921, 1.552442904205029, 5.848776477258109, 2.8530351072623095, -0.987430736613218], [3.4813666100757086, 6.123142447726084, 11.79401703678402, -6.64010438167969, 10.497752386811664, -10.606985595494667, 0.12881155492031066, 5.892043846734293, -5.566205274477257, -3.855011882533359, 20.110053546443226, -26.447339826482462, -5.414309054510812, 5.034266386773006, -8.3440278247971, 1.6351374847910334], [3.556587341684898, -12.833359678639187, -9.260965776697757, -0.7470546463367631, 1.540690011192579, 12.301705555230466, -7.29202849071493, 3.3011616289574306, 4.154109503977225, -1.6906482802100298, 17.402831272292207, 2.353042926121446, 6.100915240150126, -23.199494679968343, -7.362269430940209, 3.3602046860669748], [-14.636023674993995, 16.560732408278255, -0.6526556467568456, 5.448454186292118, -3.5671232994016897, 2.8835980824029916, -1.4250757654047022, -10.294416798495357, 28.623028838013788, -16.87924767897816, 4.922544768516976, -13.001960859468475, -4.1385806694724865, -7.042325855795892, -9.278780463972751, 7.772247166290771]], "bias_h": [[-3.6468950815603636], [-9.73037782668318], [-12.513642279384817], [-9.511891786278168], [4.8371951806028815], [12.204241997609834], [11.883618773656993], [9.437496184060535], [5.008972099705507], [-1.5817876848255], [2.622389890929186], [15.484183894671311], [12.794387936977815], [-0.3843953627449931], [12.171950051818346], [6.961926344355584]], "bias_o": [[-4.288953717499826], [-1.8137395889276433], [-12.551640238705776], [-13.647506844881697]]}, {"input_nodes": 12, "hidden_nodes": 16, "output_nodes": 4, "weights_ih": [[-7.453699338495759, -5.281841424209663, -0.9378528344616742, 2.470099869066235, 2.76314946507876, -3.0438508408882794, -5.039169800746744, -6.250060410171089, -9.471647847089598, 0.2327555233652443, -2.994283683516063, -7.083806890913446], [5.2566104245065, -6.081721393646002, -10.854303595579953, 0.7198196749885868, 2.7094318318434945, 2.980120670426607, 14.556698355605137, 11.732114169239926, 3.5635422026334496, -4.063389932743536, 0.02574796153847181, 5.3059368173214105], [6.546871315309381, 12.119108798033114, -12.690510969103368, 2.1642023552415526, -11.426680564993633, -4.893068024912776, 10.785702368461639, -13.894772249052938, 15.40317650891858, 8.358113781979421, 3.212452380394735, 8.377451052630825], [15.151227274925256, 23.737191671870264, -19.061048574513244, 9.708218583478748, 3.21952989344751, 2.348973315824054, -4.8169743178973885, 6.682870234795592, 0.5583408001267531, 0.4024117297507156, -6.588631407736323, -7.4444584479045925], [-0.14636012061409986, -6.185066195384446, -15.66161800122118, -3.853804430914425, -10.180108182738087, 14.361585304670628, 2.2539414764436767, -8.129978053462661, -13.016913388331472, 4.4330407547226685, 1.3518642083811123, -1.7290889762541033], [-15.624526034365111, -4.562064891484823, 15.715303938996634, 0.7384846413466774, 0.7349744212505969, 21.117311585339557, 14.800184535612596, -2.837599091774606, 11.552107633850335, -11.804702518404872, -19.1916663359337, -6.319370546490895], [-8.231599244762966, -1.4538463070830014, -7.796743640308506, -0.9246285363159491, 6.470494019569267, 7.071970505619712, 7.563729487185747, 4.942698105089467, 4.542668367643741, -4.736315210440902, 0.8702493717174408, 10.579403315678828], [0.5599222036528247, 5.285563770558299, -7.562345878899869, -16.198857570756243, -9.186393769963702, 3.136697289944265, -11.147973298552797, 1.411866641758264, 14.004903681339943, -1.8757887840964569, 8.96536136676036, 2.826606506931043], [1.7207875554925898, -24.21950926844534, -5.966078613378148, 19.050213438191268, -7.057274697834485, -9.726487688447236, -3.1258067092818447, 9.563330565627219, 11.703112017544033, -19.837360441962115, 1.492415195872721, -7.15472779913448], [-3.291451744099196, 0.6739035564813625, 3.151824169587112, -1.5612546549839712, 5.255035763834922, 8.116317258431492, 11.095781023720438, -2.871764322196187, 17.458511373443162, -4.268350209216292, -2.498210894528631, 2.943274086986265], [-11.448814153109984, 1.5250938484041616, -2.27467108147263, 0.08043592612933531, -5.7368936006551445, -5.619663603626922, -2.77221050664281, -2.664906359076189, 3.8514365019441152, -1.1124159083321665, -13.108810754907742, 9.430647366214576], [1.4409532493562318, -8.906870193700847, 0.08375637063389271, 6.2791882985885525, -4.0216342076110045, 7.442457466536832, 16.152862444460926, 1.9733205530743156, 3.339698647794497, -5.448569192092389, 0.7928245349112993, 8.875098903766988], [2.8063604988480564, -6.386248885965952, -0.7863570545724943, 1.2076098884993127, -6.639035690824229, 35.67187665829718, -6.423885262424018, -4.9022784105892985, 10.805875446175556, 9.526845619983495, 11.732689410272792, 8.737528835269787], [-5.8622717551806645, 2.1470036907186936, -13.230767273723718, -9.123560884056511, 2.7455196244942566, 11.545642919548214, -2.8334348769498763, -5.149583373502996, 1.4829617921673606, 7.784209699243453, 1.2114425553851156, -10.751716987406184], [1.6685245396692765, 4.444164678626265, -13.9178194771532, -4.370708920584821, -5.335864571270465, -5.8145291581488, 15.262501341441993, -4.818620314716251, -5.207031175573689, -2.837572510674972, 27.39711680493334, 14.042455049984108], [2.460117946316395, -4.491787304330988, -3.1505412601487373, 7.987509611138246, 2.3805736911254605, -16.758652914496068, 13.9545599894852, -6.9906000339030205, 8.443760054548582, -16.412440884367822, 7.052761355855995, -2.4808072360700417]], "weights_ho": [[-10.971532078404381, -9.150263237804802, -12.49960601885749, 0.34865855704683, 6.251476928342856, -18.707979989763963, 19.963228440917508, 18.101241721450098, 5.123491570956326, 1.2249042719398546, -3.845085105246957, 2.192532794927921, 1.552442904205029, 5.848776477258109, 2.8530351072623095, -0.987430736613218], [3.4813666100757086, 6.123142447726084, 11.79401703678402, -6.814259383713182, 10.426301568156989, -10.606985595494667, 0.12881155492031066, 5.793089269996496, -5.578972061567126, -3.855011882533359, 20.110053546443226, -26.447339826482462, -5.414309054510812, 5.1540938644404735, -8.3440278247971, 1.8246526153671156], [3.541497698291764, -12.833359678639187, -9.260965776697757, -0.5478936576643403, 1.704296821319181, 12.427937341438804, -7.29202849071493, 3.3011616289574306, 4.154109503977225, -1.6491905513519567, 17.33393082258617, 2.353042926121446, 6.100915240150126, -23.2461411252446, -7.362269430940209, 3.3602046860669748], [-14.716959553676698, 16.55976830088307, -0.6526556467568456, 5.465251808038751, -3.5671232994016897, 2.9823595456063834, -1.4250757654047022, -10.294416798495357, 28.623028838013788, -16.74369120395848, 4.922544768516976, -13.001960859468475, -4.233738361420879, -7.042325855795892, -9.178268030104109, 7.834407370036895]], "bias_h": [[-3.7450993273246094], [-9.73037782668318], [-12.574688706714763], [-9.591829300509376], [4.8371951806028815], [12.204241997609834], [11.883618773656993], [9.449762390089584], [5.008972099705507], [-1.5817876848255], [2.5910941357968484], [15.417012842209356], [12.794387936977815], [-0.3843953627449931], [12.178739017966915], [7.002293335434745]], "bias_o": [[-4.288953717499826], [-1.7766162597805888], [-12.629432422668051], [-13.62803774164396]]}, {"input_nodes": 12, "hidden_nodes": 16, "output_nodes": 4, "weights_ih": [[-7.453699338495759, -5.436045730690928, -1.1512441533589828, 2.470099869066235, 2.8999860558267607, -3.0874819883609135, -5.005421976143755, -6.289535080788328, -9.367782153350625, 0.2327555233652443, -2.8675252080940767, -7.083806890913446], [5.364029381925949, -6.05228929485084, -10.919971051493185, 1.0313645595197243, 2.6771414628410573, 2.980120670426607, 14.475592153784758, 11.823456970386864, 3.5398689251374176, -4.0069365459943285, -0.06476039471531367, 5.3306775380580085], [6.4046327803289325, 12.345543515009396, -12.690510969103368, 2.2919515379463977, -11.426680564993633, -4.893068024912776, 10.948453962698444, -13.894772249052938, 15.40317650891858, 8.26507452834919, 3.212452380394735, 8.377451052630825], [15.151227274925256, 23.69982843234888, -19.22026087907522, 9.686911767930319, 3.2649202368901102, 2.348973315824054, -4.8569044557164816, 6.752174955029454, 0.5102302578383302, 0.24342471454955084, -6.445678731545335, -7.456824738678859], [-0.06323729989488348, -6.185066195384446, -15.76088011892533, -3.9641255275276377, -10.226897593291767, 14.33244664317929, 2.3017217815831104, -7.957905310162933, -12.900954144563823, 4.4330407547226685, 1.3518642083811123, -1.6974811280885163], [-15.506301159379953, -4.562064891484823, 15.747220036718605, 0.5090045081768422, 0.736440773452185, 20.70152109193821, 14.800184535612596, -2.6845835252351966, 11.552107633850335, -11.804702518404872, -19.08021109066542, -6.1632547460495095], [-8.312773274495937, -1.419036428730492, -7.957365618060844, -0.7605243321581896, 6.393079889985411, 7.071970505619712, 7.543989543141827, 4.8219264589418085, 4.542668367643741, -4.633798760240889, 0.8489164723482565, 10.589329548434659], [0.5740194364708812, 5.266460184901787, -7.304704040211261, -16.329913913914293, -9.115549109072905, 3.2094311741586266, -11.172645128001298, 1.4612834007060622, 13.883611405805809, -1.8757887840964569, 8.856836095956083, 2.8758120024928115], [1.824828358842683, -24.248380471888424, -6.0881206323641734, 19.101060626496892, -7.298178867424522, -9.877694682321223, -3.142236519639715, 9.427726372285003, 11.848052495566906, -19.955685733566398, 1.564318153489011, -7.15472779913448], [-3.260761056309765, 0.7875772997911388, 3.1149748116219422, -1.5096747546806408, 5.313924403902083, 8.222544187423766, 11.111318699270818, -2.9237295494851416, 17.333106472971135, -4.2679551285851955, -2.7387002205084756, 3.0295743520063527], [-11.369884517667778, 1.5409435563157856, -2.27467108147263, -0.16244727908452533, -5.7368936006551445, -5.619663603626922, -2.77221050664281, -2.6929436219498295, 3.642039919406889, -1.230906387819106, -13.108810754907742, 9.430647366214576], [1.191539723727271, -8.954911672662702, 0.08375637063389271, 6.199770505203579, -3.81879699544969, 7.467069394151172, 16.20023357371109, 1.8859022637043485, 3.199227063409913, -5.432985970421522, 0.6909744102004269, 8.870813951291083], [2.7438192548620206, -6.285054647699162, -0.7065870773835152, 1.0710642549287375, -6.7268595881216235, 35.408692435719914, -6.4125368103777625, -5.075607000593082, 10.747083407756811, 9.360131772206364, 11.732689410272792, 8.737528835269787], [-5.8622717551806645, 2.2723828352840516, -13.230767273723718, -9.082114887790503, 2.7455196244942566, 11.545642919548214, -2.7582213065595416, -5.0403898115395425, 1.427701859696569, 7.9774372463041985, 1.041786052321086, -10.806508587461263], [1.3904544194839494, 4.320304818949165, -13.966534258281511, -4.352370527537116, -5.403502476868534, -5.895927671594607, 15.155668616312425, -4.818620314716251, -5.125020761391142, -2.9055000407446196, 27.386468058662462, 14.056986600459338], [2.3098638378034066, -4.491787304330988, -3.1505412601487373, 8.087786229985158, 2.2443959948455614, -16.83769656195256, 13.9545599894852, -6.947774665380552, 8.248392093335505, -16.412440884367822, 7.052761355855995, -2.48718963642175]], "weights_ho": [[-10.881986867715675, -9.150263237804802, -12.49960601885749, 0.22993323530319765, 6.181930867850376, -18.814160202090235, 19.845346359785022, 18.16938556410402, 5.123491570956326, 1.2249042719398546, -3.845085105246957, 2.141546908894068, 1.552442904205029, 5.83315258492375, 2.8086337427347874, -0.9481690391596262], [3.4813666100757086, 6.221004878966703, 11.79401703678402, -6.64010438167969, 10.497752386811664, -10.570918497421513, 0.13424393971290957, 5.892043846734293, -5.571393957748676, -3.855011882533359, 20.110053546443226, -26.43693424380318, -5.414309054510812, 5.034266386773006, -8.386816666110338, 1.6734246091441243], [3.556587341684898, -12.833359678639187, -9.14229867600786, -0.7470546463367631, 1.5051941435380234, 12.301705555230466, -7.29202849071493, 3.3011616289574306, 4.154109503977225, -1.5759767649360845, 17.402831272292207, 2.353042926121446, 6.2308447985037665, -23.128849247046187, -7.3908531756692355, 3.3602046860669748], [-14.661940843580274, 16.480903030762253, -0.5572340997691126, 5.448454186292118, -3.5671232994016897, 2.761382710308357, -1.466269570430713, -10.240021554425441, 28.623028838013788, -16.99842104354949, 4.906827898751148, -13.001960859468475, -4.081990162702459, -7.042325855795892, -9.446330591755382, 7.778651379955875]], "bias_h": [[-3.5980994668887725], [-9.637105462583836], [-12.635603498776582], [-9.563041538173152], [4.8371951806028815], [12.204241997609834], [11.883618773656993], [9.437496184060535], [5.050224094000432], [-1.7229675584039685], [2.646349918044331], [15.484183894671311], [12.67985321141051], [-0.3884762599366199], [12.171950051818346], [6.961926344355584]], "bias_o": [[-4.288953717499826], [-1.8541870119975146], [-12.551640238705776], [-13.647506844881697]]}, {"input_nodes": 12, "hidden_nodes": 16, "output_nodes": 4, "weights_ih": [[-7.453699338495759, -5.425368916627202, -1.2434660422338484, 2.437655326045808, 2.802619788332597, -3.172415004011244, -4.966330114424851, -6.134469574518033, -9.440509116534988, 0.2327555233652443, -2.822565164366336, -7.083806890913446], [5.384899464516876, -6.05228929485084, -10.911098204148129, 0.802024913359705, 2.7507998878324864, 2.980120670426607, 14.508322561410617, 11.943385020535418, 3.5398689251374176, -4.0069365459943285, -0.06476039471531367, 5.304158208867885], [6.476821677507418, 12.345543515009396, -12.690510969103368, 2.270012687197303, -11.397592975213385, -4.893068024912776, 10.785702368461639, -13.86622025430894, 15.40317650891858, 8.34141959192866, 3.354474830312389, 8.29287362080531], [15.151227274925256, 23.7193059710872, -19.254289822563155, 9.708218583478748, 3.2188576669003446, 2.348973315824054, -4.8169743178973885, 6.682870234795592, 0.5583408001267531, 0.22086192424677553, -6.352515946288262, -7.478567619215084], [-0.08338815718747225, -6.185066195384446, -15.76088011892533, -3.8054590498423226, -10.188965680610778, 14.367977747924696, 2.203967263607195, -7.859698216719501, -12.867919158423666, 4.4330407547226685, 1.244656307963861, -1.6974811280885163], [-15.624526034365111, -4.562064891484823, 15.747220036718605, 0.5308981754347497, 0.5791398901668114, 20.775908004567793, 14.783206145386368, -2.6100978602825244, 11.682509351988008, -11.816729147271872, -19.207779870498403, -6.317381666133618], [-8.231599244762966, -1.4538463070830014, -7.957365618060844, -0.7605243321581896, 6.493348685509803, 7.071970505619712, 7.563729487185747, 4.888584111947368, 4.516493108347698, -4.668848297284705, 0.7736944539584424, 10.528358154516367], [0.624634642389663, 5.352642880534125, -7.304704040211261, -16.198857570756243, -9.191618134747962, 3.3126757729000427, -11.137120518401305, 1.4828055668847242, 14.004903681339943, -1.8757887840964569, 9.01928593089856, 3.0146650015514145], [1.7207875554925898, -24.21950926844534, -5.966078613378148, 19.00065131492946, -7.07595609312364, -9.829094949418232, -3.2003371802189453, 9.471980232490566, 11.851477225443096, -19.790501024558413, 1.564318153489011, -7.15472779913448], [-3.291451744099196, 0.8386372371658537, 3.163675096367035, -1.6568508993996616, 5.263274920062144, 8.073791861608516, 11.111318699270818, -2.811600720604201, 17.333106472971135, -4.238732943597385, -2.643171312686558, 3.0295743520063527], [-11.369884517667778, 1.5250938484041616, -2.27467108147263, -0.16244727908452533, -5.7368936006551445, -5.600984214087762, -2.815772023340674, -2.6311139436518785, 3.7346059705811756, -1.2192732089539315, -13.108810754907742, 9.60018444876407], [1.33548728119105, -8.954911672662702, 0.08375637063389271, 6.199770505203579, -3.7565741509966815, 7.543589600585369, 16.152862444460926, 1.9665820863477437, 3.293571108546323, -5.519019891910735, 0.7928245349112993, 8.844316575428802], [2.819993440469332, -6.385256270735239, -0.8578376291538343, 1.2393484779465513, -6.786875772188351, 35.523672028858776, -6.4125368103777625, -5.020984054140979, 10.67709224561716, 9.448257548208556, 11.732689410272792, 8.875266287438794], [-5.888518906630806, 2.1470036907186936, -13.210632723523123, -9.122960612824055, 2.81378246397802, 11.51488909200337, -2.7998844234664513, -5.103088099504501, 1.6125793374471913, 7.9774372463041985, 1.2098768370066308, -10.83100775964394], [1.3904544194839494, 4.453433699488253, -13.966534258281511, -4.130665131434681, -5.403502476868534, -5.756301312465581, 15.262501341441993, -4.773932145950238, -5.303913795543464, -2.826157793636657, 27.455759280725868, 13.935528910635758], [2.460117946316395, -4.491787304330988, -3.211817776726978, 7.987509611138246, 2.4748500658944375, -16.758652914496068, 14.037445120743651, -7.058963025870675, 8.349863338359386, -16.412440884367822, 7.18778703323588, -2.48718963642175]], "weights_ho": [[-10.781086388399121, -9.150263237804802, -12.428957990256006, 0.22993323530319765, 6.233106414671916, -18.707979989763963, 19.845346359785022, 18.192796744546243, 5.069553074580419, 1.2249042719398546, -3.7875852228819102, 2.077348754731694, 1.552442904205029, 5.848776477258109, 2.8530351072623095, -1.0464936862101004], [3.4813666100757086, 6.179601766660451, 11.79401703678402, -6.488989594617806, 10.472457093039374, -10.701521006788406, 0.2603685722765286, 5.849470689078943, -5.566205274477257, -3.855011882533359, 20.140511905522846, -26.337187235005707, -5.414309054510812, 5.034266386773006, -8.391687269139828, 1.6692929214690926], [3.558175490978406, -12.833359678639187, -9.213314165446608, -0.7470546463367631, 1.4090516115843237, 12.224123392754365, -7.350343237794976, 3.333521359887164, 4.154109503977225, -1.6906482802100298, 17.386289875569023, 2.270057020441622, 6.100915240150126, -23.216955764401767, -7.384856882998658, 3.3602046860669748], [-14.636023674993995, 16.49357023118249, -0.6526556467568456, 5.165792221641915, -3.5671232994016897, 2.8835980824029916, -1.4250757654047022, -10.294416798495357, 28.623028838013788, -16.762834276442568, 4.922544768516976, -13.120671464682504, -4.1385806694724865, -6.9475955441424615, -9.22602277368077, 7.718430651711003]], "bias_h": [[-3.706940090329553], [-9.73037782668318], [-12.540454330286332], [-9.410025220302392], [5.012899831634972], [12.333236855929718], [11.883618773656993], [9.563017039904864], [4.985326891172889], [-1.5817876848255], [2.6436644236361455], [15.484183894671311], [12.794387936977815], [-0.3843953627449931], [12.073792593777508], [6.961926344355584]], "bias_o": [[-4.474303836415457], [-1.8137395889276433], [-12.551640238705776], [-13.647506844881697]]}, {"input_nodes": 12, "hidden_nodes": 16, "output_nodes": 4, "weights_ih": [[-7.453699338495759, -5.543197571890567, -1.1512441533589828, 2.341648554176875, 2.9446897741227764, -3.0438508408882794, -5.05243300873602, -6.2412687164591505, -9.451254845723778, 0.42873266994861947, -2.994283683516063, -7.083806890913446], [5.318121410397421, -6.025558378536873, -10.919971051493185, 0.802024913359705, 2.699777580664198, 3.060704255379857, 14.591758325261743, 11.88713956688775, 3.358423396032937, -4.0069365459943285, -0.02694149805981786, 5.481155577633974], [6.409847624747644, 12.345543515009396, -12.690510969103368, 2.142082321098405, -11.626520954223073, -5.02840692445297, 10.785702368461639, -13.992160975599539, 15.40317650891858, 8.319294169902175, 3.404102009625429, 8.377451052630825], [15.32424515029036, 23.737191671870264, -19.372708929697843, 9.708218583478748, 3.1827704344031775, 2.3707371273174327, -4.8169743178973885, 6.742701308868742, 0.5261017583841301, 0.2764195627541748, -6.41429196777057, -7.546483197035651], [-0.06323729989488348, -6.284009247880386, -15.884678905073589, -3.78936066493286, -10.173492637510586, 14.361585304670628, 2.263373103190871, -7.79027802461768, -13.050458017758139, 4.4330407547226685, 1.3518642083811123, -1.9187448343986218], [-15.624526034365111, -4.559456534438537, 15.869839317100498, 0.5603898120809232, 0.6554631540959476, 20.835071204904537, 14.849683925247446, -2.6528445012997, 11.454972742078892, -11.779806337289905, -19.31309601321274, -6.319370546490895], [-8.280595256587809, -1.5516863522169397, -8.019725665244165, -0.7605243321581896, 6.493348685509803, 7.071970505619712, 7.563729487185747, 4.691234571527504, 4.655880358047421, -4.7014567111914465, 0.8489164723482565, 10.579403315678828], [0.5599222036528247, 5.141643592261047, -7.304704040211261, -16.198857570756243, -9.216630342578423, 3.195106498112506, -11.112019363797662, 1.4612834007060622, 14.004903681339943, -1.8339490118900261, 8.856836095956083, 2.913737120699148], [1.7207875554925898, -24.21950926844534, -5.966078613378148, 19.00583663390397, -7.247412016497217, -9.834310679180128, -3.2003371802189453, 9.563330565627219, 11.851477225443096, -19.955685733566398, 1.564318153489011, -7.099765498602432], [-3.2039183675769727, 0.6315929570952382, 3.163675096367035, -1.5096747546806408, 5.311516755434819, 8.073791861608516, 11.039558123698585, -2.871764322196187, 17.333106472971135, -4.241817593310678, -2.643171312686558, 3.0295743520063527], [-11.369884517667778, 1.5750408834252334, -2.27467108147263, -0.16244727908452533, -5.7368936006551445, -5.619663603626922, -2.9483063892213583, -2.7562702989789747, 3.7346059705811756, -1.2349546211992486, -13.148960627768343, 9.430647366214576], [1.2761829777745837, -8.954911672662702, 0.023169256313891474, 6.199770505203579, -3.9308564827002037, 7.589699932974561, 16.17495020746996, 2.1110626539610267, 3.293571108546323, -5.532146180160747, 0.7928245349112993, 8.796520255977507], [2.7438192548620206, -6.386248885965952, -0.8578376291538343, 1.304157238412881, -6.701593841184988, 35.296294939252974, -6.4125368103777625, -5.233199220062368, 10.805875446175556, 9.448257548208556, 11.732689410272792, 8.585978949824472], [-5.936078505124304, 2.1470036907186936, -13.230767273723718, -9.175647273157526, 2.691356706375894, 11.570482645350905, -2.7998844234664513, -5.104390565031363, 1.605324578639387, 7.884485913497272, 1.2114425553851156, -10.83100775964394], [1.2822420339028016, 4.416605529409335, -13.966534258281511, -4.352893097636932, -5.302747887907294, -5.846363127499923, 15.262501341441993, -4.818620314716251, -5.216597029716351, -2.7949883467130534, 27.501618114880493, 14.278789393856295], [2.460117946316395, -4.506828618164286, -3.210934179928964, 7.987509611138246, 2.2443959948455614, -16.678627766804148, 13.934965846687883, -6.947774665380552, 8.320855787746195, -16.395512334984385, 7.165132626646275, -2.607739966339042]], "weights_ho": [[-10.781086388399121, -9.242487052375678, -12.49960601885749, 0.22993323530319765, 6.457199699909621, -18.540340334707285, 19.849201585454587, 18.16938556410402, 5.137322783650149, 1.2249042719398546, -3.845085105246957, 2.155044856099176, 1.620154021507275, 5.848776477258109, 2.8530351072623095, -0.987430736613218], [3.4813666100757086, 6.123142447726084, 11.68788066312436, -6.609905101566575, 10.497752386811664, -10.606985595494667, 0.10981115846743873, 5.795052466046023, -5.428107663345354, -3.807132400867074, 20.17048375919331, -26.447339826482462, -5.414309054510812, 5.034266386773006, -8.307212117113, 1.731195057694317], [3.556587341684898, -12.784478257313555, -9.243371966920652, -0.7470546463367631, 1.6091162811364552, 12.301705555230466, -7.27756232675686, 3.3011616289574306, 4.154109503977225, -1.8078457056586437, 17.49020164928273, 2.285949089360506, 6.100915240150126, -23.300697489436565, -7.369859958416648, 3.428572711592524], [-14.636023674993995, 16.560732408278255, -0.6526556467568456, 5.448454186292118, -3.4664696899696517, 2.8330801544417095, -1.4250757654047022, -10.268438013423765, 28.623028838013788, -16.87924767897816, 4.998622954460312, -13.001960859468475, -4.328780812817188, -7.042325855795892, -9.350822974877415, 7.988333864013924]], "bias_h": [[-3.657754182818021], [-9.793296708422263], [-12.513642279384817], [-9.511891786278168], [4.820979067060104], [12.204241997609834], [11.90224211449518], [9.437496184060535], [5.008972099705507], [-1.5817876848255], [2.604152278967752], [15.411506938138329], [12.801204705575907], [-0.3843953627449931], [12.171950051818346], [6.961926344355584]], "bias_o": [[-4.288953717499826], [-1.9305765326720077], [-12.551640238705776], [-13.647506844881697]]}, {"input_nodes": 12, "hidden_nodes": 16, "output_nodes": 4, "weights_ih": [[-7.453699338495759, -5.453103044073938, -1.1512441533589828, 2.478194600325027, 2.738356886148149, -2.9827670926008176, -5.015293011391476, -6.031552161142325, -9.454041397162095, 0.30034655388425885, -2.994283683516063, -7.083806890913446], [5.470519980155133, -6.028808586876389, -10.919971051493185, 0.802024913359705, 2.7094318318434945, 2.980120670426607, 14.608531012274561, 11.803076854527829, 3.6111781052920495, -4.0069365459943285, -0.13514836845697942, 5.3980239827537355], [6.518393135719773, 12.372781214712909, -12.690510969103368, 2.3428405830674626, -11.426680564993633, -4.845888841521341, 10.731464529140078, -13.894772249052938, 15.40317650891858, 8.4317712719623, 3.3080670743503333, 8.377451052630825], [15.151227274925256, 23.737191671870264, -19.297748643475455, 9.463532138324064, 3.327776843513038, 2.348973315824054, -4.926959359042414, 6.720014086851556, 0.49235371539393635, 0.24342471454955084, -6.485766243728844, -7.4444584479045925], [-0.107208311273872, -6.320133918089829, -15.954532154936855, -3.8405700902271733, -10.377033198362211, 14.284195540915075, 2.2539414764436767, -8.029481137235225, -13.086935416307254, 4.4330407547226685, 1.2457718134929978, -1.6974811280885163], [-15.685713705254441, -4.562064891484823, 15.712033221150493, 0.5308981754347497, 0.787744305721483, 20.835071204904537, 14.663141647849171, -2.6528445012997, 11.544819293582256, -11.74783425137963, -19.1916663359337, -6.470519403902401], [-8.125443426517558, -1.4284143058995347, -8.061121964565755, -0.6481224168025234, 6.493348685509803, 7.091034376010873, 7.563729487185747, 4.85798681132338, 4.542668367643741, -4.668848297284705, 0.8489164723482565, 10.513840924948774], [0.5599222036528247, 5.266460184901787, -7.296551765932653, -16.198857570756243, -9.216630342578423, 3.3689967011965614, -11.207752823358312, 1.4612834007060622, 14.093259370578958, -1.8757887840964569, 8.856836095956083, 2.913737120699148], [1.7207875554925898, -24.21950926844534, -5.84336813757518, 19.042394512299456, -7.247412016497217, -9.829094949418232, -3.260521322279213, 9.439154239356812, 11.851477225443096, -19.935414230647428, 1.5904225395035112, -7.162485693446506], [-3.291451744099196, 0.807018836892418, 2.9862049948463074, -1.5096747546806408, 5.369280465488868, 8.073791861608516, 11.111318699270818, -2.979385069446079, 17.40547979013805, -4.241817593310678, -2.643171312686558, 3.2140468208799584], [-11.343650923360318, 1.5250938484041616, -2.27467108147263, -0.16244727908452533, -5.699505898380333, -5.478210215193756, -2.9053069657451553, -2.740838802095137, 3.7915966038870526, -1.215840032494892, -13.170954370657528, 9.406081291315928], [1.4300968321827694, -8.954911672662702, 0.08375637063389271, 6.199770505203579, -3.786303250726905, 7.523756762786278, 16.17896570125689, 1.9665820863477437, 3.293571108546323, -5.519019891910735, 0.8942448474832766, 8.796520255977507], [2.8531591773346836, -6.386248885965952, -0.8593671733623339, 1.201615508002217, -6.7268595881216235, 35.408692435719914, -6.4125368103777625, -5.075607000593082, 10.699551111058534, 9.317941703194979, 11.732689410272792, 8.737528835269787], [-5.9736239293419935, 2.0246114656090755, -13.230767273723718, -9.095212413785925, 2.7077999049413375, 11.545642919548214, -2.7866104256809474, -5.057693841036224, 1.4829617921673606, 7.914931475036611, 1.3475133032421098, -10.83100775964394], [1.3904544194839494, 4.661337610891068, -13.966534258281511, -4.352893097636932, -5.403502476868534, -5.7098602128813685, 15.262501341441993, -4.818620314716251, -5.216597029716351, -2.7767856419491386, 27.48887287083296, 14.121109902498553], [2.460117946316395, -4.526189733724802, -3.2566108606971813, 7.987509611138246, 2.36553641670772, -16.758652914496068, 13.9545599894852, -7.055226715185291, 8.320855787746195, -16.442104706303965, 7.052761355855995, -2.48718963642175]], "weights_ho": [[-10.781086388399121, -9.150263237804802, -12.49960601885749, 0.22993323530319765, 6.3452727177845745, -18.795776978792365, 19.845346359785022, 18.16938556410402, 5.227356454127062, 1.2249042719398546, -3.845085105246957, 2.1331418676084017, 1.552442904205029, 5.848776477258109, 2.901260546460704, -0.9986920791151633], [3.4813666100757086, 6.095011913452154, 11.75229888345676, -6.566499474427621, 10.304173588966993, -10.606985595494667, 0.14320581677345431, 5.790512419051565, -5.638611503512054, -3.9323402530550453, 20.110053546443226, -26.447339826482462, -5.414309054510812, 5.034266386773006, -8.459717710564188, 1.6351374847910334], [3.447445054503649, -12.833359678639187, -9.23100690595213, -0.7470546463367631, 1.54123290361832, 12.214383893360457, -7.2467706733405155, 3.306098158871487, 4.154109503977225, -1.6906482802100298, 17.402831272292207, 2.353042926121446, 6.153312067058927, -23.199494679968343, -7.365994109324431, 3.3602046860669748], [-14.751508445133757, 16.560732408278255, -0.6679557345092433, 5.457676092234972, -3.7936470324451492, 2.9715310760888887, -1.211287332439416, -10.28184752358972, 28.623028838013788, -16.87924767897816, 4.922544768516976, -13.100701752600985, -4.1385806694724865, -7.042325855795892, -9.278780463972751, 7.772044980567934]], "bias_h": [[-3.7314434208267135], [-9.73037782668318], [-12.513642279384817], [-9.511891786278168], [4.867517498315579], [12.204241997609834], [11.883618773656993], [9.504462216928166], [5.187720989750557], [-1.5817876848255], [2.622389890929186], [15.484183894671311], [12.794387936977815], [-0.2769729261581177], [12.211746272122927], [6.964494533100559]], "bias_o": [[-4.288953717499826], [-1.8137395889276433], [-12.551640238705776], [-13.647506844881697]]}, {"input_nodes": 12, "hidden_nodes": 16, "output_nodes": 4, "weights_ih": [[-7.2861999818747725, -5.425368916627202, -1.1512441533589828, 2.421639287613591, 2.760885713049334, -2.969722708818145, -5.039169800746744, -6.250060410171089, -9.451254845723778, 0.2327555233652443, -2.994283683516063, -6.965415575719513], [5.251656649208419, -6.148745237114111, -10.876191909497143, 0.6253822554444965, 2.8004116650286814, 2.980120670426607, 14.508322561410617, 11.823456970386864, 3.420515643958351, -3.9976294826160874, -0.12068872794732016, 5.143754990628748], [6.659119688987174, 12.42614174082757, -12.690510969103368, 2.3428405830674626, -11.426680564993633, -4.900759210172658, 10.785702368461639, -13.775666866438323, 15.435736482304428, 8.358113781979421, 3.2269015953823517, 8.377451052630825], [15.396445465413837, 23.741724444809137, -19.22758048296948, 9.828536983506616, 3.261304973989577, 2.2639928664867823, -4.8169743178973885, 6.615659845591424, 0.7650594013887846, 0.18760971836588275, -6.485766243728844, -7.4444584479045925], [-0.06323729989488348, -6.185066195384446, -15.779149158886787, -3.8054590498423226, -10.180108182738087, 14.354869727862535, 2.322967548374411, -7.926794714721812, -12.989607574991338, 4.268031109689804, 1.3518642083811123, -1.7266526670418765], [-15.47174130665587, -4.562064891484823, 15.747220036718605, 0.5153615818829089, 0.7349744212505969, 20.835071204904537, 14.800184535612596, -2.6528445012997, 11.515864034273871, -11.776564310928356, -19.339543375038428, -6.222909334134475], [-8.223788252067761, -1.241469051257393, -7.823603665561058, -0.7605243321581896, 6.493348685509803, 7.055594216059852, 7.6013293796648735, 4.748202265385897, 4.542668367643741, -4.642061452364633, 0.8489164723482565, 10.378578825486882], [0.5599222036528247, 5.410803534711441, -7.304704040211261, -16.198857570756243, -9.229871201366478, 3.2094311741586266, -11.137120518401305, 1.3837175960089223, 14.055546874353933, -1.8757887840964569, 8.895075079570798, 3.0638232841587234], [1.723242195982698, -24.21950926844534, -6.115608084961502, 19.13010960996033, -7.106978333245599, -9.767594157568686, -3.2003371802189453, 9.563330565627219, 11.851477225443096, -19.955685733566398, 1.4155623610438646, -7.15472779913448], [-3.184335773079629, 0.9260361715752573, 3.2704152129143367, -1.7279990780552232, 5.409255105991526, 8.10066835341255, 11.111318699270818, -2.871764322196187, 17.223683743471323, -4.390241310890188, -2.758837600543793, 3.0295743520063527], [-11.369884517667778, 1.5250938484041616, -2.191378241572812, -0.14828378281638294, -5.759139871850924, -5.619663603626922, -2.77221050664281, -2.740838802095137, 3.7346059705811756, -1.2192732089539315, -13.10093916417907, 9.373628494424114], [1.33548728119105, -8.916627759105522, 0.018547876970015753, 6.199770505203579, -3.81879699544969, 7.467069394151172, 16.17821236254865, 1.8238279954769636, 3.2032096653561304, -5.519019891910735, 0.7928245349112993, 8.782811048931789], [2.7438192548620206, -6.386248885965952, -0.8094883733284711, 1.2174128690235797, -6.6058621642598725, 35.36495983633611, -6.4125368103777625, -5.096662006160671, 10.805875446175556, 9.481807978370677, 11.732689410272792, 8.764119295764216], [-5.83189922780033, 2.1382230503279174, -13.230767273723718, -9.095212413785925, 2.7455196244942566, 11.583044820305558, -2.826606094152027, -5.104390565031363, 1.4829617921673606, 8.0545057227804, 1.1716185605019465, -10.83100775964394], [1.4928193862092745, 4.324983032032324, -14.228880517155696, -4.352893097636932, -5.3643468309259, -5.846363127499923, 15.262501341441993, -4.818620314716251, -5.325629054581733, -2.826157793636657, 27.39711680493334, 14.172707207836172], [2.460117946316395, -4.649521079449122, -3.2094507061798274, 7.987509611138246, 2.2443959948455614, -16.709269922542685, 13.9545599894852, -6.9344463055002, 8.320855787746195, -16.55760670246987, 7.032530378861023, -2.48718963642175]], "weights_ho": [[-10.83592952441924, -9.13401537963926, -12.502261142221156, 0.21752042244208958, 6.300799804878397, -18.707979989763963, 19.845346359785022, 18.270371182949276, 5.123491570956326, 1.2249042719398546, -3.845085105246957, 2.3567871452077185, 1.6765329503425404, 5.848776477258109, 2.6712995887433335, -0.987430736613218], [3.7374695771600144, 6.123142447726084, 11.79401703678402, -6.64010438167969, 10.721825230125388, -10.606985595494667, 0.3462400308504405, 5.9456195533135485, -5.448756979030094, -3.870685047140901, 20.342947648980104, -26.391591766505844, -5.414309054510812, 5.013784096754582, -8.47204634988095, 1.6351374847910334], [3.5422851658443553, -12.833359678639187, -9.260965776697757, -0.7970822420986226, 1.3644979657236107, 12.284716048677652, -7.241611857161063, 3.3011616289574306, 4.154109503977225, -1.748954192031232, 17.402831272292207, 2.353042926121446, 6.245386670667858, -23.169887825854428, -7.274026726303867, 3.467263912912269], [-14.636023674993995, 16.70152408418811, -0.8644672380784095, 5.448454186292118, -3.5376484752118222, 2.865261107603046, -1.4250757654047022, -10.151921058680704, 28.623028838013788, -16.975632362314574, 4.922544768516976, -13.063417056658722, -4.05092288399243, -7.042325855795892, -9.111231267143765, 7.772247166290771]], "bias_h": [[-3.6468950815603636], [-9.82489933040358], [-12.137184526925932], [-9.511891786278168], [4.8371951806028815], [12.157515823493313], [11.93104860198738], [9.437496184060535], [5.008972099705507], [-1.4908847403868364], [2.634186062960659], [15.55614017814868], [12.794387936977815], [-0.42990656019692475], [12.171950051818346], [7.099402151748028]], "bias_o": [[-4.288953717499826], [-1.7654618244144182], [-12.50627383362018], [-13.84943542607949]]}, {"input_nodes": 12, "hidden_nodes": 16, "output_nodes": 4, "weights_ih": [[-7.504010984540927, -5.577779169591563, -1.1512441533589828, 2.406250289512292, 2.802619788332597, -3.013379744153503, -5.1826902890221405, -6.262042834111084, -9.371541981409589, 0.2327555233652443, -3.0485471050110156, -7.15108771091782], [5.384899464516876, -6.05228929485084, -10.906287389942992, 0.802024913359705, 2.7094318318434945, 2.8663867907884453, 14.437941936521268, 11.942869742628405, 3.5398689251374176, -4.0069365459943285, -0.1076805256103158, 5.319358670539274], [6.476821677507418, 12.39660210271098, -12.632611201011446, 2.3428405830674626, -11.426680564993633, -4.893068024912776, 10.785702368461639, -14.035343598814132, 15.384532619516449, 8.358113781979421, 3.212452380394735, 8.277946578013536], [14.988832000667967, 23.737191671870264, -19.297748643475455, 9.740866680561584, 3.302468480763072, 2.348973315824054, -4.929391483298691, 6.682870234795592, 0.5583408001267531, 0.2013258679786737, -6.5281395483031766, -7.4444584479045925], [0.04604479194509127, -6.137740097323638, -15.76088011892533, -3.8054590498423226, -10.180108182738087, 14.361585304670628, 2.2539414764436767, -7.926794714721812, -13.016913388331472, 4.4330407547226685, 1.4226274305846796, -1.6974811280885163], [-15.624526034365111, -4.562064891484823, 15.868045573757163, 0.5339149463388415, 0.6269521055410945, 20.789910475665884, 14.651861302462542, -2.6528445012997, 11.682344761506474, -11.804702518404872, -19.1916663359337, -6.225193792589894], [-8.231599244762966, -1.3210698759148065, -7.932358983671019, -0.7605243321581896, 6.539682894903262, 7.071970505619712, 7.563729487185747, 4.93593080846252, 4.5672099811780695, -4.668848297284705, 0.7960322506488696, 10.534671695964876], [0.5918874617586865, 5.316608269554685, -7.323844814838657, -16.198857570756243, -9.039572745025234, 3.2094311741586266, -11.137120518401305, 1.3573670379265845, 13.965341611461541, -1.801526075778276, 8.958159443518396, 2.913737120699148], [1.7207875554925898, -24.21950926844534, -5.896765233761565, 19.00583663390397, -7.247412016497217, -9.83741010224026, -3.2493623510129557, 9.563330565627219, 11.77555193618461, -19.86654992296325, 1.564318153489011, -7.15472779913448], [-3.291451744099196, 0.807018836892418, 3.163675096367035, -1.597331480596882, 5.313924403902083, 8.081080552904886, 11.037794961970656, -2.871764322196187, 17.333106472971135, -4.241817593310678, -2.7825877401878505, 2.814912705599361], [-11.369884517667778, 1.5731893636064533, -2.3166720172530364, -0.16244727908452533, -5.6575582736108405, -5.765239585387543, -2.77221050664281, -2.7713704222908104, 3.631990036412491, -1.384659962225667, -13.108810754907742, 9.430647366214576], [1.33548728119105, -8.874225827624421, 0.08375637063389271, 6.171910180416395, -3.81879699544969, 7.467069394151172, 16.152862444460926, 1.9665820863477437, 3.293571108546323, -5.519019891910735, 0.8507340477131775, 8.796520255977507], [2.6969265985615154, -6.386248885965952, -0.7092289420491327, 1.2234459950428125, -6.674047166439228, 35.408692435719914, -6.4315249503601795, -5.075607000593082, 10.805875446175556, 9.448257548208556, 11.798028086208866, 8.695999511390822], [-5.8622717551806645, 1.9828799599122027, -13.230767273723718, -9.095212413785925, 2.8342966250867536, 11.545642919548214, -2.7998844234664513, -5.063419042037374, 1.4829617921673606, 7.9774372463041985, 1.247383456334467, -10.83100775964394], [1.3904544194839494, 4.5045588788870035, -14.151329723038822, -4.352893097636932, -5.551808753657807, -5.980999924108975, 15.324161660827704, -4.818620314716251, -5.216597029716351, -2.826157793636657, 27.514557438223374, 14.121109902498553], [2.334750925206895, -4.491787304330988, -3.1505412601487373, 7.923372863889526, 2.2843125298936924, -16.758652914496068, 13.9545599894852, -6.947774665380552, 8.320855787746195, -16.23932937497221, 7.056248754977452, -2.3812201931180086]], "weights_ho": [[-10.781086388399121, -9.053274875856287, -12.49960601885749, 0.22993323530319765, 6.3452727177845745, -18.707979989763963, 19.845346359785022, 18.16938556410402, 5.123491570956326, 0.9799595612963765, -3.841922053601839, 2.192532794927921, 1.5182714986221928, 5.848776477258109, 2.8530351072623095, -0.987430736613218], [3.4813666100757086, 6.123142447726084, 11.79401703678402, -6.64010438167969, 10.497752386811664, -10.606985595494667, 0.06698799063545965, 5.813192870767797, -5.474867191273815, -3.855011882533359, 20.110053546443226, -26.528625213888915, -5.321151677603549, 5.034266386773006, -8.3440278247971, 1.6351374847910334], [3.561261631457229, -12.805058335427029, -9.260965776697757, -0.7470546463367631, 1.4868193413075026, 12.301705555230466, -7.472819590597569, 3.3011616289574306, 4.154109503977225, -1.6906482802100298, 17.402831272292207, 2.320998089822956, 6.100915240150126, -23.32376647235191, -7.235955703902718, 3.2763054235885822], [-14.498742157332776, 16.560732408278255, -0.6526556467568456, 5.335903823804737, -3.457639694767194, 2.8835980824029916, -1.4250757654047022, -10.294416798495357, 28.68849831315001, -16.85445106501078, 4.990878232858706, -12.990100645429736, -4.1385806694724865, -7.042325855795892, -9.278780463972751, 7.772247166290771]], "bias_h": [[-3.585438626035069], [-9.840494843813435], [-12.513642279384817], [-9.511891786278168], [4.8371951806028815], [12.204241997609834], [11.883618773656993], [9.425606187496594], [5.157576087343221], [-1.5817876848255], [2.622389890929186], [15.432116657053033], [12.794387936977815], [-0.3169065645042988], [12.219387044774976], [6.882640234424135]], "bias_o": [[-4.288953717499826], [-1.7259526675989867], [-12.63735174792284], [-13.647506844881697]]}, {"input_nodes": 12, "hidden_nodes": 16, "output_nodes": 4, "weights_ih": [[-7.403606590379266, -5.537717368185033, -1.1512441533589828, 2.470099869066235, 2.802619788332597, -3.0438508408882794, -5.0114961809260965, -6.250060410171089, -9.451254845723778, 0.19459940843801127, -2.994283683516063, -7.083806890913446], [5.339039380387131, -6.05228929485084, -10.919971051493185, 0.802024913359705, 2.7094318318434945, 3.0918604604991615, 14.605368097044, 11.936204847998376, 3.62563465587165, -4.0069365459943285, -0.06476039471531367, 5.278623242852402], [6.777511585718191, 12.345543515009396, -12.690510969103368, 2.3428405830674626, -11.493933859647147, -4.893068024912776, 10.73685826416558, -13.894772249052938, 15.40317650891858, 8.44993069445412, 3.212452380394735, 8.377451052630825], [15.103454493178287, 23.818167605748155, -19.18440099292078, 9.708218583478748, 3.2462117933348353, 2.340604570167635, -4.8169743178973885, 6.5412934769935935, 0.36291822630301396, 0.16950287008796408, -6.485766243728844, -7.334619710121648], [-0.10517210111485698, -6.241072486511293, -15.809755099374314, -3.7139683088013546, -10.261574390717476, 14.213162330935786, 2.262075096222089, -8.113850176546018, -13.170410396959538, 4.40837465605918, 1.2014279872165767, -1.7206948911104585], [-15.643872308479065, -4.549918158639733, 15.7828304836629, 0.5308981754347497, 0.7166155176560955, 20.835071204904537, 14.727097027979932, -2.6528445012997, 11.552107633850335, -11.804702518404872, -19.07797020963502, -6.1462914234047705], [-8.231599244762966, -1.4538463070830014, -7.957365618060844, -0.7605243321581896, 6.493348685509803, 7.035537672521075, 7.679321283847412, 4.968831496890065, 4.720193488104965, -4.718293825293736, 0.8021870216403945, 10.581196826866142], [0.5599222036528247, 5.266460184901787, -7.304704040211261, -16.09352771775772, -9.216630342578423, 3.179699075852923, -11.137120518401305, 1.527350579233437, 13.899862726636295, -1.8757887840964569, 8.967025539624608, 2.8014893563702117], [1.7207875554925898, -24.357945421124317, -6.0383707207652275, 19.1150904842072, -7.247412016497217, -9.642790876749237, -3.2003371802189453, 9.712531067545017, 11.851477225443096, -19.90020856057634, 1.623937112302969, -7.246083175788169], [-3.251775181673302, 0.7197360470449108, 3.1869657381099175, -1.5950419160578242, 5.313924403902083, 8.073791861608516, 11.111318699270818, -2.9621353450752252, 17.45444421101359, -4.241817593310678, -2.5944448215777554, 3.0295743520063527], [-11.369884517667778, 1.5250938484041616, -2.27467108147263, -0.12569629560310622, -5.793703769340264, -5.694287490012595, -2.77221050664281, -2.898495182176577, 3.7346059705811756, -1.2192732089539315, -13.335097535876246, 9.555786277864845], [1.4488581670511838, -8.984953266945354, -0.07060312128472188, 6.262700199232711, -4.061054497407533, 7.443060452715627, 16.152862444460926, 2.016604294374996, 3.268994059002488, -5.46430424801932, 0.7928245349112993, 8.86198223855984], [2.7438192548620206, -6.386248885965952, -1.0024961951252727, 1.2393484779465513, -6.760890041470965, 35.408692435719914, -6.502881579524975, -5.075607000593082, 10.805875446175556, 9.448257548208556, 11.796015855226212, 8.737528835269787], [-5.8622717551806645, 2.1676621039397013, -13.230767273723718, -9.129133289509484, 2.7455196244942566, 11.657568388987436, -2.9222483595971327, -5.117324564746146, 1.4829617921673606, 7.9738212575680985, 1.4248050802026304, -10.878460987358524], [1.454632539596766, 4.477391051410438, -13.966534258281511, -4.355477335427943, -5.418070841621013, -5.728462219781671, 15.060592229504094, -4.818620314716251, -5.3696420169711985, -2.962972020097869, 27.365580298367856, 14.04711781188213], [2.4293014471464907, -4.488775541161993, -3.1505412601487373, 7.987509611138246, 2.2443959948455614, -16.885062205984944, 13.9545599894852, -6.941835429753757, 8.39380895857592, -16.419267231052128, 7.052761355855995, -2.48718963642175]], "weights_ho": [[-10.781086388399121, -8.953831813495924, -12.49960601885749, 0.17886440365365477, 6.242250961594682, -18.707979989763963, 19.743787083001916, 18.185531119687152, 5.123491570956326, 1.369365456230419, -3.670660141464727, 2.192532794927921, 1.4479699733837736, 5.848776477258109, 2.704785115107364, -0.987430736613218], [3.3933852450176216, 6.073027379800106, 11.79401703678402, -6.64010438167969, 10.456263376129069, -10.611869896552035, -0.007638072694133302, 5.9773277580535344, -5.46172837359823, -3.855011882533359, 20.110053546443226, -26.447339826482462, -5.414309054510812, 5.031879224943802, -8.402835554992281, 1.6351374847910334], [3.556587341684898, -12.833359678639187, -9.260965776697757, -0.718558518538292, 1.497686231525324, 12.301705555230466, -7.36824070875466, 3.3011616289574306, 4.154109503977225, -1.614317096991495, 17.250029033476938, 2.353042926121446, 5.978098734898566, -23.210911590575165, -7.355627985606209, 3.336330013677429], [-14.636023674993995, 16.696641933543674, -0.6443524027459033, 5.448454186292118, -3.5671232994016897, 2.9087104587440056, -1.6113103903190975, -10.338314975223124, 28.623028838013788, -16.780968637312085, 4.990917693612754, -13.001960859468475, -4.1385806694724865, -7.042325855795892, -9.485361851553389, 7.772247166290771]], "bias_h": [[-3.6468950815603636], [-9.73037782668318], [-12.513642279384817], [-9.511891786278168], [5.01839901973113], [12.096560582214845], [11.883618773656993], [9.437496184060535], [5.231403108323161], [-1.5817876848255], [2.641534090241223], [15.484183894671311], [12.820524599850142], [-0.441782304481852], [12.228616359346061], [6.902359573883819]], "bias_o": [[-4.142535596845598], [-1.8137395889276433], [-12.443548768651578], [-13.647506844881697]]}, {"input_nodes": 12, "hidden_nodes": 16, "output_nodes": 4, "weights_ih": [[-7.453699338495759, -5.455903369122955, -1.1512441533589828, 2.496098199682824, 2.8741960618406734, -2.988127855257178, -5.191609323421588, -6.250060410171089, -9.451254845723778, 0.2327555233652443, -2.994283683516063, -7.121574524725106], [5.337907124750759, -6.05228929485084, -11.042453666380208, 0.802024913359705, 2.488260356640266, 2.9739046004655862, 14.508322561410617, 12.01534983821893, 3.319767165696796, -3.9779551780476092, -0.14534379616940596, 5.304158208867885], [6.546403377592035, 12.397265055188802, -12.690510969103368, 2.3428405830674626, -11.426680564993633, -4.822075486521307, 10.74702237520039, -13.92276868215698, 15.412551773792432, 8.358113781979421, 3.271416408445814, 8.349891910839867], [15.151227274925256, 23.729802675822807, -19.297748643475455, 9.678718239426415, 3.2597277968279337, 2.1777924395107027, -4.741377575501421, 6.6680070346710165, 0.5335745425524918, 0.24342471454955084, -6.366775692714288, -7.4444584479045925], [-0.06323729989488348, -6.087012964924403, -15.753613929083269, -3.8054590498423226, -10.180108182738087, 14.361585304670628, 2.2539414764436767, -7.926794714721812, -13.016913388331472, 4.4330407547226685, 1.3518642083811123, -1.7882173478622017], [-15.591664290074933, -4.562064891484823, 15.861890680257135, 0.45725814387952585, 0.6705287805819236, 20.835071204904537, 14.727407624310661, -2.6528445012997, 11.588016394309335, -11.804702518404872, -19.1916663359337, -6.2772731864141775], [-8.280494995781885, -1.4538463070830014, -8.158927937639696, -0.6996685675342519, 6.398168184877436, 7.071970505619712, 7.577037713379522, 4.946926512554416, 4.413188608211392, -4.721365867632564, 0.8882616116870693, 10.577459251923884], [0.5599222036528247, 5.266460184901787, -7.404132173529829, -16.272929515356584, -9.230127986410206, 3.2094311741586266, -11.137120518401305, 1.4612834007060622, 13.683174099777014, -1.9358241656825652, 8.800091600129589, 2.8669956198210946], [1.7207875554925898, -24.21950926844534, -5.966078613378148, 19.00583663390397, -7.20185704036911, -9.868254859454908, -3.2003371802189453, 9.476561815287123, 11.851477225443096, -19.955685733566398, 1.564318153489011, -7.197230137551422], [-3.291451744099196, 0.7495445316890312, 3.163675096367035, -1.5096747546806408, 5.329281183162082, 8.073791861608516, 11.111318699270818, -2.7971638089469244, 17.333106472971135, -4.1924922232189035, -2.643171312686558, 3.0295743520063527], [-11.53326449940691, 1.5250938484041616, -2.27467108147263, 0.0270055364128714, -5.7368936006551445, -5.619663603626922, -2.758190362679951, -2.6314062723609783, 3.900575553674178, -1.0793510715162047, -13.108810754907742, 9.412076441570655], [1.33548728119105, -8.954911672662702, -0.01659815627296543, 6.199770505203579, -3.81879699544969, 7.467069394151172, 16.152862444460926, 1.9665820863477437, 3.361872661950714, -5.519019891910735, 0.8249396044502195, 8.87950232351543], [2.7438192548620206, -6.413288686520593, -0.8578376291538343, 1.2863005816527988, -6.517538471802893, 35.408692435719914, -6.226563129022647, -5.104824059192512, 10.805875446175556, 9.448257548208556, 11.793717000939342, 8.737528835269787], [-5.8622717551806645, 2.1903892664720104, -13.26260445564629, -9.016166441375464, 2.7184486296129884, 11.593273119292595, -2.7533103821417844, -5.104390565031363, 1.4829617921673606, 7.802438718703837, 1.2114425553851156, -10.912623383791999], [1.3904544194839494, 4.47623633975782, -13.993612499559088, -4.259379942751744, -5.403502476868534, -5.795915576267901, 15.262501341441993, -4.898694501276026, -5.174798952577919, -2.826157793636657, 27.39711680493334, 14.301873311014988], [2.460117946316395, -4.491787304330988, -3.1128327987582405, 7.987509611138246, 1.9042643916643966, -16.758652914496068, 13.9545599894852, -6.947774665380552, 8.320855787746195, -16.412440884367822, 7.052761355855995, -2.48718963642175]], "weights_ho": [[-10.867312921881965, -9.09568677021529, -12.49960601885749, 0.22993323530319765, 6.30811805500583, -18.707979989763963, 19.845346359785022, 18.16938556410402, 5.123491570956326, 1.18832349798483, -3.8782414894367334, 2.192532794927921, 1.5993324056416875, 5.736481730742426, 2.928441981229132, -0.987430736613218], [3.4600505175467746, 6.219133056996894, 11.79401703678402, -6.64010438167969, 10.551895339212361, -10.606985595494667, 0.12881155492031066, 5.892043846734293, -5.662341990659262, -3.803143579999699, 20.2597950410122, -26.447339826482462, -5.414309054510812, 5.034266386773006, -8.27146398168025, 1.6351374847910334], [3.556587341684898, -12.83760170556281, -9.275162930138325, -0.7470546463367631, 1.6609620610606486, 12.301705555230466, -7.29202849071493, 3.3011616289574306, 4.154109503977225, -1.6403622708349348, 17.42792710131848, 2.3617247898287603, 6.100915240150126, -23.199494679968343, -7.245674079677037, 3.1254896709688644], [-14.636023674993995, 16.717040230593756, -0.6318161818416986, 5.505003691820191, -3.5333789024231046, 2.8835980824029916, -1.4250757654047022, -10.294416798495357, 28.690754708626713, -16.82813080383552, 4.81666102123007, -13.021766009285846, -4.1385806694724865, -7.059600452144106, -9.261203503986149, 7.772247166290771]], "bias_h": [[-3.6468950815603636], [-9.73037782668318], [-12.513642279384817], [-9.511891786278168], [4.8371951806028815], [12.093215149794906], [11.842379789057102], [9.437496184060535], [5.008972099705507], [-1.5817876848255], [2.622389890929186], [15.696905791190508], [12.794387936977815], [-0.4592700799500949], [12.238545818332486], [6.8052272008713635]], "bias_o": [[-4.288953717499826], [-1.8137395889276433], [-12.569854556121367], [-13.740261912088936]]}, {"input_nodes": 12, "hidden_nodes": 16, "output_nodes": 4, "weights_ih": [[-7.453699338495759, -5.425368916627202, -1.1512441533589828, 2.436632234233757, 2.8445024789722657, -3.049643938389973, -5.039169800746744, -6.250060410171089, -9.32179315826691, 0.23717919888589836, -2.994283683516063, -7.021126507748669], [5.384899464516876, -5.977617154379634, -10.993883503579186, 0.6510799776707441, 2.6906789269833973, 2.980120670426607, 14.483856433294674, 11.768223809221448, 3.5695045802575613, -3.8413556126758794, -0.06476039471531367, 5.304158208867885], [6.476821677507418, 12.345543515009396, -12.690510969103368, 2.478467218042848, -11.235217752913643, -4.886376367067773, 10.891721421097303, -13.924483664501166, 15.337321900469842, 8.336962410438296, 3.1524227970518606, 8.407514413515552], [14.875332949431405, 23.737191671870264, -19.414325313760163, 9.708218583478748, 3.2462117933348353, 2.267271807454564, -4.7415675764634315, 6.682870234795592, 0.4450369658912177, 0.3991300059345232, -6.485766243728844, -7.506394111931342], [-0.06323729989488348, -6.291608603604919, -15.76088011892533, -3.8054590498423226, -10.180108182738087, 14.361585304670628, 2.2539414764436767, -8.012365265682133, -13.016913388331472, 4.413610003650132, 1.3518642083811123, -1.6974811280885163], [-15.624526034365111, -4.562064891484823, 15.813654353201203, 0.49889442160959957, 1.0748196122599192, 20.824134614314104, 14.800184535612596, -2.6528445012997, 11.500069704289556, -11.755550418398332, -19.1916663359337, -6.319370546490895], [-8.305211837305322, -1.4538463070830014, -8.034045856020779, -0.6710782400753842, 6.493348685509803, 7.071970505619712, 7.5065498382734885, 4.9620990917562215, 4.492313007677828, -4.696008802460375, 0.8489164723482565, 10.530260101879806], [0.5754409475051193, 5.266460184901787, -7.304704040211261, -16.29253532961462, -9.216630342578423, 3.2094311741586266, -11.137120518401305, 1.4612834007060622, 14.027283773028257, -1.8757887840964569, 8.833683882347543, 2.913737120699148], [1.7207875554925898, -24.21950926844534, -5.966078613378148, 18.89797435231118, -7.247412016497217, -9.934790074436759, -3.096591182204784, 9.710465477414507, 11.851477225443096, -20.021845762740348, 1.5841649596115668, -7.037431805257845], [-3.438195932937845, 0.807018836892418, 3.057720521009819, -1.547356607125419, 5.474636092785005, 8.073791861608516, 11.111318699270818, -2.8086702693015493, 17.479660249173406, -4.3284829906902145, -2.643171312686558, 3.0295743520063527], [-11.369884517667778, 1.6099527104489049, -2.0806419739515465, -0.16244727908452533, -5.7368936006551445, -5.76073315663443, -2.919152062990731, -2.740838802095137, 3.7867091931593233, -1.23689794422822, -13.156200008333299, 9.414593391723322], [1.33548728119105, -8.956786172823271, 0.037061113477332513, 6.199770505203579, -3.81879699544969, 7.59395065988018, 16.18040341356523, 1.9665820863477437, 3.293571108546323, -5.541796133607794, 0.7428637347540091, 8.796520255977507], [2.7438192548620206, -6.60250569686849, -0.8979482327485098, 1.3148932912009952, -6.805172047440278, 35.408692435719914, -6.4125368103777625, -5.23550885856064, 10.805875446175556, 9.448257548208556, 11.719708996824624, 8.867819411964248], [-5.869695467530298, 2.1427710684393864, -13.284783755993663, -9.267045267022215, 2.725290900366028, 11.566604674262503, -2.7998844234664513, -5.104390565031363, 1.5595992687344233, 7.9774372463041985, 1.1980522105630367, -10.83100775964394], [1.3904544194839494, 4.477391051410438, -14.088422379878896, -4.425762218855841, -5.480172426942375, -5.846363127499923, 15.262501341441993, -4.818620314716251, -5.216597029716351, -3.0620674519006332, 27.39711680493334, 14.091139156999267], [2.460117946316395, -4.491787304330988, -3.208504951613228, 7.987509611138246, 2.1407455987273885, -16.874333547759335, 13.778274216675847, -7.035621343040819, 8.320855787746195, -16.520904573846313, 7.052761355855995, -2.48718963642175]], "weights_ho": [[-10.781086388399121, -9.094096167219183, -12.49960601885749, 0.33147173112811, 6.441497933534914, -18.655659237555604, 19.845346359785022, 18.16938556410402, 5.123491570956326, 1.2331797806200187, -3.8798842438484575, 2.192532794927921, 1.552442904205029, 6.046014084546018, 2.8530351072623095, -0.8348745373386486], [3.4813666100757086, 6.250343342208654, 11.691051405733868, -6.628261619477748, 10.504166155836783, -10.606985595494667, 0.12881155492031066, 5.892043846734293, -5.566205274477257, -3.855011882533359, 20.098115859092232, -26.447339826482462, -5.449456045128631, 5.083905826133887, -8.221571721296717, 1.6351374847910334], [3.658623390823524, -12.777639737418413, -9.260965776697757, -0.833938670663193, 1.540690011192579, 12.301705555230466, -7.253205324035961, 3.350925981177115, 4.154109503977225, -1.6514680538474427, 17.54535588240015, 2.298795600224245, 6.100915240150126, -23.116115342735416, -7.362269430940209, 3.278389317134017], [-14.564193404120486, 16.560732408278255, -0.5898727534562488, 5.448454186292118, -3.488258559094837, 2.8835980824029916, -1.4250757654047022, -10.340358242718468, 28.632189287121243, -16.87924767897816, 4.762016045277851, -13.001960859468475, -3.9868226483889035, -7.042325855795892, -9.367648987503431, 7.772247166290771]], "bias_h": [[-3.6468950815603636], [-9.73037782668318], [-12.391285314348728], [-9.4155072861974], [4.8371951806028815], [12.253898728858825], [11.883618773656993], [9.437496184060535], [4.954200627703705], [-1.5817876848255], [2.622389890929186], [15.510266872754704], [12.895118573542435], [-0.3148387383650241], [12.171950051818346], [6.961926344355584]], "bias_o": [[-4.368360558379666], [-1.8764719500216611], [-12.551640238705776], [-13.647506844881697]]}, {"input_nodes": 12, "hidden_nodes": 16, "output_nodes": 4, "weights_ih": [[-7.3444207142832205, -5.400741621064302, -1.338494092496601, 2.470099869066235, 2.763638511079064, -3.0438508408882794, -5.039169800746744, -6.250060410171089, -9.505692310525285, 0.2327555233652443, -2.994283683516063, -6.984591172513427], [5.263417868032941, -5.885097200643244, -10.919971051493185, 0.802024913359705, 2.7094318318434945, 2.9274208621784283, 14.745472521940522, 11.823456970386864, 3.5398689251374176, -3.94207067952216, -0.06476039471531367, 5.476115124327369], [6.476821677507418, 12.345543515009396, -12.690510969103368, 2.3428405830674626, -11.426680564993633, -4.893068024912776, 10.875301715996875, -13.894772249052938, 15.463877086086653, 8.382811264319113, 3.301852049533151, 8.377451052630825], [15.193542019785054, 23.737191671870264, -19.297748643475455, 9.829678345922678, 3.106883071435276, 2.3261747151738104, -4.811448415583535, 6.682870234795592, 0.4590545126200333, 0.17064396909481064, -6.485766243728844, -7.4444584479045925], [-0.06323729989488348, -6.185066195384446, -15.768356146400897, -3.8055481180918913, -10.180108182738087, 14.459882837306615, 2.2763793495626636, -7.926794714721812, -13.016913388331472, 4.45647596703335, 1.3419139765559136, -1.6974811280885163], [-15.649141299597451, -4.562064891484823, 15.739981594505013, 0.5308981754347497, 0.6550768993760434, 20.835071204904537, 14.800184535612596, -2.5605966544611185, 11.605596955158713, -11.846415930388332, -19.1916663359337, -6.357516707785638], [-8.231599244762966, -1.3460353851034719, -8.086802436963385, -0.8190555104158079, 6.5394151393681215, 7.075650606483828, 7.563729487185747, 4.83098233148274, 4.516326780093376, -4.518862327592231, 0.8489164723482565, 10.542308189594017], [0.4999581226809813, 5.266460184901787, -7.304704040211261, -16.198857570756243, -9.167138940699886, 3.2094311741586266, -11.031308975344627, 1.4245720063046217, 14.004903681339943, -1.9505570155019152, 8.870694434484573, 2.869309325326166], [1.7207875554925898, -24.21950926844534, -5.949645577659113, 19.00583663390397, -7.24953919486101, -9.829094949418232, -3.2003371802189453, 9.362167796790063, 11.786963206691466, -19.955685733566398, 1.4077942930981462, -7.2269726930446], [-3.291451744099196, 0.807018836892418, 3.163675096367035, -1.5096747546806408, 5.313149951563962, 8.073791861608516, 11.082311558984424, -2.875633892568211, 17.333106472971135, -4.364253317529465, -2.4800137788867898, 3.0295743520063527], [-11.369884517667778, 1.3561992779545884, -2.27467108147263, -0.1231048100780931, -5.704872618977732, -5.727976838899933, -2.77221050664281, -2.740838802095137, 3.7346059705811756, -1.2192732089539315, -12.981566560560307, 9.430647366214576], [1.33548728119105, -8.841844114332856, 0.08375637063389271, 6.085799381141414, -3.81879699544969, 7.498198590541225, 16.152862444460926, 1.9665820863477437, 3.2330710002552907, -5.506082457881781, 0.8680646049921781, 8.796520255977507], [2.8148272476026657, -6.501787893787782, -0.7694298765767728, 1.1595483417984946, -6.781237335319743, 35.47740998907669, -6.4125368103777625, -4.989403200629304, 10.612364699849993, 9.325645629008436, 11.748883613770786, 8.737528835269787], [-5.8622717551806645, 1.975700821293628, -13.230767273723718, -8.95877947713297, 2.7455196244942566, 11.69611071768677, -2.638860720616958, -5.0501927135395634, 1.4829617921673606, 7.865892201597327, 1.2114425553851156, -10.80864997774806], [1.3904544194839494, 4.477391051410438, -13.980340289243046, -4.352893097636932, -5.607476585630935, -5.846363127499923, 15.262501341441993, -4.818620314716251, -5.182962853505189, -2.826157793636657, 27.39711680493334, 14.05818406815226], [2.460117946316395, -4.578235208301342, -3.1505412601487373, 7.987509611138246, 2.2443959948455614, -16.758652914496068, 13.863823960818841, -6.947774665380552, 8.360782993239765, -16.412440884367822, 7.052761355855995, -2.4070738544293864]], "weights_ho": [[-10.781086388399121, -9.150263237804802, -12.49960601885749, 0.22993323530319765, 6.361049581251284, -18.656360431133624, 19.754708873245534, 18.16938556410402, 5.123491570956326, 1.2249042719398546, -3.810474759104253, 2.3161703303079597, 1.552442904205029, 5.848776477258109, 2.8530351072623095, -0.987430736613218], [3.5461722900595696, 6.069633498505777, 11.849280278634545, -6.557369001014721, 10.497752386811664, -10.606985595494667, 0.0701961082187258, 5.892043846734293, -5.644427162480012, -3.9142131392836372, 20.090674374184196, -26.447339826482462, -5.453428930962124, 5.034266386773006, -8.43358681657159, 1.6351374847910334], [3.4686471667803622, -12.90416575500052, -9.004242732154498, -0.7470546463367631, 1.4102782743271693, 12.301705555230466, -7.338712860010395, 3.3011616289574306, 4.154109503977225, -1.6906482802100298, 17.402831272292207, 2.4662678301273644, 6.11510393093411, -23.199494679968343, -7.362269430940209, 3.3602046860669748], [-14.531949979172255, 16.560732408278255, -0.6554508606011175, 5.448454186292118, -3.5671232994016897, 2.806894699130792, -1.4250757654047022, -10.294416798495357, 28.60672410392461, -17.027753326072705, 5.051649277205714, -13.001960859468475, -4.189661080377635, -7.042325855795892, -9.278780463972751, 7.85817218188944]], "bias_h": [[-3.471665016864624], [-9.782115759905087], [-12.498683898191496], [-9.511891786278168], [4.868838224577357], [12.204241997609834], [11.838183548022922], [9.351930942985529], [5.008972099705507], [-1.5817876848255], [2.622389890929186], [15.484183894671311], [12.794387936977815], [-0.3843953627449931], [12.214048777382395], [7.050838013180782]], "bias_o": [[-4.308926622393142], [-1.9604506853806989], [-12.505556488003391], [-13.640447956860207]]}, {"input_nodes": 12, "hidden_nodes": 16, "output_nodes": 4, "weights_ih": [[-7.453699338495759, -5.372061983743992, -1.1512441533589828, 2.470099869066235, 2.6396470045618603, -3.0438508408882794, -5.039169800746744, -6.250060410171089, -9.345448518417378, 0.2327555233652443, -2.9698431431364556, -7.083806890913446], [5.291309883116335, -6.139712029173603, -10.919971051493185, 0.802024913359705, 2.552480265194239, 2.980120670426607, 14.508322561410617, 11.823456970386864, 3.5759536861231984, -4.110989819560934, -0.002692182286770352, 5.304158208867885], [6.476821677507418, 12.345543515009396, -12.831395027086542, 2.3428405830674626, -11.30594405780524, -5.0312764054509085, 10.890168370548363, -13.894772249052938, 15.348320812988035, 8.358113781979421, 3.212452380394735, 8.484681910209973], [15.151227274925256, 23.731109101076825, -19.210075662689306, 9.708218583478748, 3.2684836844175735, 2.298269894797676, -4.8169743178973885, 6.682870234795592, 0.5583408001267531, 0.22156365520934962, -6.433553552960367, -7.498376389321581], [-0.13531910345987735, -6.185066195384446, -15.76088011892533, -3.820186750676449, -10.237477702923645, 14.361585304670628, 2.2539414764436767, -7.931777150869233, -12.975152059075652, 4.4330407547226685, 1.2727970919336513, -1.609268897225192], [-15.62190754998842, -4.536331991046136, 15.747220036718605, 0.5308981754347497, 0.9220867544935774, 20.835071204904537, 14.800184535612596, -2.6528445012997, 11.471697119182389, -11.710612791097539, -19.178643464359862, -6.319370546490895], [-8.231599244762966, -1.4006911753986457, -7.917602265410794, -0.7561388014640813, 6.493348685509803, 7.071970505619712, 7.632015949302749, 4.856809403305194, 4.542668367643741, -4.769031070671669, 0.8277951894323329, 10.522610132648758], [0.5599222036528247, 5.323878370804262, -7.31846159149358, -16.198857570756243, -9.216630342578423, 3.3282874181150346, -11.137120518401305, 1.5347229059711893, 14.004903681339943, -1.9786425077204646, 8.856836095956083, 2.8806140718870776], [1.5573347941137041, -24.120509340476893, -5.966078613378148, 19.01365875426932, -7.4223077679316685, -10.034982965549382, -3.172308276591032, 9.563330565627219, 11.80553142062103, -19.955685733566398, 1.564318153489011, -7.335585826795345], [-3.291451744099196, 0.8253220216231583, 3.163675096367035, -1.3855685062330163, 5.313924403902083, 8.073791861608516, 11.113317220951998, -2.7909454245913965, 17.333106472971135, -4.241817593310678, -2.643171312686558, 3.0295743520063527], [-11.369884517667778, 1.5250938484041616, -2.337386534060362, -0.16244727908452533, -5.7368936006551445, -5.619663603626922, -2.77221050664281, -2.5950868040923725, 3.7346059705811756, -1.2192732089539315, -13.200321506781531, 9.507855445846841], [1.33548728119105, -8.787358343894557, 0.08375637063389271, 6.185752009413233, -3.81879699544969, 7.467069394151172, 16.026809818050275, 1.749581236644074, 3.2356295101536023, -5.519019891910735, 0.7928245349112993, 8.796520255977507], [2.8596946661536014, -6.400341452520969, -0.8604466788615559, 1.1459444071414886, -6.838926563360164, 35.408692435719914, -6.278326075031647, -5.075607000593082, 10.805875446175556, 9.448257548208556, 11.79293956910766, 8.737528835269787], [-5.822779931177167, 2.1470036907186936, -13.230767273723718, -9.095212413785925, 2.7455196244942566, 11.472981399010598, -2.809445949208091, -5.104390565031363, 1.4829617921673606, 7.894743199442405, 1.2114425553851156, -10.880924827008085], [1.3904544194839494, 4.477391051410438, -14.045865775212826, -4.352893097636932, -5.403502476868534, -5.846363127499923, 15.262501341441993, -4.818620314716251, -5.103662281509278, -2.826157793636657, 27.39711680493334, 14.143005470643729], [2.418429430675039, -4.491787304330988, -3.1505412601487373, 7.942747884698633, 2.2238183225009927, -16.72396820065256, 14.032411524071733, -6.813444947959141, 8.320855787746195, -16.412440884367822, 7.052761355855995, -2.5185966569577074]], "weights_ho": [[-10.781086388399121, -9.164709064098668, -12.49960601885749, 0.4132065503998164, 6.3452727177845745, -18.707979989763963, 19.845346359785022, 18.18607303911257, 5.230030314171944, 1.2249042719398546, -3.7995545197563216, 2.192532794927921, 1.552442904205029, 5.732810602081828, 2.8040646293868803, -0.9596554438457919], [3.552386409826219, 6.123142447726084, 11.66149267027339, -6.64010438167969, 10.519763504890697, -10.568890955406454, 0.12881155492031066, 5.892043846734293, -5.45783733582586, -3.855011882533359, 20.110053546443226, -26.447339826482462, -5.430406267854576, 5.014772203870657, -8.3440278247971, 1.6351374847910334], [3.556587341684898, -12.767051675336239, -9.260965776697757, -0.7470546463367631, 1.540690011192579, 12.301705555230466, -7.29202849071493, 3.3011616289574306, 4.226880240110059, -1.7074808063855553, 17.402831272292207, 2.3269288766724094, 6.160004242764643, -23.094596967999237, -7.242407806594803, 3.3602046860669748], [-14.618270064316194, 16.52445535014001, -0.7714634055463254, 5.630501566291324, -3.5671232994016897, 2.8835980824029916, -1.4250757654047022, -10.294416798495357, 28.65186856754916, -16.827855991888836, 4.795174145064511, -13.001960859468475, -4.14237732936812, -7.08032085978019, -9.278780463972751, 7.692389095147964]], "bias_h": [[-3.6468950815603636], [-9.73037782668318], [-12.374051710786814], [-9.40912948238302], [4.8371951806028815], [12.204241997609834], [11.960238716126325], [9.473575925642066], [4.983419502273668], [-1.5101098040515613], [2.622389890929186], [15.484183894671311], [12.794387936977815], [-0.4585200085996721], [12.337986726839759], [6.903976545919961]], "bias_o": [[-4.288953717499826], [-1.720607388864031], [-12.551640238705776], [-13.710200609277933]]}, {"input_nodes": 12, "hidden_nodes": 16, "output_nodes": 4, "weights_ih": [[-7.453699338495759, -5.425368916627202, -1.1512441533589828, 2.3593711284900922, 2.802619788332597, -2.9765542480818086, -5.039169800746744, -6.324526459149428, -9.451254845723778, 0.19602497152292853, -3.132913576197964, -7.083806890913446], [5.384899464516876, -6.05228929485084, -11.084754245973931, 0.8289393627961695, 2.8412523631909488, 2.915887188205238, 14.59593068579674, 11.823456970386864, 3.4782823480057226, -3.927407084030544, 0.05063200183008597, 5.323778755452601], [6.597964863661198, 12.345543515009396, -12.690510969103368, 2.3428405830674626, -11.426680564993633, -4.893068024912776, 10.785702368461639, -13.894772249052938, 15.40317650891858, 8.319461293168853, 3.0410533551209533, 8.39901589042342], [15.129021496227516, 23.623217157792432, -19.297748643475455, 9.766182337195733, 3.2462117933348353, 2.064263019575917, -4.839441805736655, 6.744576324980537, 0.5583408001267531, 0.24342471454955084, -6.265687759708923, -7.4444584479045925], [-0.08774517351390683, -6.185066195384446, -15.76088011892533, -3.8054590498423226, -10.180108182738087, 14.381253526556067, 2.1956762396367826, -7.926794714721812, -13.109982336664888, 4.374661018305149, 1.3518642083811123, -1.6031172400436475], [-15.624526034365111, -4.604033305021725, 15.659007666436155, 0.5207219100069299, 0.7883133182278733, 20.8924565854901, 14.800184535612596, -2.6528445012997, 11.552107633850335, -11.717915929668289, -19.144902811569025, -6.33734350350534], [-8.20582842594173, -1.6555212411194629, -7.843576840143466, -0.5754735188314412, 6.493348685509803, 7.071970505619712, 7.553355898923258, 4.962567633190484, 4.324338105409918, -4.668848297284705, 0.8489164723482565, 10.5563429743454], [0.5786272193471722, 5.266460184901787, -7.304704040211261, -16.131067980762786, -9.216630342578423, 3.2094311741586266, -11.137120518401305, 1.3777202332561294, 14.004903681339943, -1.8757887840964569, 8.856836095956083, 2.913737120699148], [1.7207875554925898, -24.046723119108517, -5.966078613378148, 19.05878949614583, -7.2206825867733695, -9.829094949418232, -3.100464069669181, 9.498946569734194, 11.851477225443096, -19.919728376673458, 1.564318153489011, -7.140035664071129], [-3.291451744099196, 0.6324104105821492, 3.0776039112225, -1.5319749176859734, 5.345897269819101, 8.06425328234585, 11.111318699270818, -2.871764322196187, 17.278267320117266, -4.241817593310678, -2.643171312686558, 3.0295743520063527], [-11.369884517667778, 1.5250938484041616, -2.313141084707848, -0.37704412244321206, -5.7368936006551445, -5.423542138178751, -2.7846009665026075, -2.740838802095137, 3.7629924663235714, -1.2192732089539315, -13.108810754907742, 9.405226798043323], [1.33548728119105, -8.954911672662702, 0.08375637063389271, 6.199770505203579, -3.81879699544969, 7.467069394151172, 16.06178916291229, 1.9665820863477437, 3.251037629576198, -5.3461834062848235, 0.9950608985572968, 8.796520255977507], [2.6706379646958136, -6.386248885965952, -0.8622198736749824, 1.2393484779465513, -6.7065701457123, 35.419565061371934, -6.4125368103777625, -5.075607000593082, 10.805875446175556, 9.448257548208556, 11.65130208842853, 8.764068960405188], [-5.8622717551806645, 2.1470036907186936, -13.230767273723718, -9.095212413785925, 2.778994380828002, 11.417984982633286, -2.9745255250527127, -5.104390565031363, 1.2716568330017712, 7.924258456823814, 1.2114425553851156, -10.936829176874863], [1.4480479286489223, 4.477391051410438, -14.001800548021537, -4.352893097636932, -5.524552303823642, -5.846363127499923, 15.288151639463164, -4.874443596373979, -5.216597029716351, -2.709932299209117, 27.39711680493334, 14.121109902498553], [2.460117946316395, -4.491787304330988, -2.9711086165373266, 7.987509611138246, 2.231850690165066, -16.758652914496068, 13.848867164962696, -6.923578651288064, 8.361075352803153, -16.412440884367822, 7.052761355855995, -2.4891422937642793]], "weights_ho": [[-10.781086388399121, -9.21862746877251, -12.49960601885749, 0.22993323530319765, 6.437145864267798, -18.707979989763963, 20.008329025303052, 18.16938556410402, 5.104051705418186, 1.2249042719398546, -3.9859788146152595, 2.092700006095769, 1.552442904205029, 5.848776477258109, 2.8900118802897725, -1.0972216021717798], [3.5349604551784877, 5.987638780795518, 12.030568630998172, -6.656953588994858, 10.498181081383983, -10.544886235106139, 0.12881155492031066, 5.892043846734293, -5.5054781225343765, -3.855011882533359, 20.253316408532623, -26.445388574914247, -5.414309054510812, 5.002823957517278, -8.3440278247971, 1.6351374847910334], [3.556587341684898, -12.711338883876056, -9.260965776697757, -0.7470546463367631, 1.5641891051412795, 12.311013992988727, -7.29202849071493, 3.3011616289574306, 4.154109503977225, -1.6906482802100298, 17.402831272292207, 2.4302937383650334, 6.114459647214548, -23.199494679968343, -7.362269430940209, 3.3667131792327085], [-14.636023674993995, 16.560732408278255, -0.8027661945861224, 5.448454186292118, -3.5378635134511414, 2.8835980824029916, -1.4250757654047022, -10.352399188543222, 28.623028838013788, -17.033230769303188, 4.92629739435829, -13.043250137950793, -4.1385806694724865, -6.981770976219346, -9.278780463972751, 7.772247166290771]], "bias_h": [[-3.5320360355544436], [-9.683161835107667], [-12.513642279384817], [-9.511891786278168], [4.8371951806028815], [12.204241997609834], [11.883618773656993], [9.437496184060535], [5.008972099705507], [-1.5817876848255], [2.622389890929186], [15.484183894671311], [12.764987555864598], [-0.3843953627449931], [12.171950051818346], [6.961926344355584]], "bias_o": [[-4.3001765546214665], [-1.8137395889276433], [-12.575424500220926], [-13.647506844881697]]}, {"input_nodes": 12, "hidden_nodes": 16, "output_nodes": 4, "weights_ih": [[-7.453699338495759, -5.400001818981526, -0.9973078062989292, 2.470099869066235, 2.826761292521802, -3.0438508408882794, -5.039169800746744, -6.412257615682367, -9.451254845723778, 0.13936806026865978, -3.11336611784365, -7.2343686307544255], [5.415856019384625, -6.05228929485084, -10.919971051493185, 0.802024913359705, 2.810679307478661, 3.048309816895463, 14.571127870729825, 11.823456970386864, 3.738291455029791, -4.0069365459943285, -0.17057372213890643, 5.304158208867885], [6.373166966345012, 12.260894802139363, -12.690959961601822, 2.3428405830674626, -11.32719720998552, -4.893068024912776, 10.840379083796869, -13.894772249052938, 15.400324108054559, 8.50897667993484, 3.3095148626577187, 8.349589778778917], [15.049670829658718, 23.552463757661748, -19.297748643475455, 9.708218583478748, 3.1732300380673353, 2.2712807436386284, -4.852510423470318, 6.682870234795592, 0.5583408001267531, 0.2913375934792742, -6.485766243728844, -7.380234252160804], [-0.06323729989488348, -6.124360366777767, -15.76088011892533, -3.8932582285882735, -10.3826597486136, 14.361585304670628, 2.3649405135114834, -7.926794714721812, -13.016913388331472, 4.285840826403868, 1.3159341074674202, -1.6974811280885163], [-15.624526034365111, -4.562064891484823, 15.747220036718605, 0.6228850740203736, 0.6913376618163852, 20.99378305877122, 14.800184535612596, -2.6528445012997, 11.552107633850335, -11.896347388632458, -19.06718198218328, -6.319370546490895], [-8.231599244762966, -1.4538463070830014, -8.008902557623095, -0.7130270174629376, 6.397108920646236, 7.071512051088074, 7.563729487185747, 4.677915277237358, 4.542668367643741, -4.687731384457913, 0.8784488481632104, 10.59709494919881], [0.5599222036528247, 5.266460184901787, -7.304704040211261, -16.15039161711636, -9.00694323728506, 3.227993443273742, -11.137120518401305, 1.4612834007060622, 14.08457512506886, -1.7326554314151528, 8.983984504632593, 2.7399918752478616], [1.9769719290495402, -24.275836766006584, -5.958797047764461, 18.98491489794749, -7.284128552760779, -9.829094949418232, -3.2870751627274464, 9.563330565627219, 12.051459095095616, -19.955685733566398, 1.6293957431462784, -6.977091492831753], [-3.3786808738329825, 0.807018836892418, 3.163675096367035, -1.6922145526795416, 5.313924403902083, 8.073791861608516, 11.111318699270818, -2.871764322196187, 17.333106472971135, -4.192356106128921, -2.7846541993420035, 3.061680945957443], [-11.369884517667778, 1.5250938484041616, -2.27467108147263, -0.12559487258750898, -5.7368936006551445, -5.545336533774507, -2.77221050664281, -2.6535049221722886, 3.7881839241170843, -1.2192732089539315, -13.108810754907742, 9.430647366214576], [1.33548728119105, -8.954911672662702, 0.08375637063389271, 6.2744169846739135, -3.6914828105063875, 7.403639735745548, 16.152862444460926, 1.9665820863477437, 3.293571108546323, -5.533583706099074, 0.7928245349112993, 8.796520255977507], [2.8093986472114474, -6.386248885965952, -0.8578376291538343, 1.4236433942499702, -6.7268595881216235, 35.408692435719914, -6.426317300829282, -5.163398646676388, 10.805875446175556, 9.448257548208556, 11.581692889722158, 8.737528835269787], [-5.99671459024807, 2.1253138833046146, -13.106156767317385, -9.095212413785925, 2.7455196244942566, 11.494688973434021, -2.772947674622044, -5.050775247385336, 1.4162237776235365, 7.9774372463041985, 1.2114425553851156, -10.83100775964394], [1.3904544194839494, 4.507418883950536, -13.966534258281511, -4.3905095883133045, -5.456975741303581, -5.954730024467589, 15.262501341441993, -4.819560216899838, -5.176935752438742, -2.826157793636657, 27.39711680493334, 14.168411904780353], [2.460117946316395, -4.536174777698808, -3.1505412601487373, 7.979145933287898, 2.2065668209053317, -16.88052213045189, 13.98128495803408, -7.00366986024366, 8.417251121198447, -16.412440884367822, 6.8197310246409515, -2.48718963642175]], "weights_ho": [[-10.687338587947881, -9.149269538229476, -12.525098916276622, 0.1792173383932643, 6.27960952306109, -18.70653603026304, 19.845346359785022, 18.16938556410402, 5.112025026725917, 1.2709478750817733, -3.7366389201495998, 2.192532794927921, 1.552442904205029, 5.848776477258109, 2.731133061229724, -0.987430736613218], [3.4813666100757086, 6.123142447726084, 11.65319152103615, -6.64010438167969, 10.497752386811664, -10.606985595494667, 0.12881155492031066, 5.892043846734293, -5.606148631592209, -3.855011882533359, 20.110053546443226, -26.6199897610484, -5.150020765995354, 5.034266386773006, -8.3440278247971, 1.5950173657187485], [3.556587341684898, -12.750285773180298, -9.169264766811263, -0.7470546463367631, 1.540690011192579, 12.359654225340215, -7.170516730926406, 3.325320510416651, 4.078176881692212, -1.8548247288938515, 17.402831272292207, 2.2398426723064, 6.100915240150126, -23.14412631270125, -7.362269430940209, 3.140333973309035], [-14.599842303057283, 16.560732408278255, -0.6526556467568456, 5.494974668409618, -3.446111013528029, 2.9019021955220254, -1.4250757654047022, -10.294416798495357, 28.542669193403377, -16.87924767897816, 5.081366805856984, -12.98859072014648, -4.241695293752257, -7.3312312576957845, -9.278780463972751, 7.743828797843263]], "bias_h": [[-3.6468950815603636], [-9.592799946965407], [-12.60771869612189], [-9.511891786278168], [4.779309457372175], [12.303077438072089], [11.727433113754019], [9.437496184060535], [5.174756969060815], [-1.5817876848255], [2.622389890929186], [15.484183894671311], [12.794387936977815], [-0.3843953627449931], [12.171950051818346], [6.961926344355584]], "bias_o": [[-4.408124892135084], [-1.9534260360682616], [-12.551640238705776], [-13.650230323351407]]}, {"input_nodes": 12, "hidden_nodes": 16, "output_nodes": 4, "weights_ih": [[-7.553414410860005, -5.4373099022543725, -1.2357769585738636, 2.4377452275067304, 2.802619788332597, -2.9571542333249723, -4.971095234578528, -6.250060410171089, -9.451254845723778, 0.2327555233652443, -3.094965415274373, -7.047920314042718], [5.384899464516876, -6.05228929485084, -10.919971051493185, 0.802024913359705, 2.7094318318434945, 2.8919540060765914, 14.448890527572464, 11.81185202013232, 3.641463402315969, -4.0069365459943285, -0.06476039471531367, 5.110464111931262], [6.435837056666771, 12.345543515009396, -12.62465471863915, 2.3428405830674626, -11.557008595549384, -4.839108585493437, 10.785702368461639, -13.819829923614344, 15.589841459767857, 8.358113781979421, 3.2252033157211035, 8.377451052630825], [15.138016601056654, 23.737191671870264, -19.37324435570465, 9.774970392768935, 3.2462117933348353, 2.348973315824054, -4.8169743178973885, 6.689066377958207, 0.49647183385429167, 0.31880651693100864, -6.331604974901715, -7.502833173727177], [-0.06323729989488348, -6.197331906768403, -15.76088011892533, -3.8054590498423226, -10.241940433904201, 14.361585304670628, 2.1904963219865756, -7.926794714721812, -13.016913388331472, 4.5569561900243505, 1.3518642083811123, -1.6974811280885163], [-15.5690699518195, -4.562064891484823, 15.747220036718605, 0.5308981754347497, 0.7349744212505969, 20.842970563482833, 14.832826956281666, -2.6528445012997, 11.584075937806118, -11.804702518404872, -19.29030135699272, -6.289774420585857], [-8.231599244762966, -1.4538463070830014, -7.957365618060844, -0.6464412619809301, 6.493348685509803, 7.071970505619712, 7.563729487185747, 4.8219264589418085, 4.542668367643741, -4.668848297284705, 0.9593094283859296, 10.579403315678828], [0.5599222036528247, 5.266460184901787, -7.20603780441326, -16.183071964135827, -9.216630342578423, 3.2094311741586266, -11.3367868547891, 1.671041709271176, 13.850471938650866, -1.9369506655063344, 8.884790106861288, 3.0811231100171224], [1.7207875554925898, -24.360874648363826, -5.966078613378148, 19.079876373100607, -7.324410722627466, -9.74761266048147, -3.2003371802189453, 9.563330565627219, 11.850097697882536, -19.955685733566398, 1.564318153489011, -7.161778044410509], [-3.1986863941962542, 0.807018836892418, 3.2544311737233875, -1.5096747546806408, 5.313924403902083, 8.275530637383266, 11.111318699270818, -2.871764322196187, 17.437841798511656, -4.239331870901904, -2.643171312686558, 3.068920099351626], [-11.369884517667778, 1.5250938484041616, -2.27467108147263, -0.16244727908452533, -5.735481028752232, -5.619663603626922, -2.77221050664281, -2.740838802095137, 3.6825825643602266, -1.0918981024512446, -13.108810754907742, 9.447682978320376], [1.3629407363183603, -8.954911672662702, 0.08375637063389271, 6.1461237465305425, -3.81879699544969, 7.467069394151172, 16.215790731248784, 1.833357019718128, 3.293571108546323, -5.519019891910735, 0.8661683005773582, 8.869106674999191], [2.6655582907373754, -6.266294816643588, -0.814352039536833, 1.2393484779465513, -6.7268595881216235, 35.408692435719914, -6.3862604755190775, -5.075607000593082, 10.852084153450217, 9.448257548208556, 11.732689410272792, 8.7655795526225], [-5.8622717551806645, 2.2638487588773697, -13.230767273723718, -9.034553885881754, 2.7455196244942566, 11.545642919548214, -2.847121270407146, -5.104390565031363, 1.4829617921673606, 8.003422408903067, 1.2114425553851156, -10.783226452641621], [1.342831646551547, 4.38862136830055, -13.844881716627178, -4.352893097636932, -5.403502476868534, -5.71242524716293, 15.376858597563293, -4.818620314716251, -5.1289002455638135, -2.823755141444497, 27.294673625424362, 14.121109902498553], [2.460117946316395, -4.491787304330988, -3.1505412601487373, 7.987509611138246, 2.2443959948455614, -17.02067659228069, 13.884371614670437, -6.868515876980782, 8.204498555728112, -16.455850360720447, 7.0507311943694635, -2.504507659193261]], "weights_ho": [[-10.795246154517844, -9.150263237804802, -12.436201012010578, 0.351696438613223, 6.589320863846589, -18.707979989763963, 19.845346359785022, 17.927444615977517, 5.091567678911843, 1.2249042719398546, -3.845085105246957, 1.9449974782951287, 1.3692563354950804, 5.848776477258109, 2.790157132002207, -1.0259284221654992], [3.54943144255441, 6.001906408376191, 11.802331374396783, -6.561634392208072, 10.497752386811664, -10.606985595494667, 0.12881155492031066, 5.868203157721718, -5.337342506370552, -3.855011882533359, 20.110053546443226, -26.447339826482462, -5.593186126458878, 5.111692594403262, -8.3440278247971, 1.6351374847910334], [3.556587341684898, -12.833359678639187, -9.260965776697757, -0.7470546463367631, 1.641434901093189, 12.334753648412734, -7.29202849071493, 3.3011616289574306, 4.154109503977225, -1.6978327224825547, 17.531437374601786, 2.353042926121446, 6.182372596922777, -23.199494679968343, -7.362269430940209, 3.430319159572961], [-14.636023674993995, 16.600207437190008, -0.8057013553956885, 5.448454186292118, -3.6823366385283123, 2.9487460273480055, -1.4250757654047022, -10.294416798495357, 28.700372129638033, -16.900460571995584, 4.922544768516976, -13.010641953475766, -4.021928444948064, -7.097818164735907, -9.26681829163438, 7.772247166290771]], "bias_h": [[-3.7269552853597254], [-9.73037782668318], [-12.388940800706745], [-9.365157024285297], [4.8371951806028815], [12.247792516235187], [11.916441858351945], [9.437496184060535], [5.067357314059391], [-1.5231649189297662], [2.406084293166691], [15.484183894671311], [12.71123412215144], [-0.6028435527454342], [12.171950051818346], [6.961926344355584]], "bias_o": [[-4.288953717499826], [-1.8137395889276433], [-12.325011021843428], [-13.647506844881697]]}, {"input_nodes": 12, "hidden_nodes": 16, "output_nodes": 4, "weights_ih": [[-7.443501762355645, -5.400821625139053, -1.0481320258078253, 2.470099869066235, 2.8070898752578377, -3.001322593012689, -5.049909992405945, -6.331663657501651, -9.51957565585072, 0.2327555233652443, -2.994283683516063, -7.083806890913446], [5.384899464516876, -6.048670548629099, -11.085206193856907, 0.8242921165964653, 2.751138226068555, 2.980120670426607, 14.37531708817039, 11.823456970386864, 3.605067713458603, -4.0069365459943285, -0.06476039471531367, 5.304158208867885], [6.3452187736968675, 12.473293919232557, -12.708636595194388, 2.4309496476264596, -11.23501269042335, -4.893068024912776, 10.578982991471232, -13.967269239103889, 15.340876242865404, 8.43978107324365, 3.2814042618499286, 8.352149153667943], [15.27146672151272, 23.737191671870264, -19.209332561777927, 9.712476442338914, 3.2865160008637218, 2.348973315824054, -4.818314115856103, 6.682870234795592, 0.5583408001267531, 0.1887653916415359, -6.46373220762215, -7.302925453492939], [-0.29873508448376757, -6.287168193449582, -15.76088011892533, -3.7312518695203765, -10.180108182738087, 14.361585304670628, 2.118928147955363, -8.010227503791484, -12.954928227260305, 4.4330407547226685, 1.2176681815266126, -1.608318074140037], [-15.701641113124388, -4.324001445924867, 15.747220036718605, 0.6065849808482718, 0.7423262867245088, 20.81465880137557, 14.732677253674419, -2.6528445012997, 11.599410866644446, -11.688558267049917, -19.32422943281362, -6.319370546490895], [-8.231599244762966, -1.5325872489046766, -7.98048650964865, -0.7605243321581896, 6.651003758118535, 7.048180898505468, 7.563729487185747, 4.8124706532228885, 4.739273674845696, -4.668848297284705, 0.8934355719656649, 10.613147241369283], [0.6642000488776085, 5.260702154024061, -7.304704040211261, -15.995218427145415, -9.216630342578423, 3.298362948205532, -11.037114938523002, 1.4612834007060622, 14.004903681339943, -1.757715128031678, 8.856836095956083, 2.948789906642034], [1.7207875554925898, -24.21950926844534, -5.966078613378148, 19.00583663390397, -7.247412016497217, -9.829094949418232, -3.2003371802189453, 9.429716915276758, 11.660185607553661, -19.955685733566398, 1.564318153489011, -7.167084806580993], [-3.4066152027824, 0.7515126999802855, 3.163675096367035, -1.5445308265222273, 5.313924403902083, 8.054685214346131, 11.111318699270818, -2.871764322196187, 17.333106472971135, -4.241817593310678, -2.5812898011189023, 3.0295743520063527], [-11.468745849068279, 1.563873486809512, -2.27467108147263, -0.16244727908452533, -5.7368936006551445, -5.6721382839514485, -2.77221050664281, -2.550013499509922, 3.7346059705811756, -1.3748821787995873, -13.108810754907742, 9.430647366214576], [1.4005143742483617, -8.954911672662702, 0.024913043443628095, 6.199770505203579, -3.81879699544969, 7.467069394151172, 16.152862444460926, 1.9665820863477437, 3.293571108546323, -5.620778786836811, 0.7928245349112993, 8.796520255977507], [2.7438192548620206, -6.386248885965952, -0.8578376291538343, 1.2393484779465513, -6.7268595881216235, 35.408692435719914, -6.414910863753212, -5.075607000593082, 10.805875446175556, 9.448257548208556, 11.732689410272792, 8.737528835269787], [-5.8622717551806645, 2.1564060420317177, -13.230767273723718, -9.27137012659454, 2.7732263066188834, 11.545642919548214, -2.7998844234664513, -5.104390565031363, 1.3929083684557355, 7.907013283638643, 1.2016918169639046, -10.83100775964394], [1.4009384341541014, 4.477391051410438, -13.966534258281511, -4.352893097636932, -5.570592367264865, -5.813532952506321, 15.385460736956546, -4.818620314716251, -5.216597029716351, -2.826157793636657, 27.39711680493334, 14.121109902498553], [2.460117946316395, -4.491787304330988, -3.1505412601487373, 7.939327909334748, 2.2443959948455614, -16.783482570442114, 13.999615960951827, -6.991586246920026, 8.320855787746195, -16.412440884367822, 7.282543450732722, -2.48718963642175]], "weights_ho": [[-10.445979610800233, -9.150263237804802, -12.625037991684236, 0.31223496733688666, 6.3452727177845745, -18.707979989763963, 19.87782575089976, 18.080690410482706, 5.123491570956326, 1.2249042719398546, -3.7623559011387533, 2.192532794927921, 1.5232528709544781, 5.840147510337146, 2.8530351072623095, -0.987430736613218], [3.3198146446131496, 6.083283999171645, 11.861775093206985, -6.586003687880438, 10.497752386811664, -10.606985595494667, 0.0778390271769624, 5.892043846734293, -5.566205274477257, -3.855011882533359, 20.110053546443226, -26.424009247251732, -5.414309054510812, 5.034266386773006, -8.590675147271826, 1.4286242122550403], [3.556587341684898, -12.833359678639187, -9.092898559598154, -0.5873421488875199, 1.540762097086025, 12.301705555230466, -7.2661676772292845, 3.4222697723049933, 4.11022750351714, -1.6906482802100298, 17.255269647544583, 2.353042926121446, 6.100915240150126, -23.14520432691452, -7.288475597043907, 3.3602046860669748], [-14.636023674993995, 16.457125761749065, -0.6659916890138728, 5.448454186292118, -3.4599802102938457, 2.8835980824029916, -1.4250757654047022, -10.209431637689999, 28.80165560009243, -16.87924767897816, 4.964983263106239, -13.147720011483013, -4.185995919257953, -7.042325855795892, -9.278780463972751, 7.746144994387365]], "bias_h": [[-3.6468950815603636], [-9.73037782668318], [-12.781680904841823], [-9.511891786278168], [4.8371951806028815], [12.204241997609834], [11.8808136608606], [9.318074719459478], [5.085907287833136], [-1.633682942979877], [2.622389890929186], [15.376886228172372], [12.794387936977815], [-0.42048866532240053], [12.196823225655933], [6.950615190826691]], "bias_o": [[-4.288953717499826], [-1.8137395889276433], [-12.551640238705776], [-13.647506844881697]]}, {"input_nodes": 12, "hidden_nodes": 16, "output_nodes": 4, "weights_ih": [[-7.482524326858777, -5.470692445698243, -1.222617140718478, 2.470099869066235, 2.8118087897809683, -3.0223846385550774, -5.039169800746744, -6.336185392748936, -9.533872836777864, 0.1435553655693243, -2.994283683516063, -7.083806890913446], [5.304235522052681, -6.004829821636881, -10.919971051493185, 0.8001177771856994, 2.7094318318434945, 3.0100542158413255, 14.508322561410617, 11.823456970386864, 3.6194912712876195, -4.149152090077036, -0.1670504050528711, 5.304158208867885], [6.452497861790629, 12.345543515009396, -12.666785476740177, 2.3428405830674626, -11.426680564993633, -4.893068024912776, 10.705212127970047, -13.894772249052938, 15.654001215729794, 8.381213466947184, 3.304379584140009, 8.548519795673537], [14.922798569937427, 23.737191671870264, -19.297748643475455, 9.708218583478748, 3.2462117933348353, 2.4080755810531302, -4.8169743178973885, 6.682870234795592, 0.700758233591894, 0.12109505145652012, -6.4220573674397246, -7.394006441140757], [-0.023787882892683916, -6.057106898690521, -15.76088011892533, -3.8954653479612498, -10.180108182738087, 14.31276854776777, 2.2539414764436767, -7.926794714721812, -13.016913388331472, 4.4330407547226685, 1.3518642083811123, -1.5746256801467942], [-15.624526034365111, -4.562064891484823, 15.814270986274359, 0.522573142945486, 0.7598707360817504, 20.835071204904537, 14.800184535612596, -2.6528445012997, 11.618114295421973, -11.804702518404872, -19.1916663359337, -6.460630804995852], [-8.241966535007695, -1.4647103160568138, -7.962916952717688, -0.8220441193546842, 6.542095828069705, 6.953079766474747, 7.563729487185747, 4.8219264589418085, 4.501713825270931, -4.576644219036327, 0.8534314048326095, 10.579403315678828], [0.5599222036528247, 5.266460184901787, -7.304704040211261, -16.198857570756243, -9.216630342578423, 3.2094311741586266, -11.166094334326733, 1.4612834007060622, 14.004903681339943, -1.7733522706199794, 8.856836095956083, 2.913737120699148], [1.810964706018085, -24.21950926844534, -5.966078613378148, 18.97904478655006, -7.247412016497217, -9.836608059518479, -3.2296191894330906, 9.563330565627219, 11.851477225443096, -20.016049031076474, 1.50681043517094, -7.15472779913448], [-3.291451744099196, 0.7590760719869795, 3.1715096277339274, -1.5096747546806408, 5.348633783007699, 8.162318367983247, 11.111318699270818, -2.786791722393682, 17.333106472971135, -4.11769854057618, -2.841854150000103, 3.0295743520063527], [-11.369884517667778, 1.5250938484041616, -2.27467108147263, -0.16244727908452533, -5.612260386271292, -5.619663603626922, -2.77221050664281, -2.7410711907070233, 3.770475537767724, -1.2192732089539315, -13.108810754907742, 9.575299971855951], [1.2154330354911063, -8.954911672662702, 0.08375637063389271, 6.258367467467689, -3.81879699544969, 7.381502976982835, 16.147536778205822, 1.8593305184779054, 3.293571108546323, -5.454453910705347, 0.8321434798779983, 8.796520255977507], [2.629467137188031, -6.386248885965952, -0.7928443344944172, 1.2393484779465513, -6.883558822043133, 