{"generation": 3800, "population": [{"input_nodes": 12, "hidden_nodes": 16, "output_nodes": 4, "weights_ih": [[-1.8310053894544769, -4.234674705577905, 0.2931904248109986, -0.028509354727850714, -2.1454048181878917, 2.22209941877609, -1.7721974496628778, -0.8288146454082307, 0.17843264123685362, 3.714055802135314, -2.874727330465609, 0.161383780312713], [1.2763492614641354, 9.01332216784017, -2.034556478309682, -1.0416116228304384, -1.2095375741247056, -1.0269935170140096, 1.7941556170076007, 4.818043803638175, -1.3587795994770646, -0.8009197654878797, 4.497980229381671, 6.389832874268669], [-1.5337353033801842, 6.340481332943887, 3.1092378805921044, -2.099707187458768, -9.910922628989471, 2.519693483355679, 2.930702103944726, -3.4775223747608432, 0.06918331122475715, 6.454558451615467, 5.120458715834165, -2.3560342822901292], [1.7387798290903875, 1.3335029450031595, -5.528689474043137, -2.9389789224955676, 0.6231315983227894, 2.161123564454222, 1.0135621909487544, 1.2864308448742519, 3.44618198157697, -2.8957585172641522, -1.5509248495450398, 4.072709750052222], [-0.6299506552149243, 0.4394821930709787, 5.167578217756679, 1.5148818632097005, -6.420954063459815, -3.3002629663913674, -2.3595188286078352, 0.676375734145058, -4.931187018224876, -0.9231200417768548, 3.7258298523704196, 0.7162264224844765], [-5.280886608959835, 4.038238782389141, 4.249824987799377, -3.268659120640523, -2.1034658763162484, 3.8005595802210133, 6.302034908164177, -2.4485318236471088, 3.7797454956577923, 1.3829862188953808, -7.389633519906599, 0.23352159144688983], [1.6263972213923847, -4.747408319687094, -0.7399396968593438, -0.07071790563383673, -2.664256335441398, 2.823374246059376, -3.9755119326872737, 1.626518856548525, 4.124313519284422, -3.617881732756874, 2.239924628066658, -3.2250152608508076], [0.7833531526978431, 4.319620975770496, -4.6735380719878385, -3.9122848999656332, 1.1970165541305025, 1.604647163381642, 1.9040788267254793, 1.1828336073239414, 3.100473191970399, 2.0159253889145594, 7.228157346232621, 4.369349097216645], [-0.5777990823758277, -0.09138533043786873, -1.1932100700858146, -3.991857926336591, 1.2779844799111593, -2.7227693214757576, -4.787457459285381, 6.075543082040401, -0.09590872223648933, -5.217957277701173, -0.12206615690181599, 4.892369801370258], [5.858220395425597, 0.19227784719171015, 5.746796153965715, 0.7655646978617501, -0.6643546306317878, -0.8213227370161189, 0.7260350156728952, 0.18324771491368858, 2.125693606368362, -1.645620421593474, -0.9896053133960505, 2.9446679648548106], [-5.253457950557315, -3.336314763681212, 1.3165817556716304, -3.0507364209328616, -0.7766535089900124, 0.582927782799954, -1.3741976509378144, -2.690698705192993, 1.3036923799276932, -0.0993344381983329, 3.619689865476631, 8.37515215272234], [0.7288329569344097, -2.194750334861719, -0.8328356943792057, 1.7626389613734692, -2.0077113652494374, 0.02323305582362019, 4.477465904067774, 3.1878836843384417, 3.369490478619301, 3.175421477747765, 1.4835023657314719, -0.9447469212426898], [6.692551589574256, 2.063707423642742, -3.4296705326154058, -0.3056344648202858, -4.369493571211418, 1.5997080020203434, 1.6323445880780885, 3.0513534609016455, 4.590949813972905, 6.40308283170164, 2.4648417073657187, 5.6368415979850175], [0.9470155439389017, 2.740305426325587, -2.84420064856537, 3.2973228881557564, 0.16451923428949927, 3.541430386426575, -0.5094847874578001, 3.8097852119759956, -1.0309626333586706, -0.9715667156639262, 3.109456374759687, -4.531903372602135], [-1.5887763654082006, 1.351730539422618, 2.4246232944404498, -0.48512133933159773, 0.5672125320469634, 3.298341209530407, 0.43071172760378795, -2.7229191271248014, 1.3607619121705525, -3.972173907689161, 4.044477049346923, 2.9459100141736174], [4.987578350721245, 1.1183802799199016, 1.5856332758538714, -1.7234613243728885, -1.376430781114083, -4.194895282255969, 5.5776608080038725, -4.071612882024707, -0.1279606802924859, -2.7957351393807124, -0.37995920193937177, 2.2896290450058867]], "weights_ho": [[-1.4723356205408926, -4.952810319768538, 1.1836041749171533, 2.7050992853034335, -2.593169158920038, -3.807019101020355, 0.4951427092779624, 2.084027694097045, 9.08861046556769, 2.8210364516875934, -1.4875512258599017, 0.47904245925821637, 7.104524829578346, 4.624273633699898, 1.9527947524576854, -2.499540255996808], [2.5117642590220464, 2.8062981117669197, 8.56269302978297, -3.3753975533252945, 1.7435213506000524, 3.8604267201403677, -0.5089349471510848, -1.4459090785906867, -0.14243181750188105, 1.754768811442618, 6.482678221385139, -8.79087589981952, -6.8040527823044945, 1.5895408926267702, 6.511528860140503, -3.468029254980574], [4.963419455138179, -2.3482703126314206, -2.4481490504390915, -1.6948346246046149, 8.44503184362041, 0.950621749340673, 0.31685670724022086, 0.8567768155385862, 3.243171511087928, -0.15686331415475724, -3.654136058366481, -3.613210358428939, 4.767860750838084, 0.36792780899171407, 1.487644818348186, -0.13619913932682337], [-2.9669497774850786, 9.311626680608516, -0.42602841533022145, 0.3707922911374066, -3.0883299189840616, -0.5662363688912644, -7.364870885979876, -0.24007437099642284, 3.879538025838059, 4.446864884140628, 4.764470336918582, -2.2836933707630274, -1.3971351223679953, -2.1898405357138717, -2.4258281911641295, 3.6753168733237915]], "bias_h": [[0.2697528348668651], [-2.8034108202387245], [0.729914839175613], [-1.485607330774845], [-1.5584931690315944], [-3.5417393861317397], [1.2924109822725802], [5.714118816684783], [1.1875399630246197], [1.788152552796852], [5.92024010102158], [0.6862619391203861], [-5.056276224747021], [5.67540434382084], [-3.455016291775456], [3.1112504817023607]], "bias_o": [[-1.0834225468251564], [0.2203037080878841], [-1.5473128080981662], [1.9764239526521337]]}, {"input_nodes": 12, "hidden_nodes": 16, "output_nodes": 4, "weights_ih": [[-1.8310053894544769, -4.215018276098292, 0.2931904248109986, -0.028509354727850714, -2.1454048181878917, 2.22209941877609, -1.7371258567008556, -0.8064186269436708, 0.2243338858791764, 3.714055802135314, -2.874727330465609, 0.018137775126441685], [1.376202809415793, 9.053358989731835, -2.034556478309682, -1.0416116228304384, -1.2095375741247056, -1.081099875140229, 1.759427989312819, 4.818043803638175, -1.4139620620799296, -0.8009197654878797, 4.503105000902112, 6.389832874268669], [-1.4829743027730051, 6.380650335091504, 3.0271088272665123, -2.021064697952894, -9.736931890876846, 2.519693483355679, 2.930702103944726, -3.4775223747608432, 0.06918331122475715, 6.454558451615467, 5.164502286689611, -2.116659623388511], [1.7424772831834607, 1.386438080956484, -5.620780487923435, -2.9389789224955676, 0.7869849361436995, 2.161123564454222, 1.0135621909487544, 1.2699788782905763, 3.44618198157697, -2.8957585172641522, -1.5509248495450398, 3.954055348027201], [-0.6299506552149243, 0.4394821930709787, 5.167578217756679, 1.5148818632097005, -6.420954063459815, -3.3002629663913674, -2.3595188286078352, 0.5530473737632826, -4.7928567038722445, -0.9231200417768548, 3.8122865643571324, 0.7404423017935692], [-5.280886608959835, 4.038238782389141, 4.248130714527139, -3.268659120640523, -2.1034658763162484, 3.8005595802210133, 6.302034908164177, -2.423331225783052, 3.811995649887155, 1.333321599270664, -7.389633519906599, 0.23352159144688983], [1.6401763758225127, -4.747408319687094, -0.8774206045457114, -0.1034146030214323, -2.664256335441398, 2.823374246059376, -3.9755119326872737, 1.3783616801540268, 4.154462658947012, -3.617881732756874, 1.9334669714138455, -3.166974002691512], [0.7833531526978431, 4.319620975770496, -4.531800788210166, -3.9122848999656332, 1.1970165541305025, 1.7155706650789722, 1.9184643841772953, 1.1828336073239414, 3.100473191970399, 1.8757306875086301, 7.217605747439062, 4.369349097216645], [-0.4757026461242341, -0.09138533043786873, -1.1910380958265723, -3.991857926336591, 1.3431336324712526, -2.7227693214757576, -4.787457459285381, 6.075543082040401, -0.164871459660474, -5.165594347895115, -0.12206615690181599, 4.836699763778708], [5.877734137007106, 0.3206487557750583, 5.746796153965715, 0.8148569274619969, -0.6643546306317878, -0.8213227370161189, 0.9595577231741033, 0.16838610038476376, 2.125693606368362, -1.645620421593474, -1.0602911288341828, 2.9446679648548106], [-5.388543604648707, -3.336314763681212, 1.3165817556716304, -3.0507364209328616, -0.8160682553547316, 0.5526488651405768, -1.3741976509378144, -2.690698705192993, 1.3500858742400093, -0.26350088837172614, 3.7177933728478556, 8.373390327151258], [0.7805777030827966, -2.194750334861719, -0.5197120220727314, 1.7626389613734692, -2.0077113652494374, -0.18691477251905858, 4.477465904067774, 3.1878836843384417, 3.335295924144278, 3.1196226545303087, 1.4835023657314719, -0.9447469212426898], [6.692551589574256, 2.063707423642742, -3.478511675795724, -0.3056344648202858, -4.4374582956525765, 1.5997080020203434, 1.6323445880780885, 3.0513534609016455, 4.590949813972905, 6.40308283170164, 2.4648417073657187, 5.6368415979850175], [1.0161729174873428, 2.740305426325587, -2.860102083067961, 3.2973228881557564, 0.16451923428949927, 3.5702040612596093, -0.5094847874578001, 3.8865286720338887, -0.9786227784391304, -0.9391596551518386, 3.1113400687141395, -4.533264190685407], [-1.5921510896599775, 1.3716300253801508, 2.4246232944404498, -0.48512133933159773, 0.5399785364490034, 3.298341209530407, 0.46771777059222874, -2.724680448839058, 1.3607619121705525, -3.931298310746078, 3.98933212795662, 2.9599494740320607], [4.987578350721245, 1.1183802799199016, 1.5856332758538714, -1.7678253320124875, -1.528375100471737, -4.194895282255969, 5.5776608080038725, -4.092887632978029, -0.1279606802924859, -2.8006253934405105, -0.37995920193937177, 2.2177851092235046]], "weights_ho": [[-1.4723356205408926, -4.749451508778491, 1.1836041749171533, 2.7050992853034335, -2.6221005334118304, -3.807019101020355, 0.4951427092779624, 2.084027694097045, 9.08861046556769, 2.8210364516875934, -1.4875512258599017, 0.47904245925821637, 7.104524829578346, 4.553767831007494, 1.9233716368426383, -2.499540255996808], [2.5117642590220464, 2.8062981117669197, 8.56269302978297, -3.3753975533252945, 1.7435213506000524, 3.8604267201403677, -0.5871530351050905, -1.3466713379077753, -0.14243181750188105, 1.754768811442618, 6.482678221385139, -8.77517417258228, -6.8040527823044945, 1.7028419458388757, 6.511528860140503, -3.468029254980574], [4.963419455138179, -2.3482703126314206, -2.555146034743799, -1.7522630924829017, 8.25853397995283, 0.8635305162755321, 0.31685670724022086, 0.8167316102937281, 3.257586128526242, -0.16545712457206213, -3.383844644227661, -3.613210358428939, 4.767860750838084, 0.36792780899171407, 1.3127504210591046, -0.13619913932682337], [-3.148540429460131, 9.311626680608516, -0.42602841533022145, 0.3707922911374066, -3.0883299189840616, -0.5662363688912644, -7.198960667597544, -0.24007437099642284, 3.9603119528962476, 4.446864884140628, 4.764470336918582, -2.31076835597971, -1.3971351223679953, -2.1898405357138717, -2.4369665718974614, 3.515764466093157]], "bias_h": [[0.3235445570440729], [-2.8034108202387245], [0.7090107245218018], [-1.4294493498817131], [-1.5584931690315944], [-3.5417393861317397], [1.2924109822725802], [5.714118816684783], [1.146014445155541], [1.7051097384308704], [5.92024010102158], [0.6862619391203861], [-4.834824166220448], [5.810543224301803], [-3.39845104807977], [3.1112504817023607]], "bias_o": [[-1.1592285287088975], [0.2203037080878841], [-1.586996624444417], [1.9255932035237304]]}, {"input_nodes": 12, "hidden_nodes": 16, "output_nodes": 4, "weights_ih": [[-1.8310053894544769, -4.234674705577905, 0.2931904248109986, -0.028509354727850714, -2.1454048181878917, 2.22209941877609, -1.8046071868709872, -0.8288146454082307, 0.17843264123685362, 3.956118046333435, -2.8234311825264085, 0.13750607842945967], [1.2763492614641354, 9.01332216784017, -2.1913078081060986, -1.0416116228304384, -1.1426737102890892, -1.0269935170140096, 1.863504612599806, 4.818043803638175, -1.0186160096357357, -0.8009197654878797, 4.497980229381671, 6.345564398477503], [-1.4774915495555152, 6.325615940845789, 3.0680897701355145, -2.099707187458768, -9.851299096764889, 2.519693483355679, 2.930702103944726, -3.4456740984663514, 0.178532314746028, 6.454558451615467, 5.25135981608601, -2.534964299383447], [1.7387798290903875, 1.3335029450031595, -5.61449524416807, -2.9389789224955676, 0.6517653792936894, 2.1627274920455344, 1.0135621909487544, 1.2036862297951751, 3.503645016138119, -2.9190441276735113, -1.5509248495450398, 4.0459106103570495], [-0.6299506552149243, 0.33058338251837177, 5.131561105767428, 1.5223087027740672, -6.385890215752561, -3.2832249713358848, -2.3385386519161244, 0.676375734145058, -4.931187018224876, -0.9231200417768548, 3.7258298523704196, 0.7205463808168844], [-5.280886608959835, 4.046876019028074, 4.249824987799377, -3.439094397299683, -2.1034658763162484, 3.7277755721817862, 6.2301935398877, -2.4851461836760738, 3.7693540926068976, 1.3829862188953808, -7.407304056841972, 0.23352159144688983], [1.6263972213923847, -4.747408319687094, -0.7399396968593438, -0.06037364124384775, -2.831485191015744, 2.8638117700880357, -3.7747324162824416, 1.626518856548525, 4.124313519284422, -3.6651666252283244, 2.239924628066658, -3.2236015834252227], [0.7185972775909883, 4.319620975770496, -4.6735380719878385, -3.804302246963611, 1.1970165541305025, 1.604647163381642, 1.9040788267254793, 1.1910393986219454, 3.134582567686186, 2.0159253889145594, 7.228157346232621, 4.369349097216645], [-0.5359300964308303, -0.004427772360914961, -1.183852689686807, -3.991857926336591, 1.3465949666191972, -2.7227693214757576, -4.679438558156203, 6.0096194105860175, -0.09590872223648933, -5.217957277701173, -0.12401509060079116, 4.846102518734397], [5.858220395425597, 0.15303883730040552, 5.695042610774315, 0.7655646978617501, -0.5558702110210172, -0.7415656460069902, 0.7260350156728952, 0.18324771491368858, 2.044487686088868, -1.645620421593474, -1.0143485438113007, 2.9446679648548106], [-5.231012209441874, -3.507368119995853, 1.4523377937079691, -3.0507364209328616, -0.8730573007590277, 0.582927782799954, -1.3741976509378144, -2.690698705192993, 1.3036923799276932, -0.10969703585022685, 3.619689865476631, 8.37515215272234], [0.7288329569344097, -2.022224192882989, -0.8328356943792057, 1.7690832315349132, -2.0077113652494374, 0.02323305582362019, 4.477465904067774, 3.1283552361200795, 3.369490478619301, 3.175421477747765, 1.4835023657314719, -0.9735741220358413], [6.692551589574256, 2.1662683183174094, -3.4296705326154058, -0.3056344648202858, -4.369493571211418, 1.5997080020203434, 1.568174379912946, 2.9889506720540844, 4.590949813972905, 6.14242113348517, 2.4648417073657187, 5.656067640936507], [0.9470155439389017, 2.599113463370197, -2.768881844603316, 3.3029648424143736, 0.16451923428949927, 3.5204982588259326, -0.47773651175964504, 3.844210592173442, -1.0309626333586706, -0.9715667156639262, 3.1659571700355804, -4.531903372602135], [-1.5887763654082006, 1.2736457047102114, 2.4710988776868494, -0.442999119975113, 0.5672125320469634, 3.2879872442784874, 0.43071172760378795, -2.6583023013365077, 1.3607619121705525, -3.972173907689161, 4.074236727491204, 2.9459100141736174], [4.987578350721245, 1.1183802799199016, 1.5700555396566287, -1.7234613243728885, -1.4007367589679471, -3.94811406090797, 5.5776608080038725, -4.382258400597448, -0.1279606802924859, -2.6857824771056085, -0.37995920193937177, 2.134152462208759]], "weights_ho": [[-1.5257772946590877, -5.004110208107576, 1.1836041749171533, 2.7050992853034335, -2.6080246563370197, -3.807019101020355, 0.4951427092779624, 2.1738063930269216, 9.027340286562517, 2.8210364516875934, -1.4875512258599017, 0.47904245925821637, 7.101967351370536, 4.600023779961709, 1.9527947524576854, -2.499540255996808], [2.5117642590220464, 2.8062981117669197, 8.56269302978297, -3.3753975533252945, 1.764152132297431, 4.109450813825408, -0.5089349471510848, -1.4459090785906867, -0.1625712194563516, 1.754768811442618, 6.594425476493828, -8.916446793066097, -6.847868353904039, 1.5895408926267702, 6.511528860140503, -3.3906090005341296], [4.963419455138179, -2.256304203900687, -2.4481490504390915, -1.6948346246046149, 8.44503184362041, 0.950621749340673, 0.31685670724022086, 0.8567768155385862, 3.2881305789734423, -0.045291921776434485, -3.654136058366481, -3.613210358428939, 4.767860750838084, 0.36792780899171407, 1.487644818348186, -0.13619913932682337], [-2.9669497774850786, 9.311626680608516, -0.42602841533022145, 0.3707922911374066, -3.124137630811627, -0.6193912492304998, -7.364870885979876, -0.20670354742033287, 3.879538025838059, 4.446864884140628, 4.7744346593264755, -2.277383493237726, -1.3971351223679953, -2.1898405357138717, -2.4220604736022406, 3.8181491179238085]], "bias_h": [[0.2697528348668651], [-2.5833215554333813], [0.729914839175613], [-1.485607330774845], [-1.5584931690315944], [-3.5417393861317397], [1.2924109822725802], [5.876616215286745], [1.0804160200707102], [1.5858537543395894], [5.92024010102158], [0.6862619391203861], [-5.226665661582809], [5.67540434382084], [-3.4671075663228743], [3.1112504817023607]], "bias_o": [[-1.0834225468251564], [0.14043466618889666], [-1.563088317810323], [1.6220388544043733]]}, {"input_nodes": 12, "hidden_nodes": 16, "output_nodes": 4, "weights_ih": [[-1.8065927736715837, -4.234674705577905, 0.48815991419650395, -0.028509354727850714, -2.1454048181878917, 2.22209941877609, -1.6885564252251999, -0.9010442195593942, 0.2386547113414132, 3.7703489229449487, -2.874727330465609, 0.14449330966923796], [1.2145795859090358, 9.01332216784017, -1.8723973612804647, -1.104405370772083, -1.2046296823323472, -1.2170874184541045, 1.7941556170076007, 4.798827891995868, -1.2883108545942163, -0.8014045955177822, 4.497980229381671, 6.448261260318997], [-1.5337353033801842, 6.24331939970845, 3.1092378805921044, -2.0707088487635943, -9.910922628989471, 2.4337402505310073, 3.105491913864986, -3.4747578616205983, 0.06918331122475715, 6.503010641163072, 5.01919335333826, -2.3769356723537345], [1.9615355208661396, 1.3335029450031595, -5.528689474043137, -3.1196190056946778, 0.4960177609962071, 2.161123564454222, 1.0135621909487544, 1.2213295240131785, 3.569135763430812, -2.8957585172641522, -1.549610383709262, 3.96588959373508], [-0.6299506552149243, 0.4447238315206419, 5.248199724446581, 1.5479372078429698, -6.420954063459815, -3.3002629663913674, -2.4447326091663313, 0.676375734145058, -4.755708765748401, -0.9532743235953838, 3.673071889835994, 0.7162264224844765], [-5.103056942025683, 3.925748105208231, 4.249824987799377, -3.29816643122017, -2.0235565072493094, 3.8005595802210133, 6.243612107694025, -2.4485318236471088, 3.8118729592482694, 1.3829862188953808, -7.389633519906599, 0.22245972477843068], [1.6191736163273478, -4.747408319687094, -0.7399396968593438, -0.06255712932201897, -2.4940179277205186, 2.859092899873714, -3.9755119326872737, 1.626518856548525, 4.074228591683183, -3.842331658606912, 2.239924628066658, -3.2250152608508076], [0.8600593092960258, 4.379029918744119, -4.744598820862066, -3.9122848999656332, 1.1970165541305025, 1.604647163381642, 1.9110021069036505, 1.2367377349757762, 3.100473191970399, 2.0159253889145594, 7.183637826431316, 4.308410635470577], [-0.5777990823758277, -0.22086302262601532, -1.337270665538349, -3.868831277822832, 1.2154633395413734, -2.8018123548501555, -4.684442543114921, 6.062068976702342, -0.09590872223648933, -5.16812569255589, -0.18528252054715527, 4.762664192310928], [5.858220395425597, 0.15771222660227321, 5.904003852748958, 0.7655646978617501, -0.6731160724968622, -0.8414863343528589, 0.7260350156728952, 0.18324771491368858, 2.170957807358126, -1.645620421593474, -0.9896053133960505, 2.939278338710029], [-5.253457950557315, -3.336314763681212, 1.3165817556716304, -3.0507364209328616, -0.8119640534044497, 0.5863326847106942, -1.3771822165301384, -2.635505110821975, 1.3036923799276932, -0.0993344381983329, 3.619689865476631, 8.220891073522422], [0.703037019418112, -2.1457259307976484, -0.8328356943792057, 1.7626389613734692, -1.8752425456131128, 0.02323305582362019, 4.509496279642227, 3.314441264141622, 3.369490478619301, 3.1284638159134346, 1.4835023657314719, -0.9447469212426898], [6.5455086724936935, 1.8740790737626658, -3.4296705326154058, -0.22986563923867182, -4.323813155236977, 1.5997080020203434, 1.4653697546611353, 3.0513534609016455, 4.590949813972905, 6.40308283170164, 2.5081534273204253, 5.6368415979850175], [0.9470155439389017, 2.740305426325587, -2.84420064856537, 3.2746170623029305, 0.0380273976461096, 3.656666172438059, -0.48755545953028945, 3.8097852119759956, -1.0309626333586706, -0.8373745612408128, 3.097558162143876, -4.624532545165588], [-1.4541203834994374, 1.3107006114316315, 2.539544197296591, -0.48512133933159773, 0.5672125320469634, 3.298341209530407, 0.5281219406290789, -2.7549154822985233, 1.3607619121705525, -3.972173907689161, 4.044477049346923, 2.816846877276593], [4.882180983006421, 1.1183802799199016, 1.5031241186132942, -1.7234613243728885, -1.376430781114083, -4.194895282255969, 5.5776608080038725, -4.313782951298997, -0.12252848129882545, -2.633624459838345, -0.37995920193937177, 2.3394411827289794]], "weights_ho": [[-1.484183467804654, -4.9966230481479394, 1.1836041749171533, 2.7050992853034335, -2.593169158920038, -3.807019101020355, 0.6755145680672479, 2.1317175839561426, 9.08861046556769, 2.9127353332797763, -1.6653963292370677, 0.47904245925821637, 7.104524829578346, 4.823575318406483, 1.8145389428118837, -2.4725019283094993], [2.5117642590220464, 2.8062981117669197, 8.380036469195002, -3.609178083643478, 1.7435213506000524, 3.758899425655953, -0.4370652520723417, -1.4459090785906867, -0.10749879836923482, 1.754768811442618, 6.482678221385139, -8.79087589981952, -6.8040527823044945, 1.6949400338783813, 6.564563015905369, -3.3661025770521524], [4.963419455138179, -2.3482703126314206, -2.587199608046477, -1.7527234654995743, 8.509412045547174, 0.8859380281616861, 0.31685670724022086, 0.8567768155385862, 3.093004154526602, -0.15686331415475724, -3.654136058366481, -3.7379422816039596, 4.767860750838084, 0.36792780899171407, 1.4575652200542015, 0.0845346036175752], [-2.9669497774850786, 9.25746685195926, -0.42602841533022145, 0.3707922911374066, -3.0883299189840616, -0.5662363688912644, -7.364870885979876, -0.24007437099642284, 3.6978291652563997, 4.446864884140628, 4.904320908619524, -2.191484681508357, -1.521997270735208, -2.1898405357138717, -2.46944372746215, 3.6532940253792447]], "bias_h": [[0.32038469915455087], [-2.8034108202387245], [0.729914839175613], [-1.6933997122970208], [-1.5930085122453026], [-3.627989387133115], [1.1864667895813739], [5.628874013790657], [1.2229300333194844], [1.788152552796852], [5.92024010102158], [0.6862619391203861], [-5.056276224747021], [5.704969461405103], [-3.5260787885543], [3.1896224808014217]], "bias_o": [[-1.0834225468251564], [0.2203037080878841], [-1.5473128080981662], [1.9764239526521337]]}, {"input_nodes": 12, "hidden_nodes": 16, "output_nodes": 4, "weights_ih": [[-2.1034743444081125, -4.280485319598681, 0.2931904248109986, -0.028509354727850714, -2.1454048181878917, 2.150612156434184, -1.7721974496628778, -0.7201744190010214, 0.17843264123685362, 3.714055802135314, -2.874727330465609, 0.161383780312713], [1.2561577357269376, 9.01332216784017, -2.034556478309682, -1.118495470226631, -1.2095375741247056, -1.0269935170140096, 1.768897210024462, 4.818043803638175, -1.53000271777415, -0.8009197654878797, 4.497980229381671, 6.332932294077217], [-1.1909679745311728, 6.340481332943887, 2.9754664682988397, -2.099707187458768, -9.866903395922177, 2.5213509338209716, 2.930702103944726, -3.4775223747608432, 0.12737676398054626, 6.454558451615467, 5.120458715834165, -2.3560342822901292], [1.7387798290903875, 1.2003981028409572, -5.528689474043137, -2.9389789224955676, 0.6231315983227894, 2.097127570315877, 1.0135621909487544, 1.2815254527443167, 3.44618198157697, -2.8957585172641522, -1.5509248495450398, 4.088028811985948], [-0.6299506552149243, 0.4394821930709787, 5.1516906078187334, 1.5148818632097005, -6.420954063459815, -3.3002629663913674, -2.408639674538916, 0.5804675516369351, -4.917126203643206, -0.8621860748192146, 3.6620777081059064, 0.7162264224844765], [-5.329252826027504, 3.994041641615697, 4.249824987799377, -3.268659120640523, -2.2241229850047475, 3.8228162213375363, 6.302034908164177, -2.4065342725012093, 3.7797454956577923, 1.4403639490877012, -7.479416651570761, 0.23352159144688983], [1.7267636621147457, -4.747408319687094, -0.918275923036228, -0.11109681181195565, -2.63046597243963, 2.823374246059376, -3.843557983500496, 1.626518856548525, 4.124313519284422, -3.617881732756874, 2.2351296396882927, -3.4839347765825437], [0.7833531526978431, 4.319620975770496, -4.6735380719878385, -3.8167471952097634, 1.1970165541305025, 1.581239207746031, 2.0214192684095558, 1.1828336073239414, 3.100473191970399, 2.0159253889145594, 7.280697622608187, 4.403394801355982], [-0.5777990823758277, -0.293358947710296, -1.1932100700858146, -3.991857926336591, 1.2306988257983957, -2.7227693214757576, -4.756611504064953, 6.20193191594458, -0.09590872223648933, -5.2111014305153605, -0.12206615690181599, 4.892369801370258], [6.018229760676925, 0.28345586877581785, 5.834265003160663, 0.703472159371816, -0.6643546306317878, -0.8213227370161189, 1.0464412493628, 0.007784632780488521, 2.125693606368362, -1.645620421593474, -0.9896053133960505, 2.9446679648548106], [-5.21771958557432, -3.281138274745678, 1.3165817556716304, -3.0507364209328616, -0.7766535089900124, 0.6290466013582314, -1.4796237460117505, -2.690698705192993, 1.3107086957658116, -0.0993344381983329, 3.619689865476631, 8.498431770287631], [0.8046063392146446, -2.194750334861719, -0.8620750578575787, 1.7626389613734692, -2.0077113652494374, -0.10886067163337045, 4.559287084034246, 3.335894330524208, 3.254149033310903, 3.175421477747765, 1.4600304056449327, -0.9447469212426898], [6.692551589574256, 2.063707423642742, -3.4296705326154058, -0.41322878755744274, -4.481999381789347, 1.5314324646421422, 1.6323445880780885, 3.0513534609016455, 4.400646501752766, 6.53937851518106, 2.4648417073657187, 5.658809088434481], [0.9470155439389017, 2.6641767547552666, -2.775192352834939, 3.452765243219024, 0.27357220241055813, 3.5130078818382424, -0.4153262443548643, 3.8097852119759956, -1.0309626333586706, -0.9872478366768864, 3.10384279178034, -4.641429027133728], [-1.5938699821705986, 1.351730539422618, 2.4246232944404498, -0.48512133933159773, 0.5672125320469634, 3.298341209530407, 0.3488397695604282, -2.7229191271248014, 1.3607619121705525, -3.972173907689161, 4.044477049346923, 3.089927623212306], [4.987578350721245, 1.1183802799199016, 1.733353799381309, -1.5604430607235515, -1.4309894013744113, -4.294082145852698, 5.748579824042297, -4.181025995188013, -0.14683389973833638, -2.9523871842433924, -0.3510871828561535, 2.3312664915640577]], "weights_ho": [[-1.4723356205408926, -4.953940103369002, 1.1836041749171533, 2.821661152740863, -2.4628519789188332, -3.5302330000422826, 0.6472983491879435, 2.009470669575619, 9.200377394651278, 2.8011217779596578, -1.4875512258599017, 0.514967594156917, 7.104524829578346, 4.633713656046674, 1.9527947524576854, -2.499540255996808], [2.5117642590220464, 2.877606354713514, 8.56269302978297, -3.1118265193391976, 1.7435213506000524, 3.8604267201403677, -0.5089349471510848, -1.4459090785906867, -0.14243181750188105, 1.669197560715156, 6.5126954932839665, -8.881607607722485, -6.714541158337831, 1.5895408926267702, 6.511528860140503, -3.468029254980574], [5.098631738630642, -2.4457135374868515, -2.5087063747015144, -1.5209051842716677, 8.44503184362041, 1.09586114105298, 0.2325724314516148, 1.0012503954510195, 3.243171511087928, -0.15686331415475724, -3.654136058366481, -3.6540728112565475, 4.685580396931581, 0.36792780899171407, 1.4960472556494715, -0.1458790998614374], [-2.976883952450847, 9.347206504845808, -0.42602841533022145, 0.3316905902358017, -3.0883299189840616, -0.3970115864551592, -7.364870885979876, -0.24007437099642284, 3.879538025838059, 4.446864884140628, 4.764470336918582, -2.2836933707630274, -1.3971351223679953, -2.031482159577141, -2.4258281911641295, 3.6850527249574547]], "bias_h": [[0.2697528348668651], [-2.8034108202387245], [0.729914839175613], [-1.4860027695586107], [-1.5584931690315944], [-3.5417393861317397], [1.2924109822725802], [5.557313938037514], [1.1875399630246197], [1.590106734492732], [5.874054751383823], [0.6862619391203861], [-5.056276224747021], [5.543675186484345], [-3.4529081715254213], [3.1689775089214596]], "bias_o": [[-0.9329039464066993], [0.2203037080878841], [-1.540365248742805], [1.9764239526521337]]}, {"input_nodes": 12, "hidden_nodes": 16, "output_nodes": 4, "weights_ih": [[-1.8310053894544769, -4.234674705577905, 0.2931904248109986, -0.028509354727850714, -2.1454048181878917, 2.115624989680081, -1.9203425410496546, -0.8288146454082307, 0.16642185901231862, 3.7698292625989684, -2.789548971994699, 0.161383780312713], [1.2763492614641354, 8.916416387879867, -1.931804597860357, -1.0416116228304384, -1.3155421319251437, -0.9347141967707491, 1.8039946183855742, 4.818043803638175, -1.3587795994770646, -0.8009197654878797, 4.427026187472205, 6.370320022015379], [-1.5337353033801842, 6.340481332943887, 3.0312256574514573, -2.099707187458768, -9.910922628989471, 2.519693483355679, 2.930702103944726, -3.4775223747608432, 0.06918331122475715, 6.477379297336554, 5.185322143468534, -2.4911920156837315], [1.8631368003604531, 1.3335029450031595, -5.528689474043137, -2.9389789224955676, 0.826030589473204, 2.161123564454222, 1.1993854330801605, 1.2864308448742519, 3.44618198157697, -2.679128453394368, -1.5980548617938855, 4.072709750052222], [-0.6299506552149243, 0.4394821930709787, 5.167578217756679, 1.5148818632097005, -6.420954063459815, -3.3405412594267427, -2.3595188286078352, 0.676375734145058, -5.080559700627056, -0.9231200417768548, 3.7258298523704196, 0.6269639631123405], [-5.280886608959835, 4.038238782389141, 4.325612527189459, -3.303157253202169, -2.095846031594511, 3.749655026776407, 6.302034908164177, -2.4485318236471088, 3.7797454956577923, 1.3029069387080523, -7.389633519906599, 0.2368244287034492], [1.6263972213923847, -4.941851366148569, -0.8494926165886538, -0.07071790563383673, -2.7008244693989587, 2.9655435633240934, -3.9755119326872737, 1.626518856548525, 4.124313519284422, -3.617881732756874, 2.239924628066658, -3.2250152608508076], [0.7833531526978431, 4.319620975770496, -4.741465140680118, -3.950980827836576, 1.1697528775559864, 1.604647163381642, 1.9040788267254793, 1.1828336073239414, 3.0685680656584715, 2.0159253889145594, 7.1303457922071845, 4.369349097216645], [-0.5602940212556229, -0.07446522304970062, -1.1932100700858146, -4.032062140728983, 1.2779844799111593, -2.7227693214757576, -4.734514349065609, 6.0208920364047955, -0.05269530072193175, -5.217957277701173, -0.0913544891956638, 4.892369801370258], [5.858220395425597, 0.19227784719171015, 5.832400609054824, 0.7655646978617501, -0.59124921688852, -0.8213227370161189, 0.7260350156728952, 0.18324771491368858, 2.057365733817606, -1.7642290489138694, -0.779469797555735, 2.9446679648548106], [-5.179219220748975, -3.3515272131193026, 1.3686325792122522, -2.981986423680673, -0.7766535089900124, 0.5596081709302883, -1.3741976509378144, -2.631445942830534, 1.4190628682652986, -0.0993344381983329, 3.619689865476631, 8.37515215272234], [0.7288329569344097, -2.194750334861719, -0.8328356943792057, 1.8292132265717262, -2.0979931896092974, 0.02323305582362019, 4.477465904067774, 3.176271949510412, 3.4336504194164164, 3.298851693037362, 1.3555717975462118, -0.9447469212426898], [6.5276049868717685, 2.063707423642742, -3.4296705326154058, -0.3056344648202858, -4.354476651963004, 1.5997080020203434, 1.6323445880780885, 3.0513534609016455, 4.590949813972905, 6.349884260773907, 2.3256528779298207, 5.859565422455223], [0.986739762721861, 2.745326477214622, -2.84420064856537, 3.32477658874783, 0.16451923428949927, 3.541430386426575, -0.5828070680337751, 3.8177640329219464, -1.0309626333586706, -0.9715667156639262, 3.180899600272331, -4.531903372602135], [-1.5887763654082006, 1.2168944022013441, 2.4692189685179935, -0.48512133933159773, 0.6277366180034158, 3.292348787030221, 0.49526549823380994, -2.7229191271248014, 1.3607619121705525, -3.965570905506088, 4.044477049346923, 3.0000758223152664], [4.906948984080692, 1.1183802799199016, 1.5856332758538714, -1.7320596759506144, -1.376430781114083, -4.140447214268167, 5.446891010854649, -4.071612882024707, -0.1279606802924859, -2.715132654893305, -0.2904429721577653, 2.1361991603203445]], "weights_ho": [[-1.4723356205408926, -4.952810319768538, 1.1836041749171533, 2.6755225829385827, -2.4643843254033486, -3.803556023105107, 0.4951427092779624, 2.084027694097045, 9.08861046556769, 2.6215894789804977, -1.4875512258599017, 0.47904245925821637, 7.168739544330044, 4.728752747225659, 1.9445432042566635, -2.3365639519709585], [2.467964877829338, 2.8062981117669197, 8.644223111739265, -3.3753975533252945, 1.7435213506000524, 3.980655871328002, -0.5017736414405847, -1.4459090785906867, -0.14621103158441218, 1.754768811442618, 6.492973627299319, -8.847685913545126, -6.79193726960435, 1.5895408926267702, 6.488795758261921, -3.468029254980574], [4.873560074660551, -2.3536593600855675, -2.672531711541515, -1.7803558106001796, 8.44503184362041, 0.9110115796377639, 0.31685670724022086, 0.9995226646315047, 3.3732544570550145, -0.15686331415475724, -3.654136058366481, -3.613210358428939, 4.767860750838084, 0.34378790634817874, 1.487644818348186, -0.16114331922980357], [-2.9669497774850786, 9.471078218511021, -0.42602841533022145, 0.3707922911374066, -3.0883299189840616, -0.6635591406559006, -7.364870885979876, -0.30548534519988396, 3.879538025838059, 4.392605658560494, 4.755522025085779, -2.339481271141941, -1.3971351223679953, -2.1135237129247324, -2.2312975797821726, 3.8573927888061337]], "bias_h": [[0.2648130448954112], [-2.8034108202387245], [0.6609107016983299], [-1.485607330774845], [-1.4155021066993736], [-3.271128160562541], [1.0813136570672437], [5.740695768561317], [0.9710305068960949], [1.788152552796852], [5.92024010102158], [0.7349780907292854], [-5.009799958719411], [5.67540434382084], [-3.455016291775456], [3.2142216875338283]], "bias_o": [[-1.0834225468251564], [0.2203037080878841], [-1.5473128080981662], [1.9764239526521337]]}, {"input_nodes": 12, "hidden_nodes": 16, "output_nodes": 4, "weights_ih": [[-1.6853110689047965, -4.234674705577905, 0.2931904248109986, -0.028509354727850714, -2.1264422755908523, 2.22209941877609, -1.9268869105698636, -0.719623314191058, 0.17843264123685362, 3.714055802135314, -2.874727330465609, 0.161383780312713], [1.2763492614641354, 9.01332216784017, -2.034556478309682, -1.0416116228304384, -1.2095375741247056, -0.8985028937580974, 1.7941556170076007, 4.818043803638175, -1.5201884006587136, -0.8009197654878797, 4.497980229381671, 6.389832874268669], [-1.483698340085167, 6.340481332943887, 3.029659015366968, -1.892943659332735, -9.730501796314158, 2.494364507155061, 2.9631263613528755, -3.4775223747608432, 0.06918331122475715, 6.320068313136907, 5.037474706477662, -2.3560342822901292], [1.7387798290903875, 1.3335029450031595, -5.546190294983459, -2.9389789224955676, 0.7119488232202392, 2.3113448543538544, 1.0135621909487544, 1.3451425751856076, 3.44618198157697, -2.8957585172641522, -1.4845562412720623, 4.072709750052222], [-0.5517331349294469, 0.5403732408981989, 5.167578217756679, 1.5148818632097005, -6.536005535691086, -3.163748984154544, -2.3595188286078352, 0.9793327619482157, -4.9098712074859385, -0.9231200417768548, 3.7258298523704196, 0.6006380082225459], [-5.309665143426331, 4.038238782389141, 4.249824987799377, -3.268659120640523, -2.0594275341213972, 3.80225680846776, 6.302034908164177, -2.4485318236471088, 3.7797454956577923, 1.3829862188953808, -7.367187010764821, 0.25896068538745887], [1.6456507784276615, -4.69369533775802, -0.7399396968593438, -0.07071790563383673, -2.742339901913161, 2.902914856858135, -3.9755119326872737, 1.664835270074036, 4.011949259382797, -3.643022479452211, 2.239924628066658, -3.2250152608508076], [0.7833531526978431, 4.319620975770496, -4.6735380719878385, -3.9122848999656332, 1.2164945228521733, 1.604647163381642, 1.9040788267254793, 1.136100933311926, 3.062223075889418, 2.0159253889145594, 7.228157346232621, 4.191903748051978], [-0.5777990823758277, -0.09138533043786873, -1.1932100700858146, -3.862512466875079, 1.3697905670416288, -2.744441595269084, -4.787457459285381, 6.17071700245983, -0.22064529801465155, -5.20448826053237, -0.12271735547540581, 4.948951596709291], [5.760979382201822, 0.15094620074147128, 5.7002926415765875, 0.7655646978617501, -0.7138250169228133, -0.6938010515068325, 0.5706554909763424, 0.17084016804772587, 2.125693606368362, -1.645620421593474, -0.9896053133960505, 2.95580777072287], [-5.253457950557315, -3.403071352684758, 1.3575473097524655, -3.0507364209328616, -0.7766535089900124, 0.6303194789385883, -1.3741976509378144, -2.690698705192993, 1.3036923799276932, -0.051513371359490995, 3.619689865476631, 8.38774371627019], [0.7288329569344097, -2.2442205842641925, -0.8328356943792057, 1.8037531203771822, -2.0632272747619114, 0.02323305582362019, 4.477465904067774, 3.1104394955816552, 3.369490478619301, 3.1282649124672584, 1.4835023657314719, -0.9110122749641063], [6.692551589574256, 2.063707423642742, -3.4296705326154058, -0.3056344648202858, -4.297537699435029, 1.6122810120445454, 1.6323445880780885, 2.8380405858545155, 4.522594207737952, 6.40308283170164, 2.491521750379873, 5.6368415979850175], [0.9550156322709198, 2.8085261514872233, -2.975167013287656, 3.313880463034002, 0.15615318160982355, 3.541430386426575, -0.5094847874578001, 3.8097852119759956, -1.0309626333586706, -0.8708720471067204, 3.109456374759687, -4.531903372602135], [-1.5887763654082006, 1.3525664797819372, 2.3925587513785644, -0.48512133933159773, 0.42584215178961327, 3.298341209530407, 0.30941853541150666, -2.7229191271248014, 1.3607619121705525, -3.972173907689161, 4.044477049346923, 2.9459100141736174], [4.987578350721245, 0.9768865274480123, 1.620339351167191, -1.8096048345844304, -1.376430781114083, -4.194895282255969, 5.626822566111434, -4.173846360869417, -0.1279606802924859, -2.7957351393807124, -0.37995920193937177, 2.2896290450058867]], "weights_ho": [[-1.4723356205408926, -4.952810319768538, 1.1836041749171533, 2.7179026782390374, -2.593169158920038, -3.807019101020355, 0.4951427092779624, 1.972493601765841, 9.1262634042371, 2.64874379860246, -1.5558106918789807, 0.5828878025595072, 7.104524829578346, 4.764245004518421, 1.8137615860452643, -2.499540255996808], [2.426183925372002, 2.7998856274459225, 8.56269302978297, -3.2627385261837274, 1.7538860411715256, 3.95713536353663, -0.49857375709260254, -1.49505735670039, -0.14243181750188105, 1.7209895581764014, 6.482678221385139, -8.751947005180766, -6.8040527823044945, 1.5895408926267702, 6.511528860140503, -3.4562571605220764], [4.829755799184114, -2.349946284258915, -2.4481490504390915, -1.6363975913350841, 8.364650197461042, 0.950621749340673, 0.3385476868037449, 0.8567768155385862, 3.243171511087928, -0.15686331415475724, -3.654136058366481, -3.6389478900664134, 4.767860750838084, 0.36792780899171407, 1.2394785418531586, -0.14584412023737808], [-2.9630851227367865, 9.413557852160174, -0.42602841533022145, 0.3707922911374066, -3.114769137949068, -0.5662363688912644, -7.108810913783151, -0.04853164303853566, 3.7555747620556215, 4.4342264772397755, 4.764470336918582, -2.2836933707630274, -1.451802675145269, -2.2654707848745907, -2.4509316223018676, 3.6753168733237915]], "bias_h": [[0.16750892286655467], [-2.8034108202387245], [0.7509980657633681], [-1.3804133003108041], [-1.5584931690315944], [-3.631670229860392], [1.2924109822725802], [5.714118816684783], [1.2514853624401345], [1.788152552796852], [5.942697320230212], [0.62060091857092], [-5.056276224747021], [5.67540434382084], [-3.41771866725292], [3.188956265278904]], "bias_o": [[-1.0834225468251564], [0.08447307342965363], [-1.4713528342704691], [2.0056569258616213]]}, {"input_nodes": 12, "hidden_nodes": 16, "output_nodes": 4, "weights_ih": [[-1.7733494659620894, -4.153665494936349, 0.2931904248109986, -0.028509354727850714, -2.1454048181878917, 2.22209941877609, -1.7721974496628778, -0.8288146454082307, 0.11400632138900123, 3.714055802135314, -2.874727330465609, 0.161383780312713], [1.3641665490569677, 9.01332216784017, -2.1407015519779913, -1.0416116228304384, -1.1095130239296784, -0.8673763607229694, 1.7941556170076007, 4.818043803638175, -1.3587795994770646, -0.8009197654878797, 4.530302727944361, 6.29239166747595], [-1.5337353033801842, 6.340481332943887, 3.1092378805921044, -2.099707187458768, -9.910922628989471, 2.519693483355679, 2.980423032228269, -3.4775223747608432, 0.27425561853234687, 6.384057123461089, 5.361974608666877, -2.3560342822901292], [1.662117443185568, 1.24193088125011, -5.528689474043137, -2.9549515671957467, 0.6231315983227894, 2.132570695459968, 1.0135621909487544, 1.2864308448742519, 3.44618198157697, -2.843083189118499, -1.5509248495450398, 4.044372509333798], [-0.6299506552149243, 0.4394821930709787, 5.264305215255804, 1.5148818632097005, -6.420954063459815, -3.2882185210317068, -2.3595188286078352, 0.676375734145058, -4.837034049545841, -0.9231200417768548, 3.7258298523704196, 0.9516432345128041], [-5.280886608959835, 4.038238782389141, 4.0309386172174975, -3.268659120640523, -2.1627939202000492, 3.8005595802210133, 6.34303868536129, -2.383214830635346, 3.8810939605562313, 1.416363629398876, -7.389633519906599, 0.23352159144688983], [1.6699142338143473, -4.747408319687094, -0.7399396968593438, -0.07071790563383673, -2.908915408392101, 2.823374246059376, -3.9755119326872737, 1.6144249695961244, 4.124313519284422, -3.719533638434727, 2.239924628066658, -3.266617342072733], [0.9054145222461996, 4.42283749801305, -4.600001344006394, -3.9122848999656332, 1.1970165541305025, 1.503546560138062, 2.000153828662804, 1.1828336073239414, 3.100473191970399, 1.7950341406873838, 7.28323611451722, 4.349433752521616], [-0.56265397680694, -0.09138533043786873, -1.1932100700858146, -3.991857926336591, 1.2779844799111593, -2.8281501308234525, -4.953097853712941, 6.119669517200319, -0.06621709424970948, -5.4134487349396245, -0.12206615690181599, 4.869117565237894], [5.8894181158084855, 0.19227784719171015, 5.746796153965715, 0.7655646978617501, -0.6844057519185532, -0.8787906793760607, 0.7214679506447175, 0.18324771491368858, 2.125693606368362, -1.645620421593474, -0.9896053133960505, 2.9446679648548106], [-5.203417384464275, -3.1667608074011557, 1.3165817556716304, -3.0433692309684592, -0.8109194218867876, 0.582927782799954, -1.320755752769833, -2.6129516302282316, 1.25934870858041, -0.0993344381983329, 3.619689865476631, 8.37515215272234], [0.7288329569344097, -2.194750334861719, -0.8328356943792057, 1.711366020285458, -1.9907300382135888, 0.02323305582362019, 4.477465904067774, 3.316813627059726, 3.369490478619301, 3.175421477747765, 1.3338279226075587, -0.8901188061079256], [6.670725195477877, 2.063707423642742, -3.4296705326154058, -0.45763215697647486, -4.369493571211418, 1.5922878993289922, 1.5766699559386523, 3.0513534609016455, 4.590949813972905, 6.330074439554568, 2.444130142390671, 5.766695034947117], [0.8087882044439627, 2.740305426325587, -2.84420064856537, 3.3330313399298652, 0.14220264002090555, 3.541430386426575, -0.48915330324620165, 3.8097852119759956, -1.1586014083372214, -0.9715667156639262, 3.109456374759687, -4.531903372602135], [-1.5640260723563408, 1.351730539422618, 2.4246232944404498, -0.6609274961309148, 0.5672125320469634, 3.369711746773358, 0.3909329535475476, -2.760339623440948, 1.3607619121705525, -3.8560259349771964, 3.9771635813299735, 2.9459100141736174], [4.987578350721245, 1.1183802799199016, 1.5359019722406775, -1.6989231373733047, -1.3954638821480725, -4.194895282255969, 5.6827356967149685, -4.048422804813849, -0.1279606802924859, -2.6811545863723407, -0.37995920193937177, 2.2896290450058867]], "weights_ho": [[-1.429568412921699, -4.952810319768538, 1.1836041749171533, 2.7050992853034335, -2.503434757074966, -3.859944408701585, 0.5582196367576193, 2.104415274680629, 9.03826842288751, 2.8210364516875934, -1.4875512258599017, 0.5867792748615612, 6.933573229355577, 4.5837556044689896, 2.0636937860716924, -2.5696558694910525], [2.5117642590220464, 2.8062981117669197, 8.56269302978297, -3.3753975533252945, 1.7435213506000524, 3.865715948459047, -0.5089349471510848, -1.3131596167095587, -0.14243181750188105, 1.9382890221778808, 6.482678221385139, -8.857498051462604, -6.738191926817447, 1.5895408926267702, 6.511528860140503, -3.468029254980574], [4.94496257097932, -2.3603274887990335, -2.4481490504390915, -1.8512909660848569, 8.44503184362041, 0.950621749340673, 0.39406669649094395, 0.8567768155385862, 3.243171511087928, -0.15686331415475724, -3.654136058366481, -3.6972059649880076, 4.767948837786551, 0.29988053449479124, 1.2578509450328081, -0.13287405838422356], [-2.9669497774850786, 9.311626680608516, -0.44360535473283047, 0.4297945538084606, -3.3350466903407208, -0.5662363688912644, -7.357294638435683, -0.007085604035960119, 3.883147219227237, 4.447137107458848, 4.84297664841722, -2.2836933707630274, -1.3971351223679953, -2.1898405357138717, -2.3250683623757005, 3.6753168733237915]], "bias_h": [[0.27993115849689765], [-2.9014251429551536], [0.729914839175613], [-1.501509207374099], [-1.5584931690315944], [-3.5268006053452132], [1.199764938900088], [5.714118816684783], [1.2359030266435778], [1.9745081329602594], [5.92024010102158], [0.6973143654708254], [-5.134881077170891], [5.67540434382084], [-3.376491878905236], [3.2059528740931658]], "bias_o": [[-1.0343861911100665], [0.2203037080878841], [-1.5473128080981662], [1.82900573942554]]}, {"input_nodes": 12, "hidden_nodes": 16, "output_nodes": 4, "weights_ih": [[-1.8310053894544769, -4.299465692585074, 0.17957050056333856, -0.15196457607652808, -2.1454048181878917, 1.9563226870862955, -1.6348389731447681, -0.8288146454082307, 0.2909029722093072, 3.714055802135314, -2.9554767945533547, 0.161383780312713], [1.383139868986362, 9.01332216784017, -2.034556478309682, -0.9081070700863048, -1.3228076651274154, -0.9906378240620645, 1.7941556170076007, 5.028750496004185, -1.4225372472840023, -0.8009197654878797, 4.514175579710032, 6.644212582266899], [-1.5337353033801842, 6.434632484314724, 3.168617143880428, -2.099707187458768, -9.945912293540728, 2.448382431240092, 2.930702103944726, -3.4775223747608432, 0.06918331122475715, 6.454558451615467, 5.3021801188916164, -2.3560342822901292], [1.7998952603857226, 1.2298147356751008, -5.58460335132165, -2.9389789224955676, 0.6231315983227894, 2.250686144150219, 1.0135621909487544, 1.2864308448742519, 3.499550063354432, -2.925248432818851, -1.5509248495450398, 4.078090197190469], [-0.6015751659901585, 0.4394821930709787, 5.271069681015278, 1.604249278309491, -6.589016708773259, -3.170532331177827, -2.2288623155272598, 0.6046890506022186, -4.873453760076523, -0.9231200417768548, 3.7258298523704196, 0.9342344085147698], [-5.280886608959835, 4.038238782389141, 4.206655568506363, -3.1932878660804866, -2.1034658763162484, 3.8005595802210133, 6.309137509748889, -2.4485318236471088, 3.77837859490639, 1.3829862188953808, -7.389633519906599, 0.23352159144688983], [1.6263972213923847, -4.8309409740017335, -0.7249924436937611, -0.07071790563383673, -2.664256335441398, 2.823374246059376, -3.9755119326872737, 1.760733240570172, 4.124313519284422, -3.617881732756874, 2.4795344815055445, -3.2250152608508076], [0.9904119001999198, 4.319620975770496, -4.6735380719878385, -3.922690539081869, 1.0694266493600377, 1.604647163381642, 1.9575288500109032, 1.0384661759434426, 3.100473191970399, 2.0983352266386657, 7.228157346232621, 4.369349097216645], [-0.667953921306553, -0.09138533043786873, -1.104898802792377, -3.921425439933875, 1.1587462745506873, -2.6898568328703965, -4.787457459285381, 6.075543082040401, -0.08083620001786583, -5.217957277701173, -0.12206615690181599, 4.892369801370258], [5.840579630545161, 0.07758917405125478, 5.765607183050621, 0.6198519913093057, -0.681977610406286, -0.6555396785796814, 0.8093070581999859, 0.22472158332049072, 2.125693606368362, -1.645620421593474, -0.9896053133960505, 2.9446679648548106], [-5.171702861867341, -3.1916332180296623, 1.3165817556716304, -3.0507364209328616, -0.7766535089900124, 0.43675131719748506, -1.3741976509378144, -2.6716315549674308, 1.3036923799276932, -0.0993344381983329, 3.619689865476631, 8.395820834554833], [0.7288329569344097, -2.194750334861719, -0.8678200243100589, 1.7626389613734692, -2.0077113652494374, 0.02323305582362019, 4.392067853274523, 3.2324433709101354, 3.473824217155167, 3.175421477747765, 1.5955145031095535, -1.0309827935664422], [6.692551589574256, 2.063707423642742, -3.6103645503024486, -0.3056344648202858, -4.449065827236645, 1.7784602827571412, 1.6323445880780885, 3.031954440336647, 4.774554100674498, 6.398028472367566, 2.477047611549536, 5.746119750165259], [1.020302865387886, 2.740305426325587, -2.9486911843602757, 3.2454749083552854, 0.07636450948632197, 3.547420325823437, -0.629509761739502, 3.8097852119759956, -1.19980913970495, -0.9715667156639262, 3.109456374759687, -4.531903372602135], [-1.5887763654082006, 1.351730539422618, 2.379973963119104, -0.48512133933159773, 0.5672125320469634, 3.298341209530407, 0.339563299573515, -2.737065588703277, 1.3607619121705525, -3.972173907689161, 4.044477049346923, 2.9459100141736174], [5.073572617093363, 1.1183802799199016, 1.4100704876353043, -1.7585952330071468, -1.376430781114083, -4.194895282255969, 5.36643003382971, -4.115621262309798, -0.1279606802924859, -2.7878862665056574, -0.37995920193937177, 2.2896290450058867]], "weights_ho": [[-1.4723356205408926, -4.952810319768538, 1.1836041749171533, 2.496931953484431, -2.6200952214622437, -3.7952139776126654, 0.4951427092779624, 2.084027694097045, 9.08861046556769, 2.8210364516875934, -1.4372073415576616, 0.5501273977279992, 7.058768327521945, 4.624273633699898, 1.82656219528073, -2.499540255996808], [2.5117642590220464, 2.8062981117669197, 8.56269302978297, -3.348034465926051, 1.7435213506000524, 3.7296227873251153, -0.5089349471510848, -1.346735623907382, 0.0023811158057013837, 1.754768811442618, 6.482678221385139, -8.746674577280725, -6.8040527823044945, 1.5895408926267702, 6.524232452814949, -3.468029254980574], [4.963419455138179, -2.3482703126314206, -2.4481490504390915, -1.6948346246046149, 8.44266973705455, 0.950621749340673, 0.24364937435643474, 0.8567768155385862, 3.243171511087928, -0.15686331415475724, -3.5902426082826695, -3.613210358428939, 4.767860750838084, 0.36792780899171407, 1.487644818348186, -0.12015421684533129], [-3.031315382014241, 9.311626680608516, -0.42602841533022145, 0.4192799126884773, -3.0883299189840616, -0.5294921743006319, -7.364870885979876, -0.24007437099642284, 3.882112167239239, 4.446864884140628, 4.839148404592854, -2.311695158142226, -1.3345182337509995, -2.08693827965378, -2.4258281911641295, 3.78724693986853]], "bias_h": [[0.2697528348668651], [-2.8034108202387245], [0.792258592767022], [-1.485607330774845], [-1.5584931690315944], [-3.5417393861317397], [1.2924109822725802], [5.7254370520510705], [1.1875399630246197], [1.788152552796852], [5.92024010102158], [0.6862619391203861], [-5.056276224747021], [5.67540434382084], [-3.4587683738197357], [3.1112504817023607]], "bias_o": [[-1.0834225468251564], [0.2203037080878841], [-1.4800138825196043], [1.9764239526521337]]}, {"input_nodes": 12, "hidden_nodes": 16, "output_nodes": 4, "weights_ih": [[-1.8310053894544769, -4.170738773935349, 0.18536430547610908, -0.028509354727850714, -2.180403479892436, 2.231997685380589, -1.9045692198192894, -0.8607354993016851, 0.19427403966357315, 3.714055802135314, -2.9832677416873477, 0.161383780312713], [1.2763492614641354, 9.041639264350296, -2.0773956840756855, -1.0416116228304384, -1.2095375741247056, -0.9697501157417133, 1.7941556170076007, 4.818043803638175, -1.3587795994770646, -0.846893759603595, 4.590200924234058, 6.389832874268669], [-1.5337353033801842, 6.066445078277698, 3.1092378805921044, -2.1700849687029766, -9.910922628989471, 2.5490794872588833, 2.702111824903718, -3.408677765214507, 0.06918331122475715, 6.405286860427531, 5.120458715834165, -2.3560342822901292], [1.7387798290903875, 1.338582133965298, -5.528689474043137, -2.9389789224955676, 0.6231315983227894, 2.161123564454222, 1.0135621909487544, 1.2864308448742519, 3.44618198157697, -2.8957585172641522, -1.776903003375767, 4.072709750052222], [-0.6856454806269767, 0.3797874675930155, 5.167578217756679, 1.4189249360460154, -6.420954063459815, -3.215915360152869, -2.452125047575641, 0.676375734145058, -4.91709916168627, -0.9231200417768548, 3.7258298523704196, 0.7162264224844765], [-5.296413661843619, 4.038238782389141, 4.367540099669367, -3.268659120640523, -2.244375866010269, 3.8005595802210133, 6.302034908164177, -2.4485318236471088, 3.9558288260345633, 1.3829862188953808, -7.266922184327902, 0.3183732212972033], [1.6263972213923847, -4.566942993129751, -0.795541213337236, -0.13862818985792058, -2.6133527010278335, 2.823374246059376, -3.905760628720766, 1.626518856548525, 4.148370879679667, -3.6127137731680827, 2.239924628066658, -3.2250152608508076], [0.7833531526978431, 4.18950573370302, -4.6735380719878385, -3.9122848999656332, 1.1970165541305025, 1.604647163381642, 1.8864034754845496, 1.2854913193506574, 3.063683791773061, 2.0159253889145594, 7.2727759682422874, 4.277140313709869], [-0.5777990823758277, -0.09138533043786873, -1.2197451738207001, -3.8336559734496283, 1.2779844799111593, -2.6786140738191455, -4.671351695412103, 6.075543082040401, -0.09590872223648933, -5.265697646462208, -0.10817571991191088, 4.892369801370258], [5.863200093815827, 0.13943067322106684, 5.653324186341264, 0.6687465636133636, -0.6326716430203981, -0.8046556109267679, 0.7112106192094858, 0.18324771491368858, 2.1893177286077674, -1.645620421593474, -0.9896053133960505, 2.9446679648548106], [-5.092860666447648, -3.336314763681212, 1.3165817556716304, -3.0507364209328616, -0.6777152947316991, 0.582927782799954, -1.2353073945817392, -2.690698705192993, 1.3036923799276932, -0.23857018927489604, 3.5183308178077994, 8.37515215272234], [0.6920324239867409, -2.194750334861719, -0.8328356943792057, 1.7626389613734692, -2.0964740746847883, 0.02323305582362019, 4.351643209312801, 3.1878836843384417, 3.398328760544722, 3.1230228321344073, 1.4835023657314719, -0.8750810619443924], [6.6246855258700785, 2.063707423642742, -3.4296705326154058, -0.11927637718127215, -4.369493571211418, 1.5997080020203434, 1.7442114984596497, 3.0513534609016455, 4.590949813972905, 6.402567230685596, 2.4648417073657187, 5.577903032561201], [1.0425289353783893, 2.9587445821935985, -2.908625351950623, 3.2973228881557564, 0.35534139951465193, 3.4777485182152432, -0.6091890357918798, 3.6112397675703822, -1.0309626333586706, -0.9715667156639262, 3.0609997590483076, -4.4899312769202275], [-1.5887763654082006, 1.43849253346014, 2.4246232944404498, -0.48512133933159773, 0.5672125320469634, 3.298341209530407, 0.19871392727805648, -2.7229191271248014, 1.4374670792965445, -3.892920262310486, 4.116333488460654, 2.9459100141736174], [5.119390747254357, 1.1183802799199016, 1.4382421140783612, -1.7234613243728885, -1.376430781114083, -4.176872973122865, 5.696679311099956, -4.071612882024707, -0.1279606802924859, -2.7957351393807124, -0.37995920193937177, 2.2896290450058867]], "weights_ho": [[-1.4723356205408926, -4.952810319768538, 1.0193842594483316, 2.530602670902852, -2.5840781569486393, -3.832397845250047, 0.4951427092779624, 2.084027694097045, 9.216250248231047, 2.8210364516875934, -1.4875512258599017, 0.39926631245206384, 6.964726209532491, 4.802141756948472, 1.8845921116706783, -2.501182747020144], [2.551766013667894, 2.821320442837413, 8.733633044074143, -3.481412253986382, 1.845684619630103, 3.8604267201403677, -0.4398609995527445, -1.4380073627494498, -0.1917782192343045, 2.0257876308539293, 6.649898169325147, -8.79087589981952, -6.8040527823044945, 1.552267968803707, 6.332177071245744, -3.468029254980574], [4.963419455138179, -2.3482703126314206, -2.4481490504390915, -1.6591934782541753, 8.44503184362041, 0.9765101992038702, 0.31685670724022086, 0.9287170174126801, 3.243171511087928, -0.18045397877817415, -3.659921934216324, -3.613210358428939, 4.711272277837068, 0.36792780899171407, 1.4259952620195242, 0.0018229602464080175], [-2.9669497774850786, 9.121010150464471, -0.42602841533022145, 0.3707922911374066, -3.062793833364897, -0.5662363688912644, -7.364870885979876, -0.24007437099642284, 3.795766263391346, 4.406552615441515, 4.764470336918582, -2.16526869075761, -1.3715728781298282, -2.0091146215434836, -2.3874637760665176, 3.6753168733237915]], "bias_h": [[0.2287844681427973], [-2.8034108202387245], [0.7802941505400722], [-1.485607330774845], [-1.4660520215337507], [-3.5417393861317397], [1.2924109822725802], [5.5101190892347525], [1.1875399630246197], [1.788152552796852], [5.92024010102158], [0.6862619391203861], [-4.9200794599095286], [5.67540434382084], [-3.455016291775456], [3.0893640232145323]], "bias_o": [[-1.2455061419941276], [0.2203037080878841], [-1.5468718619986013], [2.0338521152203515]]}, {"input_nodes": 12, "hidden_nodes": 16, "output_nodes": 4, "weights_ih": [[-1.791321970747162, -4.234674705577905, 0.2931904248109986, -0.028509354727850714, -2.1454048181878917, 2.22209941877609, -1.7598101221899658, -0.8564115313046613, 0.15041182139573273, 3.7439413138820656, -2.874727330465609, 0.161383780312713], [1.2763492614641354, 9.007274128361793, -1.827820311905206, -1.0416116228304384, -1.2095375741247056, -1.0269935170140096, 1.8444330407411125, 4.97286791516106, -1.3587795994770646, -0.8009197654878797, 4.6670021173648495, 6.327831521954325], [-1.562257399598011, 6.340481332943887, 3.1092378805921044, -2.099707187458768, -9.910922628989471, 2.519693483355679, 2.861719705169044, -3.4775223747608432, 0.06918331122475715, 6.454617547700001, 5.035651493837091, -2.307604201455576], [1.858033477228032, 1.3335029450031595, -5.51266965115698, -3.0107983775336646, 0.6231315983227894, 2.161123564454222, 0.8613969032749695, 1.308595078110452, 3.420125249779583, -2.8957585172641522, -1.643998215697981, 4.072709750052222], [-0.4719456368263738, 0.4394821930709787, 5.211507839946813, 1.5148818632097005, -6.420954063459815, -3.3002629663913674, -2.3582702015671324, 0.676375734145058, -4.9040305389531795, -0.8650876080838602, 3.7258298523704196, 0.7162264224844765], [-5.280886608959835, 3.803364821818041, 4.249824987799377, -3.325413027750829, -2.1034658763162484, 3.6751708088976542, 6.302034908164177, -2.3958226230722595, 3.7797454956577923, 1.523466064423869, -7.389633519906599, 0.23352159144688983], [1.6263972213923847, -4.770512785734503, -0.8292083501215844, -0.07071790563383673, -2.664256335441398, 2.8760996027929377, -3.9845632206575012, 1.5515051692235953, 4.225510675283109, -3.5812578083321167, 2.239924628066658, -3.1724692071907232], [0.9435243406446995, 4.319620975770496, -4.48730702235318, -3.876004040257455, 1.1970165541305025, 1.576951492369444, 1.9040788267254793, 1.1828336073239414, 3.100473191970399, 1.9614614338476934, 7.113487635728822, 4.369349097216645], [-0.5777990823758277, -0.09138533043786873, -1.3591875596672132, -3.8882578342581673, 1.2779844799111593, -2.7227693214757576, -4.819177826469792, 5.88826565170674, -0.09590872223648933, -5.066695828353493, -0.08326372081288236, 4.892369801370258], [5.819011292280973, 0.19227784719171015, 5.746796153965715, 0.862846728281231, -0.6643546306317878, -0.8213227370161189, 0.7260350156728952, 0.18324771491368858, 2.0309568866630725, -1.645620421593474, -0.9896053133960505, 2.9454381310906297], [-5.253457950557315, -3.2655016159901735, 1.3165817556716304, -3.165996621078601, -0.7795493481744146, 0.582927782799954, -1.4348861273555829, -2.690698705192993, 1.333702813878995, -0.0993344381983329, 3.651517437937342, 8.352031625581871], [0.5819365214138865, -2.194750334861719, -0.8328356943792057, 1.7258049448397759, -2.0077113652494374, 0.02323305582362019, 4.477465904067774, 3.0523498329783805, 3.369490478619301, 3.175421477747765, 1.4835023657314719, -0.9316895808316752], [6.692551589574256, 2.0708931019774015, -3.478351904932083, -0.3056344648202858, -4.369493571211418, 1.5997080020203434, 1.6323445880780885, 3.0513534609016455, 4.590949813972905, 6.391302561066097, 2.4648417073657187, 5.6368415979850175], [0.8986495312406235, 2.740305426325587, -2.6739359678007397, 3.442090455828844, 0.16451923428949927, 3.541430386426575, -0.5094847874578001, 3.8097852119759956, -0.9540554736336263, -0.9715667156639262, 3.109456374759687, -4.531903372602135], [-1.5887763654082006, 1.351730539422618, 2.4246232944404498, -0.48512133933159773, 0.6430123452614429, 3.298341209530407, 0.46801136091071416, -2.7229191271248014, 1.3607619121705525, -3.948540630881049, 4.044477049346923, 2.9459100141736174], [4.987578350721245, 1.1183802799199016, 1.5856332758538714, -1.5743571678378692, -1.376430781114083, -4.194895282255969, 5.498426604295343, -4.071612882024707, -0.06654540549253143, -2.914630250348822, -0.37995920193937177, 2.362778565736868]], "weights_ho": [[-1.4691938274374179, -5.075502931210486, 1.0633154222510213, 2.7050992853034335, -2.66278137067846, -3.866021797717534, 0.5582782985827993, 2.084027694097045, 8.992292048786739, 2.8210364516875934, -1.4095804214653902, 0.47904245925821637, 7.104524829578346, 4.493553707081478, 1.9527947524576854, -2.4775600622591156], [2.4565694066605963, 2.8715585071186713, 8.427986028876187, -3.3753975533252945, 1.6267216186021536, 3.8604267201403677, -0.4015976008112999, -1.4459090785906867, -0.14243181750188105, 1.754768811442618, 6.482678221385139, -8.79087589981952, -6.8040527823044945, 1.5865226966675214, 6.511528860140503, -3.3660989364671496], [4.960648316307322, -2.3482703126314206, -2.4573966722691845, -1.6948346246046149, 8.44503184362041, 0.8962225221028428, 0.5083040129988551, 0.8567768155385862, 3.4374512070063012, -0.17809996303744152, -3.654136058366481, -3.613210358428939, 4.805819526411934, 0.6005439260888381, 1.6345563166459367, -0.21326856246181017], [-2.9669497774850786, 9.311626680608516, -0.42602841533022145, 0.3707922911374066, -3.0883299189840616, -0.5262363236584514, -7.398958910080042, -0.24007437099642284, 3.9673084506973613, 4.275663763951466, 4.764470336918582, -2.264883560387767, -1.3615290691435056, -2.1898405357138717, -2.4258281911641295, 3.6753168733237915]], "bias_h": [[0.22077177116015853], [-2.8034108202387245], [1.0269261351165668], [-1.485607330774845], [-1.5584931690315944], [-3.5360759689013666], [1.051027700722905], [5.714118816684783], [1.1875399630246197], [1.902698706712717], [5.92024010102158], [0.6862619391203861], [-5.159810414174178], [5.63425012080793], [-3.455016291775456], [3.078622292039437]], "bias_o": [[-1.0834225468251564], [-0.07948568101597439], [-1.3310613433671414], [1.9764239526521337]]}, {"input_nodes": 12, "hidden_nodes": 16, "output_nodes": 4, "weights_ih": [[-1.8310053894544769, -4.146259509023089, 0.2931904248109986, -0.028509354727850714, -2.067480454396966, 2.1501201924602222, -1.7397371071283214, -0.750125724209281, 0.17843264123685362, 3.675084551069659, -2.9894050908950436, 0.13584668391293359], [1.2905169751199699, 8.892630516061022, -2.034556478309682, -1.0416116228304384, -1.2708924200562681, -1.0269935170140096, 1.7941556170076007, 4.818043803638175, -1.3587795994770646, -0.7068788325576437, 4.497980229381671, 6.389832874268669], [-1.5337353033801842, 6.340481332943887, 3.1092378805921044, -2.11710322051053, -9.910922628989471, 2.519693483355679, 2.930702103944726, -3.4775223747608432, -0.023151440253881855, 6.454558451615467, 4.948799867351761, -2.3560342822901292], [1.7770304996027602, 1.3335029450031595, -5.528689474043137, -3.026870931112283, 0.631756913378366, 2.161123564454222, 1.0135621909487544, 1.2864308448742519, 3.6565656561398083, -2.6963206255443706, -1.5797567245967825, 4.072709750052222], [-0.6299506552149243, 0.4394821930709787, 5.167578217756679, 1.6444419183731382, -6.5014468873052005, -3.1421689207256978, -2.3155754863516558, 0.8119837782951942, -4.950167628897855, -0.9231200417768548, 3.7258298523704196, 0.8610846273642975], [-5.280886608959835, 4.229534849674911, 4.249824987799377, -3.268659120640523, -2.1034658763162484, 3.919398604785929, 6.355685249077472, -2.517111555620276, 3.836653863834483, 1.4405565198504064, -7.441091945036432, 0.2955962067100551], [1.5758113262293074, -4.747408319687094, -0.6704358733865388, -0.07071790563383673, -2.664256335441398, 2.823374246059376, -3.9755119326872737, 1.7087860273729147, 4.026086960047331, -3.617881732756874, 2.239924628066658, -3.267323380671121], [0.7833531526978431, 4.319620975770496, -4.7087360808272, -3.8704498313266447, 1.1970165541305025, 1.4976711616181602, 1.8105339541673071, 1.2399193980810035, 3.100473191970399, 2.0159253889145594, 7.228157346232621, 4.369349097216645], [-0.6554854683493919, -0.09138533043786873, -1.3516068595247506, -3.991857926336591, 1.2779844799111593, -2.8194550651857226, -4.787457459285381, 6.048333636754511, -0.09590872223648933, -5.082624273206942, -0.12206615690181599, 4.892369801370258], [5.823879164765628, 0.19227784719171015, 5.746796153965715, 0.7655646978617501, -0.6408345689822063, -0.8051808040778599, 0.7677877863816837, 0.11214960424077648, 2.3048043098707844, -1.4457125697364823, -0.9896053133960505, 2.9360651934279334], [-5.4427666330286435, -3.3063199888863397, 1.4141073593621445, -2.9961516378096023, -0.9284708958046091, 0.6186357626870221, -1.3741976509378144, -2.690698705192993, 1.307438675727069, -0.028826026647170322, 3.558151015346177, 8.544310026161885], [0.6044683112699774, -2.1377290434897738, -0.8328356943792057, 1.7626389613734692, -2.0077113652494374, 0.0058166689806500894, 4.560188895300241, 3.170644682297183, 3.369490478619301, 3.175421477747765, 1.3599418927990663, -0.9447469212426898], [6.708802630096633, 2.161151317552893, -3.428724545698198, -0.3056344648202858, -4.329224701289751, 1.5927778113215139, 1.6943872863992508, 2.9995967178997036, 4.697808410277522, 6.290750141347697, 2.4648417073657187, 5.6368415979850175], [1.0110349895058117, 2.669430687236591, -2.84420064856537, 3.2973228881557564, 0.16451923428949927, 3.638636075088105, -0.5094847874578001, 3.8097852119759956, -1.0309626333586706, -0.9715667156639262, 3.1492420990202206, -4.531903372602135], [-1.5887763654082006, 1.3526086171078047, 2.4246232944404498, -0.48512133933159773, 0.5488791388214586, 3.333828322440008, 0.4128765650343512, -2.7229191271248014, 1.4726020583570028, -3.972173907689161, 4.039837215665359, 2.9459100141736174], [4.987578350721245, 1.2543081486583632, 1.6835492356350965, -1.7234613243728885, -1.376430781114083, -4.194895282255969, 5.403446556950579, -4.028569272024938, -0.3030211620956047, -2.80234567054062, -0.37995920193937177, 2.2896290450058867]], "weights_ho": [[-1.4723356205408926, -4.889820707909945, 1.1836041749171533, 2.6727324640599472, -2.3683018249686056, -3.7274488746774885, 0.4951427092779624, 2.084027694097045, 9.00034743227478, 2.842634168139189, -1.4875512258599017, 0.47904245925821637, 7.104524829578346, 4.624273633699898, 1.9527947524576854, -2.499540255996808], [2.5117642590220464, 2.8062981117669197, 8.215983089162261, -3.3753975533252945, 1.7435213506000524, 3.957265001195755, -0.3179594767756221, -1.4459090785906867, -0.14243181750188105, 1.728052402905044, 6.610537014595827, -8.79087589981952, -6.847483025432288, 1.5864689562987209, 6.5651333547860915, -3.468029254980574], [5.048186388205146, -2.3482703126314206, -2.4481490504390915, -1.661269006505102, 8.517055088150354, 0.950621749340673, 0.29095903067879936, 0.8567768155385862, 2.9890797651960574, -0.15046583533068214, -3.6607510981636495, -3.613210358428939, 4.853108804102018, 0.36792780899171407, 1.654445407185229, -0.13619913932682337], [-2.7979011634658644, 9.311626680608516, -0.4281761756297406, 0.3515303739661416, -3.087011120543007, -0.5662363688912644, -7.364870885979876, -0.24007437099642284, 3.9508312758147026, 4.520608488471791, 4.764470336918582, -2.2836933707630274, -1.3971351223679953, -2.1898405357138717, -2.4258281911641295, 3.6753168733237915]], "bias_h": [[0.3147378343795791], [-2.8034108202387245], [0.6384504288811965], [-1.3031895111138345], [-1.3677144046705116], [-3.5417393861317397], [1.2924109822725802], [5.714118816684783], [1.1875399630246197], [1.790249557112816], [5.92024010102158], [0.6985524891902792], [-5.056276224747021], [5.588141100918683], [-3.2035939195245557], [3.1503962339903073]], "bias_o": [[-1.0834225468251564], [0.2203037080878841], [-1.5473128080981662], [1.9764239526521337]]}, {"input_nodes": 12, "hidden_nodes": 16, "output_nodes": 4, "weights_ih": [[-1.8310053894544769, -4.207266465756284, 0.3300254764228672, -0.028509354727850714, -2.0488319273520617, 2.22209941877609, -1.7749191078063122, -0.8003809236805357, 0.17843264123685362, 3.714055802135314, -2.942779644278634, 0.10206124537926962], [1.2580643315503475, 9.01332216784017, -2.034556478309682, -1.2481745292860258, -1.2095375741247056, -0.9940093022029738, 1.7905117596995719, 4.818043803638175, -1.3587795994770646, -0.8009197654878797, 4.673225127060845, 6.384336236647], [-1.5552042472420227, 6.340481332943887, 3.1092378805921044, -2.099707187458768, -10.11856273003583, 2.519693483355679, 2.930702103944726, -3.4775223747608432, 0.06918331122475715, 6.454558451615467, 5.120458715834165, -2.3560342822901292], [1.5629777438996824, 1.2684330232015606, -5.528689474043137, -2.9389789224955676, 0.794956454183689, 2.257195719596111, 1.0135621909487544, 1.3959471246313468, 3.413718021117153, -2.8957585172641522, -1.572453465749295, 4.072709750052222], [-0.5916162020725776, 0.4394821930709787, 5.167578217756679, 1.5148818632097005, -6.420954063459815, -3.3002629663913674, -2.344546415261262, 0.676375734145058, -5.047675882718743, -0.8370537234968858, 3.9153504220970725, 0.7915219952576049], [-5.280886608959835, 4.06896324816325, 4.299451012053705, -3.1508305758038606, -2.0011030544898567, 3.8005595802210133, 6.187712938378769, -2.367040295357372, 3.7130902751373682, 1.409989315693599, -7.389633519906599, 0.17896938568152554], [1.3737976324040586, -4.747408319687094, -0.7399396968593438, -0.03097266895453258, -2.664256335441398, 2.8137192377600106, -3.9333990210012524, 1.6558287571933337, 4.124313519284422, -3.617881732756874, 2.239924628066658, -3.2250152608508076], [0.7833531526978431, 4.284600960285573, -4.602700387508519, -3.9122848999656332, 1.2219542047124825, 1.6495095418442358, 1.769881505157876, 1.2361141654414534, 2.879490469787603, 2.018225049035131, 7.180186814275069, 4.369349097216645], [-0.5777990823758277, -0.12812846290645238, -1.1932100700858146, -3.991857926336591, 1.1754161658879947, -2.7227693214757576, -4.893809577867225, 6.075543082040401, -0.09590872223648933, -5.370357087044298, -0.07751217629397977, 4.880841251285645], [5.858220395425597, 0.3881403109224001, 5.746796153965715, 0.7655646978617501, -0.6643546306317878, -0.8213227370161189, 0.6506568017493705, 0.23652891045940636, 2.1540913435742897, -1.7481895803671335, -0.9896053133960505, 2.9446679648548106], [-5.281673944500087, -3.336314763681212, 1.454153582405087, -3.19326796140244, -0.7766535089900124, 0.6015349305306821, -1.3918312117260567, -2.690698705192993, 1.3036923799276932, -0.10607070199548015, 3.6506782303318586, 8.410032291314085], [0.8201202177611094, -2.246942668479995, -0.951768547921457, 1.8077886985566014, -2.079958017345218, -0.07608631289263117, 4.477465904067774, 3.264643296158755, 3.369490478619301, 3.175421477747765, 1.6446207937182518, -0.9510649207812159], [6.692551589574256, 2.000184234325647, -3.4296705326154058, -0.3056344648202858, -4.369493571211418, 1.5997080020203434, 1.6323445880780885, 3.0513534609016455, 4.602670711772598, 6.40308283170164, 2.4648417073657187, 5.6368415979850175], [0.9470155439389017, 2.740305426325587, -2.84420064856537, 3.2973228881557564, 0.008079623598319235, 3.662240956474442, -0.5094847874578001, 3.714042628755509, -1.0309626333586706, -0.8694316862285193, 3.109456374759687, -4.531903372602135], [-1.5342006965850405, 1.4595750202938467, 2.4246232944404498, -0.48512133933159773, 0.5672125320469634, 3.3108480660444877, 0.43071172760378795, -2.752831682379241, 1.2829812355843178, -3.972173907689161, 3.9088331534045317, 2.9459100141736174], [4.95575363658716, 1.0506541864156904, 1.4581029536853374, -1.785174750544081, -1.376430781114083, -4.194895282255969, 5.5506535801410966, -4.071612882024707, -0.05695637569851396, -2.764406934401427, -0.37995920193937177, 2.2896290450058867]], "weights_ho": [[-1.4723356205408926, -4.952810319768538, 1.0429315043726899, 2.7050992853034335, -2.550074981911482, -3.807019101020355, 0.4951427092779624, 2.084027694097045, 9.08861046556769, 2.8497799327162983, -1.6102995783166771, 0.47904245925821637, 7.104524829578346, 4.655641447057218, 1.9527947524576854, -2.6555674744289024], [2.593308559828196, 2.843060168840507, 8.525733957697751, -3.3690964657647076, 1.7435213506000524, 3.8604267201403677, -0.5101415938323, -1.4459090785906867, -0.14243181750188105, 1.7359748372860104, 6.383713849337547, -8.79087589981952, -6.8040527823044945, 1.5895408926267702, 6.511528860140503, -3.468029254980574], [4.963419455138179, -2.5915899548458152, -2.4481490504390915, -1.6948346246046149, 8.422862717765414, 0.9050525742999355, 0.3715860930885377, 0.7298587858171671, 3.277788725011134, -0.10883309762254209, -3.654136058366481, -3.613210358428939, 4.767860750838084, 0.36792780899171407, 1.5969153967521108, -0.13619913932682337], [-2.9669497774850786, 9.11369224286034, -0.24958001454684853, 0.43449045032201883, -3.057754348304656, -0.6319533402758369, -7.364870885979876, -0.24007437099642284, 4.036979193956799, 4.446864884140628, 4.8515885738309565, -2.401480192089956, -1.3971351223679953, -2.2092654779052086, -2.4258281911641295, 3.569361629978403]], "bias_h": [[0.2697528348668651], [-2.8034108202387245], [0.8907491303170415], [-1.485607330774845], [-1.469483458308036], [-3.6006061204340716], [1.2624514770319837], [5.781790828635212], [1.1267625129058634], [1.788152552796852], [6.001144113794072], [0.6862619391203861], [-5.056276224747021], [5.915354395954529], [-3.463784291762569], [3.1112504817023607]], "bias_o": [[-1.0834225468251564], [0.15267513369795566], [-1.759056093523985], [1.8504448763904047]]}, {"input_nodes": 12, "hidden_nodes": 16, "output_nodes": 4, "weights_ih": [[-1.8084463572756782, -4.234674705577905, 0.32081487376486234, 0.13766272751729175, -2.1454048181878917, 2.22209941877609, -1.7918829895223454, -0.7106011827829186, 0.13071288435062464, 3.6170135045775087, -2.9408485654522827, 0.161383780312713], [1.2763492614641354, 9.01332216784017, -1.9960482456314057, -0.974556181813782, -1.2095375741247056, -1.0269935170140096, 1.919422581020094, 4.7804621484489225, -1.4866388487359066, -0.8009197654878797, 4.3931125182020825, 6.514418935262932], [-1.5337353033801842, 6.340481332943887, 3.140186138433089, -2.099707187458768, -10.088162257094753, 2.519693483355679, 3.0390910214562017, -3.4775223747608432, 0.03666156645153872, 6.454558451615467, 5.120458715834165, -2.3560342822901292], [1.7387798290903875, 1.3335029450031595, -5.6100620381395805, -2.9389789224955676, 0.7632559639008584, 2.1621234691396722, 1.0135621909487544, 1.2864308448742519, 3.5516594458475717, -2.962335299876487, -1.6732470641315624, 4.146950502801536], [-0.6515743987221786, 0.4394821930709787, 5.25465887237331, 1.3639247094067648, -6.376343013717171, -3.3002629663913674, -2.256749012447094, 0.6359777679644235, -4.931187018224876, -0.9231200417768548, 3.6907702262830706, 0.8400330788142468], [-5.181047361245794, 4.038238782389141, 4.249824987799377, -3.214962992581549, -2.119806704353944, 3.7454266069307884, 6.302034908164177, -2.5105554087847852, 3.7880798490711607, 1.3829862188953808, -7.389633519906599, 0.23352159144688983], [1.8222052717564257, -4.747408319687094, -0.8031133085145705, -0.07071790563383673, -2.7492772344847696, 2.7223333543885215, -3.940893169877463, 1.626518856548525, 4.183956260096505, -3.655195032347896, 2.281011571655776, -3.2315025973425917], [0.7936818611681209, 4.319620975770496, -4.6735380719878385, -3.9122848999656332, 1.1970165541305025, 1.6463296261316787, 1.9040788267254793, 1.3064821302662837, 3.100473191970399, 1.9708073882277484, 7.119788832137307, 4.1090247598971334], [-0.44432473060508815, 0.08317837261649652, -1.1932100700858146, -3.881776995202056, 1.2916565611332942, -2.630353695451823, -4.787457459285381, 6.022386036592953, -0.09590872223648933, -5.369624200766402, -0.22561492428586216, 4.892369801370258], [5.6950592826369695, 0.19227784719171015, 5.623932428090073, 0.7655646978617501, -0.5524174040215512, -0.8213227370161189, 0.7260350156728952, 0.18324771491368858, 2.125693606368362, -1.9095407962407172, -0.9896053133960505, 2.9446679648548106], [-5.253457950557315, -3.336314763681212, 1.2112096078395294, -3.0507364209328616, -0.7766535089900124, 0.49770602162550387, -1.3596392741467391, -2.690698705192993, 1.3036923799276932, -0.024760524477534476, 3.619689865476631, 8.395325121761221], [0.7653685780929796, -2.0805587992178958, -1.1494482538275514, 1.7626389613734692, -1.9339051882299014, 0.02323305582362019, 4.247858941954264, 3.2890378775834725, 3.369490478619301, 3.1645748650441723, 1.316608844278417, -0.9447469212426898], [6.692551589574256, 2.121107969632797, -3.4296705326154058, -0.3327290466461704, -4.369493571211418, 1.7212982419698535, 1.6323445880780885, 3.0513534609016455, 4.749435344008609, 6.374239017080006, 2.3646566730711456, 5.564199384614119], [0.9470155439389017, 2.7732264868965912, -2.84420064856537, 3.2973228881557564, 0.22915468550689788, 3.541430386426575, -0.5094847874578001, 3.8097852119759956, -1.1278187065193583, -0.9715667156639262, 3.109456374759687, -4.521274809284385], [-1.5887763654082006, 1.3680344420311081, 2.4246232944404498, -0.6454911172048146, 0.4921855125961991, 3.298341209530407, 0.3919052420903254, -2.7229191271248014, 1.4042515588630902, -3.972173907689161, 4.044477049346923, 2.9459100141736174], [5.1074499846035915, 1.0315773976527616, 1.5856332758538714, -1.8189579736741228, -1.4591305022540062, -4.194895282255969, 5.4261407622306645, -4.127896729313423, -0.1279606802924859, -2.7957351393807124, -0.3849170884779269, 2.2896290450058867]], "weights_ho": [[-1.4723356205408926, -5.032822503271636, 1.1836041749171533, 2.510535782689232, -2.593169158920038, -3.807019101020355, 0.5257127703276727, 2.0620197826167996, 9.08861046556769, 2.8210364516875934, -1.4875512258599017, 0.5245767089765221, 7.104524829578346, 4.624273633699898, 1.906683403516371, -2.499540255996808], [2.5117642590220464, 2.8062981117669197, 8.529176183097414, -3.4051061380112007, 1.7647481434534324, 3.8604267201403677, -0.5089349471510848, -1.4459090785906867, -0.14243181750188105, 1.8987817598370043, 6.529829601035672, -8.79087589981952, -6.8040527823044945, 1.5895408926267702, 6.189653719399525, -3.433320146790793], [4.948443898218772, -2.3100747372038573, -2.4481490504390915, -1.6543396551103637, 8.515468841504061, 0.950621749340673, 0.34362562151300263, 0.7664964192936781, 3.243171511087928, -0.15686331415475724, -3.654136058366481, -3.613210358428939, 4.711468021838654, 0.36792780899171407, 1.487644818348186, -0.23998198928154424], [-2.9669497774850786, 9.311626680608516, -0.4085624494466964, 0.4076937292123146, -3.0883299189840616, -0.34384207198800476, -7.223686915738946, -0.27591538245267405, 3.879538025838059, 4.3250406126867045, 4.764470336918582, -2.2919832147170087, -1.191019362509092, -2.309429450503491, -2.4258281911641295, 3.6753168733237915]], "bias_h": [[0.1047054317468353], [-2.980943987810049], [0.8174835736654961], [-1.5640602418780212], [-1.4785984433974804], [-3.5417393861317397], [1.2924109822725802], [5.714118816684783], [1.1353160391783892], [1.788152552796852], [5.822956338962491], [0.6629414540918446], [-5.149139755467823], [5.634877388830216], [-3.455016291775456], [3.1112504817023607]], "bias_o": [[-1.1285366932771521], [0.22775689840696345], [-1.5473128080981662], [1.9764239526521337]]}, {"input_nodes": 12, "hidden_nodes": 16, "output_nodes": 4, "weights_ih": [[-1.7032933387322093, -4.16003875727458, 0.2931904248109986, -0.08737018038361839, -2.351927419856801, 2.22209941877609, -1.7721974496628778, -0.8288146454082307, 0.28250392564937543, 3.714055802135314, -2.9179072441678464, 0.161383780312713], [1.246106751549513, 9.205537217274134, -2.1280830457164273, -0.8317990826559405, -1.2411412744988457, -1.1141852973811228, 1.5964076453106915, 4.89571782781855, -1.3587795994770646, -0.7243775961585991, 4.497980229381671, 6.389832874268669], [-1.5337353033801842, 6.340481332943887, 3.1092378805921044, -2.073952501955952, -9.910922628989471, 2.5063374873085316, 2.81440382941574, -3.374005432278863, 0.06918331122475715, 6.454558451615467, 4.953267469552806, -2.3560342822901292], [1.7387798290903875, 1.3335029450031595, -5.555762993972189, -2.8056033104867866, 0.6231315983227894, 2.312628294982563, 0.8540809397282446, 1.3959806846305436, 3.44618198157697, -2.7835038963461276, -1.6705710417737556, 4.072709750052222], [-0.6299506552149243, 0.39554189070153056, 5.167578217756679, 1.5778682961002515, -6.503029415138116, -3.3002629663913674, -2.3595188286078352, 0.6723568203135335, -4.931187018224876, -1.0448880794465885, 3.8485174380009353, 0.7162264224844765], [-5.280886608959835, 4.038238782389141, 4.213793954676095, -3.268659120640523, -2.1034658763162484, 3.845485540661926, 6.302034908164177, -2.2980228644186567, 3.7797454956577923, 1.3829862188953808, -7.415800308968615, 0.23352159144688983], [1.527682349620027, -4.747408319687094, -0.7399396968593438, 0.1071836593508797, -2.5718044613148088, 2.6161315819008912, -3.9755119326872737, 1.6305369290289013, 4.124313519284422, -3.6794809316937105, 2.278365353581477, -3.177358160816893], [0.7833531526978431, 4.319620975770496, -4.7081284243043156, -4.029351299302699, 1.1800056988900283, 1.4780766145924717, 1.9040788267254793, 1.3386030885133118, 3.1195479455713677, 2.1386006916139086, 7.228157346232621, 4.380078670557836], [-0.5777990823758277, -0.09138533043786873, -1.3253016458694071, -3.840149733196372, 1.2779844799111593, -2.7227693214757576, -4.787457459285381, 6.1769173642135415, -0.09590872223648933, -5.217957277701173, -0.16490556969678616, 4.892369801370258], [5.858220395425597, 0.19227784719171015, 5.746796153965715, 0.7655646978617501, -0.5581800038249459, -0.8213227370161189, 0.7260350156728952, 0.18324771491368858, 2.125693606368362, -1.645620421593474, -1.073860426821097, 2.949994568328776], [-5.284801451761038, -3.2020043009014003, 1.3165817556716304, -3.030375619415204, -0.9632430639875557, 0.582927782799954, -1.3741976509378144, -2.637018373281839, 1.4878339245053138, -0.044868582436773656, 3.619689865476631, 8.568066570262435], [0.7288329569344097, -2.3776501749952073, -1.129240390633005, 1.8686122830035383, -2.0472040984901763, 0.02323305582362019, 4.222869188794405, 3.1878836843384417, 3.192780347363817, 3.175421477747765, 1.4835023657314719, -0.8102319331304051], [6.806400733927622, 2.063707423642742, -3.3682734992423997, -0.3056344648202858, -4.44065201478755, 1.6718733746757688, 1.6323445880780885, 3.2175071349682036, 4.590949813972905, 6.392171475009662, 2.493035873630784, 5.694010923595408], [0.9586677422145485, 2.591288661713558, -2.89650762497493, 3.1558656929263207, -0.019718183466729988, 3.541430386426575, -0.5697346046571313, 3.8097852119759956, -1.0309626333586706, -0.9715667156639262, 3.109456374759687, -4.500607872493001], [-1.5887763654082006, 1.351730539422618, 2.4246232944404498, -0.5546457217693416, 0.5672125320469634, 3.298341209530407, 0.37367571574424563, -2.8402808934677255, 1.2371727304672564, -3.787909339347111, 4.044477049346923, 2.9459100141736174], [4.987578350721245, 1.0909884445359364, 1.5856332758538714, -1.7234613243728885, -1.2982005416996651, -4.1807817123310755, 5.573442344937137, -3.9586002217576635, -0.1279606802924859, -2.7777662999421335, -0.37995920193937177, 2.2896290450058867]], "weights_ho": [[-1.352528822684746, -4.952810319768538, 1.1836041749171533, 2.7743789506118035, -2.593169158920038, -3.807019101020355, 0.4951427092779624, 1.9599509391858596, 8.93709631023876, 2.7745448136305937, -1.4875512258599017, 0.47904245925821637, 7.138420882186504, 4.631705928448139, 1.9527947524576854, -2.4356653516209237], [2.5117642590220464, 2.8062981117669197, 8.730071872907219, -3.3753975533252945, 1.7362500259645053, 3.8671210787897037, -0.3447762161107142, -1.5865998802410517, -0.14243181750188105, 1.7599506153222861, 6.482678221385139, -8.79087589981952, -6.846273949706525, 1.5895408926267702, 6.511528860140503, -3.5624578101900113], [5.068940913787321, -2.3482703126314206, -2.4481490504390915, -1.6948346246046149, 8.298193447248972, 0.950621749340673, 0.31685670724022086, 0.8567768155385862, 3.18829877793514, -0.15686331415475724, -3.8393648256074164, -3.613210358428939, 4.739782755836505, 0.24148279731384384, 1.487644818348186, -0.13619913932682337], [-2.9669497774850786, 9.311626680608516, -0.256988341686315, 0.3707922911374066, -3.0883299189840616, -0.44774840662983856, -7.364870885979876, -0.293878744078896, 3.9039141610791455, 4.475547487005828, 4.764470336918582, -2.270162429257438, -1.4084961812732786, -2.1898405357138717, -2.3176182652469506, 3.6753168733237915]], "bias_h": [[0.2697528348668651], [-2.8034108202387245], [0.729914839175613], [-1.485607330774845], [-1.5584931690315944], [-3.5417393861317397], [1.2924109822725802], [5.714118816684783], [1.1875399630246197], [1.8148295367146425], [5.9119895451261515], [0.757105095942833], [-5.056276224747021], [5.67540434382084], [-3.5031360608486923], [3.0412435795470114]], "bias_o": [[-1.0834225468251564], [0.2203037080878841], [-1.5777157412670766], [1.9764239526521337]]}, {"input_nodes": 12, "hidden_nodes": 16, "output_nodes": 4, "weights_ih": [[-1.8310053894544769, -4.234674705577905, 0.3491967512578003, -0.028509354727850714, -2.1454048181878917, 2.22209941877609, -1.898543302621071, -0.8288146454082307, 0.17843264123685362, 3.714055802135314, -3.043934716422603, 0.19274287215292008], [1.225697153946436, 9.01332216784017, -2.034556478309682, -0.9308812392104213, -1.277335266013582, -1.0269935170140096, 1.7283856492020515, 4.818043803638175, -1.2052786557274269, -0.8009197654878797, 4.497980229381671, 6.389832874268669], [-1.5337353033801842, 6.354201990887338, 3.237057582055883, -2.2311584510592217, -9.910922628989471, 2.465551438972769, 2.9517964499522567, -3.4775223747608432, 0.06918331122475715, 6.571116994268022, 5.120458715834165, -2.453013030447127], [1.8703931314336348, 1.3122861196232356, -5.528689474043137, -2.9389789224955676, 0.6139063846659792, 1.8770255366903048, 1.0135621909487544, 1.23682654545959, 3.348687066849512, -2.8957585172641522, -1.5533562940333583, 3.983038721333135], [-0.6299506552149243, 0.4394821930709787, 5.1284734530622025, 1.5544874574500565, -6.420954063459815, -3.246350155186328, -2.3571543920992384, 0.676375734145058, -4.590578050226847, -0.9231200417768548, 3.7258298523704196, 0.7162264224844765], [-5.0993271949135455, 4.038238782389141, 4.314649299354916, -3.2693576646280946, -2.1034658763162484, 3.8005595802210133, 6.450332146833376, -2.4528278306766373, 3.7797454956577923, 1.3018912542281538, -7.389633519906599, -0.13691622864818564], [1.687199711171773, -4.747408319687094, -0.702738776363557, -0.10300896162351923, -2.619678651072505, 2.7727975276800896, -3.9755119326872737, 1.5976317879303794, 4.124313519284422, -3.617881732756874, 2.2561487093190804, -3.2250152608508076], [0.7833531526978431, 4.319620975770496, -4.724601850391775, -3.8064983260665204, 1.1970165541305025, 1.604647163381642, 1.9040788267254793, 1.1828336073239414, 3.100473191970399, 1.996011541889237, 7.117819802115795, 4.369349097216645], [-0.5777990823758277, -0.09138533043786873, -1.096938727201683, -3.991857926336591, 1.262051030386601, -2.7227693214757576, -4.787457459285381, 6.075543082040401, -0.12953547805315202, -5.217957277701173, -0.19583535957368275, 4.892369801370258], [5.858220395425597, 0.19227784719171015, 5.655529216401784, 0.8422311231196548, -0.6195551052647155, -0.8213227370161189, 0.7260350156728952, 0.25553538971751477, 2.124690725813026, -1.645620421593474, -1.0086315339782488, 2.884462068414421], [-5.253457950557315, -3.336314763681212, 1.0840021411706817, -3.048640920053358, -0.7766535089900124, 0.582927782799954, -1.4167480871544311, -2.690698705192993, 1.3036923799276932, -0.13669451905732438, 3.619689865476631, 8.37515215272234], [1.0001757058604015, -2.194750334861719, -0.8328356943792057, 1.7626389613734692, -1.849665308658315, 0.3025603071690762, 4.442633821617119, 3.1878836843384417, 3.434535446569033, 3.175421477747765, 1.4835023657314719, -0.9447469212426898], [6.616702768324099, 2.063707423642742, -3.408384696297158, -0.5687860862705721, -4.49409293322997, 1.5997080020203434, 1.62990360408648, 3.0513534609016455, 4.590949813972905, 6.464785807364588, 2.4648417073657187, 5.6368415979850175], [0.9470155439389017, 2.722753195736276, -2.84420064856537, 3.2591753497694866, 0.32358149021971605, 3.541430386426575, -0.5094847874578001, 3.8097852119759956, -0.9978501573867443, -0.9411461278217657, 3.0877041960193057, -4.7897124531506], [-1.5887763654082006, 1.5411638418924485, 2.3657370822255412, -0.5537762504917967, 0.5672125320469634, 3.2320775859410698, 0.43071172760378795, -2.7229191271248014, 1.3607619121705525, -3.9796081205497353, 4.044477049346923, 2.989535331128495], [4.987578350721245, 1.1183802799199016, 1.5856332758538714, -1.7234613243728885, -1.376430781114083, -4.194895282255969, 5.5776608080038725, -4.159539489944737, -0.1279606802924859, -2.948390269043449, -0.369851248965692, 2.2001578400798976]], "weights_ho": [[-1.4723356205408926, -4.828395108537134, 1.1836041749171533, 2.8821163336609996, -2.5455184438284024, -3.807019101020355, 0.4951427092779624, 2.2097091780655176, 9.08861046556769, 2.8599594918141253, -1.4875512258599017, 0.4627214937427489, 7.182986287223392, 4.624273633699898, 1.9527947524576854, -2.4297294000622762], [2.5117642590220464, 2.8062981117669197, 8.56269302978297, -3.3753975533252945, 1.779569985014048, 3.950640532794462, -0.524018701995508, -1.1773763700997018, -0.14243181750188105, 1.754768811442618, 6.437913639004067, -8.79087589981952, -6.8040527823044945, 1.5895408926267702, 6.431844111622093, -3.468029254980574], [4.963419455138179, -2.325125676616654, -2.384176764968244, -1.6948346246046149, 8.55681501265548, 1.0022395604329677, 0.506514933518342, 0.822906277162679, 3.243171511087928, -0.15686331415475724, -3.654136058366481, -3.613210358428939, 4.928056265021766, 0.36792780899171407, 1.487644818348186, -0.13619913932682337], [-2.9669497774850786, 9.311626680608516, -0.3703510308372778, 0.2054966563434178, -3.025837616217914, -0.4643946819385979, -7.364870885979876, -0.2877904259976327, 3.879538025838059, 4.333262116655336, 4.764470336918582, -2.2836933707630274, -1.4162588928224307, -2.1898405357138717, -2.4978723355367927, 3.582197114488987]], "bias_h": [[0.2697528348668651], [-2.64133395645564], [0.6883158034222846], [-1.4766199504947146], [-1.5584931690315944], [-3.7912640427928572], [1.0596896583675621], [5.5736337583495], [1.2273097695902075], [1.788152552796852], [5.92024010102158], [0.6862619391203861], [-5.0262775225366525], [5.931772502896425], [-3.4116405732467614], [3.1112504817023607]], "bias_o": [[-1.0834225468251564], [0.15451055286865767], [-1.5713958506454504], [1.9764239526521337]]}, {"input_nodes": 12, "hidden_nodes": 16, "output_nodes": 4, "weights_ih": [[-1.8310053894544769, -4.234674705577905, 0.2803194691052371, -0.028509354727850714, -2.1454048181878917, 2.22209941877609, -1.7905665111756877, -0.8288146454082307, 0.22469440621187683, 3.4844937378996357, -2.874727330465609, 0.1037543020338085], [1.2763492614641354, 9.066200116862248, -1.9942609781789291, -1.0416116228304384, -1.2095375741247056, -1.0656176503675852, 1.7105638493095174, 4.865332007084205, -1.3587795994770646, -0.8009197654878797, 4.533868444439667, 6.487624144086323], [-1.3838797943784837, 6.340481332943887, 3.132123250591716, -2.049859114611165, -9.824042956337388, 2.5517612244887005, 2.9700877168350903, -3.4775223747608432, 0.06918331122475715, 6.454558451615467, 5.095265069261971, -2.3560342822901292], [1.656030076410393, 1.24149524479346, -5.50084483157154, -2.8151722260295027, 0.6231315983227894, 2.161123564454222, 1.1526710014315475, 1.2864308448742519, 3.378108369296009, -2.8957585172641522, -1.5474923680998667, 4.072709750052222], [-0.5902389695075593, 0.36172616748675235, 5.329705284661257, 1.4885900708251576, -6.420954063459815, -3.3002629663913674, -2.283729215019894, 0.676375734145058, -4.931187018224876, -0.7770508677953691, 3.7764649792679696, 0.7162264224844765], [-5.280886608959835, 3.8980931734938045, 4.249824987799377, -3.1844405558969324, -2.1034658763162484, 3.8005595802210133, 6.257330424976463, -2.4741419811444283, 3.7797454956577923, 1.3829862188953808, -7.462773520528015, 0.23352159144688983], [1.6263972213923847, -4.747408319687094, -0.7399396968593438, -0.15104843880722568, -2.664256335441398, 2.786928521732606, -3.9755119326872737, 1.626518856548525, 4.124313519284422, -3.5712830444800363, 2.239924628066658, -3.2250152608508076], [0.8533050693312424, 4.178433495244331, -4.6735380719878385, -3.9122848999656332, 0.9610686857466265, 1.7959330497544306, 1.975823864089334, 1.1828336073239414, 3.100473191970399, 2.0159253889145594, 7.262799310244343, 4.4600107593124365], [-0.5777990823758277, -0.09138533043786873, -1.1932100700858146, -3.991857926336591, 1.3461935908575517, -2.7227693214757576, -4.787457459285381, 6.075543082040401, 0.020955779864119353, -5.217957277701173, -0.12206615690181599, 5.065324041141325], [5.948316237361416, 0.19227784719171015, 5.746796153965715, 0.8747194483718046, -0.6643546306317878, -0.8213227370161189, 0.7260350156728952, 0.09714551125458555, 2.125693606368362, -1.645620421593474, -1.1802699339254783, 2.9446679648548106], [-5.1212094650062685, -3.4087377194989084, 1.3165817556716304, -3.0507364209328616, -0.8767559965534066, 0.582927782799954, -1.240800160158811, -2.653881265428303, 1.3036923799276932, -0.0993344381983329, 3.619689865476631, 8.553790060494814], [0.7288329569344097, -2.382242425603231, -0.8440712708622458, 1.6821798973538606, -2.000469535814527, 0.02323305582362019, 4.477465904067774, 3.1878836843384417, 3.369490478619301, 3.175421477747765, 1.4835023657314719, -0.9813275505387867], [6.614763519281113, 1.9643816436305337, -3.4296705326154058, -0.34722425005709145, -4.369493571211418, 1.5997080020203434, 1.419538099176775, 3.0513534609016455, 4.590949813972905, 6.40308283170164, 2.617027787613989, 5.624851445868836], [0.9470155439389017, 2.763919242131177, -2.84420064856537, 3.282665688229422, 0.17129177767164383, 3.537206285602521, -0.5469003151403851, 3.8097852119759956, -0.9331944166281504, -0.9393565025633301, 3.109456374759687, -4.531903372602135], [-1.747372348219197, 1.308726469553061, 2.4246232944404498, -0.48512133933159773, 0.52977275148695, 3.4170234309068377, 0.43071172760378795, -2.6811031216679213, 1.3607619121705525, -3.7294231343880972, 4.0051846262882504, 2.9459100141736174], [4.987578350721245, 1.1183802799199016, 1.5889528155768635, -1.7234613243728885, -1.3784467499414068, -4.194895282255969, 5.5776608080038725, -4.071612882024707, -0.1685831737640236, -2.786049067995675, -0.30394014153450616, 2.2627274014628584]], "weights_ho": [[-1.4600060632250267, -4.952810319768538, 1.1836041749171533, 2.858100041145641, -2.639083024380635, -3.807019101020355, 0.49616898957503025, 2.0753746981794063, 9.023433534514629, 2.8812097703924615, -1.4875512258599017, 0.48333677815229575, 7.096633684742603, 4.624273633699898, 2.012133191963747, -2.499540255996808], [2.4853587335453837, 2.8062981117669197, 8.56269302978297, -3.3108856295294014, 1.7435213506000524, 3.749823647049874, -0.49043001081521936, -1.4634452574154992, -0.17011492051077462, 1.754768811442618, 6.482678221385139, -8.79087589981952, -6.735776322572256, 1.5895408926267702, 6.511528860140503, -3.5095292278951518], [4.963419455138179, -2.5361022920435046, -2.4481490504390915, -1.6948346246046149, 8.44503184362041, 0.9949818495109517, 0.31685670724022086, 0.8567768155385862, 3.1731328849975697, -0.18832005271119254, -3.654136058366481, -3.613210358428939, 4.882895340771818, 0.36792780899171407, 1.487644818348186, -0.06681606232229953], [-2.9437601120262116, 9.311626680608516, -0.42602841533022145, 0.3917233364243236, -3.0883299189840616, -0.5403033096662664, -7.163613118176268, -0.24007437099642284, 3.879538025838059, 4.497965999877946, 4.764470336918582, -2.0693898866926403, -1.393345395206476, -2.1898405357138717, -2.52767240111912, 3.792074276710997]], "bias_h": [[0.3159129072496739], [-2.8034108202387245], [0.729914839175613], [-1.2810390105056277], [-1.5584931690315944], [-3.563554065539979], [1.2924109822725802], [5.714118816684783], [1.1672770002875401], [1.788152552796852], [5.901233394232442], [0.6296231662793432], [-5.056276224747021], [5.67540434382084], [-3.455016291775456], [3.1112504817023607]], "bias_o": [[-1.0834225468251564], [0.2203037080878841], [-1.5473128080981662], [1.9807238515830101]]}, {"input_nodes": 12, "hidden_nodes": 16, "output_nodes": 4, "weights_ih": [[-1.8310053894544769, -4.114651855155337, 0.4206165970627799, -0.028509354727850714, -2.3658675974976675, 2.1367093941068065, -1.7383644614400446, -0.8288146454082307, 0.23907792508117853, 3.714055802135314, -2.8318263530374446, 0.161383780312713], [1.1827971845164746, 8.795563208001541, -2.034556478309682, -0.9633546600682728, -1.3652792785342385, -1.0269935170140096, 1.7868733409164614, 4.818043803638175, -1.2912717956073698, -0.7098089267267514, 4.497980229381671, 6.389832874268669], [-1.6059717944197802, 6.340481332943887, 3.1092378805921044, -2.135420494444096, -10.066666773153077, 2.519693483355679, 2.930702103944726, -3.4775223747608432, -0.018924976801338506, 6.538335647390728, 5.021382109106869, -2.3560342822901292], [1.6893828829381707, 1.2805763783742508, -5.528689474043137, -2.7870809910593675, 0.6231315983227894, 2.161123564454222, 1.0135621909487544, 1.2864308448742519, 3.44618198157697, -2.69444478797608, -1.5509248495450398, 4.135985421479344], [-0.6299506552149243, 0.497974377969076, 5.167578217756679, 1.5600497564616633, -6.420954063459815, -3.242246235774975, -2.3595188286078352, 0.676375734145058, -4.931187018224876, -0.9231200417768548, 3.6031081516698897, 0.7973136562860988], [-5.280886608959835, 4.012207262290833, 4.249824987799377, -3.268659120640523, -2.0266710855834598, 3.8005595802210133, 6.302034908164177, -2.4485318236471088, 3.7797454956577923, 1.439301180077266, -7.238686064299437, 0.23352159144688983], [1.6727664658751984, -4.747408319687094, -0.7441886836288694, -0.07071790563383673, -2.5475563844679137, 2.823374246059376, -3.8145893761431333, 1.626518856548525, 4.124313519284422, -3.8248439730928814, 2.1266256559709835, -3.464730864239467], [0.8900192897258584, 4.531432927553669, -4.830828308997083, -3.9122848999656332, 1.1970165541305025, 1.604647163381642, 1.8546218147866056, 1.210716336182982, 3.100473191970399, 2.0159253889145594, 7.228157346232621, 4.21803249580771], [-0.715357849103351, -0.09138533043786873, -1.1131916565515398, -3.991857926336591, 1.3137804643081585, -2.7227693214757576, -4.787457459285381, 5.9395113532317, -0.09590872223648933, -5.185967765101247, -0.10177272179592965, 4.95415069242299], [5.858220395425597, 0.19227784719171015, 5.746796153965715, 0.7160102448367858, -0.7877023896641637, -0.8213227370161189, 0.9617830351846726, 0.3025570287093666, 2.349975759984842, -1.471813016978727, 