{"generation": 1600, "population": [{"input_nodes": 9, "hidden_nodes": 20, "output_nodes": 4, "weights_ih": [[-0.5891151385168742, -0.5170929422978563, 1.543726775921725, 0.4393945252497998, 3.7326022258575136, 0.8235652459603211, 1.101687359487853, 0.838456487583433, -0.489420857161856], [1.750165965463847, -0.5505651008504482, 1.3197581949058494, 0.8047129356997573, -0.011790011251575031, 1.9966566373515477, 1.6834099768441142, 0.23035090276683434, 0.834642661035302], [1.871571503981952, 0.2694921651470821, 0.15634350188951546, 1.7624885978219424, 0.542451117892761, 1.1375005223286565, -0.6092921240483122, -0.6121152988632711, -0.4111056053402528], [1.7058616561868174, 2.2514603081818656, -0.8100315427159155, 0.6606693380885702, 1.934532136700031, 1.336359820728761, -0.15076770062703165, -1.055255156054145, -1.1554558479702135], [-0.08321430806405933, 2.075453787963093, 0.2594484144429432, 1.1405766147428933, -0.8089520092231705, -1.629649624921771, 0.6689555839448356, 1.4488975569066072, 1.5583779237016957], [3.5254518712482086, 0.6241960634870551, 0.8465181341778347, 1.0542213575730282, 0.5648514357515064, 0.2816761901714501, 1.7922908058129385, -1.0636316266273451, 2.400377582938021], [0.07390963732983215, 1.7853030775245906, 0.6140660347640402, -0.8934709460119172, -0.9234887639909665, 2.2223494152686065, -1.2745580978662163, -0.12032788553629728, 1.5444449964413847], [-0.39073473382972973, 2.005866171872741, 1.0052111254901483, -0.4720540236891109, 2.332181447526164, 1.872258030816529, 0.862351920125288, -0.644162210404597, 0.95172447703102], [1.208222277816901, -0.20065067087891433, 1.6574643097839155, 0.6692703636918246, -0.772791185145961, 2.158702182266077, -0.27764088452299396, -1.8912607944753101, 1.1755531102862165], [1.6579647423767854, 0.16690575171159555, 2.297090597646279, 0.19012995877923253, 0.23662067198962244, -0.6382614083852876, 1.673299509070948, 0.6703552439775979, 1.061642261740035], [-0.3850455162603057, 0.5270486295802648, -0.8312574470442292, -0.7975660990746003, -1.3245683918378928, 0.7023962304170821, 1.6462584660861168, 0.07374324798477497, 1.9990518071678642], [-1.2501930540242014, 0.7621569140759014, -1.8828259119513997, 1.9776759930272487, -0.704238352352238, 0.12026661643569096, -0.9355130432493154, 0.9549266529637618, 1.8407384539849847], [0.37971808545207253, 1.9487136089183974, -1.9309942057243457, 1.510903531654641, 1.1573849349190364, 1.903457386751077, -0.6313651392943868, 1.316777109007139, 0.6291140491051374], [1.7827541056422866, 0.19890493275062654, -0.1471594362465663, 1.3879012405601645, 0.3736947108853544, 1.5277951330400337, 1.7092017649497495, -0.604770518011717, 1.7731715535900663], [2.2732389671942834, 0.35453944030833023, 1.2844005840517156, 1.1418654581433825, -2.630757235052629, 1.3271902369645772, -0.3265120289702349, 1.976670531487322, -0.05074491240688796], [-1.715996043218178, 2.24620568573335, 2.174015842056481, -1.3164922605282192, 0.11187276898830271, 0.2059152023056434, -0.1310670204689906, 0.9655384310575021, 1.690775084502214], [1.1550907360625762, 0.5641513012656746, 2.200081740664019, -0.6740976283074036, -1.5584082859979749, 1.3979522407603022, 0.32766456917969133, 1.0592625765776784, 2.64559347032694], [1.387755763299539, 0.8648115198461332, -1.0979027183457133, 1.9975440807760676, 2.1164311078882263, 0.9107391431290387, -0.4320727716242084, -0.1023248994424944, 1.1656976904663765], [2.1844758663126367, -0.5373279807560876, 0.11835171436374653, -1.0897060630260382, 1.399972859973259, 0.6277540510043114, -0.9050155124942316, 1.404842609007908, -1.3719482265240812], [-0.24786180335290828, 0.5734696900190968, -2.064182110097099, 0.32495718871178436, 0.5688382119208445, 1.7458208506913924, 1.1231308070008272, 2.2432287550742886, 0.6557694175355249]], "weights_ho": [[1.289799974876062, -0.21588219722589536, -0.14383901004538027, 1.2188526509906417, 0.2829019662824005, -0.7880585773919866, 0.5955080080560005, -3.362989788390866, 2.4105849001734656, 0.36425745253559305, -0.4353073597336359, 0.3604648268180509, 1.364070095084719, -0.49035523670433895, 0.4027788622005519, 0.7144891522690238, 0.5999598606256776, 1.3299469577078336, -0.33962015431992093, 1.2423389292639577], [0.7024736779989378, 0.7306243630196372, 0.44841632714719337, -0.8132266483517556, 0.04416448742312811, 0.7056347468468718, 2.8377261041811943, 1.0383018743081613, 0.7930596102815906, 3.688508252319615, -0.22866009029765988, 1.1143146945827063, 1.1661348360885024, 0.086490976639889, 2.3174616954747824, 3.8174742769618595, -0.11672553063190269, 1.4797925726268149, -0.8761531985517765, 1.516443091667306], [-0.32015376513809124, 0.8920779895769746, 1.846878567038405, 0.6598510907821724, -0.41714226595885273, 1.4861364336827314, 0.5356975671814281, 1.744898943352431, 0.15777919927778655, 0.03216472393637626, 0.20359001611286986, 0.305397003894625, 0.1468945951897738, -0.0512079726272593, -3.5970765168227072, 0.43676345213341405, 0.1237846672935253, 1.4625246970569576, -0.6177931629581789, 1.3569755854603573], [0.1053732902615366, 0.056132748056438024, 1.0983420249806002, 1.586036164742628, 1.1644513456065992, -1.6605235143553347, 2.279417095548933, -1.7683998886047734, 3.0070205615831753, -1.5182168326758574, 0.9567032835942487, 1.9416093016675757, -0.1037576068206198, 2.470310223775841, 1.6057091867257645, 3.829285130734846, 2.5213814112279462, 1.616999652099952, 3.1326332843728197, -0.5278220994716843]], "bias_h": [[-0.12568850499248893], [1.4391413230023906], [1.44117654463128], [2.0571504444786406], [-0.3895621592901405], [0.09977179262652774], [0.14022769089963052], [0.6231319028909982], [1.151580736140326], [1.9890235595640309], [-0.6013737632285339], [0.9364674453798054], [0.14673229978397803], [0.344691044754918], [1.4098733067233558], [1.4800076125024546], [-0.4471218861881204], [1.8208909859833975], [2.843692968610078], [0.8598593308696012]], "bias_o": [[1.2943792886139187], [0.5863088485993224], [2.9033470466301727], [3.8100906108306996]]}, {"input_nodes": 9, "hidden_nodes": 20, "output_nodes": 4, "weights_ih": [[-0.5873929179933883, -0.5310353622588633, 1.501882507619427, 0.45615824975565844, 3.632950784019338, 0.8658245336224213, 1.2028317581736134, 0.8362402786781609, -0.483370399023797], [1.7823910126053404, -0.568808555251495, 1.3300823643223862, 0.8001271824064331, -0.03002489613609439, 1.9588734798990153, 1.6833539498308465, 0.26620877595072734, 0.832996960341195], [1.8349738507363584, 0.2701354263234734, -0.052987977147586074, 1.7579962936808922, 0.5405658913570717, 1.2360179536399931, -0.6127405821805029, -0.6164506409090043, -0.4156588486551509], [1.6342599344653972, 2.378484155232548, -0.8334871220337, 0.6661101461259287, 1.926752674708879, 1.3387361640991926, -0.11973658156021771, -1.0328734478123494, -1.1578217843541494], [0.033323785769641866, 1.9013885280052776, 0.24865304469370073, 1.1001886192356571, -0.8030366478103041, -1.5864545635042213, 0.6825655659234274, 1.4560975934165732, 1.5540129970099406], [3.406379409926333, 0.5646570788350939, 0.7812581600428681, 1.0007671973115773, 0.5970757362083849, 0.2831654305343163, 1.7968887697099674, -1.0635074844226433, 2.4073558621880418], [0.08736247017856123, 1.691252775120268, 0.5614441036227893, -0.9307467031682997, -0.9577120565265667, 1.9532507409064714, -1.3033140742250886, -0.03485181427975587, 1.5053281575202468], [-0.33815018839070987, 2.061226965990557, 1.0030590632655016, -0.4873915125004762, 2.504183474513671, 1.7208709802774549, 0.8711431334838136, -0.6265545328718131, 0.9404891883782054], [1.2223799330452327, -0.1994581283753017, 1.6550814457659482, 0.7220092741249232, -0.7637689829466934, 2.146957773049058, -0.28240173871086627, -2.0547374509830343, 1.198538249686179], [1.803082009879064, 0.20607720537394886, 2.2931012890564855, 0.17179905575920532, 0.2548979381847937, -0.7554232452140048, 1.6142464189991816, 0.675526674429944, 1.0837184439333423], [-0.40259952793048703, 0.5340354110932173, -0.9166030983583975, -0.7551002424991675, -1.33695912316302, 0.6883428899995766, 1.6426152256010047, 0.14182765750379217, 2.012404377233552], [-1.24534795366852, 0.7850273320509105, -1.9476371709712035, 1.923510491255073, -0.7043368167535665, 0.14111476241838172, -0.9411554127335948, 0.990862053004818, 1.858213565772091], [0.37742340816809045, 1.956697754239054, -2.162534965272499, 1.5319574653475314, 1.3109241379572167, 1.9065026094885107, -0.636096490511187, 1.3502698100566568, 0.6115674956150157], [1.79198586005236, 0.18615967179394377, -0.13874130874869883, 1.3500079847145319, 0.3733367478758104, 1.4577884424725331, 1.690958699037001, -0.8113195424394644, 1.7532229326629452], [2.3029799542755742, 0.3572520844120417, 1.3364535968191973, 1.0971708597422039, -2.51255635653561, 1.4210340890394908, -0.19528898697751756, 1.978919693529631, -0.062350494301031005], [-1.6515544749710676, 2.2567759351151295, 2.169711414455189, -1.3962067225643855, 0.12883669188919744, 0.21514414960263983, -0.1283965303743831, 0.9898616248404194, 1.7210100687999774], [0.9539948703977918, 0.5689283148651187, 2.2481209078296733, -0.5940228977981887, -1.472958625093069, 1.5654563781081827, 0.2934695109359548, 1.0305068529855799, 2.6397927077844203], [1.2987337512904116, 0.9113528337982786, -1.0961739912431265, 1.9699990626295696, 2.1307829202034245, 0.8185775194172484, -0.4519872830949433, -0.1092242046263864, 1.167714849943276], [2.042611323582176, -0.6112075868835043, 0.1315497784910024, -1.0636504553882993, 1.553880351712738, 0.6582785021636917, -0.902302772162163, 1.39270607249113, -1.4426825755851638], [-0.2746098196030637, 0.3487575594693024, -2.1881701587093287, 0.3269842994484785, 0.5411533063726763, 1.7286676944440085, 1.0618460324391474, 2.239183363786034, 0.6604705421270299]], "weights_ho": [[1.3084660351982174, -0.21685161156429503, -0.302376353944724, 1.2430630131803397, 0.27417761557484266, -0.8854408512080504, 0.5672119785745697, -3.42212923309902, 2.4568858677718057, 0.3567667579927136, -0.42427742881993874, 0.3600466042560446, 1.3550110044128327, -0.47884983652529656, 0.43296958683876063, 0.7379221658198907, 0.7761026652606866, 1.31796264298251, -0.5250429493099346, 1.2368410733006316], [0.7019879247821602, 0.7615104451846264, 0.42890994886430206, -0.8043299123371106, 0.05817673096524381, 0.6687645543598841, 2.8357828407036125, 1.038872408393702, 0.8706186987745017, 3.765379245211735, -0.28026448058695613, 1.2459799023704836, 1.0769270453620865, 0.08488190490040048, 2.3160127858167536, 3.893234869216172, -0.15823917016753414, 1.5366771232739853, -0.7938705494513457, 1.5155864908962255], [-0.32997841164692515, 0.8803873456386748, 1.96716698305051, 0.6323646342698157, -0.4337829783808482, 1.443370616410419, 0.5197790180776529, 1.7241167643332025, 0.1288159709025899, 0.07036661021205687, 0.3253328112195567, 0.23134680817178815, 0.11759463255549839, 0.005698382237474665, -3.641939198922011, 0.4718905381078015, 0.11483778850308525, 1.4221755546050736, -0.6174172240857735, 1.362415293992715], [0.09009825100747304, -0.035900222894119246, 0.9742342729891732, 1.5843450832452814, 1.16684240393286, -1.6356009821590571, 2.298589592606625, -1.7611189489415686, 3.0810165125242612, -1.5192705136222664, 0.9399995110812795, 1.9034068485222426, -0.10675761140538967, 2.553664441776963, 1.7201014364995522, 3.793021880952542, 2.5826922841949025, 1.6851082580932775, 3.07536471330482, -0.5279408262603095]], "bias_h": [[-0.08312367991872155], [1.4910149051327615], [1.336550732729702], [2.1057110698622714], [-0.39164183736524144], [0.15518568925789075], [0.06354397507434642], [0.59850474014769], [1.120099488779948], [1.8920118887798885], [-0.5836012471713847], [0.9334645943265633], [0.12183641682716417], [0.3553628407421314], [1.4159801789248396], [1.5242245502278366], [-0.3906522505834519], [1.817823257615398], [2.9102904493108808], [0.825769751969431]], "bias_o": [[1.1686418962469847], [0.6023819913340382], [2.914523014557955], [3.7556931320661002]]}, {"input_nodes": 9, "hidden_nodes": 20, "output_nodes": 4, "weights_ih": [[-0.5908373590403602, -0.5031505223368493, 1.6194290272304652, 0.44528048132645437, 3.6787263432145743, 0.8101587820422516, 1.080296304417646, 0.8406726964887051, -0.44028969016539676], [1.8728432087723468, -0.5261730677443079, 1.3512566556164656, 0.7793280796329779, -0.012483721276559437, 1.99581951315486, 1.683466003857382, 0.25385393639010784, 0.8284994859575183], [1.9013834423764293, 0.2613502059124878, 0.16401374295236734, 1.6941913617665605, 0.5543801315287045, 1.235575368694191, -0.5003172268379402, -0.5920625564914094, -0.42893404638072863], [1.7115615439227883, 2.2481231491602562, -0.8357008217858346, 0.6552285300512118, 1.942311598691183, 1.3157073915141417, -0.16985512850052692, -1.050135374992974, -1.1530899115862776], [0.10229945537056617, 2.0544397969544637, 0.2495813403878861, 0.942880394780915, -0.8148673706360368, -1.594536246939506, 0.6433224512508602, 1.3734485928170954, 1.7014085362389468], [3.5584968440606053, 0.6376018350989123, 0.7451203636232595, 0.9285168843427398, 0.4361239017263989, 0.18647922890770263, 1.78769284191591, -1.1676934475242196, 2.4350604148806516], [0.024602880196643966, 1.749590226139228, 0.6273036654186582, -0.9968840687692404, -0.9101078068322341, 2.030340039260264, -1.3057430750534609, -0.1882870618245397, 1.514730920247473], [-0.3906234475620479, 1.9615504044173846, 1.0120086574132325, -0.4148223663739816, 2.4969549439461387, 1.8435497924495752, 0.8668872334362973, -0.665999653970963, 1.0651906410797687], [1.1940646225885692, -0.16130197711387353, 1.7017155924546876, 0.7116572742787506, -0.7833847499822859, 2.1792434033133117, -0.2042255733409427, -1.9297905612526824, 1.1362229310896106], [1.7794200645096736, 0.14502901852967004, 2.3010799062360725, 0.20656200470992334, 0.29124717982438564, -0.8066375276478185, 1.53145854464752, 0.5541869718808523, 1.0524156471839554], [-0.39693049013762605, 0.5200618480673123, -0.8137778822370112, -0.7809794173251813, -1.3121776605127655, 0.7163125827059539, 1.4451349819833796, 0.17464166733879732, 2.0227937069535336], [-1.1005190861144172, 0.6218216115134562, -1.9226913523926856, 1.9707751961989999, -0.7041398879509094, 0.0994184704530002, -0.8738123863550741, 0.7200564243630073, 1.8232633421978783], [0.3707683274528799, 1.9407294635977408, -2.0335599074459103, 1.5062541764101183, 1.1624577308630002, 1.9041199036425338, -0.5971142273476523, 1.3165478186947142, 0.6162441128949636], [1.7762196597126074, 0.21582753015600115, -0.12577920643735496, 1.485772887685625, 0.3740526738948984, 1.4514247171736707, 1.723269233742599, -0.8203640062566762, 1.74563239006809], [2.288913204724183, 0.4545852519092909, 1.268894190915148, 1.1665359801279958, -2.561992242656965, 1.4411401771668673, -0.24752564879058106, 2.0002888504763794, -0.04043085913762288], [-1.7094238222672224, 2.153746476511587, 2.094259130914136, -1.3745896361698768, 0.19057525294728328, 0.19800108666439215, -0.13373751056359812, 0.9412152372745849, 1.6605401002044506], [1.1415279918204218, 0.5747133350653231, 2.2827861478660587, -0.6950676144701458, -1.4638448473622017, 1.5481442850071565, 0.38769974579610256, 0.9552751893936067, 2.611553934588276], [1.7469705982931298, 0.8172933257851931, -1.0296621428443444, 2.0060258248340697, 1.9942259202490982, 0.8787949362253327, -0.41215826015347345, -0.045415200164411154, 1.163680530989477], [2.193002494034485, -0.6264055440862256, 0.0930233525915432, -1.1157616706637774, 1.5268151858581065, 0.5972295998449311, -0.9077282528263002, 1.416979145524686, -1.3554863544529363], [-0.22111378710275287, 0.6120707586988448, -2.0111056735077026, 0.32444050935879876, 0.5906354378091155, 1.834606706475999, 1.097479489634896, 2.247273014741449, 0.7290322179386004]], "weights_ho": [[1.4085539023082734, -0.09557097116095313, -0.26421787244358086, 1.2651422495618734, 0.3973031589743356, -0.6946325264154714, 0.5737563979367739, -3.323950488359099, 2.426058421266346, 0.4196969832095993, -0.4159095349539012, 0.3608830493800572, 1.2152902516626323, -0.5408473053704503, 0.3071238562520963, 0.7156116870717384, 0.8231697592646321, 1.2683803148474075, -0.27693143636605977, 1.201401878748185], [0.7029594312157152, 0.9216809931537764, 0.2989560792442324, -0.8127214901714965, 0.05622627174984889, 0.854641123359289, 2.8396568599390886, 1.0027094884108823, 0.7479035250649431, 3.6834284716562395, -0.2612204390649794, 1.3015103301621112, 1.0075454981378087, 0.07738781107911563, 2.2890071785784922, 3.8885916766836903, -0.07869427145392738, 1.523557352160931, -0.8751268141266997, 1.596447108124686], [-0.31032911862925733, 0.8901700675520456, 1.8385534865198245, 0.6644379364883428, -0.44540171506880555, 1.396424566274018, 0.5761196337918519, 1.7541723170160488, 0.15784987623460917, 0.000514428645398364, 0.3112661328736725, 0.11655949118564554, 0.15022794708428744, -0.07905639859323643, -3.570685230697218, 0.45581359685481615, 0.12080874247352612, 1.4501822552162098, -0.7988768817602803, 1.3515358769279997], [0.09961094627196698, 0.05259108902655193, 1.011222410375642, 1.6002863143494068, 1.1878312721776068, -1.666858813415233, 2.2370340457012707, -1.793751024561018, 3.074805408830083, -1.441365250685053, 1.0127486384056592, 2.0304483988663087, -0.10818096100195444, 2.52428667953066, 1.6167969688907629, 3.8468005088453134, 2.6849058589162462, 1.612372043959315, 3.0964321087288473, -0.5527831842997553]], "bias_h": [[-0.26048066812146586], [1.2177769307018014], [1.4565495843838652], [2.0412478550329927], [-0.4093877710058693], [0.18221946512392984], [-0.02024481699281063], [0.6431316781294153], [1.147327186307356], [1.9880936897320356], [-0.6224335588836813], [0.9453986803629512], [0.1536260574756668], [0.36704679649786487], [1.407150399330508], [1.6966330312242914], [-0.4004076726479985], [1.8083443885077166], [2.7692795572864704], [0.8942047214692059]], "bias_o": [[1.2398514249042334], [0.6435489208406509], [2.8921710787023907], [3.796764558227271]]}, {"input_nodes": 9, "hidden_nodes": 20, "output_nodes": 4, "weights_ih": [[-0.5873929179933883, -0.5310353622588633, 1.5315229340258534, 0.45615824975565844, 3.685186675336111, 0.7546483740581884, 1.2209944989422459, 0.6592861100145229, -0.5046374046700023], [1.8125731757617125, -0.5819800645115937, 1.4072921616002834, 0.7972655576957922, -0.03002489613609439, 1.9974937615482353, 1.6833539498308465, 0.20684786914356085, 0.832996960341195], [2.0450934488377364, 0.2701354263234734, 0.16332607559289788, 1.6885293358941436, 0.5405658913570717, 1.197025715302033, -0.5450176484821484, -0.5262401335220787, -0.4156588486551509], [1.6342599344653972, 2.378484155232548, -0.8334871220337, 0.6661101461259287, 1.926752674708879, 1.3387361640991926, -0.09964610368807152, -1.0328734478123494, -1.1578217843541494], [0.033323785769641866, 2.0244228059517964, 0.25467546352427983, 1.0280477558887813, -0.8030366478103041, -1.5864545635042213, 0.6825655659234274, 1.4560975934165732, 1.5769601450099207], [3.542819600736502, 0.5646570788350939, 0.7812581600428681, 0.9361822800423663, 0.4377600310854739, 0.2831654305343163, 1.7968887697099674, -1.0635074844226433, 2.4073558621880418], [0.09383507612690355, 1.7786867953699277, 0.652062683390905, -0.950036970754304, -0.9389480095356033, 1.9532507409064714, -1.3033140742250886, -0.0967816995093251, 1.5053281575202468], [-0.33815018839070987, 2.061226965990557, 0.9984135935670642, -0.4873915125004762, 2.504183474513671, 1.8659578871837321, 0.8578166068142788, -0.6451855787477007, 0.9404891883782054], [1.2223799330452327, -0.15885387446701468, 1.6550814457659482, 0.8032670981300035, -0.7637689829466934, 2.158288091665858, -0.28240173871086627, -2.0351447228535813, 1.171316325051388], [1.7317916811242764, 0.1341555918467191, 2.2931012890564855, 0.0766188262574648, 0.30027253381104685, -0.7554232452140048, 1.6654024193810029, 0.6885903880710318, 1.0837184439333423], [-0.46148591429981806, 0.5340354110932173, -0.8588571616676666, -0.8141527808240193, -1.33695912316302, 0.6883428899995766, 1.6426152256010047, 0.14182765750379217, 2.039897952675804], [-1.24534795366852, 0.6641804278730977, -1.9476371709712035, 1.8666555717250197, -0.7043368167535665, 0.14111476241838172, -0.9264026982510997, 0.8747496683867793, 1.858213565772091], [0.15413522256896417, 1.956697754239054, -1.954455760165832, 1.5499227482183322, 1.2496386212549735, 1.9065026094885107, -0.7481043054186035, 1.3502698100566568, 0.6700028546156841], [1.7892885515719659, 0.18615967179394377, -0.06506444271154269, 1.3890355455434307, 0.3733367478758104, 1.4577884424725331, 1.690958699037001, -0.8256860315552701, 1.7532229326629452], [2.3029799542755742, 0.4890798766862447, 1.262343701770475, 1.04292735438623, -2.4707478584688536, 1.3255590006823956, -0.25147500122659516, 1.9026523948805734, -0.062350494301031005], [-1.6515544749710676, 2.208369950974175, 2.0856502757115516, -1.3962067225643855, 0.09146115865239476, 0.18150776961407833, -0.17759943022545127, 0.9898616248404194, 1.7210100687999774], [1.1139931517058106, 0.6989272740332092, 2.1312036958578795, -0.695974109614466, -1.4786308749723456, 1.5432652897912835, 0.2602702470911043, 0.9707744864241675, 2.6397927077844203], [1.4684800936971834, 0.9006290646398613, -1.044918806860714, 1.9699990626295696, 2.0189655120355514, 0.852219837153708, -0.4519872830949433, -0.07791390639669266, 1.167714849943276], [2.175949238590788, -0.6112075868835043, 0.06480009469869849, -1.023693230860563, 1.553880351712738, 0.6437980096168362, -0.902302772162163, 1.39270607249113, -1.3884100985952261], [-0.2746098196030637, 0.5908878499453808, -2.1881701587093287, 0.3269842994484785, 0.5411533063726763, 1.8026631674151277, 1.0618460324391474, 2.2662883938141425, 0.6604705421270299]], "weights_ho": [[1.3548518105296847, -0.21685161156429503, -0.3211949807334653, 1.2640866177087697, 0.27417761557484266, -0.5239727836145189, 0.5492603407792516, -3.353932362367387, 2.4568858677718057, 0.5230446075028234, -0.32859775766052124, 0.3600466042560446, 1.3029387069968374, -0.4898970531618061, 0.34094498828027275, 0.7379221658198907, 0.7761026652606866, 1.31796264298251, -0.362042846364305, 1.2071125884912286], [0.7019879247821602, 0.7615104451846264, 0.42890994886430206, -0.743929860656506, 0.14312935854058292, 0.6960904780255682, 2.8178066515488696, 1.0352551984159977, 0.6526469349766567, 3.6998672534557793, -0.3128185641574731, 1.2459799023704836, 1.0769270453620865, 0.09393710686102252, 2.3160127858167536, 3.513566230605061, -0.15823917016753414, 1.5366771232739853, -0.9112876225073377, 1.5155864908962255], [-0.32997841164692515, 0.8803873456386748, 1.96716698305051, 0.6323646342698157, -0.4337829783808482, 1.4696126624053418, 0.5197790180776529, 1.7349805039337325, 0.1288159709025899, 0.07036661021205687, 0.3253328112195567, 0.06876948476680021, 0.11759463255549839, -0.20343880247314744, -3.5346301984943738, 0.4377102344743481, 0.11483778850308525, 1.3727371358809168, -0.6174172240857735, 1.362415293992715], [0.09009825100747304, -0.035900222894119246, 1.1062659425962806, 1.4831331009478645, 1.2967926954202422, -1.6356009821590571, 2.220951108637056, -1.8097532632074775, 3.2357504543650295, -1.457230707158335, 0.9399995110812795, 1.7479930764517049, 0.054171937235576534, 2.5206327743227517, 1.5970727142090095, 3.8749342098203345, 2.5826922841949025, 1.6216272602405888, 3.1671051638730594, -0.5643380848485149]], "bias_h": [[-0.09144711978527793], [1.4795162409154425], [1.3795880961807687], [2.103693569119126], [-0.39164183736524144], [0.06367338377649967], [0.0798468014991606], [0.59850474014769], [1.2953888998240983], [1.9899534293960262], [-0.4064096195694036], [0.9347976459911123], [0.12183641682716417], [0.3553628407421314], [1.4159801789248396], [1.5242245502278366], [-0.3906522505834519], [1.817823257615398], [2.6299662662102525], [0.8511455987027913]], "bias_o": [[1.3384736437727696], [0.529068776357994], [2.914523014557955], [3.7556931320661002]]}, {"input_nodes": 9, "hidden_nodes": 20, "output_nodes": 4, "weights_ih": [[-0.5873929179933883, -0.5310353622588633, 1.5315229340258534, 0.45615824975565844, 3.685186675336111, 0.7546483740581884, 1.2028317581736134, 0.8362402786781609, -0.5046374046700023], [1.8125731757617125, -0.5526984566385833, 1.4072921616002834, 0.7972655576957922, -0.10322224022917872, 1.9974937615482353, 1.6833539498308465, 0.20684786914356085, 0.832996960341195], [1.8701152922702082, 0.2701354263234734, 0.03467193629872187, 1.6885293358941436, 0.5405658913570717, 1.2600842321310353, -0.527533865803301, -0.6164506409090043, -0.47561937637762847], [1.6342599344653972, 2.378484155232548, -0.8405329618755741, 0.6661101461259287, 1.7737018342655806, 1.3387361640991926, -0.09964610368807152, -1.0322677851873265, -1.1578217843541494], [0.033323785769641866, 1.9013885280052776, 0.25467546352427983, 1.120184998121602, -0.8324654040050989, -1.5864545635042213, 0.6825655659234274, 1.7141376201404772, 1.5769601450099207], [3.542819600736502, 0.5646570788350939, 0.7812581600428681, 0.9361822800423663, 0.4377600310854739, 0.2831654305343163, 1.754430682492574, -1.0635074844226433, 2.4073558621880418], [0.09383507612690355, 1.7786867953699277, 0.652062683390905, -0.950036970754304, -0.9389480095356033, 1.9532507409064714, -1.3033140742250886, -0.0967816995093251, 1.5053281575202468], [-0.33815018839070987, 1.999933057511216, 0.9984135935670642, -0.4873915125004762, 2.504183474513671, 1.8659578871837321, 0.8598475166467552, -0.6451855787477007, 0.9404891883782054], [1.2223799330452327, -0.15885387446701468, 1.6550814457659482, 0.7451468019041871, -0.7637689829466934, 2.158288091665858, -0.28240173871086627, -2.0351447228535813, 1.171316325051388], [1.7317916811242764, 0.16678266921286322, 2.2931012890564855, 0.17179905575920532, 0.30027253381104685, -0.7554232452140048, 1.6654024193810029, 0.6885903880710318, 1.0837184439333423], [-0.40259952793048703, 0.5340354110932173, -0.8588571616676666, -0.8141527808240193, -1.33695912316302, 0.6883428899995766, 1.6426152256010047, 0.14182765750379217, 2.039897952675804], [-1.24534795366852, 0.7850273320509105, -1.9476371709712035, 1.923510491255073, -0.5278668714542897, 0.14111476241838172, -0.9264026982510997, 0.9855303129737232, 1.858213565772091], [0.37742340816809045, 1.956697754239054, -1.954455760165832, 1.5499227482183322, 1.2441670242717868, 1.9065026094885107, -0.636096490511187, 1.3502698100566568, 0.6700028546156841], [1.7892885515719659, 0.18615967179394377, -0.1843046625178074, 1.3890355455434307, 0.3733367478758104, 1.4577884424725331, 1.7953777156777873, -0.8256860315552701, 1.7532229326629452], [2.177298029269481, 0.4890798766862447, 1.262343701770475, 0.9284163734823626, -2.4707478584688536, 1.3255590006823956, -0.25147500122659516, 2.0016591308334992, -0.062350494301031005], [-1.8069825880459442, 2.208369950974175, 2.0856502757115516, -1.3962067225643855, 0.09146115865239476, 0.2632477499281791, -0.1283965303743831, 0.9898616248404194, 1.7210100687999774], [1.1139931517058106, 0.5535892674660261, 2.176616538998064, -0.695974109614466, -1.3701536640245846, 1.5654563781081827, 0.2602702470911043, 0.9089552935621882, 2.6397927077844203], [1.4684800936971834, 0.9636574091827648, -1.044918806860714, 1.9699990626295696, 2.0189655120355514, 0.852219837153708, -0.4519872830949433, -0.05921381053219519, 1.167714849943276], [2.175949238590788, -0.6112075868835043, 0.1315497784910024, -1.143086539558535, 1.553880351712738, 0.6582785021636917, -0.8486169320434225, 1.39270607249113, -1.3884100985952261], [-0.3175660705247718, 0.5908878499453808, -2.352783571554771, 0.3269842994484785, 0.5411533063726763, 1.5704264746561396, 1.0618460324391474, 2.239183363786034, 0.6604705421270299]], "weights_ho": [[1.3084660351982174, -0.21685161156429503, -0.3211949807334653, 1.2430630131803397, 0.27417761557484266, -0.6851683038545981, 0.5492603407792516, -3.353932362367387, 2.4568858677718057, 0.41371418768772805, -0.3231197353313404, 0.48533719097714956, 1.3550110044128327, -0.4898970531618061, 0.34094498828027275, 0.7379221658198907, 0.938990463101022, 1.31796264298251, -0.45921154046026114, 1.23567665626623], [0.7019879247821602, 0.7615104451846264, 0.49056833840483466, -0.8043299123371106, 0.08610639949307422, 0.6960904780255682, 2.8907121637365547, 1.0352551984159977, 0.749602188195998, 3.6998672534557793, -0.3128185641574731, 1.2459799023704836, 1.0769270453620865, 0.09393710686102252, 2.3160127858167536, 3.8032716009753162, 0.011617524734939016, 1.5366771232739853, -0.9112876225073377, 1.5155864908962255], [-0.32997841164692515, 0.9032292397050864, 1.96716698305051, 0.6323646342698157, -0.3582177109787728, 1.4298822198111054, 0.45848431233993725, 1.7349805039337325, 0.1288159709025899, 0.273703486932463, 0.3253328112195567, 0.17900121192428115, -0.02657554942854802, -0.03700713362169582, -3.577642151406692, 0.4377102344743481, 0.11483778850308525, 1.4221755546050736, -0.5504307978545169, 1.362415293992715], [0.09009825100747304, -0.035900222894119246, 1.1062659425962806, 1.5843450832452814, 1.2967926954202422, -1.6356009821590571, 2.220951108637056, -1.8097532632074775, 3.0143055010795345, -1.457230707158335, 0.9399995110812795, 2.0189885317381675, -0.08451128144715331, 2.449902290404231, 1.594621404560766, 3.8749342098203345, 2.5826922841949025, 1.6216272602405888, 3.0791846687566005, -0.6198024064852959]], "bias_h": [[-0.11710846868101091], [1.4795162409154425], [1.3795880961807687], [2.103693569119126], [-0.39164183736524144], [0.11229377258690598], [0.0798468014991606], [0.59850474014769], [1.1713067899265588], [1.9899534293960262], [-0.5938489887513649], [0.9347976459911123], [0.04792230810929249], [0.11826284255692443], [1.4159801789248396], [1.5242245502278366], [-0.3906522505834519], [1.7745056648309192], [2.7631698243388216], [0.8511455987027913]], "bias_o": [[1.3329946678398947], [0.529068776357994], [2.914523014557955], [3.7556931320661002]]}, {"input_nodes": 9, "hidden_nodes": 20, "output_nodes": 4, "weights_ih": [[-0.5856706974699024, -0.5449777822198701, 1.4833336286129863, 0.43649820845908294, 3.73906255797905, 0.7678911513552676, 1.2116689851880307, 0.8340240697728888, -0.477319940885738], [1.7872967171990868, -0.5567278946082929, 1.3070007616712758, 0.7774703403047902, -0.04825978102061375, 1.998330885744923, 1.6832979228175788, 0.10092694822265974, 0.8221663328877924], [1.8686590805584644, 0.27745135597195847, 0.1536037422981636, 1.7535039895398419, 0.49147972196190337, 1.1500726838599227, -0.6161890403126935, -0.6207859829547374, -0.4980003554489839], [1.5225636371170859, 2.3818213142541573, -0.804321454022155, 0.7394282324516093, 1.7722212426252804, 1.341112507469624, -0.08870546249340376, -1.03799322887352, -1.1601877207380853], [0.028186643307690593, 1.8909827858183883, 0.24990251260561647, 1.0929516028068198, -0.6960580177718794, -1.5852311024168264, 0.6961755479020193, 1.4121177708963977, 1.5496480703181854], [3.534980979074451, 0.5296616862839114, 0.796074834626262, 1.0583017227592981, 0.4628873792072409, 0.3299621169483852, 1.801486733606996, -1.0375215213614004, 2.3994655227052037], [0.15513816710244352, 1.648829277569995, 0.6750469346771414, -0.9258652603695896, -0.9563054705982456, 1.9394280760638798, -1.2954283958669843, -0.028822523221082686, 1.4696209517672367], [-0.3382614746583917, 2.1002954548289483, 0.9916160616439799, -0.42115913135403676, 2.510873957809573, 1.8781009729896745, 0.956928193711283, -0.6123946288574315, 0.9306119508749211], [1.2340457773330085, -0.19826558587168908, 1.6519777566025684, 0.7369164419985224, -0.8630222768225048, 2.1578740010656396, -0.27604117565023156, -2.0410065984186545, 1.1492471234974153], [1.7201674621446323, -0.02470128620736406, 2.201179897052838, 0.16766618414984674, 0.24564602597628368, -0.7595330128876285, 1.6570410234202728, 0.6925815784368401, 1.0376643288508154], [-0.3984188013097411, 0.5410221926061698, -0.9410284245597063, -0.8412034489135478, -1.349349854488147, 0.7187032909902596, 1.6044385865102997, 0.1407522970486922, 2.0161560528901346], [-1.2405028533128384, 0.8163651819194334, -1.9554539785734621, 1.8046534076761516, -0.742580558078561, 0.1619629084010725, -0.951927867001017, 0.9669970784418345, 1.8756886775591974], [0.3391352992955815, 1.9142341935345364, -1.8426947279063843, 1.5615045038309159, 1.251009141948781, 1.9412870683031782, -0.5739379400757456, 1.3504991003690818, 0.6754934851028268], [1.8197017079801434, 0.24264710249108784, -0.159408500131815, 1.3117751433888545, 0.3158607942168849, 1.2782658601257129, 1.5632320590592643, -0.8337878071623086, 1.7299803960014994], [2.45240693911078, 0.471797671249125, 1.2778500949070426, 1.063718548438466, -2.432884800836791, 1.3140696854889793, -0.330461381406249, 1.9811688555719393, -0.08791421727141671], [-1.4731246887314433, 2.2435778444816368, 2.1654069868538963, -1.4013248979272301, 0.05036369218173515, 0.24355668392133745, -0.12572604027977557, 0.9047317982507989, 1.7512450530977406], [1.0934020291173485, 0.560392068984225, 2.126095963338604, -0.675004123451724, -1.4349702159223354, 1.6282993859218822, 0.335000476203718, 0.9853015426933932, 2.6339919452419007], [1.3642203131855153, 0.8066967034529738, -1.0801506272265753, 1.802094395212821, 2.145134732518623, 0.8204350169920488, -0.47190179456567816, 0.056707740434461765, 1.1697320094201753], [2.16742261086894, -0.6036086082821436, 0.14474784261825827, -1.063965683324588, 1.5465842916740287, 0.7270268557516157, -0.9167778367284101, 1.3805695359743517, -1.4048719706663708], [-0.28915771184392763, 0.6000858233324118, -2.3224631936122275, 0.38942227879606484, 0.5753179842572476, 1.7213764696995777, 1.0016875879337874, 2.248889784685854, 0.6651716667185351]], "weights_ho": [[1.2914875296659336, -0.2178210259026947, -0.2963405359343198, 1.239667059698931, 0.39055679374801766, -0.7626778583472327, 0.7013636606117117, -3.471465895307836, 2.6879090410917663, 0.3582746570137218, -0.313375396840877, 0.3596283816940383, 1.3930993698698435, -0.5051247178573177, 0.4763244977534581, 0.736799631017176, 0.752569118258714, 1.316951483793253, -0.34856853284219375, 1.1961970364642798], [0.6053890686596874, 0.7609342171736704, 0.46318132796565786, -0.8471850806974976, -0.07756647302538358, 0.6467352340152066, 2.8338395772260303, 1.0322085225238342, 0.6598471154410112, 3.6937995566685213, -0.3128958429541242, 1.2744792265423566, 1.1116178189742254, 0.1135841968472825, 2.4577505776465576, 3.8521092969302573, -0.24396277368356495, 1.4697234539079767, -0.8991062950611728, 1.5948798884017141], [-0.42700741524410146, 0.834668819108705, 1.9684236383846592, 0.6376851360357221, -0.4783064753119066, 1.433868357592482, 0.5324387090666232, 1.703334585313974, 0.1287452939457673, 0.10856849648773749, 0.2973948615679408, 0.21022207229359893, 0.019850909973677944, -0.01933427109030347, -3.4302632860684494, 0.5218244271821246, 0.13468049733098814, 1.4345179964458215, -0.6170412852133682, 1.438990607113054], [0.0363975455536321, -0.013015047988730356, 1.1141898602119609, 1.6571586031222783, 1.339988041316351, -1.6316006805625736, 2.263334158484718, -1.759960715725446, 3.0215904405758938, -1.5203241945686754, 0.9370778244619371, 1.9659992827130022, -0.04599556235923919, 2.492616217118358, 1.6846305238585688, 3.8070228811919953, 2.5418732805337267, 1.5751827577921258, 3.0583423186559946, -0.3925982629280551]], "bias_h": [[-0.1234811183387875], [1.4860195435426553], [1.3730759105303765], [2.064807271321803], [-0.35971827355658886], [0.11886991946945234], [0.2049255280598145], [0.6137041664047039], [1.1512812102713124], [1.9908832992280217], [-0.5658287311142356], [0.930461743273321], [0.09694053387035031], [0.3660346367293449], [1.4187030863176875], [1.539944783380925], [-0.3857745395511786], [1.7887889855191683], [2.85920756132045], [0.9346402221752879]], "bias_o": [[1.2992073883487754], [0.47182870411666566], [2.9256989824857373], [3.735157418985515]]}, {"input_nodes": 9, "hidden_nodes": 20, "output_nodes": 4, "weights_ih": [[-0.5856706974699024, -0.5449777822198701, 1.4558206827171132, 0.45027229367900384, 3.73906255797905, 0.6834219049819481, 1.272962603608608, 0.8340240697728888, -0.5537685716664615], [1.752872214352319, -0.5770904897447237, 1.3070007616712758, 0.7788181131178116, -0.04457208518179128, 1.998330885744923, 1.6832979228175788, 0.18334483552028735, 0.8391401354189787], [1.8403033538757312, 0.271604717085974, 0.155655834530046, 1.8006853127124347, 0.5286368777211282, 1.2387842549782022, -0.636508763013673, -0.636503383280866, -0.39783040761467503], [1.6285600467294266, 2.37095202106668, -0.8078178429637809, 0.671550954163287, 1.9189732127177268, 1.2208216519299686, -0.08055867581457626, -1.03799322887352, -1.1601877207380853], [-0.03051474136933116, 1.8909827858183883, 0.18765333568137307, 1.1433989088744443, -0.797121286397438, -1.5795963411563312, 0.8040454604954355, 1.5195415073085266, 1.5496480703181854], [3.534980979074451, 0.5512513072232366, 0.7895299662953914, 1.0618867532726548, 0.356352468977995, 0.40798324552362675, 1.801486733606996, -0.9594456635257689, 2.402675493792974], [0.08300723257670348, 1.8143996467552903, 0.6066869190939045, -0.941978955089533, -1.0384132220404036, 1.938923885844826, -1.3330029255066043, -0.028822523221082686, 1.5006267761566336], [-0.3382614746583917, 2.2165958868297126, 0.9845211331476207, -0.48594566791681804, 2.5253405017779462, 1.8946661255506858, 0.8532812935032696, -0.6233481351813346, 0.8967245332699851], [1.4024889412585884, -0.08410860333815864, 1.6108301630951762, 0.8046939248100349, -0.7531754181103685, 2.183900849261376, -0.2871625928987385, -2.0766421200515865, 1.2033794397693753], [1.6957875167185235, 0.3368163996642116, 2.173593075523956, 0.293362349117269, 0.24564602597628368, -0.6860394975424758, 1.7499627652852878, 0.8047586601677775, 1.0929450584894216], [-0.3907145540531667, 0.5410221926061698, -0.9174444253558095, -0.8307394625734383, -1.349349854488147, 0.5091930696126882, 1.714705722809155, 0.1390369954751588, 2.0161560528901346], [-1.2388278124063696, 0.8078977500259195, -1.9577759649369892, 1.894253601793978, -0.7044352811548951, 0.3384652097065135, -1.0912573854968959, 1.0150111565957651, 1.8756886775591974], [0.38637316616728307, 1.9646818995597108, -1.9474535932185517, 1.554572103462855, 1.2359014471559002, 1.9175083145020955, -0.6601590527691388, 1.2489183730441316, 0.7182709658492619], [1.7958229975016449, 0.16923707438856914, -0.08644467252075402, 1.1670013280307205, 0.37297878486626646, 1.4646456278912947, 1.6768912302441517, -0.8229062812468257, 1.7807620961849213], [2.291430901292495, 0.4354977511460205, 1.4362622950782447, 1.0902918551842065, -2.4173665319128057, 1.1698719983680184, -0.330461381406249, 1.9730217772364467, -0.07266454757029608], [-1.6581266959220233, 2.300829160195938, 2.1654069868538963, -1.4013248979272301, 0.012758674693414213, 0.0774874261594157, -0.12572604027977557, 1.0141848186233366, 1.7512450530977406], [1.111719763393435, 0.5430272336663775, 2.079174978178761, -0.675004123451724, -1.4466209620277255, 1.574112424658696, 0.39330323174040205, 0.9717467271855027, 2.6339919452419007], [1.3070118244481996, 0.8796430596606597, -1.113159382362083, 2.075999223608363, 2.1411706996746798, 0.7901449227708232, -0.47190179456567816, -0.11612350981027843, 1.3437349515516293], [2.2039333845471547, -0.6036086082821436, 0.14247925388879468, -1.0375948477505603, 1.5882415776060792, 0.8165236004015095, -0.8995900318300946, 1.3805695359743517, -1.4048719706663708], [-0.30135783585321907, 0.5522867812656327, -2.060883622417163, 0.3275009788014641, 0.5193560804844053, 1.7213108597413171, 1.0598901031249703, 2.235139104118874, 0.5872077417239543]], "weights_ho": [[1.2289508109493092, -0.2547457588439538, -0.32817448405997096, 1.2243797302802146, 0.2345567226745957, -0.7785943548311134, 0.7590335554373412, -3.536085133275968, 2.4414123466789253, 0.3582746570137218, -0.20868222115640778, 0.3596283816940383, 1.2569801923512156, -0.43940498449569476, 0.43659999422872836, 0.736799631017176, 0.752569118258714, 1.379529285842936, -0.4067830615349185, 1.2514506876282483], [0.7015021715653826, 0.7609342171736704, 0.4429389357924567, -0.6575649991786818, 0.07404461516635344, 0.6460738690767163, 2.863618580289312, 1.0322085225238342, 0.7666249899131803, 3.79688101422106, -0.22568164784306446, 1.2182146884746698, 1.1116178189742254, 0.058634731166300746, 2.3069258683015956, 3.8399579061843223, -0.2015785171083651, 1.4929123437398693, -0.9123140069324145, 1.4832723053052161], [-0.33980305815575906, 0.8822952676636039, 1.9754920635690905, 0.5756886651508484, -0.42797361003686957, 1.4577402528753818, 0.47150775347603047, 1.7257071302701146, 0.1287452939457673, 0.10201690550303477, 0.3566728716837334, 0.21022207229359893, 0.10127797529110386, -0.009158707655718676, -3.6040334375321814, 0.45019741066801144, 0.10593371511804645, 1.4345179964458215, -0.602500791873102, 1.3678550025250726], [0.09586059499704265, -0.03235856386423315, 1.1141898602119609, 1.5700949336385026, 1.3625587727667692, -1.629265683099159, 2.263334158484718, -1.784402127251233, 3.0215904405758938, -1.5340822891491397, 0.8839541562698692, 1.9473834321108394, -0.08008792726581866, 2.466656318567933, 1.5835336223957677, 3.977075716119623, 2.5270432310136606, 1.6210926379466597, 3.0349353069375598, -0.6409582022756424]], "bias_h": [[-0.10856008200193912], [1.5433953737136905], [1.3642150564281836], [2.128984221205019], [-0.37181622564951256], [0.07877373302187465], [0.14296847894933198], [0.5785049649092728], [1.175560339759529], [2.053342445274136], [-0.5727891930962175], [0.9366837077759251], [0.11494265913547541], [0.33300708899918463], [1.4187030863176875], [1.6296133945174283], [-0.4945852868610483], [1.830369855091079], [2.8375832356624295], [0.8168002081031867]], "bias_o": [[1.3747787722076532], [0.47182870411666566], [2.9256989824857373], [3.735157418985515]]}, {"input_nodes": 9, "hidden_nodes": 20, "output_nodes": 4, "weights_ih": [[-0.5873929179933883, -0.5167430370867878, 1.5785596421603176, 0.4482894951971047, 3.685186675336111, 0.7790115956286596, 1.1099860876150567, 0.9178636239675342, -0.42818877388927873], [1.520229300996817, -0.48659794315162286, 1.4271874185006563, 0.8563082224226208, -0.0017984166707208232, 1.9974937615482353, 1.6833539498308465, 0.21442456522483236, 0.8291875928773991], [1.8984323944139767, 0.275647005316458, 0.19464125332956667, 1.8030606359291794, 0.5351717457824212, 1.2142681010979155, -0.5959217028171527, -0.6007332405828757, -0.4267556778075988], [1.6342599344653972, 2.378484155232548, -0.8628193994315234, 0.6661101461259287, 1.8826097897391423, 1.3123029843629535, -0.14756264193151652, -1.0328734478123494, -1.203614514980466], [0.09202517044666361, 1.9456232577985761, 0.3469114929382566, 0.9516825846345256, -0.8030366478103041, -1.5920893247647165, 0.5667275764614292, 1.321153894814862, 1.5808440424845176], [3.610478312248285, 0.5876080959905191, 0.7719847255122305, 0.9520285624531264, 0.4347678607414026, 0.2359740630725733, 1.7968887697099674, -1.1578578540926117, 2.4678746469022235], [0.1057731370930162, 1.736357661829902, 0.6385339434678465, -0.9041063552823136, -0.9072946349755919, 2.0039892005319175, -1.2899717183372523, -0.129875672782866, 1.5191517932146978], [-0.39084602009741154, 2.01465163658558, 1.0098368605701888, -0.6285087327653095, 2.4897169305452977, 1.9495310450568744, 0.8578166068142788, -0.6691671947935487, 0.9404891883782054], [1.2110051542558957, -0.16168885627348623, 1.6997912089072047, 0.6337614387164827, -0.7415188166210401, 2.1537394330408706, -0.2724821588789725, -2.03729600535649, 1.1531723757346222], [1.820767656815789, 0.20773101562377622, 2.287513359187957, 0.18144544023107273, 0.40586970962354485, -0.7590993991184636, 1.6690011782481122, 0.6087692922304748, 1.0561262857600422], [-0.38205625084975847, 0.5340354110932173, -0.8416351268249722, -0.8141527808240193, -1.3293582632863974, 0.7237806878374907, 1.6086195150208806, 0.14354295907732556, 2.0080567864457652], [-1.323958726932416, 0.7710649275044522, -2.1943503153811963, 1.9519707159123558, -0.7043368167535665, 0.12102664877590852, -1.0361196110722808, 0.9461743468372603, 1.8408491826256936], [0.3839908329567794, 1.952786810509928, -1.9671824868364378, 1.556855148586393, 1.2465600677438682, 1.9168193470759267, -0.6143209748093315, 1.3502698100566568, 0.6579767056439934], [1.8889882326547192, 0.18198233534525188, -0.26647059539350526, 1.4544331642513741, 0.3733367478758104, 1.5608772399634598, 1.7004259071592207, -0.8931571849344333, 1.688316688857117], [2.3154504743001665, 0.43363970678710145, 1.18879792849253, 1.1097298020380357, -2.527601722836421, 1.4378777046025044, -0.25147500122659516, 1.9966368849578275, -0.04765576235766323], [-1.6515544749710676, 2.1606453833893555, 2.176198161094447, -1.315506309319212, 0.15107905742990047, 0.06111482456809236, -0.1635292189409958, 0.9609668127399746, 1.6839837143898135], [0.9054784141150383, 0.5262651907336022, 2.38847703602318, -0.695974109614466, -1.4707011830213983, 1.5654563781081827, 0.2715574936665081, 0.984329301932058, 2.6124762405720885], [1.7241121089162577, 0.8486707108949492, -1.0317592774486037, 1.9611673798120037, 2.0039613194557737, 0.8825099313749336, -0.4220312074852809, -0.050264764085937705, 1.167714849943276], [2.175949238590788, -0.6112075868835043, 0.11505552217974642, -1.0909683263333718, 1.5113454038513903, 0.5895170624763646, -0.7887870390602771, 1.39270607249113, -1.327037143784771], [-0.19119831863523096, 0.6359850377130978, -2.1433904740611966, 0.32819449383892974, 0.5545395036681848, 1.728733304402269, 1.0618460324391474, 2.248711518198969, 0.9417719825032372]], "weights_ho": [[1.2790738000081148, -0.31516452754759183, -0.32665656830914386, 1.2152313491578082, 0.3310239962690751, -0.6692518073707174, 0.6033477193485628, -3.3620455334900003, 2.4333802136189036, 0.4227127812516157, -0.3090858777572445, 0.34366699441076626, 1.287993563070538, -0.5399309382853845, 0.31157921145725515, 0.7379221658198907, 0.7687616568029156, 1.3242602127340202, -0.2691419006427246, 1.1731382917031568], [0.7019879247821602, 0.7615104451846264, 0.4154712452060659, -0.7737556998266437, 0.08425075883408029, 0.7726030832440195, 2.835770332983924, 1.0387020446557502, 0.7602073865381216, 3.6982260207566493, -0.3567170236178776, 1.2528328591547555, 1.118024540377173, 0.1166819910516356, 2.325724785215346, 4.164843138690018, -0.17470463112812668, 1.5992408677520054, -0.8996972193419577, 1.5470440757161545], [-0.32997841164692515, 0.8704634991414072, 2.092403045545367, 0.6943611051546894, -0.4300587575503285, 1.3989630568610862, 0.5632509296766353, 1.775651447169228, 0.15770852232096397, 0.05228464300676656, 0.3253328112195567, 0.24044792114119992, -0.0720677576607003, -0.016133884692978977, -3.556739827517891, 0.4744252414924922, 0.12667498130272198, 1.4221755546050736, -0.6319577174260396, 1.362415293992715], [0.08238367262627122, -0.030226802775756186, 1.3018061929361129, 1.5923922047084451, 1.2328631727865602, -1.6379359796224717, 2.226351745681625, -1.7914345581287732, 3.076371246611553, -1.4434726125778705, 1.0291911375009688, 1.9286338694629173, -0.16500791348727564, 2.629436300305231, 1.594621404560766, 3.916601960704349, 2.6465485562360054, 1.5056419316390526, 3.0952559224532967, -0.5391732885746203]], "bias_h": [[-0.12895677208106504], [1.397637131541972], [1.3243857928655678], [2.122887038738946], [-0.5497800888622644], [0.06212866713925203], [0.024623334181901643], [0.6735305306434434], [1.1754122365573267], [1.9899534293960262], [-0.5982401917791627], [0.9285756814885081], [0.29611450941343276], [0.3883903884722917], [1.3814666825840372], [1.5243631345132949], [-0.40108849945470215], [1.9450292749830214], [2.762128473649719], [0.8806926445833768]], "bias_o": [[1.289841862667966], [0.35356500615234804], [2.9441439741939672], [3.721428007158636]]}, {"input_nodes": 9, "hidden_nodes": 20, "output_nodes": 4, "weights_ih": [[-0.5873929179933883, -0.5167430370867878, 1.5489192157538914, 0.4482894951971047, 3.735832391918282, 0.8201883175821906, 1.1099860876150567, 0.6896855572667594, -0.26868608870800437], [2.0913813148658935, -0.5027080417645345, 1.3738637857750378, 0.8591698471332616, -0.04546210743032754, 1.9588734798990153, 1.6833539498308465, 0.29867360363557477, 0.8291875928773991], [1.7409323784003494, 0.275647005316458, 0.10239552457767165, 1.7652943210281937, 0.5869528827299918, 1.2142681010979155, -0.5924208594795234, -0.6007332405828757, -0.4267556778075988], [1.6342599344653972, 2.378484155232548, -0.8968401099646239, 0.6661101461259287, 1.926752674708879, 1.3123029843629535, -0.1676531198036627, -1.0328734478123494, -1.308729498877192], [0.09202517044666361, 1.9456232577985761, 0.33689133851361885, 1.1773276616315278, -0.8228223537566551, -1.5920893247647165, 0.6403873972447038, 1.5738945310241905, 1.5578968944845375], [3.542819600736502, 0.5876080959905191, 0.7719847255122305, 1.0567876422161535, 0.57879608751522, 0.2359740630725733, 1.9545494710095395, -1.1578578540926117, 2.4566848897195226], [0.1057731370930162, 1.6489236415802422, 0.6410571588168182, -0.9041063552823136, -0.9260586819665554, 2.0039892005319175, -1.2899717183372523, -0.06794578755329678, 1.5191517932146978], [-0.39084602009741154, 2.01465163658558, 0.9761177042569048, -0.469013891647043, 2.571004308809345, 1.9482807597330591, 0.8578166068142788, -0.6505361489176611, 0.9404891883782054], [1.2110051542558957, -0.20229311018177323, 1.6997912089072047, 0.6106239109372188, -0.702371038820692, 2.2113200004261064, -0.2724821588789725, -1.9944464930874861, 1.0370056979741384], [1.820767656815789, 0.2650705070980971, 2.287513359187957, 0.20612544106378805, 0.26297757021943213, -0.7590993991184636, 1.617845177866291, 0.5957055785893869, 0.9837853253401564], [-0.38205625084975847, 0.5340354110932173, -0.8993810635157031, -0.7551002424991675, -1.1943776637131127, 0.7195941611274391, 1.4162250398199419, 0.14354295907732556, 1.9805632110035134], [-1.323958726932416, 0.7710649275044522, -1.9476371709712035, 1.8594044257084679, -0.7043368167535665, 0.12102664877590852, -0.8998498398061282, 0.9515060868683551, 1.8408491826256936], [0.3839908329567794, 1.956697754239054, -1.9671824868364378, 1.5388898657155923, 1.2934970584219518, 1.963107657468172, -0.7022132725810102, 1.344280065043102, 0.627225373869249], [1.9010612270956757, 0.18198233534525188, -0.19598893531296654, 1.4154056034224753, 0.3733367478758104, 1.4504377969338729, 1.7004259071592207, -0.8645590417923077, 1.6840001529669997], [2.3154504743001665, 0.4764746662906587, 1.3263684742866104, 1.1639733073940097, -2.569410220903177, 1.4378777046025044, -0.32848670518824197, 1.9966368849578275, -0.0200359293202509], [-1.5764064530988133, 2.20905136753031, 2.1799380231452066, -1.315506309319212, 0.18845459066670314, 0.11918193025214299, -0.1283965303743831, 0.9609668127399746, 1.6839837143898135], [1.1297427436910743, 0.563741381859725, 2.2653300517686743, -0.6781499611023158, -1.4254728832190109, 1.7250876514810431, 0.34261976926710846, 0.984329301932058, 2.6124762405720885], [1.3408198508589226, 0.8593944800533666, -1.0830144618310165, 1.9611673798120037, 2.115778727623647, 0.8488676136384741, -0.4220312074852809, -0.10027515818012893, 1.167714849943276], [2.1913032948934736, -0.6112075868835043, 0.11505552217974642, -1.303960997809002, 1.7086457726957036, 0.5895170624763646, -0.902302772162163, 1.39270607249113, -1.3815813567096131], [-0.19119831863523096, 0.6359850377130978, -2.039881909335234, 0.32819449383892974, 0.5545395036681848, 1.728733304402269, 1.0618460324391474, 2.248711518198969, 0.8380081168544928]], "weights_ho": [[1.3629483034683667, -0.21685161156429503, -0.30783794152040256, 1.28933798968018, 0.3310239962690751, -0.7594517213857289, 0.5994272103168059, -3.392423350251212, 2.4333802136189036, 0.3657653515566013, -0.3290497943907211, 0.29303950805750706, 1.287993563070538, -0.5288837216488751, 0.40360381001574297, 0.7379221658198907, 0.7687616568029156, 1.2663579964688931, -0.2691419006427246, 1.152459108574842], [0.7845269278453465, 0.7615104451846264, 0.4154712452060659, -0.7737556998266437, 0.05632109030624988, 0.7726030832440195, 2.806003837640331, 1.0387020446557502, 0.7816834558608382, 3.643297824565076, -0.44086520950875746, 1.2528328591547555, 1.118024540377173, 0.10762678909101359, 2.3611817967920437, 4.044041952065433, -0.31555229072267577, 1.5992408677520054, -0.8996972193419577, 1.5470440757161545], [-0.24457439386465557, 0.8704634991414072, 1.9559100395626996, 0.6943611051546894, -0.4370738888761703, 1.4124514534603996, 0.5632509296766353, 1.701744219377062, 0.15770852232096397, 0.05228464300676656, 0.3253328112195567, 0.2358437237384538, 0.07358105009560349, 0.026571631166191503, -3.6058470365875817, 0.5086055451259457, 0.12667498130272198, 1.4221755546050736, -0.6161932024051955, 1.362415293992715], [0.08238367262627122, -0.030226802775756186, 1.1200313670840476, 1.598714327801746, 1.2328631727865602, -1.6379359796224717, 2.262330838843758, -1.742800243862864, 3.0810165125242612, -1.505512419041802, 0.9728075051522551, 1.956334237963134, -0.11274938135511162, 2.6463508402762486, 1.594621404560766, 3.893048936988138, 2.6465485562360054, 1.6839418769186556, 3.0487699459149065, -0.5391732885746203]], "bias_h": [[-0.12789027754709142], [1.397637131541972], [1.3243857928655678], [2.1282906514462274], [-0.5497800888622644], [-0.06339776827526017], [0.008320507757087472], [0.6735305306434434], [1.1573651738712178], [1.9899534293960262], [-0.6125709276939949], [0.9272426298239591], [0.033316658439858995], [0.3883903884722917], [1.428501451303815], [1.5243631345132949], [-0.40108849945470215], [1.766295531589402], [2.9092490986217783], [0.6666353520373932]], "bias_o": [[1.2282327675017939], [0.5791365654179753], [2.754770152768402], [3.7714381396009578]]}, {"input_nodes": 9, "hidden_nodes": 20, "output_nodes": 4, "weights_ih": [[-0.4790170017918589, -0.5449777822198701, 1.4833336286129863, 0.43649820845908294, 3.73906255797905, 0.7678911513552676, 1.2116689851880307, 0.8340240697728888, -0.477319940885738], [1.7872967171990868, -0.5567278946082929, 1.2698151583027462, 0.7774703403047902, -0.1354063268661626, 2.0250762973870406, 1.6832979228175788, 0.10092694822265974, 0.8221663328877924], [1.8686590805584644, 0.27745135597195847, 0.34327109387883953, 1.618675145957853, 0.49147972196190337, 1.5132339884109938, -0.6161890403126935, -0.6448493317022876, -0.42021209197004894], [1.6398106762436553, 2.3818213142541573, -0.804321454022155, 0.7394282324516093, 1.9189732127177268, 1.341112507469624, -0.034783262385902194, -1.0325995154985677, -1.1601877207380853], [0.028186643307690593, 1.8909827858183883, 0.24990251260561647, 1.0929516028068198, -0.6960580177718794, -1.5852311024168264, 0.6961755479020193, 1.4121177708963977, 1.573416393041775], [3.534980979074451, 0.5296616862839114, 0.796074834626262, 1.0583017227592981, 0.5645930058582822, 0.3299621169483852, 1.7997679006417104, -1.0375215213614004, 2.3994655227052037], [0.11376051492397495, 1.7606307128770473, 0.6750469346771414, -0.9258652603695896, -0.9563054705982456, 1.9394280760638798, -1.3662745710383908, -0.028822523221082686, 1.4696209517672367], [-0.3382614746583917, 2.1002954548289483, 0.9916160616439799, -0.42115913135403676, 2.510873957809573, 1.719965158403451, 0.8532812935032696, -0.6123946288574315, 0.9306119508749211], [1.2340457773330085, -0.19826558587168908, 1.6519777566025684, 0.6607708908756197, -0.7547467807474257, 2.276252607013337, -0.2871625928987385, -2.0410065984186545, 1.1492471234974153], [1.7201674621446323, 0.18296174149949176, 2.201179897052838, 0.16766618414984674, 0.24564602597628368, -0.7595330128876285, 1.6570410234202728, 0.7068255321644656, 0.9540101433736279], [-0.3984188013097411, 0.5410221926061698, -0.9345048359818975, -0.9065721302960126, -1.349349854488147, 0.7187032909902596, 1.6044385865102997, 0.1407522970486922, 2.0161560528901346], [-1.2405028533128384, 0.8163651819194334, -1.9554539785734621, 1.8757843382386667, -0.7044352811548951, 0.1619629084010725, -0.951927867001017, 0.9669970784418345, 1.8756886775591974], [0.3391352992955815, 1.9646818995597108, -1.9601803198891576, 1.5615045038309159, 1.2373190613986216, 1.9412870683031782, -0.6510161914167698, 1.3504991003690818, 0.6754934851028268], [1.8197017079801434, 0.24264710249108784, -0.159408500131815, 1.3117751433888545, 0.3315015113820665, 1.4572949823526344, 1.6768912302441517, -0.8337878071623086, 1.7299803960014994], [2.276401070958621, 0.471797671249125, 1.2778500949070426, 1.063718548438466, -2.432884800836791, 1.3239277644002145, -0.330461381406249, 1.9811688555719393, -0.08791421727141671], [-1.6581266959220233, 2.361901309678709, 2.0985605927470012, -1.4013248979272301, 0.06124945048517261, 0.24355668392133745, -0.12572604027977557, 0.992529729178167, 1.7512450530977406], [1.0934020291173485, 0.560392068984225, 2.126095963338604, -0.6680939003237171, -1.4349702159223354, 1.5708345213153663, 0.335000476203718, 0.9853015426933932, 2.6242719553542555], [1.3642203131855153, 0.9364466094335893, -1.0801506272265753, 1.9362970470742118, 2.145134732518623, 0.8204350169920488, -0.47190179456567816, -0.11612350981027843, 1.1697320094201753], [2.3350540629042937, -0.6036086082821436, 0.14474784261825827, -1.063965683324588, 1.5465842916740287, 0.6974471862481078, -0.9167778367284101, 1.33201296228731, -1.4048719706663708], [-0.33133931781488024, 0.6000858233324118, -2.2256780161363148, 0.38942227879606484, 0.5753179842572476, 1.763750350100483, 0.9717145974190993, 2.248889784685854, 0.6651716667185351]], "weights_ho": [[1.2373739323572757, -0.2178210259026947, -0.2963405359343198, 1.239667059698931, 0.3671008551585881, -0.7626778583472327, 0.5213821494424009, -3.471465895307836, 2.444973727167272, 0.3582746570137218, -0.313375396840877, 0.3596283816940383, 1.3930993698698435, -0.5051247178573177, 0.4309838481350339, 0.736799631017176, 0.6771957807718791, 1.316951483793253, -0.34856853284219375, 1.1961970364642798], [0.8353128238310488, 0.7609342171736704, 0.46318132796565786, -0.8471850806974976, 0.0721889745073595, 0.5828450990740756, 2.8338395772260303, 1.0322085225238342, 0.7772301882553039, 3.6937995566685213, -0.3128958429541242, 1.2744792265423566, 1.0348337968504246, 0.1135841968472825, 2.3069258683015956, 3.8521092969302573, -0.24396277368356495, 1.4958159031100307, -0.8991062950611728, 1.5147298901251451], [-0.43975052462182507, 0.859775618514598, 1.9684236383846592, 0.7171270389344586, -0.4783064753119066, 1.4624586334825436, 0.5324387090666232, 1.703334585313974, 0.1287452939457673, 0.10856849648773749, 0.3330553746963615, 0.21022207229359893, 0.055873213996372344, -0.01933427109030347, -3.468203412278365, 0.598043090181027, 0.25841470120405113, 1.4345179964458215, -0.4639929054807821, 1.3665707621776786], [0.08262728409562276, -0.013015047988730356, 1.1141898602119609, 1.597118885880991, 1.339988041316351, -1.7563931746092647, 2.263334158484718, -1.759960715725446, 3.0215904405758938, -1.5203241945686754, 0.8736531416709415, 2.0833277123416636, -0.10214720339520733, 2.492616217118358, 1.5835336223957677, 3.7737749715564504, 2.5418732805337267, 1.5020307720438526, 3.0583423186559946, -0.6103525534097044]], "bias_h": [[-0.1234811183387875], [1.5198911588284942], [1.450015573808061], [2.1195961585647733], [-0.3219550835282451], [0.12374892555547884], [0.11681674254096042], [0.6137041664047039], [1.1512812102713124], [1.9908832992280217], [-0.4802757720892835], [0.930461743273321], [0.09694053387035031], [0.3660346367293449], [1.4187030863176875], [1.539944783380925], [-0.3857745395511786], [1.7887889855191683], [2.798446944597334], [0.7916801730692608]], "bias_o": [[1.2410881314164204], [0.47182870411666566], [2.9256989824857373], [3.735157418985515]]}, {"input_nodes": 9, "hidden_nodes": 20, "output_nodes": 4, "weights_ih": [[-0.5891151385168742, -0.5524887733512202, 1.5775847589281673, 0.44060430422695845, 3.6876742221603185, 0.8098615237492486, 1.1814407031034062, 0.838456487583433, -0.32775038362321285], [1.842091974014734, -0.5758517368310955, 1.4303737642513936, 0.8185746269844136, -0.015477707090397502, 1.9580363557023277, 1.6834099768441142, 0.28971180957400083, 0.8268537852634112], [1.8999272306646853, 0.26866613556097285, 0.07875058790385475, 1.6896990576255102, 0.5524949049930152, 1.1855722516418563, -0.5037656849701309, -0.5963978985371425, -0.4334872896956267], [1.639959822201368, 2.3751469962109386, -0.8591564011036191, 0.6606693380885702, 1.934532136700031, 1.3180837348845733, -0.1584838115091291, -1.0277536667511784, -1.1554558479702135], [0.09716231290861489, 1.9117942701921669, 0.3116774369425488, 0.9848374662499939, -0.7921738750506089, -1.5933127858521112, 0.6513342382944383, 1.3806486293270614, 1.5813250717016758], [3.5506582223985537, 0.5780628504469512, 0.7729863537903449, 0.9305570669358747, 0.4419012088857065, 0.2107137990774543, 1.7922908058129385, -1.167569305319518, 2.4120362305831096], [0.10466291967710362, 1.6555399237349053, 0.6316016474536403, -0.9580949864190751, -0.9443310993678344, 1.967577595968117, -1.2050010834568563, -0.10281099056799828, 1.51002953888386], [-0.3380389021230281, 2.0169111985352, 1.0123104139315395, -0.4888373570841344, 2.4830264472493955, 1.8372496488167782, 0.8822637678893407, -0.6483919764381791, 0.8878326608134472], [1.208222277816901, -0.12115254417623639, 1.6993327284367203, 0.6624621512190755, -0.7743625477830183, 2.1326753340703406, -0.27764088452299396, -1.9823268111798236, 1.1664751349681917], [1.7677958455300296, 0.18420047219202335, 2.297090597646279, 0.18823110168989612, 0.30952444601955686, -0.6638877256224859, 1.6114502805665734, 0.5593584023331982, 1.0744918293772627], [-0.4144845018078074, 0.7031651559972015, -0.9126053956356395, -0.8028295165572749, -1.3245683918378928, 0.7022592422884484, 1.5705247283928547, 0.14461831953242554, 2.0361462770192214], [-1.285498529283506, 0.7621569140759014, -1.9374983770054177, 1.952767380716168, -0.704238352352238, 0.12026661643569096, -0.864734842323692, 0.961381209382776, 1.8407384539849847], [0.3684736501688978, 1.9487136089183974, -1.9614579271131118, 1.5273081101030086, 1.232635134008845, 1.920085590276333, -0.6141367486501651, 1.350040519744232, 0.6217347433821063], [1.7749926892256607, 0.2030822691993184, -0.11736107893948748, 1.4478796318399925, 0.3736947108853544, 1.4316252764760242, 1.7050261678298504, -0.8284657818637146, 1.760970526357709], [2.353587937145168, 0.5724254001683979, 1.3209472036826297, 1.0811815008151462, -2.5722568447867675, 1.4395089408846857, -0.24950032500858813, 1.984817609822815, -0.052036441031765926], [-1.6449822540201118, 2.164316725893366, 2.089954703312844, -1.391088547201541, 0.207539175848178, 0.2059152023056434, -0.1310670204689906, 0.9655384310575021, 1.7785766525313256], [1.1162665400181861, 0.45833563931517046, 2.2740580998173665, -0.6991199472650578, -1.4654124881145785, 1.5568003315576697, 0.43815431171609337, 0.9698022456628324, 2.5584258192707416], [1.4602020205393953, 1.0346133377658357, -0.9226048601084746, 1.9784808066875714, 2.223830213276932, 0.9138710506973551, -0.5333984914663825, -0.052314505348303175, 1.1656976904663765], [2.199829922615322, -0.6188065654848649, 0.12062030309321012, -1.0897060630260382, 1.519519125819397, 0.6277540510043114, -0.9050155124942316, 1.404842609007908, -1.3205165599067923], [-0.039590631905703305, 0.6294889186251289, -2.418603015464438, 0.32646762009549285, 0.5629505322609474, 1.7360245291466998, 0.9420491109128051, 2.243227623453194, 0.7337333425301056]], "weights_ho": [[1.3879812594471257, -0.21588219722589536, -0.2744086744905582, 1.2328728718689637, 0.31379850847508967, -0.6819421668930944, 0.5465946780903437, -3.345270879096831, 2.472359388864686, 0.4122062886667198, -0.34427215521036536, 0.3604648268180509, 1.2873118969575945, -0.5293419051914079, 0.3373145808903051, 0.7390447006226054, 0.7996362122626594, 1.2563960001220842, -0.2814056256271962, 1.2236606041725024], [0.7024736779989378, 0.957186481123153, 0.41488096193614743, -0.8038247541568515, -0.07526480869521385, 0.7461070869744202, 2.837713596461506, 1.0383018743081613, 0.7540554558015324, 3.882036672810973, -0.31282482935427564, 1.2737451162662974, 1.0422362717499476, 0.07577873933962712, 2.325099703331911, 3.920345950970958, -0.12020791098955884, 1.5804419028081016, -0.8739096984135586, 1.547900676487235], [-0.32015376513809124, 0.8784794236137458, 1.9588419025319297, 0.689040603388783, -0.4395923467248269, 1.4155125833461426, 0.5680502826792755, 1.7623032708999116, 0.1288866478594125, 0.03871631492107898, 0.220961998710398, 0.20012594780247037, 0.22369451432368476, -0.022150043728502475, -3.600358074350893, 0.4594033619141382, 0.12374186188812406, 1.2228796592263973, -0.632333656298445, 1.3569755854603573], [0.08433590701790342, -0.03944188192400534, 0.9915496516026561, 1.5985952328520603, 1.2310266180737155, -1.6419362812189553, 2.2145471519515274, -1.7864700848978132, 3.073731573027902, -1.4424189316314617, 0.9960448658926899, 1.955431020756981, -0.11118096558672433, 2.6076408975317817, 1.6057091867257645, 3.868896564214591, 2.6383413373761444, 1.8351799049071642, 3.086166399982703, -0.5892991696765858]], "bias_h": [[-0.1256568553600827], [1.4156371081171946], [1.3949611359333538], [2.0898084804166235], [-0.4114674490809703], [0.2566257213609618], [-0.06221203073215693], [0.6185045153861071], [1.1808991013342947], [1.9737104731838777], [-0.6046610428265322], [0.9315785325417504], [0.16065647191051885], [0.3777185924850783], [1.4132572715319918], [1.5086429013602065], [-0.3955299616157252], [1.8750590783702472], [2.8796658040276992], [0.8601151425690357]], "bias_o": [[1.2041139496221112], [0.6596220635753667], [2.9033470466301727], [3.7762288451466857]]}, {"input_nodes": 9, "hidden_nodes": 20, "output_nodes": 4, "weights_ih": [[-0.592559579563846, -0.4892081023758424, 1.631632869126337, 0.42851675682059576, 3.613557186631502, 0.8759563234018032, 1.0546642682979286, 0.8428889053939772, -0.4186867868144149], [1.7474597165753751, -0.5240397119561728, 1.2293267587067733, 0.8306077582817031, 0.02099206267864122, 1.9949823889581724, 1.6835220308706498, 0.27735697001338133, 0.8301451866516254], [1.9028396540881731, 0.25403427626400277, 0.15703116924898491, 1.7681506236943594, 0.5313696378677019, 1.0362167896791106, -0.5820754850829516, -0.5877272144456762, -0.4243808030658306], [1.7831632656442082, 2.1210993021095743, -0.8595836333149852, 0.6497877220138535, 1.9500910606823352, 1.364242692539307, -0.2694942362855218, -1.07251708323477, -1.1507239752023415], [0.10743659783251744, 1.9326057545659454, 0.26575324874251594, 1.137754320611342, -0.8800213009955828, -1.5957597080269008, 0.4728650108395623, 1.3662485563071294, 1.5676970959289158], [3.5663354657226565, 0.7885659324713783, 0.717254373456174, 1.0721279829096975, 0.4599102273740417, 0.13968254249363374, 1.7830948780188813, -1.1678175897289211, 2.398079672083069], [0.06481204208296082, 1.7562065082938911, 0.6260561805227783, -0.9742110177486171, -0.8946485612875974, 2.093102482552412, -1.3378609271633488, -0.21183324785151186, 1.4727699384346347], [-0.4432079930010678, 1.906189610299569, 1.0188061893363167, -0.42162504042666765, 2.5108834406428815, 1.8498499360823724, 0.8714225467473065, -0.5167298759926807, 0.971676116982747], [1.1799069673602371, -0.20309877352577319, 1.704098456472655, 0.7377148695591617, -0.7924069521815535, 2.1335035152707773, -0.26811917614724934, -2.0134525723186805, 1.1477267808030578], [1.7910442834893177, 0.14515210102840237, 2.3826596066422203, 0.22489290772995055, 0.2275953180029612, -0.8582854238507971, 1.6784004603282847, 0.5359518277874185, 1.030339464990648], [-0.37937647846744466, 0.5130750665543599, -0.9657700659038071, -0.7643927355757623, -1.2997869291876385, 0.7303659231234594, 1.5623260335684532, 0.1467690404426255, 1.9819475614455941], [-1.2615582956420335, 0.7164160781258833, -1.9078843277799533, 1.9887830116818315, -0.714762203112596, 0.07857032447030943, -0.8829227313532898, 0.8948421493317584, 1.8057882304107717], [0.37306300473686194, 1.932745318277084, -2.0429056171827553, 1.4672349598464274, 1.0756756415102495, 2.0092032314468713, -0.6165014665064447, 1.283055117645196, 0.610753482407821], [1.7696852137829282, 0.22857279111268392, -0.2078741999723786, 1.559680337329181, 0.3744106369044423, 1.4519181772935696, 1.7415122996553476, -0.8122622306496378, 1.765581010995211], [2.2632974021897123, 0.40375662139412233, 1.2909510731963885, 1.2200123678482988, -2.5998553002890272, 1.3671177875886669, -0.32256267653422077, 1.9803192857381977, -0.02882527724347983], [-1.773865390514333, 2.230662463657466, 2.1826246972590653, -1.3615619297072128, 0.21098686328319122, 0.19008697102314093, -0.13640800065820566, 0.9168920434916676, 1.7324141662153894], [1.198461708731717, 0.5852753688649717, 2.2915141959147505, -0.6731911331630833, -1.4170489068074372, 1.5394882384566433, 0.33161590873106855, 0.9407481331243809, 2.657194995411979], [1.4684997021508783, 0.781475780991465, -1.0826460543293437, 2.0335708429805677, 2.091691516101773, 0.7956079109436772, -0.3922437486827386, -0.08852628907471036, 1.1616633715125777], [2.2015291217563338, -0.6340045226875863, 0.0942241748386984, -1.1418172783015164, 1.534111245896816, 0.5667051486855508, -0.9104409931583688, 1.4624485535199792, -1.3390244823817916], [-0.19436577085259749, 0.5946525987725607, -1.8871176248954726, 0.3224133986221046, 0.6183203433572837, 1.7506069786355611, 1.0677138203816794, 2.2513184060297036, 0.6017813494801195]], "weights_ho": [[1.429126545169421, -0.213943368549096, -0.2352084436078622, 1.2685382030432821, 0.33124720989020534, -0.7975227999528598, 0.6188697555785224, -3.333007914382578, 2.2457671934963948, 0.2062811350096861, -0.5378823732202297, 0.3613012719420635, 1.2111351660435727, -0.5413054889129831, 0.36895773017237543, 0.6921786735208715, 1.0925258399150883, 1.280364629572731, -0.27245724710492336, 1.236628219520914], [0.7034451844324928, 0.7632391292174945, 0.45389371850193, -0.8216182261861416, 0.06871301271395167, 0.706842860940818, 2.811833628073077, 0.968415913583087, 0.7632276636510703, 3.674236468021455, -0.17706196520516618, 1.329275544057925, 0.9728547245256699, 0.06994168085798211, 2.2529146538250737, 3.955765349526881, -0.03718063191829593, 1.5625057333259893, -0.8389588518425418, 1.549613878029396], [-0.3005044721204234, 0.9018607114903454, 1.7182650705077194, 0.6398352695879026, -0.47708450326281426, 1.390824945801207, 0.5998873808868259, 1.7640907564347472, 0.18681310460980582, -0.03768745763028225, 0.30216512078914237, 0.08533863081632775, 0.16654460434868198, -0.09325723759879992, -3.590119596113233, 0.48640413542894756, 0.11787562305892818, 1.490531397668094, -0.6330855340432557, 1.3460961683956418], [0.11488598552603055, 0.1446240599771092, 1.1042634958155852, 1.6019773958467534, 1.1446359262814982, -1.6917813456115103, 2.2955000326131474, -1.752397649958314, 2.9924506825904564, -1.5023513762025753, 1.0029759930183813, 1.935835171224312, -0.12742728637542092, 2.4739641289837495, 1.6278847510557612, 3.801151429759825, 2.7554034723458187, 1.6077444358186779, 3.1066978174749917, -0.5162671989229248]], "bias_h": [[-0.13170392790871482], [1.3348872722910907], [1.573429401136368], [1.9995442395437815], [-0.40730809293076836], [0.25872130454350006], [-0.057214758034610465], [0.6677588408727235], [1.1276011325211233], [1.98716381990004], [-0.6299583333608502], [0.9362511829836858], [0.17852194043248065], [0.37024256612711737], [1.2549263025216306], [1.4772024350540298], [-0.40528538368027184], [1.8114121168757162], [2.849802701557726], [0.9029184536360159]], "bias_o": [[1.213979805020184], [0.7007889930819792], [2.8809951107746086], [3.817300271307856]]}, {"input_nodes": 9, "hidden_nodes": 20, "output_nodes": 4, "weights_ih": [[-0.5873929179933883, -0.5310353622588633, 1.5590358799217265, 0.46595246652490807, 3.685186675336111, 0.7837402437172166, 1.1902779301178237, 0.6754776044747399, -0.42818877388927873], [1.8469976786084805, -0.5323358615021525, 1.4072921616002834, 0.7472545730420633, -0.03371259197491686, 1.9107730287056073, 1.6833539498308465, 0.12442998184593324, 0.8160231578100087], [1.8984710189529412, 0.2759820652094579, 0.1612739833610155, 1.6852067534844601, 0.5034087355978469, 1.1949803957037117, -0.5072141431023215, -0.6007332405828757, -0.4380405330105248], [1.635739568629404, 2.378484155232548, -0.8299907330920742, 0.7339874244142509, 1.926752674708879, 1.3204600782550049, -0.10779289036689901, -1.0328734478123494, -1.1578217843541494], [0.09202517044666361, 1.9013885280052776, 0.3169246404485232, 0.9776004498211566, -0.7019733791847457, -1.5439469216919586, 0.66494422027303, 1.336668806806886, 1.5769601450099207], [3.542819600736502, 0.5430674578957687, 0.7597248392122035, 1.0979639807370694, 0.4374649242005231, 0.2800726017358405, 1.9236303483075865, -1.1415833422582748, 2.4041458911002715], [0.12458835847417501, 1.736357661829902, 0.652062683390905, -0.9339232760343606, -0.9429245134395132, 1.9537549311255253, -1.265739544585469, -0.0967816995093251, 1.47432233313085], [-0.33815018839070987, 2.0559796873735916, 0.9984135935670642, -0.38035329442793386, 2.3109685697248383, 1.8493927346227208, 0.8578166068142788, -0.6342320724237975, 0.9393283021738335], [1.252958799412835, -0.15891689210664828, 1.6962290392733403, 0.6773693190926746, -0.7653403455837506, 2.132261243470122, -0.28240173871086627, -1.987237089336573, 1.1171840087794278], [1.7561716265503855, 0.16108500831756625, 2.205169205642632, 0.18409823008053755, 0.4481939589002486, -0.7590993991184636, 1.6542448849876645, 0.59065726006772, 1.0711918338944049], [-0.41030377518706146, 0.5340354110932173, -0.9275517536658201, -0.8899854485465934, -1.33695912316302, 0.7326196432791314, 1.5323480893021495, 0.14354295907732556, 2.0727440866334703], [-1.1828131650688678, 0.7934947639444243, -1.9453151846076766, 1.9885265176425964, -0.7043368167535665, 0.14111476241838172, -0.8902272101067756, 0.9113091905791489, 1.5840468901792513], [0.41354897781175365, 1.956697754239054, -1.9671824868364378, 1.556201650916419, 1.2423918573425854, 2.0985394130261863, -0.6269536291588179, 1.3502698100566568, 0.627225373869249], [1.8131672620504644, 0.25956969989646245, -0.13802827032260367, 1.4096467905143149, 0.3318594743916105, 1.4504377969338729, 1.690958699037001, -0.836567557470753, 1.6840619671794081], [2.287950123941701, 0.5271755272110272, 1.262343701770475, 1.04292735438623, -2.486266127392839, 1.4378777046025044, -0.25147500122659516, 2.128815132104563, -0.07760016400215164], [-1.6515544749710676, 2.161708519893397, 2.3041488094677463, -1.1979223841345619, 0.1290661761407157, 0.23564256828008623, -0.1283965303743831, 0.9443496633326458, 1.7210100687999774], [1.0049924860633175, 0.5709541027838735, 2.2235375241579063, -0.695974109614466, -1.4669801288669555, 1.5656222048840567, 0.2715574936665081, 0.984329301932058, 2.588132294086708], [1.444126022771154, 0.8889284153726491, -1.1467514913743333, 1.9447787911322139, 2.022929544879495, 0.8825099313749336, -0.5227511915791757, -0.05921381053219519, 1.167714849943276], [2.175949238590788, -0.6112075868835043, 0.13381836722046597, -1.1926848545642148, 1.5122230657806877, 0.6669227350887275, -0.9194905770604787, 1.39270607249113, -1.3884100985952261], [-0.3045913015647248, 0.6386868920121598, -2.269386757022831, 0.38890559944307923, 0.5971152101455186, 1.728733304402269, 1.0618460324391474, 2.2529340443530144, 0.7384344671216108]], "weights_ho": [[1.371002753914842, -0.21685161156429503, -0.268372856480154, 1.241761159861343, 0.30507415776753183, -0.6692518073707174, 0.6563438155109074, -3.432426595276069, 2.4604472482601523, 0.41371418768772805, -0.3090858777572445, 0.3764997445562345, 1.3254002624146053, -0.55032100274342, 0.3353288421865783, 0.7379221658198907, 0.7761026652606866, 1.255384840932827, -0.368110177744106, 1.155259985948507], [0.6838147854867749, 0.7615104451846264, 0.44915234103750323, -0.8466799225172386, 0.08425075883408029, 0.6967518429640587, 2.835770332983924, 1.0352551984159977, 0.7602073865381216, 3.6865527785037666, -0.3454561917214437, 1.3022444404381703, 1.0769270453620865, 0.3360494170232762, 2.4686653934982394, 3.8792203786850434, -0.20593151450558966, 1.5134882334420927, -0.8980799106360959, 1.5470440757161545], [-0.42992587811299116, 0.6746727573541849, 1.9600985578660788, 0.6943611051546894, -0.48411584365588534, 1.4346006004182672, 0.5807099736682457, 1.7126079589775922, 0.1288159709025899, 0.0769182011967596, 0.3253328112195567, 0.17900121192428115, 0.11759463255549839, -0.047182697056280615, -3.5520572239056385, 0.5093372509884613, 0.14358457071602693, 1.4221755546050736, -0.6319577174260396, 1.362415293992715], [0.07686494010605313, -0.016556707018616452, 1.1062659425962806, 1.5923495021438798, 1.2742219639698242, -1.6379359796224717, 2.220951108637056, -1.7853118516816906, 3.0143055010795345, -1.4434726125778705, 0.9296984964823519, 1.9561728927859647, -0.10657055757654198, 2.5465926728731767, 1.5628986992245246, 3.8245382593024626, 2.597522333714969, 1.5705551496514887, 3.065324049882097, -0.5824942218140183]], "bias_h": [[-0.1320295050178593], [1.4560120260302463], [1.3578583821928183], [2.103693569119126], [-0.37954388527231775], [0.11229377258690598], [0.05369506509078903], [0.633703941643121], [1.1470276604383423], [1.9899534293960262], [-0.5868885267693831], [0.9285756814885081], [0.10383429156203908], [0.3883903884722917], [1.2455940686944407], [1.5243631345132949], [-0.3906522505834519], [1.7762423880434874], [2.7847941499968423], [0.8272096201657101]], "bias_o": [[1.24467952463909], [0.529068776357994], [2.914523014557955], [3.4954444154082447]]}, {"input_nodes": 9, "hidden_nodes": 20, "output_nodes": 4, "weights_ih": [[-0.5790472482742159, -0.5170929422978563, 1.5712397218175984, 0.4623145555175944, 3.7326022258575136, 0.8202822287967497, 1.1798567927368722, 0.8912227424190701, -0.4129722263811325], [1.7845904683106149, -0.5302025057140174, 1.2681637601890245, 0.803365162886736, -0.015477707090397502, 2.1995832062554155, 1.8247623054439281, 0.09595066920553835, 0.8176688585041157], [1.9458653523928762, 0.26866613556097285, 0.22755613803612873, 1.759166015412259, 0.5574607615779397, 1.1203026647223389, -0.5889724013473328, -0.5963978985371425, -0.5380292106845215], [1.7171122857010461, 2.2514603081818656, -0.8065351537742897, 0.7285466163768926, 1.934532136700031, 1.3180837348845733, -0.15891448730585916, -1.055255156054145, -1.1554558479702135], [0.1941871861418518, 1.9117942701921669, 0.32169759136718656, 1.0901293086752686, -0.707888740597612, -1.5933127858521112, 0.6146681194197137, 1.32946877029692, 1.5583779237016957], [3.5506582223985537, 0.60260644254773, 0.6280614483115285, 1.0506363270596717, 0.4612512498481659, 0.23327591532177155, 1.5638892608848007, -1.1417074844629767, 2.3971676118502514], [0.10466291967710362, 1.7429739439845648, 0.6502879167048946, -0.9419812916991317, -0.9274652678948765, 2.0165173744176728, -1.2978573966953566, -0.06599738391948562, 1.479023714494463], [-0.39073473382972973, 2.0006188932557762, 1.0052111254901483, -0.40726748712632965, 2.5036454272420405, 1.855692878255518, 0.862351920125288, -0.6332087040806937, 0.9505635908266481], [1.2057304668763447, -0.20071368851854793, 1.6986119032913076, 0.6294168948145864, -0.7743625477830183, 2.1326753340703406, -0.27764088452299396, -2.0251763234488274, 1.1214207940142564], [1.7633050076434869, 0.13322053091781313, 2.2091585142324255, 0.20242913310056476, 0.2624166159842232, -0.8107472953214423, 1.6621419746776096, 0.5724221159742862, 1.0491156517010976], [-0.39274976351688007, 0.5270486295802648, -0.8894255565512421, -0.8733987667971745, -1.3245683918378928, 0.7466729836966369, 1.5057686126293575, 0.14461831953242554, 1.9990518071678642], [-1.2518680949306704, 0.7706243459694153, -1.9305081599949443, 1.90125758839156, -0.704238352352238, 0.12026661643569096, -0.8449619295103405, 0.9069125748098312, 1.8407384539849847], [0.3324802185803709, 1.9487136089183974, -1.9614579271131118, 1.517835932022702, 1.155609767989835, 1.938904362457201, -0.6120339282532351, 1.316777109007139, 0.6217347433821063], [1.802974555476513, 0.08118960911646367, -0.22012326385762732, 1.4085124855310487, 0.43946708184967426, 1.4509312570537718, 1.8479597254637676, -0.8284657818637146, 1.7223898534066444], [2.26233432140723, 0.43730304647217116, 1.2844005840517156, 1.1418654581433825, -2.524129185024902, 1.4395089408846857, -0.3265120289702349, 1.984817609822815, 0.02072094310690767], [-1.715996043218178, 2.188954370019049, 2.174015842056481, -1.3164922605282192, 0.03642488093263051, 0.22772845263883498, -0.1310670204689906, 0.8810890545147365, 1.690775084502214], [1.1367730017864894, 0.6012852581275967, 2.2438176219398764, -0.6740976283074036, -1.420184188312191, 1.5569661583335435, 0.33895181575509514, 0.9698022456628324, 2.64559347032694], [1.4449642520368546, 0.8531108705789211, -1.0648939632102057, 1.9723238092787119, 2.1594472259657227, 0.8470101160636736, -0.4320727716242084, -0.1023248994424944, 1.1656976904663765], [2.1844758663126367, -0.6188065654848649, 0.12062030309321012, -1.116076898600066, 1.519519125819397, 0.6363982839293472, -0.9222033173925472, 1.404842609007908, -1.4094415795485715], [-0.2778432853145694, 0.6212687320858757, -2.1453987084106014, 0.3868784887063851, 0.6248001156936868, 1.7360245291466998, 1.0638019617533248, 2.256979435641269, 0.7337333425301056]], "weights_ho": [[1.3915753967759894, -0.416041338206955, -0.23936342764443536, 1.3883230356509306, 0.31379850847508967, -0.7721420809081059, 0.6359411497963487, -3.441484021299548, 2.414146280661812, 0.36425745253559305, -0.41579547983035914, 0.3604648268180509, 1.2873118969575945, -0.5560749700659618, 0.3971627161068574, 0.7144891522690238, 0.7996362122626594, 1.2673691556581503, -0.28498421196967094, 1.1904863267212362], [0.6843005387035523, 0.7620866731955824, 0.5425128461060531, -0.8555766585318836, 0.04230884676413418, 0.7062961117853621, 2.8854195335932427, 0.9265089628543717, 0.7755315251242489, 3.6773607748689816, -0.2612977178616305, 1.330009654333984, 1.0422362717499476, 0.09703490106537561, 2.2799202610633347, 4.111724629841448, -0.1644178749699582, 1.3172004793239922, -0.8629454866805347, 1.547900676487235], [-0.42010123160415724, 0.8444515410220759, 1.8398101418539736, 0.6697584382542492, -0.48992521199986394, 1.4290009799454562, 0.5966285227720209, 1.7225263983962904, 0.15777919927778655, 0.03871631492107898, 0.2609733676927911, 0.14778035155496333, 0.13391128981989292, -0.06138353606184409, -3.5714915893216537, 0.5399277895625927, 0.140651451301429, 1.4625246970569576, -0.632333656298445, 1.3569755854603573], [0.0921399793601167, 0.07547626393194082, 1.0983420249806002, 1.5940405836412261, 1.2310266180737155, -1.662858511818749, 2.279417095548933, -1.7439584770789864, 3.0070205615831753, -1.5309365451759653, 0.9464022689953211, 1.9602251522697385, -0.12581688295000845, 2.602987328900041, 1.4899035778307106, 3.778889180216974, 2.6440868552550705, 1.5659275415108516, 3.075589758628241, -0.5459782364371879]], "bias_h": [[-0.13505304129217535], [1.4156371081171946], [1.450037398733473], [2.0571504444786406], [-0.37746420719721674], [0.3594903759071493], [0.0167251240489892], [0.6583311043864293], [1.0830833612836281], [1.9890235595640309], [-0.594413301246552], [0.9302454808772014], [0.1445245173047192], [0.3777185924850783], [1.4098733067233558], [1.5086429013602065], [-0.3955299616157252], [1.7793101164114868], [2.916911769291598], [0.8347392958356754]], "bias_o": [[1.2188079047550406], [0.5982934532406555], [2.9033470466301727], [3.7762288451466857]]}, {"input_nodes": 9, "hidden_nodes": 20, "output_nodes": 4, "weights_ih": [[-0.5891151385168742, -0.5170929422978563, 1.5775847589281673, 0.46204420583231304, 3.6819565092753423, 0.7792993015510685, 1.1814407031034062, 0.838456487583433, -0.4342392320273378], [1.842091974014734, -0.5444165221453547, 1.4303737642513936, 0.8185746269844136, -0.015477707090397502, 1.9580363557023277, 1.6834099768441142, 0.22729672359717257, 0.8268537852634112], [1.8999272306646853, 0.39006783570160986, 0.07875058790385475, 1.6896990576255102, 0.5524949049930152, 1.1855722516418563, -0.5037656849701309, -0.5963978985371425, -0.4334872896956267], [1.639959822201368, 2.3751469962109386, -0.8591564011036191, 0.6606693380885702, 1.934532136700031, 1.3180837348845733, -0.2878739574381568, -1.0277536667511784, -1.1554558479702135], [0.09716231290861489, 1.9117942701921669, 0.2998218018569394, 0.9848374662499939, -0.8089520092231705, -1.5933127858521112, 0.6513342382944383, 1.3806486293270614, 1.6302689224377176], [3.5506582223985537, 0.5780628504469512, 0.7729863537903449, 0.89903450469556, 0.3635742130903178, 0.23327591532177155, 1.7922908058129385, -1.1061720734364466, 2.4120362305831096], [0.10466291967710362, 1.6555399237349053, 0.6316016474536403, -0.9495881253922005, -0.9443310993678344, 2.1732871971678964, -1.2604627724217676, -0.10281099056799828, 1.51002953888386], [-0.3380389021230281, 2.0169111985352, 0.9714919691768642, -0.4888373570841344, 2.4830264472493955, 1.8372496488167782, 0.862351920125288, -0.6483919764381791, 0.9492055396771177], [1.208222277816901, -0.1601094346102609, 1.6993327284367203, 0.7526952012684519, -0.7743625477830183, 2.198049237040519, -0.27764088452299396, -1.9823268111798236, 1.1664751349681917], [1.7677958455300296, 0.18420047219202335, 2.3537276897027395, 0.18823110168989612, 0.30952444601955686, -0.7549896314448399, 1.6114502805665734, 0.46219239224137565, 1.0744918293772627], [-0.4144845018078074, 0.5270486295802648, -0.8580158346702544, -0.7385135607497485, -1.4044374308842402, 0.7022592422884484, 1.5705247283928547, 0.14461831953242554, 2.0361462770192214], [-1.2518680949306704, 0.7493146336827774, -1.9374983770054177, 1.952767380716168, -0.704238352352238, 0.12026661643569096, -0.8822332231084101, 0.961381209382776, 1.7146876048058868], [0.3684736501688978, 1.9487136089183974, -1.986335685083414, 1.5273081101030086, 1.2492398202157506, 1.9071651263799674, -0.6841223229203426, 1.350040519744232, 0.6217347433821063], [1.7566266002508335, 0.2030822691993184, -0.19855466810104896, 1.4904634227568079, 0.3736947108853544, 1.4509312570537718, 1.7050261678298504, -0.9417798700259761, 1.725683769140969], [2.3145290072586535, 0.49375687172777843, 1.3209472036826297, 1.0091952810970457, -2.565937683091658, 1.4395089408846857, -0.24950032500858813, 1.984817609822815, -0.052036441031765926], [-1.6449822540201118, 2.164316725893366, 2.089954703312844, -1.391088547201541, 0.207539175848178, 0.2059152023056434, -0.1310670204689906, 0.9655384310575021, 1.646310241599169], [1.1011112511561774, 0.5641513012656746, 2.2740580998173665, -0.6991199472650578, -1.4654124881145785, 1.4599513206793078, 0.2678895401544948, 0.8092424673771841, 2.64559347032694], [1.4602020205393953, 0.9404659429015194, -1.0279334157417577, 1.9784808066875714, 2.0085777325642966, 0.8806524338001331, -0.4320727716242084, -0.052314505348303175, 1.1656976904663765], [2.199829922615322, -0.6188065654848649, 0.12062030309321012, -1.0538323949347206, 1.519519125819397, 0.6277540510043114, -0.9050155124942316, 1.404842609007908, -1.4264924394489233], [-0.24786180335290828, 0.6294889186251289, -2.135093722119932, 0.32646762009549285, 0.5629505322609474, 1.7360245291466998, 1.0638019617533248, 2.243227623453194, 0.7337333425301056]], "weights_ho": [[1.3879812594471257, -0.21588219722589536, -0.2744086744905582, 1.2617462960804648, 0.31379850847508967, -0.6455769226580435, 0.5465946780903437, -3.345270879096831, 2.472359388864686, 0.4122062886667198, -0.21921096500938844, 0.3604648268180509, 1.2873118969575945, -0.5293419051914079, 0.3373145808903051, 0.9086437575729731, 0.7996362122626594, 1.2563960001220842, -0.4494182183912162, 1.098714311715847], [0.7024736779989378, 0.7620866731955824, 0.41488096193614743, -0.8038247541568515, 0.07023851529196459, 0.7461070869744202, 2.7967527485406167, 1.0383018743081613, 0.7540554558015324, 3.6944581894820736, -0.3154608951376715, 1.2737451162662974, 1.0422362717499476, 0.07577873933962712, 2.325099703331911, 3.920345950970958, -0.12020791098955884, 1.5804419028081016, -0.910261238082261, 1.547900676487235], [-0.32015376513809124, 0.8784794236137458, 1.9588419025319297, 0.689040603388783, -0.604923674407688, 1.4155125833461426, 0.5680502826792755, 1.5745441714393051, 0.1288866478594125, 0.03871631492107898, 0.3176102477427519, 0.20012594780247037, 0.13391128981989292, -0.025162724727819434, -3.600358074350893, 0.4594033619141382, 0.12374186188812406, 1.4098331127643258, -0.632333656298445, 1.3569755854603573], [0.08433590701790342, -0.03944188192400534, 1.036284863719299, 1.5985952328520603, 1.2310266180737155, -1.6419362812189553, 2.2145471519515274, -1.7864700848978132, 3.073731573027902, -1.4424189316314617, 0.9960448658926899, 2.054472251240774, -0.11118096558672433, 2.6076408975317817, 1.6057091867257645, 3.868896564214591, 2.6383413373761444, 1.641452661592682, 3.0869804704822075, -0.5892991696765858]], "bias_h": [[-0.1256568553600827], [1.4156371081171946], [1.3949611359333538], [2.0898084804166235], [-0.4114674490809703], [0.1486095423753444], [0.0004222976241750262], [0.6185045153861071], [1.1808991013342947], [1.9890235595640309], [-0.6046610428265322], [0.9315785325417504], [0.12873017451885294], [0.5342933366432508], [1.4132572715319918], [1.5086429013602065], [-0.3955299616157252], [1.7546138411257066], [2.835877037987273], [0.8601151425690357]], "bias_o": [[1.2041139496221112], [0.6596220635753667], [2.9033470466301727], [3.7762288451466857]]}, {"input_nodes": 9, "hidden_nodes": 20, "output_nodes": 4, "weights_ih": [[-0.5891151385168742, -0.5170929422978563, 1.543726775921725, 0.4393945252497998, 3.7326022258575136, 0.8235652459603211, 1.1602601868787206, 0.838456487583433, -0.489420857161856], [1.750165965463847, -0.5505651008504482, 1.297298902938705, 0.8047129356997573, -0.2709366897820743, 1.9966566373515477, 1.6834099768441142, 0.23035090276683434, 0.834642661035302], [1.871571503981952, 0.2628194966749884, 0.15634350188951546, 1.7624885978219424, 0.542451117892761, 1.1375005223286565, -0.6092921240483122, -0.6121152988632711, -0.2648047675287395], [1.7058616561868174, 2.2514603081818656, -0.8100315427159155, 0.6606693380885702, 1.9428430268142052, 1.336359820728761, -0.15076770062703165, -1.055255156054145, -1.1554558479702135], [0.03846092823159314, 1.9117942701921669, 0.2594484144429432, 1.1405766147428933, -0.8089520092231705, -1.587678024591616, 0.7220457074026636, 1.3426787043565174, 1.5583779237016957], [3.5506582223985537, 0.7418634442991457, 0.7533921698757827, 1.0542213575730282, 0.4615463567331167, 0.2363687441202474, 1.7922908058129385, -1.0636316266273451, 2.400377582938021], [0.07390963732983215, 1.7853030775245906, 0.7879079885232367, -0.9580949864190751, -0.9234887639909665, 2.016013184198619, -1.4269934219767286, -0.12032788553629728, 1.51002953888386], [-0.39073473382972973, 1.9829204286806472, 1.0052111254901483, -0.4720540236891109, 2.5590285124741996, 1.872258030816529, 0.862351920125288, -0.644162210404597, 0.95172447703102], [1.208222277816901, -0.20065067087891433, 1.6574643097839155, 0.7712043971845983, -0.772791185145961, 2.158702182266077, -0.38952790566925505, -2.0292828472885076, 1.1755531102862165], [1.7434159001039204, 0.16690575171159555, 2.297090597646279, 0.19012995877923253, 0.23662067198962244, -0.8070711414169833, 1.673299509070948, 0.6941608708044106, 1.061642261740035], [-0.3850455162603057, 0.5270486295802648, -0.872365145925154, -0.7623237419962197, -1.3245683918378928, 0.7023962304170821, 1.5865633620539275, 0.14290301795889215, 1.9990518071678642], [-1.2501930540242014, 0.8138200513765593, -1.9476181315268526, 1.9415183067379047, -0.704238352352238, 0.12026661643569096, -0.9355130432493154, 0.9549266529637618, 1.8407384539849847], [0.37971808545207253, 1.9487136089183974, -1.9487312004425057, 1.4642419268655098, 1.1573849349190364, 1.903457386751077, -0.48682468199265716, 1.316777109007139, 0.6645122241285415], [1.7827541056422866, 0.19890493275062654, -0.1471594362465663, 1.3879012405601645, 0.3736947108853544, 1.4582819025924323, 1.7092017649497495, -0.7990495560676147, 1.7731715535900663], [2.2773641517411036, 0.43825124617107614, 1.2844005840517156, 1.1418654581433825, -2.5086109161009165, 1.3271902369645772, -0.5000687213952564, 1.976670531487322, -0.05074491240688796], [-1.715996043218178, 2.24620568573335, 2.174015842056481, -1.3164922605282192, 0.11187276898830271, 0.2059152023056434, -0.1491690182994932, 0.9655384310575021, 1.6382673484173025], [1.1550907360625762, 0.5641513012656746, 2.185344587046756, -0.6740976283074036, -1.4318349344175814, 1.5568003315576697, 0.32766456917969133, 1.0588551103229782, 2.64559347032694], [1.387755763299539, 0.82453410422491, -1.0979027183457133, 1.9975440807760676, 2.1164311078882263, 0.816720021842448, -0.4320727716242084, -0.1023248994424944, 0.9971331784652783], [2.1844758663126367, -0.6450182583147273, 0.11835171436374653, -1.1010741655379321, 1.5611764117514477, 0.6277540510043114, -0.9050155124942316, 1.5417814069179328, -1.3719482265240812], [-0.24786180335290828, 0.5734696900190968, -2.064182110097099, 0.32495718871178436, 0.5688382119208445, 1.7359589191884393, 0.9122547546552507, 2.2432287550742886, 0.6557694175355249]], "weights_ho": [[1.3290386780593653, -0.21588219722589536, -0.29218555189774664, 1.2464589666617485, 0.2829019662824005, -0.7880585773919866, 0.594373698421, -3.362989788390866, 2.4105849001734656, 0.36425745253559305, -0.4166659383299386, 0.294867751822477, 1.3135644203710408, -0.6262093353260861, 0.4027788622005519, 0.7144891522690238, 0.7996362122626594, 1.3299469577078336, -0.3886736577689742, 1.2423389292639577], [0.7024736779989378, 0.7620866731955824, 0.46717249832332247, -0.8132266483517556, 0.04416448742312811, 0.7056347468468718, 2.8377261041811943, 1.0556611713210045, 0.7649263267821254, 3.567628033564264, -0.22866009029765988, 1.2737451162662974, 0.9294427382404363, -0.12191876590908202, 2.2799202610633347, 3.8614805949289046, -0.11672553063190269, 1.4797925726268149, -0.8761531985517765, 1.516443091667306], [-0.2079980579993494, 0.8920779895769746, 1.846878567038405, 0.6077619673693755, -0.5389092102250078, 1.4242825993382944, 0.37954107421659444, 1.744898943352431, 0.15777919927778655, 0.03216472393637626, 0.3176102477427519, 0.14778035155496333, 0.13391128981989292, 0.012628855457039116, -3.5970765168227072, 0.4683007730484795, -0.11170777800630435, 1.4039321122059147, -0.6177931629581789, 1.3569755854603573], [0.1053732902615366, 0.056132748056438024, 1.0983420249806002, 1.586036164742628, 1.2535973495241337, -1.6605235143553347, 2.192569514083591, -1.7683998886047734, 3.0330333263296265, -1.5182168326758574, 0.9567032835942487, 2.0138087218226457, -0.2845505601077669, 2.470310223775841, 1.6057091867257645, 3.829285130734846, 2.629256805735004, 1.616999652099952, 3.089450377502745, -0.5278220994716843]], "bias_h": [[-0.12013200495532697], [1.4391413230023906], [1.44117654463128], [2.0571504444786406], [-0.38611851870892033], [0.1887956120064762], [-0.06624873621817287], [0.6231319028909982], [1.151580736140326], [1.9890235595640309], [-0.6013737632285339], [0.9364674453798054], [0.14673229978397803], [0.30976282538882094], [1.4098733067233558], [1.5085043170747483], [-0.3955299616157252], [1.9790814714168576], [2.843692968610078], [0.8598593308696012]], "bias_o": [[1.2943792886139187], [0.5863088485993224], [2.9033470466301727], [3.7762288451466857]]}, {"input_nodes": 9, "hidden_nodes": 20, "output_nodes": 4, "weights_ih": [[-0.5891151385168742, -0.5170929422978563, 1.5712397218175984, 0.42562044002987887, 3.7326022258575136, 0.8202822287967497, 0.9403446129219184, 0.838456487583433, -0.4129722263811325], [1.7845904683106149, -0.5302025057140174, 1.2743820679423725, 0.803365162886736, -0.015477707090397502, 1.9966566373515477, 1.6834099768441142, 0.14793301546920673, 0.8176688585041157], [1.8999272306646853, 0.26866613556097285, 0.15429140965763305, 1.812231692763476, 0.5052939621335362, 1.1203026647223389, -0.5889724013473328, -0.5963978985371425, -0.4334872896956267], [1.7171122857010461, 2.2514603081818656, -0.8065351537742897, 0.7285466163768926, 1.934532136700031, 1.3180837348845733, -0.15891448730585916, -1.055255156054145, -1.1554558479702135], [0.09716231290861489, 1.9748570047991374, 0.32169759136718656, 1.1144162433868303, -0.707888740597612, -1.5933127858521112, 0.6513342382944383, 1.32946877029692, 1.5583779237016957], [3.5506582223985537, 0.60260644254773, 0.9826557884291635, 1.0506363270596717, 0.4612512498481659, 0.23327591532177155, 1.7922908058129385, -1.1417074844629767, 2.3971676118502514], [0.10466291967710362, 1.7429739439845648, 0.6502879167048946, -0.8555523184064301, -0.9274652678948765, 2.0165173744176728, -1.2978573966953566, -0.12032788553629728, 1.479023714494463], [-0.39073473382972973, 2.0006188932557762, 1.0052111254901483, -0.4418834571240614, 2.5036454272420405, 1.855692878255518, 0.862351920125288, -0.6332087040806937, 1.0221200082241133], [1.2057304668763447, -0.18743583235722366, 1.6986119032913076, 0.7034269143730858, -0.7743625477830183, 2.1326753340703406, -0.27764088452299396, -2.0086695409474205, 1.2090666989358996], [1.7677958455300296, 0.16120809081629858, 2.2091585142324255, 0.20242913310056476, 0.23662067198962244, -0.8107472953214423, 1.6621419746776096, 0.5724221159742862, 1.0491156517010976], [-0.39274976351688007, 0.4708554865791243, -0.8894255565512421, -0.8733987667971745, -1.2233216807378162, 0.7466729836966369, 1.4761541902198354, 0.14461831953242554, 1.9990518071678642], [-1.2518680949306704, 0.7706243459694153, -1.9305081599949443, 1.9230490431825937, -0.671485991565084, 0.12026661643569096, -0.8106076893982316, 0.9069125748098312, 1.8407384539849847], [0.20313718274357978, 1.9487136089183974, -1.9614579271131118, 1.6239342285303258, 1.155609767989835, 1.938904362457201, -0.6120339282532351, 1.316777109007139, 0.6217347433821063], [1.8066328161207852, 0.2723149608531452, -0.22012326385762732, 1.4085124855310487, 0.4081253616290603, 1.4509312570537718, 1.7092017649497495, -0.8284657818637146, 1.7223898534066444], [2.26233432140723, 0.43730304647217116, 1.2844005840517156, 1.1418654581433825, -2.524129185024902, 1.4395089408846857, -0.3265120289702349, 1.984817609822815, -0.07270808679792397], [-1.715996043218178, 2.188954370019049, 2.174015842056481, -1.3164922605282192, 0.2530847303227702, 0.22772845263883498, -0.1310670204689906, 0.9200264695497284, 1.690775084502214], [1.0957913200600484, 0.581516136583522, 2.2322655722065985, -0.6740976283074036, -1.420184188312191, 1.5569661583335435, 0.33895181575509514, 0.8787376835765677, 2.64559347032694], [1.4449642520368546, 0.8531108705789211, -0.9742115696174167, 1.9723238092787119, 2.1203951407321697, 0.8470101160636736, -0.4320727716242084, -0.1023248994424944, 1.1656976904663765], [2.10564616323415, -0.6188065654848649, 0.12062030309321012, -1.116076898600066, 1.7241728674556354, 0.6363982839293472, -0.9222033173925472, 1.404842609007908, -1.3719482265240812], [-0.2778432853145694, 0.685208905349378, -2.1453987084106014, 0.2686150872298713, 0.6248001156936868, 1.7360245291466998, 1.0638019617533248, 2.256979435641269, 0.7337333425301056]], "weights_ho": [[1.469445024946998, -0.21588219722589536, -0.23936342764443536, 1.2617462960804648, 0.31379850847508967, -0.7721420809081059, 0.6359411497963487, -3.510700877063865, 2.414146280661812, 0.36425745253559305, -0.41579547983035914, 0.3604648268180509, 1.2873118969575945, -0.5560749700659618, 0.3971627161068574, 0.7144891522690238, 0.9392060182082289, 1.2673691556581503, -0.2814056256271962, 1.1904863267212362], [0.6843005387035523, 0.6435572363015094, 0.4686587193203945, -0.8815221815049411, 0.04230884676413418, 0.7062961117853621, 2.6899218354693875, 1.0283887995941752, 0.7755315251242489, 3.6773607748689816, -0.2612977178616305, 1.330009654333984, 1.0422362717499476, 0.09703490106537561, 2.2799202610633347, 