{"generation": 1400, "population": [{"input_nodes": 9, "hidden_nodes": 20, "output_nodes": 4, "weights_ih": [[3.6167763807477846, 2.6956316056875766, 2.5941573919001244, -0.8887244656902481, 3.047887206072449, -1.7673082998306504, 0.9121748222535765, -3.5901142767480794, 0.2778529710507561], [0.4448240717597106, -2.1689841826558354, 0.2995825859218513, -2.8730724675735226, 3.1988669557872482, -0.08465120427018577, -1.6657269489727287, -0.1863778275908079, 0.8652607245119902], [1.6107810182451183, 0.03714245279614478, -1.3278867723342516, -1.202860696595301, 1.634459733558522, -0.3440152427254025, -1.1045205540038152, -2.2848694696734047, -1.929380496860277], [-0.6146450233883778, -1.8328039275258998, -4.092550316161014, -2.2498662959618523, 1.5861183430814456, 2.9578177810313697, 2.7468596875379157, 1.6849828409009404, -0.9041260476608579], [-1.5569036108100789, -0.3267173036986359, -3.5825981589950535, 1.0638507259305632, 2.1608126968546095, 0.07444622967316367, 1.1301101660033626, -0.07134127147582282, 1.5425976581359793], [0.9907966968424946, 0.7534637123029209, -0.33558711157990956, 0.20973888227752735, 3.5964324946960495, 3.573816408339992, -2.0619613343484287, 2.5467955112882095, -0.6018689748816476], [-0.25540303779087625, 1.434578238949743, 1.9405054261435706, 3.052100134267893, 2.9983137763464067, 0.6335478443226403, 3.275347834669099, -1.9787280427792555, 0.9191979070564464], [-2.1007856510866003, 2.4769713365896426, -0.17229921548759214, 0.3264070386752523, 0.459929813392979, 2.16006717498395, 2.230918217180918, -1.96088611316612, 0.7779121742615754], [-0.15153256543250754, -0.3896104969419929, 2.6223422938894463, 2.584794652495686, 0.05310021899221981, 0.8951926110938699, -0.8721853469536106, 3.443614579153709, 1.4817963356243093], [-0.8968854849591765, -0.06828806230439102, -0.602584198298616, -3.03026293793177, -0.9331498137931227, 1.7679052384894511, 0.3398643299160031, 0.6328994080194252, 0.5381399311559547], [-0.0025380078194474076, -1.0096899551140528, -0.6152486184360992, -0.1784282582065693, 3.6957269943141373, 1.4280769980384806, 1.7322491741712533, -1.9860499277100938, -1.2312429613359959], [-0.8655633385714194, -2.0922346120271462, 3.321676497577204, 2.644344486564323, 3.6464698317564848, 0.7696845469402065, 3.829266558561802, 1.3266486588055415, 1.5767314011255604], [1.017022034257852, 3.0067902515494396, -0.6602906130929411, 2.171763033416066, 0.7507092137168755, 1.2024620588462462, -0.08480506530006438, 0.3764661751953102, -1.9150354522741058], [-0.3654301936566701, -3.4262547441894515, 2.7996329633930492, 0.05547282828148618, -0.457068811040243, 0.38075332367630965, -1.1802529868007519, 0.7084538103556262, 3.780483268743548], [-2.4136369139039777, -0.6051697783027561, 5.5758013046774675, -0.5620248880907195, -0.08292725788556102, 2.162212132417635, 0.6712433536032454, 3.133920887545181, 1.5009035547057492], [-0.6748396280593298, 1.2217878773351944, -0.33391053280943495, -0.7115064726684486, 2.748177246225059, -1.210898788759089, -1.5750448915157207, -3.3560323322374983, -1.472524765162107], [3.266761331033095, 2.6122813763483093, -1.7198723083967917, -1.1716199824701736, 1.9965760165274347, 1.4142888121418604, 1.9844252285144974, -1.731126784271376, 0.12701747546344938], [2.3326411823749704, -2.97116645770607, 2.6319315618125425, -1.4344204546866215, -0.9059130935585585, 3.1233974689274993, -2.755107270587601, 0.8754915296723071, -0.8412154800911908], [0.9069849469142406, 1.9230938710430632, -0.4801901237826969, 0.2172257145661663, -3.207896799841979, 3.3150232032368483, 0.972363413016937, 3.671693270083632, -3.304394500392778], [-2.964792139996998, 0.4893595536120445, -2.111980731915148, 2.6139709687479233, -3.3153596310464355, -0.3369773477535984, 0.7972442215586205, 4.400002795013235, 1.1223623541400056]], "weights_ho": [[-2.034136680953884, -0.7488157328275683, 1.5182740416520202, 0.774507495240717, -0.8062615591731029, 0.15421120081830025, 0.7480457354345262, 0.6519951999319337, 0.7466847926768077, 1.8468049888967033, 4.080390329808948, -0.4951813636456596, 3.2718901184863287, 1.6313285093417251, 2.1537850075620812, -0.5893173751446169, 1.9720131777193413, 0.6301488069878661, 2.7137687565438893, 0.0472973270636997], [1.7663169430431325, -3.540730472075485, 1.0884870706435301, -0.3136532259510345, 0.3156336499565837, -1.7978608256144017, 0.5151509413497718, 0.30370424079115743, 2.235097425004303, 0.6974149612454686, 3.799589618115059, 2.3385302202593614, 1.8397317096924397, 0.2893901398316984, 1.8075723414410876, -2.313273370966235, 4.58424496982574, 3.6667098196563197, 3.3053920771408034, 0.9573636350043997], [-0.41412909676760523, 0.6713483977956437, -3.4310343974691677, -1.4819799440417214, 1.6855267436603498, 2.2861351200759237, 1.112693910767657, -0.2714863086108614, 4.034122360905273, -1.1996646241717142, 0.5154829935022937, 4.3687355168538025, 0.36498944881716616, 1.2127278011659623, -0.9346340918958994, 2.549443558190564, -1.8521625733616587, 1.2059799985595752, 0.32807390265478925, 0.8782719312214093], [-0.357378020790269, 0.09065020461664977, 5.087224541602305, 0.2739516937253981, 1.246630445303156, -1.3891519773913275, 1.0082512931585759, 2.1803230229916273, 0.8692459912275274, -0.26362927525500013, 1.6922004173553582, -0.3228156915487459, 2.003262885491012, 6.392768091507498, 1.0024906015577222, -0.9567432162110823, 1.8505196908983819, 2.242435877225141, 1.7959049307140027, 1.8203069931489058]], "bias_h": [[2.005355392667938], [-2.2906152357688785], [1.5429431383866528], [0.6063991666785077], [3.0009967675365963], [-1.1698355243509058], [0.14898817179004906], [1.2543136940070223], [-0.07169356128325138], [0.6571029945260146], [-0.19647428988746968], [-1.5455079228021584], [-0.31388560649132907], [-1.1421183674946562], [0.2677608329333817], [0.21440043639156375], [2.234769047827608], [2.9136349043370413], [1.1691708595482555], [3.060726085631123]], "bias_o": [[0.3002938171161467], [0.14191320532787324], [-1.3492801726591233], [0.2783481765589805]]}, {"input_nodes": 9, "hidden_nodes": 20, "output_nodes": 4, "weights_ih": [[3.6092927611591428, 2.6765655635975123, 2.5941573919001244, -0.8887244656902481, 3.047887206072449, -1.7673082998306504, 0.9121748222535765, -3.721732639306369, 0.3443923509495597], [0.5127107797096039, -2.1689841826558354, 0.2995825859218513, -2.849521532794039, 3.1988669557872482, -0.011586998759243836, -1.6657269489727287, -0.20895379875143838, 0.7706319118140323], [1.6107810182451183, 0.20809984583774788, -1.3278867723342516, -1.202860696595301, 1.634459733558522, -0.3440152427254025, -1.1045205540038152, -2.1422552104956, -1.929380496860277], [-0.6146450233883778, -1.836460777538042, -4.158721420298346, -2.244994330554896, 1.5861183430814456, 2.9578177810313697, 2.6291639676512566, 1.6849828409009404, -0.9041260476608579], [-1.5569036108100789, -0.32570897796001214, -3.5825981589950535, 1.0638507259305632, 2.1608126968546095, 0.07444622967316367, 1.0400614835729045, -0.19325097419814216, 1.5425976581359793], [1.0644914771411627, 0.7534637123029209, -0.40046511540582735, 0.2751092748678455, 3.4891495050837693, 3.4355810982176758, -2.1450193707439627, 2.5467955112882095, -0.772777679563237], [-0.14847074567265683, 1.434578238949743, 1.9405054261435706, 3.052100134267893, 2.9912464666848297, 0.6232338785075724, 3.275347834669099, -2.094857179891055, 0.8987148832105607], [-2.1513101319569965, 2.4718391091175596, -0.06829920513877047, 0.3264070386752523, 0.459929813392979, 2.145488885230859, 2.230918217180918, -1.96088611316612, 0.7793039976217957], [-0.15153256543250754, -0.5383222898596594, 2.6223422938894463, 2.567225212588938, 0.17260436045877808, 0.8951926110938699, -0.9250875902153612, 3.443614579153709, 1.4225080067502718], [-1.020964503408501, -0.06828806230439102, -0.6929728398856012, -3.03026293793177, -0.9331498137931227, 1.7679052384894511, 0.3004453144629802, 0.6328994080194252, 0.6882865708944653], [-0.019940977767879852, -1.0096899551140528, -0.38609757335283135, -0.1784282582065693, 3.5056061593317542, 1.4280769980384806, 1.8070338686076146, -1.7869827184072287, -1.2312429613359959], [-0.9103855577264711, -2.0922346120271462, 3.321676497577204, 2.644344486564323, 3.421636760681479, 0.7696845469402065, 3.9281964575413415, 1.3266486588055415, 1.5770335525963732], [1.017022034257852, 3.0067902515494396, -0.6602906130929411, 2.171763033416066, 0.7507092137168755, 1.2024620588462462, -0.08480506530006438, 0.3764661751953102, -1.97603525807352], [-0.24406281754730888, -3.4262547441894515, 2.7996329633930492, 0.05547282828148618, -0.457068811040243, 0.3036276221897158, -1.1802529868007519, 0.6340997876304721, 3.729757201398786], [-2.311659238723377, -0.6051697783027561, 5.5758013046774675, -0.5620248880907195, 0.07224366903262364, 2.015293199088241, 0.6712433536032454, 3.0561891663054306, 1.4823328471727941], [-0.6482154552402437, 1.0847220835904139, -0.2931637084719962, -0.7115064726684486, 2.7527187502495365, -1.210898788759089, -1.5750448915157207, -3.5243832769621988, -1.472524765162107], [3.3617958630741573, 2.6122813763483093, -1.5906021514797621, -1.0443677245016798, 1.9965760165274347, 1.4142888121418604, 1.7800470999033862, -1.8737921514441709, 0.12701747546344938], [2.3232447385980994, -2.910529367897734, 2.477068209771149, -1.4344204546866215, -0.8100010283989676, 3.1918221223147225, -2.755107270587601, 0.8807864842176363, -0.8753214880199106], [0.6935266780136686, 1.9230938710430632, -0.4801901237826969, 0.2172257145661663, -3.207896799841979, 3.470983128680416, 0.972363413016937, 3.786597474314913, -3.304394500392778], [-3.057362692364451, 0.5052301229664768, -1.9012962885637086, 2.6010712165897183, -3.3153596310464355, -0.24710774825649104, 0.7972442215586205, 4.400002795013235, 1.1223623541400056]], "weights_ho": [[-2.034136680953884, -0.4961127939358889, 1.5876046088538416, 0.774507495240717, -0.7898128442392189, 0.15421120081830025, 0.7480457354345262, 0.6519951999319337, 0.7486549331074873, 1.8468049888967033, 4.080390329808948, -0.4951813636456596, 3.2718901184863287, 1.7039385640907996, 2.2301309252644006, -0.46124251565213736, 1.9720131777193413, 0.6301488069878661, 2.7061274223384864, 0.19158596256333776], [1.9894385798863143, -3.540730472075485, 1.0884870706435301, -0.3136532259510345, 0.3156336499565837, -1.7978608256144017, 0.5151509413497718, 0.3993194644103051, 2.235097425004303, 0.7731929342161148, 3.8612328045180995, 2.5659151472689397, 1.8397317096924397, 0.2893901398316984, 1.9481247591382702, -2.313273370966235, 4.377397286365465, 3.548881135924604, 3.3053920771408034, 0.9573636350043997], [-0.2946563868952938, 0.8304588316969342, -3.4310343974691677, -1.4819799440417214, 1.6980055089727286, 2.350186880899066, 1.1438905797503174, -0.2714863086108614, 4.2140784605842025, -1.1703566042303584, 0.5154829935022937, 4.293971346206689, 0.3058272132359332, 1.2127278011659623, -0.9346340918958994, 2.5498079679185524, -2.0360184366563243, 1.2059799985595752, 0.32807390265478925, 0.8782719312214093], [-0.3588925264503641, 0.1255480181485581, 5.087224541602305, 0.2739516937253981, 1.2148528126566513, -1.3891519773913275, 0.9668277992047786, 2.1803230229916273, 0.8692459912275274, -0.26362927525500013, 1.6922004173553582, -0.3228156915487459, 2.003262885491012, 6.392768091507498, 1.0447462398518466, -0.9284576507557109, 2.006152580372743, 2.2636513232398308, 1.7959049307140027, 1.9039073206301664]], "bias_h": [[2.005355392667938], [-2.2906152357688785], [1.7195248978201758], [0.6063991666785077], [3.0009967675365963], [-1.230805583137067], [0.14898817179004906], [1.2543136940070223], [-0.07169356128325138], [0.6571029945260146], [-0.08331866166097941], [-1.5455079228021584], [-0.31388560649132907], [-1.1421183674946562], [0.2677608329333817], [0.21440043639156375], [2.234769047827608], [2.9136349043370413], [1.2936770476859514], [2.9329376985319806]], "bias_o": [[0.3002938171161467], [0.14191320532787324], [-1.3492801726591233], [0.2783481765589805]]}, {"input_nodes": 9, "hidden_nodes": 20, "output_nodes": 4, "weights_ih": [[3.6167763807477846, 2.7939191008466424, 2.741760114006038, -0.7611855851041076, 3.001660011899386, -1.7673082998306504, 0.9121748222535765, -3.5901142767480794, 0.2778529710507561], [0.4052318051055564, -2.1689841826558354, 0.25286248090989544, -2.8730724675735226, 3.1988669557872482, -0.08465120427018577, -1.6290762342601648, -0.1863778275908079, 0.8652607245119902], [1.6604778770274355, 0.03714245279614478, -1.4319798851341263, -1.1507599043646108, 1.634459733558522, -0.3440152427254025, -1.1045205540038152, -2.228853763239139, -1.9234877818520333], [-0.6146450233883778, -1.8288524481629131, -4.111429740325327, -2.3606661008094165, 1.6497123367926878, 2.9578177810313697, 2.690088346451141, 1.661750890332479, -0.9041260476608579], [-1.5569036108100789, -0.2725236476751991, -3.7231646777891916, 0.9141615522021213, 2.3808507755396318, 0.06849594247978195, 1.2415188906579135, -0.13393569576031059, 1.4858153670746161], [0.9305671687065145, 0.7534637123029209, -0.39704718128957145, 0.34633542597379746, 3.5964324946960495, 3.6835437994638434, -2.046718805885007, 2.5467955112882095, -0.6018689748816476], [-0.19595314669785927, 1.4955299505529351, 1.978488905130836, 3.052100134267893, 2.9983137763464067, 0.6335478443226403, 3.275347834669099, -1.8451402533301746, 0.9191979070564464], [-2.059236895423343, 2.456906959104515, -0.17229921548759214, 0.3264070386752523, 0.42722139918799185, 2.16006717498395, 2.230918217180918, -2.015567946268499, 0.6586606639738078], [-0.15153256543250754, -0.3896104969419929, 2.6223422938894463, 2.584794652495686, 0.05310021899221981, 0.801079458407719, -0.8721853469536106, 3.443614579153709, 1.482322022352659], [-0.8968854849591765, -0.08745550380029089, -0.6188718215601656, -3.03026293793177, -0.9331498137931227, 1.7679052384894511, 0.620073647239562, 0.6328994080194252, 0.4716262883715604], [0.06212230054850347, -0.9718144098331277, -0.7352563551078655, -0.1784282582065693, 3.603691248817941, 1.4280769980384806, 1.748689701733852, -2.0080408134978645, -1.2469645605645039], [-0.8655633385714194, -2.0922346120271462, 3.321676497577204, 2.467398765613907, 3.7183429684367386, 0.7011778429427251, 3.8468470413707854, 1.3266486588055415, 1.6389429668377107], [1.0990930125222949, 2.9476184777082373, -0.6602906130929411, 2.2296986531596663, 0.6001592546577784, 1.2705329473544202, -0.15884728109011564, 0.3764661751953102, -1.8913086136195358], [-0.39741601148466854, -3.4262547441894515, 2.9900235913311066, 0.05547282828148618, -0.4682338542747908, 0.38075332367630965, -1.052851568632811, 0.705884833673563, 3.740973884994666], [-2.4136369139039777, -0.6051697783027561, 5.5758013046774675, -0.41771948416835647, -0.06910298287861319, 2.162212132417635, 0.6426420736812543, 3.133920887545181, 1.5009035547057492], [-0.6748396280593298, 1.2242923571631603, -0.33391053280943495, -0.7332904381017599, 2.748177246225059, -1.1609376516113576, -1.5750448915157207, -3.3560323322374983, -1.5609790349381607], [3.2836507147290157, 2.5799928906401717, -1.7198723083967917, -1.1716199824701736, 1.9965760165274347, 1.3865928419336448, 1.9844252285144974, -1.731126784271376, 0.23136243799934514], [2.3326411823749704, -2.97116645770607, 2.6319315618125425, -1.4344204546866215, -0.9810798405700727, 2.86052713983805, -2.755107270587601, 0.8359070604935546, -0.9126103793086056], [0.9069849469142406, 1.7869231758010253, -0.46970326405452356, 0.2172257145661663, -2.9856843835696543, 3.3150232032368483, 0.9632701610120354, 3.691073712990742, -3.304394500392778], [-2.964792139996998, 0.5130465474290713, -2.3028956549758846, 2.563512378472504, -3.3153596310464355, -0.3438060862723478, 0.6996380685200239, 4.400002795013235, 1.1205787231252378]], "weights_ho": [[-1.959638546924808, -0.798097748771354, 1.504675085358591, 0.726303718422741, -0.7781075359119212, 0.15421120081830025, 0.7508620066856487, 0.6519951999319337, 0.7962944830779851, 1.6875477945026591, 3.9329197108542737, -0.4375092145211362, 3.213965070836247, 1.6313285093417251, 2.1537850075620812, -0.5893173751446169, 1.9720131777193413, 0.6070058052361902, 2.638586446323403, 0.12629653765915672], [1.7663169430431325, -3.6503094142683272, 1.0884870706435301, -0.33035878848603506, 0.3156336499565837, -1.9379084634834598, 0.43839897030206987, 0.16494469650974783, 2.009912110570269, 0.7749965649984185, 3.799589618115059, 2.3149263144409473, 1.8397317096924397, 0.2893901398316984, 1.96622713639342, -2.1404123095838843, 4.58424496982574, 3.6667098196563197, 3.3053920771408034, 0.9267088883317919], [-0.41412909676760523, 0.6708845234137103, -3.4310343974691677, -1.4819799440417214, 1.6855267436603498, 2.1875193878499286, 1.0578198842815605, -0.3777008116291705, 4.034122360905273, -1.1996646241717142, 0.5154829935022937, 4.4307565375196445, 0.3763580243896432, 1.2127278011659623, -0.926211386743795, 2.549443558190564, -1.6842404397448973, 1.2980778811639075, 0.18118146249302833, 0.8782719312214093], [-0.357378020790269, 0.06483477757194983, 5.155481777771578, 0.4507671103356294, 1.224203754512492, -1.3891519773913275, 1.1192450616098695, 2.1803230229916273, 0.8692459912275274, -0.3972694600895726, 1.6922004173553582, -0.3228156915487459, 2.1037163428044705, 6.392768091507498, 1.0024906015577222, -0.9567432162110823, 1.8505196908983819, 2.242435877225141, 1.7938615082363578, 1.8521690091447147]], "bias_h": [[1.8231364279056939], [-2.3885599667376294], [1.5429431383866528], [0.5877346183530012], [2.9907544259563315], [-1.2358483495745025], [0.31629916093657945], [1.2543136940070223], [-0.190797092495037], [0.6571029945260146], [-0.19647428988746968], [-1.5455079228021584], [-0.31388560649132907], [-1.1421183674946562], [0.2677608329333817], [0.12853618473317485], [2.234769047827608], [2.9136349043370413], [1.1691708595482555], [3.060726085631123]], "bias_o": [[0.3002938171161467], [0.27851470654862504], [-1.42297303520926], [0.2783481765589805]]}, {"input_nodes": 9, "hidden_nodes": 20, "output_nodes": 4, "weights_ih": [[3.653359325228361, 2.6956316056875766, 2.5941573919001244, -0.8887244656902481, 3.047887206072449, -1.7673082998306504, 0.9121748222535765, -3.7086450243228697, 0.2778529710507561], [0.3660000539227749, -2.1689841826558354, 0.24906726452393427, -3.078573108129963, 3.3464862710863046, 0.01812393194731171, -1.6657269489727287, -0.14805479828836943, 0.8652607245119902], [1.804169587260178, 0.03419137971101094, -1.3519022750861691, -1.202860696595301, 1.7141023897828744, -0.3440152427254025, -1.1045205540038152, -2.2578495867869397, -1.9104550815048145], [-0.7276833607985108, -1.8328039275258998, -4.181315959527583, -2.2498662959618523, 1.4751033444335842, 2.9578177810313697, 2.7468596875379157, 1.6849828409009404, -0.9041260476608579], [-1.6383399915134615, -0.3267173036986359, -3.5825981589950535, 1.050706450035339, 2.0845544610924507, -0.07582609826510642, 1.1434035593109673, -0.07134127147582282, 1.3865607662927681], [0.9839768006346644, 0.7534637123029209, -0.37000188721240684, 0.20973888227752735, 3.7238916971328626, 3.5559384778265755, -2.0619613343484287, 2.5467955112882095, -0.6018689748816476], [-0.30251516344853, 1.434578238949743, 1.805863632331697, 3.052100134267893, 2.9484354639349006, 0.6335478443226403, 3.394911461652354, -1.9787280427792555, 0.8631271586233096], [-2.1557174023418297, 2.4479799972964664, -0.24857659457807618, 0.3264070386752523, 0.3029758172627252, 2.16006717498395, 2.230918217180918, -1.96088611316612, 0.7779121742615754], [-0.24974446490410612, -0.5774893899448763, 2.6223422938894463, 2.584794652495686, 0.05310021899221981, 0.8951926110938699, -0.8721853469536106, 3.443614579153709, 1.6084793945502893], [-0.8517151897097067, -0.06828806230439102, -0.5335633901005061, -3.03026293793177, -0.8351545370680831, 1.7679052384894511, 0.3398643299160031, 0.6328994080194252, 0.5381399311559547], [-0.0025380078194474076, -0.9871265416816896, -0.6169981759398834, -0.1784282582065693, 3.6792917737463338, 1.4280769980384806, 1.7322491741712533, -1.783567651273138, -1.3783340336824823], [-0.7802539196975555, -2.0922346120271462, 3.321676497577204, 2.716258722354787, 3.6464698317564848, 0.9090790499095285, 3.829266558561802, 1.3610794303272613, 1.5767314011255604], [1.017022034257852, 3.0067902515494396, -0.6602906130929411, 2.1864200746919873, 0.7507092137168755, 1.2024620588462462, -0.08480506530006438, 0.3764661751953102, -1.8087441864456457], [-0.445764687216113, -3.4262547441894515, 2.7996329633930492, 0.05547282828148618, -0.42470583303851295, 0.38075332367630965, -1.408779202059119, 0.614053181373394, 3.7923490942380527], [-2.4136369139039777, -0.6051697783027561, 5.5758013046774675, -0.5620248880907195, -0.08292725788556102, 1.996122117720191, 0.765995798043577, 3.0416253049137594, 1.5009035547057492], [-0.6748396280593298, 1.2217878773351944, -0.33391053280943495, -0.7115064726684486, 2.6813115632364592, -1.1187197084323708, -1.541111803953659, -3.3560323322374983, -1.472524765162107], [3.266761331033095, 2.6122813763483093, -1.7823366657962056, -1.1716199824701736, 1.9965760165274347, 1.1839861496263102, 1.9844252285144974, -1.731126784271376, 0.12701747546344938], [2.2624370208018885, -2.9886949072185676, 2.6319315618125425, -1.4701929983977462, -0.9059130935585585, 3.126043374989812, -2.6248652823806813, 0.8754915296723071, -0.8347424151737454], [0.9069849469142406, 1.8673116904911475, -0.7019299774588148, 0.2172257145661663, -3.292008382355661, 3.3150232032368483, 0.9400756155719359, 3.527584136493268, -3.304394500392778], [-2.964792139996998, 0.4893595536120445, -2.12674813443851, 2.4706482300456516, -3.3703555858303362, -0.3369773477535984, 0.7972442215586205, 4.400002795013235, 1.1223623541400056]], "weights_ho": [[-2.034136680953884, -0.7488157328275683, 1.6919568629121773, 0.7087242021154376, -0.8062615591731029, 0.11445430695759401, 0.7372925420135444, 0.5876761040897951, 0.849778832868572, 1.8468049888967033, 4.163366845024477, -0.4951813636456596, 3.2718901184863287, 1.6313285093417251, 2.22512728410888, -0.4560891279667808, 1.9720131777193413, 0.603721836371865, 2.593744030736552, 0.0472973270636997], [1.639264479346201, -3.5505329744330925, 1.2916385974195952, -0.3136532259510345, 0.3156336499565837, -1.828456633660077, 0.563286528672925, 0.30370424079115743, 2.4764687062946775, 0.6974149612454686, 3.799589618115059, 2.361784759977529, 1.8841736616860234, 0.2893901398316984, 1.8075723414410876, -2.3156300980287132, 4.682677630730137, 3.6523122147147977, 3.3053920771408034, 0.9573636350043997], [-0.41412909676760523, 0.6713483977956437, -3.5109548425489328, -1.4819799440417214, 1.5916961981944613, 2.2861351200759237, 1.112693910767657, -0.10400930110949924, 4.034122360905273, -1.1595490627239302, 0.5154829935022937, 4.447167815343582, 0.36498944881716616, 1.2127278011659623, -0.9537432300058967, 2.549443558190564, -1.8521625733616587, 1.2586742882025412, 0.32807390265478925, 0.8782719312214093], [-0.357378020790269, 0.09065020461664977, 5.087224541602305, 0.2739516937253981, 1.3321910711867324, -1.3891519773913275, 1.1165716364677412, 2.219106030213914, 0.9012794945116122, -0.28976443588287176, 1.6922004173553582, -0.35260897667163765, 2.0945202786102817, 6.392768091507498, 1.0422317642824135, -0.9567432162110823, 1.8505196908983819, 2.242435877225141, 1.7959049307140027, 1.8203069931489058]], "bias_h": [[2.005355392667938], [-2.020050065534158], [1.6231328589768477], [0.6460532766203206], [3.0009967675365963], [-1.1698355243509058], [0.14898817179004906], [1.4428594414628604], [-0.1203287917906091], [0.653975762685804], [-0.19647428988746968], [-1.7280283606794793], [-0.31388560649132907], [-1.1421183674946562], [0.28301304161434865], [0.21440043639156375], [2.3310693113089926], [2.9136349043370413], [1.1691708595482555], [3.2576009706952984]], "bias_o": [[0.1944017905038975], [0.10090732445400691], [-1.2361766484014594], [0.31551095766797815]]}, {"input_nodes": 9, "hidden_nodes": 20, "output_nodes": 4, "weights_ih": [[3.6167763807477846, 2.6956316056875766, 2.5941573919001244, -0.8887244656902481, 2.9908929304054954, -1.8462728331117517, 0.9121748222535765, -3.5901142767480794, 0.47578896414863225], [0.4448240717597106, -2.1818403651187626, 0.48779493451289285, -2.8730724675735226, 3.179397496477907, -0.08465120427018577, -1.6657269489727287, -0.22757776600282056, 0.8336314363424145], [1.6107810182451183, -0.007263746492597971, -1.2935924281428264, -1.202860696595301, 1.662006378902646, -0.3440152427254025, -1.1045205540038152, -2.302152430358003, -1.8867316629453568], [-0.6146450233883778, -1.758145153654447, -4.096376339028529, -2.1777795298781144, 1.6073720871788293, 2.809488741251194, 2.6898278519487016, 1.6594557959187934, -0.8730482686783707], [-1.5569036108100789, -0.3267173036986359, -3.5825981589950535, 1.0638507259305632, 2.0395673234228626, 0.09720658621263378, 1.1301101660033626, -0.09761530235938004, 1.5425976581359793], [0.9907966968424946, 0.7534637123029209, -0.33558711157990956, 0.20973888227752735, 3.5871463943904125, 3.3927853472619423, -2.0619613343484287, 2.5467955112882095, -0.6018689748816476], [-0.17064705020568613, 1.3230564757233054, 1.9824151212557974, 3.0905972492476854, 3.095517739061633, 0.6335478443226403, 3.324925732436463, -1.9787280427792555, 0.9008433580348294], [-2.207463486609619, 2.4769713365896426, -0.17229921548759214, 0.3264070386752523, 0.459929813392979, 2.158725049452694, 2.230918217180918, -1.96088611316612, 0.7779121742615754], [-0.15153256543250754, -0.3896104969419929, 2.6362254846206286, 2.3876746605434005, 0.05310021899221981, 0.8951926110938699, -0.8721853469536106, 3.5439796637722965, 1.4817963356243093], [-0.8968854849591765, -0.06828806230439102, -0.6452914069091966, -3.0936958137640067, -0.9331498137931227, 1.7679052384894511, 0.31838580381614917, 0.6328994080194252, 0.38721897604752764], [-0.03746918554241468, -1.0096899551140528, -0.6188385845342179, -0.2374556423238493, 3.6957269943141373, 1.4280769980384806, 1.7322491741712533, -2.0712562477863554, -1.1497079389406162], [-0.8655633385714194, -2.0922346120271462, 3.321676497577204, 2.751181122372944, 3.7270723799684298, 0.7696845469402065, 4.02915431413864, 1.3266486588055415, 1.6717845871182788], [0.9812860865833966, 3.1079231943012053, -0.6118646690671367, 2.171763033416066, 0.7109191764974169, 1.172082854391064, 0.005266532658432077, 0.3764661751953102, -1.9150354522741058], [-0.2837226218367362, -3.6110263558544453, 2.8113137533107855, 0.05547282828148618, -0.457068811040243, 0.38075332367630965, -1.1802529868007519, 0.7726682627053879, 3.850657509456528], [-2.4136369139039777, -0.6051697783027561, 5.621769195399574, -0.7095160940268854, -0.08292725788556102, 2.162212132417635, 0.7090909125033577, 3.158636911028366, 1.6156717290205644], [-0.7536325787602876, 1.2217878773351944, -0.33391053280943495, -0.8444294428873419, 2.656275792152036, -1.210898788759089, -1.6938823935947047, -3.3560323322374983, -1.1832556044676583], [3.1444723980654987, 2.6122813763483093, -1.6946106937800731, -0.8996013949846764, 2.0171267928655796, 1.341458071284221, 1.9844252285144974, -1.8122309201206135, 0.12701747546344938], [2.3326411823749704, -3.0109349425416676, 2.8539125874576934, -1.4344204546866215, -0.9059130935585585, 3.177203869293527, -2.755107270587601, 0.9436202820013532, -0.8412154800911908], [0.9979692835182039, 1.9230938710430632, -0.14759639461402757, 0.03285315501096461, -3.207896799841979, 3.3150232032368483, 1.109385353458612, 3.671693270083632, -3.2076611752700286], [-2.964792139996998, 0.4893595536120445, -2.111980731915148, 2.6063527146409413, -3.462235168942787, -0.3369773477535984, 0.7940872309109508, 4.332541730447934, 1.0649587372930485]], "weights_ho": [[-2.034136680953884, -0.5848434905853284, 1.5182740416520202, 0.774507495240717, -0.8986423614531979, 0.15421120081830025, 0.7480457354345262, 0.7420769927880694, 0.7216525557462151, 2.0519828295748224, 4.189565497268704, -0.43226585766665726, 3.2718901184863287, 1.6313285093417251, 2.1537850075620812, -0.5893173751446169, 2.0042481656416284, 0.7319324934953051, 2.795979216179285, 0.0472973270636997], [1.7993433916031274, -3.540730472075485, 1.0884870706435301, -0.3470574205360115, 0.45414377957003677, -1.7978608256144017, 0.5056516521249972, 0.3158226418856123, 2.235097425004303, 0.5388705862361269, 3.7680488083624732, 2.3385302202593614, 1.8397317096924397, 0.2893901398316984, 1.8075723414410876, -2.321145117575557, 4.58424496982574, 3.648929469675154, 3.2582462177045617, 0.9573636350043997], [-0.41791876968840397, 0.659240807694631, -3.4310343974691677, -1.6048153006301347, 1.6855267436603498, 2.2285420880888687, 1.0894910865416165, -0.2714863086108614, 4.039275159494691, -1.110253770468753, 0.5154829935022937, 4.3687355168538025, 0.46863346137045836, 1.2127278011659623, -0.944343661732636, 2.549443558190564, -1.7739317777054298, 1.3425888843544111, 0.32807390265478925, 0.8782719312214093], [-0.357378020790269, 0.09065020461664977, 5.087224541602305, 0.1983135640526998, 1.246630445303156, -1.3555751288976303, 1.2113968519001486, 2.1803230229916273, 0.8765967980338674, -0.18769717497279303, 1.6195804977077102, -0.335811214930718, 2.003262885491012, 6.466651391494281, 1.0024906015577222, -0.9567432162110823, 1.8595982984762152, 2.2209933001222106, 1.7959049307140027, 1.8291805325251649]], "bias_h": [[2.005355392667938], [-2.2906152357688785], [1.7478566113078156], [0.6063991666785077], [3.0009967675365963], [-1.1698355243509058], [0.06830068119030125], [1.2543136940070223], [-0.07169356128325138], [0.4535187834111699], [-0.19647428988746968], [-1.5455079228021584], [-0.31388560649132907], [-1.1421183674946562], [0.2677608329333817], [0.07973788986348276], [2.234769047827608], [2.799530248294421], [1.055058296446286], [3.060726085631123]], "bias_o": [[0.2708622908110756], [0.14191320532787324], [-1.5519183383657191], [0.20630721335760532]]}, {"input_nodes": 9, "hidden_nodes": 20, "output_nodes": 4, "weights_ih": [[3.6161618649440954, 2.6956316056875766, 2.5941573919001244, -0.8887244656902481, 2.949882800944348, -1.7673082998306504, 0.7486864133137872, -3.6541926957302673, 0.23004239917135996], [0.47149508124717454, -2.1689841826558354, 0.41049965399139615, -2.8730724675735226, 2.983119059610953, -0.05699367201080692, -1.6657269489727287, -0.26411703183484936, 0.8652607245119902], [1.6107810182451183, -0.022453776928646293, -1.3745835066250494, -1.1847367820334085, 1.5916412973625447, -0.3440152427254025, -1.016951579680121, -2.3169282476784456, -1.8617867868233944], [-0.6022192428455565, -1.7566458597983257, -4.048369959280206, -2.247184191971512, 1.4789142489570657, 2.9578177810313697, 2.7468596875379157, 1.5949450979420174, -0.9428632030546386], [-1.6142921109379444, -0.3267173036986359, -3.3634263907308135, 1.0638507259305632, 2.016577204613921, 0.07444622967316367, 1.0930096639069105, -0.051112036166958856, 1.5425976581359793], [0.9739183886665176, 0.8046843389406401, -0.3471200644010163, 0.2307023222840524, 3.5964324946960495, 3.6734011981025705, -2.1314597560085264, 2.7736861520440454, -0.6018689748816476], [-0.24391790034552474, 1.434578238949743, 1.9405054261435706, 3.134361348376622, 2.9983137763464067, 0.6384235890775817, 3.345963593470525, -1.9823677584242312, 0.9191979070564464], [-2.1007856510866003, 2.4769713365896426, -0.17229921548759214, 0.3264070386752523, 0.44387984932832447, 2.2540002386692994, 2.2251151979187704, -1.9486172667299426, 0.7779121742615754], [-0.15704502739437418, -0.3896104969419929, 2.6223422938894463, 2.514333108840896, 0.05310021899221981, 0.8746471062473605, -0.9145431757949709, 3.443614579153709, 1.4025260480035244], [-0.8968854849591765, -0.20485610538589852, -0.602584198298616, -3.092331113266353, -0.9799778072115085, 1.5480814254458466, 0.3680297645394941, 0.6328994080194252, 0.5381399311559547], [-0.0025380078194474076, -1.0096899551140528, -0.6233689423616251, -0.1784282582065693, 3.78505164309496, 1.407498274003698, 1.7322491741712533, -2.1177562216588717, -1.2312429613359959], [-0.8655633385714194, -2.161007410781967, 3.4607235840934174, 2.644344486564323, 3.6464698317564848, 0.6749175713514366, 3.829266558561802, 1.2682813229415795, 1.5767314011255604], [1.017022034257852, 3.0067902515494396, -0.6602906130929411, 2.171763033416066, 0.7507092137168755, 1.2463875907401318, -0.08480506530006438, 0.4930799085094877, -1.875612225949105], [-0.42607906658979766, -3.618255614376113, 2.86790902658733, -0.12020438307228014, -0.29546092706376054, 0.4064441201853885, -1.1802529868007519, 0.7084538103556262, 3.723179520642314], [-2.4136369139039777, -0.6051697783027561, 5.544624403078737, -0.5620248880907195, -0.08292725788556102, 2.1452381203143345, 0.6712433536032454, 3.133920887545181, 1.6555581599257339], [-0.6748396280593298, 1.1302634840003258, -0.33391053280943495, -0.5685586495346145, 2.716607955609622, -1.21171258907811, -1.5499675628660738, -3.3875298264993634, -1.4977313379946051], [3.2260884978492, 2.7156862384950853, -1.7198723083967917, -1.1347944664774559, 1.9965760165274347, 1.3611173604131284, 1.9844252285144974, -1.6833569648295212, -0.03391792643572153], [2.3326411823749704, -2.9810348045020296, 2.6334004024293045, -1.6131043643322542, -0.9059130935585585, 3.1233974689274993, -2.78769315145588, 0.8754915296723071, -0.8412154800911908], [0.9069849469142406, 1.7970708771821693, -0.5146509791901203, 0.16448933880452787, -3.296561753925114, 3.2888409942266104, 0.972363413016937, 3.9067297214697856, -3.304394500392778], [-2.964792139996998, 0.4893595536120445, -1.961885022717642, 2.6139709687479233, -3.3153596310464355, -0.2303502913725212, 0.9263913071023314, 4.400002795013235, 1.1247901775919968]], "weights_ho": [[-2.034136680953884, -0.7488157328275683, 1.664801944769529, 0.774507495240717, -0.7973303127415097, 0.15421120081830025, 0.7480457354345262, 0.6519951999319337, 1.0211804093241776, 1.8468049888967033, 4.080390329808948, -0.6172338168444443, 3.2718901184863287, 1.6215048907865997, 2.1537850075620812, -0.7744639386204912, 2.158975491510711, 0.6301488069878661, 2.7137687565438893, 0.0472973270636997], [1.7663169430431325, -3.517648626187659, 1.1280940264533674, -0.3136532259510345, 0.2840181023247482, -1.813445439363039, 0.597434303800077, 0.30370424079115743, 2.235097425004303, 0.57542962681421, 3.799589618115059, 2.20483995950098, 1.8397317096924397, 0.2893901398316984, 1.9649422502147251, -2.373739423654958, 4.58424496982574, 3.6761354141144893, 3.1766232483845123, 1.272169793089485], [-0.3850689852542506, 0.6713483977956437, -3.5012615987707005, -1.3720587841453942, 1.6855267436603498, 2.217612431403266, 0.9658062777111417, -0.3017392921705924, 4.034122360905273, -1.1996646241717142, 0.5154829935022937, 4.388713450395676, 0.425144297857112, 1.204026798772701, -0.9346340918958994, 2.4304778826547424, -1.8521625733616587, 1.2059799985595752, 0.34744777943558164, 0.9693824069616508], [-0.4242962878675075, 0.09065020461664977, 5.15367828756346, 0.3847097183499884, 1.3759314634816784, -1.497012518835277, 1.0670915387791873, 2.1803230229916273, 0.8692459912275274, -0.26362927525500013, 1.7093484088312363, -0.3228156915487459, 2.003262885491012, 6.392768091507498, 1.0024906015577222, -0.8659736479791099, 1.8824981515328252, 2.242435877225141, 1.7959049307140027, 1.8450292750007833]], "bias_h": [[2.005355392667938], [-2.2764402268460726], [1.5429431383866528], [0.6063991666785077], [3.0009967675365963], [-1.264312543337527], [0.14898817179004906], [1.335736007079677], [-0.07169356128325138], [0.573480975024088], [-0.19647428988746968], [-1.6812413801748585], [-0.31388560649132907], [-1.1421183674946562], [0.2880132737350106], [0.25928704657165164], [2.3696397612936595], [2.7567804406684346], [1.1691708595482555], [3.060726085631123]], "bias_o": [[0.22841174008609288], [-0.005578163129329267], [-1.3856582826172916], [0.2783481765589805]]}, {"input_nodes": 9, "hidden_nodes": 20, "output_nodes": 4, "weights_ih": [[3.535021636703893, 2.6956316056875766, 2.571829013462938, -0.8887244656902481, 2.9571207134319875, -1.9094188611423109, 0.8581528374440107, -3.412851634452813, 0.19282816364323024], [0.6883777900249543, -2.1689841826558354, 0.40535812374469915, -2.8730724675735226, 3.155687080339331, -0.08465120427018577, -1.7284092993530373, -0.24449475189079278, 0.945483218357311], [1.6107810182451183, -0.03549961357481442, -1.2929685585972563, -1.202860696595301, 1.634459733558522, -0.3440152427254025, -1.1520478072124716, -2.2413522547202502, -1.929380496860277], [-0.5468640590423526, -1.8328039275258998, -3.9213734983938267, -2.2498662959618523, 1.5861183430814456, 2.9578177810313697, 2.7468596875379157, 1.6310331421176878, -0.9867509224713925], [-1.5421924807310217, -0.5478353389956745, -3.5048069531134107, 1.0638507259305632, 2.1608126968546095, 0.07444622967316367, 1.1301101660033626, 0.012547299556839128, 1.5425976581359793], [0.9907966968424946, 0.7534637123029209, -0.33558711157990956, 0.17578799041713472, 3.7117496434006996, 3.573816408339992, -2.0619613343484287, 2.407660924977075, -0.5365487995752403], [-0.25540303779087625, 1.434578238949743, 1.9405054261435706, 3.052100134267893, 2.9983137763464067, 0.8162590940608335, 3.363216262266004, -2.0523790192832263, 0.9191979070564464], [-2.1007856510866003, 2.7348736560939653, -0.22791450410914008, 0.3385768989967936, 0.33995537381693536, 2.16006717498395, 2.391802661133027, -1.9062518481651656, 0.7779121742615754], [-0.15153256543250754, -0.3896104969419929, 2.639930633411168, 2.5985608481621383, 0.05310021899221981, 0.8951926110938699, -0.8721853469536106, 3.426180515572152, 1.4599784495784074], [-0.8968854849591765, -0.017844405961134895, -0.8025163876485266, -2.9452450735232247, -0.9331498137931227, 1.6730494436068866, 0.3398643299160031, 0.6328994080194252, 0.5381399311559547], [-0.0025380078194474076, -1.0096899551140528, -0.7644495864322115, -0.08653356714199639, 3.6957269943141373, 1.4280769980384806, 1.7322491741712533, -1.7921105816672598, -1.1465329008325544], [-0.9393966996242651, -2.1375965711557647, 3.173801683789881, 2.6955487367145703, 3.6484178978386, 0.738247759765653, 3.8884022568551075, 1.3266486588055415, 1.6468044690061345], [1.017022034257852, 3.0067902515494396, -0.6602906130929411, 2.171763033416066, 0.7505261371857993, 1.2024620588462462, -0.08480506530006438, 0.3764661751953102, -1.82181691577187], [-0.2950655908752983, -3.4262547441894515, 2.7996329633930492, 0.05547282828148618, -0.457068811040243, 0.3786264983181713, -1.1802529868007519, 0.7084538103556262, 3.7503853013704784], [-2.4136369139039777, -0.4968010054743756, 5.7046701460252045, -0.5620248880907195, -0.28060739583641936, 2.0670373588530713, 0.6712433536032454, 3.1662807648499247, 1.5009035547057492], [-0.7903103155972623, 1.2217878773351944, -0.33391053280943495, -0.6556733836764579, 2.6970418139502557, -1.2033742533288252, -1.5750448915157207, -3.1188664064131277, -1.4420801249351507], [3.266761331033095, 2.7262770717932594, -1.7198723083967917, -1.1716199824701736, 1.9272808066989773, 1.4142888121418604, 1.969506271102636, -1.7550656847887471, 0.2136741868120095], [2.2597821909435107, -2.97116645770607, 2.716060173691548, -1.4344204546866215, -0.8539217645240671, 3.0543708261379825, -2.755107270587601, 0.9937538172355264, -0.8263091445442713], [0.9069849469142406, 1.9230938710430632, -0.6210604993222468, 0.3965801529728409, -3.3558351973044758, 3.3150232032368483, 0.972363413016937, 3.5198629549330045, -3.304394500392778], [-2.964792139996998, 0.358758502491098, -1.9365638439458701, 2.664141479956239, -3.3153596310464355, -0.2699154537803446, 0.6672802895896387, 4.198298562407518, 1.1223623541400056]], "weights_ho": [[-2.020841879513303, -0.6736384878822453, 1.4740950200471046, 0.774507495240717, -0.9366260880768928, 0.15421120081830025, 0.8134144969089662, 0.6520100238585189, 0.9539846293274126, 1.9997919618755688, 4.080390329808948, -0.2779589016243851, 3.1518531989477383, 1.6354351539136682, 2.1374824587435572, -0.5893173751446169, 1.9720131777193413, 0.7743664051643235, 2.7137687565438893, 0.0472973270636997], [1.7663169430431325, -3.540730472075485, 0.9656904601696419, -0.3136532259510345, 0.3156336499565837, -1.7978608256144017, 0.5151509413497718, 0.32520774072020087, 2.1941075582821745, 0.7415824284319228, 3.927884665935604, 2.4807342649552977, 1.8397317096924397, 0.2623261235178808, 1.8075723414410876, -2.313273370966235, 4.58424496982574, 3.5512308154987093, 3.4284608049111034, 1.0318850595908005], [-0.46345614517506173, 0.6713483977956437, -3.4310343974691677, -1.565865195427446, 1.6855267436603498, 2.2962251649723844, 1.018050171064893, -0.2714863086108614, 4.081561299067733, -1.1996646241717142, 0.5154829935022937, 4.416485516940974, 0.36498944881716616, 1.1879464866506135, -0.9346340918958994, 2.814949861932016, -1.8400972691377169, 1.2059799985595752, 0.32807390265478925, 0.7999959672699563], [-0.357378020790269, -0.12279247041199598, 5.226619726598758, 0.2739516937253981, 1.367828660305243, -1.352213718287786, 1.0082512931585759, 2.1803230229916273, 0.8692459912275274, -0.26362927525500013, 1.5863545168096038, -0.3228156915487459, 2.003262885491012, 6.4628865282415635, 0.9462637446138219, -0.9567432162110823, 1.8505196908983819, 2.242435877225141, 1.7959049307140027, 1.8203069931489058]], "bias_h": [[2.0011959647882254], [-2.2906152357688785], [1.5429431383866528], [0.5424158639792348], [3.0009967675365963], [-1.1698355243509058], [0.14898817179004906], [1.0707809149783205], [-0.09899136258457161], [0.6571029945260146], [-0.2917368520521901], [-1.5455079228021584], [-0.37387106919937263], [-1.1421183674946562], [0.18632215583408288], [0.2822775919602282], [2.234769047827608], [2.9136349043370413], [1.2005948130814157], [3.060726085631123]], "bias_o": [[0.3002938171161467], [0.07031350574241067], [-1.3492801726591233], [0.2666305816037221]]}, {"input_nodes": 9, "hidden_nodes": 20, "output_nodes": 4, "weights_ih": [[3.612034462382498, 2.4751174084300915, 2.5941573919001244, -0.8887244656902481, 3.072379459151926, -1.7673082998306504, 0.9955569768370842, -3.5901142767480794, 0.18190813326800814], [0.4686104520772648, -2.1689841826558354, 0.5155782107264827, -2.890352935456055, 3.1988669557872482, -0.08465120427018577, -1.604451874540299, -0.08285351359771997, 0.9274542152781358], [1.6107810182451183, 0.03714245279614478, -1.2376797398306203, -1.1908662323345327, 1.723099601974939, -0.33469623244770824, -0.9966965606777775, -2.2848694696734047, -2.0545682296368772], [-0.4968916810053225, -1.8328039275258998, -4.092722060519163, -2.2498662959618523, 1.5861183430814456, 2.9578177810313697, 2.6646352273986222, 1.7903524874132597, -0.8030794038587422], [-1.6149610440127191, -0.3267173036986359, -3.5825981589950535, 1.0638507259305632, 2.1608126968546095, 0.07444622967316367, 1.1301101660033626, 0.003585424470472942, 1.5425976581359793], [0.9907966968424946, 0.6096412831032362, -0.4401587702863652, 0.3891152970578772, 3.5964324946960495, 3.5644409611877723, -2.1639641859179988, 2.5467955112882095, -0.6018689748816476], [-0.25540303779087625, 1.5235060961990718, 1.9405054261435706, 3.052100134267893, 2.9983137763464067, 0.6335478443226403, 3.1078456346575614, -1.9787280427792555, 0.9191979070564464], [-2.1007856510866003, 2.4769713365896426, -0.1200604805547612, 0.5164087414570219, 0.3651689751014857, 2.16006717498395, 2.3225139906578645, -1.9634440719714703, 0.7164283210043273], [-0.15153256543250754, -0.4362246155454905, 2.6223422938894463, 2.584794652495686, 0.033649697956856586, 0.9395014192164111, -0.966872258708471, 3.443614579153709, 1.4817963356243093], [-0.9400387682026881, -0.05111915684687558, -0.602584198298616, -3.0238190132567717, -0.9830410687422535, 1.7679052384894511, 0.3398643299160031, 0.663352438358279, 0.5381399311559547], [0.058861454831666965, -1.0096899551140528, -0.4928438663463064, -0.34943074562066434, 3.6957269943141373, 1.3616651207307777, 1.649006602842624, -1.9832155429879224, -1.2312429613359959], [-0.8655633385714194, -1.968480522497343, 3.4242760154950638, 2.644344486564323, 3.6464698317564848, 0.5708832832080816, 3.829266558561802, 1.3266486588055415, 1.625115399707066], [1.017022034257852, 3.008273586689549, -0.6602906130929411, 2.171763033416066, 0.7507092137168755, 1.3079400015038487, -0.08480506530006438, 0.3764661751953102, -1.824368821742857], [-0.3654301936566701, -3.4105441446346045, 2.999696735714401, 0.05547282828148618, -0.457068811040243, 0.38075332367630965, -1.1802529868007519, 0.7084538103556262, 3.804642515731621], [-2.5614731021551016, -0.6051697783027561, 5.706546076857921, -0.6626141134378011, -0.08292725788556102, 2.162212132417635, 0.6537529058631628, 2.9923918510508254, 1.5009035547057492], [-0.6591540317821227, 1.2217878773351944, -0.33391053280943495, -0.6170585866437626, 2.748177246225059, -1.210898788759089, -1.5750448915157207, -3.1817617370297984, -1.472524765162107], [3.175016159714809, 2.6122813763483093, -1.7198723083967917, -1.1716199824701736, 1.9857045525295105, 1.5236680378526204, 1.9844252285144974, -1.731126784271376, 0.12701747546344938], [2.5033076837247155, -2.97116645770607, 2.6319315618125425, -1.3930853233968274, -0.9059130935585585, 3.1191217884553413, -2.997250122561075, 0.9108539862060602, -0.8412154800911908], [0.8115270755018664, 2.035206463393397, -0.4801901237826969, 0.2172257145661663, -3.0934241837401446, 3.2500206649680776, 0.8161963932141141, 3.671693270083632, -3.304394500392778], [-2.984563467361206, 0.4893595536120445, -2.111980731915148, 2.6139709687479233, -3.5333096371237263, -0.3369773477535984, 0.6925253332236139, 4.293675660331525, 1.1223623541400056]], "weights_ho": [[-2.0685483089222485, -0.7488157328275683, 1.5182740416520202, 0.6435045729020606, -0.8062615591731029, 0.0079187256932913, 0.8797552523288951, 0.7320702426732377, 0.6479028570691421, 1.9705667386805579, 4.019383989124143, -0.4951813636456596, 3.325962943613514, 1.6313285093417251, 2.226750666221113, -0.6870922041593611, 1.9720131777193413, 0.5760834547507208, 2.8803199527894514, 0.0472973270636997], [1.7663169430431325, -3.540730472075485, 0.9922909454910365, -0.25636647321106276, 0.5834973001737769, -1.7978608256144017, 0.5105480336692008, 0.30370424079115743, 2.235097425004303, 0.6974149612454686, 3.799589618115059, 2.353090374960243, 1.8796379564842376, 0.2800386431650884, 1.8075723414410876, -2.313273370966235, 4.54388144553779, 3.6423909780198094, 3.3053920771408034, 0.9573636350043997], [-0.3847930728589273, 0.6668040282734815, -3.4310343974691677, -1.6067963965293688, 1.6855267436603498, 2.2861351200759237, 1.2202783079934514, -0.32435040764024353, 3.8010859662301435, -1.1996646241717142, 0.5154829935022937, 4.433164545306557, 0.3035693140622657, 1.0996290478473527, -0.9346340918958994, 2.549443558190564, -1.8521625733616587, 1.2059799985595752, 0.39540035893077136, 0.7611130153384027], [-0.357378020790269, 0.09065020461664977, 4.964174951649135, 0.2739516937253981, 1.246630445303156, -1.3891519773913275, 1.0082512931585759, 2.2225841117704523, 0.8692459912275274, -0.08437804012206093, 1.6521127659782864, -0.3228156915487459, 1.8883299402712275, 6.2123338944347495, 1.0024906015577222, -0.9567432162110823, 1.8505196908983819, 2.2485518772606192, 1.7959049307140027, 1.8203069931489058]], "bias_h": [[1.9309841348039098], [-2.4891043277592764], [1.6302916502733462], [0.465941442217345], [3.0009967675365963], [-1.1698355243509058], [0.16108878696344575], [1.384453767119845], [-0.09496673307201796], [0.6571029945260146], [-0.19647428988746968], [-1.5455079228021584], [-0.4097630903756161], [-1.2090890051326453], [0.3206512234772074], [0.21440043639156375], [2.2679939664810163], [2.9136349043370413], [1.1691708595482555], [2.7171537217220876]], "bias_o": [[0.09627630991346403], [0.2348434658592247], [-1.426501562497553], [0.27914165827128645]]}, {"input_nodes": 9, "hidden_nodes": 20, "output_nodes": 4, "weights_ih": [[3.5344060774657615, 2.7078064972189715, 2.6529104624839257, -0.8887244656902481, 3.047887206072449, -1.7673082998306504, 0.9121748222535765, -3.5901142767480794, 0.2778529710507561], [0.4448240717597106, -2.0685781526766225, 0.2995825859218513, -2.9575640967295063, 3.1988669557872482, -0.10758000200531088, -1.6657269489727287, -0.1863778275908079, 0.8744180538272767], [1.761467880937033, 0.08207703155745533, -1.4636452876793424, -1.031808304937363, 1.5607570722338555, -0.4111949643227833, -1.1045205540038152, -2.0847453635820408, -1.929380496860277], [-0.7275955707336478, -1.851415675256255, -4.1312481359138244, -2.2498662959618523, 1.570464012783883, 2.828472771152877, 2.7415038320755647, 1.7026472452840058, -0.9580708921731144], [-1.6160064679595894, -0.20579957394060083, -3.5720632347844417, 1.0638507259305632, 2.1608126968546095, 0.07444622967316367, 1.1623561855494968, -0.07134127147582282, 1.5425976581359793], [1.0339641387491147, 0.7453510798568436, -0.33558711157990956, 0.20973888227752735, 3.47430378000441, 3.491297561681411, -2.1295793383012547, 2.7213428108542983, -0.6967263453945811], [-0.3167248320536456, 1.434578238949743, 1.9405054261435706, 2.971268789384206, 2.9983137763464067, 0.724438953685854, 3.275347834669099, -1.9787280427792555, 0.9191979070564464], [-2.1408357664312505, 2.4769713365896426, -0.17229921548759214, 0.3264070386752523, 0.4741595538089193, 2.2517012751163885, 2.2730923811435715, -1.9243394611247697, 0.7779121742615754], [-0.15153256543250754, -0.3896104969419929, 2.78028959645951, 2.584794652495686, 0.05310021899221981, 0.9509645268689996, -1.0865036385597024, 3.443614579153709, 1.4197956615445129], [-0.9908165158044496, -0.06828806230439102, -0.6932033367202337, -2.9367463932241744, -1.0000745655782894, 1.7679052384894511, 0.3398643299160031, 0.5209730269619207, 0.6641933259738885], [-0.0025380078194474076, -1.0702364814623126, -0.7600541346236371, -0.1784282582065693, 3.67811819427936, 1.4802599651433812, 1.741175154456648, -1.9860499277100938, -1.2312429613359959], [-0.8655633385714194, -2.0922346120271462, 3.321676497577204, 2.644344486564323, 3.6464698317564848, 0.7696845469402065, 3.888364692659106, 1.3266486588055415, 1.5767314011255604], [1.017022034257852, 3.0843877488765012, -0.6602906130929411, 2.2457997860345955, 0.7507092137168755, 1.2558277876104091, -0.1768757201058544, 0.3764661751953102, -1.7927580283912776], [-0.43924904394220454, -3.4135925627142276, 2.701249233010173, -0.009707539192891745, -0.457068811040243, 0.38075332367630965, -1.2461333000735269, 0.7084538103556262, 3.7014708592357715], [-2.4136369139039777, -0.6051697783027561, 5.5758013046774675, -0.5620248880907195, 0.000744741395560522, 2.162212132417635, 0.6712433536032454, 3.052429690522839, 1.5540211595455942], [-0.5354962608156035, 1.2217878773351944, -0.33391053280943495, -0.7310151120346778, 2.627619233327894, -1.0399240560076826, -1.5750448915157207, -3.3560323322374983, -1.4585189877780567], [3.246526169059704, 2.6122813763483093, -1.6320365313558813, -1.1846478489962644, 1.9965760165274347, 1.4494736227326315, 1.9844252285144974, -1.6311294767415685, 0.13656429684580146], [2.3326411823749704, -2.97116645770607, 2.7757068719442906, -1.4344204546866215, -0.993127512978645, 3.1233974689274993, -2.755107270587601, 0.7693437457017822, -0.7736010847698255], [0.9069849469142406, 2.049191614441934, -0.4801901237826969, 0.2172257145661663, -3.1990310813506078, 3.3150232032368483, 0.9165661590381069, 3.713372938498884, -3.304394500392778], [-2.8855933558945237, 0.3622815309998463, -2.111980731915148, 2.6139709687479233, -3.3153596310464355, -0.3369773477535984, 0.8777049843952274, 4.400002795013235, 1.1223623541400056]], "weights_ho": [[-2.034136680953884, -0.7008989254594887, 1.5182740416520202, 0.774507495240717, -0.8298122489810615, 0.15421120081830025, 0.7480457354345262, 0.6519951999319337, 0.7466847926768077, 1.8468049888967033, 4.085945550956312, -0.520421581362702, 3.2718901184863287, 1.6313285093417251, 1.9703949545406036, -0.7272910390286462, 1.9720131777193413, 0.6301488069878661, 2.821996554617403, 0.0472973270636997], [1.7663169430431325, -3.540730472075485, 1.0884870706435301, -0.3136532259510345, 0.3155359755564918, -1.83065757028342, 0.5439557385141136, 0.30370424079115743, 2.1089363882015166, 0.5158370732293155, 3.9323540456074566, 2.3385302202593614, 1.8397317096924397, 0.2893901398316984, 1.8075723414410876, -2.313273370966235, 4.611355865102697, 3.6667098196563197, 3.264120884342409, 0.9573636350043997], [-0.41412909676760523, 0.631279776521168, -3.4330062097034504, -1.4711684837733319, 1.6855267436603498, 2.4354605911886145, 1.112693910767657, -0.20932088323641973, 4.062441732900348, -1.1996646241717142, 0.35952174888093474, 4.3687355168538025, 0.412129638402891, 1.0747385528482076, -0.9346340918958994, 2.4509281793339315, -1.939033485759826, 1.1952863011138972, 0.32807390265478925, 0.8782719312214093], [-0.357378020790269, 0.09065020461664977, 5.087224541602305, 0.31816207791744583, 1.246630445303156, -1.3891519773913275, 0.6933173120113201, 2.1803230229916273, 0.9744308605389651, -0.16753530214981088, 1.6922004173553582, -0.28673099958795617, 2.003262885491012, 6.392768091507498, 1.0024906015577222, -0.9548671580741226, 1.8505196908983819, 2.242435877225141, 1.7959049307140027, 1.697700025945359]], "bias_h": [[1.97039108134941], [-2.2906152357688785], [1.3798470005770107], [0.5820012988023991], [2.9062991724107023], [-1.008124029420658], [0.09183122709085385], [1.2055480875140216], [-0.07169356128325138], [0.6571029945260146], [0.032507881266039484], [-1.5455079228021584], [-0.31388560649132907], [-1.1421183674946562], [0.2677608329333817], [0.3234120177265223], [2.1392734417683754], [2.9136349043370413], [1.0462090571783484], [3.011134566822664]], "bias_o": [[0.3869387029769138], [0.16350590432212986], [-1.466912447048934], [0.2783481765589805]]}, {"input_nodes": 9, "hidden_nodes": 20, "output_nodes": 4, "weights_ih": [[3.6039836638390277, 2.6956316056875766, 2.5941573919001244, -0.9581739087184744, 3.1257976405890116, -1.7673082998306504, 0.9121748222535765, -3.5940010408273007, 0.11651013678391331], [0.4448240717597106, -2.1689841826558354, 0.40918781044742425, -2.8730724675735226, 3.0385441315142305, -0.08465120427018577, -1.6492898071983948, -0.1863778275908079, 0.8652607245119902], [1.4403608824252623, 0.03882923187074569, -1.3278867723342516, -1.1600137383407427, 1.697537833377279, -0.3440152427254025, -1.0176708901569604, -2.366511702349684, -1.8933427320128506], [-0.7186231977790328, -1.9048674038108484, -4.092550316161014, -2.315888206348393, 1.5858150457807103, 2.8189848116669807, 2.7468596875379157, 1.6347003019159332, -0.9990567120748748], [-1.6696446218546008, -0.3267173036986359, -3.5825981589950535, 0.9910747574409169, 2.1608126968546095, -0.07434004411873563, 1.1301101660033626, -0.07134127147582282, 1.5604198920597916], [0.9907966968424946, 0.7534637123029209, -0.33558711157990956, 0.04336426478827568, 3.5964324946960495, 3.5896471266103034, -2.0619613343484287, 2.4875437965258653, -0.6048665679145182], [-0.20468009931016024, 1.4319577956888982, 2.050642362424528, 2.864976595589377, 3.154024117372331, 0.6090286457934259, 3.346604645625593, -1.9787280427792555, 0.9191979070564464], [-2.1007856510866003, 2.4769713365896426, -0.14703164510890712, 0.3264070386752523, 0.4731394911332265, 2.16006717498395, 2.230918217180918, -1.96088611316612, 0.7779121742615754], [-0.1813674814180645, -0.36821208432334634, 2.648031765708675, 2.584794652495686, 0.05310021899221981, 0.8951926110938699, -0.8721853469536106, 3.364748845035191, 1.4817963356243093], [-0.8968854849591765, -0.06828806230439102, -0.602584198298616, -2.956695392803949, -0.9037388307829115, 1.7679052384894511, 0.3398643299160031, 0.6328994080194252, 0.569397148451099], [-0.0025380078194474076, -1.0405343211624325, -0.6152486184360992, -0.34971374256070875, 3.900605865066248, 1.4280769980384806, 1.4811776840466728, -1.615467138987832, -1.1998733249484068], [-0.8655633385714194, -2.0922346120271462, 3.321676497577204, 2.644344486564323, 3.736537852253772, 0.8102786962120452, 3.7847458190487195, 1.4467076918845678, 1.5767314011255604], [1.017022034257852, 3.0067902515494396, -0.6602906130929411, 2.171763033416066, 0.7507092137168755, 1.2024620588462462, 0.17096987371083655, 0.3764661751953102, -1.9039693075472204], [-0.4107335530083865, -3.4262547441894515, 2.7996329633930492, -0.04882448473422066, -0.39327646523646287, 0.38075332367630965, -1.1802529868007519, 0.7084538103556262, 3.780483268743548], [-2.4136369139039777, -0.6051697783027561, 5.655641289705631, -0.6768427974604624, -0.08292725788556102, 1.9994524856688902, 0.6712433536032454, 3.1943980777954657, 1.5009035547057492], [-0.6748396280593298, 1.2217878773351944, -0.18542497422142537, -0.7069440341608881, 2.748177246225059, -1.124298582106056, -1.6062289501340845, -3.3560323322374983, -1.472524765162107], [3.2534608398035556, 2.6085222056075774, -1.6460607382536014, -1.1716199824701736, 1.9965760165274347, 1.4142888121418604, 2.034127673940542, -1.731126784271376, 0.19721343408281966], [2.3218462906646584, -2.97116645770607, 2.6319315618125425, -1.301260150852299, -0.9059130935585585, 3.1233974689274993, -2.816941748311201, 0.8754915296723071, -0.8412154800911908], [0.8195133924237186, 1.8756621164361513, -0.4801901237826969, 0.2172257145661663, -3.207896799841979, 3.3150232032368483, 0.8283031441667793, 3.671693270083632, -3.304394500392778], [-2.964792139996998, 0.4893595536120445, -2.111980731915148, 2.6139709687479233, -3.1590422326150263, -0.2018750307345611, 0.7972442215586205, 4.400002795013235, 1.1223623541400056]], "weights_ho": [[-2.034136680953884, -0.7488157328275683, 1.5182740416520202, 0.774507495240717, -0.8062615591731029, 0.15421120081830025, 0.8032680934318922, 0.5844869404509065, 0.8382338630966739, 1.8468049888967033, 4.035624367502823, -0.5100058559265258, 3.278588907331347, 1.6190774097250709, 2.217545467311886, -0.5893173751446169, 1.9720131777193413, 0.7038186853769043, 2.8436429905918987, 0.07593106958631732], [1.804104102486252, -3.5506803568614997, 1.0884870706435301, -0.21699185155995643, 0.3156336499565837, -1.7656396491457538, 0.5011680661415889, 0.25473491479606464, 2.2027281301892443, 0.6069023567547104, 3.799589618115059, 2.3385302202593614, 1.8397317096924397, 0.28153394799886394, 1.8075723414410876, -2.0278085274264344, 4.517115005893363, 3.6667098196563197, 3.3053920771408034, 0.9573636350043997], [-0.4737246014038353, 0.6295751078133008, -3.4314231938572246, -1.4819799440417214, 1.6855267436603498, 2.2861351200759237, 1.112693910767657, -0.2714863086108614, 3.9379603422670515, -1.1299759945376169, 0.5459913457750406, 4.30942850861818, 0.36498944881716616, 1.2127278011659623, -0.9346340918958994, 2.549443558190564, -1.8521625733616587, 1.2554879766261955, 0.415038158310977, 0.7769536481632022], [-0.42273273846115683, 0.051360857026784695, 5.087224541602305, 0.49860386691230985, 1.2161352114225297, -1.3891519773913275, 1.0082512931585759, 2.1803230229916273, 0.850960243954052, -0.3815613058433077, 1.7627013047946, -0.3228156915487459, 2.003262885491012, 6.378959520566049, 1.037812181928395, -0.8601510739926125, 1.9299435651808143, 2.242435877225141, 1.7959049307140027, 1.6436085556214715]], "bias_h": [[2.005355392667938], [-2.3247645452357406], [1.6190333892335103], [0.6835923143047764], [2.931672815099983], [-1.1698355243509058], [0.14898817179004906], [1.2767535178424942], [-0.07169356128325138], [0.6571029945260146], [-0.19647428988746968], [-1.5455079228021584], [-0.22987278535406436], [-1.1421183674946562], [0.2965186788375334], [0.21440043639156375], [2.3317762298762124], [3.1228710995729974], [1.178466114276962], [3.060726085631123]], "bias_o": [[0.3002938171161467], [0.14191320532787324], [-1.1627152000056107], [0.2783481765589805]]}, {"input_nodes": 9, "hidden_nodes": 20, "output_nodes": 4, "weights_ih": [[3.6167763807477846, 2.608510142481581, 2.5941573919001244, -0.8887244656902481, 2.9569250550226753, -1.781312248113288, 0.9121748222535765, -3.5901142767480794, 0.2508323135279898], [0.4448240717597106, -2.281785726637485, 0.2995825859218513, -2.8730724675735226, 3.3964029457609697, 0.03487324263700137, -1.7330391693882352, -0.19753968829389837, 0.7175735763901735], [1.632015870966735, 0.07161252901198455, -1.3278867723342516, -1.202860696595301, 1.634459733558522, -0.33973311616743473, -1.1406152193968127, -2.2848694696734047, -1.929380496860277], [-0.4835621002615863, -1.725357959896289, -4.124935239293325, -2.208934912785811, 1.5861183430814456, 2.9651807385936317, 2.827707978770251, 1.6849828409009404, -0.9041260476608579], [-1.658034588115721, -0.3267173036986359, -3.5825981589950535, 0.9384141281923273, 2.1608126968546095, 0.06918105391237861, 1.1301101660033626, -0.07134127147582282, 1.542236596627934], [0.9907966968424946, 0.8306740284184624, -0.33558711157990956, 0.20973888227752735, 3.5964324946960495, 3.573816408339992, -1.954188053048018, 2.736314494739585, -0.45736360038155477], [-0.2918038144533708, 1.4690692344074041, 1.9405054261435706, 3.052100134267893, 2.9983137763464067, 0.6056729470961563, 3.2799665627127315, -2.0101440627965714, 0.9191979070564464], [-2.1007856510866003, 2.4769713365896426, -0.17229921548759214, 0.29087083819510806, 0.459929813392979, 2.16006717498395, 2.230918217180918, -2.0786917113892356, 0.8567043987801797], [-0.15153256543250754, -0.2945808501526806, 2.6223422938894463, 2.584794652495686, 0.05310021899221981, 0.8893825883228406, -0.8721853469536106, 3.443614579153709, 1.6390401503900311], [-0.8968854849591765, 0.02373170960297917, -0.602584198298616, -2.8637827888810423, -0.7683877742525607, 1.8775155339477743, 0.41394926195852844, 0.5376041778027627, 0.6314678651514699], [-0.0025380078194474076, -0.9761770996236487, -0.6152486184360992, -0.24536216064340116, 3.7024022866226103, 1.4280769980384806, 1.7909591856973233, -1.9960807313086912, -1.3928582552022655], [-0.8655633385714194, -2.245060886964959, 3.2444127255520376, 2.644344486564323, 3.6464698317564848, 0.7696845469402065, 3.829266558561802, 1.3266486588055415, 1.5767314011255604], [1.017022034257852, 3.0067902515494396, -0.658674408141564, 1.8979274251394096, 0.8348890302771519, 1.2024620588462462, -0.0772774089211923, 0.3764661751953102, -1.9150354522741058], [-0.3349604652357341, -3.340546869461101, 2.7996329633930492, 0.05547282828148618, -0.457068811040243, 0.3766220421452282, -1.141926448519248, 0.6137960372217772, 3.780483268743548], [-2.4136369139039777, -0.6051697783027561, 5.5150731491115295, -0.5968949134923958, -0.08292725788556102, 2.162212132417635, 0.6712433536032454, 3.133920887545181, 1.398810290074074], [-0.6419009719490512, 1.2217878773351944, -0.3710690253622757, -0.6828562928796861, 2.748177246225059, -1.2790738609634864, -1.5750448915157207, -3.2256324560975944, -1.472524765162107], [3.3356153100424417, 2.6509562740366097, -1.7198723083967917, -1.1716199824701736, 1.8134718132779775, 1.4142888121418604, 1.9844252285144974, -1.7660918942546515, 0.12701747546344938], [2.362328771129014, -2.97116645770607, 2.465673657018725, -1.2873995209666063, -1.011601186248336, 3.1929947771042717, -2.755107270587601, 0.9382208841716816, -0.946388896873184], [0.9242164676063548, 1.9230938710430632, -0.5516266614622015, 0.2172257145661663, -3.243836325663745, 3.3150232032368483, 1.0251756839708317, 3.550008408099604, -3.416349328372953], [-2.964792139996998, 0.45446734081944296, -2.0977574690231315, 2.6139709687479233, -3.4240510122842687, -0.3369773477535984, 0.7972442215586205, 4.213458551638161, 1.1990628500421823]], "weights_ho": [[-2.034136680953884, -0.7009438511153249, 1.5182740416520202, 0.774507495240717, -0.8062615591731029, 0.29665903009334527, 0.5955862638893792, 0.6994323669537831, 0.523655213197866, 1.8468049888967033, 4.080390329808948, -0.5346692218156178, 3.2718901184863287, 1.6163668831370954, 2.1537850075620812, -0.6254652806153606, 1.9720131777193413, 0.5626798172078633, 2.7137687565438893, 0.039220110684787646], [1.863252711213081, -3.540730472075485, 1.179603671229068, -0.28591162434331874, 0.3156336499565837, -1.7978608256144017, 0.4316239655000213, 0.35867830332634343, 2.20375553245617, 0.6974149612454686, 3.799589618115059, 2.2036708580480977, 1.8397317096924397, 0.2893901398316984, 1.7536479280733053, -2.313273370966235, 4.58424496982574, 3.655567413566516, 3.3053920771408034, 1.0683532430684322], [-0.41412909676760523, 0.6713483977956437, -3.4310343974691677, -1.5416683334312953, 1.6476439423140485, 2.1779301677479443, 1.0673303944226828, -0.2785049514654345, 3.981964028698412, -1.3655573662050724, 0.5463691769718957, 4.3687355168538025, 0.36498944881716616, 1.2127278011659623, -0.9346340918958994, 2.549443558190564, -1.8521625733616587, 1.1565697313240024, 0.3457253522314776, 0.9237813161598356], [-0.34327008065755593, 0.14008756319256938, 5.087224541602305, 0.34702748010147655, 1.246630445303156, -1.3891519773913275, 1.0406019916656446, 2.1803230229916273, 0.8620491091226666, -0.26362927525500013, 1.7469472492119913, -0.3228156915487459, 2.003262885491012, 6.392768091507498, 1.0024906015577222, -0.9567432162110823, 1.8505196908983819, 2.209405792429819, 1.8667152603612263, 1.857725698682325]], "bias_h": [[2.005355392667938], [-2.2906152357688785], [1.5429431383866528], [0.6063991666785077], [2.920243863378057], [-1.1698355243509058], [0.14898817179004906], [1.2543136940070223], [0.04945332058105506], [0.6959461273731111], [-0.17762234267369076], [-1.5455079228021584], [-0.31388560649132907], [-1.2637267466504825], [0.2677608329333817], [0.2552232660748338], [2.234769047827608], [2.660687883539428], [1.1691708595482555], [3.2248382348673306]], "bias_o": [[0.18208246134924466], [0.14191320532787324], [-1.3492801726591233], [0.4012919568058575]]}, {"input_nodes": 9, "hidden_nodes": 20, "output_nodes": 4, "weights_ih": [[3.620460617728736, 2.565891660699916, 2.556020541430225, -0.8596438442472226, 2.986132771285585, -1.648513336086084, 0.9121748222535765, -3.5901142767480794, 0.5417531634301698], [0.4448240717597106, -2.1689841826558354, 0.3559319876704774, -2.8454914434637013, 3.2345997924650223, -0.08465120427018577, -1.4779586186248364, -0.1863778275908079, 0.9206608185173037], [1.6213280992190122, -0.046662543243412596, -1.3278867723342516, -1.4037990013154336, 1.563022791659305, -0.1516662377867601, -0.9901013086821416, -2.2848694696734047, -1.929380496860277], [-0.6146450233883778, -1.8328039275258998, -4.101866027195559, -2.3201067124125805, 1.5861183430814456, 2.9578177810313697, 2.7468596875379157, 1.6849828409009404, -0.9041260476608579], [-1.5907083187920532, -0.3267173036986359, -3.5825981589950535, 1.0022319872924723, 2.1608126968546095, -0.04719194161094477, 1.1301101660033626, -0.11240323014394357, 1.4687289111841275], [0.9907966968424946, 0.934184599060625, -0.33558711157990956, 0.31368801151089265, 3.5964324946960495, 3.524534930446265, -2.0619613343484287, 2.5467955112882095, -0.6018689748816476], [-0.31580848157044616, 1.5280703314058872, 2.0687155042405028, 3.102849201709343, 2.9983137763464067, 0.6450920041520151, 3.275347834669099, -1.9787280427792555, 0.9191979070564464], [-2.256011823971854, 2.4769713365896426, -0.17229921548759214, 0.3264070386752523, 0.459929813392979, 2.16006717498395, 2.1476177036466306, -1.8077559971291381, 0.7779121742615754], [-7.465601406070332e-05, -0.3896104969419929, 2.4950334060036714, 2.584794652495686, 0.05310021899221981, 0.8951926110938699, -0.8721853469536106, 3.509718204396975, 1.5911424929232778], [-0.8968854849591765, -0.06828806230439102, -0.6084640875390155, -3.03026293793177, -0.9527480580347789, 1.7679052384894511, 0.37869993572746935, 0.6120361467026509, 0.7598496357712408], [-0.0025380078194474076, -1.0096899551140528, -0.6152486184360992, -0.19067924521700172, 3.839204689618665, 1.2931075768372757, 1.7322491741712533, -1.9860499277100938, -1.3176788727548998], [-0.8655633385714194, -2.0922346120271462, 3.349200272646065, 2.5919579834006763, 3.6121389083346465, 0.7696845469402065, 3.944249333923392, 1.23777722425883, 1.6102763766389467], [1.017022034257852, 3.0067902515494396, -0.6602906130929411, 2.095140936040111, 0.5838623401009262, 1.2932125464548556, -0.019314109751089603, 0.3764661751953102, -1.9150354522741058], [-0.4444757142483001, -3.4262547441894515, 2.7434937714642533, 0.05547282828148618, -0.4011663164688079, 0.38075332367630965, -1.033933504090899, 0.7084538103556262, 3.780483268743548], [-2.4136369139039777, -0.6051697783027561, 5.5758013046774675, -0.5769791730946521, -0.023850348057293372, 2.162212132417635, 0.6712433536032454, 3.133920887545181, 1.5009035547057492], [-0.6748396280593298, 1.1854097261470526, -0.3805155531960232, -0.7115064726684486, 2.748177246225059, -1.230308504252569, -1.5750448915157207, -3.656972714295726, -1.4768535824859883], [3.5068017644085976, 2.6122813763483093, -1.7748300173012161, -1.1520293040650327, 1.9965760165274347, 1.4142888121418604, 1.9378772254412784, -1.6837543764519114, 0.12701747546344938], [2.3326411823749704, -2.9200351852903217, 2.6319315618125425, -1.4344204546866215, -0.9569856937070398, 3.109225099349504, -2.75982782878246, 0.8754915296723071, -0.8412154800911908], [1.036305011841209, 1.9230938710430632, -0.4801901237826969, 0.2172257145661663, -3.207896799841979, 3.388373721307961, 0.972363413016937, 3.8410268214939194, -3.4164127820549983], [-3.0148847079458903, 0.4893595536120445, -2.111980731915148, 2.5238638616973086, -3.3397751040745725, -0.26448988244818955, 0.8662401426131754, 4.400002795013235, 1.1223623541400056]], "weights_ho": [[-1.9451545312418967, -0.7488157328275683, 1.5182740416520202, 0.8854128515140077, -0.8062615591731029, 0.21454298573079378, 0.6813058286790661, 0.6243333496216754, 0.6059305317557326, 1.8468049888967033, 4.080390329808948, -0.5172342973785703, 3.1121266262457237, 1.6313285093417251, 2.1537850075620812, -0.6413218133855849, 1.9564799720340011, 0.6301488069878661, 2.794243308452573, 0.0472973270636997], [1.7663169430431325, -3.544914043034433, 1.0215612824190854, -0.37424740970809517, 0.44185043976657007, -1.6072172657302153, 0.63381122481816, 0.07645803006038021, 2.235097425004303, 0.669128911835394, 3.7613694337134147, 2.3385302202593614, 1.8126485346167682, 0.2893901398316984, 1.7935235342477027, -2.313273370966235, 4.598686919244195, 3.6667098196563197, 3.4690304685347093, 0.9573636350043997], [-0.49040020588276767, 0.5927914622299694, -3.4310343974691677, -1.4413005745339276, 1.6855267436603498, 2.2861351200759237, 0.955657215657851, -0.2714863086108614, 4.138728356656973, -1.1996646241717142, 0.5154829935022937, 4.3687355168538025, 0.36498944881716616, 1.2127278011659623, -0.9877302565529926, 2.7011896264762805, -1.7958112214835358, 1.2059799985595752, 0.32807390265478925, 0.8782719312214093], [-0.357378020790269, 0.09065020461664977, 5.087224541602305, 0.2739516937253981, 1.246630445303156, -1.3891519773913275, 1.031780560065012, 2.1803230229916273, 0.8692459912275274, -0.1019744382425152, 1.5845744975819183, -0.3228156915487459, 1.9512874238358298, 6.392768091507498, 1.0024906015577222, -0.9208805767003188, 2.074943256860929, 2.242435877225141, 1.7959049307140027, 1.8203069931489058]], "bias_h": [[1.9281675278347126], [-2.3729467828241133], [1.5429431383866528], [0.6063991666785077], [3.0009967675365963], [-1.1698355243509058], [0.1298587901251167], [1.2543136940070223], [0.038333645799439514], [0.6381609915513449], [-0.25150155935479596], [-1.5455079228021584], [-0.27005764249750575], [-1.1421183674946562], [0.29812934947696806], [0.09047044935350344], [2.367037476549228], [2.975193849941448], [1.2820660815439404], [3.060726085631123]], "bias_o": [[0.3002938171161467], [0.22245271024307323], [-1.3492801726591233], [0.2783481765589805]]}, {"input_nodes": 9, "hidden_nodes": 20, "output_nodes": 4, "weights_ih": [[3.6225054979524587, 2.6956316056875766, 2.445495629453129, -0.9355016450416825, 3.1958108805171515, -1.7673082998306504, 1.0862611309074461, -3.6503405913921028, 0.12758620826480782], [0.4448240717597106, -2.148818152243215, 0.2995825859218513, -3.0928269665904073, 3.1988669557872482, -0.08465120427018577, -1.4530030694338945, -0.1863778275908079, 0.8652607245119902], [1.6183820920094645, 0.03714245279614478, -1.2061152755217872, -1.202860696595301, 1.5757812328732477, -0.36373198553310965, -1.1100253643956302, -2.1333239842876304, -1.7121998775572833], [-0.6786550265722094, -1.8328039275258998, -4.082340172117634, -2.2498662959618523, 1.6617748696072074, 2.823335790407475, 2.7968063634480953, 1.6849828409009404, -0.8109092262012428], [-1.5569036108100789, -0.3267173036986359, -3.7264210651356264, 1.0638507259305632, 2.1053132943310353, 0.042522726155783945, 1.1301101660033626, -0.11606812989499343, 1.655487151313053], [0.9907966968424946, 0.8483146264444824, -0.41576399985384266, 0.20973888227752735, 3.828477748983046, 3.573816408339992, -2.3445496137499537, 2.5467955112882095, -0.4905264248449174], [-0.25540303779087625, 1.4807866570820185, 2.075277815261389, 3.004463659477681, 2.9811263986182395, 0.5170665375778287, 3.275347834669099, -1.9190076159908973, 0.8864373791195744], [-2.1007856510866003, 2.321250156878039, -0.17229921548759214, 0.16475134102576247, 0.48829263137270235, 2.027219113838913, 2.230918217180918, -1.96088611316612, 0.7779121742615754], [-0.15153256543250754, -0.302211749483061, 2.6223422938894463, 2.6677603612806298, 0.05310021899221981, 0.8793845909442728, -0.8721853469536106, 3.56643689759735, 1.458621685814338], [-0.8968854849591765, -0.06828806230439102, -0.602584198298616, -2.8939128136754677, -0.8911502655414171, 1.7679052384894511, 0.3398643299160031, 0.6328994080194252, 0.5381399311559547], [-0.0025380078194474076, -1.0096899551140528, -0.6152486184360992, -0.1784282582065693, 3.7465948950587618, 1.4280769980384806, 1.7595599353503255, -2.123531684295958, -1.2107059501479789], [-0.8655633385714194, -2.086436507434809, 3.321676497577204, 2.455531845584189, 3.6464698317564848, 0.7696845469402065, 3.829266558561802, 1.3860872573008625, 1.5767314011255604], [0.9143470180238559, 3.0067902515494396, -0.6602906130929411, 2.130810984162052, 0.7818942020253418, 1.1909656017915335, -0.08480506530006438, 0.3764661751953102, -1.9150354522741058], [-0.2946459442894075, -3.4262547441894515, 2.6883067138070196, 0.08464404120588691, -0.457068811040243, 0.39311444142416424, -1.1455451764866345, 0.6332838675830588, 3.888076247301791], [-2.4136369139039777, -0.6051697783027561, 5.829148911257814, -0.5620248880907195, -0.08658136100456984, 2.162212132417635, 0.6712433536032454, 3.133920887545181, 1.5009035547057492], [-0.7909401821631051, 1.2217878773351944, -0.33391053280943495, -0.7010885964179654, 2.748177246225059, -1.327004000504746, -1.5750448915157207, -3.3560323322374983, -1.472524765162107], [3.381333508987958, 2.4406581776861396, -1.7198723083967917, -1.1716199824701736, 1.9965760165274347, 1.4413163062832286, 2.1133611431152968, -1.731126784271376, 0.12701747546344938], [2.3326411823749704, -2.7832966548378617, 2.775895271544948, -1.4104961903933457, -0.9059130935585585, 3.1408107327302677, -2.6646301761371762, 0.7672311215824585, -0.6736646976220944], [0.8286888045478482, 1.8918423795795483, -0.4801901237826969, 0.2172257145661663, -3.2223601031450375, 3.3150232032368483, 0.8353020939935429, 3.671693270083632, -3.320658729380579], [-2.964792139996998, 0.4893595536120445, -2.2471092190353366, 2.6139709687479233, -3.24668740156161, -0.273887553163052, 0.8040328068070854, 4.400002795013235, 1.1367412561615653]], "weights_ho": [[-2.034136680953884, -0.7488157328275683, 1.3712816929829241, 0.774507495240717, -0.8547199721197463, 0.15421120081830025, 0.7480457354345262, 0.6519951999319337, 0.8318471249630695, 1.852272682820634, 4.080390329808948, -0.4951813636456596, 3.2718901184863287, 1.7587851985089356, 2.1537850075620812, -0.6646160403457582, 1.96733106268074, 0.7146706115956726, 2.7137687565438893, 0.04141074495900839], [1.780559740019337, -3.7212484772662098, 1.0884870706435301, -0.4398643761417399, 0.31955407311006206, -1.7978608256144017, 0.5151509413497718, 0.30370424079115743, 2.235097425004303, 0.6974149612454686, 3.7932036436073195, 2.3385302202593614, 1.714614519783002, 0.35165004652940995, 1.8075723414410876, -2.313273370966235, 4.733384218812122, 3.6667098196563197, 3.3053920771408034, 1.0479786562958737], [-0.41412909676760523, 0.6713483977956437, -3.4310343974691677, -1.4819799440417214, 1.71210638957474, 2.2861351200759237, 1.112693910767657, -0.30913373748518913, 4.034122360905273, -1.17376673547529, 0.5154829935022937, 4.3687355168538025, 0.36498944881716616, 1.2127278011659623, -0.9346340918958994, 2.6572383461981333, -2.0290519927987822, 1.2059799985595752, 0.32807390265478925, 0.8782719312214093], [-0.44108025076433627, 0.041458714471991544, 5.087224541602305, 0.37336757479550386, 1.246630445303156, -1.3891519773913275, 1.0375990380644167, 2.026267093721959, 0.8727894874147, -0.15834581366572376, 1.6922004173553582, -0.3228156915487459, 2.003262885491012, 6.552666817462503, 1.0164807967122167, -0.9567432162110823, 1.8602947416128797, 2.3063104109975705, 1.7959049307140027, 1.839002851737695]], "bias_h": [[2.043362719017664], [-2.2906152357688785], [1.5429431383866528], [0.6063991666785077], [3.0009967675365963], [-1.1698355243509058], [0.4722458403338373], [1.2543136940070223], [-0.07169356128325138], [0.4950999110341126], [-0.27023291602380206], [-1.5455079228021584], [-0.2925912958081773], [-1.1421183674946562], [0.2677608329333817], [0.019254410623927493], [2.2627118047806083], [2.9600230154621827], [1.1691708595482555], [3.1256596110155814]], "bias_o": [[0.3002938171161467], [0.10897440492084898], [-1.2870993411615366], [0.2783481765589805]]}, {"input_nodes": 9, "hidden_nodes": 20, "output_nodes": 4, "weights_ih": [[3.6167763807477846, 2.6956316056875766, 2.470435694588498, -0.8583815589936855, 3.12659442083404, -1.7636928136805141, 0.9760679998739957, -3.5901142767480794, 0.2778529710507561], [0.23741913415624338, -2.1689841826558354, 0.2995825859218513, -2.883289612411778, 3.2005452274367254, 0.001839958890446844, -1.6657269489727287, -0.1863778275908079, 0.8652607245119902], [1.6180906556295809, -0.11270716380017712, -1.2989482477246341, -1.202860696595301, 1.634459733558522, -0.3440152427254025, -1.1420270876331282, -2.295776558833828, -1.9313937195292743], [-0.7309129576913623, -1.8328039275258998, -4.056487686556175, -2.2498662959618523, 1.5671210117288632, 2.925770381914051, 2.9904469601228443, 1.6849828409009404, -1.1117275583408237], [-1.5569036108100789, -0.3267173036986359, -3.4106931738503454, 1.0441878983539175, 2.1318821713811587, 0.07444622967316367, 1.1301101660033626, -0.07134127147582282, 1.589354857778975], [0.9907966968424946, 0.7534637123029209, -0.33558711157990956, 0.20973888227752735, 3.601539833219248, 3.573816408339992, -2.0619613343484287, 2.47953692511654, -0.4174456618471446], [-0.2910741018995658, 1.434578238949743, 2.066375751561349, 3.052100134267893, 2.9983137763464067, 0.6335478443226403, 3.151127505464741, -2.057491248652627, 0.9547130744552162], [-2.0480402820300703, 2.4769713365896426, -0.17229921548759214, 0.2634569927472593, 0.459929813392979, 2.16006717498395, 2.140646410919801, -1.96088611316612, 0.8296991012092998], [-0.15153256543250754, -0.2772533793906123, 2.5911660998003665, 2.584794652495686, 0.05310021899221981, 0.7470478855653796, -0.6534401305455153, 3.3946487433537573, 1.4442032321803366], [-0.8259817012754518, -0.06828806230439102, -0.6003711937185591, -3.03026293793177, -0.8534016623323958, 1.7679052384894511, 0.3398643299160031, 0.8140361249519092, 0.5381399311559547], [0.06031567863687251, -1.1518883004133222, -0.6152486184360992, -0.1784282582065693, 3.7609548139595597, 1.4280769980384806, 1.7322491741712533, -1.9500535172170372, -1.3111670431160074], [-0.8418070362109038, -2.0922346120271462, 3.228232350205669, 2.644344486564323, 3.788579748734838, 0.7696845469402065, 3.829266558561802, 1.3266486588055415, 1.5767314011255604], [0.9878239643134168, 3.1078443456643225, -0.5606878386648869, 2.3200792518964817, 0.7507092137168755, 1.3107732235539302, -0.1620306786080148, 0.41244510234198806, -1.7859348435157982], [-0.3654301936566701, -3.4262547441894515, 2.7652231356184527, 0.05547282828148618, -0.457068811040243, 0.38075332367630965, -1.1802529868007519, 0.7084538103556262, 3.578973506417298], [-2.4136369139039777, -0.513359147657443, 5.394439260519602, -0.5620248880907195, -0.08292725788556102, 2.162212132417635, 0.670671263615323, 3.2622508670240293, 1.547220355507949], [-0.5787760645652205, 1.0998626812757952, -0.33391053280943495, -0.7324459877420114, 2.748177246225059, -1.210898788759089, -1.66017368390129, -3.3560323322374983, -1.380876074814721], [3.266761331033095, 2.6122813763483093, -1.7198723083967917, -1.1716199824701736, 1.9965760165274347, 1.4462991307545727, 1.9844252285144974, -1.8115237871442385, 0.12400457499519453], [2.4070656091419056, -2.765796964263446, 2.735446827429342, -1.4344204546866215, -0.9059130935585585, 3.1233974689274993, -2.755107270587601, 0.7428644128857248, -0.8412154800911908], [0.9197529283146962, 1.9230938710430632, -0.4801901237826969, 0.24841877875681967, -3.207896799841979, 3.3150232032368483, 0.972363413016937, 3.671693270083632, -3.3099137302983297], [-3.1461522424189843, 0.41790422768218805, -2.111980731915148, 2.6139709687479233, -3.3153596310464355, -0.3369773477535984, 0.8297776959967768, 4.400002795013235, 1.1223623541400056]], "weights_ho": [[-2.034136680953884, -0.6786180266895175, 1.4346763619665381, 0.7470790691857666, -0.6828252042552726, 0.25553855438820505, 0.7100356069998776, 0.6053914973635195, 0.7466847926768077, 1.7420716774734317, 4.139779549567005, -0.4951813636456596, 3.439806102895292, 1.6313285093417251, 2.1537850075620812, -0.5893173751446169, 1.9807628821085999, 0.6467985671334817, 2.884272332874913, 0.047377372907591454], [1.83477246833917, -3.540730472075485, 1.0884870706435301, -0.27879331164989485, 0.3156336499565837, -1.6754831301958515, 0.5151509413497718, 0.30370424079115743, 2.212615036819491, 0.6974149612454686, 3.9788924556510077, 2.2188763649837924, 1.8397317096924397, 0.2893901398316984, 1.8075723414410876, -2.316432843153886, 4.67896663772921, 3.549005431945517, 3.3053920771408034, 0.9573636350043997], [-0.4776444505183884, 0.6975166110114407, -3.4310343974691677, -1.4819799440417214, 1.6685640268376718, 2.2861351200759237, 1.112693910767657, -0.2714863086108614, 4.027404730415458, -1.1996646241717142, 0.5154829935022937, 4.3687355168538025, 0.36498944881716616, 1.2127278011659623, -0.9346340918958994, 2.549443558190564, -1.7619997700978598, 1.2059799985595752, 0.32807390265478925, 0.7747794624376109], [-0.29331592640130444, 0.09065020461664977, 5.235047902510856, 0.2739516937253981, 1.246630445303156, -1.3891519773913275, 1.0082512931585759, 2.271755949699704, 1.044091686003439, -0.26362927525500013, 1.6922004173553582, -0.4042665191146863, 2.003262885491012, 6.370880087529634, 1.0280655024327703, -1.069599754878097, 2.045327734672837, 2.242435877225141, 1.8277562134821679, 1.8203069931489058]], "bias_h": [[2.005355392667938], [-2.217110900499757], [1.5429431383866528], [0.5761358137875837], [3.0009967675365963], [-1.1698355243509058], [0.1743086073875618], [1.2543136940070223], [-0.2073884898897007], [0.6571029945260146], [-0.19647428988746968], [-1.726478467966525], [-0.31388560649132907], [-1.2372221799557461], [0.2677608329333817], [0.21440043639156375], [2.234769047827608], [3.023016381960624], [1.0218990141433624], [3.060726085631123]], "bias_o": [[0.3978497272809555], [0.14191320532787324], [-1.3858129393714693], [0.4298414861631986]]}, {"input_nodes": 9, "hidden_nodes": 20, "output_nodes": 4, "weights_ih": [[3.4985697311608135, 2.7262863576706375, 2.5941573919001244, -0.8887244656902481, 3.047887206072449, -1.9107484020350565, 0.9121748222535765, -3.525893584089624, 0.1471974276757886], [0.4448240717597106, -2.1689841826558354, 0.2995825859218513, -3.0382787389500763, 3.2484635048263173, -0.08465120427018577, -1.5613180194109173, -0.1863778275908079, 0.8940001821011107], [1.6107810182451183, 0.03714245279614478, -1.3188196881544223, -1.202860696595301, 1.6342656871222334, -0.3440152427254025, -1.1045205540038152, -2.2440395780630817, -1.929380496860277], [-0.5655557065906485, -1.8328039275258998, -4.092550316161014, -2.09293791604261, 1.574188130420285, 2.8966482465828856, 2.7468596875379157, 1.6439676205157048, -0.9041260476608579], [-1.5458410138299998, -0.4395595619873443, -3.5825981589950535, 1.0638507259305632, 2.1608126968546095, -0.07928165387501668, 1.1258432615863376, -0.1535896090520512, 1.487205622936254], [0.9907966968424946, 0.7534637123029209, -0.33558711157990956, 0.3335649577864183, 3.5964324946960495, 3.4073886358151064, -2.0619613343484287, 2.6780665196404114, -0.6018689748816476], [-0.22088027176580013, 1.4739768670158817, 1.9405054261435706, 3.097886851325171, 2.9983137763464067, 0.6335478443226403, 3.275347834669099, -1.9787280427792555, 0.9191979070564464], [-2.1279023520808376, 2.3491176164757244, -0.08969661937999508, 0.2324600756587663, 0.47366993731695917, 2.16006717498395, 2.230918217180918, -1.96088611316612, 0.7779121742615754], [-0.2693689714763416, -0.3896104969419929, 2.6223422938894463, 2.4588601885414065, 0.08667677898950782, 0.895212139225361, -0.8969855668681126, 3.4233920972944403, 1.5047017393705007], [-0.8843681143755877, -0.16764433363234976, -0.602584198298616, -2.9732210047768097, -0.9331498137931227, 1.7679052384894511, 0.3398643299160031, 0.6328994080194252, 0.5381399311559547], [-0.0025380078194474076, -1.0096899551140528, -0.5849978782603225, -0.22140050100733752, 3.6957269943141373, 1.6162039245534927, 1.7379077738381834, -1.9860499277100938, -1.1618639798386152], [-0.8655633385714194, -2.0922346120271462, 3.3993174955865717, 2.644344486564323, 3.6464698317564848, 0.6983088427193481, 4.004569136902534, 1.4645251298463189, 1.4595922274389916], [1.017022034257852, 3.0067902515494396, -0.6602906130929411, 2.195483830259331, 0.5849525299010051, 1.0803585207744097, -0.1461651043196439, 0.3764661751953102, -1.9150354522741058], [-0.42846751525816285, -3.4262547441894515, 2.6724205650916506, 0.15741503147967678, -0.457068811040243, 0.4000342306227159, -1.1237181699159942, 0.7072492079270329, 3.780483268743548], [-2.4136369139039777, -0.6051697783027561, 5.5758013046774675, -0.5620248880907195, -0.08260572002047782, 2.1611806944905196, 0.6712433536032454, 3.237333510496981, 1.5009035547057492], [-0.7327463903278335, 1.2217878773351944, -0.39861603684830904, -0.7115064726684486, 2.748177246225059, -1.210898788759089, -1.6102470487610179, -3.3615376025062926, -1.472524765162107], [3.266761331033095, 2.7170941805591413, -1.7198723083967917, -1.1716199824701736, 1.9987204484247045, 1.4142888121418604, 1.8865622224283194, -1.731126784271376, 0.24277937787770865], [2.3326411823749704, -2.97116645770607, 2.6319315618125425, -1.469994131421659, -0.9059130935585585, 3.1233974689274993, -2.7300219120920266, 0.8349515550190076, -0.8017774157045918], [0.8638153498348821, 1.9230938710430632, -0.4801901237826969, 0.2172257145661663, -3.149870748791956, 3.3150232032368483, 0.8852822529054646, 3.6817869616548404, -3.3709344542512563], [-2.964792139996998, 0.4893595536120445, -2.1797237986402944, 2.505153865307419, -3.3153596310464355, -0.3369773477535984, 0.7972442215586205, 4.38695705468764, 0.9888049772765938]], "weights_ho": [[-2.023449771731448, -0.7549261601885285, 1.5182740416520202, 0.9671071408232507, -0.8062615591731029, 0.44694720860437864, 0.8433229089158916, 0.6519951999319337, 0.7466847926768077, 1.8468049888967033, 4.082180559358887, -0.4951813636456596, 3.2718901184863287, 1.6370847810801565, 2.1537850075620812, -0.5138645548927923, 1.9720131777193413, 0.5700532238516098, 2.7137687565438893, 0.07862336552659499], [1.6911912464752246, -3.540730472075485, 1.0884870706435301, -0.2793516910447642, 0.2557558333019445, -1.7978608256144017, 0.5151509413497718, 0.1622824333948587, 2.1801203591230474, 0.5940104821521, 3.799589618115059, 2.3811440058979665, 1.8397317096924397, 0.35948983670677287, 1.8075723414410876, -2.313273370966235, 4.58424496982574, 3.7167837760066154, 3.3722978433112467, 0.9573636350043997], [-0.29164666992551846, 0.6713483977956437, -3.4310343974691677, -1.6023288466863104, 1.620280934810746, 2.3607794944180047, 1.00662800887908, -0.4159992718438448, 4.196703213565731, -1.1996646241717142, 0.5154829935022937, 4.3687355168538025, 0.27245600749736637, 1.1201257622784966, -0.9467849471716362, 2.549443558190564, -1.8148198912729856, 1.1790868733019695, 0.18774382515371602, 0.6039502289822198], [-0.357378020790269, 0.06623398497711903, 5.087224541602305, 0.2739516937253981, 1.2493676418777642, -1.4255422609232098, 1.0104991474225853, 2.1803230229916273, 0.8692459912275274, -0.26362927525500013, 1.4555602941206012, -0.3228156915487459, 2.003262885491012, 6.392768091507498, 0.992348100121441, -1.0787974405696046, 1.9495670359925426, 2.242435877225141, 1.7959049307140027, 1.8613524546416549]], "bias_h": [[2.005355392667938], [-2.2906152357688785], [1.46571444551022], [0.5165047730498287], [3.0009967675365963], [-1.189362014953808], [0.2916021966222989], [1.300488801423327], [-0.10150319087025214], [0.6571029945260146], [-0.2128465927696964], [-1.6214165026334453], [-0.23324009533411996], [-1.1421183674946562], [0.21033567667213926], [0.1741285971296088], [1.9892497456122065], [2.831557899825282], [1.2037945266534653], [3.0268366665698667]], "bias_o": [[0.20345013134905915], [0.14191320532787324], [-1.4328395103223526], [0.2783481765589805]]}, {"input_nodes": 9, "hidden_nodes": 20, "output_nodes": 4, "weights_ih": [[3.6783485760449564, 2.646563524012049, 2.5941573919001244, -0.845004711704951, 3.070350280879676, -1.7350402836314087, 0.8241335248032855, -3.5901142767480794, 0.2005596173959261], [0.4448240717597106, -2.26258751412683, 0.24098158281076176, -2.8730724675735226, 3.1988669557872482, -0.08465120427018577, -1.648553178161122, -0.10252842866022177, 0.8652607245119902], [1.6107810182451183, -0.1300068339049451, -1.3302120998605762, -1.1610431681391928, 1.6828935779279657, -0.38947445082282983, -1.181275178986786, -2.2848694696734047, -1.929380496860277], [-0.4763407627235702, -1.8328039275258998, -3.8833604371141983, -2.2498662959618523, 1.5861183430814456, 2.9578177810313697, 2.6482651648171505, 1.812300316675304, -0.9041260476608579], [-1.4005312038696616, -0.31610540908341345, -3.5825981589950535, 1.0638507259305632, 2.208816023115511, 0.25245083544410307, 1.1301101660033626, -0.07134127147582282, 1.733293826478965], [0.9907966968424946, 0.7534637123029209, -0.33418225127609263, 0.20973888227752735, 3.5766832072782906, 3.573816408339992, -2.0619613343484287, 2.5467955112882095, -0.6018689748816476], [-0.25540303779087625, 1.4775292234145971, 2.0064783473724113, 2.9679979959714027, 2.9983137763464067, 0.744350507613412, 3.275347834669099, -1.9787280427792555, 0.867043885609026], [-2.0415152894737583, 2.4769713365896426, -0.17229921548759214, 0.3264070386752523, 0.5864226327985315, 2.054760181950619, 2.3865638418885835, -1.8358790367424922, 0.6362823351361993], [-0.15153256543250754, -0.4477579708642929, 2.8409966513742866, 2.5532922841747276, 0.1177078221799251, 0.8532545012456711, -0.8721853469536106, 3.4601284460504202, 1.622454056194288], [-0.8968854849591765, -0.06828806230439102, -0.602584198298616, -3.03026293793177, -0.8643288680639968, 1.5447338811402087, 0.3398643299160031, 0.6567936880768674, 0.5381399311559547], [-0.0025380078194474076, -1.1360679110949055, -0.6152486184360992, -0.1784282582065693, 3.6957269943141373, 1.4280769980384806, 1.683484999350211, -1.989580869996903, -1.2312429613359959], [-0.9739316382421994, -2.0922346120271462, 3.321676497577204, 2.754466469826896, 3.84181113028538, 0.7696845469402065, 4.001357549931012, 1.4281244821365993, 1.5767314011255604], [1.017022034257852, 3.0067902515494396, -0.6602906130929411, 2.0752058346517597, 0.7695656938222096, 1.2817121259115434, -0.08480506530006438, 0.26707905973753615, -1.8573700264048483], [-0.3654301936566701, -3.4262547441894515, 2.75703973175492, 0.05547282828148618, -0.589570150565272, 0.38075332367630965, -1.1773065651509642, 0.6096586270337434, 3.6140862086074312], [-2.552055667241865, -0.6051697783027561, 5.5758013046774675, -0.5106665301520668, -0.1711102074725997, 2.162212132417635, 0.6712433536032454, 3.133920887545181, 1.5009035547057492], [-0.46319331246229906, 1.2217878773351944, -0.26724926370848445, -0.7115064726684486, 2.7930418421359393, -1.3261073684009497, -1.5622460090382282, -3.58510385253919, -1.472524765162107], [3.354690002880384, 2.369205736076621, -1.7107688650822825, -1.1300959948951579, 2.1438907197864085, 1.3082357972425616, 1.9844252285144974, -1.7613532192989356, 0.07753178038809178], [2.3326411823749704, -2.97116645770607, 2.6666858849757684, -1.3645982952709186, -0.9059130935585585, 3.1233974689274993, -2.713890663570118, 0.9396020066309216, -0.7499456186224783], [0.975034861317063, 1.9230938710430632, -0.308527122441412, 0.23461489846834754, -3.207896799841979, 3.337496030674819, 1.106386520031733, 3.714709589653554, -3.1807732366667056], [-2.964792139996998, 0.2018454634658422, -2.111980731915148, 2.6139709687479233, -3.3153596310464355, -0.4221320332165592, 0.7972442215586205, 4.400002795013235, 1.1223623541400056]], "weights_ho": [[-2.034136680953884, -0.7488157328275683, 1.4478439195369248, 0.774507495240717, -0.6982633599966733, 0.15421120081830025, 0.8038978266633515, 0.6519951999319337, 0.7309746022203087, 1.8335250421944806, 4.037198100439862, -0.4951813636456596, 3.310604027865875, 1.6313285093417251, 2.1537850075620812, -0.5893173751446169, 1.9720131777193413, 0.5640159929732772, 2.7137687565438893, 0.0472973270636997], [1.8243542071761873, -3.6606583984486893, 0.9939967314348778, -0.2821352066158666, 0.3156336499565837, -1.7978608256144017, 0.5151509413497718, 0.16080738663573477, 2.294645114506748, 0.6974149612454686, 3.799589618115059, 2.340887763690807, 1.8397317096924397, 0.2893901398316984, 1.8075723414410876, -2.3908139953318273, 4.554213041571431, 3.6632375089617843, 3.3176933499957166, 0.9573636350043997], [-0.41412909676760523, 0.6713483977956437, -3.3965278839893, -1.5654144578158047, 1.6855267436603498, 2.2861351200759237, 1.112693910767657, -0.2714863086108614, 4.262128821822372, -1.2083920708898246, 0.5154829935022937, 4.417931532068919, 0.36498944881716616, 1.2127278011659623, -0.9458225921044643, 2.549443558190564, -1.77840257172458, 1.31060743940335, 0.19226300646770278, 0.8782719312214093], [-0.09720615263844884, 0.09065020461664977, 5.106913632815196, 0.2739516937253981, 1.3715739819765367, -1.3406603511751531, 1.0082512931585759, 2.1803230229916273, 0.7364205542356259, -0.26362927525500013, 1.8110427054585625, -0.3228156915487459, 2.003262885491012, 6.392768091507498, 1.0024906015577222, -0.9567432162110823, 1.8505196908983819, 2.1957277996072477, 1.7959049307140027, 1.8203069931489058]], "bias_h": [[2.005355392667938], [-2.2906152357688785], [1.5429431383866528], [0.7694589484874597], [3.125317129510606], [-1.22667317296455], [0.14898817179004906], [1.2543136940070223], [-0.06868776160162825], [0.6571029945260146], [-0.19647428988746968], [-1.493183114365862], [-0.5344640220903799], [-1.2164398639611522], [0.3061655659566729], [0.21440043639156375], [2.234769047827608], [2.9136349043370413], [1.1691708595482555], [3.024941785111946]], "bias_o": [[0.13054367688698446], [0.14191320532787324], [-1.3492801726591233], [0.2783481765589805]]}, {"input_nodes": 9, "hidden_nodes": 20, "output_nodes": 4, "weights_ih": [[3.7150367445962056, 2.638970245593419, 2.5261634129675303, -0.9943016394454234, 3.059531443554164, -1.7673082998306504, 0.8386194552514864, -3.6190510046556854, 0.2778529710507561], [0.40133588531308784, -2.1689841826558354, 0.3784029470761808, -2.6877304669441933, 3.1988669557872482, -0.07143296272370131, -1.7152031042205642, -0.14884845911398764, 0.838391487998563], [1.6107810182451183, 0.20432973085284792, -1.3278867723342516, -1.1618691252771287, 1.634459733558522, -0.3408964036280101, -1.265442389805476, -2.2848694696734047, -1.7491430600742488], [-0.6146450233883778, -1.8328039275258998, -4.291110046648137, -2.187010041920512, 1.5861183430814456, 2.914846910994863, 2.6344225007124975, 1.578340683160301, -0.9623422346454458], [-1.7043901730806574, -0.3267173036986359, -3.452003920792932, 1.0638507259305632, 2.1608126968546095, 0.07444622967316367, 1.1210476827239413, 0.06616661499022165, 1.5671419957345576], [0.976347136670266, 0.7377168096343187, -0.33558711157990956, 0.20973888227752735, 3.563022872525614, 3.573816408339992, -2.0619613343484287, 2.5528151503660763, -0.6018689748816476], [-0.25540303779087625, 1.434578238949743, 1.8589861668129801, 3.2453376874538455, 2.939324342592637, 0.6120023096911998, 3.275347834669099, -1.9787280427792555, 0.9191979070564464], [-2.1225534636216277, 2.4769713365896426, -0.3773200520003655, 0.4278096516610794, 0.34699470202380267, 2.16006717498395, 2.3523065615345073, -1.9687703257840825, 0.8241754348953724], [-0.15153256543250754, -0.3896104969419929, 2.6223422938894463, 2.6403360388193993, -0.04818349381715262, 0.8951926110938699, -0.8721853469536106, 3.443614579153709, 1.4817963356243093], [-0.8968854849591765, -0.16443367596905953, -0.602584198298616, -2.9676310702830535, -0.9292201891399634, 1.7679052384894511, 0.34680562570081946, 0.8179176940352312, 0.5381399311559547], [-0.0025380078194474076, -1.0096899551140528, -0.6939103362777004, -0.1784282582065693, 3.6957269943141373, 1.4280769980384806, 1.7322491741712533, -2.082003624409769, -1.1524806280214603], [-0.8655633385714194, -2.131515856044009, 3.1932905614574505, 2.5941550883962945, 3.6464698317564848, 0.6610212159096751, 3.829266558561802, 1.2843296986138641, 1.5593807771822137], [1.017022034257852, 3.0067902515494396, -0.831844485042564, 2.171763033416066, 0.7507092137168755, 1.2474851745103517, -0.08480506530006438, 0.24200510768227793, -1.8416305474390648], [-0.44618468360880925, -3.6215111269979614, 2.7996329633930492, 0.05547282828148618, -0.431775660284281, 0.38075332367630965, -0.9886771926960491, 0.7084538103556262, 3.7230117387357575], [-2.4136369139039777, -0.5437623264960819, 5.5758013046774675, -0.5620248880907195, -0.08292725788556102, 2.0124613868755583, 0.6712433536032454, 3.1359561775381675, 1.5009035547057492], [-0.860119390742576, 1.0767290838625225, -0.3165992780682266, -0.7115064726684486, 2.7688595005040515, -1.3040298728245547, -1.7751546042811939, -3.3560323322374983, -1.3717698250876285], [3.266761331033095, 2.6122813763483093, -1.6310178000266125, -1.1716199824701736, 1.9965760165274347, 1.282234617736418, 1.9844252285144974, -1.731126784271376, 0.12701747546344938], [2.3326411823749704, -2.910249125055569, 2.5099028545786606, -1.4344204546866215, -0.898675340975053, 3.1233974689274993, -2.755107270587601, 0.8754915296723071, -0.9100863460903069], [0.9069849469142406, 1.8283618538679653, -0.4801901237826969, 0.13551096123925477, -3.291666927804368, 3.3150232032368483, 0.972363413016937, 3.6837116269759727, -3.304394500392778], [-2.8228821350720077, 0.4893595536120445, -2.111980731915148, 2.6139709687479233, -3.302591512905029, -0.3369773477535984, 0.7435630558727082, 4.283193179426139, 1.255730964900549]], "weights_ho": [[-2.034136680953884, -0.7488157328275683, 1.5182740416520202, 0.774507495240717, -0.9205738420577441, 0.08416306008255217, 0.6619041241689821, 0.6481599005322353, 0.761760102560127, 1.6753219731561582, 4.165933976468839, -0.4951813636456596, 3.2169580358783403, 1.6223742526997318, 2.1537850075620812, -0.5079378898860772, 1.9720131777193413, 0.6032130343019801, 2.576780960576325, -0.09363754676782675], [1.9156889380957984, -3.540730472075485, 0.9288278522596147, -0.26091295761617034, 0.3156336499565837, -1.7978608256144017, 0.40117736295945705, 0.3448453274615893, 2.248134298783893, 0.5982937788219914, 3.799589618115059, 2.2763912411727807, 2.0427093281186623, 