{"generation": 3400, "population": [{"input_nodes": 12, "hidden_nodes": 16, "output_nodes": 4, "weights_ih": [[-1.1787491486928492, -2.7892329251888417, -0.18731052348693059, 0.6914059870766356, -2.8141008265822527, 2.157183420335046, -2.9675487024267313, -0.4818450912373816, -0.2643502699339868, 5.231062580871024, -5.131017985782126, 0.7601284529803126], [0.055732042530410905, 8.47351138884329, -1.30840980538832, 0.4444141020287175, -0.26023093512529916, -0.7567855611469211, 2.427500993654911, 7.08831799660621, 0.6026980045075435, -0.1021163402992522, 2.6903154019889834, 7.864846250885093], [-3.3741087164616372, 5.189536512126268, 2.4087740973987826, -2.8541845603086355, -9.012330457698615, 2.0733860897451506, 3.481506671307384, -2.749259211111122, -0.16505074867523323, 4.9775196960004555, 5.197401463051958, -2.024904892501455], [-0.26913507895889865, 0.6113886551234291, -5.132214796843577, -1.6919854636923781, 1.1410983821874705, 2.0985738529096616, 0.9406778011844612, 1.4947000080836776, 0.5971355214915001, -1.8791008247437408, -2.2586709803964546, 5.345466774344218], [0.20322548453962724, 1.7271904754154086, 6.029994136356859, 2.35502507863424, -5.534107804844119, -3.007460385138896, -2.7817809542436565, 0.11327754907177873, -6.241972556845561, -1.4332882090860015, 3.149842004514672, -0.1346439653218405], [-4.286796294394083, 4.540864688151626, 4.1099938048010625, -2.9265996980571756, -2.1236689340305226, 3.2683329215516563, 5.185445164237296, -1.2917858988403175, 3.8223247178862403, 1.4291687168127205, -6.386738047811044, 0.8103868268183247], [3.7821658262253015, -4.755500719776478, -1.3630661820559684, -0.5149166693554837, -3.3217071761404404, 4.327339748869483, -2.9218941424734606, 0.7364048525130209, 4.371960718898195, -3.2619540453806026, 0.39442361708298795, -2.718794936097336], [2.166912274170787, 1.8168303409195754, -5.01013667873111, -2.107328142020041, 1.2159899540103498, 1.884777404178388, -0.714552062620148, 0.2604810141694351, 1.428464938945697, 2.2473627697653713, 7.622613295585961, 3.9393662281537756], [-0.2130521085689895, 0.28927838684722884, -1.7356297494133572, -2.652250525423883, 1.5561792414700657, -4.125925977522344, -4.474677618400273, 6.680973572599017, 1.4904798821299516, -5.1256831604031925, -0.4615394431026586, 5.3913619860844], [5.884292322178438, 2.2452959588661887, 3.6772980266014836, 1.0086524185368542, -0.5903320390102826, -0.8143380559432346, -0.038433566776242864, -0.6968431374783105, -0.005705898953788979, -6.366460502373571e-05, 0.6679506611347903, 3.9020746222364506], [-5.052664441133359, -2.5093647355199815, 1.8470303296546309, -2.913387417895107, -0.7563585085681551, -0.730161032899751, -2.769607478054583, -2.218405032438192, 0.02789163049203683, -0.6218208343988008, 2.4446412585338533, 6.099676956633172], [1.030490604932492, -1.56146742280052, 0.582735844142116, 1.6807037268398153, -1.508942733223073, 0.4973837325411342, 3.9878670725169574, 2.639592416082212, 3.0392760551430125, 2.2699311607008337, 0.42958240279217214, -1.5123593959896189], [5.482722270373627, 1.5131433095706814, -1.1137866844646989, -0.8049157436318722, -1.8407844367698987, 1.2157985454893094, 1.572620492405609, 4.170470781714627, 3.6241423379105413, 6.7028510342916885, 2.0302836256257235, 4.636277824811219], [0.037339090120424065, 1.4944714799471517, -1.3573641312722402, 3.8195245859121414, 0.5308988653177001, 5.63974902577321, -1.5294720460995654, 3.9976866862947387, -3.417421715736396, 1.5389878648170403, 2.5849824523800136, -3.638382150444958], [-0.13745251398411518, 0.8880884935550377, 1.7157522173845556, 0.1552381113661771, -0.39259902458780893, 2.3341680207052264, 0.12447218780458486, -3.086670243517988, -0.9339437758374058, -2.711221832639417, 3.953305225196956, 2.756804841421127], [3.2305598866648366, -0.16151750264901085, 2.774141626534369, -1.2136332507147105, -1.5725482688210684, -3.107986468292166, 3.7666596058573143, -4.56358067071916, -0.6127583324957703, -0.6811293161684975, -1.96415958812444, 1.6378446860572966]], "weights_ho": [[-2.491605789594622, -3.3709347033960113, 0.6353014406585733, 2.130401962549884, 0.6134190080862609, -4.499589403808113, 1.0364841622793328, 2.14100347302537, 7.807859231202057, 1.8992811381751498, -0.5285132709241444, -1.770809476470815, 7.736975199845107, 5.501171676560511, 1.0931808828881004, -2.232058903404256], [3.265327639984852, 0.7835552480324257, 6.733138225250715, -3.4157593140677633, -0.3900983199060924, 3.4992713783074145, 0.6887687038459087, -0.7098154933350408, -0.21354439772719774, 0.7974194892258095, 7.376096720376135, -8.453564436436276, -6.647613621406038, 0.8530539622470077, 3.1781624029923825, -2.8619332716548587], [5.567930369536624, 0.5917722042004305, -1.7955139370644912, -0.937934628608987, 5.948665125409145, 2.414963896826593, -0.44547486559243277, 1.9686901789429647, 2.972502399800129, -1.0670987740417661, -3.9524400868663774, -3.7409664199421266, 5.452007323724573, 0.47373563034381005, 1.4159873115817125, 0.44209234594390623], [0.3686139189516257, 8.889206794092484, -1.121679451046744, -1.3719543203149143, -3.6504203352317113, -1.7267992273208204, -6.657874219655416, -0.3543527252007259, 4.005482023036558, 6.1698629134200385, 5.975860633400491, -3.353516153233511, 2.1354326789606652, -2.2380890736009995, -2.7215499203062112, 1.0225144188356192]], "bias_h": [[0.8456635887317187], [-2.252599629988541], [-0.48024996245979445], [-0.6499324723647862], [-1.766984342181639], [-3.334719090283194], [1.2785631444186882], [5.380752116047403], [-0.5267682990898431], [2.791540634737141], [6.176894569217783], [0.22135952450048024], [-4.6526240111440815], [4.450402181337299], [-2.4112476028685172], [3.241608501556368]], "bias_o": [[0.048611384896127485], [1.6703794713346984], [-0.6299388526081396], [1.2602078618587242]]}, {"input_nodes": 12, "hidden_nodes": 16, "output_nodes": 4, "weights_ih": [[-1.092559890826466, -2.55195325026538, -0.2505509514739958, 0.8706649436931628, -2.872606231841841, 1.9557413807621653, -2.797404557137683, -0.699901119139017, -0.1560310230725811, 5.189964426135092, -5.131017985782126, 0.663279624024645], [-0.0035473538763816717, 8.46444146472276, -1.3564569376156843, 0.5094950286925379, -0.3324075721291017, -0.545219281496107, 2.3721413617950247, 7.060954367918118, 0.5886802867654507, -0.05332874610999906, 2.6903154019889834, 7.966538807954015], [-3.342057903742776, 5.150343978753582, 2.4087740973987826, -2.8149939564946296, -9.040653297980715, 2.0733860897451506, 3.2882615732186062, -2.7560838259069502, -0.1354421780187266, 4.9691104160321915, 5.307880331959732, -2.108949194814737], [-0.26913507895889865, 0.5722574305234687, -5.195920070809686, -1.7399496221331485, 0.9996337383653958, 2.1370697505179597, 0.8390117800092128, 1.4679947066185064, 0.6151554972394793, -1.8312915041875806, -2.383842608671529, 5.435748390362239], [0.16897002253361504, 1.7109725433933594, 6.023657095026956, 2.4179314330667374, -5.553524834872341, -2.970814819056695, -2.7817809542436565, 0.15384109735921309, -6.202861857160293, -1.5176446307724, 3.1385978518374644, -0.10195682650539403], [-4.369992520176791, 4.468660953512411, 4.130670896376828, -2.945496918378857, -2.074662846582034, 3.1279729507893164, 5.185445164237296, -1.2917858988403175, 3.805207344305709, 1.513072957827744, -6.4847932356737745, 0.8378385694453137], [3.6577828979562645, -4.708008127331583, -1.292327593137499, -0.5178229707225559, -3.1541573820176203, 4.294862156929108, -3.0233405161874387, 0.7915936744712919, 4.408043716406877, -3.2606601335117844, 0.35214078245374747, -2.7327160894753684], [2.11191511063013, 1.8329069512671436, -5.044442876787962, -2.0263294776477134, 1.304389259158619, 1.8045841544023529, -0.7766100617455476, 0.2003496417359034, 1.4125446128622634, 2.2736597283916766, 7.623354963412731, 3.9622831016916247], [-0.19453458763464174, 0.2980214253210634, -1.722284722036297, -2.6092551084148914, 1.5367232498010537, -4.038463920168695, -4.51751681136621, 6.69940104271417, 1.5323535126516887, -5.126376912409795, -0.3519885198121171, 5.40977060733131], [5.949741465014315, 2.242498213079602, 3.707784641125859, 1.0537312247020063, -0.634435320455154, -0.7904792875391103, -0.006906746049514731, -0.6278039044839937, 0.0323116099730572, 0.009099236776738885, 0.6225634447098078, 3.892508441872816], [-5.243187931224682, -2.555878286027363, 1.8470303296546309, -2.9602476481094797, -0.8436364261189422, -0.8014445730795923, -2.769607478054583, -2.181932117938857, 0.09056453319495934, -0.6218208343988008, 2.4446412585338533, 6.098609601853141], [1.0309376871962768, -1.525467325730724, 0.7092146389682217, 1.6687839670189248, -1.508942733223073, 0.49560959758001305, 4.010446061329221, 2.7527133995048563, 3.029243039957739, 2.2377264189072554, 0.45403618440389737, -1.5124224823802432], [5.5076240855300185, 1.4893669002566303, -1.3111272604558113, -0.7756658666421541, -1.8436072859090282, 1.1607286385613893, 1.7408122666452552, 4.079681198752306, 3.603140699791077, 6.7028510342916885, 2.0463688572443988, 4.546535774284227], [0.037339090120424065, 1.5361874879861783, -1.3529869975914628, 3.8088103655186543, 0.6122014240317889, 5.594910680289364, -1.6237544939904036, 3.997299028577628, -3.4369518327107604, 1.5389878648170403, 2.756188997320238, -3.539805735447987], [-0.14997553444783718, 0.9310901435731361, 1.6755682889323835, 0.1552381113661771, -0.4266020008650217, 2.3561652906231627, 0.11781971436818744, -3.064289619484604, -0.948031083442543, -2.7938827432145645, 3.9236981350757834, 2.744541547544505], [3.357002555064355, -0.16151750264901085, 2.379056462268238, -1.1899554291597525, -1.6457398978115478, -3.131253100344063, 3.8130182948511777, -4.569051044048525, -0.6162573142015131, -0.5480384691257454, -1.909606477550991, 1.550095875697038]], "weights_ho": [[-2.4394498978574752, -3.3709347033960113, 0.6255147643970562, 2.0957649219214023, 0.5879857278351482, -4.503924565739436, 1.0384939128237813, 2.1710716112206065, 7.848395523052483, 1.9422001564360938, -0.4338609619688269, -1.75794378213302, 7.667500513220594, 5.507679531654932, 1.0931808828881004, -2.2752958199580697], [3.3514161877160804, 0.8235835734065993, 6.7083823392322, -3.4245024828436823, -0.3900983199060924, 3.6462161194073044, 0.47389612197944114, -0.6510564460792554, -0.27950416628353203, 0.796616084882847, 7.45472928375843, -8.571830661913198, -6.627392715445007, 0.6891061980751435, 3.1421368354559105, -2.827924638883981], [5.567930369536624, 0.5521033620955179, -1.8302835844354628, -0.9732136583751897, 5.976511358358214, 2.3314082636400175, -0.43290202578893133, 2.0762596745775985, 2.922161781212342, -1.1378307304174273, -3.9177743228124617, -3.7409664199421266, 5.4643028588107025, 0.5293977818436901, 1.4610994954953787, 0.650431956890417], [0.33207633830703437, 8.996635244992078, -1.0782780685689557, -1.3337597058865156, -3.676898577944397, -1.7736486934759559, -6.638250584105093, -0.3543527252007259, 3.8910663722713936, 6.1437600070560325, 5.984691347120625, -3.353516153233511, 2.1157063616293783, -2.2380890736009995, -2.641974608339924, 1.1188008743364517]], "bias_h": [[0.7181886918323377], [-2.2562642669453803], [-0.5314710568907968], [-0.8425015619265339], [-1.9449459234949544], [-3.3160845566906896], [1.4178121304429134], [5.360907160393453], [-0.5416060887530871], [2.791540634737141], [6.176894569217783], [0.21474289194372903], [-4.64233759144172], [4.394502060967508], [-2.386288977137358], [3.1270399879442645]], "bias_o": [[0.048611384896127485], [1.6902181998234937], [-0.5935135716953165], [1.2602078618587242]]}, {"input_nodes": 12, "hidden_nodes": 16, "output_nodes": 4, "weights_ih": [[-0.9451729375135167, -2.912362000213402, -0.5064408400250435, 0.6004758732901567, -2.8576623118407394, 2.1706476084560054, -3.0496958580466975, -0.6335574097318899, -0.3073772325227039, 5.148866271399161, -5.12195694472347, 0.7939830304604225], [-0.004953692537754843, 8.452500342578361, -1.399943271208695, 0.26631645212993993, -0.3262704467924594, -0.7567855611469211, 2.195492191844405, 6.948148818581065, 0.644308243439438, 0.21025485413951248, 2.7381270088974876, 7.690185854892798], [-3.4816319968557305, 5.132127349529536, 2.4159154090807964, -2.8541845603086355, -8.949012489610974, 2.0733860897451506, 3.330010454283291, -2.8948400122647855, -0.059368104947549724, 4.747536535801726, 5.454414831329271, -2.089991319920866], [-0.3694539801928945, 0.671428718586426, -5.325201887814258, -1.9446482517577144, 1.0876418908729195, 2.0165191803745066, 0.8914726020703445, 1.417283035538424, 0.8538450199934271, -1.8948288426698476, -2.3673428048217877, 5.391633257551303], [0.003832124220522648, 1.8757027323172653, 5.864059572351956, 2.3786781083100195, -5.572941864900564, -3.13174726310101, -2.7817809542436565, 0.2713434639137644, -6.1188363980499485, -1.5303016127448044, 3.127353699160257, -0.135578564992746], [-4.229028031597894, 4.4157880963549605, 4.134672658534144, -2.938226746272915, -2.0166501398702366, 3.282467623052896, 5.1960118764608145, -1.4135108397296654, 3.8849756903186603, 1.7518749316865785, -6.300959814388635, 0.8117311465188989], [3.641977946947369, -4.448124500371018, -1.3353178298895094, -0.3945516011935506, -3.2350012666762344, 4.37023270784886, -3.007493160418351, 0.8421431655147442, 4.409518798408161, -3.2734407168487363, 0.30985794782450704, -2.862938925266852], [2.242476130641301, 1.8823800855820132, -4.849147631804421, -2.0820190020560307, 1.1456181477129737, 1.709682651079357, -0.8076642407138109, 0.1873300714751563, 1.3951678631030497, 2.2473627697653713, 7.7121497386297, 4.0221595312723295], [-0.2370858769654769, 0.4456778143454763, -1.7416151608946653, -2.9234311234851114, 1.5832704406229041, -4.0207086383659725, -4.45589896438031, 6.717828512829324, 1.5291637191746874, -5.163467480184577, -0.44276893474791584, 5.377111973546459], [5.534807278050647, 2.425320348780406, 3.886730611288688, 1.0086524185368542, -0.6509294132872219, -0.9464640080726092, -0.08319084701548432, -0.6941945192409773, -0.06204229259226822, -0.0018884018824878218, 0.5801907860714948, 3.9152577513384292], [-5.131980624958542, -2.478380556165052, 1.7908914440261603, -2.9690393716912187, -0.6717673921607881, -0.6096426819289427, -2.731130507532968, -2.218405032438192, 0.2090101836463198, -0.6278626131119242, 2.403159988345613, 6.016735903150026], [1.1039132576434116, -1.672928025617623, 0.8551547162511308, 1.712306561599233, -1.7194948204228404, 0.6803409314577583, 3.9668344338378265, 2.8843274224446347, 2.8969851899799868, 2.3365850423190544, 0.3663554736461682, -1.4618940150595168], [5.606596189813996, 1.5941093246825113, -1.259051120356209, -0.6340214000545337, -1.8041438992424323, 1.334554084735368, 1.5601275044040959, 4.064262968396384, 3.6668348756381635, 6.74247330227144, 2.0303551067587384, 4.526019768135127], [0.21369910212497958, 1.411241257457014, -1.378109084896711, 3.94052482576487, 0.7118690273806749, 5.708928045728984, -1.5661070017301597, 4.008500615024461, -3.4784339351598463, 1.5389878648170403, 2.500997717043906, -3.705308409979108], [-0.32151006973984286, 0.8880884935550377, 1.7386639698041915, -0.06241954107483842, -0.416363494690102, 2.589716612077384, 0.26717033457917083, -2.978536190538386, -1.0927874962513984, -2.7223487003587126, 3.7594000712928266, 2.7546071661217675], [3.3886437766688373, -0.2495994436816596, 2.6566103276858577, -1.211152510769212, -1.5948053667131359, -3.1707908930228026, 3.6992175110874923, -4.5647043696477105, -0.610166797270305, -0.7964227967836777, -2.1715424884398526, 1.6420270274944255]], "weights_ho": [[-2.518013224800339, -3.2716045202773203, 0.7330539524706489, 2.137892315987661, 0.5697383449992731, -4.4321672782935355, 1.0467896285116178, 2.058369383571408, 7.751440261466299, 1.8613664081039003, -0.7985811481883728, -1.7279842080135064, 7.440630754988635, 5.608835193482746, 1.1362709262814898, -1.9964254164546664], [3.1884847995365715, 0.7115636023750687, 6.657590064134214, -3.325197900792009, -0.4716803497900417, 3.552431001864128, 0.6273303456305757, -0.5855905996545749, -0.2675088209136597, 0.869662941609526, 7.218839755049564, -8.504557596961625, -6.424332436333299, 0.8530539622470077, 2.9819528088738894, -2.8277604453078866], [5.567930369536624, 0.4902272514491187, -1.8823915008889751, -0.8044133478257939, 6.115029799767148, 2.516875617682654, -0.6209046634211784, 2.040246819055823, 2.9901049474525623, -1.1229025570868256, -4.148564712747394, -3.906924582146509, 5.452007323724573, 0.5193787556771073, 1.5106763303627058, 0.43293238728967454], [0.2491328258487328, 9.002860593804439, -1.120278172707851, -1.3781859204280902, -3.694877546354155, -1.7182516153485832, -6.602684087498908, -0.4081154171995058, 3.9052901473798083, 6.246807054202201, 6.261508801800102, -3.3501567575368, 2.112744337702, -2.279960705875675, -2.7835769697023163, 1.0546534895467223]], "bias_h": [[1.0065823445892241], [-2.1584077869515683], [-0.7440050434311885], [-0.7146620165005911], [-1.8260754592490367], [-3.452632345133096], [1.1337030010855518], [5.296947671547548], [-0.5547870177668163], [2.777445805492798], [6.14483273610035], [0.41755481346236606], [-4.661026161320275], [4.257219715491211], [-2.414529368356922], [3.2819640948575044]], "bias_o": [[-0.03363188375834503], [1.7064589291062462], [-0.48588316555602135], [1.2241590981784354]]}, {"input_nodes": 12, "hidden_nodes": 16, "output_nodes": 4, "weights_ih": [[-0.868249582215367, -2.8450064082548687, -0.2118981336069482, 0.6620218384194503, -2.865696428571858, 2.1214076013636425, -2.9844459302752204, -0.5554321049375697, -0.39116407724091823, 5.223856231053293, -5.131017985782126, 0.4372722861169713], [0.2674052282420947, 8.46444146472276, -1.362221978447919, 0.4563590757465075, -0.3096277206602625, -0.8252456959693015, 2.3167817299351383, 7.033590739230025, 0.6206313487274809, -0.00454115192074591, 2.642244548918986, 7.689639513943924], [-3.516948620483882, 5.1883211220505245, 2.3967036815167533, -2.8149939564946296, -9.003487461437626, 1.9566709375831528, 3.21251346470656, -2.7179438941149394, 0.00918811894842577, 4.936830216821058, 5.3373758681147745, -2.129922198529251], [-0.1663680065426277, 0.5392667313006128, -5.063641762868273, -1.7619305073970308, 1.086660936870895, 2.0940911206595727, 0.7895675986512047, 1.3905777340732526, 0.697247410446794, -1.916365054839429, -2.3083676646297127, 5.391633257551303], [0.003832124220522648, 1.4818547581299086, 6.029994136356859, 2.4507865007711818, -5.572941864900564, -3.0634153308781116, -2.7817809542436565, 0.3114316635672739, -6.128455910485731, -1.4455776413228958, 3.127353699160257, -0.1830571095528382], [-4.243004465371753, 4.4157880963549605, 4.134672658534144, -2.9513104424867267, -2.0427235185532364, 3.2646170051804213, 5.150802979671361, -1.2488687719347809, 3.835310498081662, 1.761830325505704, -6.576599927081922, 0.7899012457516567], [3.815805726320752, -4.689489810813079, -1.2242043375206717, -0.5207292720896282, -3.285234926247849, 4.348034069180681, -2.9794256561352, 0.7856539067889221, 4.4871307448005755, -3.2872995023528375, 0.35559498714963866, -2.687187515154185], [2.332881629681373, 1.905583409988695, -5.006164058432207, -2.143879870489391, 1.0714962116645241, 1.7358785876205969, -0.8241022311468538, 0.0865868523580293, 1.6330241291305367, 2.2262386904068756, 7.728627908453412, 4.1367261945624945], [-0.20525945694295983, 0.36420260283060196, -1.6979806081400088, -2.5969061596089142, 1.46025443129674, -4.141291855817673, -4.45589896438031, 6.717828512829324, 1.5392549746375763, -5.110223817376542, -0.6427738492152176, 5.431740643321195], [5.792068832594449, 2.4010580138993785, 3.812500933469461, 1.0537312247020063, -0.6902971361007108, -0.9012142166776487, -0.05472422250926822, -0.740656196395936, -0.058089699880658166, 0.0072744994992748, 0.5979915643813805, 3.8918357310219163], [-4.998717720062396, -2.51031563294057, 1.7908914440261603, -2.9425604465031716, -0.7305699136756145, -0.730161032899751, -2.772583359117979, -2.230147633396427, 0.1417837039231669, -0.5950317603041179, 2.403159988345613, 6.107511408209845], [1.0313847694600615, -1.5681145751294108, 0.9476421855901201, 1.6159602465364378, -1.5383727866821135, 0.4845665922166491, 4.1019645139676015, 2.719387181648219, 2.9638503859035534, 2.2512746042947374, 0.4729889906323401, -1.4350852847535127], [5.576656976042961, 1.5086534284480297, -1.22105277325476, -0.6332316898710508, -1.9083787747131258, 1.0467340710149942, 1.6388792556770908, 4.177145780541414, 3.603140699791077, 6.766486561407785, 2.1312849786589427, 4.4580283801927125], [0.280879072434711, 1.577903496025205, -1.2642744085553663, 3.798096145125167, 0.667805702974827, 5.943196933863778, -1.6805913726220103, 3.996911370860518, -3.4584523356322094, 1.5389878648170403, 2.644192552509252, -3.631449684816876], [-0.31066773447313806, 0.8880884935550377, 1.5610399969752018, 0.1552381113661771, -0.35023265166216205, 2.3257859895506168, 0.12447218780458486, -3.1755547007795597, -1.0274529436495392, -2.731825946077516, 3.9923387155102503, 2.8768889889513543], [3.385809739056281, -0.1378478395882642, 2.647647146853677, -1.2039366964390972, -1.4935941708849771, -3.144306553583779, 3.7898464547258754, -4.4936678678912445, -0.6162573142015131, -0.435137576470146, -1.9436827656367817, 1.522827383201296]], "weights_ho": [[-2.387294006120328, -3.3709347033960113, 0.6509566458013543, 2.119824783325759, 0.45119280398944966, -4.459777990455727, 1.0283483371656685, 2.14100347302537, 7.798095423690191, 1.848350662875308, -0.5776261878351893, -1.7168411195821083, 7.5583182164032365, 5.706071233350509, 1.130480912555588, -2.0734030703111346], [3.1884847995365715, 0.9529989322999868, 6.727795512850801, -3.4418461851376705, -0.3900983199060924, 3.6981476687895793, 0.5459949577166969, -0.5922973988234701, -0.2757553315040432, 0.7709115438757509, 7.321390924027588, -8.688410355119666, -6.684284210404095, 0.8914364125136147, 3.106111267919439, -2.856000596852572], [5.567930369536624, 0.5033938510710918, -1.8823915008889751, -0.937934628608987, 6.093927646517269, 2.434760197994039, -0.47591073711614384, 1.9961293925797194, 2.8962573071199165, -1.1271405101676777, -3.8692040287656897, -3.7531341279722836, 5.452007323724573, 0.5193787556771073, 1.4610994954953787, 0.4307900300743489], [0.3031610412674703, 8.889206794092484, -1.2306672110314985, -1.3337597058865156, -3.7033768206570823, -1.7736486934759559, -6.566225486173761, -0.3543527252007259, 3.9761266690095844, 6.192550734140938, 5.99094923564007, -3.416755301833727, 2.1157063616293783, -2.2132385491793114, -2.703768927107034, 1.1904888482324125]], "bias_h": [[1.0065823445892241], [-2.253719958276272], [-0.5314710568907968], [-0.8723822684137398], [-1.9054195135730263], [-3.394888987130046], [1.2294047456066237], [5.131945784058272], [-0.4867269619949793], [2.791540634737141], [6.1213067103257135], [0.2660330183332341], [-4.661026161320275], [4.203609128967779], [-2.4275423937231055], [3.241608501556368]], "bias_o": [[-0.23211671043591506], [1.7328594025090354], [-0.4950984240979933], [1.4285984292299876]]}, {"input_nodes": 12, "hidden_nodes": 16, "output_nodes": 4, "weights_ih": [[-1.092559890826466, -2.8159904796761235, -0.2505509514739958, 0.8304824173114721, -2.809712854977269, 2.2259625114581785, -3.186961137275738, -0.48255136464825094, -0.2732849604729833, 5.189964426135092, -5.131017985782126, 0.7578601398469464], [0.055732042530410905, 8.434582129954661, -1.0912280313879015, 0.48466342867110496, -0.3312982059661094, -0.7603798323214213, 2.3721413617950247, 6.922269843709705, 0.5580363468848986, 0.03105941092203693, 2.6903154019889834, 7.958857249510499], [-3.1682341933024674, 5.330167255694439, 2.2273380469298454, -2.6338383961562175, -9.049458565335534, 1.997603574355631, 3.2882615732186062, -2.6224184465978375, -0.09514557766192627, 4.9775196960004555, 5.264053284820624, -2.108949194814737], [-0.26913507895889865, 0.5850614362542548, -5.087729041166489, -1.7063291546831527, 0.9632411502283807, 2.0049436667339267, 0.8692770147021042, 1.4161688025619792, 0.6151554972394793, -1.9727752624638257, -2.324542040817091, 5.36855001594776], [-0.03170923280473256, 1.5521504981413503, 6.070113942485455, 2.355582029650441, -5.572076807609258, -3.0342226825621528, -2.7817809542436565, 0.17559937050551178, -6.028517105117538, -1.4878881738710723, 3.1385978518374644, -0.13985823251733415], [-4.252658081081001, 4.484816390298577, 4.090956767563075, -2.945496918378857, -2.009447441631185, 3.209835621289871, 5.354885845805805, -1.2332883708985805, 3.803985011865452, 1.513072957827744, -6.4157625337596516, 0.8378385694453137], [3.6687039601618308, -4.726181102290244, -1.292327593137499, -0.5074491451286758, -3.3489616700952665, 4.348034069180681, -2.836238782069143, 0.6473868212932731, 4.391159296992121, -3.2872995023528375, 0.18815386921791766, -2.687187515154185], [2.2936588698424374, 1.861206875454135, -5.012645105344736, -2.1639593340997996, 1.2159899540103498, 1.8045841544023529, -0.7766100617455476, 0.18627170616334446, 1.2961793358953655, 2.2262386904068756, 7.453179446212567, 4.0861258209584665], [-0.2407694152961094, 0.2980214253210634, -1.6822937188051963, -2.6092551084148914, 1.5367232498010537, -4.1511682648842845, -4.453081984682051, 6.69940104271417, 1.5323535126516887, -5.0987578706851595, -0.40180691413856745, 5.429673727213116], [5.85680630186158, 2.28784728804683, 3.707784641125859, 0.9625582743603713, -0.634435320455154, -0.8654094520352731, 0.08278634298161004, -0.7120917921904816, 0.1627913025934171, 0.08995715178517946, 0.8458143155262757, 3.8679070776590874], [-5.11783675065344, -2.475678416281327, 1.8470303296546309, -2.935400602471204, -0.7520750659143125, -0.730161032899751, -2.6590326393383967, -2.230147633396427, 0.09056453319495934, -0.6538234009158832, 2.505742058161705, 6.011528122250964], [1.0309376871962768, -1.5827547292713768, 0.6618846427105253, 1.5658985917341033, -1.5684685906271747, 0.4465843042237454, 4.010446061329221, 2.97052213953379, 3.028261594918293, 2.2377264189072554, 0.45403618440389737, -1.5123593959896189], [5.427004550942166, 1.4893669002566303, -1.039009284207204, -0.6766150422745921, -2.0185366453325497, 1.2129378509211932, 1.5786411115118661, 4.132824044989032, 3.6397169009303365, 6.490966307158673, 2.0303193661922307, 4.5129036387364065], [0.037339090120424065, 1.455782989404958, -1.3050537814434684, 3.8088103655186543, 0.6528060681932102, 5.594910680289364, -1.4975079928903754, 3.997299028577628, -3.712706889220585, 1.585177587446246, 2.7318029217112896, -3.658154082847184], [-0.08895634346395359, 0.8252201762304997, 1.6799689866987002, 0.1552381113661771, -0.2576252067857999, 2.377265356417481, 0.12447218780458486, -3.0965341231988313, -0.948031083442543, -2.8170143566458035, 3.9848347520511256, 2.7545395896335414], [3.256501756777307, -0.16151750264901085, 2.7230084840320696, -1.2142461540919682, -1.5812050342546584, -3.131253100344063, 3.7789434408062617, -4.569051044048525, -0.8223093129111547, -0.6461977161541329, -1.9436827656367817, 1.6353945327915467]], "weights_ho": [[-2.54756801859089, -3.3709347033960113, 0.6255147643970562, 2.0957649219214023, 0.39562580544524073, -4.503924565739436, 1.0283483371656685, 2.14100347302537, 7.848395523052483, 2.02643404443603, -0.5020735069518933, -1.7170387365432336, 7.667500513220594, 5.482268600303619, 1.2131588081188194, -2.177560751905183], [3.2128797372005984, 0.7835552480324257, 6.763640255156929, -3.4245024828436823, -0.4463482687358108, 3.598709523548497, 0.5767141368243633, -0.7389935783526171, -0.27950416628353203, 0.8981695429444411, 7.344781725544278, -8.550856746114105, -6.59709247366983, 0.8914364125136147, 3.146895838619721, -2.855727678283462], [5.567930369536624, 0.7122791921285331, -1.8302835844354628, -0.9407603257446723, 6.000860812792465, 2.192488221545029, -0.43290202578893133, 2.0331920329875053, 2.922161781212342, -1.0783341368813018, -3.9313756475571706, -3.5923425603065664, 5.5362958817379475, 0.43243701380223576, 1.4610994954953787, 0.44122715494698217], [0.431109524089363, 8.881052083503798, -1.2361803309938237, -1.347283086765369, -3.604733074916234, -1.7736486934759559, -6.592386389269333, -0.3543527252007259, 4.027003270666193, 6.168187232873078, 5.984691347120625, -3.208391772704838, 1.9785584402238294, -2.212123966044462, -2.7686746106793896, 1.1141439787742307]], "bias_h": [[0.8453620781475562], [-2.2562642669453803], [-0.522645869713778], [-0.9384146833575581], [-1.991453641663832], [-3.3757922308301502], [1.2259361941441045], [5.360907160393453], [-0.46747208750941815], [2.791540634737141], [6.421220788537553], [0.23992537302828376], [-4.6494985111077005], [4.394502060967508], [-2.386288977137358], [3.241608501556368]], "bias_o": [[0.048611384896127485], [1.6005818602623452], [-0.5935135716953165], [1.1496117463996476]]}, {"input_nodes": 12, "hidden_nodes": 16, "output_nodes": 4, "weights_ih": [[-1.0769348453254393, -2.7418850020965952, -0.0899578439830998, 0.6151679476187494, -2.890742811881242, 2.239524151396439, -2.990440794389998, -0.5277004310114969, -0.2661453474806288, 5.189964426135092, -5.12195694472347, 0.7939830304604225], [0.07516925937392457, 8.517023548853993, -1.3994405169703237, 0.42027451561922957, -0.3019939756922239, -0.6800297261295176, 2.335285830291029, 7.212181991734447, 0.653663101358492, -0.05332874610999906, 2.675919831881602, 7.690185854892798], [-3.3741087164616372, 5.267340796407467, 2.4087740973987826, -2.8541845603086355, -9.030756652683339, 2.3111674151713184, 3.431096730526085, -2.721649137448772, -0.17453817118983522, 5.004896920495855, 5.371542708486522, -2.031148858745085], [-0.26913507895889865, 0.6297495862974712, -5.1583499087322355, -1.7399496221331485, 1.0784991019837868, 2.0985738529096616, 0.7723960220047981, 1.4947000080836776, 0.6783993365874827, -1.9247097469401666, -2.2842804639190506, 5.313945787918134], [0.10352880438007495, 1.8060379733692842, 5.945276305332625, 2.4349198821316933, -5.553524834872341, -3.102554614785052, -2.820600100085178, 0.20042676571242382, -6.167566610170999, -1.5592353166354036, 3.31464160465795, -0.026514261014583332], [-4.20559640556562, 4.586358338284523, 4.090956767563075, -2.994663033026938, -1.9488533906532148, 3.2510769419575514, 5.239739836973564, -1.1650411322196519, 3.8536502041024505, 1.6052270043740542, -6.386738047811044, 0.8795834045093462], [3.7120718865863354, -4.635022236172656, -1.3463999482654028, -0.6076859851689159, -3.4087012819017715, 4.338968658837246, -2.9218941424734606, 0.7933645910276163, 4.427750583676097, -3.231919746675194, 0.3568573446495754, -2.7531812850644433], [2.1887686720537527, 1.7444908226307514, -4.818766957323563, -2.3801871935917434, 1.2159899540103498, 1.7454436073424868, -0.9404258340849306, 0.21289860534517718, 1.3801081455690576, 2.2473627697653713, 7.642360314161131, 3.9436216365821237], [-0.2407694152961094, 0.2856586975001999, -1.879864577031036, -2.7098058303624097, 1.6023542834573867, -3.9215442352381698, -4.453081984682051, 6.69940104271417, 1.5275769016157852, -5.144575320293885, -0.4357867075581951, 5.423327501287636], [5.874174967309269, 2.037056015341356, 3.7820143189450857, 1.1487131314214267, -0.6038324252919366, -0.8654094520352731, -0.03537337055573083, -0.6906718654264409, -0.023823081504113452, 0.001619522252098998, 0.4473401462931067, 3.9020746222364506], [-5.057876022648195, -2.4772686217958313, 1.8470303296546309, -2.939866343083154, -0.734853356329457, -0.7304169184957109, -2.731130507532968, -2.066760905181973, -0.018011790128704824, -0.6188720339721918, 2.4446412585338533, 6.108229446585382], [1.1034661753796269, -1.649894177233719, 0.9014001657307542, 1.6622449067968987, -1.508942733223073, 0.44354668972921724, 3.931498386814018, 2.8251808959457927, 2.9970993667040817, 2.463013486625909, 0.42741037834593565, -1.4780212812108764], [5.5459889953938415, 1.5143808309014464, -1.2285583819885455, -0.7399455599990397, -1.81912285274878, 1.2157985454893094, 1.590833174512873, 4.080191382344833, 3.408170535840357, 6.7028510342916885, 2.208587200305373, 4.473180628296893], [0.037339090120424065, 1.5124115718590627, -1.4312575350541028, 3.8788291096149723, 0.6525324227191662, 5.728922510018188, -1.4681729521030005, 4.008888272741572, -3.4374033152640324, 1.5389878648170403, 2.6868218384169684, -3.795020087005793], [-0.0421511065832038, 0.8880884935550377, 1.6784726935453023, -0.032612927696104924, -0.43143933199184864, 2.3227778182739365, 0.13330053139519663, -3.1018365024690135, -1.013365636044402, -2.711221832639417, 3.9388129873562514, 2.832993652444601], [3.355523149444052, -0.21273120529260525, 2.841030432737596, -1.335219102191456, -1.570321113735452, -3.1183555102777847, 3.826998598828705, -4.5647043696477105, -0.6204853082656607, -0.6103154225068347, -1.96415958812444, 1.6444771807601752]], "weights_ho": [[-2.3296325069413393, -3.1450297675872485, 0.6517778343300035, 2.137892315987661, 0.5879857278351482, -4.4432778022218375, 1.0525920952273196, 2.157690013902533, 7.801740360828591, 1.9543383494087283, -0.6166381173900884, -1.8841018284470492, 7.620885884664503, 5.532923637702293, 1.0931808828881004, -2.114245324363618], [3.265327639984852, 0.7177651306168049, 6.78558468855394, -3.31645473201609, -0.4628847060761791, 3.598709523548497, 0.6561231563427713, -0.5737674321446221, -0.3111703113251686, 0.8389601473797976, 7.288044271114475, -8.460759034637455, -6.6181541985321655, 0.940950826291117, 3.186501855246405, -2.816536459029069], [5.659763550019213, 0.5146709566519311, -1.8302835844354628, -0.9589853196787005, 6.042398539213087, 2.531553774302329, -0.4595974625883542, 2.0003109102837158, 3.0160094215449886, -0.9832861697712894, -4.058568376265401, -3.7280914764899946, 5.657379391017093, 0.4965571930104587, 1.4862067180777243, 0.6513737374359023], [0.2818592646908105, 9.142612483056592, -1.1415884948789956, -1.3475352132840088, -3.6369300114347163, -1.8344257933601118, -6.62884499059448, -0.32333266150266826, 4.010182693662464, 6.042588535496391, 6.036015274045444, -3.365665925822538, 2.289157990477492, -2.362000700644399, -2.786031362401331, 0.9377766021980612]], "bias_h": [[0.9261229666604713], [-2.2227864852600114], [-0.48024996245979445], [-0.8456172401956054], [-1.6691134472204963], [-3.4335355888332], [1.2554559892260544], [5.267767496081805], [-0.5596422027130525], [2.9240108333417405], [6.292845684594585], [0.29288889031892534], [-4.64233759144172], [4.331113128232797], [-2.3732759517711743], [3.255044029444414]], "bias_o": [[0.048611384896127485], [1.6439789979319093], [-0.6308483555864965], [1.3724349059335323]]}, {"input_nodes": 12, "hidden_nodes": 16, "output_nodes": 4, "weights_ih": [[-0.9257834920287185, -2.7892329251888417, -0.1537841584112978, 0.7223399431512845, -2.847026060011123, 2.370034722566053, -2.9819702317563355, -0.5277004310114969, -0.3822946891510179, 5.189964426135092, -5.12195694472347, 0.7939830304604225], [0.045717556253078225, 8.452500342578361, -1.4477923951975278, 0.3842323246910268, -0.3019939756922239, -0.709126859869424, 2.566334055140661, 7.060390019358543, 0.6413093283728846, -0.10451090581520224, 2.675919831881602, 7.690185854892798], [-3.3741087164616372, 4.906472059708065, 2.323978501699202, -2.8541845603086355, -8.959050664527316, 2.0733860897451506, 3.4057585627953375, -2.798468376653668, -0.2561052622103075, 4.9775196960004555, 5.069562208533168, -2.031148858745085], [-0.26913507895889865, 0.8010842619641088, -5.187975801224853, -1.7399496221331485, 1.2744483914266054, 2.0985738529096616, 0.9996883459437218, 1.4947000080836776, 0.6783993365874827, -1.8778479074096062, -2.1773550075935795, 5.339653868222824], [0.10352880438007495, 1.6463582341885905, 6.002953933780179, 2.368630755186982, -5.553524834872341, -3.187590924786075, -2.6148685817358213, 0.20042676571242382, -6.199832035130135, -1.6130306534460483, 3.1385978518374644, -0.16309017374539558], [-4.3528126193097885, 4.468660953512411, 4.029521488682435, -2.9537420085428043, -2.1528936214348717, 3.2510769419575514, 5.27566928867671, -1.1606908222899524, 3.8536502041024505, 1.6052270043740542, -6.386738047811044, 0.845632905590433], [3.7120718865863354, -4.635022236172656, -1.3463999482654028, -0.5144631850715287, -3.3217071761404404, 4.421205743833964, -2.898692561014592, 0.7364048525130209, 4.279249720833743, -3.231919746675194, 0.4813349552121333, -2.8988917475987166], [2.1887686720537527, 1.748319927890438, -4.930264440172973, -2.107328142020041, 1.2159899540103498, 1.816071837396632, -0.7328877273323233, 0.21289860534517718, 1.2542636140816201, 2.284577322984212, 7.577242340203945, 3.9436216365821237], [-0.133440307491068, 0.3909141174472067, -1.5899817955144324, -2.6399015766179055, 1.520558013460596, -3.984756683997739, -4.453081984682051, 6.69940104271417, 1.4628688106729066, -5.265952971058531, -0.34040462637567487, 5.462445000296521], [5.847169971402975, 2.2137569247598323, 3.6307713902749095, 1.04197619962316, -0.5950675976416652, -0.8654094520352731, -0.06086377205463625, -0.5401360284326273, 0.017137447565017987, -6.366460502373571e-05, 0.6658636391010817, 3.803431216280014], [-4.970723367598174, -2.443743339505809, 1.8470303296546309, -2.939740537979276, -0.8188944993565702, -0.7644167081227631, -2.731130507532968, -2.218405032438192, 0.15584520876698033, -0.6218208343988008, 2.4446412585338533, 6.041506337166778], [1.1034661753796269, -1.623258082292065, 0.8286493512795277, 1.4540807925248505, -1.3444660851227128, 0.4222974534601712, 4.203306767549371, 2.742176716455056, 2.9970993667040817, 2.2782837079769616, 0.25591070278585926, -1.496582627486244], [5.5459889953938415, 1.3436927985614648, -1.1064464707223283, -0.7399455599990397, -1.8381971952243918, 1.2157985454893094, 1.6478555652945959, 4.104459355600072, 3.5765765981289546, 6.7028510342916885, 2.050386844007676, 4.614527162226642], [0.037339090120424065, 1.5124115718590627, -1.4312575350541028, 3.9062252500481396, 0.7707325609904974, 5.685124755290193, -1.5211280108616734, 3.905029310791759, -3.4374033152640324, 1.4433175392075723, 2.61106428128652, -3.7457776128970006], [-0.040510026794437395, 0.9228925463191677, 1.597088388271953, 0.11481223626835528, -0.6100502780586773, 2.211820313010663, 0.25959086061525494, -3.1018365024690135, -0.9911894160275326, -2.7521776538334235, 3.847220409645012, 2.906262775210287], [3.240879168660457, -0.23786253413264227, 2.797693406416867, -1.4131421542876308, -1.679203359540474, -3.1183555102777847, 3.6992175110874923, -4.5647043696477105, -0.49450238899787213, -0.6556088532761623, -1.96415958812444, 1.6444771807601752]], "weights_ho": [[-2.4366660575957653, -3.2716045202773203, 0.7322615981136388, 2.2628097507250096, 0.709891331853874, -4.447557232692038, 1.0467896285116178, 2.157690013902533, 7.801740360828591, 1.8135803436838052, -0.61459503335674, -2.0083284570090867, 7.635950664790233, 5.532923637702293, 1.0646134719733114, -2.07962766760666], [3.2617871650630814, 0.7177651306168049, 6.8245820917812665, -3.2823797101761323, -0.3829308170245065, 3.598709523548497, 0.7591973871659466, -0.5050648952589911, -0.1335665654580365, 1.0350943135215367, 7.321590756808666, -8.409358234408222, -6.6181541985321655, 0.8530539622470077, 3.049494139758963, -2.8619332716548587], [5.567930369536624, 0.5146709566519311, -1.8302835844354628, -0.9020506883855403, 6.092317740875858, 2.5003939880851194, -0.4321025501740213, 2.118157611153988, 3.4229584514247113, -1.0783341368813018, -3.9524400868663774, -3.9854972894336917, 5.407683162413404, 0.4965571930104587, 1.4512158500702481, 0.43806296375596154], [0.25497136325907477, 9.03957026728673, -1.26990803271478, -1.3719543203149143, -3.5321802092180707, -1.7391699596636168, -6.62884499059448, -0.3641776309773706, 4.084162323083124, 6.185059039015723, 5.94803429164474, -3.353516153233511, 2.1675491101705435, -2.3048112302973633, -2.8281073800156493, 0.9288100035254949]], "bias_h": [[1.09331777833571], [-2.299716373952847], [-0.49394653882511974], [-0.7048564716989759], [-1.6414035433194545], [-3.327003879036744], [1.2554559892260544], [5.329883076626652], [-0.5547870177668163], [2.777445805492798], [6.176894569217783], [0.2901269893110305], [-4.64233759144172], [4.331113128232797], [-2.2401617055297], [3.247184919513451]], "bias_o": [[-0.019278236827363446], [1.5950726608173895], [-0.6817020115068237], [1.2023280728214731]]}, {"input_nodes": 12, "hidden_nodes": 16, "output_nodes": 4, "weights_ih": [[-0.8760152161914851, -2.7458604746419337, -0.0926393626103964, 0.6004758732901567, -2.8060667098511343, 2.088284945657761, -2.9844459302752204, -0.5284067044223661, -0.33608592309663915, 5.019793461762166, -5.12195694472347, 0.7408135172792986], [-0.004953692537754843, 8.443430418457833, -1.4060967415197858, 0.43288069032060517, -0.3019939756922239, -0.6274580176041893, 2.3683127387610683, 7.0543130594347705, 0.8241375527767514, 0.06334518579729179, 2.675919831881602, 7.79187841196172], [-3.3094356215382694, 5.126196227684716, 2.4087740973987826, -2.8149939564946296, -9.033152009692214, 2.0733860897451506, 3.21251346470656, -2.666979238766076, -0.1354421780187266, 5.027140923674481, 5.3017773653362585, -2.2511379910473757], [-0.31728390329594514, 0.5331262059235082, -5.147270048217897, -1.772773007291055, 0.9865743566893812, 2.127129280369171, 0.696608462392892, 1.5171309007032874, 0.6964193123354621, -1.9589513705487323, -2.249399063264093, 5.4230488976313], [0.0289019257984728, 1.761196015953497, 6.029994136356859, 2.407679408052016, -5.572941864900564, -3.129316912208308, -2.7817809542436565, 0.24099031399985815, -6.075800919634305, -1.7093733384502814, 3.0560499435424235, -0.14079283218823968], [-4.330916704798623, 4.247050340646038, 3.968431037638492, -2.9513104424867267, -1.953655527869149, 3.121448600884338, 5.207471849832926, -1.0500757008810935, 3.9097536872411025, 1.7574422460186712, -6.442451128009205, 0.864380961647645], [3.641977946947369, -4.402036992776524, -1.275661359346933, -0.5207292720896282, -3.285234926247849, 4.493112487657344, -3.044514662600393, 0.7281866125689904, 4.446607391877662, -3.2572652036474286, 0.30985794782450704, -2.8564201490518704], [2.210625069936718, 1.7888673571653113, -4.974837577973437, -2.3326544923816344, 1.2159899540103498, 1.7358785876205969, -0.8697222398392104, 0.15276723291164546, 1.534282622832487, 2.1121831781212936, 7.549857697587799, 3.9976224333043864], [-0.2684867220232293, 0.29440173597403446, -1.7416151608946653, -2.535611423064282, 1.5828982917883747, -4.115059045877384, -4.467631808290682, 6.494247995809773, 1.5883966718912204, -5.110223817376542, -0.45244265444027976, 5.282149791706439], [5.846688946992412, 2.2802715216575375, 3.8191329786224713, 1.210840195412826, -0.6391708790865366, -0.9164808481273116, -0.06751756155840163, -0.8598388500096042, 0.042035796912106904, -0.06597582554580705, 0.4985895977289588, 3.9339510872283623], [-5.142945634809397, -2.410057020267154, 2.0750582529352397, -2.6957673266146363, -0.685539303134645, -0.7337088010577346, -2.731130507532968, -2.2414876551674885, 0.311163404921449, -0.6218208343988008, 2.4446412585338533, 6.29765735373866], [1.2125071736404975, -1.708855486230446, 0.8526664251842495, 1.5474397716911867, -1.508942733223073, 0.5378421446640035, 3.954077375626282, 2.9061494097770764, 3.0161510815064916, 2.246078966183383, 0.4794378962985476, -1.4775214750257042], [5.675236585420272, 1.5330788662353096, -1.2716169618385391, -0.6249700179993041, -1.8759437304650568, 1.1607286385613893, 1.5968537936191298, 4.061501608691969, 3.55557496000949, 6.723945629096291, 2.1028122482848226, 4.52478511169965], [-0.11469756106899971, 1.5541275798980894, -1.4268804013733254, 3.94052482576487, 0.7744396255946762, 5.637311841935569, -1.4706261482936527, 4.135660225165278, -3.507879350250434, 1.5389878648170403, 2.5642859731360295, -3.71315121371233], [-0.2948888115614975, 0.8335271693801929, 1.691424862908518, 0.17125660647444912, -0.43143933199184864, 2.172795734793377, 0.13330053139519663, -3.214511630383228, -1.0274529436495392, -2.6563941315950568, 3.9749139196664944, 2.8743056447436235], [3.475674717400781, -0.12312629215806668, 2.8687376552561163, -1.2142461540919682, -1.6232047270650285, -3.0713491826455064, 3.7455762000813557, -4.6642876671676055, -0.7299046412149981, -0.52251800623341, -1.9436827656367817, 1.6420270274944255]], "weights_ho": [[-2.384510165858618, -3.3065548489261802, 0.6419911580684864, 2.0234038815373427, 0.5625524475840356, -4.480649015508568, 1.0386538033979535, 2.197529617582687, 7.939670122851462, 2.013106218575821, -0.6013707188593596, -1.6855479679358365, 7.568789825967598, 5.558919520736554, 1.0931808828881004, -2.0251295161075866], [3.3395198646499966, 0.5095285501222058, 6.889852203955002, -3.325197900792009, -0.3900983199060924, 3.730069572399266, 0.6592438690414144, -0.6105758461694968, -0.34311238457489057, 0.8196910569127339, 7.290275761976808, -8.504557596961625, -6.533159904111087, 0.8914364125136147, 3.1504762877099335, -2.855727678283462], [5.353424303430106, 0.6443799770255669, -1.8650532318064346, -0.871075399722351, 6.1101685017040595, 2.3610463988913906, -0.4656405028280322, 1.9961293925797194, 2.9656688029572016, -1.0117118352535326, -3.9313756475571706, -3.727843483136865, 5.452007323724573, 0.4110963853105799, 1.693864380843652, 0.44122715494698217], [0.12485120409604518, 9.125597595729994, -1.2560808132513959, -1.3337597058865156, -3.6468608723874785, -1.7651010815037187, -6.461125481742577, -0.35004323309195673, 4.010182693662464, 6.260649230567172, 6.022375866660624, -3.3651465835138077, 2.093018020370713, -2.2578450095071134, -2.8780872402357054, 1.1058788097769372]], "bias_h": [[1.0176819212651185], [-2.1726436335918993], [-0.6062713665054431], [-0.8981698517537628], [-1.8463283965056285], [-3.474608729380156], [1.2028290389514706], [5.221603099536893], [-0.5304077371861948], [2.777445805492798], [6.097101415513726], [0.31435105209856984], [-4.632051171739358], [4.322269181882611], [-2.503869272872144], [3.188446038678691]], "bias_o": [[0.048611384896127485], [1.7109626147071428], [-0.628980052087401], [1.2890090159834304]]}, {"input_nodes": 12, "hidden_nodes": 16, "output_nodes": 4, "weights_ih": [[-1.1557065287243526, -2.72620969625729, -0.2014953460016394, 0.6004758732901567, -2.7161956637436, 2.1046129415010295, -2.9844459302752204, -0.752029059655119, -0.3517272697454851, 4.980420691869041, -5.035188406835779, 0.7538456221449885], [-0.004953692537754843, 8.468671271310779, -1.53869357556029, 0.29840319192870257, -0.06629300925037374, -0.9317832067001319, 2.146686013808219, 7.090262229113035, 0.6848735388577813, 0.05444443631754223, 2.675919831881602, 7.79456103809566], [-3.3802835233415562, 5.126196227684716, 2.4441304807936457, -2.8149939564946296, -9.064792036508102, 2.015345068624776, 3.21251346470656, -2.8770250881837454, -0.20994939540816826, 4.9775196960004555, 5.3017773653362585, -2.1151931610583676], [-0.2429149494208305, 0.35873258381606543, -5.342055426174895, -1.6964320007028326, 0.8272752523719482, 2.0940911206595727, 0.8392507622531042, 1.418279947036884, 0.7213187852878495, -1.884499917775579, -2.147194122256228, 5.391633257551303], [0.0961226573375573, 1.687109893083984, 5.969611624808057, 2.4315371096194793, -5.572941864900564, -3.129316912208308, -2.78565509231897, 0.24099031399985815, -6.018644857834586, -1.4273206257817457, 3.127353699160257, -0.14079283218823968], [-4.391570743449421, 4.438185416343022, 4.071919730325087, -2.9513104424867267, -2.0442777805722043, 3.210531882601834, 5.213748656263212, -1.3811206018347209, 3.835310498081662, 1.6891312453890774, -6.4847932356737745, 0.864380961647645], [3.595649181396104, -4.585594779498123, -1.275661359346933, -0.5207292720896282, -3.3643529531735012, 4.182695587263063, -3.0233405161874387, 0.7915936744712919, 4.34650492835216, -3.2178341744455587, 0.30985794782450704, -2.6500918992771325], [2.347763156828772, 1.6642759170526913, -4.974837577973437, -2.1639593340997996, 1.2159899540103498, 1.7358785876205969, -0.8697222398392104, 0.13096930443787438, 1.4018676765498768, 2.2262386904068756, 7.549857697587799, 3.9480183670128914], [-0.2684867220232293, 0.26652120122144973, -1.7416151608946653, -2.6031579817040242, 1.6316611186487264, -4.065558688223464, -4.431486350963828, 6.717828512829324, 1.4864388881917592, -5.054030219164933, -0.4082492231576986, 5.461639242416352], [5.846688946992412, 2.2108993262987044, 3.812500933469461, 1.0760747570434077, -0.5213155790620865, -0.6755464118209338, -0.0038465498290026975, -0.6941945192409773, -0.005705898953788979, 0.02460885018219279, 0.4985895977289588, 3.9807524507201952], [-5.2480214769100275, -2.4110605384713253, 1.8470303296546309, -2.7503772058424367, -0.7305699136756145, -0.730161032899751, -2.743642403184896, -2.0512832462693655, 0.2090101836463198, -0.6218208343988008, 2.437424665585618, 6.169127709309329], [1.0717975239911788, -1.708855486230446, 0.935469608726644, 1.5474397716911867, -1.5351088146090097, 0.5378421446640035, 3.954077375626282, 2.9354591822315257, 2.9870663515188083, 2.246078966183383, 0.45186415995766094, -1.496582627486244], [5.570890810550232, 1.5358853335179934, -1.3132593573159221, -0.6116448586417595, -1.8759437304650568, 1.1621457041584973, 1.5968537936191298, 4.159590997515763, 3.55557496000949, 6.7028510342916885, 2.1714542855236303, 4.5483048532799835], [0.037339090120424065, 1.5541275798980894, -1.4268804013733254, 3.94052482576487, 0.7744396255946762, 5.640286409806347, -1.4891639576524833, 4.093674359310809, -3.575367253895501, 1.5074885606172561, 2.418773463505377, -3.71315121371233], [-0.09927337212232565, 0.8880884935550377, 1.7604870324016964, 0.10634888779520774, -0.5973446066860256, 2.412939986827621, 0.024294450970116024, -3.1462787310998, -1.0274529436495392, -2.7206990783582206, 3.769590638012559, 2.8207303585679795], [3.488295537429626, -0.1559024703979936, 2.684851717144772, -1.2142461540919682, -1.578977879169042, -3.1755817309025383, 3.6875764626977214, -4.570174742977075, -0.6136657789760478, -0.473107043707863, -1.9436827656367817, 1.6420270274944255]], "weights_ho": [[-2.2791339221762668, -3.2716045202773203, 0.6419911580684864, 2.1032552753591798, 0.5625524475840356, -4.480649015508568, 1.0386538033979535, 2.157690013902533, 7.842276652679017, 1.8697269807395063, -0.6208927841338429, -1.7450780877952248, 7.460192846444835, 5.533012446170503, 0.9576552769560983, -2.0251295161075866], [3.265327639984852, 0.5886829479065411, 6.85508412168748, -3.325197900792009, -0.3900983199060924, 3.6981476687895793, 0.49488827004942937, -0.5818439579603238, -0.33940763340835295, 0.9381799868928558, 7.290275761976808, -8.426799324646597, -6.518843798464719, 1.0034367486277846, 3.0898663913826754, -2.842235230469353], [5.538553717405403, 0.47500211454701846, -1.8650532318064346, -0.937934628608987, 6.111036838021039, 2.443625829358046, -0.5513537636685865, 1.9232797710738851, 2.9656688029572016, -1.0895694997208372, -3.9313756475571706, -3.8140199627683753, 5.342914410983981, 0.5325104545366753, 1.5557885142763719, 0.48766183963329884], [0.2491328258487328, 9.107041734812944, -1.2294324710776083, -1.3604548645088763, -3.647589786870647, -1.7651010815037187, -6.509783563710721, -0.35004323309195673, 4.010182693662464, 6.187973025614543, 6.031746546536105, -3.307533601686813, 2.093018020370713, -2.288711656113854, -2.6611073270417545, 1.1058788097769372]], "bias_h": [[1.0065823445892241], [-2.226451122216851], [-0.47023018759511037], [-0.8981698517537628], [-1.8463283965056285], [-3.474608729380156], [1.2028290389514706], [5.3410622047395035], [-0.5696248074300603], [2.777445805492798], [6.176894569217783], [0.31145473884672886], [-4.632051171739358], [4.182016425539729], [-2.3013468948634936], [3.400081909051395]], "bias_o": [[-0.010065952014822466], [1.5904515020218466], [-0.5944230746736734], [1.2241590981784354]]}, {"input_nodes": 12, "hidden_nodes": 16, "output_nodes": 4, "weights_ih": [[-1.006370632960083, -2.5693670581963826, -0.2905995927101854, 0.6620218384194503, -2.9564158111848524, 2.0193864709804754, -2.9725000994645017, -0.48325763805912025, -0.4355141144636995, 5.148866271399161, -5.131017985782126, 0.6837188455331087], [0.11330460798271527, 8.46257862591207, -1.011666506012527, 0.3192281515941434, -0.26023093512529916, -0.8863482312695842, 2.3601967585665053, 7.212027364708243, 0.6417285896603582, 0.10813833093212005, 2.6903154019889834, 8.070055077432686], [-3.244762526614901, 5.120265105839896, 2.4087740973987826, -2.5307949662597053, -9.039504026326956, 2.0733860897451506, 3.0766522866669335, -2.762908440702778, -0.20656153693084764, 4.9775196960004555, 5.441320676848729, -2.2593410662294846], [-0.26913507895889865, 0.5331262059235082, -5.259625344775795, -1.787913780573919, 0.8087858182745259, 2.087929921943981, 0.7373457588339645, 1.441289405153335, 0.6331754729874586, -1.9130626952642236, -2.2246146661623483, 5.402934386615119], [0.025957507443369342, 1.6947546113713101, 6.17036763755352, 2.534575802680999, -5.574018514118259, -3.066356234458744, -2.7816325210606, 0.19282631716668008, -6.1332264723298024, -1.3450045449806465, 3.1166946858486453, -0.2551958444820346], [-4.243004465371753, 4.396457218873196, 4.071919730325087, -2.7897714058655785, -2.0256567591335455, 3.1513383210280863, 5.185445164237296, -1.2166767653020643, 3.785645305844664, 1.5596561856877313, -6.582848423536505, 0.7788754487253002], [3.641977946947369, -4.660515534886688, -1.4336019784669518, -0.5207292720896282, -3.224998551647312, 4.36872838949188, -3.124786889901417, 0.905376757628321, 4.335497148362323, -3.312644959325072, 0.40454957326270125, -2.63779499477576], [2.3244700279752357, 1.905583409988695, -5.002191438133305, -2.2205905261795578, 1.070707236277021, 1.8155566792052638, -0.838668060870947, 0.1402182693023717, 1.4406477405048757, 2.20511461104838, 7.604285479254251, 3.9481596890153106], [-0.3522376550660328, 0.30676446379489797, -1.689737222876321, -2.5128890693345007, 1.5172672581320417, -4.227122711901449, -4.431486350963828, 6.717828512829324, 1.574227143173426, -5.315611915476903, -0.610652609477079, 5.467985468341831], [5.732165824190419, 2.2826541362412267, 3.738271255650234, 1.2265252269879663, -0.64683711088935, -0.9164808481273116, 0.024620074677213402, -0.7226973949178718, -0.05530485487341668, -0.0001509829415871633, 0.5204408141916312, 4.039089660026972], [-5.183009060173522, -2.441992097042672, 1.9469439855438393, -2.9876673380454655, -0.74779162326047, -0.6456764995048903, -2.769607478054583, -2.281716874066538, 0.15323743589788186, -0.7413582947175672, 2.402135966245629, 6.158913758539186], [1.0313847694600615, -1.6040420357422336, 0.7410334412789346, 1.323481245655, -1.5735186822121596, 0.4938354626188919, 4.106003371414829, 2.8547545468630475, 3.0192100247724656, 2.205521677113677, 0.47848996601562266, -1.5112096590471427], [5.480090670692161, 1.5263085596980428, -1.2166397618751061, -0.7104075694131619, -1.9609603578334767, 1.105658731633469, 1.71101289652219, 4.088198817322257, 3.603436904054463, 6.7028510342916885, 1.881517246260785, 4.456793723757236], [0.037339090120424065, 1.709806688952295, -1.3486098639106856, 3.657131879510856, 0.8302698662594733, 5.550072334805518, -1.3908461233020608, 3.996911370860518, -3.488631331959641, 1.2907673803047945, 2.9273955422604625, -3.638382150444958], [-0.24003312675058602, 0.8880884935550377, 1.6441857560128446, -0.047911789841286384, -0.3688801534083675, 2.382995584331983, 0.195283278405501, -3.1755547007795597, -0.9621183910476803, -2.730176324077024, 4.0327869839608335, 2.7653275922081137], [3.4799233163246948, -0.17805787089312447, 2.6718753415297707, -1.449745243717641, -1.701638529267721, -3.1545197323959595, 3.782514819026725, -4.5510667422584445, -0.526873528449849, -0.4212394272481949, -1.9232059431491233, 1.5606603176562859]], "weights_ho": [[-2.387294006120328, -3.509124481167286, 0.6157280881355391, 1.8590717071911578, 0.5625524475840356, -4.527495832185535, 1.0754104025287312, 2.0060111365431226, 7.770909872300866, 1.7840201241183513, -0.5985635197341108, -1.6932254950252037, 7.598025826596081, 5.501349293496932, 1.0931808828881004, -2.146643563504173], [3.265327639984852, 0.6644353038016511, 6.792071294463005, -3.3808587267376207, -0.2558650224201997, 3.6981476687895793, 0.4936304270617765, -0.6473745786158898, -0.36064823364927007, 0.9989195966630726, 7.277435262552607, -8.72837244136989, -6.560024368116801, 0.9298188627802217, 3.106111267919439, -2.8449414135497397], [5.764161664748749, 0.5527754143308345, -1.6561807324141777, -0.9636639350770372, 6.074410847681866, 2.333103800569712, -0.2853095130050562, 1.9068790616523648, 2.828135406712663, -1.0895694997208372, -3.9103112082479643, -3.949538704537701, 5.537476416577673, 0.5193787556771073, 1.3675143466421278, 0.4027878120225087], [0.3031610412674703, 8.889206794092484, -1.449947071744768, -1.3101195152044707, -3.7033768206570823, -1.8204981596310916, -6.554119300751982, -0.3543527252007259, 4.005482023036558, 6.207005639491403, 6.064126269317871, -3.353516153233511, 2.095980044298092, -2.2380890736009995, -2.815799301052568, 1.158347138894305]], "bias_h": [[1.2125413582854505], [-2.187707125635213], [-0.5826921513217992], [-1.1634659992499046], [-1.9514625327081303], [-3.4168653713771064], [1.1733092438695207], [5.3410622047395035], [-0.5564438784163311], [2.8595027829046544], [6.049869225813298], [0.2584912215560873], [-4.632051171739358], [4.357490648453726], [-2.361330351406199], [3.241608501556368]], "bias_o": [[0.048611384896127485], [1.6703794713346984], [-0.531663602814912], [1.3820532020825946]]}, {"input_nodes": 12, "hidden_nodes": 16, "output_nodes": 4, "weights_ih": [[-0.9167210876445229, -2.6628181366660315, -0.14552603904956057, 0.6151679476187494, -2.808133803644722, 2.157183420335046, -2.9819702317563355, -0.5835218905743618, -0.2567030507263283, 5.189964426135092, -5.12195694472347, 0.7939830304604225], [-0.004953692537754843, 8.431733401888195, -1.3629672935282116, 0.42027451561922957, -0.3019939756922239, -0.7645299479385959, 2.4122015931846934, 6.901767329148605, 0.6413093283728846, -0.04297091298997993, 2.799868875360433, 7.723157241983078], [-3.3741087164616372, 5.19764545043329, 2.4087740973987826, -2.8143613571328063, -9.019565225378045, 2.106615691102557, 3.4057585627953375, -2.798468376653668, -0.2392552740602003, 4.9775196960004555, 5.235125543567593, -2.031148858745085], [-0.30099702241904835, 0.5722574305234687, -5.187975801224853, -1.726597944673049, 1.0581642421679305, 2.0985738529096616, 0.8971394061059437, 1.4947000080836776, 0.6783993365874827, -2.0044369695512434, -2.2679252914679164, 5.36855001594776], [0.10352880438007495, 1.7271904754154086, 6.089323906252552, 2.4212473486328587, -5.652476030120299, -3.1896663953483344, -2.9486673091047577, 0.20042676571242382, -6.167566610170999, -1.534198333000373, 2.9621388230703283, -0.135578564992746], [-4.386545753778109, 4.468660953512411, 4.090956767563075, -2.932413222165045, -2.165248071441691, 3.2138710487885263, 5.203143472245243, -1.3079529336891564, 3.7626596415186584, 1.6052270043740542, -6.386738047811044, 0.8369292190206561], [3.7552705850915884, -4.635022236172656, -1.3463999482654028, -0.39850820910463747, -3.3217071761404404, 4.338968658837246, -2.98216033854397, 0.7115603975974404, 4.427750583676097, -3.231919746675194, 0.3168130628602486, -2.742842830103804], [2.1887686720537527, 1.7444908226307514, -4.97881019827234, -2.0503136382473524, 1.2159899540103498, 1.7851150981647388, -0.8076642407138109, 0.21289860534517718, 1.3359695634453526, 2.193877292222608, 7.522010088383837, 3.9436216365821237], [-0.43218009262669066, 0.3523118710247635, -1.71641492664522, -2.5985948537617007, 1.6378539916832013, -4.105272193607832, -4.453081984682051, 6.69940104271417, 1.5275769016157852, -5.072293108944031, -0.4357867075581951, 5.423327501287636], [5.874174967309269, 2.2377201924768966, 3.6589831111550306, 0.9607462638702662, -0.6453445493482942, -0.8654094520352731, -0.03537337055573083, -0.6955188283596438, -0.07751493369098711, -6.366460502373571e-05, 0.5439768141539412, 3.9020746222364506], [-5.077773325289315, -2.372964288946749, 1.8470303296546309, -2.939866343083154, -0.6624220954937969, -0.6903849914387475, -2.731130507532968, -2.218405032438192, 0.06859751230385429, -0.6218208343988008, 2.353194315491951, 6.108229446585382], [1.1501397127047648, -1.7464508909204337, 0.7630527613566048, 1.6622449067968987, -1.508942733223073, 0.4183530178483409, 3.931498386814018, 2.8251808959457927, 2.9970993667040817, 2.2154703866680308, 0.42741037834593565, -1.468235119003344], [5.5023603244271735, 1.5568552755493608, -0.9746132983448117, -0.7399455599990397, -1.8158557699332678, 1.2157985454893094, 1.655626256932407, 4.104459355600072, 3.5765765981289546, 6.7028510342916885, 2.0303193661922307, 4.619461895130053], [0.037339090120424065, 1.6746079790403938, -1.349202218792028, 3.9512390461583573, 0.6518695183689474, 5.685124755290193, -1.5211280108616734, 4.008888272741572, -3.5655938738568116, 1.5389878648170403, 2.5849824523800136, -3.71315121371233], [-0.08667636315718986, 0.8880884935550377, 1.7091309070718186, -0.0316795615001471, -0.43143933199184864, 2.390942716909685, 0.04811062899406193, -3.1018365024690135, -1.013365636044402, -2.6863217374727433, 3.8967200199222534, 2.832993652444601], [3.5328679892179906, -0.20683002615237467, 2.797693406416867, -1.2136332507147105, -1.570321113735452, -3.1048586187416025, 3.6992175110874923, -4.5647043696477105, -0.6821862511779329, -0.6556088532761623, -1.9724567857373514, 1.7301870569225724]], "weights_ho": [[-2.4366660575957653, -3.178199560185187, 0.6469334066397123, 2.1564764773443086, 0.5879857278351482, -4.476313853577244, 1.0467896285116178, 2.157690013902533, 7.801740360828591, 1.8992811381751498, -0.6473083273954486, -1.75794378213302, 7.635950664790233, 5.532923637702293, 0.9508091681971323, -2.07962766760666], [3.381038037865385, 0.7411247220380844, 6.685093787509251, -3.31645473201609, -0.3900983199060924, 3.49890019321015, 0.6580495247382422, -0.6443496469103602, -0.2644605030776567, 0.8389601473797976, 7.362235722137724, -8.458553062286862, -6.666400802054037, 0.8530539622470077, 3.186501855246405, -2.805422657540916], [5.567930369536624, 0.6539142082023092, -1.8302835844354628, -0.7475593886053573, 6.054977339795897, 2.29118161576002, -0.4595974625883542, 2.0003109102837158, 3.0160094215449886, -1.063452436709526, -3.9524400868663774, -3.7879757280753994, 5.36003504076503, 0.4965571930104587, 1.5106763303627058, 0.3210500875439839], [0.2818592646908105, 9.002860593804439, -1.087666005093712, -1.291842938175514, -3.6369300114347163, -1.7182516153485832, -6.6866357114178205, -0.35004323309195673, 4.010182693662464, 6.185145522278301, 6.181421388621376, -3.353516153233511, 2.0751848912688073, -2.3048112302973633, -2.8391134659816903, 1.016531914876655]], "bias_h": [[0.9348873868300416], [-2.2227864852600114], [-0.7170082708421045], [-0.7056007621920151], [-1.766984342181639], [-3.4668111610506718], [1.2554559892260544], [5.360907160393453], [-0.5547870177668163], [2.7525503340940425], [6.176894569217783], [0.22056520181945283], [-4.511707223897443], [4.459300044670873], [-2.4209016800910814], [3.242620671938371]], "bias_o": [[0.15790664709762825], [1.5787530833450958], [-0.6633717998073256], [1.1521278431870159]]}, {"input_nodes": 12, "hidden_nodes": 16, "output_nodes": 4, "weights_ih": [[-1.0769348453254393, -2.7892329251888417, -0.14552603904956057, 0.6151679476187494, -2.8693221315095654, 2.155382178568446, -2.9819702317563355, -0.41555455456516033, -0.3117531453642159, 5.284697237484595, -5.194811640148943, 0.7939830304604225], [-0.09694815748897784, 8.452500342578361, -1.3791906549899862, 0.613685822038545, -0.21804298149927503, -0.7567855611469211, 2.335285830291029, 7.065077971469797, 0.6413093283728846, -0.05332874610999906, 2.675919831881602, 7.690185854892798], [-3.4251870854995032, 5.160831930827902, 2.4087740973987826, -2.8541845603086355, -9.092368256862866, 2.0733860897451506, 3.4057585627953375, -2.8596087799248338, -0.13615171336360374, 4.9775196960004555, 5.115598841262059, -1.942305281667206], [-0.11959727041078208, 0.5848936281070566, -5.187975801224853, -1.7399496221331485, 1.0784991019837868, 2.0691551517181, 1.0092023722047703, 1.4259526017459954, 0.5843833463740129, -2.0044080182197757, -2.2586709803964546, 5.36855001594776], [0.10352880438007495, 1.8056650615770313, 6.128749911962325, 2.368630755186982, -5.553524834872341, -3.102554614785052, -2.6515214138409595, 0.3129729084435099, -6.167566610170999, -1.534198333000373, 3.1385978518374644, -0.135578564992746], [-4.3528126193097885, 4.306321528138484, 4.0379997907351175, -2.932413222165045, -2.0307916287673975, 3.04144068877702, 5.239739836973564, -1.477348150786957, 3.8536502041024505, 1.7299717083809512, -6.321755800729268, 0.8168825652835218], [3.846292916977867, -4.635022236172656, -1.3266147212045267, -0.6275142559121103, -3.377883703809741, 4.272534321495376, -2.9218941424734606, 0.7364048525130209, 4.427750583676097, -3.2450338527771394, 0.35214078245374747, -2.9097335602334975], [1.9821932196453438, 1.7444908226307514, -4.95148107131567, -2.107328142020041, 1.301278199119154, 1.816071837396632, -0.7656342479894734, 0.21289860534517718, 1.3957762757702876, 2.159741964955563, 7.58623549658688, 3.9436216365821237], [-0.1605714451924573, 0.417224718094414, -1.7858501181323807, -2.7548464060574376, 1.6023542834573867, -4.0589557541099595, -4.453081984682051, 6.650042894517417, 1.5275769016157852, -5.144575320293885, -0.4357867075581951, 5.380515968780318], [5.774276705174145, 2.1909411423850758, 3.6962453920580467, 1.0086524185368542, -0.6531411924829513, -0.8654094520352731, -0.19360982405471297, -0.6955188283596438, 0.09797361831655377, -6.366460502373571e-05, 0.5439768141539412, 3.9020746222364506], [-4.912350773577453, -2.443743339505809, 1.769599316720001, -2.939866343083154, -0.734853356329457, -0.4911335896689295, -2.731130507532968, -2.218405032438192, 0.1984896723305034, -0.6218208343988008, 2.4446412585338533, 6.108229446585382], [1.113274886352261, -1.6875681797595892, 0.7735176266158401, 1.6482671852552995, -1.508942733223073, 0.5396162796251247, 3.811215537136105, 2.8251808959457927, 3.079140261468816, 2.2782837079769616, 0.5059355901942186, -1.496582627486244], [5.5459889953938415, 1.5127965719551268, -1.07677233325684, -0.7399455599990397, -1.8158557699332678, 1.0005822519229481, 1.590833174512873, 3.9828897085862343, 3.4332276555815646, 6.7028510342916885, 2.0303193661922307, 4.622038001029027], [0.037339090120424065, 1.5124115718590627, -1.4312575350541028, 3.9512390461583573, 0.7269258667403377, 5.685124755290193, -1.5211280108616734, 4.008888272741572, -3.61292934340831, 1.5389878648170403, 2.5849824523800136, -3.71315121371233], [-0.08667636315718986, 0.764071414770767, 1.6880450281293002, 0.07836973638554365, -0.4788198787592692, 2.390942716909685, 0.17891232388626763, -3.1018365024690135, -1.084264116980261, -2.711221832639417, 3.7213854714874586, 2.5382918418267586], [3.355523149444052, -0.2496433968094144, 2.6723782020620415, -1.3349243699875681, -1.5120215025705057, -3.1183555102777847, 3.6992175110874923, -4.621685189669658, -0.708421826147045, -0.6170133934080549, -2.0789047196667703, 1.6444771807601752]], "weights_ho": [[-2.4366660575957653, -3.2716045202773203, 0.6517778343300035, 2.137892315987661, 0.5879857278351482, -4.476313853577244, 1.0313832510375827, 2.082854270477007, 7.801740360828591, 1.8992811381751498, -0.7591876292541438, -1.8361001986925698, 7.635950664790233, 5.598657121983632, 0.9970600929157435, -2.143077390261108], [3.265327639984852, 0.7524441073079207, 6.906471398104082, -3.375391700300207, -0.263245118841711, 3.598709523548497, 0.5288053852687067, -0.6443496469103602, -0.3687723014878822, 0.8389601473797976, 7.321590756808666, -8.614100089509261, -6.6181541985321655, 0.891213422912628, 3.186501855246405, -2.7980365103706797], [5.618262999448689, 0.31917327377513494, -1.8302835844354628, -0.8981384572795625, 6.042398539213087, 2.4147639354817896, -0.5181550536898702, 2.0003109102837158, 3.0918570899697233, -1.0783341368813018, -4.110388976721649, -3.6519427224364933, 5.465460269402117, 0.41506438010046154, 1.4444310967665062, 0.44209234594390623], [0.2818592646908105, 8.941641820056457, -1.179231190978858, -1.3719543203149143, -3.6369300114347163, -1.6048309172747874, -6.427585775183538, -0.35004323309195673, 4.010182693662464, 6.165285204893642, 5.992605724004543, -3.353516153233511, 2.1642713489071066, -2.2527378939144693, -2.7267338387146087, 1.0619885434648675]], "bias_h": [[1.1807831730509022], [-2.2227864852600114], [-0.48024996245979445], [-0.7056007621920151], [-1.6663976700638043], [-3.4119892023829155], [1.3784066334017968], [5.360907160393453], [-0.8014270119849563], [2.821094635627594], [6.092097860290549], [0.17850789427833158], [-4.555533228845121], [4.350995805293455], [-2.413721079104097], [3.2534375728801708]], "bias_o": [[0.048611384896127485], [1.5003132741143954], [-0.6308483555864965], [1.2241590981784354]]}, {"input_nodes": 12, "hidden_nodes": 16, "output_nodes": 4, "weights_ih": [[-1.006370632960083, -2.6752550241812574, -0.1986886960593955, 0.6620218384194503, -2.865696428571858, 2.1017491337787195, -3.0283577269184865, -0.6559921900404907, -0.39116407724091823, 5.182171384173621, -5.131017985782126, 0.7199910446648787], [0.09453343810804975, 8.483965841407002, -1.2747478727131365, 0.4563590757465075, -0.3860626963844471, -0.7603798323214213, 2.2391554228574866, 7.116098008160019, 0.6136999065372623, 0.06956348335668047, 2.740389675512214, 8.047636569939547], [-3.4537582899227366, 5.12877595381459, 2.4255630232817498, -2.8149939564946296, -9.003487461437626, 2.0733860897451506, 3.3279727021083114, -2.7179438941149394, -0.021837573480311484, 4.802010743271977, 5.3373758681147745, -2.108949194814737], [-0.20993917555468428, 0.5392667313006128, -5.238431913541266, -1.8019981858380696, 1.0553512626757153, 1.9478347112560797, 0.7895675986512047, 1.3868210038418347, 0.5588322713834621, -1.8826210307038485, -2.2586709803964546, 5.38147143880772], [0.14688441257120202, 1.7492641893298524, 6.029994136356859, 2.2415665867846237, -5.463093475252784, -3.1087966233116435, -2.7817809542436565, 0.176849189595975, -6.128455910485731, -1.4455776413228958, 3.127353699160257, -0.13985823251733415], [-4.290329240067312, 4.4157880963549605, 4.0304469977192845, -2.9513104424867267, -2.0442777805722043, 3.2412263023852157, 5.185445164237296, -1.2127769841979066, 3.835310498081662, 1.7909810534241142, -6.399015002251366, 0.8126404969435566], [3.641977946947369, -4.689489810813079, -1.2373367033168372, -0.5207292720896282, -3.185204654270108, 4.331077307053636, -3.108939534132329, 0.8973319874730152, 4.399405602424709, -3.2872995023528375, 0.3420361892653076, -2.8937636820444443], [2.242476130641301, 1.905583409988695, -5.006164058432207, -2.1002990571828577, 1.1456181477129737, 1.6702675478944589, -0.7766100617455476, 0.08832783580357627, 1.3718454741636315, 2.2262386904068756, 7.576041780272961, 3.9713145941363712], [-0.24729148439698317, 0.30633546786484583, -1.7416151608946653, -2.5969061596089142, 1.4911253740207924, -4.112921149140298, -4.469976526873629, 6.717828512829324, 1.537903305230456, -5.110223817376542, -0.5404622694399406, 5.431740643321195], [5.931863771053852, 2.4010580138993785, 3.737094727069333, 1.0069813603423987, -0.6902971361007108, -0.7790652904507362, -0.05472422250926822, -0.6941945192409773, -0.04161569310970459, 0.0072744994992748, 0.4847489285092353, 3.8827415269266363], [-5.17011511467917, -2.388005948245727, 1.7908914440261603, -2.9425604465031716, -0.657972902928671, -0.730161032899751, -2.589892498201642, -2.1949919558865263, 0.15323743589788186, -0.629636894213176, 2.471907329638579, 6.097542247073109], [1.0097259786725379, -1.5681145751294108, 0.8214961344167558, 1.662744685589117, -1.5383727866821135, 0.4756727411326089, 4.202442981052414, 2.715557629350149, 3.0287811983661515, 2.2512746042947374, 0.4729889906323401, -1.5123593959896189], [5.698709669250735, 1.5266209493897809, -1.157873009427532, -0.45613035180656225, -1.8891605266108522, 1.1359251126697518, 1.6531603761111922, 4.130274394510939, 3.603140699791077, 6.564555020655598, 1.8660929629313348, 4.623944917875547], [0.10586783982277179, 1.577903496025205, -1.2642744085553663, 3.798096145125167, 0.6780924340415285, 5.618713970728155, -1.45136347836644, 3.996911370860518, -3.3158516388908694, 1.5389878648170403, 2.5402112950753946, -3.631449684816876], [-0.28526934816531646, 0.8563468121876635, 1.6888384296210195, 0.1552381113661771, -0.3848786988556021, 2.4382580091238144, 0.005140038164082442, -3.1755547007795597, -1.0274529436495392, -2.6730013179558365, 3.9923387155102503, 2.6661550612216716], [3.588728852072958, -0.1378478395882642, 2.647647146853677, -1.4061816652404222, -1.6257548492983416, -3.144306553583779, 3.8130182948511777, -4.412558408980938, -0.6162573142015131, -0.435137576470146, -1.932249474193867, 1.632944379525797]], "weights_ho": [[-2.384514224959794, -3.5348732680537043, 0.6255147643970562, 2.0957649219214023, 0.5625524475840356, -4.459777990455727, 1.0283483371656685, 2.14100347302537, 7.798095423690191, 1.9091278498098725, -0.691888818504846, -1.7279842080135064, 7.558376302314564, 5.48457546631545, 1.130480912555588, -2.105310948062985], [3.3329563788853576, 0.7456412706767418, 6.676343817458973, -3.650864223463024, -0.3900983199060924, 3.852656031000689, 0.5459949577166969, -0.665400158967029, -0.2757553315040432, 0.9853308612323918, 7.344781725544278, -8.69367832392906, -6.518843798464719, 0.7204561219187672, 3.1458843431523635, -2.6757783390070715], [5.567930369536624, 0.5033938510710918, -1.9610926468388683, -0.909298712366712, 6.012326195730056, 2.4063535888943197, -0.47591073711614384, 1.8246634552489631, 2.939309450577411, -1.1229025570868256, -4.0181306670883234, -3.7531341279722836, 5.452007323724573, 0.5928910905087388, 1.4610994954953787, 0.4320671962927504], [0.3031610412674703, 8.951044494275571, -1.3558224234389415, -1.3396564842223189, -3.7033768206570823, -1.8340679190404707, -6.7369898485821045, -0.3543527252007259, 3.8594703175695995, 6.053242229136704, 6.052326642626383, -3.4369266696368257, 2.1825228056082113, -2.2132385491793114, -2.7172385290730814, 1.1904888482324125]], "bias_h": [[1.041079957914549], [-2.276646486405598], [-0.4365319368096898], [-0.8179932421299654], [-1.9054195135730263], [-3.349892328570763], [1.1513204794766034], [5.3410622047395035], [-0.5416060887530871], [2.8177018054202545], [6.141680982689786], [0.11532925059933263], [-4.47308450362654], [4.344325731154848], [-2.355234278438757], [3.241608501556368]], "bias_o": [[-0.010260949315898004], [1.865358011419647], [-0.37553335135422916], [1.1052718437277327]]}, {"input_nodes": 12, "hidden_nodes": 16, "output_nodes": 4, "weights_ih": [[-1.0827271600510802, -2.8411591052854246, -0.2271768429773151, 0.809479256886217, -2.865696428571858, 2.323357697039135, -2.857513377168832, -0.47409780343089347, -0.3055821549760619, 5.238811928076299, -5.229426113147882, 0.5097906182239769], [0.055732042530410905, 8.47351138884329, -1.2821281003379208, 0.4437529010451319, -0.2638978472865833, -0.7567855611469211, 2.3721413617950247, 7.060954367918118, 0.6056969195740969, -0.03488565274393446, 2.6414998468913837, 7.864846250885093], [-3.3741087164616372, 5.175074960839606, 2.3538455817288355, -2.8541845603086355, -8.98942957515405, 2.0733860897451506, 3.4057585627953375, -2.631797595104095, -0.16078422175993445, 5.239453893728215, 5.347003192782503, -2.057879806049113], [-0.26913507895889865, 0.4534666788501694, -4.960562346913065, -1.7540340273972994, 1.1410983821874705, 2.0985738529096616, 0.8912336198264532, 1.5230668681353112, 0.6792274346988147, -1.896081760003982, -2.2586709803964546, 5.263768435443546], [0.13066467020387357, 1.6705302930848263, 5.935661095071116, 2.3364849596562305, -5.553524834872341, -3.0144201397677124, -2.854339856874218, 0.13628564130854065, -6.167566610170999, -1.359491948592976, 3.1385978518374644, 0.00800720323189294], [-4.120874633944873, 4.416848093491699, 4.153709695772132, -2.932413222165045, -2.093283868020693, 3.3341424536406006, 5.09302286179463, -1.2127769841979066, 3.8536502041024505, 1.5642603467255176, -6.300959814388635, 0.7689594759306833], [3.651806058138651, -4.736982403257974, -1.2295458720490196, -0.5178229707225559, -3.4671272591890454, 4.327339748869483, -3.007493160418351, 0.8719028684763136, 4.195574631470802, -3.2619540453806026, 0.35214078245374747, -2.693973424120101], [2.220619732758335, 1.8423501500347366, -5.01013667873111, -1.9488174920276402, 1.2396105985839045, 1.816071837396632, -0.7770831345005265, -0.06481981482384055, 1.5005536124418841, 2.339041342493779, 7.721113748200989, 3.9175527407838096], [-0.3235581715931127, 0.3225149847712453, -1.6774615658995164, -2.5604452099723822, 1.5105813656898044, -4.0876788617783575, -4.477494598098533, 6.69940104271417, 1.496029674708719, -5.053490516310079, -0.4519904349823005, 5.350159296291786], [5.758033085997142, 2.378649676555092, 3.7820143189450857, 0.9827530016264376, -0.6461938546558393, -0.8379706106014674, -0.08625104323599636, -0.821460800779914, 0.10258856036115854, 0.08862026317631094, 0.5058504401508278, 3.8918357310219163], [-5.075080861095328, -2.544001952179225, 1.9048026871138026, -2.771273775616021, -0.734853356329457, -0.7760468768681951, -2.6921035104525277, -2.0772178931582266, 0.014468995155884803, -0.5950317603041179, 2.403159988345613, 6.098609601853141], [1.0309376871962768, -1.546827268658554, 0.919764070874923, 1.7307653816421498, -1.5383727866821135, 0.31606837206467747, 3.9878670725169574, 2.7327194692366934, 3.044103154360262, 2.0330729512957286, 0.42466403456457896, -1.5123593959896189], [5.671062520760003, 1.4638158031071327, -1.1064464707223283, -0.6989915836873661, -1.8290725660790632, 1.0910247472757881, 1.6607142307447127, 4.172657974916261, 3.7331199619682853, 6.74247330227144, 1.9360986485307659, 4.534702600253927], [0.2015521340770102, 1.5361874879861783, -1.2809521012177896, 3.8088103655186543, 0.590235469979209, 5.663552316212002, -1.48332753157563, 3.997299028577628, -3.5182152179432014, 1.5389878648170403, 2.536205444647597, -3.5510014661782168], [-0.21724653551606038, 0.832068437622582, 1.7272080935943737, 0.17088135360948134, -0.37752318728606227, 2.416260739205878, 0.12447218780458486, -3.1311124721487738, -1.013365636044402, -2.7223487003587126, 3.8964663028196322, 2.7169205247337045], [3.2656581710995516, -0.2456889109097115, 2.6987802893559762, -0.995632198157771, -1.6684058992084505, -3.1047453133463825, 3.7666596058573143, -4.56358067071916, -0.6127583324957703, -0.674919878079435, -1.96415958812444, 1.6353945327915467]], "weights_ho": [[-2.5168272855721145, -3.3709347033960113, 0.6353014406585733, 2.130401962549884, 0.606892249999984, -4.4971539765780415, 1.0364841622793328, 2.2642979061934105, 7.757559131839765, 1.912226936224772, -0.6876341517610915, -1.622197558556671, 7.579086605561954, 5.577083232340964, 0.9710980152656827, -2.1598090995620582], [3.1884847995365715, 0.7666379554968288, 6.6121044188852425, -3.4148773514935264, -0.3439112559815769, 3.598709523548497, 0.6580495247382422, -0.510928497460291, -0.2097955629477089, 0.8281222834555378, 7.348178222029849, -8.497362998760446, -6.560536186282015, 0.8530539622470077, 3.077285535522016, -2.7558119300902884], [5.6288850601423, 0.48835423958453167, -1.8790839419694672, -0.937934628608987, 6.114596888586647, 2.316867919194517, -0.5396382505108047, 2.0003109102837158, 2.9781600694351638, -1.2468948275760487, -4.0874162775925305, -3.7531341279722836, 5.443521644344215, 0.4965571930104587, 1.4159873115817125, 0.43293238728967454], [0.335887480109548, 8.811973530995369, -1.142823234832886, -1.5839931379298922, -3.676898577944397, -1.7267992273208204, -6.6317133165598445, -0.17410558020216743, 3.9761266690095844, 6.1698629134200385, 6.043495928906249, -3.353516153233511, 2.1354326789606652, -2.2132385491793114, -2.7190955276071964, 1.0808889734189084]], "bias_h": [[0.9261229666604713], [-2.2249905758196693], [-0.49470801683893223], [-0.6798131788519921], [-1.8846964120544092], [-3.35381584658309], [1.2039474297511872], [5.360907160393453], [-0.4861630564082693], [2.723026576611965], [6.176894569217783], [0.040204402067011924], [-4.942444868923507], [4.40022585152464], [-2.4525010194542647], [3.231708360244604]], "bias_o": [[0.12208308166396009], [1.7574613532452996], [-0.6047014778466682], [1.2602078618587242]]}, {"input_nodes": 12, "hidden_nodes": 16, "output_nodes": 4, "weights_ih": [[-1.1362435510051223, -2.8421175062592097, -0.22266437572219855, 0.6004758732901567, -2.8576623118407394, 2.0270260526150414, -2.8236028932020782, -0.6005811713008157, -0.44085684411218673, 5.148866271399161, -5.12195694472347, 0.908032529161927], [0.08539663200750089, 8.508485702700463, -1.4060967415197858, 0.3590295337731095, -0.35139076122718726, -0.9558686860272724, 2.453743236826917, 7.073123931534358, 0.644308243439438, -0.00454115192074591, 2.671758636423174, 7.795364674649069], [-3.3741087164616372, 5.132127349529536, 2.4087740973987826, -2.8541845603086355, -8.997135444802883, 2.0733860897451506, 3.330010454283291, -2.9086194967382437, -0.10438607193603441, 4.925992410447998, 5.3376402093383915, -2.031148858745085], [-0.26913507895889865, 0.5221382151793246, -5.230487643956433, -1.8019981858380696, 1.0784991019837868, 2.0130851309249223, 0.8914726020703445, 1.417283035538424, 0.6679215040301518, -1.9630869395791388, -2.2586709803964546, 5.315397943460634], [0.07479641163096919, 1.7556115978799693, 6.029994136356859, 2.3500906362089724, -5.528251946368049, -3.13174726310101, -2.698588976227552, 0.26919444342716475, -6.184664509566948, -1.534198333000373, 3.127353699160257, -0.14195313889094865], [-4.330916704798623, 4.4157880963549605, 4.046207023421595, -2.938226746272915, -2.1028799573652552, 3.282467623052896, 5.239739836973564, -1.1977321497936761, 3.8849756903186603, 1.6607323831900638, -6.444124003222101, 0.8117311465188989], [3.641977946947369, -4.616503919654153, -1.21107572819869, -0.6871005762234741, -3.3415016268919655, 4.32762696065039, -2.837606389472037, 0.8421431655147442, 4.409518798408161, -3.3137928513469235, 0.30985794782450704, -2.5908516356382063], [1.992335622952524, 2.0111747591637443, -4.97881019827234, -1.9830858349670066, 1.1456181477129737, 1.747366270614876, -0.8076642407138109, 0.09913581596730309, 1.457482687544268, 2.204991196458545, 7.704938636791536, 4.06889930272683], [-0.13166131379687018, 0.31889529542421635, -1.717433746603268, -2.627552627811928, 1.4322706684806845, -3.979029052242472, -4.49186172965184, 6.717828512829324, 1.5331266941945525, -5.212854346261188, -0.426237699437837, 5.425394417395717], [5.809437498042138, 2.3414912778712895, 3.886730611288688, 1.0086524185368542, -0.5684975751082983, -0.7784691383787576, -0.03092112706563791, -0.6941945192409773, 0.0160733436907556, -0.10568250389435596, 0.6420238037597655, 3.9056702876006613], [-5.215911725651475, -2.478380556165052, 1.6624059455234437, -2.9690393716912187, -0.713348204090759, -0.793043277939364, -2.731130507532968, -2.4364899863887555, 0.2090101836463198, -0.5950317603041179, 2.403159988345613, 6.10716209180535], [1.1039132576434116, -1.780931369987788, 1.0510736704665393, 1.712306561599233, -1.5383727866821135, 0.5704367608638273, 3.8147710777084733, 2.86626821957551, 2.9966375251124937, 2.2485352413169952, 0.35307265043620867, -1.496582627486244], [5.606596189813996, 1.6490474440801015, -1.099106256979958, -0.6340214000545337, -1.9010602206560705, 1.2157985454893094, 1.6676866813877602, 4.064262968396384, 3.5765765981289546, 6.74247330227144, 2.0303551067587384, 4.629762577896421], [0.10586783982277179, 1.7122022099138605, -1.5469616020568095, 3.8507694041094735, 0.7118690273806749, 5.708928045728984, -1.4701653298555621, 3.890933962811733, -3.477165523498951, 1.4739882882271487, 2.536205444647597, -3.7062187480842486], [-0.1788009423582973, 0.8880884935550377, 1.5886539037407594, 0.11481223626835528, -0.416363494690102, 2.5188027298338094, 0.13330053139519663, -3.1462787310998, -1.0852789542086232, -2.7223487003587126, 3.9417455453593027, 2.7546071661217675], [3.3840467972318433, -0.18906154223185856, 2.7223320692384743, -1.211152510769212, -1.5187502452719157, -3.131408963517501, 3.6992175110874923, -4.600091807265002, -0.610166797270305, -0.5381508643135885, -1.96415958812444, 1.6305286635744953]], "weights_ho": [[-2.3022997659853313, -3.2716045202773203, 0.8849331307697927, 2.137892315987661, 0.5625524475840356, -4.329133422835217, 1.0905135276725806, 1.9966043251840113, 7.751440261466299, 1.8551804498965156, -0.6230505903046285, -1.7279842080135064, 7.526768367972876, 5.609997221802262, 1.0847576748221508, -2.151389453081841], [3.202132346806038, 0.6066106741159454, 6.73728565408331, -3.405464241677884, -0.3900983199060924, 3.6981476687895793, 0.5478672248953332, -0.6361284595613174, -0.31663254804018137, 0.6893338296178381, 7.321590756808666, -8.504557596961625, -6.518406299363825, 0.943986698377443, 3.1504762877099335, -2.739724962354905], [5.567930369536624, 0.46596144562750497, -1.8823915008889751, -0.9350196350436106, 6.115029799767148, 2.516875617682654, -0.5026061739155667, 2.063455632529766, 2.9901049474525623, -1.0594831076882172, -3.9041638614372087, -3.961147730082027, 5.452007323724573, 0.5035892193046135, 1.472739699559947, 0.38702975299321757], [0.2491328258487328, 9.063718089530163, -1.0916677846456306, -1.5539079200632049, -3.663408254147402, -1.7182516153485832, -6.602684087498908, -0.35004323309195673, 3.9253093125054095, 6.177425204219334, 6.09055112832173, -3.353516153233511, 2.1417022857878165, -2.279960705875675, -2.8303445841791306, 1.0546534895467223]], "bias_h": [[1.0065823445892241], [-2.19517743109114], [-0.48024996245979445], [-0.8652002458265047], [-1.8260754592490367], [-3.452632345133096], [1.1832368914499927], [5.311393930265885], [-0.5547870177668163], [2.777445805492798], [6.442721839828272], [0.3189965356238757], [-4.661026161320275], [4.300275270309312], [-2.3469967162892647], [3.2735293108060253]], "bias_o": [[0.029742639684852107], [1.7064589291062462], [-0.6825078552377115], [1.3103332183571792]]}, {"input_nodes": 12, "hidden_nodes": 16, "output_nodes": 4, "weights_ih": [[-0.9907455874590563, -2.72620969625729, -0.23623162565119987, 0.7804334042607455, -2.779952356317064, 2.088284945657761, -3.1904451807079557, -0.5624690595637412, -0.3517272697454851, 5.148866271399161, -5.102970255423093, 0.7538456221449885], [-0.03605559680046652, 8.443430418457833, -1.4060967415197858, 0.43288069032060517, -0.3019939756922239, -0.7603798323214213, 2.3247142415732966, 7.0543130594347705, 0.64931231533605, 0.034012295646426334, 2.675919831881602, 7.69490011026939], [-3.2900987954476446, 5.126196227684716, 2.4087740973987826, -2.8149939564946296, -9.033152009692214, 2.0793406041591527, 3.0532084764574186, -2.8052929914494964, -0.18363079408419938, 4.9775196960004555, 5.3017773653362585, -2.1151931610583676], [-0.26913507895889865, 0.5267447652227112, -5.256964066740571, -1.787913780573919, 1.0133137157736787, 2.0940911206595727, 0.7663464244959144, 1.4679947066185064, 0.7467656365432621, -1.8948288426698476, -2.2950332189194436, 5.391633257551303], [0.003832124220522648, 1.7630904678909503, 6.029994136356859, 2.4315371096194793, -5.572941864900564, -3.129316912208308, -2.8287253677778055, 0.3202883282224178, -6.017573335214965, -1.7272902493903726, 3.10186441993006, -0.08557844918058513], [-4.430470317973178, 4.317100063586846, 4.235973213618952, -2.9513104424867267, -2.0565857405990484, 3.192579641695766, 5.354013681526281, -1.3079529336891564, 3.7070673596157064, 1.6891312453890774, -6.541899120864837, 0.9575407356183615], [3.653300638069518, -4.587529643727761, -1.3281887990122754, -0.5207292720896282, -3.285234926247849, 4.359662979148443, -3.0233405161874387, 0.8179786067265434, 4.498966141042526, -3.2572652036474286, 0.3065340950596239, -2.781640182673498], [2.2688560214992046, 1.8452655423616617, -4.926934911746425, -2.1639593340997996, 1.2159899540103498, 1.6461531296364298, -0.8697222398392104, 0.0008043068075979654, 1.4018676765498768, 2.2262386904068756, 7.549857697587799, 4.0141091261444615], [-0.282501559723557, 0.29440173597403446, -1.7416151608946653, -2.5969061596089142, 1.5919702979601837, -4.173744542018111, -4.348092681269398, 6.717828512829324, 1.5694505321375223, -5.188733744696265, -0.4357867075581951, 5.461639242416352], [5.911878447152077, 2.2802715216575375, 3.761763555552433, 1.0537312247020063, -0.39353122535036783, -0.9164808481273116, 0.04116119319579761, -0.6312692197577883, -0.005705898953788979, 0.009099236776738885, 0.4985895977289588, 3.9020746222364506], [-5.142929388063999, -2.410057020267154, 1.8470303296546309, -2.8978247034862683, -0.5845312485538726, -0.730161032899751, -2.731130507532968, -2.1062232690321734, 0.2090101836463198, -0.6025692898912405, 2.4446412585338533, 6.051913758583048], [1.0738831129702004, -1.616617952229874, 0.6379597722739039, 1.5474397716911867, -1.4406765158625598, 0.624460211805428, 3.954077375626282, 2.864768900698612, 2.880543090601787, 2.246078966183383, 0.45186415995766094, -1.496582627486244], [5.570890810550232, 1.5330788662353096, -1.0818393042797347, -0.6916474121553746, -1.8759437304650568, 1.1607286385613893, 1.5968537936191298, 4.104459355600072, 3.55557496000949, 6.8315977277891715, 1.928439409212289, 4.465100264882286], [0.037339090120424065, 1.5541275798980894, -1.3851836490436704, 3.94052482576487, 0.7665173982153745, 5.7231556490259985, -1.4891639576524833, 4.12321646572137, -3.4374033152640324, 1.5389878648170403, 2.756188997320238, -3.71315121371233], [0.03446110408527081, 1.0433886184548435, 1.6397429183796144, -0.06537689679896978, -0.4257514113658926, 2.412939986827621, 0.13330053139519663, -3.1462787310998, -0.9736884118141628, -2.7206990783582206, 3.9749139196664944, 2.8207303585679795], [3.475674717400781, -0.21603195234173994, 2.638343284644653, -1.2142461540919682, -1.3624478162412372, -3.1472057146203705, 3.6030102712177636, -4.570174742977075, -0.6136657789760478, -0.5762680245643736, -1.9839500602327698, 1.6420270274944255]], "weights_ho": [[-2.4149072915786443, -3.2716045202773203, 0.7507417476888028, 2.1810019279103905, 0.5625524475840356, -4.601989014456599, 1.0386538033979535, 2.157690013902533, 7.732933525803147, 1.7830086619116252, -0.838388613998807, -1.7450780877952248, 7.56647597816572, 5.533012446170503, 1.0931808828881004, -2.0251295161075866], [3.1311498969406535, 0.82548815209958, 6.717801470444773, -3.325197900792009, -0.3900983199060924, 3.7465658342006716, 0.527560880231935, -0.6292129073829735, -0.5757190996231593, 1.0629381365066735, 7.290275761976808, -8.42669734853321, -6.518843798464719, 0.8543806540949509, 3.177197040623135, -2.761162058310304], [5.567930369536624, 0.43641860013601735, -1.650475394010417, -0.9865181467400898, 6.221862919095493, 2.443625829358046, -0.34513617467546265, 1.9961293925797194, 2.842865301191815, -1.1806898430037638, -3.9313756475571706, -3.739625023783541, 5.526506635602093, 0.5193787556771073, 1.5335787161174537, 0.4883520176377587], [0.2491328258487328, 9.109924418208228, -1.197378791650239, -1.3337597058865156, -3.663408254147402, -1.7651010815037187, -6.5633571602083975, -0.34052133126715134, 4.010182693662464, 6.187973025614543, 6.031746546536105, -3.4920112448034417, 2.093018020370713, -2.301423762453224, -2.8331560527745094, 1.058933206407364]], "bias_h": [[1.03477141293211], [-2.215899786885576], [-0.5314710568907968], [-0.8981698517537628], [-1.7000571775871798], [-3.474608729380156], [1.2028290389514706], [5.3410622047395035], [-0.5159852803441568], [2.777445805492798], [6.176894569217783], [0.31145473884672886], [-4.509913770569859], [4.20981141669119], [-2.348317326040015], [3.2747115182311313]], "bias_o": [[0.048611384896127485], [1.8279776906430447], [-0.5596701279200857], [1.2326638118678326]]}, {"input_nodes": 12, "hidden_nodes": 16, "output_nodes": 4, "weights_ih": [[-1.0397715921111668, -2.8421175062592097, -0.20815234254859866, 0.6004758732901567, -2.9628785134254314, 2.0725865867187467, -3.044088128405137, -0.6005811713008157, -0.27233336230612054, 5.287817689056494, -5.12195694472347, 0.7939830304604225], [-0.004953692537754843, 8.452500342578361, -1.3374306884315739, 0.583986820166641, -0.2804195248400273, -0.7567855611469211, 2.1707228564935774, 7.0543130594347705, 0.644308243439438, 0.07803012320360467, 2.725994105404833, 7.784615419107596], [-3.436364066739101, 5.132127349529536, 2.4087740973987826, -2.83729623629522, -8.90894236431139, 2.255102072748051, 3.330010454283291, -2.8291538410998087, -0.22399897768388055, 5.0049845007789395, 5.3084481268617445, -2.031148858745085], [-0.3491523302666496, 0.6121240798574392, -5.202671706627022, -1.8019981858380696, 1.0784991019837868, 2.2866137977850656, 0.8914726020703445, 1.417283035538424, 0.6383266826233702, -2.0559075464986365, -2.2586709803964546, 5.38119501214827], [0.003832124220522648, 1.7628470194997865, 5.940517610161646, 2.3045014289527557, -5.734570173097563, -3.2040522619031107, -2.7817809542436565, 0.29594375157210506, -6.15374794310792, -1.534198333000373, 3.127353699160257, -0.135578564992746], [-4.257269513949183, 4.4157880963549605, 4.227621901637957, -2.9570517708104243, -2.0628988020108636, 3.2007434952765172, 5.239739836973564, -1.3276935850205736, 3.8849756903186603, 1.7059760109827282, -6.360832290014876, 0.8117311465188989], [3.705627300424675, -4.623965197360131, -1.1406053917218535, -0.5207292720896282, -3.3217071761404404, 4.338968658837246, -3.007493160418351, 0.8421431655147442, 4.374340695926942, -3.231919746675194, 0.09885177121610506, -2.782249723262561], [2.242476130641301, 1.7888673571653113, -4.927506472268084, -2.110658503462681, 1.1456181477129737, 1.8566896973086644, -0.8076642407138109, 0.06062230413670941, 1.3864296025189073, 2.146576625848781, 7.677392623559446, 4.0221595312723295], [-0.24599520931749205, 0.24249118493320548, -1.7416151608946653, -2.7541019299475193, 1.5242296625936773, -4.0207086383659725, -4.259155813156337, 6.76765511150344, 1.373709914908619, -5.163467480184577, -0.426237699437837, 5.425394417395717], [6.063186844442774, 2.3454250055227046, 3.886730611288688, 1.0086524185368542, -0.482046152873397, -0.9229542540584164, -0.34472288169462184, -0.7791684528089184, -0.015623475468996742, -0.0018884018824878218, 0.5217324308670819, 3.8718575499694357], [-5.100189745251285, -2.4359316765625687, 1.7908914440261603, -3.0839527816056767, -0.713348204090759, -0.8347095005238989, -2.731130507532968, -2.0379089477729844, 0.2090101836463198, -0.6947205952608654, 2.4027575472191187, 6.039951683131085], [1.06918227016051, -1.672928025617623, 1.0507157633418995, 1.6508773748580696, -1.5383727866821135, 0.5285732742617607, 3.931498386814018, 2.8843274224446347, 2.9966375251124937, 2.2730783304111064, 0.49241408028335676, -1.496582627486244], [5.709325483606202, 1.5941093246825113, -1.1524652462232798, -0.6340214000545337, -1.8041438992424323, 1.2157985454893094, 1.6527371332702234, 4.184689441424212, 3.6292185047847427, 6.74247330227144, 2.0303551067587384, 4.526019768135127], [0.10586783982277179, 1.5541275798980894, -1.3069786164097126, 3.94052482576487, 0.7118690273806749, 5.708928045728984, -1.5503524846197745, 4.008500615024461, -3.4784339351598463, 1.4876953481987194, 2.536205444647597, -3.7062187480842486], [-0.16647038468913505, 0.75678503451759, 1.5900846212396826, 0.35780790366616033, -0.416363494690102, 2.4730354354103365, 0.13330053139519663, -3.1341725752174963, -1.2020546745363596, -2.5672029635650784, 3.9417455453593027, 2.7546071661217675], [3.4240422856449166, -0.18906154223185856, 2.7223320692384743, -1.2531708293694848, -1.4228424647208495, -3.291235250975303, 3.6456351869966808, -4.689369878946464, -0.610166797270305, -0.5427079606205629, -1.96415958812444, 1.6420270274944255]], "weights_ho": [[-2.4833735576657436, -3.2716045202773203, 0.6517778343300035, 2.035679721748793, 0.5625524475840356, -4.351926621671878, 1.0467896285116178, 2.1398988109757404, 7.9258314929383085, 1.9681181372438552, -0.7757589982270356, -1.7279842080135064, 7.520788220487081, 5.608835193482746, 1.191725275419018, -2.0684820872323946], [3.1689913741860427, 0.7709981747569008, 6.73728565408331, -3.3007417821379073, -0.4750677868067557, 3.803464155827414, 0.6879968182704995, -0.7005230939586145, -0.41584083018067325, 0.8823134352559714, 7.334813250229999, -8.528461673721665, -6.7130176190476485, 0.8530539622470077, 3.0911121312015024, -2.8277604453078866], [5.567930369536624, 0.40528030082083705, -1.8823915008889751, -0.937934628608987, 5.951855880500881, 2.408524438551807, -0.5026061739155667, 2.031931641624467, 2.9901049474525623, -1.1229025570868256, -3.952382706713732, -3.8261876707985323, 5.548005596556463, 0.5193787556771073, 1.543697766210605, 0.43293238728967454], [0.11987821690517014, 8.946726762975327, -1.0030548310919323, -1.3719543203149143, -3.7677214701397954, -1.7182516153485832, -6.6624396553876695, -0.35004323309195673, 4.027937309063844, 6.165285204893642, 6.09055112832173, -3.4847579272019957, 2.206952756722021, -2.3952830919019665, -2.7835769697023163, 1.0661208797316561]], "bias_h": [[1.0017169431710196], [-2.1628937137451674], [-0.48024996245979445], [-0.9484860385979201], [-1.7110128523463817], [-3.452632345133096], [1.1808402745585533], [5.3410622047395035], [-0.5262726843383747], [2.777445805492798], [6.213405136217868], [0.3189965356238757], [-4.792826398634215], [4.0878778080021565], [-2.4117428519722], [3.323725983428626]], "bias_o": [[-0.03363188375834503], [1.7064589291062462], [-0.6317578585648533], [1.2241590981784354]]}, {"input_nodes": 12, "hidden_nodes": 16, "output_nodes": 4, "weights_ih": [[-0.9751205419580294, -2.970201791558956, -0.17757474210046087, 0.5389299081608632, -2.6757586564907894, 2.157183420335046, -3.1233529580688093, -0.5803238907295253, -0.28438445892066994, 5.118881989479766, -5.112895903664814, 0.8278376079405323], [-0.06563942760592059, 8.394983050178839, -1.4499715045916524, 0.3961349292097416, -0.3437570162591487, -0.7567855611469211, 2.243070666927147, 6.983359137169989, 0.7034859082878872, -0.03707076178720849, 2.6297195079347273, 7.494043870126729], [-3.2086024656124073, 5.061004407311244, 2.4985455633039426, -2.8541845603086355, -9.168887935314416, 2.0733860897451506, 3.3734263122320947, -2.847677542196214, -0.16505074867523323, 5.089813238709825, 5.070346026597239, -1.9602462511416596], [-0.26913507895889865, 0.5331262059235082, -5.2437368056061295, -1.7930479002175232, 1.0158998217801032, 2.0985738529096616, 0.8855453912789623, 1.3721366983922327, 0.7596631516834655, -1.8765949900754715, -2.2586709803964546, 5.399820428295183], [0.02245241660297431, 1.7271904754154086, 6.043322069383052, 2.420336279197788, -5.572941864900564, -3.3278542599188445, -2.784710458854301, 0.4244023737703176, -6.084808790892242, -1.5108023438965734, 3.1968702139968173, -0.16686780729452122], [-4.431396684133537, 4.396457218873196, 4.071919730325087, -2.938226746272915, -2.0628988020108636, 3.233820962363446, 5.397509276025079, -1.3241199685379956, 3.8849756903186603, 1.8241415463848036, -6.386738047811044, 0.8671373348152092], [3.641977946947369, -4.514543752568835, -1.3297337144748371, -0.4442400862061919, -3.360905486092888, 4.464888934175321, -2.9218941424734606, 0.7576670136790166, 4.483540448454, -3.201885447969785, 0.30985794782450704, -2.684684129169306], [2.08264158374655, 1.7489845058482585, -4.890544274962597, -2.089141978132029, 1.2159899540103498, 1.7084746988480382, -0.9405860688658016, 0.2890825031316764, 1.3617762308707326, 2.2473627697653713, 7.725762574735867, 3.947877045010472], [-0.25155380646851616, 0.28203900815317096, -1.9202651754861797, -2.664823741685807, 1.6485293254447078, -3.9919855306975744, -4.431486350963828, 6.658903335530435, 1.4737412404115295, 